-0.0646466 -2.37707 4.0197 -0.949683 -3.5698 -4.42282 3.03536 -1.79884 -4.60282 
-1.1144 0.279638 3.89367 1.23927 3.08748 2.45979 3.81743 4.68515 -2.08457 
-2.3617 -1.99517 1.57858 -2.35679 -0.0672345 4.23104 0.967767 1.57221 -4.85771 
-3.84122 2.97814 2.52307 -1.59484 -0.975561 -1.77941 -3.18666 -2.60594 3.35855 
4.19037 -3.65786 0.152496 -3.35275 -0.874855 -2.399 -4.63162 0.680732 -4.37785 
4.79057 4.02793 0.590672 4.50213 -0.108812 2.331 3.97399 -3.13049 4.35123 
0.215325 -0.146461 -3.20587 0.702214 3.19793 2.52973 -2.51157 1.2581 -1.23792 
-0.851081 -4.19254 4.59359 -1.29273 -2.05102 0.316661 -4.52312 -4.56545 4.24166 
-1.23661 0.482539 -4.60627 -4.17601 -1.63414 4.15998 -0.193741 1.91891 3.79298 
-0.316781 -0.866788 2.41434 0.348085 -4.68142 -2.08221 2.5809 4.78112 -0.412715 
3.40412 1.0456 1.49839 -2.47251 -2.25258 -0.231723 4.97612 -2.79894 3.66711 
-0.993142 1.97052 0.690234 -4.79464 -4.29463 1.08854 -3.07181 -4.73775 -2.10491 
-0.819108 -3.13345 -2.46452 3.66907 4.12282 4.85731 4.98239 -2.76963 1.96927 
-1.25835 -0.726494 -4.70928 3.3907 2.68724 0.230026 -4.32272 0.349937 -3.50404 
-3.2346 0.0731586 3.23533 4.13222 -4.18395 2.51938 -3.83034 -4.7795 2.7389 
-3.85471 3.51621 4.75743 -2.74656 3.76189 -1.06409 -4.69603 4.54236 0.920211 
1.19588 0.0563046 -1.34341 3.26572 0.624264 0.519682 2.72543 4.14534 -2.45946 
-2.67389 -1.49222 1.09481 -0.700199 4.36446 0.513064 0.706537 0.517258 4.83659 
-3.45654 -1.21363 -4.38094 -4.44784 -1.69674 2.10683 1.04037 2.0096 0.904685 
-2.94405 4.50499 -2.75338 -0.00535834 -3.09891 -0.793609 1.38162 -1.5958 0.122191 
4.02553 4.75721 -4.86343 2.80903 -2.4902 0.236816 -4.31996 -0.703249 -0.344083 
-1.25944 -4.03079 3.64992 1.00046 -2.50239 3.56465 -2.77563 3.03864 -3.54727 
-1.41511 2.95564 -4.63357 -4.09638 0.44123 2.18638 -0.603526 -1.27703 -3.29456 
-4.21364 3.33556 2.53686 0.293118 -1.0825 1.53337 -4.65032 3.19315 0.454439 
-2.42874 4.72649 -1.25335 -3.16532 3.46536 -1.89661 4.55918 2.24284 -1.76134 
1.39497 -3.24475 1.55542 -1.79861 -4.33449 4.88317 -4.30151 -4.42835 0.91111 
-3.99539 0.161416 -2.9345 -3.08121 -2.65307 -3.39269 -4.90359 -3.58496 3.49754 
-2.01238 -4.16824 2.69804 -1.44134 -1.39219 -0.0902411 2.68158 -0.696877 2.24186 
-2.19237 -2.09994 -3.21214 -3.39627 4.78422 2.66025 2.85652 2.92253 -0.87769 
-3.43357 -0.478005 1.3525 -4.42358 1.01834 -2.47984 1.86918 -4.26197 1.42794 
1.82499 1.78765 -3.78596 0.0405723 3.90486 -1.06367 -3.91871 0.128212 3.67689 
0.839381 -4.30936 2.06008 -4.95586 -4.65476 0.463405 -4.72315 -1.86272 -1.79135 
4.04194 -0.619351 -1.56997 -2.45055 4.51764 -2.44063 2.31407 -4.46453 -0.675697 
4.54579 -2.68947 4.82193 1.48597 -3.62481 -0.598335 -4.62996 -2.74917 -2.75611 
2.24807 0.44096 -2.19043 -4.76535 -3.38343 -4.2358 -2.78012 -4.42905 2.31747 
4.26828 -3.27958 -2.67874 -4.01914 -1.67713 0.618056 -2.51562 3.66205 1.92062 
-0.821385 4.0938 3.40194 -2.40233 -4.68325 -4.47912 4.41666 -3.20674 -0.260091 
-4.03025 1.80614 2.68928 4.63139 -0.084482 -3.69019 1.86427 -1.24122 -4.8203 
3.97345 -0.480527 -2.96238 -0.306613 1.31362 -4.3343 4.25839 4.6103 -4.94683 
0.922921 -0.33812 -2.05214 2.01138 -0.109444 1.44167 4.33307 -4.7348 -2.37848 
0.110847 -2.29418 3.35857 4.02787 -1.06886 0.230565 0.633584 -4.16534 -4.85731 
-1.7529 4.2659 1.10247 -3.47648 1.90312 -3.71879 1.35603 1.27083 4.96239 
-0.770267 1.8303 -2.64773 4.48108 -3.20419 1.04147 -3.01598 -2.74818 3.316 
1.5869 0.989844 0.201415 3.94627 2.43098 0.306168 -2.0176 1.87895 -1.30965 
4.89177 4.3152 -4.82305 -2.64374 2.67124 -2.31009 3.70978 1.69042 -2.12613 
2.35038 -2.53067 3.88866 -2.72268 -1.93192 4.62447 -1.96075 -1.82068 -0.319155 
2.46035 0.946673 3.49796 1.99734 -4.18202 1.46813 -1.10788 4.56643 3.86191 
-0.440224 1.2856 -3.72589 2.13518 1.62026 0.631855 -3.71219 -1.92848 1.2666 
1.196 -4.78366 0.431151 2.80958 1.46668 -4.70871 -0.688359 3.274 1.80219 
4.58315 -4.43617 2.05891 -2.46096 -2.64776 0.322534 -4.12911 -1.92058 -2.071 
-0.763978 2.40528 2.50643 -0.866384 1.48979 4.16027 -1.76739 -4.37926 -1.67658 
-2.86186 -2.44323 -3.34254 3.77933 -2.7255 2.68766 -3.14449 -2.70487 -2.68883 
2.26354 -3.02117 -1.91313 3.88129 4.24379 3.18464 -0.195216 -2.11606 2.20895 
2.42362 -0.778723 3.72898 0.242419 -1.99755 2.29421 -2.27486 0.588641 -2.4031 
-4.49446 -0.658452 -3.42216 4.77617 -2.54292 -0.714771 -0.151762 -1.58614 -3.39679 
-0.644908 -1.23075 2.16855 4.89206 1.022 -1.14516 -2.49223 4.47683 1.31108 
-1.37851 4.81456 -0.122714 3.33188 1.77059 2.7352 2.21218 -0.911123 2.19844 
-4.44643 2.51919 -2.59636 -1.49017 3.77239 4.69074 3.53418 -4.06536 -1.76589 
2.95912 -4.62145 1.44848 3.19345 1.30911 1.93167 -2.70757 -2.73739 -0.723584 
-0.481818 2.51337 2.7169 4.41673 -1.20086 1.77153 2.20413 -4.99205 2.2907 
-2.10912 -2.6501 0.534327 -1.34541 2.65486 3.52124 0.664133 3.95081 -0.0796664 
-2.85361 -2.82478 0.0315129 0.335852 -4.48055 3.85822 2.19063 1.18013 4.98138 
-3.26032 -4.63263 4.29201 3.19384 2.94633 2.32491 -4.68343 4.45525 2.84625 
0.709809 3.96789 0.156507 -4.34411 2.05457 -4.01083 -1.65912 -1.08052 4.59777 
4.16773 -4.22571 1.35186 3.14228 1.03032 4.81656 2.67017 -2.6313 1.58932 
-1.48227 -4.41466 2.07695 -2.05848 -4.12841 -3.965 0.226028 4.24201 4.53518 
-0.908511 3.0599 4.63327 2.17139 -1.3905 -0.999735 -2.19696 3.62673 4.21918 
-3.70541 1.29937 -1.33665 3.31934 -1.23582 1.48976 -4.60797 4.7007 -4.96083 
3.15639 3.36733 4.00564 4.14676 3.67844 1.39329 4.42679 2.27502 -0.971159 
-4.01692 2.88456 -2.28729 1.15585 4.22481 -3.23059 -4.56468 1.46783 4.41542 
-4.61319 -4.08941 2.77028 3.80088 -3.03285 -4.94757 -1.00631 3.15696 -2.88026 
-2.37403 -2.3933 3.81099 0.235307 -4.1383 2.31933 0.423363 1.13257 3.92316 
-1.43005 3.52098 -0.188679 0.871426 0.632495 -3.88423 0.140106 -0.49697 -0.753794 
1.01448 -4.10457 -2.88629 1.71468 -4.09249 0.896321 -2.5857 2.56598 1.84207 
-3.24641 -4.16505 1.82953 -1.35287 -4.72344 -4.58566 -4.14662 -3.64178 4.08846 
-2.6445 3.21241 -3.35149 -3.38295 1.83341 -0.432996 -1.73149 -4.42272 -1.35034 
-1.25521 -0.9419 3.0073 -2.06387 -0.554248 0.832304 3.1407 0.456822 -3.59515 
3.42245 0.874108 -3.84275 3.06043 -4.37141 -2.76743 -3.09746 1.4794 -2.86977 
0.154711 -2.90836 -1.1216 -4.68829 -1.99167 1.26289 -0.723872 4.22692 -3.23829 
-4.74298 -0.359567 1.38773 -1.37495 3.50871 4.28865 2.39284 -4.77216 0.74192 
1.0854 -2.86691 3.83682 2.72049 1.73591 -3.6521 -4.1465 -4.6261 1.63395 
-2.79155 3.68871 4.09853 4.04953 -1.04375 2.7595 2.14773 2.89552 3.46596 
4.79741 -3.53478 4.0033 2.72976 -4.42309 4.93079 -0.701092 -3.62698 -1.23457 
-3.88375 1.90869 3.13639 -0.560015 3.87186 -0.00747388 -2.84549 3.50779 -2.06978 
3.42083 0.999133 -3.43499 -0.992422 1.32246 -0.670707 1.3168 -3.9013 -2.44231 
-2.77051 2.68469 -1.42019 -1.98526 2.42427 -0.301609 3.79662 1.73907 1.57114 
-1.86129 3.12601 -1.24865 4.20681 2.69592 -0.125599 -3.34618 -4.62959 -2.02369 
2.31257 -4.34062 3.17086 -0.851321 -3.33409 0.128076 -2.87675 -0.690013 0.369798 
0.266599 0.304888 3.33435 0.432479 3.24142 0.963928 -0.546531 3.40663 3.04825 
-4.27905 4.63769 -1.10082 3.24228 2.15177 4.89283 -4.73325 2.70493 2.86266 
-0.226985 -1.45085 -3.15257 3.66548 -0.719013 -2.04019 1.62398 -1.82447 1.67986 
1.28939 4.60178 3.66133 -0.665083 -4.58364 3.48763 2.16079 3.14811 3.14707 
2.68723 -1.2485 -3.98628 -4.35939 1.95658 -1.48873 0.604776 2.56262 0.490564 
-4.48818 4.86283 2.25468 3.67587 4.21823 -2.01332 0.596269 -3.23876 2.19063 
3.98844 -4.12109 2.70262 -2.98858 -1.2555 -1.7027 -2.48199 -0.622677 4.45743 
3.72713 -1.30108 -1.12421 -3.69505 -4.84933 1.30617 -1.4664 1.41144 1.68557 
3.01729 -1.69224 0.839363 0.0729355 1.65013 -1.27072 4.00126 2.67083 2.19675 
-4.3932 -2.82246 -0.837541 3.35884 1.26483 -1.59744 -3.75029 -0.0599868 -1.95796 
2.14904 2.37373 3.43192 4.92281 2.8353 -2.56167 -2.70499 0.405604 2.63867 
-4.72248 2.70512 -1.32472 2.55472 2.72028 -2.34667 1.54532 -1.90235 2.84405 

