-0.0430297 
0 
-2 
0 
1 
2 
-1 
0 
1 
0 
1 
0 
-1 
2 
0 
-2 
1 
2 
-1 
1 
1.23954 
-1 
2 
1 
0 
0 
2 
0 
1 
-1 
2 
2 
2 
-2 
0 
1 
-2 
-1 
-2 
1 
-0.683807 
-2 
-1 
0 
2 
0 
-2 
0 
0 
-2 
0 
2 
1 
2 
-2 
-1 
1 
1 
0 
0 
0.202126 
-2 
0 
-1 
-2 
1 
0 
-2 
0 
2 
-1 
2 
1 
1 
1 
0 
-2 
-1 
-2 
-1 
-0.219555 
1 
2 
-1 
1 
0 
2 
2 
1 
2 
-1 
-1 
1 
0 
-1 
2 
1 
0 
0 
0 
0.578164 
1 
1 
-1 
1 
1 
1 
0 
-1 
-1 
1 
-2 
-1 
1 
-1 
-1 
-2 
2 
-1 
-2 
-1.52086 
1 
-2 
0 
0 
2 
-1 
-2 
0 
-1 
1 
0 
-1 
0 
-2 
-2 
2 
-1 
-2 
-2 
-0.0718053 
-1 
2 
2 
1 
0 
0 
0 
1 
1 
0 
0 
-1 
2 
1 
1 
0 
1 
1 
-1 
1.88426 
-1 
0 
1 
-1 
-1 
-2 
2 
-2 
-2 
1 
2 
1 
0 
2 
0 
1 
1 
1 
-2 
0.768008 
-2 
1 
1 
-1 
1 
0 
-2 
1 
-2 
0 
2 
0 
2 
-2 
-1 
1 
1 
1 
-2 
1.8752 
-2 
2 
2 
2 
-2 
2 
1 
2 
-1 
2 
0 
2 
0 
-1 
1 
-1 
1 
0 
-1 
1.2352 
1 
0 
0 
-1 
2 
0 
-2 
-2 
0 
-2 
-1 
2 
-1 
-1 
-2 
2 
0 
0 
0 
1.58657 
-2 
2 
-1 
1 
1 
1 
1 
2 
2 
1 
-2 
-1 
1 
-1 
1 
2 
2 
-2 
-2 
0.0651128 
-1 
-2 
2 
-1 
-2 
1 
2 
2 
-2 
1 
-1 
0 
-2 
-1 
1 
2 
0 
0 
-2 
-1.08238 
-2 
0 
-2 
0 
2 
-2 
2 
-2 
-1 
-2 
-1 
2 
1 
-2 
1 
1 
-2 
2 
-1 
0.105108 
-2 
0 
-2 
0 
2 
2 
-2 
1 
-2 
1 
-1 
-2 
2 
1 
-2 
1 
-1 
-2 
0 
-0.909653 
0 
-2 
0 
-2 
1 
-2 
0 
-2 
0 
-2 
2 
-1 
-1 
1 
-2 
-2 
-2 
-2 
0 
1.5329 
-1 
0 
0 
0 
-1 
-2 
-2 
2 
2 
2 
-2 
2 
-1 
-2 
-2 
-1 
1 
0 
0 
2.48125 
-1 
-2 
-2 
-2 
-2 
-2 
-2 
-1 
-1 
0 
-1 
2 
2 
0 
2 
1 
-1 
-2 
-2 
-1.25498 
0 
2 
0 
0 
1 
-1 
0 
1 
2 
1 
2 
2 
-2 
1 
-1 
-2 
1 
1 
-1 

