4.41792 7.75424 -5.95365 -8.43773 -10.8254 3.19726 3.60445 -12.0574 10.934 -13.5618 
-10.5356 -10.0455 3.94138 8.43952 -3.57465 9.36004 13.8058 -7.13391 2.01036 -11.4675 
5.73429 5.88312 12.0335 13.5046 5.90111 1.47175 10.0508 1.85622 5.60941 7.45939 
9.02175 -8.19857 12.3136 8.23078 1.82051 -10.815 -8.78504 -6.98392 -8.63169 -3.0206 
0.627545 7.72919 2.76403 -13.5888 11.6322 10.4593 -8.82761 3.32102 -1.57648 -6.13102 
-5.26676 -10.667 -6.63435 12.005 12.0806 -2.59378 10.6011 12.8999 -3.79602 1.88803 
-9.48448 8.94683 12.5825 -13.5331 11.098 4.66406 1.61501 -13.0286 10.5811 8.61991 
13.96 3.93802 7.61984 5.97998 2.02391 7.36283 2.00563 1.71247 -8.36884 12.4159 
-12.8483 0.190169 -10.0342 0.932759 5.99641 -8.4928 4.52101 -6.07377 -0.324665 -5.76167 
13.5642 6.5495 -13.6362 -13.1095 13.1085 0.351845 -9.79723 9.74733 -4.23352 0.670193 
11.1993 7.09519 -11.1259 -10.7186 12.0201 12.1154 -5.0858 10.1734 10.9305 -2.09101 
0.814209 -8.89209 -12.2972 10.6852 -13.5986 13.2534 12.5621 -6.84666 -2.71765 3.89393 
-3.73678 -2.30413 -3.02919 10.3893 11.6828 -1.22421 -11.885 -0.516044 3.36698 10.4989 
5.01728 -4.81408 4.96272 -2.77809 2.95197 -13.038 4.8898 7.89943 -6.73463 -3.73973 
-5.85429 -6.51659 1.2707 -13.7892 -10.8787 -2.718 -13.1474 -9.33755 7.91371 13.1879 
-11.8778 -0.952824 11.2898 8.65082 8.18229 -9.04849 -3.71612 -11.6667 -7.00614 5.05362 
-8.20902 -3.35041 13.2244 7.2914 -13.7558 -5.58965 -13.0447 -7.39655 -8.66891 -0.609145 
0.854238 12.5348 3.70735 7.47255 13.5208 13.3865 -2.66828 13.4928 2.99136 0.789508 
8.3937 4.80761 -6.45941 -8.61832 0.494507 10.202 11.6189 -6.32365 -9.54701 -3.38044 
-12.4153 2.31571 -7.045 12.8662 -0.436515 -9.82012 -9.88197 2.33114 -8.79679 8.5002 
-8.50832 -3.29249 -6.21003 5.17702 -5.89467 9.10325 8.05324 8.54947 -2.49319 3.84724 
7.41813 13.9422 -9.94926 11.8996 -13.6449 12.4241 -1.57332 3.24104 -9.50819 -9.22497 
-13.4106 -0.998255 -3.95758 5.02924 12.3093 -13.2696 4.88533 11.3666 -2.96864 6.46668 
-12.4234 4.50129 -6.3028 -9.76504 -4.55951 -10.9341 9.13184 -3.15086 -9.119 2.77288 
-3.62555 4.12694 9.18932 0.399596 -7.00989 0.821051 7.06906 8.597 -11.9961 5.25512 
-1.80118 -10.5115 3.75066 10.3204 0.290782 -3.89016 -3.90385 -13.0402 13.2791 1.51133 
-8.33351 0.351714 -0.00594236 5.74742 7.27377 -10.0325 4.80257 -2.95106 -3.51765 0.136691 
-3.28681 -3.93774 8.90547 -4.68285 13.9261 10.3513 -8.11043 -2.98024 8.85168 -11.8734 
-9.97079 -12.1885 -6.56431 -8.27535 -12.758 0.853991 4.069 5.58766 -11.2058 9.65281 
12.9907 5.13516 5.57464 11.8529 -7.27019 7.67286 13.3332 11.3071 9.21259 7.71435 
-10.8866 -4.69973 11.0731 -2.88426 -1.98374 -4.45936 4.65685 11.9731 -7.25196 -5.95339 
5.66915 -7.6466 11.2119 -13.3567 4.40767 9.90056 -2.99935 -9.69921 9.45828 1.11415 
-0.743078 -13.6709 -9.24652 -7.90097 -11.5627 -5.02373 -7.85066 -13.7004 -4.05765 -9.17626 
-1.43094 -8.08655 -11.661 5.08152 -3.2918 8.01626 1.31184 0.864559 3.22116 -3.37083 
-0.430215 -6.66497 0.226249 -9.94161 1.62841 1.21229 11.8396 -2.42949 4.66211 11.3245 
-8.97903 9.50848 -2.17843 -0.454036 9.65585 -12.7137 0.535774 -6.29724 -9.10104 -8.97414 
-12.9754 5.83835 0.539343 13.1337 12.3464 10.7619 -9.91822 12.7161 11.8133 10.6309 
-12.6511 5.96429 7.21186 -6.95125 3.13018 10.1444 8.92653 -11.6605 -5.05672 6.77596 
-3.22522 -11.2049 -3.51681 11.3309 13.0116 9.98058 5.65229 -3.64935 0.119134 7.62533 
3.43419 4.66069 -7.49238 1.25485 9.57969 0.345249 -10.2629 11.6381 -6.64898 -3.74216 
9.81896 5.56613 8.8355 13.9732 -6.05755 5.53653 -5.77932 13.5754 2.25026 2.40142 
11.6704 -1.59017 -12.084 -13.3956 -13.4125 -5.49368 6.32483 7.57445 7.72406 -9.57705 
-3.22646 5.332 -9.90714 1.57556 -5.0631 -2.93931 -5.22616 -7.02208 -12.3361 -10.7137 
8.48616 -4.59256 8.21903 2.16219 -7.58715 11.4076 -2.79838 -2.11085 6.36202 -2.32572 
-4.82893 8.62465 8.93018 -4.45208 7.5472 4.27399 1.90605 -0.82077 11.4544 -11.6482 
11.8129 6.60088 -10.7223 -11.3273 1.99726 10.4889 -9.45733 13.9637 -11.8489 7.11929 
-11.004 8.96583 8.40305 10.5898 12.4415 4.07198 -4.46426 4.41606 10.364 10.5563 
-3.67755 6.32589 -2.15871 -5.51082 3.91556 8.14598 4.45421 -4.14889 -8.80693 5.81884 
-1.19996 3.5315 4.95675 -8.7486 -13.743 -8.29113 -6.01614 8.67225 -4.68134 5.26269 
-2.43533 -0.304138 0.470692 6.96818 12.0161 -9.70863 -3.4405 13.2374 -8.32636 -10.3767 
3.36769 -9.93157 -12.4638 0.277614 2.54576 -5.56593 1.96207 3.56425 1.41036 -10.6799 
8.85617 -12.4448 -11.7373 8.53548 -10.2823 9.04088 0.427853 10.6232 13.1996 13.1476 
10.9927 -3.72232 -5.79807 -7.80747 8.85693 -12.0132 4.2913 10.0461 4.15344 -5.80085 
-10.3294 -11.8628 6.66002 12.9129 10.9525 -3.09685 -7.60682 -7.75501 -2.54179 -0.398326 
-0.393931 -1.66313 3.70768 9.56873 -1.44045 -12.3586 4.69705 -2.26566 8.0312 8.66799 
0.204496 7.42277 -11.8421 -7.45275 -7.89388 -7.64605 9.9988 10.4901 -0.210901 -10.9627 
-12.8807 -12.6082 7.83409 -0.33384 12.3743 6.93378 9.2095 1.70096 2.17456 -10.6651 
-3.91754 8.276 -6.38372 0.67018 10.3451 13.9882 7.76557 -4.73228 -12.7271 -4.0491 
-2.77927 -5.89918 2.08119 -6.12345 5.0699 5.7448 -3.68988 -1.54929 10.4255 -12.5156 
-5.0951 -6.32163 4.57905 6.69351 3.36387 -6.93828 4.79456 -9.62951 6.76396 -1.49995 
-2.74309 -1.95221 -12.6491 -0.674053 -3.42696 10.4606 -2.8752 -8.77903 7.63462 4.35283 
-1.14229 -1.02778 -5.20715 12.9073 10.6758 12.3053 -3.35105 6.88421 13.1907 4.95756 
6.77395 -5.2185 -4.87088 -1.42446 11.4364 -8.50804 12.014 7.57343 -10.2388 2.96969 
6.67271 1.25041 10.0686 -9.4274 7.16183 5.25213 -0.776047 -6.46135 3.35348 -7.54593 
-5.71338 11.7221 7.613 -10.4069 -5.5753 6.91463 2.91464 8.50781 -10.0645 -11.7945 
-11.6101 -13.0326 12.1108 7.86876 13.9427 4.19361 4.50031 -5.40432 9.60058 6.55943 
-0.427773 -12.4053 -9.45118 -11.6313 12.9755 9.72405 -5.48767 -11.6556 4.44078 13.374 
12.5786 -9.25203 -0.745963 -1.32553 1.80698 -3.34777 4.33328 12.5016 7.26694 -13.4143 
-11.1346 -13.8216 -13.7567 2.693 -2.19447 -12.2594 8.89937 12.2064 1.8327 -13.4796 
7.59725 1.60335 -9.86009 -8.77711 6.85659 1.42621 6.68719 -9.67126 8.37444 12.956 
-3.26327 11.8162 -0.858872 13.4931 6.96681 0.649546 -8.84312 -5.68326 12.2725 -3.3663 
11.7841 -10.1268 3.0406 -13.8374 -0.61947 11.0999 -10.3002 5.10476 -0.659025 12.2135 
-8.26671 -6.80479 -1.68639 -5.98371 -13.9226 -9.76386 -3.34581 -4.80694 8.56838 12.1281 
13.7777 6.17988 -7.06613 -6.95114 -3.27672 -6.52671 -12.7008 -5.34091 -11.8983 -13.6609 
12.5041 -6.60093 -2.7953 4.6834 -9.65728 -12.254 8.87911 -3.60311 3.22758 -0.754861 
-11.923 10.5103 -0.634573 4.53473 6.94254 -10.0327 -5.0104 -6.84721 -11.6837 -1.59773 
-5.34959 -13.2148 -3.52777 -12.1526 -2.86808 -4.66282 -2.05645 9.05833 -0.335599 8.58557 
-3.2807 -10.2404 -1.60708 -3.8461 -3.91412 0.123549 -5.78007 0.55998 -4.30879 10.4513 
5.64806 0.508857 -5.18403 10.2914 1.21433 6.52771 8.85607 -6.80852 -3.77605 4.51157 
-5.56093 0.803761 -4.38184 2.00537 -7.23685 0.55691 11.0202 -3.25201 -13.3688 8.18966 
-13.9619 11.5782 8.29126 -2.7621 12.7599 -8.88223 13.6644 -10.0224 9.0162 -0.609265 
-7.57259 4.30292 -5.75146 3.80046 -10.2969 -13.7565 -11.3428 13.9778 8.13294 4.19124 
5.11124 -4.01032 6.89149 4.93638 -12.4313 -1.44524 9.24053 2.42526 3.81419 0.430419 
-11.9579 -8.09595 0.838845 -8.80221 1.97975 9.21314 10.6603 2.47583 -5.38918 7.3259 
-8.91637 12.9913 -11.4893 3.84882 7.13171 -6.28404 -2.48424 -7.23331 -7.25282 -1.2969 
-9.02346 -0.306303 3.26578 7.67044 3.16613 2.51608 -3.02983 -2.34567 11.5146 -8.20964 
7.57892 -5.05509 1.94173 -4.8692 6.12048 -11.112 3.16099 -9.3791 -6.0259 -2.41638 
5.97416 -6.68722 4.59813 0.0595959 -0.944723 -9.12029 -6.11583 11.707 -13.7066 2.58806 
7.29714 6.53886 11.6656 9.58962 -9.9484 -3.02235 4.77451 -3.50399 -10.1334 -6.16754 
-10.3814 12.0688 10.9908 -7.1617 -8.66341 4.35325 -10.7563 -0.612083 9.0168 -6.3924 
13.1698 4.58936 9.85673 -5.51519 4.33888 -2.2964 2.81468 3.58819 4.56603 12.967 
-2.80826 -6.28171 9.53776 11.1859 11.0038 -1.3411 -4.91026 10.5587 6.26341 -8.86275 
-6.58541 -7.12592 12.0094 -2.69765 -3.03692 -5.46618 9.22127 9.84664 10.0385 7.16618 
4.40905 -6.23972 -8.82946 10.654 1.61262 3.08967 -4.6355 2.94107 -4.57936 -8.24237 
-11.3866 11.6842 -0.541797 8.92934 -0.731603 -7.45803 2.67768 -2.38443 2.05375 -10.5823 
-4.37374 11.7601 -3.20948 -13.1547 -5.96009 -4.45441 -6.76666 13.8912 -13.1536 -1.5754 
-8.97605 -2.24667 -11.616 -1.54398 8.43673 -7.43619 -9.90835 -8.61449 -10.8322 13.0167 
-7.76453 0.534303 7.88916 7.0642 -6.68762 -13.7638 4.45919 12.7694 9.42997 -13.8866 
13.7218 5.18293 0.239375 3.14674 -9.26666 -8.21229 -5.97142 -11.2617 5.88906 13.0417 
5.37114 -6.76814 9.99327 12.1225 -2.72951 -7.94553 2.17414 8.25596 9.60914 -4.22696 
-3.3155 13.1384 1.24747 10.1294 2.04571 11.9296 -1.6262 -7.69354 4.07918 -4.52312 
-2.42417 3.37121 7.92024 -5.04865 9.42899 3.08213 -7.2924 -13.7699 12.7109 -3.12112 
13.8588 -8.53818 10.6581 -10.0885 -0.692015 0.853148 11.1343 -11.6499 -9.11715 -4.77364 
13.0984 9.64581 4.55497 -1.52824 5.99441 3.48334 10.8956 2.97073 4.55578 5.12419 
-13.1269 0.313603 -11.7405 -9.61609 10.7645 10.3503 -0.255413 12.9789 -4.13622 4.30428 
-0.937149 3.17086 -9.31365 0.878094 -2.29872 11.681 -0.302104 5.84952 -3.25366 4.35861 
-6.97147 5.71972 5.27938 7.67976 4.51148 1.45804 -12.4808 4.45234 -7.96179 -7.40528 
10.0456 4.86675 -7.57459 6.69247 5.22272 -8.24378 -5.47004 5.35198 -10.0474 4.44596 
-6.90665 -2.63536 -9.22117 -12.4326 2.76799 3.79801 -2.75808 12.3158 11.8057 -8.48435 
11.3515 -13.6512 9.14836 5.0631 0.880857 -5.48307 8.74106 -2.93777 -9.47424 -4.89168 
12.5655 -3.72274 6.26544 13.5819 -10.1401 -3.20129 10.6593 -6.97726 6.81976 10.2014 
5.02548 7.55286 -13.8356 -8.56756 13.4813 -9.32064 0.498801 0.344674 3.9778 4.83695 
7.95203 -1.66913 -13.4023 -11.5689 -7.34445 2.3922 10.5603 13.1232 -13.9859 0.0153457 
6.81154 -3.25038 0.977254 4.03481 -0.113816 6.35557 -4.63074 -12.1392 11.1834 -0.021809 
8.27721 13.9426 -12.1614 -8.53061 -6.5845 0.546427 -11.0678 10.5292 -2.08472 7.58811 
8.02667 5.85794 -1.93985 0.21741 -12.0216 -8.96109 0.958348 7.9698 -4.79773 -12.4285 
-2.32029 3.04169 5.92855 2.7034 -8.69418 1.62847 0.383478 -10.4501 -2.2305 -12.0246 
-8.72577 -7.34914 6.67722 2.81287 7.75741 0.994997 2.07694 -9.12062 -5.25228 2.06964 
6.63613 -7.68406 -3.63775 13.2564 -4.77356 13.4854 -4.53551 8.03357 13.2389 -5.0795 
4.93109 9.20939 12.4955 -8.01016 -9.2244 7.03395 0.909452 5.93208 -3.46498 8.39981 
13.4822 3.26791 8.42093 4.29477 8.13854 -5.40915 -11.2033 -3.20445 5.48694 -0.544397 
-13.0452 -13.4262 9.92542 -13.3602 13.3204 -3.99272 -8.7433 -5.83619 -13.868 -9.29566 
-3.16453 -8.31832 11.383 -3.02214 -6.292 7.74887 3.74374 5.95914 8.08006 -5.99171 
12.7789 13.2643 -9.69726 10.8808 9.1918 -7.37163 0.871046 4.49831 -12.959 -10.0336 
11.8668 7.78015 11.0891 -7.39269 -4.05522 -7.82003 13.2732 2.76481 -10.0923 1.70516 
8.30585 2.95022 -7.0289 2.53895 -0.817514 -9.65676 0.925345 11.6019 13.096 9.27042 
-8.49838 7.50792 12.0224 6.53907 -6.46025 6.77337 -5.02319 -0.134459 3.70694 -6.91144 
10.6819 12.4674 7.85581 7.81825 3.58265 -0.332607 -2.90206 -3.04994 -2.81767 2.54217 
-5.21543 4.42527 -0.862747 13.9243 -4.93741 -9.41565 9.59679 -5.11695 8.60808 -12.5568 
-0.931323 -0.5716 8.61706 8.48965 -6.85012 0.66005 13.6537 -1.38774 8.81608 -6.53644 
-3.16431 2.35949 13.0629 -10.2221 5.41601 -6.73613 -5.79436 10.1854 1.89228 -9.16079 
-11.7864 -12.7669 -7.8181 12.3906 -5.81745 -0.75198 0.348638 -2.75195 -8.59258 9.30532 

