-2.00331 1.99797 -2.00432 0.999277 -0.00101414 -1.00152 1.99707 1.99779 1.99864 -0.999808 2.00058 -2.00005 -1.99988 7.21157e-05 2.00013 -3.74225e-05 -2.00016 -0.000124185 2.00031 -1.00034 1.00025 -2.78966e-06 2.27263e-06 0.000455665 -2 -0.99966 2.00077 1.00019 -0.000742716 -2.00261 -2.00273 1.99747 -0.00250147 -2.00195 0.994974 1.9998 1.99923 0.998414 1.99709 1.99828 0.999163 -1.99871 0.00136299 0.000995645 1.00131 -1.99863 2.00149 1.00066 -0.999774 2.00043 1.0006 0.000338452 -1.99982 1.99906 1.00007 -0.999154 -0.999351 1.0004 1.00028 1.9996 -0.000980286 -0.00235832 0.997196 -2.00206 -1.00204 -2.00212 -2.00464 -0.000920069 0.999509 -0.00167156 1.99841 -0.00111319 -1.0009 1.0004 -0.998805 -1.99843 -1.99744 2.00224 0.00163508 -0.998679 -1.99895 -1.99903 1.00108 2.00141 1.00124 1.99981 -2.00006 -0.999891 0.0003369 -1.99975 0.000180757 -0.999981 -2.00032 0.998368 -1.00232 1.99828 -0.00216759 -2.00153 -0.00439507 1.0008 2.00103 -0.000743055 -2.00071 -1.00019 0.000230367 -1.99915 -1.99856 1.00043 2.00048 1.00155 -1.99871 1.00251 -1.99738 1.0019 1.00199 1.00259 -1.9978 -0.998808 0.99975 0.000182484 -1.99948 -0.999562 -0.998913 2.00091 -1.99975 0.998278 -2.00266 1.99727 0.996272 -1.00256 -1.00387 -1.99495 1.00492 2.00436 -0.994574 -1.99379 -1.99344 0.0067585 -1.9944 2.0056 0.00703813 -1.99039 -1.99276 -1.99359 2.00642 -1.99321 -0.993332 -0.993139 -1.99437 2.00538 0.0037722 2.00325 2.00458 -1.99572 -1.99632 -1.99537 -1.99737 1.99868 1.99737 0.997149 1.99557 -0.00496478 -1.00337 -1.99386 2.00689 2.0062 2.00451 0.00515499 1.00624 0.00693768 1.00916 -0.991237 -0.991897 1.00879 1.00872 0.00698811 -0.994399 -1.99394 -0.994306 1.00525 -0.994921 1.00652 0.00542191 -1.99579 0.00668238 -1.99371 0.00486041 0.00574345 -0.995509 -2.00173 -2.00321 -2.00311 1.99631 1.99459 0.996699 2.00614 -1.9936 0.00635215 -1.99468 1.00712 2.00897 1.00796 2.00968 -0.989575 -0.991133 0.00672558 0.00755821 0.0068449 1.00462 2.00518 -1.99422 2.00694 0.00618582 -0.993828 -1.99482 2.00506 -1.99655 -0.994935 2.00576 -1.99304 -0.994658 -0.00136239 -1.0029 -1.00278 0.996294 -1.00521 -2.00339 0.00561278 -1.99217 -1.99332 -1.9929 -1.98956 -0.988387 0.00992236 1.00874 1.00874 -1.99313 -0.995174 -1.9952 1.00658 0.00659741 -1.99444 -0.993846 0.00730402 2.00687 -1.99405 2.00613 -1.99338 2.00383 1.00433 0.00586638 -1.99418 -0.995978 -0.00223531 1.99687 -0.00294648 -0.00427329 -2.00534 1.99697 1.00662 0.0099764 2.00828 2.0083 -1.99152 2.00946 1.00909 -0.992365 0.00730944 -1.99264 1.00594 0.00673752 -0.991685 2.00718 -1.99445 0.0059465 -0.992531 1.00771 0.0055326 -1.9948 0.00415767 0.00550354 0.00611154 -1.99465 2.00447 1.00312 -0.00262019 0.995904 1.99653 -0.00372233 -0.00445275 -1.00233 -0.991841 -1.99024 -1.9913 -1.99405 2.00629 -0.99133 -1.99213 2.00601 1.00736 -1.99189 0.00769438 1.007 1.00762 2.00701 -0.992949 2.00617 -0.99305 -0.990852 -1.98999 2.00809 -1.99393 2.00396 0.00557526 2.0033 0.00475377 1.00256 -2.00325 -0.00412935 1.99697 1.99686 -1.00413 1.99819 -1.99272 -0.992278 2.00687 0.00581318 -0.994047 -1.9924 -1.99244 -1.99311 1.00729 -1.99271 -0.991986 -0.993064 -1.99369 2.00717 2.00782 -0.992817 -1.99379 1.00634 -0.993128 -1.98978 -1.99282 1.00571 -0.995283 1.00446 1.00543 0.0040445 0.996987 -0.00330717 1.99716 -2.00281 0.995369 1.99668 1.0056 1.00731 2.00682 0.00583208 0.00645263 0.00703683 -1.99384 0.00572446 1.00654 0.00684437 2.00765 0.00760359 2.00695 1.00709 -0.991931 2.00759 -0.993343 -1.99438 1.00566 0.012157 1.01075 2.00577 -0.995335 -0.995317 2.00488 2.00502 -0.00129697 1.99676 1.99716 -0.00399156 -0.00532349 0.99625 1.00528 -1.99337 0.00689868 1.00645 1.00654 -0.992795 2.00643 2.00467 -0.994604 -1.99386 -1.99277 1.00676 2.0057 0.00640834 -0.992153 1.00741 1.00697 1.00624 2.00722 -1.99097 -0.986515 0.0100159 1.00616 2.00434 1.00589 0.00712274 -1.00115 -1.00326 1.99712 -2.00344 -0.00527413 1.99632 -1.9936 1.00754 -0.993109 0.00647817 -1.99286 2.00763 2.00674 0.00461638 2.00447 -1.99495 0.00706881 1.00638 -0.994377 0.00515915 -0.993515 -1.99277 1.00757 2.00793 -1.99223 -0.992313 -0.99073 -0.985786 0.0110296 0.00656147 -0.994923 -0.994211 0.998636 -1.00316 0.996999 -1.00241 -1.00378 -1.00284 2.00666 0.0076597 -1.99297 0.00668017 2.00768 2.0077 -1.99363 1.00465 -0.994833 0.00501569 1.00563 -1.99456 1.00528 2.00516 2.00603 1.00722 0.00739686 -0.991768 0.00858328 1.00878 2.00728 2.0101 0.0114449 0.00614557 -0.993602 -1.99555 -2.00205 0.996996 -1.00278 -1.00246 1.99647 -0.00177119 1.00698 2.00733 2.0072 -1.99462 -1.99383 0.00673702 -1.99326 -0.994931 -0.995695 -1.99556 -1.99443 0.00589116 -1.99376 0.00505219 -1.99456 -0.993125 2.00774 2.0082 2.00846 -1.99257 1.00644 -1.99128 2.00911 -1.99352 2.00709 0.00701358 0.998513 -1.00267 0.998361 -2.00209 -0.00343802 -0.00134738 2.00761 -1.99289 -0.993637 -1.99505 0.00549907 -0.994103 1.00562 0.00417758 2.00317 2.00404 0.00514869 2.00547 -0.993536 -1.99461 2.00512 0.00547815 2.00683 -0.99214 2.00769 -0.992747 2.00623 0.00694558 0.00703757 2.00856 2.00713 -1.99462 -1.00088 -1.00146 -1.00124 1.99856 -1.00262 1.99864 1.00698 0.0058446 0.00494182 2.0048 0.00516064 1.0054 0.00454677 0.00389583 -0.996736 -0.995958 2.00506 2.00568 1.00632 -0.993748 2.00491 1.00498 -1.99427 -0.993973 0.00647913 2.00683 1.00604 -1.9939 1.00646 -0.991078 -1.99196 2.00575 0.999289 -0.00155226 -0.00141651 -1.00168 -2.00328 -0.00254813 -1.9942 1.00522 2.00456 0.00448187 0.00497021 -0.994355 0.00499848 0.00399184 2.00341 1.00329 0.00528634 -1.9932 2.00634 0.00705705 -1.9947 0.00465516 0.004365 -1.99439 -0.993842 0.00630485 0.00634272 0.00650114 -1.99354 -0.992752 0.00961468 1.00704 -1.0014 -1.00277 -1.00247 -2.00224 -2.00347 -0.00226562 0.0043257 2.00441 -1.99592 2.0039 2.00461 1.00516 -1.99452 0.00516202 2.00409 2.0042 2.00559 0.00692701 2.0066 -0.993168 0.00516705 0.00412419 -0.99532 -1.99434 2.00579 -1.99421 0.00669687 2.00654 2.00682 1.00653 -0.991906 -1.99068 -0.000797622 -2.00275 -0.00390374 -2.00239 1.99681 -1.00123 -1.99518 1.0033 2.00375 0.00395311 -1.99579 2.00478 -1.99472 2.00429 1.00396 -0.995624 -0.994483 -0.993635 2.00653 -1.99357 -1.99454 2.00479 -1.99504 0.00527613 0.00584302 -1.99415 -0.993614 1.00707 -1.993 1.00835 -0.992993 1.0075 -2.00093 0.996158 -2.00506 -0.00245918 -2.00262 -2.00222 -0.995616 -0.996533 -1.99703 0.00406982 -0.995299 2.00454 0.00474755 0.00426462 2.00384 2.00367 0.0046631 2.00541 -0.993819 0.00548177 2.00665 -1.99462 -1.9949 2.00545 -0.99397 0.00593116 1.00594 2.00675 -1.99208 0.00816363 0.00585215 2.00595 -2.00151 -2.00485 -1.00518 -1.00278 1.99715 -2.00169 -0.995507 0.004342 -0.996971 2.00349 1.0043 1.00451 0.00453916 -0.995857 2.00315 1.0034 2.00405 2.00425 1.00576 0.00610542 -0.993614 0.00546029 1.00525 1.00596 -1.99402 2.00625 0.00636727 1.00667 -0.991529 -1.99355 2.00581 -0.994192 -1.00323 1.99486 0.994598 -2.00268 -1.00304 -0.00137244 -1.99597 0.00475617 2.00347 0.00293912 1.00415 2.00433 1.00405 0.00360287 2.00294 -0.996633 1.00356 0.00406004 -1.99391 2.00683 2.00574 2.00555 -0.994767 -0.994292 -0.994473 -0.994 0.00643518 1.00659 -1.99351 -0.993718 0.00660312 2.00501 -1.00364 -1.00506 -1.00491 -0.00248627 1.99698 0.998972 2.00467 0.00473458 -1.9965 1.00252 1.00363 -0.99606 1.004 2.00356 0.00303085 1.00305 -1.9956 -0.995435 0.00545254 1.0063 1.00504 -1.99426 1.00508 -1.99461 1.00524 0.00573519 -0.993828 2.00602 0.00621298 2.00625 1.00608 -1.99595 1.99656 -2.00467 1.99546 -0.00282691 -1.00303 -1.00139 -1.99512 0.00473225 1.00415 -0.996756 2.00322 0.00389867 1.00415 1.00355 0.00343931 1.00419 0.00460268 1.00399 1.00487 -0.994199 2.00614 2.00552 1.00519 1.00513 -1.99476 2.00562 1.0059 1.0058 -1.99405 1.00578 1.00418 -1.99653 0.996852 0.995307 -2.0048 0.996812 -1.00311 1.99827 -1.99592 -0.995774 0.00387205 1.00366 2.00397 -0.996178 -0.995817 -1.99541 -0.995165 -1.99534 1.00473 2.00402 2.00486 1.00484 -0.993933 0.00674103 2.00575 1.00493 -1.99478 -0.994595 -0.994556 1.00589 -1.994 -1.99561 2.00376 -1.9967 -1.00381 1.99484 1.99493 -0.00332151 1.99709 -2.00137 2.00446 -1.99505 2.00334 -1.99674 2.00344 -0.997028 -0.995858 -1.99505 2.00446 -0.995234 1.00519 1.00459 2.0051 0.00544885 2.00499 0.00574461 -0.993604 2.00504 -1.99514 -1.99517 0.00495132 -0.99447 1.0046 -1.99658 -0.996612 2.00323 1.99644 -0.00521306 -2.00518 -1.00323 1.99714 1.99785 -1.99921 -1.99832 -0.999531 0.999433 0.99967 1.00019 -1.9996 -0.999861 -1.99956 0.00040053 -0.999713 2.00008 1.00028 -0.999304 0.000808693 -1.99937 -1.99908 2.00112 -1.9991 0.000808084 -0.998981 0.000765146 -1.00085 -0.00109558 0.998069 1.99867 -1.00446 -1.00512 -1.00537 -2.0031 -2.00284 1.99776 2.00002 1.00091 -0.997383 -1.99908 -1.99822 2.00063 -1.00028 0.99968 1.9997 1.00048 1.0041 -0.996995 1.00131 0.0015194 1.00062 -1.99875 -0.999909 -0.999844 0.00037765 1.00017 -0.999582 -0.001448 -0.00166123 1.998 -2.00183 0.998253 -1.00482 -0.00478949 -1.00479 -2.00337 -0.00314374 -0.00241919 -2.00031 -0.999631 -1.99944 -1.99956 -0.999039 -2.00007 0.999667 1.99948 1.99939 -0.000353307 -0.998436 -0.99845 1.00028 0.000913727 -0.999524 0.000462349 -0.000236382 -0.000325055 0.999342 0.999462 -1.00166 1.99731 -2.00273 -1.00245 -0.00196551 1.99775 -2.0051 -0.0049923 1.99556 -2.00377 -1.00352 -2.00289 -1.00116 -0.00116719 -0.000718238 -1.00097 1.99907 0.999321 1.99935 -0.000882858 1.99894 -1.00138 -1.00101 1.99895 -0.000520125 -2.00095 1.99921 1.99915 -1.00097 -2.00103 -1.00112 0.997963 0.99699 0.996983 -2.00307 0.997118 -0.00288406 -2.00316 0.994745 -1.00554 -2.00552 2 -2 -1.44343e-14 -2 1 1 -1 -1 1 2 1 -2 2 -1 -1.35725e-14 -1.35162e-14 -1 -2 1 1 -1 2 -5.17987e-15 2 -1 -1 2 -1.26952e-14 1 1 -1 -1.23382e-14 1 -1 -1 2 2 1 -1 -2 2 -1.30434e-14 -1 -1 2 -1 -1.29038e-14 -2 1 1 -2 -3.28705e-15 1 -1.6149e-15 -2 2 -1.21176e-14 1 2 -1.19112e-14 -1 1 -1 2 2 -1 1 -1.30092e-14 -2 -2 -1.28487e-14 -1.27073e-14 -1.32023e-14 -1 -1.12694e-14 -1 -2 2 1 -1.22639e-14 -1.1981e-14 2 1 -2 -1 -9.46597e-16 -2 -1.00209e-14 -1.17882e-14 -1.17259e-14 -1.15964e-14 -2 1 -1 -2 2 -1 -1 -1 1 -2 1 1 -1 -2 -2 -1.13634e-14 -1 -2 -1.17756e-14 -2 -2 -1 -2 1 -1 -1 -6.17993e-16 2 -2 -1 -1 -1.15213e-14 1 -2 -2 1 -1 2 2 -2 -1 -1 -1 2 -2 -2 1 -2 1 1 -1 -1.1562e-14 -1.17034e-14 -1.20044e-14 2 1 -2 1 -2 -1 -2 1 -1.14652e-14 1 -1.18586e-14 2 1 2 -2 2 2 -2 -1 2 -1 -1 -1.24145e-14 2 2 1 -1 -1.14882e-14 -1.13732e-14 2 -1 -2 -2 -1.61369e-15 -1 -6.33091e-16 -1.80836e-15 -3.85411e-15 2 1 2 -1.17744e-14 -1.20161e-14 -1.1401e-14 1 -2 -2 1 1 2 2 2 1 -2 -2 1 -1.30439e-14 -1 -1 2 1 -1 -2 -8.75944e-15 -2 -1.7132e-16 -2 -2 -2 -2.72375e-15 1 -1 -1.1228e-14 -1.19497e-14 -1.07866e-14 -1 2 2 -1 -1 -2 1 -1.03728e-14 -1 2 -2 -1 2 -1.20986e-14 1 2 -1.03936e-14 1 -1.07957e-14 -1 -2 2 -2 1 1 -1 -2 -1 -9.61783e-15 -2 1 1 2 2 -5.51069e-15 -1 -1.83459e-15 -6.54067e-15 2 2 -9.25951e-15 2 -1.0765e-14 -1 -1 -1 -2 2 2 -1 -2 1 2 2 -2 -1 2 -2 2 2 -1 -8.81868e-15 -2 2 -1 -2 -1 -2 2 1 2 -2 -1 2 -2 2 -1 -7.03144e-15 2 2 -2 -1.08496e-14 1 -2 -2 2 -2 -1 -2.30753e-16 1 1 2 2 -1 -2 1 -1 -1 -1 -2 2 -6.32107e-16 -2.04692e-17 2 -1 1.96432e-15 -2 -2 1 1 2 1 -1 2 -2 -1 1.9363e-15 -2 1.51249e-15 -1 -2 -1 1 -1 -2 2 -1 -2.05636e-15 -1 -3.80631e-15 -2 -1 -1 2.2699e-16 -2 -1 2 2 -1 -2 -1 1 2 -1 -2 1 2 -2 1 -2 2 -2 1 1 1 -2 -2 1 2 2 -2 2 -1 1 1 -2 1 1.58685e-15 1 1 1.91477e-15 1 -2 -2 -1 1 -2 -1 2.19263e-15 -2 -2 9.27327e-16 2.15035e-15 -1 1 1 -1 -2 -2 -1 1 -1 -2 -1 -1 2 -2 2 -1 2.17287e-15 2 -2 2 -2 1.33565e-15 1 1.83421e-15 2.92364e-15 -1 -2 -1 -1 1 -2 2 -2 -2 -1 -2 -2 2 -2 -2 -2 -2 1 2 -1.14779e-15 2 3.0204e-15 -2 2 1.67657e-15 1.61663e-15 -1 -2 1 1.491e-15 1.98759e-15 -2 -1 2 1 -2 2 2 -2 -2 3.2838e-15 -2 1.88486e-15 -1 1.04701e-15 -2 1 1 -1 -1.92808e-15 -5.09408e-16 1 2 -1 -1 2 2.31802e-15 -2 1 1 -2 1 1 -1 -2 -2 -1 2 -1 2 2 3.60467e-15 -1 -1 -1 -2 2 -2 1 -2 -1 2 -2 -2 1 -1 -2 3.09141e-15 1 2.98667e-15 -2 2.90061e-15 3.10252e-15 3.34449e-15 2 2 1 3.83202e-15 -2 3.40274e-15 2 1 1 2 1 -2 1 -1 2 2 2 -2 2 2 -2 1 3.5668e-15 -2 -2 1 2 1 4.22822e-15 -1 -2 2.67831e-15 -2 3.57347e-15 1 3.10023e-15 3.3087e-15 -2 -2 -2 3.74185e-15 3.01392e-15 3.27589e-15 1 -1 -1 2 1 -1 -1 -2 -1 -1 1 2.55108e-15 -2 -1 -1 -1 -1 -1 1.03429e-15 2 -1 2 -1 2 -1 1.27447e-15 1 -2 2 -1 -1 -1 -2 2 1 2 2 1 1.42747e-15 1.85997e-15 7.35804e-17 2 -2.87857e-15 -2 2 5.56275e-16 2 -1 -1 9.718e-16 -1 2 -2 1 2 1.1269e-15 -1 1 -1 1.25495e-15 -1 -1 1 2.07387e-15 1.88731e-15 1 8.26099e-16 2 -1 2 -2 -1 -2 -7.68682e-16 -4.6236e-16 -1 1 2.49735e-15 1 1 2 -2 1 -1 1.42226e-15 1.06221e-15 -2 2 1 3.08264e-16 -1 -1 2 -1 -2 -1 8.9211e-16 -1 2 -2 -1 1 1 -1 1 1 2 -2 1 8.80097e-16 1.08679e-15 5.3021e-16 2 -1 -1 1 -1 -1 2 1 2 -7.98622e-16 -1 1 1 2 -1 -1.58764e-16 -2 -2 2 -5.04213e-17 -1 -2 -1 -2 -3.12032e-16 2 2 2 2 1 -1 -1.27131e-16 1 -1 -2 1 -2 2 -2 -2 -2 -2 -2 2 -2 -1 -2 2 2 -2 -1 1 2 -2 1 -1 -6.38696e-16 -1 -1 2 2 2 1 1 -2 1 2 -3.90475e-16 -2 -2 2 -4.3194e-17 -1 1 -1 -2 -1.49564e-17 -1 -1.10754e-16 2 1 -4.69589e-16 -2 2 -1 -7.74401e-16 -1 -2 -1 -6.78024e-16 2 2 1 -5.2382e-16 -2 -1 1 -1 -3.46058e-16 -2 2 -1 -2.13618e-17 -1 1 2 -2 -1 -2 -1 -3.67839e-17 -1 1 2 -9.65799e-16 2 2 -2 -9.64283e-16 1 -4.27167e-16 1 1 -1 2 1 -2 -2 -8.69684e-16 -1.13008e-15 -1 -2.66496e-16 -2 1 -3.44749e-17 -2 1 1 1 -5.38299e-17 2 -1 -9.51275e-18 -5.34372e-16 -8.60182e-16 2 1 -1.23831e-15 -1 -2 -1 -2 -8.201e-16 2 1 -5.90698e-16 -1 2 1 -6.47984e-16 2 1 1 -2 -1 1 -1 7.08677e-16 -1 2 4.35306e-16 -1 -2 1 7.26807e-17 1 1 -2 2 1 -2 -2 2 -2 2 1 -2 -1 -2.4143e-16 1 -1 -4.30689e-16 2 -1 1 -2 -4.6018e-17 5.08329e-17 2 2 -2 1 -2 2 -1 -2 2 1 1.48292e-16 -1 -1 -5.22395e-16 -1 -7.00701e-16 -1 -3.62404e-16 2 -1 2 -1 2 -5.59119e-17 -2 2 1 2 -1 -1 2 -1 1 1 -3.34119e-16 9.3732e-16 1 2 1.30426e-17 2.86373e-16 1 2 -2 -1 4.17813e-16 1 -2 2 -2 2 -1 1 2 -2 2 1 -2 -2 -1.09454e-16 -9.37807e-17 -2 -2 -7.11572e-16 -2.35814e-16 -1 -1 -1 -2 2 9.86443e-16 1 2 1 -1 2 1 -2 8.36635e-16 2 2 1 1 -1 2 1 -1.43518e-15 1 -2 -2 1 -2 1 2 -2.56151e-15 -2 -2 -1.41663e-15 -1 -2 -1 2 -1 1 -7.53534e-16 -1 -7.59808e-16 -7.6292e-16 -5.97039e-16 1 2 -1 -1 1 -2 2 -2 1 -2 -1 1 2 -1 2 -1 1 -6.66425e-15 -2 2 2 -5.01454e-15 -2 -2 -2 -2 1 -2 -2 -2 2 -4.82764e-15 1 1 1 -2 -1 -2 1 -2 -1 -1 -1.00008 0.999723 1.995 0.998633 -1.00114 -0.00182892 -2.00118 0.998806 1.99861 1.9978 -0.00356387 0.99537 -0.00358367 -0.0148322 1.98217 1.98223 -1.0173 1.99404 0.997681 -0.00288193 -1.002 -1.00128 -1.00113 -2.001 -2.00112 0.998613 0.999075 -0.00378768 1.99896 0.999999 0.999999 -7.0953e-06 1.99986 1.99978 -2.0016 -0.99988 -1.99999 -1.00066 1.99978 0.000120061 -2.00049 -0.000505829 -2.00159 -2.00271 0.997602 0.996342 0.996036 -0.00397071 -2.00383 -0.00186681 -1.00061 -1.0006 -2.00041 -1.99984 0.999454 -2.00024 -1.99992 4.81232e-05 1.00022 1.99971 -2.00068 -0.000236822 0.999619 -2 -0.000153299 0.999455 -1.0017 -2.00126 -0.00172941 -1.00208 -1.00174 -0.00063589 0.000193201 4.83454e-05 1.9982 -2.00253 -2.00187 -2.002 0.998096 -0.00158171 -0.00222335 -1.00163 0.999296 -0.00102869 0.999344 -2 -0.00105861 -2.00115 -1.99993 1.99983 -0.000909801 0.997249 -1.00228 -2.00121 0.999323 -1.00028 0.999619 0.999359 0.998887 1.99846 0.999145 1.99952 -0.000404097 1.99971 1.0006 0.000893282 -1.00199 0.997619 -1.00175 1.99824 -0.00166494 -1.00162 -2.00267 0.998588 -0.00116159 1.9976 0.999705 -2.0004 -2.00165 -2.00452 1.99753 1.99832 1.99633 -0.00549116 -2.00422 -0.000906434 -1.00048 -0.000605696 1.99845 -0.999735 -0.995684 -1.9963 1.00343 -0.995589 -1.99521 -1.99565 -1.99469 -0.996043 -1.99525 1.0025 -0.996162 2.00267 1.00268 2.00195 1.00205 0.00349433 1.00425 -1.99706 2.00313 0.00284806 -1.99808 0.00227477 1.00266 2.00123 2.0016 2.00129 -2.00102 1.99873 0.998644 1.99992 0.999534 -0.999297 2.00544 -0.993669 -1.99373 -0.995494 -0.99548 -1.99561 -1.99508 0.00746506 2.00694 2.00318 2.00426 -0.995403 1.00256 -1.99881 1.00353 2.00406 -0.995616 -0.994823 1.00494 2.00393 1.00266 0.00445191 2.00413 -1.99731 -1.99614 -0.995972 -0.000175642 0.999619 1.99937 -2.00035 -0.000381458 1.00035 1.00494 -1.99634 -0.994643 2.00383 -0.994699 2.00577 -0.996093 2.00553 -1.99395 1.00327 1.00121 -1.99961 1.99942 0.999681 -1.99819 -1.99634 -1.99572 2.00385 -1.99708 1.00155 1.00233 2.00259 0.00281556 0.00326646 2.0037 -1.99669 4.93136e-05 0.999463 0.999393 -1.00008 -0.000178611 -1.99936 0.00507051 -1.9934 2.00579 -1.99493 0.00658581 2.0069 2.00426 -0.996199 1.00372 0.00319792 0.000496921 -2.00047 0.997837 -2.00173 0.00102716 2.0024 0.0036194 1.00235 1.00231 2.00319 0.00360262 2.00157 -0.99856 -1.99629 2.00502 1.00204 1.99883 -0.000679604 -0.000681418 -2.00021 1.99965 -0.99968 1.00505 1.00708 2.00405 2.00382 2.00345 -0.99646 2.00322 -1.00141 -0.00119437 -0.997478 -1.99922 -2.00195 -2.00933 -0.00388546 1.00012 -1.99874 1.99749 1.99511 1.00175 -0.996793 -2.00068 3.20847e-05 -0.99682 2.0023 2.00177 -2.00179 0.998574 0.999534 -2.00035 -0.00145282 -1.00084 2.0001 0.000442725 -1.99489 0.00369648 -1.99888 0.00115961 -0.998591 -0.996947 1.99836 -1.00011 1.00304 0.00201873 -1.00217 -1.00926 -1.00325 0.000409231 2.0015 1.99854 -1.0011 -0.996445 -0.9975 -1.99911 -2.00162 2.00078 1.99997 -1.99931 1.99468 -0.00254999 1.99879 -2.00142 -0.00054719 -1.00042 -1.00022 -1.99995 2.00233 1.00159 3.90415e-05 0.000466218 1.00099 -1.99801 1.99889 1.99966 1.00119 1.00158 1.99759 -1.00441 -2.00055 -1.9991 0.00107893 -0.99798 -2.00154 1.00205 -0.994483 0.000628764 -1.00098 -0.998915 -0.00158054 0.998104 0.998612 0.999016 -1.00148 0.997969 1.99923 -1.00063 -0.000940594 -2.00025 0.999414 -1.99861 -1.99986 1.99981 2.00168 1.9989 1.99719 -1.00072 0.999462 2.00008 1.99675 -1.00604 1.99812 -1.00126 -0.00016129 -1.00067 -0.00324841 -1.00062 1.00386 0.00136517 0.00135961 -1.00262 1.99744 0.992882 1.99542 -0.00192683 -1.0019 0.999533 -2.00063 1.99902 1.99959 1.00254 1.00065 -1.99724 2.00065 -1.00017 1.99983 1.99482 1.99358 -1.00088 -2.001 2.00132 -0.00114742 -2.00595 -0.00149611 -1.99937 1.00135 1.00082 -0.00370438 -1.00247 -1.99933 2.00101 -0.999105 -1.00649 -2.00285 -0.0027702 -0.00677444 -1.00332 -1.0007 0.999393 0.999323 1.9991 -1.0027 1.9932 -1.00229 -2.0009 7.25711e-05 -0.000596709 -0.00395406 -1.0094 1.99693 -2.00023 -2.0021 0.998017 -2.00308 -2.01036 -1.00471 0.99905 -2.00045 -1.00596 0.997392 -0.00432524 1.99649 -1.001 0.00573264 -1.99694 -1.0083 1.99342 -1.00719 -2.00234 -0.000835854 -2.00056 -0.000997674 1.99902 0.995898 -0.0085109 -2.0019 -1.0033 0.997324 0.998862 0.994002 -0.00895663 1.99366 0.996164 -1.00609 -1.00662 -2.00694 -2.01524 1.98966 0.995808 -0.00511727 1.99136 -0.00792892 -2.00814 -0.00809254 -2.0067 1.00013 2.00044 -1.00914 -2.00427 0.995549 -0.00311698 1.9991 1.99937 -2.00098 -2.00142 0.996421 1.99769 -0.000258585 -0.00770706 1.98368 1.98463 -2.01666 0.9829 -0.0174592 0.981437 -1.01921 -1.01963 1.97966 -1.02181 -0.0225784 1.98032 -1.01617 0.982845 -2.01706 -0.0154919 0.981054 1.97954 -0.0168482 -2.01683 -2.01072 -0.999314 -1.00473 0.997057 1.99865 -2.00177 -1.00219 -1.00263 1.99782 -1.00181 1.99534 -0.0131301 1.98457 -0.0200096 0.977953 0.976988 -1.02472 -1.02334 0.976989 -1.02402 -0.0249931 -2.0246 1.97463 -2.02375 -0.0222423 -0.02366 0.982252 -0.019194 -1.02269 1.97903 -1.01663 -1.01937 0.982054 -0.00448436 -0.00409838 -2.00373 -0.00363257 0.997742 -2.00278 -0.00279706 -0.00559431 0.994848 -0.00379462 -2.00601 1.99144 -0.0119817 -2.01984 -1.02555 1.97256 -2.02251 -0.0257942 -0.0256772 -2.02345 -1.02211 -0.0225804 -2.02462 -0.0244575 -2.02394 -1.02222 0.976409 -2.02689 -2.02169 1.98799 -0.00585374 -1.00622 -1.00773 -1.00529 -0.00235346 -2.00365 -0.00272541 -1.00219 0.994436 1.99319 -2.00393 0.996594 -1.00526 -1.00832 1.98002 -0.0276247 -0.0259664 0.971364 1.97651 -1.02738 -0.026031 -0.0197458 -1.02043 -1.01867 -0.0226674 -2.02632 -1.02391 1.97493 0.972976 -2.02923 0.973041 0.97436 1.99196 -2.00419 1.99826 -0.00830102 -0.00612876 1.99845 0.997815 1.9945 -1.00733 1.99508 -0.00415163 -1.00749 1.9898 -0.0111455 -0.0171229 0.973828 0.971922 -1.02613 -0.0258673 0.97233 -1.02735 1.97889 -0.022732 0.981097 -1.02375 -2.02672 0.972319 -1.02593 1.97401 -0.0285481 0.972059 0.979094 -0.0121994 -2.00849 -0.00385718 -0.00562384 1.98919 1.99336 -2.00184 -2.00769 -0.00544016 1.99643 0.986774 -2.01948 -0.0227315 1.97566 0.975165 1.97401 -0.0265985 0.973062 -2.02745 1.97255 -2.02671 -0.0233265 -0.0242624 -1.02149 -2.02441 -0.0274482 0.971516 -2.02722 -1.02543 1.97278 -0.0266867 0.979416 -1.02553 -1.02158 -2.01458 1.98797 0.990525 0.989767 -2.00706 -0.0058061 1.99802 1.99541 0.980939 0.977938 1.97677 0.97513 -1.02567 -2.02476 -1.02404 -2.02532 1.97451 0.974426 -1.02471 -2.02225 -2.02216 0.976818 1.97613 0.973817 0.973516 0.974171 -0.0249114 -2.02472 0.978092 0.981273 1.9758 1.97757 1.97883 0.982584 -2.00666 -1.00769 1.98961 1.99653 1.99837 0.993789 0.981325 1.98152 -2.01949 1.97824 1.97855 -2.02046 -1.02058 -1.02077 -2.0205 1.97961 -0.0207193 -2.01962 -0.0194153 0.978838 -2.02136 1.97747 -1.02363 0.9762 -0.0238075 0.976648 -1.02146 -0.0210161 -2.02383 1.97397 1.97495 -0.0237054 -1.00915 1.99499 0.993309 -2.00177 0.998124 1.99359 -2.01802 -2.02101 -2.02315 1.97296 -0.0267424 -1.0263 -2.02471 -1.02501 -1.0248 -2.02404 -2.02439 -0.0257244 0.981035 -2.01983 -1.02585 1.97409 -0.0259444 0.974489 -2.02431 1.97477 -2.02453 -2.02672 1.9715 -2.02969 -2.02571 -1.02081 -1.00614 0.994729 -2.00135 0.99714 -0.00413818 -1.00336 -2.00731 0.983676 -1.01828 -0.0168401 -0.0138203 0.98761 1.98938 -2.01183 -0.0108591 -2.00947 -0.0113974 0.985547 -1.01512 1.98408 0.983426 -2.01155 -0.0145049 0.98719 0.986128 0.981517 -1.01712 -1.01862 0.982675 1.98037 0.986213 -1.01096 0.991271 1.99601 -2.00204 -0.00481673 0.995407 -2.00471 -1.00882 -0.0204326 -0.0166233 0.991422 1.98124 0.987726 0.997209 1.99188 -1.00733 -1.00531 -2.00706 1.99305 -0.00481653 -2.00552 1.98916 1.99454 -0.00619021 -0.00479989 -0.00526581 0.991058 -2.0169 -1.01326 -2.01123 0.996266 -0.999194 0.998134 -2.0018 1.99534 -2.00287 -2.00121 -2.00063 1.99988 -1.00441 -2.00645 -2.00467 1.99747 0.991814 -0.00297294 2.00244 0.000247977 9.68887e-05 -1.99812 2.0005 1.0006 -1.001 -2.0004 -0.997967 -1.99731 2.00333 -2.00062 -0.0020068 0.999657 -1.00162 1.99824 0.999425 0.000976236 1.00094 1.00053 -0.00128217 -0.00331528 -0.000680766 1 -2.00008 -0.000227366 -1.9996 1.00019 0.999412 -0.997699 0.00370329 1.00319 1.00163 0.00123547 1.00164 2.00253 2.00152 -0.999529 -1.00522 0.995606 0.998263 -1.99707 2.00386 2.00079 -0.999422 -0.998437 -0.998247 -0.997653 -1.99855 1.00045 -0.00113975 1.99945 -0.00345529 0.999322 -1.00028 -2.00014 0.999853 -0.000824592 0.997457 0.99821 -0.00103757 -0.0030208 -0.00487438 -1.00104 -0.00147582 -1.00206 0.998879 -2.00206 1.99412 -0.00389273 -2.00892 0.989885 -2.0095 1.9936 1.99658 1.99844 0.998437 -1.00278 0.99613 0.994041 -2.00599 1.99893 1.998 -0.00410133 1.99917 1.9993 -2.00028 -1.00014 -0.000171947 1.99996 -0.00126126 -1.00149 -0.00151956 -0.00764031 1.99422 0.998054 0.996018 1.99807 -0.000641154 -2.00652 -2.00301 1.00061 -0.00580954 1.99256 0.993228 -1.00731 -2.00655 1.99834 -2.00173 1.99711 -0.000922643 1.99514 -0.00629136 -0.00175651 -0.00145009 -1.00201 -0.000737124 -1.0009 -1.00021 1.99986 -1.00014 -0.000149866 -1.00061 1.99963 -2.00359 0.993713 -1.00179 1.99918 -2.00157 -1.00156 -2.00085 -1.00892 -1.00755 1.00136 1.99549 1.99346 0.994967 -0.0111842 0.990433 1.99831 1.99926 0.997628 -0.00225265 -0.00072088 -2.00447 1.99669 1.99924 -1.00252 -1.0007 1.9991 0.999861 -1.00014 -1.00014 -1.00026 1.99907 -0.00101096 -1.0075 -1.006 1.9991 0.998877 -2.00055 -1.00072 1.99786 0.991555 -0.00551153 -0.00118494 -2.00539 1.99293 -0.00699391 -2.01062 0.990713 0.99766 1.99874 1.99765 1.99737 0.998586 0.997296 0.994759 -2.00187 0.998059 -1.0009 1.99916 -0.000153355 -8.49044e-10 -1 -1 -2 -8.30346e-10 1 -1 -6.46985e-10 -8.07564e-10 1 1 -2 -1 1 2 -2 -2 1 3.00663e-09 2 2 2 2 -1 -1 2 -2 1 2 1 -1 -1 -1 1 3.84792e-07 -2 -1 -1 -2 1 -2 2 2 2 -1 2 2 -1 4.39275e-08 1.95726e-08 1 2 -2 1 1 2 -1 3.95021e-07 2 -2 2 -1 1 -1 2 2 1 1 6.79882e-07 4.13883e-07 2.69865e-07 -1 2 1 -2 1 -2 1 -1 -1 2 1.95262e-08 2 1 5.67677e-07 2 1 6.39637e-07 2 1 -1 4.11266e-07 -1 1 1 2 2 1 -2 3.4477e-07 -2 -1 -1 -1 4.30087e-07 2 -1 -1 -1 -2 2.47965e-07 -2 -2 4.18501e-08 1.32486e-07 -2 1 2 1 -1 5.83421e-07 -2 2 3.32702e-07 2 3.7391e-07 3.42432e-07 2 -1 4.54838e-07 -1 1 2 1 -2 2.27262e-07 3.8061e-07 1 2.83235e-07 -1 -2 1 -2 -1 1.1837e-07 1 1 1 -2 2 1 1 -1 -1 -2 -1 3.67676e-07 2 -2 -1 -2 -2 -1 1 2.52331e-07 -1 -1 1 -1 -1 1.05727e-07 -2 1 -2 1 1.31467e-07 -1 2 -1 1 -1 1 1 1 -1 2 1 1 -2 1 3.83576e-07 -1 2 -2 2 1 1 -2 2 2.15278e-07 -2 1 2 1.3273e-07 1.16372e-07 2 -2 1.54224e-07 2 6.30033e-08 -2 1 1 2 2 1.96893e-07 2.15603e-07 -1 3.93579e-07 6.28479e-07 2 1 -1 2 -2 1 1 2.26942e-07 1 -2 -2 -2 -1 2 2 -1 -2 -2 -1 -1 1 2 1.47142e-07 1.56958e-07 2 2 2.20138e-07 2.39124e-07 2 2 1 -1 -1 2 -2 6.4729e-07 3.48846e-07 2 2.86858e-07 2.16331e-07 2.08148e-07 -2 -1 -2 -2 3.7912e-07 1.28344e-07 -1 1 1.31313e-07 1.34435e-07 -1 1 -2 1 1.59847e-07 -2 -1 2.19156e-07 -1 2.09718e-07 2 -2 1 1 2 -1 5.82172e-07 -1 -1 -2 -1 -2 1 2.97567e-07 2 4.60403e-07 -2 2 1 3.56748e-07 1 -2 2 -1 2 -2 -1 -2 2.57404e-07 2.35118e-07 2 -1 -1 -2 2 -2 1 3.34193e-07 -1 -1 2 1 2 1 -2 3.82139e-07 -1 4.50992e-07 4.72806e-07 3.06661e-07 2.97294e-07 2 3.12926e-07 2 1 1 -1 -2 -1 3.88125e-07 2 2 -1 -2 3.41256e-07 1 -1 2 4.37669e-07 2 -1 4.06444e-07 1 -2 -2 -2 3.94934e-07 -1 4.00635e-07 1 1 2.9389e-07 -1 2 -2 -2 -1 -2 3.60759e-07 3.16802e-07 -1 -2 2 2 1 3.60407e-07 2 -2 4.13165e-07 1 -2 1 1 1 1 1 -2 -1 2 -2 3.695e-07 1 -2 1 -2 -1 -1 -1 -2 1 2 2 2 2 3.5074e-07 2 2 -1 3.88641e-07 2 3.88315e-07 1 5.03126e-07 -1 -1 -1 4.22137e-07 -2 1 -1 3.82282e-07 2 -2 1 2 -2 2 -2 2 -2 1 -1 -1 2 -1 -2 3.44701e-07 -2 -1 -1 2 -2 -2 -2 4.97119e-07 4.87575e-07 -2 3.68126e-07 1 1 1 3.78526e-07 -2 -1 -1 1 1 2.50328e-07 2.56764e-07 2 2 2.53473e-07 -2 2 1 -1 -2 -2 -2 -1 -1 -1 -2 -2 3.35025e-07 -1 -2 -2 -1 1 3.64702e-07 -2 1 4.09745e-07 -2 1 2 1 -1 1 2.65962e-07 -2 -1 2.63063e-07 3.13235e-07 2 2 1 -1 1 -2 1 1 -1 1 1 2 -1 4.40767e-07 4.91006e-07 1 3.58555e-07 -1 -2 -1 -1 -1 -2 2 -2 1 2.62468e-07 2.49878e-07 -1 -2 2.50445e-07 2 3.1633e-07 2 2.35183e-07 2 1 2 -1 2 2.85244e-07 -2 -1 2 -1 2 -2 6.22533e-07 4.61991e-07 -2 2 1 -1 3.84655e-07 3.1578e-07 3.00331e-07 2 1 2 2 2 -2 -1 -1 2 1 -1 1 2 -2 -1 -1 -2 2.78972e-07 -1 2.69795e-07 -1 2 -2 -2 -2 3.74628e-07 -2 -2 -2 -1 -2 2 2 1 2.43629e-07 1 -2 -2 1.97318e-07 2 2.28769e-07 3.22635e-07 2 2 2 2.41113e-07 2.35006e-07 2.50936e-07 1 -1 2 2.60345e-07 -2 1 5.5343e-07 2 3.5566e-07 2 -1 -2 2 -2 1 2.87522e-07 -1 5.00366e-07 2.46771e-07 -1 -1 -2 2.00552e-07 2.72515e-07 1 -1 -1 -1 2 -2 -2 2.44386e-07 2 -2 2 3.44429e-07 3.57347e-07 3.5327e-07 -1 -1 2 1 3.40252e-07 1 2 -1 -1 1 -2 2 2.50113e-07 -1 2 2.0344e-07 2 -2 2 1 2 2 2.19078e-07 -2 -1 2 2 1 -2 1 2 3.71926e-07 2 -2 -1 2 4.2755e-07 1 -2 1 -2 2.74877e-07 -2 2 2.47131e-07 1 2 2.00287e-07 1.97482e-07 2 -2 -1 2.34828e-07 2 -2 2 1 2 -1 -2 -1 2.72264e-07 2 -2 1 2 -2 -2 -1 2.78025e-07 -1 3.65461e-07 -1 2 -1 1 1 1.93732e-07 1 -1 -2 2 2 -1 2.505e-07 1 -1 2 2.03544e-07 1.93872e-07 2 -2 -1 1 -2 -2 1 2 3.86591e-07 4.05437e-07 1 -1 3.31104e-07 -2 1 -1 1 1 -1 2 2 1 1.90812e-07 -1 1 3.34954e-07 2 2 2 1.84663e-07 -1 -2 -1 -1 2 1 -1 -2 1 -1 -1 3.33541e-07 2 1 2 -2 2.90594e-07 2 2 1 2 -1 2 2 1 -2 -1 2.78382e-07 2 -2 1 1 2 3.22121e-07 1 1 -1 2 1 2 -2 4.46604e-07 2 1 -1 -1 -1 1 1 2 1 -1 -2 1.71903e-07 1.74985e-07 2 1 -1 -2 1 1 1 2 -1 2.49857e-07 1 1 -2 -1 1 -1 -1 -2 1 3.33436e-07 -2 -2 2 2.59292e-07 2 -2 -2 1 -2 -2 2 2 2 1.78032e-07 1.78181e-07 2.56493e-07 2 2 4.34633e-07 -2 2.55972e-07 1 -1 2.06279e-07 -2 2.34571e-07 -2 1 -1 1 -1 -2 2 -2 2.49943e-07 2 -1 -2 2.87634e-07 2 -2 -1 2 -2 -1 1.62321e-07 2 2.37653e-07 1 1 1 2.96658e-07 2 1 2.03031e-07 -1 -1 1 2.37524e-07 2 1 2 1 -2 3.49322e-07 2 1 2 2 3.74567e-07 3.15127e-07 1 -1 -1 -1 -2 1 1.90054e-07 1 -1 3.52472e-07 2.58379e-07 -1 2 -1 1 2 2.33773e-07 -2 2.11807e-07 -2 1 1 -2 2 2 -1 -1 -1 3.05704e-07 1 -2 3.4329e-07 -2 1 1 1 -1 3.40732e-07 3.15736e-07 -2 -1 1 2 2.8677e-07 2 2.18029e-07 1 1 3.40153e-07 2 2.61856e-07 -2 2 -2 5.9972e-07 4.27493e-07 1 -2 -2 1 3.1444e-07 -1 2 2 -2 -1 -1 2.51687e-07 2 -2 2 1.04806e-07 -1 2 1 -2 2 -2 -2 1 2 -1 -2 -1 -1 -1 -2 3.0171e-07 -2 -1 1 -2 2 2.67034e-09 2.68194e-09 2.65811e-09 1 2 2 1 2 -1 -1 1 1 1 -5.00314e-10 2 -1 1 -1 -2 2 1 2 -1 1 1 -1 2 2.00319 -1.99797 1.00152 1.00694 -0.981254 2.01664 -1.99344 0.00382228 -1.99746 2.01115 -1.9932 -0.00117336 0.993733 1.99635 -1.00622 -0.00476877 -0.00849624 -1.00444 -2.00424 -0.998249 -0.999228 2.00247 0.00193874 0.00684481 -0.992127 -0.995123 2.00414 -0.994723 0.00704445 1.00493 -0.991923 0.00820656 0.00331945 1.00173 2.00124 1.00876 -1.9841 -1.98712 -1.99191 1.00512 2.01012 2.01849 1.01399 1.0021 -1.00407 -0.999884 0.999071 -1.00162 1.99875 -1.00108 2.00007 2.00399 1.00242 2.00414 0.00669193 1.01704 -0.979908 0.00820819 2.00607 -1.98822 -1.9847 0.00795833 1.00488 1.00614 1.00157 2.00113 2.00595 1.00758 -1.9916 1.00538 -1.99882 0.999294 -0.99232 0.013357 0.00989157 0.006652 0.00762477 -2.00112 -0.998628 -0.982663 -1.98689 0.999291 -0.993304 -1.98582 -1.99264 -2.0015 -1.99019 0.0137807 0.0169759 1.00996 2.00178 -1.99081 0.00810781 0.0024381 -0.00052038 -1.99595 -1.99957 0.00233076 2.0107 1.01016 -0.995784 -1.99676 -1.99883 0.00730245 0.0100533 2.00776 -1.99582 -1.9919 2.00784 -1.00116 2.00057 0.0128025 -0.99035 1.00061 0.00808544 -1.99249 1.00334 2.00182 0.0105696 1.00585 -2.00289 -1.99698 -2.00356 0.000674436 -1.99971 -2.00509 1.99934 2.00217 -1.99979 -0.00273859 -1.99396 2.00686 2.0011 -1.00065 1.99946 1.00876 -1.99375 -0.000701348 -1.99925 -0.987699 0.000878361 -1.00307 -0.00394729 1.00269 2.00117 1.99474 -1.99913 2.00483 -0.994237 -0.003029 0.00526566 -0.993094 -0.993799 2.00453 -1.00194 -0.999253 -1.9983 -1.00275 -1.0043 1.99674 -1.99658 0.999614 2.00316 -0.993699 1.00335 2.00152 0.00278235 1.0062 2.00399 1.00051 2.00104 0.00896428 0.00254338 -1.99749 -1.00339 1.99755 -1.99868 0.996362 -1.99839 -0.994237 2.00747 0.000853542 -1.99344 -0.989918 1.00928 0.00666733 0.00139297 -0.998054 2.0021 -0.999604 -0.000604842 -1.00076 2.00221 0.0019593 0.00568193 0.00345956 0.00251666 1.00384 -1.99623 1.00289 -0.000133181 -1.99849 0.00147711 -2.00452 -1.01045 -1.01246 1.98241 -2.01818 -1.01179 -1.00375 -1.0003 2.00057 -0.996441 -1.00248 0.00270338 2.00416 2.00817 1.00773 -0.996458 0.00307981 2.0037 -0.997867 1.00001 2.00012 1.00399 -1.98697 2.0165 2.00963 1.00712 1.01258 -0.985587 0.00993013 -1.99428 2.01012 -1.99046 -0.00290312 -0.0126597 -1.0118 -0.0160147 0.968581 0.973901 0.995275 0.999217 0.0033655 0.0134696 2.00509 1.00312 -0.000108418 -0.98542 0.0120344 -1.99015 -0.989794 0.0043658 0.999107 -1.00079 2.00003 0.00569131 -0.984865 0.0129552 -1.99069 2.00575 0.00861762 0.0095561 1.00566 -1.9981 -1.993 0.998622 -0.0169868 -1.01281 0.989978 1.97859 -2.05633 -1.03453 1.9894 -2.00284 -2.01303 -2.01916 -1.99824 -1.99738 0.99432 0.998636 0.00873159 -1.99111 2.00716 0.000636292 1.00129 -0.997406 -0.998962 1.00629 -0.989053 2.00824 2.00635 0.00352739 -1.99979 0.00465717 -0.993954 1.00266 1.00497 -0.999675 0.994861 -2.01001 -0.00997966 -2.02294 1.95116 -1.02751 0.98577 -1.00933 -2.01391 -0.00617076 -0.000149774 0.000293076 0.995771 -0.00403364 -1.99764 -0.00161861 -1.00185 -1.99723 -1.99064 -1.99025 1.99868 2.00829 -1.99047 -1.99329 0.00528804 2.00694 2.00523 0.00803753 2.00898 0.0113331 -1.99006 2.0088 2.01168 1.00457 1.00126 -1.0073 -0.0195091 0.991614 1.99835 1.00387 0.00837021 1.00635 0.00643617 -1.99536 -1.00177 -0.991239 2.00864 -2.00044 1.00399 -0.98974 0.0094524 1.00853 -1.99779 0.00252691 -0.992979 1.00659 2.00933 -0.991422 1.00754 1.00763 2.0055 0.00640605 1.00696 -0.995533 -1.98835 -0.991155 -0.991665 2.00385 0.993133 -0.997151 2.00426 2.0071 -0.99007 -1.99922 1.00543 2.00289 -1.00348 0.00835144 -0.990798 2.00157 1.00639 -1.99148 -0.994551 1.0037 -0.991791 2.00137 -0.000104357 2.00283 1.00728 -0.992753 2.00797 2.00812 0.00486879 -0.991796 -1.99579 2.00665 1.01265 -1.9894 -1.99106 -1.99378 -0.00544073 2.00563 2.00722 -1.99181 1.01147 0.00289849 0.00224081 1.00085 -0.00390361 -1.99554 -0.998427 -1.99717 2.00561 1.00154 -0.00119135 2.00676 2.00374 1.0028 1.99956 1.99687 -0.999325 0.0041833 -1.99053 1.00914 1.00393 -0.997065 0.998853 -0.991787 1.01079 2.00643 0.00289553 1.00068 -0.00570192 0.00704761 1.00722 2.00885 1.0116 1.00453 -2.00477 -1.00297 1.99477 -1.99562 1.00714 2.00413 -0.00100995 -1.00685 2.00013 -1.99902 2.00146 1.0053 2.00748 -1.99798 1.99656 -2.00084 1.00065 1.99998 -0.996635 1.99958 -0.0026152 -1.99734 -1.99688 -0.002556 -1.00731 -1.00821 0.993968 -1.00075 -2.00101 -1.99855 2.00493 0.999686 0.993711 0.989165 -1.01238 1.99845 -1.99683 1.00032 -0.0052276 1.99626 -0.00356241 1.99532 -9.17046e-05 0.00698187 0.00595472 2.00222 -2.00063 2.00341 0.997018 -0.0056386 1.99785 -1.00712 1.99249 1.98877 0.987985 -0.0130698 1.9846 -2.01772 -2.01686 -2.01827 1.98082 -1.01536 0.989295 -1.0118 -0.0137875 1.97912 -0.0211305 1.9859 0.992025 0.997171 -0.00255216 -1.00651 -1.00555 -2.0044 -2.00573 1.00179 -1.0013 8.88637e-05 -2.00839 -0.00140081 -1.99177 0.000974985 0.984058 -1.02453 -2.02499 0.972299 1.97164 -1.02855 -0.030211 1.96458 -1.03565 1.96491 -0.0339395 -1.03261 -1.02943 -1.02487 0.974018 -1.02831 1.97862 1.99385 0.988044 1.97964 -1.00899 0.996036 -2.00472 0.995455 -0.00629033 -1.00634 -0.00559259 -1.01358 -1.02213 0.991403 -1.00376 -0.0181792 0.968159 0.963332 -2.0378 0.963701 -0.0364131 0.961281 0.960249 -0.0378847 0.967035 -2.03651 -0.0430515 0.955997 -1.0413 -1.03782 -0.0385613 -1.04119 -1.04019 0.972436 -2.01424 -1.02253 1.97093 -1.01393 -0.998507 -2.00311 -2.0033 1.99205 -2.01786 -1.02528 -2.01966 1.98001 -1.02129 0.967555 -2.03415 -0.0370593 -2.03833 0.962479 -0.0389985 0.957958 -0.0385647 -1.0332 -2.0311 -2.03146 -2.03715 -0.0456801 1.95734 -2.04042 -2.04134 -2.04505 1.95664 -2.04145 1.9699 0.975988 -2.02399 1.96624 -2.01797 1.99992 -1.00427 -0.0161575 -0.0194075 1.98942 0.99067 0.977366 -1.02977 -1.03314 1.96563 -2.03764 -1.03862 0.96073 -0.0401073 -0.0420194 -1.04273 -2.04053 -1.03877 0.958342 0.956843 1.95484 -0.0434462 -1.03982 1.95719 1.95657 1.95887 -2.03942 -1.03575 0.973041 1.9836 -2.02853 1.96465 -1.01768 -0.00413025 -1.0194 -2.01144 -0.998702 -0.00645487 0.966602 -0.0370293 -2.03613 0.96511 -0.0366332 -1.03643 -1.03907 0.961123 0.960547 0.96039 -1.04074 -0.0384349 0.964047 1.96521 0.960118 0.95941 0.962186 -0.0392757 1.96035 -1.04109 1.96286 0.961469 0.963149 -2.01604 1.98654 0.971316 1.96497 0.974496 1.98568 2.00056 -0.00302134 -1.02062 -0.0329115 -0.0260803 1.9762 -2.02173 -0.0220045 -2.0238 -0.0256654 -1.02646 -1.0263 -0.0262839 -1.02499 -1.02612 1.97494 -0.0238652 0.97281 0.973246 0.974718 0.975316 -1.02448 -1.02522 0.979281 -1.02207 -1.0259 1.97903 1.98441 -1.0199 0.969805 0.961583 1.99074 -2.00169 -0.0109071 1.97997 -1.01189 -1.00369 -2.00428 1.99586 1.99634 0.993075 0.992833 -2.00699 -1.00723 -0.00808175 -0.0092813 0.996007 0.991624 -0.0131188 1.98496 0.985066 1.98294 -2.01837 -2.01869 1.98059 -2.01771 -1.02082 0.974463 -2.02687 -0.0333722 -1.02479 -2.01164 1.98053 -2.00602 -1.0072 0.984347 -1.01905 -1.02005 1.98952 -0.0134434 -2.01263 -1.01792 -1.02132 1.97625 -1.02331 1.97657 -1.02371 -0.0240373 -0.0150026 1.98268 1.97384 1.97093 0.973618 -1.02546 -2.02253 -0.0228411 -0.0224532 -1.02122 -2.02256 -0.0295993 -2.02917 1.97282 0.990482 1.98685 -0.994777 -1.01077 1.98419 0.987889 -0.0125648 1.98141 0.990078 -1.99818 -0.00435557 -0.0151217 -1.00843 0.995032 -2.00316 -1.00505 0.992198 -2.01455 -0.0139174 -0.0125315 -0.0114099 -0.0105298 -1.00881 -0.00952985 -0.0123621 0.987917 1.98767 1.99052 -2.01134 -0.0180177 -1.02149 -2.03131 -2.02645 -0.0120742 2.00151 1.98272 -2.01488 0.982162 0.98351 0.977213 -0.014255 1.98976 -2.02067 -1.02415 -1.01397 -0.0098778 -0.00563423 -0.00741481 0.992887 0.987368 1.98917 0.986689 1.99369 -1.00623 -0.00714065 0.991671 -0.0103848 -1.00489 -0.00635166 1.99601 -0.00301913 -1.00375 -1.00153 0.989467 -1.0123 -0.0172938 -2.00655 -0.00364905 0.00402303 -0.000416454 0.998914 -1.00428 -2.00173 -0.997238 0.00289904 2.00079 1.00046 0.00274165 1.00602 -1.99749 -0.000170036 0.9976 0.996585 1.99111 -0.999066 1.00746 1.00009 0.00412013 2.0041 -1.99387 2.00063 0.00664505 -1.99768 1.99822 1.99815 -1.00027 0.991646 -1.01729 1.99392 1.00107 0.00687269 -0.99971 -2.00469 -0.999029 2.00348 0.00282191 -1.99665 -1.99829 1.00092 2.01052 2.01183 1.00441 2.0028 2.00332 1.97551 -0.0270604 0.995915 1.01444 -1.99798 1.00164 1.0037 0.00410096 1.99808 1.99838 -0.999266 2.00169 -2.00312 0.992603 -0.0133736 -1.00319 -2.00681 2.00369 2.00626 -0.00196797 -1.00377 0.00423943 -0.997276 -0.997383 1.00283 -2.00116 -0.99918 1.00854 -1.99271 1.00456 2.00697 2.00892 -2.0199 -0.0263868 -1.01276 1.00782 -0.995233 -2.00088 -0.996577 0.995567 -0.0102718 -2.01077 1.99297 -1.99845 0.000209609 0.990488 -0.00154343 0.000240802 0.994487 -1.99777 2.00256 -0.00478393 -2.0046 -0.996181 -1.99769 -0.996005 -0.995852 -0.000876368 2.00106 2.00605 2.00425 -1.99646 -1.99348 1.00724 -0.0142776 -2.02856 -2.01747 -1.0022 -1.99313 1.9976 -0.998673 -1.00131 1.99791 -0.00434487 1.00063 2.003 0.00471006 0.996245 -1.00337 -2.00281 -0.0068612 1.00094 -0.995306 1.99626 1.99873 1.00434 -1.99744 -0.99708 -0.994914 -1.99999 0.00226819 0.0104571 2.00801 -1.9948 -0.989879 0.0099583 0.990623 -2.02435 -2.01408 -2.00679 -1.99353 -0.999632 0.00413061 -2.00165 -0.00239028 -2.00179 0.000744563 0.00471717 2.00629 -2.00303 1.99853 -1.00254 -0.00351828 2.00029 2.00183 -2.00263 -1.9994 0.00153311 0.00192058 0.00115621 -0.99642 2.00125 -1.99742 -0.988183 2.00798 -1.00107 -0.991039 1.01448 1.99018 -1.02055 0.991077 0.993094 -1.99887 -1.99889 -1.99585 -0.00281878 -0.00550284 2.00092 0.000437807 -0.994515 0.00504677 -0.00244831 -0.00182859 -1.00199 -1.00418 -0.997989 0.00212852 1.0015 -0.000476615 -1.00068 1.99945 0.999855 -2.00072 -2.0012 -1.00039 -0.000424744 -2.0009 0.999556 1.99918 -0.000677956 -2.00068 -0.000720866 -0.00075179 -0.000870771 -0.00102584 -1.00081 -2.00051 0.998966 -2.00122 -0.000965632 -2.00126 -1.00147 -1.00177 1.99837 2.00135 -0.997794 0.00222326 -1.99815 -1.99838 -0.998601 1.99913 1.99897 -2.00126 -1.00071 -1.00072 1.99909 -0.00045985 0.999401 -0.00114906 0.998871 -1.00107 -1.00114 0.999537 1.99891 -2.00111 -1.00139 -2.00105 -1.00017 -1.99961 -0.000198422 -0.000824519 0.999569 0.99911 1.99871 0.998935 1.99888 0.00141656 0.0017849 -1.99836 -1.99802 -1.99843 1.00109 1.99928 -0.000966264 1.99889 -0.00101364 -2.00092 -0.000636152 1.99921 1.99915 0.999252 -1.00086 0.99875 1.99883 -1.00013 -0.00114957 -1.00161 1.99894 1.99918 0.999849 2.00011 0.999835 -2.00108 1.99935 0.999163 1.9988 -1.0014 -0.000741403 1.00148 -1.99866 -0.998494 2.00163 0.00163279 0.00132345 1.99897 -2.0011 0.999207 -1.00117 0.999149 1.99902 -1.00126 1.99888 0.99927 -0.000832876 0.999017 -0.000860972 0.999609 -0.000881014 -2.00121 1.99903 -0.00144871 1.99921 -2.00024 0.999574 -1.00139 -0.00110203 -0.000908012 -0.00113106 0.998909 -0.000953055 -0.998479 2.00139 2.00137 -1.99844 -0.998577 -0.998982 -0.00135563 -1.00144 1.99858 1.99802 -0.00146473 -1.00159 -2.00197 -2.00173 -1.00105 -1.00126 1.99871 0.998403 -1.00125 0.998812 -1.00148 0.999157 0.9987 1.99884 -0.000627146 -1.00116 1.9985 -1.00113 -2.00094 0.999003 1.99833 -1.00184 -0.99923 -1.99855 -1.99853 -1.99845 -1.99877 1.00066 0.997852 -1.00155 0.998419 1.99764 -0.00180121 1.9984 1.99759 -1.00185 -0.00137427 0.998879 1.9985 -0.00177153 0.998466 -1.0017 -1.00198 -1.00161 1.99842 -1.0017 -2.0021 1.99809 -2.00175 0.998429 -0.00131268 -0.000687943 -2.00139 -1.00153 2.00103 2.00154 -0.998704 2.00135 1.00121 1.00077 -1.00233 1.99809 -2.00181 -1.00243 -2.00185 -0.00192258 -2.00309 -2.00257 -2.00215 -2.00176 0.998594 -0.00179932 -1.00203 -0.0012966 1.99826 0.998311 1.99802 -0.00148026 -0.00118567 -0.00127323 -2.00167 -1.00161 -0.00181086 0.998623 0.998158 0.998381 -0.999157 -0.998573 -0.999231 1.00139 -0.998288 0.00127595 -0.00196803 -1.00229 1.99789 -1.00235 -1.00244 -1.00296 -1.00309 0.998011 -2.00154 0.998661 -2.00144 -0.000746908 -0.00199232 1.99769 0.998645 0.999192 1.99897 -1.00035 -0.000413821 0.99896 -2.00139 1.99964 0.998244 -0.0011393 1.99829 1.99872 2.00074 2.00078 -0.999512 -0.998088 2.00172 -0.998914 -1.00185 1.99757 1.99699 -1.00265 -0.00217333 -2.00205 1.99772 -1.00178 1.99846 1.99764 -0.00181163 1.99839 -0.0019883 -2.0024 -1.00113 -2.00114 0.998658 -1.00077 -2.00116 0.998891 -2.00148 -1.00104 -1.00185 -2.00165 -1.00137 -1.00111 0.000581479 0.000601036 0.000550247 -1.99755 2.00226 1.00127 -0.00178467 0.99737 -2.00223 1.99869 0.999273 -2.0015 1.99753 -2.00172 -0.000965137 -0.00146057 -2.00202 0.998311 -1.00172 0.998948 -1.00056 -0.000370883 -2.00061 -2.00049 -2.00109 -1.00115 0.998982 1.99832 0.99888 -2.00178 0.99826 -2.00156 -0.999354 2.00081 2.00043 2.00279 1.0028 2.00204 1.99891 -1.00242 1.99849 1.9988 -1.00057 -2.00141 -1.0013 0.999707 -1.00041 -0.000633231 1.9998 -1.0002 -1.00003 0.000441409 -0.000125687 -1.00016 -0.999612 -2.00046 -1.00067 -2.00036 1.99856 -0.00150331 -0.00113478 -2.00217 -2.00263 0.998137 -1.99996 0.00103793 -1.99945 2.0025 -1.99756 -0.997537 -2.00097 -0.0027538 0.997989 -2.00138 -0.00137073 0.99955 -0.999993 0.000223182 -0.000200409 -1.00013 2.0002 0.999808 0.99915 1.99964 -2.00013 -1.00064 0.999693 0.999607 -2.00094 1.99873 0.99816 -1.00221 1.99831 0.998635 1.99754 -2.00279 1.9997 -0.999089 1.0006 -1.99801 0.00197475 1.00128 -2.00125 -1.00226 0.997989 0.998376 -0.000875287 -2.00063 -2.00027 0.999741 -0.000983297 1.99913 0.999911 -2.00048 -0.00017639 1.99962 -0.000693866 -1.00116 -2.00127 0.999146 -2.00108 0.999123 -1.00216 -1.00172 0.998621 0.998119 -0.00186084 -1.0027 -1.00025 0.000811184 2.0005 1.00174 -0.998152 -0.998604 0.998795 -1.00194 -1.00165 -0.0014081 -1.00136 1.9988 0.999121 -2.00091 1.9987 1.99877 -0.000329308 0.999933 0.999837 1.99951 1.99871 1.99826 0.998993 -2.00112 0.998318 -2.00256 -2.00183 -1.00168 1.99882 -1.00169 -2.00186 -1.00204 -2.00053 0.000557991 2.0002 0.0022198 2.00207 2.00142 -1.00133 -1.00194 -0.00148776 -2.00205 -2.00205 -0.00159236 1.99801 1.99822 1.99904 1.99883 0.999213 -2.00093 -0.000553155 -0.000882915 1.99906 -2.00097 0.999127 -1.00092 -2.00208 -0.00303436 -1.00205 1.9981 -1.0017 -1.00113 1.99811 -0.00192896 -2.00011 1.00002 0.000616271 0.00235387 2.00199 -1.99882 1.99827 -1.00168 1.99824 0.998034 0.99806 0.998217 1.99835 0.999003 -2.00081 -2.00073 -0.000654057 1.99925 -1.00074 0.999092 1.99882 -2.00095 -1.00074 -1.00109 1.99779 -2.00227 -0.00127131 0.999024 1.99838 -0.00134681 -2.00173 -1.0018 1.00041 -1.99978 -1.99966 0.00211209 -0.997806 -1.99912 0.998353 -1.00114 -2.00135 1.998 -0.00136861 1.99898 -1.00034 -0.999969 -1.99968 2.00036 1.00014 -0.999897 -2.00007 -1.00066 -2.00111 -1.0013 1.99903 -1.00081 -1.00154 -2.00152 1.99914 -2.00122 1.99887 -2.00142 0.99855 -2.00191 0.000648275 2.00032 -1.99999 -1.99906 -0.998343 2.00096 -0.00123972 -1.00133 1.99887 0.99906 1.99905 -2.00041 1.00015 -1.99974 1.00043 -0.999594 -1.99937 0.000308757 -0.000455229 0.999535 -0.00113636 -2.00144 -0.000816715 1.9991 1.9988 1.99859 1.99886 0.999147 0.999194 0.998572 0.997914 -2.00229 1.00028 -1.99927 -0.999108 -0.999101 1.00089 -0.999064 -0.00100903 0.998752 -1.00116 -0.000781969 1.99932 1.99962 -1.00012 6.65725e-05 0.000128468 2.00032 1.00007 -0.000512408 -0.000689282 -1.00112 -1.00135 0.998911 -2.00122 -1.00106 -2.00102 -2.00116 1.9991 -0.000830727 1.99907 0.998709 -2.00264 0.997776 -2.00008 -1.99966 0.000819975 -0.998992 0.00131263 -0.999223 -2.00109 -2.00147 -1.00098 1.99941 -0.000437142 1.9993 -2.00074 -0.00053452 -1.99996 0.999745 -2.00074 -1.00123 -0.00107929 0.998965 1.99906 -1.00091 -2.00085 -2.00077 0.999112 -0.00113145 -2.00118 -2.00087 -2.00139 1.99839 0.998256 1.99767 -2.00001 2.00047 -0.999258 1.00086 -1.99904 -1.99963 -2.00125 0.998787 -0.00114412 -2.00112 -0.000704873 -2.00058 -0.000666936 0.999519 -2.00026 -0.00121905 1.99912 -1.00062 -0.000688598 -0.00071115 -1.0008 0.999164 1.99924 -1.00067 -2.00081 -0.00107609 -1.00105 -0.000933079 -0.00101635 -0.00117226 1.9984 1.99799 0.000313676 1.00083 -1.99912 -1.99926 -0.998975 1.00025 -0.000900325 0.999342 -1.00092 1.9989 -2.00106 -0.000997426 -0.000742644 0.999379 -1.00069 -0.000883146 1.99969 1.99954 1.99914 -0.000625593 -0.000641555 0.999202 0.999092 -2.0007 -0.00118358 -1.00137 1.9986 -2.00099 -2.00125 -1.00144 1.99848 0.998087 -2.00008 1.00042 -0.999098 -1.99954 1.00047 -0.999694 0.997937 1.99865 -2.00087 -0.0010104 -1.001 -0.00104538 0.99879 1.99889 1.99951 0.999838 0.999655 1.99948 -2.00005 0.999465 -0.000818969 -2.00104 -1.00092 1.99862 -2.00134 0.998664 -0.00132462 -1.00123 -2.00139 1.99816 -2.00223 0.997948 9.44914e-05 -1.99987 -1.99956 0.000731485 -1.99955 -0.999796 -0.00204694 -1.00232 1.99814 -1.00102 1.99857 -0.00123216 -1.00068 -0.0004617 -0.000367157 -0.000218311 -1.00006 0.999653 0.999902 0.99957 1.99893 -2.00112 0.998664 -1.00153 0.998313 -1.0017 -1.00153 -2.00149 -2.00146 0.998373 -1.00218 -1.00218 1.99996 0.000734599 -1.99967 2.00045 -0.999375 1.99997 -0.00190626 -1.00216 0.998708 0.999244 -2.00075 0.999461 2.00013 2.00045 0.00016483 2.00058 0.000135546 2.00029 2.00003 1.99961 -1.00095 -1.00074 0.999229 -2.00091 1.99887 -2.00109 -0.00108714 0.999061 -0.00111037 0.998917 0.998566 0.998008 1.00001 1.00005 -0.999315 2.00045 2.00046 2.00009 -2.00187 0.997965 -0.00142646 0.999276 0.999178 0.999403 -2.00016 -2.00037 0.999545 -0.000470062 2.00025 0.999712 0.999534 -1.00036 0.999151 -1.00076 -0.000468841 -1.00087 0.998645 -2.00133 -0.00127261 -0.00125787 -2.00111 -0.00145503 -0.00153107 -1.00216 -1.00003 -0.999429 1.00004 2.00044 1.00065 -0.999514 -0.00169103 -2.00206 1.99819 -2.00138 0.999076 -2.00109 -1.00026 -2.00118 1.99916 0.998742 -1.00108 -1.00079 0.999194 -2.00079 1.99853 -2.00127 1.99859 -0.00133585 -2.00172 -1.00164 -0.00148359 -2.00126 -0.00171794 0.998101 -0.00189834 -1.00201 0.000217611 -0.999488 1 0.000912315 0.00105719 2.00016 -2.00168 -0.00155934 0.998391 0.998473 -1.00139 -0.00107894 -1.0015 -0.000891994 0.999004 -0.00151026 -2.00214 0.998362 1.99792 -0.00170821 0.998613 1.99896 1.99851 0.998391 -1.00152 0.998499 -2.00162 -1.0019 -0.00189468 -2.00198 -1.00198 1.99808 0.000268804 0.000575972 -2 -0.998861 1.00097 -0.999252 -0.00118792 -0.00168692 0.998442 -1.00178 1.99847 -2.00131 -0.0012331 -1.00119 1.99863 -2.0015 -1.0013 0.998501 -2.00179 -1.00178 -1.00137 -2.00129 -1.00168 0.998372 -2.00161 1.99859 1.99864 -1.00136 -0.00156934 -0.0013925 -2.0017 -2.00197 -1.0002 2.00028 0.000350298 -1.99946 -0.998805 1.00035 0.998785 0.998086 1.9961 0.996251 0.996361 1.99792 1.99844 -1.0015 -1.0015 -2.00183 -2.00212 -2.00203 -0.00175023 -1.00152 0.998523 0.998534 -1.00146 -2.00167 -2.00169 -1.00137 0.998868 -2.00195 -2.00187 1.99829 0.998492 -0.00170744 -2.0004 0.000594083 -0.999661 1.00052 0.00107661 1.00014 1.99865 0.998668 -2.00161 -2.0021 0.99764 -0.00167893 -1.00162 0.99889 -0.00113381 0.998622 -1.00194 1.99825 -2.00167 -0.00134313 -0.00126088 -2.0014 -0.00127663 -1.00168 0.998652 0.998789 -1.00144 -1.00218 -2.00229 1.99785 -1.00204 -2.00223 6.53759e-05 0.000480543 2 1.00047 -1.99952 0.000540106 -2.0009 0.999189 1.99906 -1.0009 -0.000866933 -1.00135 0.998604 -1.00098 -2.00114 -2.00127 -1.00124 -0.00139141 1.99837 1.99854 -1.00138 -0.00116485 -2.00174 -1.00157 1.99795 1.99781 -1.00221 -2.00232 1.99773 0.99838 -2.00219 -0.0018418 0.99998 1 2 6.25199e-06 6.19527e-06 -1 2 2 1 2 2 2 -1 8.4498e-06 2 1.04444e-05 2 2 -0.999997 -2 1.16499e-05 1 -2 -2 -2 -2 1.11791e-05 2 -0.999997 1.0862e-05 -2 -2 -2 -2 -2 2 2 -2 4.90195e-06 -1 -1 -1 1 2 7.27642e-06 -1 -2 -1 1.06868e-05 -0.999997 -0.999997 -0.999997 1.03905e-05 1 1 2 -0.999999 2 8.06119e-06 -2 -2 -2 7.96679e-06 -0.999998 2 1 -1 5.32354e-06 -2 -1 2 2 1 -1 -1 7.30615e-06 1 1 -1 1 -2 8.30863e-06 7.07172e-06 -2 1 2 1 -2 2 1 6.68938e-06 2 2 1 2 -2 -2 6.35495e-06 1 -2 1 -0.999999 -2 2 1 -2 -2 1 -2 1 -1 2 -1 6.90311e-06 6.19396e-06 -1 5.66936e-06 2 -1 1 1 1 1 5.75794e-06 1 1 -1 2 -2 2 2 5.34397e-06 2 5.69773e-06 1 1 2 -2 -1 -2 -2 2 6.88991e-06 -2 -1 -2 -2 2 -1 7.58827e-06 7.62218e-06 -1 -2 2 -1 7.02477e-06 1 2 2 2 -2 2 -2 5.3072e-06 2 2 2 1 4.52547e-06 6.27083e-06 1 -0.999998 1.1721e-05 -0.999999 7.07675e-06 1 1 -2 2 9.51372e-06 2 8.5247e-06 8.55684e-06 -1 -0.999999 2 -1 2 -1 1 7.86429e-06 7.6778e-06 -2 8.2564e-06 -1 5.95556e-06 2 -2 2 2 4.97852e-06 2 8.01361e-06 8.25835e-06 2 2 1 -2 -1 -0.999999 2 -0.999998 7.39077e-06 -2 2 -1 -1 -0.999998 -2 -1 7.6054e-06 -2 2 -2 -2 -1 -2 -2 -0.999997 1 8.08814e-06 -2 2 5.86625e-06 -2 1 1 1 -2 8.76122e-06 9.17017e-06 1 1 1 8.681e-06 8.60592e-06 2 -2 -1 1 1 7.40389e-06 -2 1 -1 1 7.18132e-06 -2 -1 2 -2 7.0824e-06 -2 2 2 1 2 1 2 -0.999999 -2 -2 1 -2 -2 -2 1.02413e-05 1 -2 9.51075e-06 -2 -2 -2 1 2 -1 2 1 -1 -2 2 2 -1 -1 2 6.31666e-06 -1 -0.999999 -0.999998 -1 1 9.46648e-06 -0.999998 1 -0.999997 2 2 2 1 1 8.22797e-06 -2 2 8.29847e-06 2 2 1 -2 -2 1 7.18255e-06 6.95465e-06 6.80311e-06 1 7.04131e-06 1 1 -1 7.84992e-06 -0.999998 7.89664e-06 7.19197e-06 -0.999998 2 1.09186e-05 -2 -2 -2 -2 2 7.26093e-06 7.27962e-06 2 6.70022e-06 -2 2 -2 -2 1 1 -1 1 -2 1 -2 2 1 2 -0.999998 7.03434e-06 -1 7.16172e-06 -0.999998 1 1 -0.999997 1 1 -1 2 2 7.7065e-06 1 1 1 -1 -1 2 -2 8.03615e-06 -2 -2 1 1 8.04374e-06 7.77823e-06 -2 1 7.4519e-06 -0.999998 1 1 1 1 8.22875e-06 -2 -2 1 -2 -1 2 2 2 6.67759e-06 1 -1 -1 2 -2 -2 1 5.69146e-06 5.98088e-06 2 1 -2 6.03537e-06 1 -2 -1 1 -1 -1 -1 1 2 -0.999998 -2 5.59641e-06 2 -1 -1 -1 1 1 5.92481e-06 2 1 -1 -2 -2 2 3.44685e-06 -1 -2 2 6.44574e-06 5.94315e-06 2 2 2 3.37626e-06 2 2 2 -2 2 2 -0.999997 1 -2 5.94211e-06 -1 5.09249e-06 2 -1 -1 -1 1 -2 -1 4.48443e-06 2 2 3.95017e-06 2 -0.999998 -2 2 -0.999999 -1 4.59432e-06 -2 -1 3.81868e-06 -2 1 2 6.45014e-06 -2 1 -2 -0.999997 -2 -2 1 1 1 2 -1 1 -1 1 2 1 2 3.45682e-06 1 6.24449e-06 2 -2 -0.999999 -0.999999 4.70431e-06 2 2.53736e-06 -1 6.11808e-06 6.28145e-06 6.65836e-06 -0.999997 2 1 1 4.62037e-06 -2 1 2 3.30258e-06 1 1 2 -1 2.96619e-06 -2 2 2.83726e-06 -2 -2 -2 -1 -0.999999 5.78267e-06 5.40719e-06 1 4.88306e-06 2 -2 6.04276e-06 2 -0.999997 6.7103e-06 1 -0.999997 6.37059e-06 2 2 1 3.20077e-06 2 1 -2 1 -1 2 1 1 2 -2 1 1 -1 2 2 1 4.97239e-06 -0.999999 2 1 2 6.39862e-06 1 -2 -0.999997 1 2 6.41479e-06 1 -2 4.55674e-06 -1 2 4.0887e-06 -2 1 3.90204e-06 4.05161e-06 3.71562e-06 1 2 -1 1 -2 2.96525e-06 -2 1 -2 1 -0.999999 4.76728e-06 2 1 2 -2 2 -0.999997 -2 7.24516e-06 -2 -1 2 2 2 1 3.77657e-06 -1 1 -2 2 1 1 2 3.16033e-06 1 2 2 2.78514e-06 4.08699e-06 2 -2 2 -2 -2 6.72864e-06 -2 -0.999997 1 -2 -0.999997 -0.999999 4.0239e-06 1 -2 1 1 -2 -1 2 3.39931e-06 -2 1 2 1 -1 -1 -1 -1 3.51588e-06 1 2 5.52373e-06 -2 1 -2 -1 2 6.82532e-06 1 1 1 -0.999998 2 4.11555e-06 2 -1 1 1 1 1 -1 1 3.24927e-06 -1 -1 2.78291e-06 -1 3.1811e-06 3.04891e-06 2 1 3.02947e-06 2 -2 -2 4.89445e-06 1 4.23131e-06 -0.999997 -2 -2 7.03562e-06 -0.999997 -1 1 -2 -1 3.89111e-06 4.0622e-06 3.58986e-06 1 2 2 3.13624e-06 1 1 2 1 -1 2 2.97286e-06 2 2 3.14005e-06 1 -2 5.4886e-06 5.04679e-06 2 4.32486e-06 2 2 -2 2 5.04117e-06 -2 -1 2 -2 -1 -1 -1 2 -1 -2 -1 -2 2 2 1 -2 2 -2 -1 2.30015e-06 -2 1 2 5.32372e-06 2 4.71327e-06 1 -0.999997 2 -2 -0.999999 3.85194e-06 -1 1 1 3.66434e-06 1 3.5916e-06 -2 3.70709e-06 1 3.49972e-06 2 3.36879e-06 2 -2 -1 2 2.93855e-06 2.89976e-06 1 -2 1 -1 2 1 -1 -1 -2 6.50549e-06 1 -0.999998 1 -2 1 2 -2 -2 -2 -1 -2 -1 -2 3.37274e-06 1 1 3.16434e-06 -2 2.84902e-06 -2 2 -2 -2 -1 -2 -1 2 2.64578e-06 -1 1 2 2 6.50573e-06 1 1 -2 2 -2 -1 3.34602e-06 2 2 1 1 1 -1 1 -2 1 3.10408e-06 -1 -1 2.74866e-06 2.46656e-06 -2 -1 2.74191e-06 2 2 -2 2 1 1 2 5.16244e-06 -1 -2 1 -2 -2 -1 1 -1 3.24349e-06 -1 1 2 1 2 1 -1 -1 2 1 2 1 2.2729e-06 1 2 1 2.16128e-06 -2 1 4.35871e-06 1 1 -2 2 2 6.37441e-06 -2 2 2 -0.999998 -2 2 -0.999998 5.8168e-06 2 1 -0.999998 -0.999999 -2 2 4.88397e-06 -1 1 1 -1 -2 -2 4.6771e-06 -1 1 2 1 -1 1 1 1 2 6.01919e-06 1 5.90911e-06 -2 -2 5.81618e-06 -2 2 2 1 -2 -0.999998 -0.999999 5.38716e-06 1 1 -2 -2 -2 -2 -0.999999 4.8087e-06 1 -2 1 2 -1 2 6.18796e-06 -0.999998 1 -0.999998 -0.999998 5.85041e-06 -2 2 -0.999998 -2 2 -0.999998 2 -2 1 -0.999999 1 1 4.75291e-06 -1 -2 -1 -2 2 2 2 -1 4.52797e-06 -1 -2 4.14077e-06 -2 -2 -2 5.96253e-06 -2 1 5.77597e-06 -2 2 5.68647e-06 1 1 5.4991e-06 2 -2 2 -2 5.14555e-06 4.99607e-06 -1 1 2 -1 2 -1 1 4.43596e-06 4.39801e-06 -1 -1 4.17925e-06 2 -2 0.998622 -0.00154252 0.998699 0.000425971 -0.999021 0.999978 -2.00068 -0.999967 0.00117155 -1.9985 1.9996 0.999358 0.998397 -1.00168 0.999246 0.999686 1.99949 0.999261 -2.00039 -0.999817 -0.999441 -1.99981 0.000198808 -5.26518e-05 -1.99962 -1.99943 -0.000320388 0.000876859 2.00069 0.999012 0.998742 -0.0012445 0.998502 1.99862 -0.00117276 -2.00011 -0.999254 -2.00046 -2.0016 1.99966 -0.997473 1.00318 -1.00005 -1.00075 -2.00046 -0.000858686 -2.00042 1.00023 -2.00031 -2.0005 -2.00018 0.000668389 1.99988 -0.999539 0.000296457 1.00057 -0.999181 -0.999136 -5.61631e-05 0.000319887 0.000356566 -2.00089 -2.00138 0.99883 -0.00161688 -1.00156 1.99866 1.9995 2.00015 -1.99997 1.9989 -2.00087 1.99998 -2.00056 -2.00129 1.99899 -0.999884 -2.00043 -1.00031 -1.99907 -2.00045 -0.000940912 -2.00034 0.000619481 -1.99926 0.000328819 -0.999575 1.00047 -0.999286 0.000407024 -8.19053e-05 2.00007 2.00001 -2.00138 0.998722 0.998893 0.998367 -2.00159 -2.00166 1.99927 0.999533 1.99953 -2.00052 0.000179643 -2.00014 0.999757 0.999937 -2.0002 -1.00001 0.000231105 0.999939 0.00110154 0.00040296 -0.000328769 -2.00018 2.00079 0.00154782 0.000500074 2.00065 1.001 2.00035 -3.07825e-05 0.000131686 1.0001 1.9997 0.998489 0.998556 -0.00132916 -0.00138549 0.998772 -1.00073 -0.999834 0.99969 0.000132633 1.00115 1.00099 -2.0003 -0.000300076 0.000187282 -1.99985 -0.999841 1.00007 -0.999454 -0.999079 0.00100336 -1.9999 -0.999542 -0.999442 0.00142854 1.00034 -0.999568 -0.999081 0.000745092 0.999547 0.000330877 0.000677186 -1.9998 0.998996 -2.00113 -1.0012 1.99893 -2.00097 1.99929 -0.999015 1.00014 -0.999256 2.0006 0.998447 -1.00232 0.99932 -0.999123 0.00101984 -0.999285 1.00134 2.0014 1.00133 0.000841599 1.00139 0.00139767 -1.99832 2.00178 -0.999139 1.00041 2.00039 0.000912251 0.000353409 -1.99953 1.00017 0.999928 0.998695 -2.00135 1.99911 1.9987 0.998921 1.99919 -1.9994 1.00015 2.00114 1.99993 -1.00041 1.00095 2.00144 -0.999386 -0.998959 0.000250509 1.00074 -1.99868 2.00095 2 -0.999443 0.00168236 0.00193765 2.00163 1.00127 0.00156408 -0.998651 1.00106 2.0017 0.00243813 -1.99797 2.00134 -1.00078 -2.00111 -2.00067 -0.00113489 1.99914 -0.000267606 -1.9984 -1.9994 2.00145 -1.99763 1.00234 0.00171694 0.0015049 2.0019 1.00159 2.00049 2.00156 0.00120398 1.00078 1.00065 -0.999621 0.0020997 2.00239 -0.997476 1.00179 0.00110341 0.000897048 1.00232 0.00186105 -1.99829 2.0025 2.00173 -0.000829912 -2.00079 -1.00037 0.99874 -1.00081 1.99956 -0.998136 0.00154339 -0.998352 0.00224765 0.0021392 0.0016515 0.00195218 1.00202 0.00188867 -0.99826 0.00185203 -0.998658 1.00045 -1.99961 2.00005 -1.99823 -0.997889 1.00225 2.00218 1.99942 -0.99894 -1.99881 1.00278 2.00175 -1.99761 1.00057 0.999492 -2.00054 -2.00055 0.998367 -2.00151 -1.00094 0.00211293 0.00268976 -0.998027 1.0021 1.00188 -1.99816 -1.9975 -0.997502 -0.998128 2.0019 -1.99815 1.00159 -0.999248 0.000884015 0.00105237 1.00182 0.00207486 2.00241 -0.997415 0.000211157 2.00096 1.00065 1.0028 1.00223 -1.99734 0.00261957 0.000255662 1.99966 0.999255 -0.00182601 1.99793 -1.00147 -0.999015 2.00267 -0.997742 1.00238 1.00187 -0.99771 2.0024 0.00224615 0.00191684 -0.999774 0.999727 -0.00156218 0.998119 -0.000180635 1.99929 -9.00646e-05 -0.999157 -1.99796 0.00199113 2.00025 -1.99838 0.00275393 -1.99734 1.0022 2.0025 -1.99653 -0.999644 -1.00034 -2.00103 -2.0022 -2.00193 0.999097 1.00305 0.0032856 2.00225 -0.997636 -0.997978 -1.99813 -1.99832 0.00206487 2.00044 0.000514016 1.99952 -0.00176661 0.998674 1.00017 -0.00181065 0.998281 0.998834 1.99909 -2.00147 -0.0011237 -2.00076 0.000460716 -0.998495 -1.99839 2.00269 2.00284 -0.000121013 0.99935 -0.000617712 1.99834 0.998515 -2.00047 -0.997219 0.00336044 2.00276 2.0031 0.00225705 2.00227 -1.99781 -1.99906 1.99962 0.999652 -1.00128 -2.00134 -1.00132 0.999419 -1.0018 1.99838 -0.000712307 -0.999364 -0.00151572 -2.00199 -1.00158 -1.00103 0.999004 1.99904 -0.000100789 -0.000338793 -0.00102387 -1.00061 -0.000691378 -1.0015 1.99857 -2.00079 0.00200307 -1.99724 2.00298 1.00384 1.00178 1.00191 -1.99795 2.00004 -2.0296e-05 -2.00028 -0.00134988 -1.00159 0.998638 0.999087 -0.00101378 -2.00036 -1.00096 -0.998881 -2.00139 0.99879 -0.00169047 0.998782 -0.000825472 -2.00071 -0.000502883 -1.00101 -0.000788615 -2.0005 -1.00054 1.99859 0.998738 0.99896 0.00175878 -0.997891 -0.998481 -0.998615 -1.99825 1.00225 -2.0002 1.99938 0.999531 -2.00066 -1.00166 -1.00177 -0.0012455 1.99856 -1.00191 -2.00052 -0.00150524 -1.00001 0.997483 1.99786 0.997744 -0.00185844 -1.00159 0.997954 -0.000687898 1.99939 -2.00085 -2.0008 -0.000894746 -0.00130099 0.998789 1.99865 1.0017 -1.99656 0.00279283 -0.997893 -1.99703 -1.99884 1.9983 -0.00132801 -0.000711628 -2.00139 0.997363 1.99702 0.997154 1.99789 0.997807 -1.00059 -0.00129119 0.998056 0.996724 0.996505 -1.0035 -2.00327 -2.0031 1.99748 1.99858 -2.00136 1.99847 -1.00097 -1.00101 -2.00174 -2.00223 -0.00105656 -0.99731 -1.99684 0.00391356 1.00309 2.00178 1.00004 -0.000488823 1.99709 -2.00167 -0.00168967 -0.00401681 1.99613 1.99696 -2.00193 -0.00278778 -0.000698834 -1.0021 1.99767 -2.00265 -2.00279 -2.00313 1.99733 1.99662 -2.00323 -2.0022 -2.00155 1.99847 -1.00106 -0.00102295 0.999143 -2.00166 0.998482 -1.99821 2.0027 1.00293 -0.998626 -0.999855 -2.001 0.997705 -0.00345765 -1.00297 0.997306 0.995762 -1.00413 1.99786 -1.00206 -0.00314123 -2.00263 -1.0025 0.996993 1.99701 0.997008 -0.00328779 -1.00323 -2.00317 -1.00266 0.998208 0.998647 -1.00083 -2.0009 1.999 0.999129 -2.00144 -2.00211 1.00137 1.00195 1.00168 0.999193 -0.0013641 1.99858 -1.00282 0.996827 1.9976 -2.00322 -2.00363 0.996672 1.99789 1.99868 -2.00255 -2.00308 -0.00272596 1.99644 -1.00334 -1.00317 1.9965 0.996323 1.99691 -1.00254 -0.00178311 -0.00166873 -1.00146 -2.00051 -1.00081 -2.0015 -0.00145468 1.9986 -1.99855 2.0024 0.999612 -2.00281 -2.00276 -0.00228238 -0.00334254 1.99681 -0.00273809 -2.00314 -1.00323 -2.00337 1.99812 -1.00141 0.996974 0.996611 0.996357 0.996398 1.99664 -1.00345 0.997221 -2.00286 1.99709 -0.00232055 -0.00129658 -2.00135 0.99812 -0.00125479 -0.000655402 1.99823 1.99841 0.999757 1.00096 -1.00062 -0.00334136 1.99665 -0.00300895 0.99626 0.996305 0.996134 1.99634 1.99654 0.996498 -0.00358388 -2.00245 -2.00174 1.99741 0.996926 -1.00379 -2.00344 0.996648 -2.00301 -2.00212 -2.00275 0.996949 0.997262 -2.00192 -1.00123 -0.00177586 -1.00212 -2.00179 1.99842 -2.00076 1.9993 -1.00179 -2.00391 -2.00214 -2.00168 -0.00242364 -1.00304 1.99652 1.99666 -2.00342 1.99683 -2.00298 1.99706 -2.00226 -1.00227 0.997088 0.997127 1.99726 0.997436 0.997755 -1.00165 1.99941 1.99762 -2.00224 -2.00237 1.99815 -1.00142 -0.00119725 -2.0014 0.998028 -2.00098 -0.000879954 1.99854 -0.00187766 -2.0029 1.99772 -1.00258 1.99785 1.99741 -1.00304 -0.00283849 -0.00294325 -1.00378 1.99695 -0.00263611 -0.0019877 -2.00176 0.997665 1.99805 -2.00202 -2.00136 -2.00111 -1.0009 -0.999636 -1.00199 1.99801 1.99802 -2.00173 1.99847 -0.00104881 -1.00084 -2.001 1.99927 -1.00087 0.998459 1.99874 0.998475 0.998403 -0.00379226 -1.00259 0.996944 -1.00361 -2.00348 -0.00363836 1.99619 -1.00367 -2.00332 -0.00332978 1.99702 0.997769 -2.00203 -2.00194 -0.00100505 0.999164 -0.000746827 0.000741002 -0.00153152 -2.00174 -1.00188 -2.00134 -1.00133 -0.000820034 -1.00073 0.999901 -1.00071 -0.00111268 -2.00053 -0.998519 2.00077 2.00035 -0.00106754 -0.00244223 -2.00221 0.997876 0.997248 -1.00306 -0.00321384 1.99709 -1.00326 0.99693 -1.00207 1.99945 0.99859 0.998683 -0.000922571 1.99896 -1.00026 2.00217 -2.00115 -2.00113 1.99897 -0.00124723 0.998736 0.998741 -2.00059 -0.000202606 0.999042 -0.000982772 -1.00083 -0.998471 -0.998946 1.00042 1.9995 -2.00152 -0.00284329 1.99766 -2.00212 0.996838 1.997 -0.00374044 -1.00416 0.996797 -2.00193 -2.00128 -0.00181531 -1.00198 1.99883 -2.00127 -1.00042 -1.99856 -0.000457081 -0.00104964 1.00062 0.00115736 1.99944 0.999365 -2.0006 -2.00032 1.99961 -2.00043 -2.00002 1.00207 1.00256 2.00083 1.00101 2.0004 -0.00143608 -0.00122373 -2.00123 0.997573 -2.00262 -0.00299948 -0.00383233 0.996766 0.997446 1.99906 -1.00027 -1.00074 -2.00026 -1.00075 0.000586201 1.00136 2.00086 1.99919 -0.998339 -0.997556 -0.000249568 -2.00052 -2.00063 1.99998 -0.000366737 0.999859 1.99996 2.00124 -1.99822 -0.998943 2.00249 -0.998834 -2.00174 -0.00090443 -2.00094 -1.00166 1.99797 -1.00084 0.999265 -1.00237 -0.00196576 -0.000737723 -0.999904 -0.999686 -0.998927 -0.999809 0.00149634 1.00264 0.00140251 -0.999899 -0.997723 1.00253 0.999247 -2.0007 0.999954 -2.00001 0.999725 -1.00049 -1.00039 1.00086 -0.996869 0.00202713 1.00279 1.00307 1.00062 1.00023 2.00044 -0.999961 2.00115 1.00192 0.00215248 0.000730963 -0.000104784 -1.00044 -1.99902 2.00037 -0.000675143 1.99994 -0.999945 0.00150896 2.00031 -2.00071 1.00071 0.000675296 -1.00071 0.999818 1.00014 -9.3823e-05 0.999598 -1.00035 -2.00022 -1.99742 0.00420271 1.00634 1.00642 -1.99313 -1.99566 1.00282 0.00270098 2.00212 -1.99749 -0.996228 -0.995768 -1.99693 0.00156789 0.00159997 -1.99703 -0.99722 0.000199494 -1.99908 2.00057 -1.99965 0.000385945 -0.000686679 -2.00061 1.99957 -2.00054 1.99966 0.000139704 -2 -0.000479408 0.999794 0.000199173 -0.996848 2.00321 -0.996221 1.00359 2.00395 -0.997616 -1.9977 -1.99734 -0.997708 -1.99848 1.00313 1.00398 1.00124 2.00181 -1.99831 1.00266 1.00356 2.00286 2.00227 -1.99736 1.0008 -0.000295436 1.99931 -0.000455163 -2.00013 -1.00076 -0.000151433 2.00002 -2 0.999509 -0.000382535 1.99998 -0.997781 1.0018 2.00212 -0.998071 0.00113471 0.00181367 -0.99779 -1.99735 2.00263 1.00226 1.00267 2.00361 -1.99893 -1.99864 -0.999093 0.00242943 0.00343375 -0.996718 -0.997067 -1.99697 0.00205209 -1.99945 -8.92997e-06 -0.000815244 1.9997 1.00045 0.999724 -1.00001 -0.000164215 1 2 -1 -1 1 -1 2 1 -2 -1 -2 1 -5.75618e-10 2 -1 1 -1 -5.46289e-10 -1 -1 1 -5.9395e-10 -2 -5.90067e-10 -6.31815e-10 -2 -1 -1 -7.1665e-10 -2 -1 2 -2 -1 -1 2 1 -2 -5.26263e-10 2 2 -1 -1 1 -5.80472e-10 -1 -5.77099e-10 1 2 2 -5.01766e-10 -5.29497e-10 2 1 -2 1 -5.44195e-10 -5.44625e-10 2 2 -1 1 1 2 1.19931e-14 1 -7.88425e-11 -1 -5.06911e-10 -2 2 -1 -6.23211e-10 -2 1 2 1 -1 -6.42468e-10 -2 -5.54725e-10 -2 -2 2 2 2 -4.96468e-10 1 -4.39103e-10 -4.27556e-10 -1 -4.7648e-10 1 -2 2 1.23558e-14 -2 1.45006e-14 -2 -1 -6.90292e-10 2 -7.33272e-10 1 -7.8872e-10 -7.54165e-10 -2 -2 2 -1 1 -1 -1 2 -2 -1 1 2 2 2 1 2 1 -4.67928e-10 2 2 2 1.07855e-14 1 -2 1 -2 -1 -1 -2 1 -2 -2 -1 1 1 -1.37657e-09 -1 -1 2 -1 -1.02807e-09 1 1 2 1 2 2 -6.1556e-10 -1 -2 -1 -2 2 1.6447e-14 1 -1 -2.39482e-10 -1.53952e-09 1 -1 2 -2 2 1 -2 1 -1 -1.31974e-09 -2 1 2 -1 -1.05165e-09 -9.57381e-10 2 -1 2 -1 2 -2 -7.53091e-10 1 1 2 -1 1 1.46139e-14 -2 1 -1 -1 -1 -1.26087e-09 -1 2 2 -1 -1 -2 1 1 -1 -1 -1 -1 -1 -7.19743e-10 1 -1 1 -7.27357e-10 2 -1 1 1 -1 1.8864e-14 1 2.69152e-14 -2 -2 -2 -1 -1 1 1 1 -1 -2 -1 -1 2 -2 -1.47641e-09 1 -1 2 1 1 -2 2 -7.11203e-10 -1 -2 -2 -1 2 2 -1 1 1.63462e-14 1.77275e-14 -2.56471e-10 2 2 1 2 -2 -1.34625e-09 -1.65263e-09 -2 2 2 1 -1.53202e-09 1 -1.24129e-09 1 2 1 2 1 -7.22152e-10 1 -1 1 -1 1 2 -8.41349e-11 1 -1 2 -2 -1 2 -2 -1 -1.297e-09 1 1 2 -1 -1 -1 -2 1 2 -2 -1 -1 -1 2 -7.8322e-10 -1 1 2 1 -1 -2 1 -1 1 2 1 -1 -2.69669e-10 2 2 1 -1 -1 -2 2 2 -2 -2 2 -1 -1.15718e-09 -1.09193e-09 -1 2 -2 2 -5.77208e-10 -1 -1 -6.03651e-10 -2 2 -2 1 -1 1 2 2 -2 2 2 -1 -2 -1 -1.37513e-09 -1.45556e-09 -1 -2 -1.2837e-09 1 -1 -1.30079e-09 1 -1 -9.06996e-10 -2 -8.86747e-10 1 -1 1 -6.48206e-10 -1 -2 -1 2 2 -2 1 1 2 2 -1 -2 -2 -1 -2 2 2 -1.44271e-09 2 -1.20821e-09 1 1 -1.33947e-09 -1 -1 -2 -2 2 1 2 -6.96287e-10 -2 -5.8063e-10 -5.56542e-10 1 -1 2 2 1.6639e-14 2 1.82994e-14 1 2 2 -1.59487e-09 1 1 1 2 1 2 -2 -1 -2 1 -1 -1.10388e-09 -1 2 -1 2 -9.45791e-10 -1 -6.3773e-10 -6.81741e-10 -6.6419e-10 -1 1 -1 -1 -1 -1 9.5288e-15 -1 -1.92335e-10 1 1 -2 -2 1 2 -1 -1.13143e-09 -1.19207e-09 -2 2 1 -1 -2 -1 -2 1 -1 1 -1.01105e-09 -8.6906e-10 -6.48741e-10 -1 -2 2 -2 2 2 1 -1 -1 1 -2 1 -1.24229e-09 -1.00299e-09 -1 2 2 -1 -1 2 -1.12833e-09 -2 -1.04487e-09 1 -1.10845e-09 -2 -8.29563e-10 1 -2 -1 1 -2 1 -2 1 -1 -1.02843e-10 -1 1.49895e-14 1 1 -1 -1.26218e-09 -1.23508e-09 -2 -2 1 -1 1 2 -1.01342e-09 2 -1 1 -2 2 2 -1 -1 -2 1 1 2 -1 -2 2 1 1 -2 1 2 2 -1 2 -1 -1 1 -1 -2 -1.20932e-09 -1.12565e-09 -2 -1 -1.09107e-09 1 -1 -1 -1 2 -2 -7.82708e-10 -1 2 -1 -7.68669e-10 1 -6.77738e-10 2 -2 2 -1.27076e-10 1 -1 2.26294e-14 2.45815e-14 -2 -2 -1 -2 -1.03523e-09 -1.10377e-09 -2 -1.13331e-09 -1 2 -1.0089e-09 -2 1 1 1 -7.67942e-10 1 -2 2 2 1 -1 2 2 -6.35219e-10 1 1 -2.099e-10 2.13107e-14 2 1 2.7571e-14 1 -2 -1 -1.00247e-09 2 -2 2 2 2 -2 2 -1 1 -1 2 -7.02527e-10 -7.01027e-10 -7.41971e-10 -7.13942e-10 -6.79431e-10 -1 1 -1 1 -1 -7.13532e-10 2 -1.82871e-10 -2 2 2 -2 2 -1.11747e-09 1 2 2 1 2 2 -1 1 -2 2 -1 -1 1 -6.81808e-10 1 2 1 -6.65372e-10 -2 -2 2 -2 1 -7.16265e-10 -1 -2 2 2 2.73913e-14 -2 -2 2 -1 -2 1 -7.22219e-10 2 -1 2 -2 1 -6.83143e-10 -1 1 -2 1 -1 1 2 1 -6.09021e-10 -2 1 -1 -5.92185e-10 -2 1 1 1.80053e-14 2 1 -2 2 -1 2 -2 1 -1 -1 -7.26729e-10 2 2 -6.41199e-10 -2 -6.10437e-10 -1 1 -6.01709e-10 1 -5.76193e-10 -2 -6.22937e-10 -2 -2 2 -1 -1 -7.65043e-10 2 -1 1.73986e-14 1.75526e-14 -2 -1 -1.4738e-10 -2 -1 2 1 -7.0722e-10 -6.5179e-10 -2 1 2 1 -5.83038e-10 -2 -5.85208e-10 -5.90018e-10 -5.92819e-10 1 2 -5.98799e-10 2 -2 -1 2 1 1 1 -2 1 1 -1 2 2.66825e-14 -1.59722e-10 -1 -2 2 2 -6.87248e-10 -5.78549e-10 -6.11099e-10 2 -7.04551e-10 2 2 1 -5.53448e-10 -5.68865e-10 -1 -2 -5.88448e-10 -2 -1 2 2 1 1 -1 -2 -6.96716e-10 1 2 1 1 -2 -2 2 -2 -8.76545e-10 1 -1 2 -1 -6.31545e-10 2 -1 1 1 -1 -5.76701e-10 2 -6.14561e-10 1 -5.72328e-10 2 1 2 2 1 -1 1 -6.4825e-10 -2 1.87377e-14 1.65887e-14 1 -1 2 -2 -1 -7.21843e-10 -1 1 -8.30395e-10 -2 2 -1 1 2 1 1 2 2 -6.0187e-10 -2 2 -5.54447e-10 2 -2 1 1 -1 -1 1 1 2.15012e-14 -1 -1 1 -1 -7.98194e-10 -1 1 -1 -6.35768e-10 -2 1 2 -8.04618e-10 2 -1 2 2 -2 2 -2 2 -1 1 -5.11293e-10 -2 2 1 2 -7.87001e-10 1 1 -1 1 2.57025e-14 2.57554e-14 2 -1 -7.55939e-10 -1 -2 2 -6.23845e-10 2 -6.20258e-10 -6.85468e-10 1 -1 1 -1 -6.22053e-10 -6.15834e-10 -6.67448e-10 -2 -2 1 2 -2 -7.64487e-10 -7.19012e-10 -7.54334e-10 -1 -6.43048e-10 -1 2 1 -1 -2 -1 -2 1 -1 1 -2 -7.12201e-10 -2 -1 -2 -2 -5.89942e-10 -2 -2 2 1 -2 -4.82678e-10 -1 -1 -1 -7.44093e-10 -2 -7.59619e-10 -2 -1 -2 1 2 1 2 2 -1 -7.38747e-10 1 -2 1 -1 -1 1 1 2 2 -4.93377e-10 1 -4.86007e-10 1 -4.47433e-10 2 -2 -1 2 2 1 -5.04751e-10 -5.787e-10 -2 2 -2 -1.22513e-10 -1.39741e-11 -1 2.40135e-14 -2 -1 -2 -1 2 1 -2 -2 -8.04235e-10 -1 2 2 2 -4.07933e-10 -1 1 -2 2 2 1 2 -2 -1 -2 -2 -2 -2 -2 1 2 1.82529e-14 -2.0029 1.99862 -1.00276 1.99817 0.997988 -2.00224 1.99691 -1.0027 -1.00235 0.998648 -2.00141 -2.00156 1.99852 -2.00152 1.99868 -1.00137 1.99874 1.99868 -0.00111036 -0.00136011 1.99908 0.998766 -1.00134 -2.00139 1.99856 0.998898 -2.00091 -2.00116 -1.00194 -1.00166 -2.00163 -1.00162 -2.00168 -2.00148 -2.00313 1.99837 -2.00157 -0.00199938 -2.00272 -2.00232 -2.00232 1.99872 -2.00124 1.99887 -1.00096 0.999004 -1.00091 1.99885 -1.00128 -2.00119 -0.00102047 -1.0012 0.999091 0.998844 -1.00089 -2.00114 -0.0010725 -1.0011 -2.00117 1.99884 1.99814 1.99852 -1.0017 -0.00137464 -2.00142 0.99866 -0.00248 -0.00191807 -2.0021 -0.00213995 -1.00251 1.99753 -1.00245 -0.00155313 1.99863 0.998916 -0.000536514 0.999484 0.999111 -1.00112 -1.00111 -2.00091 -0.000979508 -0.000995167 -1.00078 1.99907 1.999 1.99891 -1.00117 -0.00111069 -1.0008 0.998796 0.998555 -2.00107 1.99903 -1.00131 0.998742 0.998881 -1.00267 -2.00172 -0.00152987 1.99734 -2.00285 1.99713 0.997729 1.99803 0.99831 -1.00209 -0.00182474 0.9984 0.998445 -1.00111 -0.000804422 0.999129 1.99886 1.99914 1.99917 1.99904 -2.00141 0.998513 -1.00131 -0.00125418 -2.00095 -2.001 1.99838 -2.00115 1.99877 0.998347 1.9982 -1.00126 -2.00274 -2.00183 -0.00162028 -0.00216761 -1.00249 0.998141 -1.00246 1.99771 -0.00179804 -2.00216 -2.00205 0.998089 -0.00193462 -0.00195152 1.9984 0.998377 -0.00148086 -1.00147 0.998485 -0.00148744 -0.0017182 -2.00166 -0.00126079 1.99896 -1.00115 -0.00122687 -2.00158 0.998722 1.99875 0.99841 -0.00193864 1.99766 -0.00253836 -0.00163268 0.998452 -2.0022 1.99768 1.99811 0.997866 -1.00239 0.998272 -2.00206 -0.00185696 -0.00167635 0.998234 1.99817 -0.00166722 0.998076 -1.00245 1.99808 1.99714 0.997869 -1.002 -1.00205 1.99852 -1.00094 -2.00115 -0.0011467 -2.00152 1.99873 0.998267 -0.00180117 -1.00177 1.99715 -2.00277 -2.00191 -0.00173801 -0.0020195 -2.00227 0.997838 -1.00235 0.998017 1.99849 -1.00166 -0.00135424 1.99836 0.998049 -2.00225 -1.0023 -1.00205 1.99782 -2.00172 1.99784 -2.00232 -0.00191878 1.99779 -2.00248 -1.00188 -1.00178 0.998578 -0.00113728 -2.0013 -0.00175209 0.99811 0.998114 -1.00275 0.997225 -0.00228598 -2.00268 -0.00244797 -0.00237666 0.997696 1.99765 -2.00207 -0.00131386 0.998366 1.99782 -0.00214029 -1.00254 -1.00261 1.99763 1.99788 0.997971 -0.0018401 -1.00206 0.997805 1.99727 -1.00264 -0.00234382 0.997757 -0.0024098 0.997611 -2.0025 0.997697 -0.00205233 -0.00185892 1.99751 0.997025 -2.00296 -1.00309 -2.00288 -2.00307 -2.00299 -0.00240885 -0.00232232 1.99765 0.997737 -1.00304 -1.00331 -1.00313 -2.00283 -2.00277 -0.00297799 -1.00292 -0.00266902 -0.00262919 -0.00255598 1.99665 -1.00329 1.99697 1.9968 -2.00288 -2.00294 -1.00291 -2.00292 -1.0028 -0.00265719 -1.00251 -2.00249 -1.00298 -2.00302 -0.00266862 -0.00254655 1.99706 0.996932 0.997076 1.99718 0.997229 -0.00283276 -2.00281 -2.00282 0.997339 1.99746 0.997931 0.997078 1.99694 -2.00332 -2.00332 -2.00303 1.99677 0.997082 1.99691 1.99631 1.99678 0.996871 -0.00306338 -1.00347 0.996919 -2.00339 -1.00277 -0.0025993 0.996751 0.997156 1.99717 -0.0029156 1.99648 -1.00369 1.99627 -1.00357 1.99703 -0.00220146 -1.00244 1.99745 0.997658 -1.00223 -1.00234 -0.00260194 1.99734 0.997251 1.99694 -1.00295 -0.00301549 -2.00323 -1.00308 0.99702 -0.00273442 -1.00314 0.996968 1.99654 -0.00293296 -2.00315 1.99693 -2.00289 0.996346 0.996207 -1.00355 0.996685 -2.00382 -1.00387 -2.00377 -0.00308343 -2.00325 1.99718 -0.00237292 -2.00282 0.997597 -2.00249 -1.00246 -0.00243437 0.997576 0.997411 0.997361 -1.00261 -1.00286 -1.00302 -0.00280086 1.99671 0.997047 -0.00280296 -1.00271 -2.00278 1.99705 1.99677 1.9968 -0.00332657 -2.00407 -2.00408 -1.00407 -2.00415 -1.00373 -1.00342 -2.00342 -0.00297292 -0.0030019 1.99666 1.99677 0.997082 -1.00275 -2.00293 0.997359 1.99717 -0.00223584 1.99744 -2.00274 1.9974 0.997408 -0.00246113 -0.0023511 1.99727 -2.00281 -1.00322 -1.00288 0.997518 -2.00248 -0.00285517 0.996952 -0.00291661 0.996122 1.99583 -0.00345097 0.996654 -1.00354 -0.00314027 -0.00300397 1.9969 -2.00318 -0.00310627 -1.00365 -0.00323846 0.997019 -0.00287455 1.99705 -0.00277589 -1.00288 1.99727 -0.00232483 -1.0025 1.99726 -0.00243824 -1.00258 -0.0023853 -0.00221392 0.997385 -0.00242568 1.99743 -1.00256 -0.00261929 -2.00258 -0.00245414 -2.00322 1.99615 1.99638 0.996926 1.99677 -2.00317 -1.00292 1.99688 0.99687 -2.00348 -1.00362 -1.0036 1.99672 -2.00371 -1.00347 -0.00273705 -1.00284 1.99711 -2.00294 1.99733 -1.00269 -2.00251 -2.00241 -2.0025 -0.00223112 -0.00241123 -2.00262 -2.00238 -0.00245828 0.997308 -2.00245 -0.00249957 -1.00295 -1.00304 -2.00332 0.99708 -0.00271276 -2.00348 -2.00363 -0.00307519 -2.00342 -2.00349 -1.00357 1.99651 -1.0032 0.996627 -0.00321804 1.99646 1.9968 1.99712 -2.00275 -2.00257 0.997496 1.99726 1.99739 -1.00241 -1.00215 0.997736 1.99764 -1.00239 -0.00230891 -1.00211 0.998164 -0.00222733 0.997103 -1.00285 -2.00305 0.997066 -1.00356 -0.00322967 0.99668 1.99641 1.99646 -0.00316479 1.99645 -2.00354 1.9967 -0.00316782 0.996747 1.99635 -0.00312563 -1.00351 -2.00314 -0.00229394 0.997539 -0.00235143 -1.00265 1.99736 0.99771 -1.00227 -2.00213 -2.00218 0.997713 0.998206 -2.0013 0.997957 -2.00253 0.997075 -0.00304414 -1.00357 0.996709 0.99673 0.996799 -2.00354 -1.00367 -2.00355 -2.00362 1.99642 0.997071 -2.00355 -1.00352 -2.00355 0.996752 -0.00311487 -0.00305883 0.997108 -2.00287 -2.00266 0.997615 0.997533 -0.00221524 -2.00249 -0.00229178 -2.00226 1.99808 1.99854 -0.00171053 1.99798 0.997192 -0.00313492 -0.00322553 -1.00355 -1.00353 -1.00348 -2.00344 -1.00351 -1.0036 -1.00364 -2.00358 -0.00309341 -0.00286533 -2.00357 0.996818 1.9965 1.99654 -0.00309556 -0.00319954 -2.00293 1.99726 -1.0027 -0.00230872 1.99738 0.9977 0.99754 -0.0022356 -0.00216409 -2.00214 -2.0022 -0.00222174 0.997733 0.997181 -2.00294 -2.00356 -0.00314073 1.9965 -0.0030231 0.996869 -1.00365 0.996683 1.99648 -0.00313311 0.996786 -1.00324 0.996732 1.99638 -0.00309652 -0.00307461 0.996782 -0.00275247 -1.00259 -2.00271 0.997578 -0.00234093 -2.00257 0.997748 -0.00223363 -1.00237 0.997781 1.9978 -0.00231946 -0.00288922 -1.0022 1.9974 0.997601 -2.0029 1.99639 0.996703 1.99641 -1.00367 1.9964 0.996759 1.99636 1.99635 -0.00317727 -1.0033 -1.00365 -1.00362 -0.00316505 0.996756 1.99703 -1.00278 -1.0026 1.99733 -2.00276 -0.00236176 0.997636 0.997741 -0.00211283 1.9976 0.997786 0.997733 -0.00273528 -0.0034129 -1.00259 -2.00268 -0.00306007 -1.00385 0.996413 -1.00428 -2.00404 -2.00402 -0.0034629 1.99594 -0.003508 0.996408 -0.00347146 -1.00373 -0.00347708 1.99587 -0.00340644 -2.00349 -1.00329 1.99672 -0.00264447 -1.0032 1.99675 0.997159 -2.00296 -2.00273 -1.00285 -1.00271 -1.00267 -2.00288 -0.00355566 -1.00404 0.997219 0.997206 -2.0032 1.99613 -0.0031426 0.996376 -1.00405 0.99644 -1.00408 0.996415 0.996438 0.996403 0.996467 -2.00367 1.99592 1.99613 -2.00337 1.99674 -2.00326 -2.00321 0.997228 -1.00321 -0.00276224 0.997208 0.997284 -1.00277 0.997402 -2.00278 1.99734 0.996454 1.99602 -1.00403 -0.0026416 0.997126 1.99705 0.996375 0.996957 -2.00384 -2.00405 -0.00342569 -2.00402 -1.00412 0.996484 -1.00399 -1.00397 -0.00323137 -2.00373 -2.00328 -0.00285079 1.99679 0.997084 -1.00321 -1.00312 -1.00325 -2.00308 0.997263 1.99709 0.997567 -1.00276 -0.00236222 -1.00315 -2.00396 0.996119 0.996245 -2.00259 1.99713 0.997288 1.99629 -1.00355 1.99602 -0.0036517 -2.00393 0.996446 1.99593 1.99599 -2.00402 0.996468 1.99676 0.997026 1.99674 1.99681 -2.00323 -2.00324 1.99678 0.997225 -0.00279015 -2.00303 1.99702 -1.00293 -1.00267 1.99726 -2.00287 -0.00337464 -2.00398 -1.00389 1.99613 -1.00275 -2.00281 -1.00277 -0.0028318 0.996758 -1.00384 0.996484 0.996341 -2.00396 -2.00394 -0.00348597 1.99602 0.997 -2.00308 1.99669 0.997046 -2.00321 0.997088 1.99674 1.99676 1.99706 0.997245 1.9971 -0.00250701 0.997402 -1.00267 -2.00278 -2.00371 1.9961 -2.00379 -1.00379 -0.00379475 1.997 -1.00285 0.997293 1.997 -2.00329 0.99664 -0.00330844 -2.00382 0.996466 -0.0033738 1.99642 -1.00317 -2.00304 -2.00298 0.997141 0.997115 -2.00316 -2.00312 -1.00312 -2.00315 -0.0025329 -2.00287 0.997344 1.99723 -1.00249 1.99744 -0.00302647 1.99613 0.996326 1.99602 -1.00398 0.996204 0.996979 0.997138 -1.00276 -0.00262398 -1.00297 -1.00379 1.99616 -2.00384 -0.00357325 1.9965 1.99693 0.997161 1.99703 -1.00277 1.99703 -2.00296 -2.00304 -2.00299 1.99703 0.997232 -2.00264 0.997356 0.99739 -1.00258 0.997575 -1.00325 0.996431 1.99607 -2.00376 -0.00364131 -2.00393 -0.00369661 -1.00302 0.997123 1.99725 -0.00259052 -1.00294 -1.00331 -1.00392 -2.00383 -2.00331 0.997182 -0.00282269 -0.00280482 1.9968 -0.00263564 1.99683 -0.0026932 -1.00305 1.99692 -2.00297 -1.00293 -0.00242786 -2.00274 -0.00249869 -2.00273 1.99703 1.99624 -2.00392 1.99585 -0.00332681 -0.00358676 1.99606 -1.00398 -1.00233 1.99773 -2.00215 -2.00221 1.99767 1.99771 -2.00298 0.997742 -0.0021069 -0.00216156 -2.00249 1.99753 -1.00261 0.997822 -0.00224055 -2.0026 1.99741 -1.00245 -2.00239 -0.00198414 -0.00182435 1.99793 -0.0018832 1.99783 1.99688 -2.00322 -2.00332 -1.0032 0.997172 -0.0030713 -2.00337 -2.00316 1.99752 -0.00248005 -0.00213956 -1.00226 -2.00224 1.99791 -0.00223123 -2.0023 -0.00228889 -1.00246 1.99782 1.99779 1.99774 -1.00212 -2.00234 -1.00232 0.998091 -1.00208 1.99795 0.998229 -0.00153865 -1.00179 1.99818 -1.00258 -2.00319 -2.00324 1.99669 -2.00323 0.997182 -1.00346 -0.00304737 -1.00278 0.997645 0.997805 -1.00198 0.997988 -2.00215 1.99807 -0.00200508 1.99773 1.99762 -1.00235 1.99777 -0.00202289 -2.00223 -1.00208 -0.00204551 -1.00219 -0.00186666 -1.00203 0.998239 -1.00197 0.998236 -1.00194 1.99769 -0.00263375 -0.00277535 1.99699 -2.00285 -0.00239227 -0.00251598 -1.00298 1.99703 1.99699 -1.99353 1.00658 2.00721 -0.997416 2.00476 2.00511 1.99871 1.99594 -0.0103718 -1.01307 0.986967 0.994618 -2.00503 1.99728 -2.00809 -2.00235 0.991038 -2.00597 -1.00805 1.9999 1.99474 0.99617 -0.00408989 0.000230493 -1.99818 2.00288 1.00186 -1.39012e-05 -0.000155958 0.00168715 1.00295 0.00193117 2.0057 2.00692 -1.99374 -0.00065451 0.000725586 2.00206 0.999354 0.997081 -1.00377 -1.00583 -2.00511 -2.00127 -2.00259 -0.000249892 -0.00336206 0.992186 -0.00236771 1.00045 0.993387 -1.0107 -2.00461 -0.99918 -0.997216 -1.99785 -1.99991 -1.99699 2.0049 0.00407795 2.00296 1.00324 -0.997045 1.00402 0.00331768 1.00476 -0.996098 2.0006 -0.000488684 1.00123 -1.99721 -1.00051 1.00159 0.993771 -1.00385 -1.0018 1.00321 2.0008 -1.99834 2.00014 -1.99811 1.00486 -2.00484 -1.01074 -1.00206 0.992848 -0.994845 -0.993267 -0.996785 0.00666633 0.00394514 2.00321 -1.99446 -1.99319 0.00588483 -1.99331 -0.997651 -1.99483 -1.99351 -0.996259 1.00331 0.998777 2.00162 -1.99475 -1.9924 -0.000998977 -0.00522455 -1.00553 -1.00301 -0.00452827 -1.99999 -1.99941 -0.999905 1.00495 1.00303 1.99687 -0.00258862 0.00347402 -0.993498 0.00581495 -0.994511 -0.991425 1.00503 2.00158 -0.995873 1.00495 -1.9946 -0.993036 2.0042 1.0047 -0.992529 -0.985872 -0.994586 -0.991112 1.01303 0.0159829 -0.981761 1.01876 2.0106 1.0136 -0.989219 2.0162 2.01443 -0.985802 -1.98509 0.00952939 0.00319257 -0.991241 0.01018 0.00299273 -1.98194 2.01659 -0.985344 -0.983422 2.01358 -1.98432 1.0136 0.00523999 1.00308 0.00494984 -0.995452 0.00449412 1.0094 2.0158 2.00781 1.01273 0.0094484 0.00922983 -1.98423 -1.98274 -1.98423 -0.98536 1.01456 0.0149974 -1.98527 0.00687219 -1.98961 2.00543 2.00572 2.00948 0.0069214 -1.99227 -0.983979 0.0122514 -0.982841 -0.986277 1.01454 0.0187058 -1.98465 1.00805 -0.99351 1.00601 0.00376572 -1.9962 -1.99184 -1.98819 -1.98651 2.02175 -0.980794 -1.9784 1.02107 2.01738 0.0176762 1.00693 -1.00446 -0.00682747 1.99902 0.999012 1.99951 0.00934459 2.0102 2.00817 0.00498685 0.0020483 -1.98773 1.01483 2.01658 2.01425 1.01726 -1.97779 -1.98151 -1.99282 2.00796 2.00771 -0.997735 1.00288 0.00560254 1.01427 -1.98008 -1.97557 1.02124 1.02473 -0.980184 0.0187192 -0.987404 -2.00059 -0.0106124 -0.0193275 -2.0161 0.992791 0.990451 0.0042351 2.00965 2.00665 -0.992196 -0.997007 0.0148161 -0.978573 1.01925 -0.985941 2.02193 -1.977 1.01489 0.000231919 2.00336 -0.994646 1.00189 -1.99633 1.00791 1.01698 -1.98167 2.02017 -1.98739 -0.979505 2.014 2.01345 -0.986526 0.99376 -2.01093 1.98851 0.991431 -1.00873 -0.00973339 -1.00789 -1.99383 -0.981286 -0.984958 -0.988658 2.01243 -0.990323 -1.9842 -1.99514 0.00791335 0.0122054 2.01119 1.00221 0.00267241 -0.995424 1.999 -0.998737 2.00714 -0.977664 1.01939 -0.983376 1.01386 -1.982 -0.983683 -0.983395 0.0103957 1.99428 0.981634 -0.0111557 0.992605 -1.01152 1.9892 -1.01006 1.99613 2.01138 -1.98246 0.0205271 1.02186 -0.975924 0.0142084 0.0137153 1.00534 0.00527497 2.00743 1.00322 1.00098 0.00243678 1.9993 1.00046 -1.99423 2.0221 -1.98199 -1.98182 0.0176359 1.01885 0.0141401 1.01231 -1.98998 -0.997912 0.990639 1.98786 0.991477 -2.00912 -1.00876 -1.9971 1.012 2.01248 -1.98566 0.0161435 1.02317 1.02633 2.02572 2.02281 -0.981054 -0.985775 -0.985923 0.00911754 -0.999761 1.00265 2.00596 -0.000238598 -0.994844 -1.97943 0.0218527 2.02499 0.017293 2.01419 -0.992974 -0.992799 1.00761 -0.998999 -0.994969 2.00231 0.00633133 -0.996232 -0.997187 0.0115007 -0.986842 2.00965 1.00488 -0.989973 -0.976928 -0.980082 0.0165179 -1.98499 1.01835 -1.9845 -1.9821 2.01341 0.00299146 2.00298 2.00633 1.00207 2.00229 -1.98179 1.02187 2.02389 1.0176 -0.991873 -1.99257 1.00361 -0.999607 -0.000915224 2.01061 1.00467 2.00419 -0.997488 0.00419572 -1.98487 1.01294 1.01105 0.00544238 2.00803 1.01358 -0.981625 0.0171827 0.0104197 1.00992 -0.989972 2.01492 2.01565 1.00635 1.01086 -1.99957 -0.00115739 -1.99832 -1.98712 0.0202571 0.0205051 1.0133 1.00445 1.00517 0.00372528 0.000430033 -0.999999 -1.99448 1.00142 -0.995555 2.00327 -0.997868 1.00863 0.00912288 -1.99086 -1.99104 -0.991701 1.01213 -0.985728 -0.975221 0.0186773 0.0126831 -0.986657 2.01428 -0.987512 1.0055 -1.98882 0.99984 -2.00037 -1.99848 -0.988594 2.01932 -0.984518 1.00308 2.00539 1.00384 -0.988127 1.0079 0.0133065 -0.987204 1.01025 0.014137 1.01231 -1.99321 1.00639 -0.992599 -1.9911 -1.99163 -0.988679 0.0117484 0.00705049 0.0124319 -1.98471 -0.991674 0.0104757 0.0122436 -1.99207 1.99948 -0.998836 0.999844 -2.00007 -0.996899 -0.986583 -1.984 1.00673 -0.998385 1.00871 -1.98714 -1.98915 -0.995539 2.00657 0.0106141 2.01366 1.01508 2.01843 2.01334 0.00463526 2.00268 2.00277 0.00448394 2.0061 2.00419 1.00576 -1.99129 0.00789274 2.00905 -0.987784 1.01485 2.00619 1.00548 -1.99937 -1.00013 -1.00154 -1.99502 -1.9833 -1.99171 -0.993824 -0.995777 -0.989973 2.01429 2.01095 2.00357 1.0009 -0.994054 1.00913 1.00643 -0.990426 -1.98864 -1.99989 1.99734 -2.00073 0.999909 -1.99836 0.000629288 1.00504 -0.994859 -1.99442 0.0119021 2.01718 0.00656481 2.00373 -0.992252 1.00109 -1.00093 -1.0041 -0.998972 -0.992195 1.00297 1.99888 -1.00466 -0.996642 -0.986277 2.00682 -1.99776 1.00091 0.00287783 2.00473 0.00328507 -1.99264 0.00258789 -1.00606 0.993547 0.993423 0.99304 -1.0055 -0.00605486 -0.00696783 -2.00615 -2.00592 0.99992 0.0105973 -0.998587 2.00485 -0.995967 -0.996031 -2.00151 0.995205 -2.00894 -0.00491275 -1.005 1.99164 -2.01624 1.9881 0.998086 -0.0054914 1.99643 1.99714 -0.00235526 -0.000726697 -0.995656 -0.995495 0.99502 1.99371 -1.00821 1.99068 0.989182 -1.00985 -0.0103997 -2.00969 -2.01001 -1.00984 -2.00766 2.00378 2.0043 -1.99703 -2.0021 0.992886 -2.00336 -0.0126523 -2.00978 0.993355 -0.00683395 -2.01112 1.98454 0.980909 0.989134 0.987487 -1.01053 -0.0115196 -2.01176 -0.00865682 -0.00433625 -1.00391 -2.00757 0.994319 -1.0093 -0.0110499 -0.00989797 -0.0113575 0.988215 -2.01104 -2.01183 0.988635 1.98954 1.99408 -0.996904 0.00418451 1.00428 0.997496 -2.00041 1.9931 -0.00375074 2.00539 -1.00873 -2.01649 1.98736 -1.01286 -2.01298 -1.01003 -1.01298 -2.01221 -1.01164 -1.01095 1.99222 0.992562 0.993954 1.00181 1.99541 -1.00953 -1.0083 -0.0106512 -1.00864 1.98972 0.991118 -1.00773 0.99522 1.99133 -0.00368404 0.0042668 1.00799 -1.9943 1.0011 0.998369 0.997119 -0.996935 0.986133 -1.01064 1.99723 -1.00715 1.9943 0.990437 1.98637 -2.0139 1.9861 1.9899 -1.0045 1.99415 0.992824 -0.997249 1.99874 -1.00906 -1.00905 0.990883 1.99439 -2.00913 1.99783 0.998679 -0.00332561 -2.00988 0.99074 0.997633 1.00682 2.00722 -2.00123 -0.00204249 -1.00348 -1.00576 -1.00987 -2.00861 -0.00153927 1.99015 -1.0104 -0.0155128 -2.0128 0.985619 1.98428 1.98708 0.988129 -0.00841185 1.99281 0.00112342 1.99404 -2.0113 1.98932 1.99024 -1.00925 -2.00979 0.995849 -1.00259 -2.01109 0.989335 -0.0106352 0.991866 2 -0.999907 -1.00237 0.999427 1.99525 1.99126 1.99247 -2.00695 1.00168 -2.00957 -2.01744 -1.02306 1.98201 1.98555 -2.01517 -1.01601 1.98681 0.987948 1.991 -1.00277 -1.0103 -2.01435 0.986692 -2.01147 1.9881 -1.01248 -1.00395 -2.00507 0.989694 -0.00498783 -0.0104564 1.993 -2.00531 -1.00042 -2.00167 1.00003 0.992488 -2.00213 -0.00624047 0.994746 0.996709 -0.0144134 1.97822 1.98032 -1.02164 0.981118 -1.0136 1.98377 0.983426 -1.01375 -1.0114 1.99322 -0.0118891 -2.01451 -1.01441 -2.01282 0.986329 1.98537 0.991701 -0.0115393 0.98287 -2.01431 -0.0124329 -0.00464522 -0.00496883 -1.99429 -1.99853 0.999 -2.00836 -0.00602359 0.993774 1.99124 1.99109 1.98928 -1.01441 -1.01624 1.98161 -0.0184458 -1.01792 0.984059 1.98257 0.985552 0.987482 -1.00575 -2.00906 -2.01378 -2.01495 0.986235 -2.01251 -1.01387 -1.01522 -1.01704 1.98028 1.98123 1.98901 -1.00641 -2.00532 1.00337 1.00062 1.99466 0.988163 -0.00979093 -0.010303 0.995118 0.994029 -2.00363 0.994867 -2.00269 -2.00705 -1.00573 -1.00698 -2.01301 0.984641 -2.00581 -1.00678 -2.0028 1.99616 -0.0110305 -2.01209 -2.01146 -0.011602 0.98795 0.987683 0.984907 -0.0186683 -1.01196 0.99117 -0.00968828 -1.01055 -0.00934991 1.99476 -1.00849 -0.0157084 0.991598 -2.00284 1.00855 2.00912 -1.00214 -2.00051 0.996743 -1.00341 -1.00483 -0.0096121 -1.01036 -2.01237 1.99454 -0.00502614 -1.99865 -2.00006 -1.00201 0.992257 0.990324 1.99154 -2.00859 -1.01279 -1.01619 0.984509 1.98989 -0.0100599 1.99061 1.98733 1.98749 -1.00303 1.99361 1.9816 -0.0207073 1.9841 -0.00874544 -1.01195 -2.02289 1.98261 1.98252 -0.0193061 0.978751 -0.0238381 -1.0226 -0.0276214 -2.02437 0.97822 -1.01553 0.987948 0.988645 1.98626 -0.0155186 -1.01657 0.979726 -2.02391 -0.0245705 0.978814 -0.0235998 -2.01667 -0.0084128 -2.00691 -2.00905 -1.00018 -2.01005 -2.01677 0.97819 -0.0267045 0.983464 -2.02426 0.967622 -1.03244 1.97565 -1.03135 -0.0206151 -1.01939 -2.01002 0.984185 0.981189 -2.02309 -1.01843 -1.01937 -1.02093 -1.01931 0.984756 -2.01524 1.97884 -2.02298 -2.0142 -1.02519 -0.0255181 -0.0102722 1.99521 0.993867 0.986222 1.99986 0.995065 -1.01084 -0.0136024 -1.01461 -1.00576 -1.017 -1.01079 -2.01582 0.980668 -0.0160546 -1.01296 -1.01257 -0.00439349 -1.00742 0.990856 -2.01448 -1.01617 -1.02055 -2.01727 -1.01181 1.99214 -1.01728 1.98344 -2.01043 1.98817 1.98039 -0.0142576 1.99757 2.00073 -0.00215972 -0.00526056 -1.00107 -1.99974 1.99408 -0.00135115 1.00373 1.99808 -0.0103169 -2.00791 -0.00871166 -2.00895 0.992488 0.997621 -0.00938474 1.99375 -2.00695 -1.00602 1.9937 -1.00932 -2.00962 1.98957 0.992847 -1.00351 -0.0093449 0.994089 -0.999966 -2.00917 0.991065 -1.00101 0.00249351 2.00461 1.00723 -2.00542 0.998519 -0.000766412 1.99808 1.99228 1.99281 -2.00718 -1.00615 -0.00369167 1.99574 -0.00760932 -2.00756 1.99243 0.989565 -0.00839542 0.978879 1.97693 1.97549 -2.02376 -0.0114627 -2.0062 -2.00651 1.99545 1.99555 0.996596 -2.00301 -2.00226 -1.00296 -2.00304 -0.00708005 -0.00343961 -1.0028 -1.0029 -1.00042 -2.0004 0.997428 -2.00567 -0.00680393 0.993354 -2.00674 -0.00393325 -2.00438 -1.00847 -0.0076314 -2.00707 -1.01008 -0.00878629 -2.00962 -2.01154 -2.01065 -0.00938031 -1.00903 -0.00901525 -1.00584 -1.00427 0.996271 1.99283 -2.00699 -0.00304976 1.99685 -2.00465 -1.00661 0.995155 1.99738 -1.00322 2.00009 -1.00033 1.99606 -1.00776 -2.00789 -2.00822 1.99202 1.99314 0.993319 -0.0077679 0.992648 -2.01046 1.98814 1.99195 1.99251 -1.01236 0.989085 1.99199 0.989105 0.986336 -1.00868 -0.00643886 -0.00560527 -1.00869 0.988822 1.99275 0.994952 -2.00693 1.98958 -2.00794 -2.0038 -2.0035 0.999021 -1.00101 -2.00644 1.9914 -2.00625 0.993067 -2.00685 -2.01018 -0.00866711 -0.00742977 0.992454 -1.01577 0.983893 -2.01242 0.988989 1.98596 -0.0141511 -0.012503 1.98849 -2.01329 0.986535 -0.005418 -1.00728 -2.01083 -0.0170461 0.98632 -1.00955 1.98762 -0.0146213 -1.01027 -0.0025007 -1.00279 -2.0024 0.995851 1.99372 -2.00705 -2.00582 1.99277 -2.00738 -0.0101532 -0.00919069 -2.00669 1.99225 -1.01121 1.98328 0.98318 -1.0147 -0.0158382 -0.016485 -2.01579 -0.0135257 1.98709 -1.01272 -1.01018 -1.00963 -0.0103483 1.98839 1.99035 -2.0082 -1.00906 -0.00818783 1.99492 0.996767 0.996369 -0.00181479 1.99795 1.99704 -2.00462 -1.0043 -0.00493136 0.994448 -2.0064 -2.00681 -1.00599 -2.00659 -2.00901 1.98607 -1.01263 -0.0124247 0.985144 1.98534 0.987051 -2.01233 1.98884 -1.0099 1.99084 -1.00747 -1.0077 -0.00797702 1.99302 -2.00602 -1.00502 0.995766 -2.00251 -0.00156398 1.9974 -0.00182242 0.997468 -0.00463173 -0.00550609 -1.00696 1.99357 1.99171 1.9916 -0.00853189 -1.00921 -1.00946 0.987164 1.98455 -2.01528 1.98197 -2.01984 0.982315 -2.01167 -2.01039 1.98878 1.9881 -2.01185 1.99031 0.991178 -1.00914 1.99108 -1.00775 -0.00699412 0.994739 -0.00238545 -0.00206136 -1.00233 0.99839 -1.00524 1.99362 -2.00729 -2.00709 -2.00854 1.98974 -2.01134 -1.01024 0.988239 -1.01295 -2.01615 0.983237 1.9824 0.978403 -2.02609 -1.02429 -2.01574 1.98862 -2.01397 -2.02003 -2.01446 0.990499 -2.01024 -1.01563 1.98745 -0.0107115 1.99082 1.99127 -1.0048 -2.00262 -1.00266 1.9973 1.99341 -1.00716 -2.00994 0.988636 -2.01239 -2.01243 1.98701 -2.01245 0.988145 0.980274 -1.02447 -2.01655 1.98184 0.976065 -0.0397815 -0.0302177 0.981036 -1.01431 0.974944 1.96673 -1.01507 -1.0107 -2.01518 0.980467 -0.0111427 1.98846 0.98758 0.985941 -2.00688 -2.00296 1.99744 -1.00639 0.993534 -0.00714852 -1.01663 0.987489 -0.0121528 0.985088 0.985009 -0.0146892 -0.0124413 0.979369 -1.01855 -2.01397 0.984165 -0.0221003 -2.03592 1.9736 -1.01905 -2.01674 0.976401 1.97577 -2.01422 -1.01359 -0.0140868 -2.01824 0.985586 0.987232 0.986151 1.98101 0.989522 0.991802 -2.0051 1.99618 1.99536 -2.00629 -2.01532 1.98757 1.98724 0.983932 -0.0173773 -2.01702 -1.01556 1.97997 -1.01638 -2.01461 -1.01535 1.97981 -2.02714 -0.0219755 -1.01789 0.984013 1.9832 -1.02186 0.984624 0.984949 0.982296 1.98278 -1.01218 -2.01579 -1.01567 -2.01496 1.9929 1.99118 0.992436 -0.00299466 -0.0054182 1.9923 -0.0139458 -2.01431 0.987246 1.98304 -1.01856 -1.01551 -0.0187018 -2.02111 1.98389 0.982977 -2.01661 1.97875 1.97287 1.98 -0.0189613 0.982873 -2.01776 -0.0218875 1.98224 -0.0172808 -0.0205206 -0.0143813 -1.01735 -2.01771 0.980026 0.98298 -1.00863 -2.00858 -2.00476 -2.00279 -1.00509 -0.00683391 -1.01061 -1.01309 1.9896 -1.01566 1.98178 -2.01744 1.976 -2.02395 1.98262 -0.0180998 -0.0158656 -2.02024 0.972205 -0.0191439 -1.0171 0.9848 1.98419 0.977689 -2.02054 0.982699 -2.02231 0.98049 -0.0254545 -0.0181245 -0.0157363 0.978638 -0.0106328 -0.00529802 1.99615 0.996791 1.99471 1.99089 1.97964 1.98447 -2.01408 -0.0162965 -1.01755 -1.0212 0.972877 -1.01831 1.98342 0.980275 0.97829 -2.02239 1.96839 1.97848 -1.01687 -2.01636 -0.0228504 -2.02121 0.976707 -1.02009 -2.02084 -2.01702 -1.01684 0.975601 -2.0199 -1.02158 -1.00726 -0.00412888 1.99681 -2.00509 0.992341 -2.01161 -0.0237138 -2.01585 -1.01882 -0.0207159 1.98231 -2.02334 1.97324 -0.0235404 0.97777 -2.02592 -2.02839 -0.0293533 -0.0370201 1.97122 1.97843 -1.0229 1.97292 1.97152 -2.02897 0.972302 -1.0259 1.97948 1.97946 -1.02582 1.9808 0.98404 -1.00686 -2.00391 1.99678 -0.00640038 -0.00851578 -1.01269 1.98146 -1.01829 -0.0278509 1.96388 0.964669 1.96358 1.96304 1.96108 0.958163 -1.04279 -2.04491 0.952463 1.95074 -1.04833 -2.04411 -1.039 1.95983 -2.04146 -0.0388386 -2.04192 -2.0428 1.95994 -1.03929 -1.02838 -2.01434 -0.0195225 -0.00846578 -2.00457 -2.00434 -1.00882 1.98977 0.989295 1.98194 0.970789 -2.03543 -1.03341 0.955911 0.953527 -2.04735 -0.0516448 -1.05125 -1.05103 -0.0530444 -1.05647 1.94233 -2.05682 -1.05304 0.949283 -2.0524 -2.04516 -2.04562 1.95192 0.95676 -2.03627 -0.0419774 0.957485 -2.02129 -1.01776 -1.01347 -0.0109384 -0.00543555 -1.00803 0.990344 1.98482 -0.023606 1.97691 -1.02462 1.96925 0.961664 0.952624 -1.05557 -2.05744 0.94737 0.943445 -1.05748 -1.05547 1.94522 1.94443 -0.0576877 -2.05669 -0.0566161 0.946113 0.945642 -2.05758 -1.05026 1.96191 -1.02976 -0.0323949 1.9675 0.976436 -2.00997 -1.011 -2.00707 0.993493 -2.01446 1.98109 -0.0208899 0.979027 -2.02565 -1.03476 0.951166 0.941923 -0.0563628 0.94009 1.9448 1.94174 -0.0576449 0.948953 -2.05259 -0.0506844 -0.0538549 0.941846 -2.05634 -1.05768 1.94196 0.939372 -0.0584052 -0.0575413 1.96411 1.97095 -2.02789 1.96754 0.982911 1.99153 1.99123 0.986072 -1.02078 -2.01576 1.97947 -2.02674 1.96608 0.961425 -0.0468321 0.942998 -1.05861 -1.05699 -2.05828 -1.0594 0.939725 -1.0543 -2.05607 0.94723 -2.05604 -2.05802 -2.06004 -0.0573849 1.94434 -1.05929 -0.0602024 1.94792 -2.04115 -1.03319 0.972545 -1.02922 -1.02486 -2.01559 -0.00754489 -1.01898 0.98357 -0.0118817 -2.03101 -0.0443188 -1.0516 0.945725 -2.05633 -0.0565549 -2.05755 -1.05894 -2.05977 1.94068 1.94064 -0.0567598 0.942124 0.946138 1.94518 -1.05789 1.93942 -0.0585735 0.943991 0.940824 1.94033 1.94736 0.943868 -0.0512506 -2.03789 -1.03048 -2.02049 -2.02162 -2.01673 0.985794 -0.0085201 -2.0129 0.961213 -0.0470716 1.9498 1.94847 0.946614 1.9472 -2.05323 0.944463 -1.05607 -1.05607 -1.05479 -1.05175 1.94736 1.94689 1.94744 -2.05442 -0.0567105 1.94388 -1.05458 -0.0553014 -0.0522453 1.95255 -0.052007 0.950127 -2.04445 1.96477 0.985241 1.98295 -1.02218 0.990757 -1.00724 1.98475 -2.03697 0.962741 -2.04043 -0.0440154 -0.0436217 1.95645 0.954409 1.95337 -2.04549 -2.0455 -2.04584 -2.04464 1.95293 0.952753 -2.04656 1.95155 -0.0510851 -0.0523178 -1.05249 -1.05313 1.94905 1.95164 0.948694 -2.05107 -2.05003 -0.0464338 0.978059 0.985611 -0.0166684 -1.00588 -0.00545326 1.98584 0.963123 -1.04288 -0.0480076 -1.05311 -1.05282 -1.05397 0.945864 -1.05574 -1.05506 -1.05404 -1.05375 0.943423 -1.05287 1.94728 0.945896 -1.05692 1.94277 1.94382 -1.05419 -1.05547 1.94514 -2.05548 0.945114 -2.05559 -1.05206 -1.04262 -1.01537 0.984255 -1.00777 1.99218 -2.00997 0.988493 -1.02585 -0.0390218 -1.04469 0.955307 -0.0394608 0.959763 -0.0416171 -1.04346 -1.04152 -1.04021 -1.04197 1.95436 -0.045709 0.95274 -1.04656 -1.04359 -2.04644 -2.04427 -1.04459 1.94906 -2.05011 -2.04909 -0.0452578 1.95199 -0.0404649 0.966656 -1.02162 -2.01256 -2.00888 -0.0112287 -1.01196 0.982264 -2.03233 0.955589 -0.0417584 0.964763 -0.0445689 -0.0373822 -0.0291259 -2.03633 1.96637 -0.0315684 0.96698 1.96746 0.969784 1.9684 -0.0361509 -1.03145 -1.03323 0.970078 0.972672 1.96662 -0.043347 -0.0378801 1.96641 -2.02507 -0.0195513 -1.01934 1.99027 -0.0141541 1.99044 0.994678 1.99292 -1.00859 -2.02063 -0.0222228 -1.02086 -1.0202 1.97249 1.9785 -2.01502 0.981965 -1.01721 -0.0137394 -2.01516 -2.01507 -2.02107 -2.02011 1.98201 -0.0169193 -2.01326 0.982728 -2.01884 0.983674 0.982731 -2.01741 -0.0159231 -2.01439 0.985546 1.98466 -1.01044 1.98888 1.99522 -1.0046 1.9927 -0.00866064 -0.0139827 0.983577 -1.01794 0.985088 -2.01414 -2.01446 0.984658 0.981981 -0.0172958 0.986396 -2.01403 -2.0161 -2.0253 -0.0265107 -0.025057 1.98218 -2.01326 -0.0149332 -1.01523 -2.0135 1.98684 0.988467 1.98466 -1.01738 -1.01772 -1.01847 -2.01704 -2.00773 0.995923 0.995023 -2.00677 -0.00860885 0.985875 -1.01512 0.986426 -2.01587 0.981679 1.98733 -0.01371 -0.0166369 -0.0152032 0.985424 0.980627 -1.01821 0.974652 0.972183 0.970984 -0.0226919 -0.0160588 -1.01123 -2.0127 -1.01503 -0.0167364 1.98341 -1.01945 -2.01573 -1.01615 -0.0173317 -2.0095 0.990046 -1.00503 -0.00364538 -1.00681 1.9927 -2.01152 -1.01312 0.988698 1.98093 1.98319 0.988145 1.98425 1.98491 -2.01357 -1.01931 -2.01941 -0.0144292 0.976206 -2.02583 -1.02559 1.97513 -1.0199 0.989255 1.98926 -2.01259 0.989158 -2.01428 -0.0177563 0.98626 1.98656 1.98791 1.99168 1.98905 -2.0075 0.99767 0.995114 -1.00524 -0.00723377 1.99011 1.98844 -0.0158099 -0.00964841 -2.00836 -0.0111434 -0.0124872 -1.01218 -0.0205126 -2.01934 -1.00991 -1.01967 -1.02284 1.97853 -1.02737 0.980341 -1.00801 1.99283 1.98901 0.988239 0.991165 1.9861 1.98685 0.989004 -0.0111346 1.99268 -2.00811 1.99537 1.99861 0.99778 1.99627 -1.00447 -1.00564 1.98736 0.987292 1.99316 1.99291 1.99316 0.991549 -1.00951 -2.01624 1.98574 -0.0104678 -0.017508 -1.01923 -1.02069 -1.02448 0.983745 -0.00675497 -2.00687 -1.00812 1.99007 -1.0069 1.99063 0.987176 1.99172 -1.00831 1.99419 -2.00432 1.99666 0.999932 2.00001 2 2.00084 2.00083 1.0008 1.00076 1.00082 2.00089 1.00074 1.00092 0.000704168 -0.999328 2.00025 -0.999538 -1.99981 1.0002 1.0002 2.00022 2.00028 1.00043 2.00054 -1.99941 1.00053 -0.999235 -0.999169 -1.99925 -0.999022 2.0009 -0.999958 2 1.99994 2 -0.000175379 -0.999937 0.000560757 0.000534523 0.000578578 2.00071 -1.99925 1.00092 -1.99928 -0.999259 0.000657142 -0.999312 0.000465905 2.00025 1.00018 2.00019 2.00015 0.000311174 2.00017 -1.99973 2.00031 -1.99958 2.00038 1.00051 1.00051 0.000617392 0.000539399 1.00074 0.999889 2 -2 0.99988 2 -2.82538e-05 -1.99927 -0.999429 -1.99927 2.00074 -1.99918 -1.99912 2.0008 1.00098 0.000696499 1.00103 -1.999 -1.99896 -1.99911 1.0008 1.00064 -1.99959 0.00048968 1.00073 -0.999507 -0.999521 0.000332635 1.00078 2.00083 -1.99908 2.00089 -0.999528 -1.99999 -0.000193257 0.99987 2 -0.999999 -2 -0.999483 1.00078 -0.999285 0.000660953 0.00056431 1.00102 -0.999238 0.000707852 2.00101 -0.999398 -1.99905 -1.99912 -1.99895 -1.99903 1.00084 1.00099 2.00091 1.00093 1.00075 1.00075 2.00084 1.00082 2.00074 2.00092 -1.9991 -1.99926 -1 -1.99999 -0.000239404 -0.000151951 -1 2 2.00073 -1.99927 -1.99917 -0.999226 1.00096 -0.999285 -0.999253 -0.999316 1.00088 1.00104 -0.999325 -0.999421 1.00088 1.00107 1.00097 -1.99906 -1.99908 -0.999413 1.00078 2.0007 2.00075 2.00074 0.000382786 0.000548968 -1.9991 -1.99926 2 2 -0.0002354 -0.999998 -0.000233111 0.999871 0.000533638 2.00046 1.00047 -0.999381 -1.99979 -1.99981 -1.99957 0.000475892 1.00041 -1.99954 -0.999478 1.00026 -0.999548 2.00039 2.00026 1.00027 1.00027 2.00037 0.00062277 2.00023 0.000381407 0.000442289 0.000517793 -1.99908 1.0009 -0.999431 2.00001 0.999829 -2 -3.28966e-05 -0.000189253 -1.00041 1.0005 0.000463833 2.00053 -0.999279 1.00081 -1.99928 1.00087 2.00091 1.00104 -1.99908 0.000624218 0.00056906 1.0009 1.00075 -0.999205 0.000437689 2.00075 -1.99907 -0.999141 1.00073 2.00078 2.00084 2.00091 -1.99902 1.00096 -0.999422 2.00002 -2 0.999775 -1.99997 -2 0.999717 0.000460215 2.00028 1.00028 2.00087 -1.99911 1.00073 -0.99925 2.0009 2.00094 -0.999272 0.00061798 -0.999265 -1.9992 0.000800281 1.00077 0.000701311 0.00055756 -1.99929 1.00075 2.00085 1.00102 0.000565331 1.00095 1.00097 -0.99946 2.00055 1.99962 0.999664 -1.00047 2.00002 -2 0.999797 0.000404878 -0.999534 -0.999495 -1.99925 -0.999329 -1.99927 -1.99917 1.00077 -1.99917 -0.999127 -1.99923 -1.99925 -1.99922 2.0008 0.000755417 1.00083 1.00075 -1.99926 -0.99945 -0.999345 -0.999256 -1.99909 -0.999212 2.00076 -1.99965 -0.999668 -0.00032222 -1.00054 -1.00038 -2 0.99979 -0.000114569 -1.99915 1.00039 0.000434698 2.00072 0.000452226 -0.999395 1.00073 -1.99923 2.00074 1.00074 -1.99925 2.00074 -1.99926 1.00075 1.00076 -0.99923 -1.99926 -0.999408 0.000519823 0.000591323 0.000531251 1.00073 0.000498967 -1.99936 -1.99976 -0.999637 -1.00044 1.99949 -2 -0.999998 2 2.00001 -0.999392 -0.99948 -0.999552 1.00073 -0.999402 2.00073 1.00081 2.00074 0.000530049 -0.999499 -1.99955 2.00042 2.00042 -1.9995 -1.99951 1.00048 -0.999551 0.000224589 -0.999629 -0.999594 -0.999523 0.000399224 2.00071 -0.999684 2.00026 -1.99962 -0.000299123 -2.0004 0.99983 -2 -1.99998 0.999887 -1.99916 1.00024 -0.99958 1.00073 -1.99927 -0.999324 0.000700441 1.00078 -1.99922 2.00069 -1.99935 -0.999385 0.000435875 2.00071 1.00073 -0.999441 -1.99945 0.000351353 0.00026259 2.00047 2.00071 1.00061 -0.999519 2.00048 -0.999476 -1.99964 -1.00049 1.99997 0.99992 -0.999995 -1.99998 -0.999957 -0.999428 1.00019 2.00026 2.00074 1.00075 -0.99937 2.00082 -0.999473 -0.999469 1.00063 -0.999461 -1.99935 2.00062 2.00065 -0.99935 1.00065 1.00065 -0.999521 -0.999546 1.00063 -1.99924 0.000409083 0.000419082 -1.99949 1.00019 0.000305529 -0.000130573 -2 0.999989 1.99944 -1.00045 1.99987 -0.999422 1.00025 2.00026 -0.999651 -0.999501 2.00076 2.00074 1.00078 2.00081 -1.99922 0.000420528 2.00077 -0.999529 2.0006 2.00073 1.00053 -0.999454 0.000394277 -0.999587 -0.99965 -1.99935 0.000313725 1.00073 1.00031 2.00022 -1.9994 -0.000101487 -2 0.999988 0.999721 1.99942 -0.000282269 1.00045 -1.99966 2.00028 -0.999766 2.00028 0.000401952 -0.99954 -0.999507 1.00086 0.000556073 -0.999353 -0.999371 2.00088 0.000459983 -1.99922 -0.999326 -1.99924 0.000411822 2.00065 1.00018 2.00015 1.0001 1.00019 -0.99968 -0.999684 2.00067 -0.999961 -1.99998 2.00002 -2.00051 0.999674 0.999799 -1.99946 1.00025 2.00035 2.00003 1.00034 -1.99966 0.00038045 0.000387936 0.000563174 1.00087 2.00088 1.00084 2.00078 1.00077 -0.99941 -1.99923 0.000426409 2.00076 -0.999471 2.00021 -1.99974 0.000266016 -1.99982 0.000219283 -0.999704 1.00053 -1.99998 0.999857 -0.999983 1.99945 -2.00055 -2.00028 2.00056 -1.99978 -1.99976 2.00018 1.00022 -1.99972 -0.99961 -1.99941 -0.999483 -0.99942 1.00081 -0.999411 -0.999428 -1.99923 -1.99923 0.000486214 0.000464639 -1.99923 0.000391943 2.0002 2.00022 -0.999615 2.00016 -1.99982 -0.999598 -1.9995 0.999927 -1.99999 -0.999995 1.9995 0.99972 1.99973 -1.99948 -0.999658 2.00022 2.00018 -1.99971 -0.999559 1.00022 1.00056 1.00079 -1.99917 0.000492661 0.000480165 0.000469928 2.00077 -0.999463 2.00078 1.00078 -1.99923 0.000327169 1.00018 2.00018 1.0002 0.000261231 2.00021 2.00054 2.00071 -1.99999 -1 -0.999998 0.999937 2 1.99973 -0.999522 -1.9997 1.00028 -1.99948 2.00061 -1.99956 -1.99956 0.00031723 2.00082 -1.9992 -0.999454 -1.99923 1.00077 -1.99923 2.00079 0.000446902 0.000415385 2.00077 1.00078 1.00033 1.00034 -1.99965 0.000414058 1.00035 1.00048 1.00043 0.99993 -0.000196669 -0.000167255 0.999952 0.99989 1.00021 -0.999634 -1.99968 0.000254717 -0.999503 -0.999438 1.00075 -0.999541 2.00077 0.000415482 1.00081 2.00077 1.00077 1.00077 0.000490091 -0.999458 -0.999472 -0.99949 -0.999483 -1.99922 2.0008 -0.999286 1.00085 2.00091 -1.9995 2.00048 -0.999273 2 2 0.999955 -0.000153174 2.00002 2.00002 0.000299426 -1.99966 2.00035 1.00084 -1.99919 1.00078 -0.99959 