-9.41332 1.98556 -1.93587 -1.48373 3.11237 -1.19536 3.5883 
-0.22761 -4.17824 3.0196 -0.296957 1.8574 -0.639597 -1.91335 
2.81043 2.3484 2.16453 2.66407 -3.4027 3.99593 -3.77864 
-2.20152 0.00285866 2.09989 -0.244405 -2.23091 3.10793 0.141808 
-0.506993 0.376486 -2.3665 -3.27529 2.17153 1.08511 0.651137 
-1.56761 1.58898 -1.87363 1.71523 -2.64497 3.82029 -0.475571 
1.19253 3.51904 2.51488 2.76078 1.96987 0.458075 1.00566 
-2.47473 3.40706 -1.65939 2.80343 -0.468249 0.181829 -0.219346 
13.561 -1.64589 -1.32784 0.736282 -1.95671 -1.3896 -3.12115 
2.07641 1.16827 -0.384258 -0.881029 -1.0326 -0.199626 3.03025 
-1.57728 -2.34181 -2.16666 -0.551946 -0.0152786 -0.610193 -1.98888 
-2.79293 1.59978 3.0683 -0.682181 -3.90889 -3.71656 3.52036 
-0.606925 -3.12971 -1.09587 -2.19111 0.689423 3.31392 -3.08717 
-1.10647 0.696354 2.92172 -1.67593 1.96515 -0.199379 -0.794263 
-1.15043 -3.77402 3.37863 -1.67328 -2.89081 2.85911 111.807 
-0.190121 -2.01019 -0.631263 -1.86325 -2.54733 -2.00929 0.251275 
19.9204 0.472382 -0.60521 0.969921 3.49688 1.54018 2.22086 
3.635 -2.85782 2.80112 -1.93204 1.08102 -0.418244 1.90656 
0.222987 1.94872 -0.493177 1.29381 1.5698 0.618081 -3.66391 
0.883903 -3.44658 -2.80446 0.491946 1.45723 2.04568 0.797627 
-1.75619 0.939958 2.08347 -0.916785 -3.66555 1.30908 2.44614 
1.48786 -1.21089 -3.91511 2.64484 -0.0304013 3.00721 -1.70411 
0.0237488 2.404 -3.74965 -3.06477 1.48576 -2.3906 102.599 
-2.92494 -1.55941 0.234414 3.74448 -1.25234 -1.50421 0.794484 
-1.38784 2.72866 -2.66906 0.176026 -0.176054 -2.13057 -1.59759 
-2.05277 3.45178 -1.24683 2.20181 2.56144 3.79947 3.53922 
0.805992 0.765247 -3.21097 -0.788405 -0.892516 -1.4005 0.879303 
3.78643 2.88103 3.23673 3.70226 -3.57369 -0.71262 -3.52629 
3.38911 1.52464 -2.02923 -2.36222 1.27503 0.507464 1.4141 
-2.00984 -0.666938 -1.6883 -3.24142 -2.71618 -0.717238 0.925999 
-3.08033 0.61563 0.389546 -2.41018 0.299594 -0.509901 107.762 
-3.77167 2.09989 -1.8893 1.06703 3.69145 1.69185 -2.22804 
23.4133 -0.0293923 0.284968 -3.90993 0.887825 -0.143068 -1.06994 
-2.613 -3.23375 -2.16205 -3.74165 -2.61761 3.46675 2.49474 
-3.30504 -2.93395 2.83698 -2.66961 1.4428 -1.58528 -3.49253 
-0.573831 3.38896 -0.999154 3.48378 1.93677 -2.98767 -1.8481 
-2.79847 -1.61157 3.22533 -3.1264 0.437016 -3.15502 1.76597 
-3.28236 -2.62757 -3.19353 3.40328 -1.40775 -3.83491 2.43827 
-2.73638 -3.29103 -1.66951 -3.88685 2.57136 -1.4628 65.8384 
-1.47473 -2.36213 -2.16878 -0.698167 -3.10918 0.16462 -1.71347 
-7.33849 -1.13753 -2.0275 2.32478 -0.485454 3.66351 1.54174 
0.129003 1.0437 -2.61396 1.07633 1.05528 -1.75156 2.49761 
-0.0626832 -2.82647 -2.50172 -1.71176 2.77202 2.99794 0.322075 
-3.06143 0.0713119 -0.531297 1.6311 2.13739 3.83333 -0.815976 
2.26572 -3.78906 -0.565983 1.47037 -3.07533 -0.316453 -0.257425 
3.37788 -3.70003 1.23404 -0.958643 -1.78644 3.07602 -1.73095 
-2.83214 3.60872 3.495 -1.78336 0.745536 -2.93726 73.5993 
-2.33559 -2.3404 1.51156 -0.253148 -1.37476 -2.05386 0.779149 
0.525423 2.04994 2.94988 -2.88048 -0.110372 -3.97221 0.367494 
-1.64391 -0.175092 0.374712 -2.93223 -3.81449 -1.61864 -3.15279 
3.15647 0.503267 0.606595 -0.749803 -1.12954 1.32751 -1.75119 
0.131963 1.182 1.77622 -1.47753 3.47893 -0.234052 -2.64345 
-3.15407 2.1162 2.33739 2.27741 1.91695 -2.56414 -1.42581 
-1.15175 1.0672 2.46478 -1.78433 1.47902 2.82084 -0.96658 
1.84222 1.02656 3.51175 2.29741 -2.39342 2.07316 18.2028 
2.96819 1.80167 0.25378 0.690108 2.03356 2.30254 1.32893 
11.9614 -3.02073 3.37949 -0.849266 0.556112 -2.72155 1.44301 
3.73915 -3.37166 -2.09619 -1.57018 -2.86624 1.44788 0.491002 
-3.76342 -3.10034 2.01052 2.22868 0.466631 -3.64288 2.49393 
1.53167 -0.52813 3.43073 0.184751 -0.177183 -3.80248 3.24294 
-2.2122 -3.53606 -1.46375 1.04193 -0.876736 -2.74635 -0.440379 
-1.60822 3.08871 1.35158 -2.04054 2.44658 0.631166 -1.67603 
2.96087 -3.72234 -2.31086 -3.71195 -2.15114 3.63012 52.8306 
1.40845 -1.61759 3.92437 -1.88357 -3.38785 -3.40095 -0.94839 

