3.14546 0.0399103 0.755288 -0.0281462 -1.39264 3.84031 
-0.250074 3.96134 3.98155 2.16287 -1.45792 -3.40025 
-0.939657 -2.5709 -3.88831 -1.77416 0.634819 0.604562 
2.98014 2.78908 -0.402733 -3.0597 3.0341 -0.211684 
1.20789 -1.76043 0.00531184 0.926723 2.06188 -2.24035 
-0.706333 3.163 2.64579 1.02245 -3.08205 -3.40526 
1.0786 1.24665 -2.70382 -3.25107 3.97267 -2.97929 
1.97118 -2.43666 2.52791 2.95471 -3.55713 1.25856 
-2.63374 -2.24311 -1.30813 -3.60023 -1.13581 -2.47814 
-2.87271 -0.247557 3.71449 2.93765 1.08135 2.62998 
-2.45497 -3.0507 -1.23171 3.92533 0.250969 -0.88645 
-1.46052 -3.12447 -2.52276 -2.86141 -2.57372 0.496459 
2.1806 3.3695 1.89936 3.10863 -0.675424 -1.51461 
-3.40708 -0.740755 -1.69093 -1.47057 1.56442 3.06197 
-3.71646 -2.30333 -0.186254 -2.74351 -2.06396 -0.264813 
0.608623 -0.879778 0.0583835 -3.25287 2.51805 -1.78797 
-2.48718 2.42634 2.90721 -3.66067 0.352453 -1.51967 
-3.5736 3.66313 -1.59176 -1.45577 1.19049 -0.946397 
-0.118632 -0.927544 -3.18956 -2.00962 -2.65711 1.89242 
3.44172 -3.89163 3.43602 0.720798 -3.39857 3.17368 
3.29198 -2.92371 -0.496653 -0.717055 3.39184 1.55196 
3.73766 1.96027 3.22662 0.00367119 1.39041 -0.918205 
1.11193 -3.95509 -3.33346 3.1201 -3.23937 2.4197 
-3.3745 1.60917 1.77565 -0.335258 3.18546 -0.686607 
3.8831 -2.05289 0.35898 0.377494 -1.39537 2.06923 
0.432568 2.77171 0.891406 -2.75708 -1.05039 -0.419513 
3.92897 -2.64183 3.16389 3.83156 0.769861 1.64973 
-0.0681654 -1.42793 0.826862 -0.544403 -2.52191 -0.824858 
-0.0926047 -2.09842 0.788054 -3.29871 -3.6744 -3.58047 
0.251961 -0.00503044 2.20323 -3.6967 1.67497 0.102593 
1.93174 3.69861 -2.78946 3.71285 -3.67608 -3.82959 
-2.29539 1.1781 -0.089735 -3.07942 1.83315 -2.63661 
-1.9248 -2.68233 1.0256 0.72072 2.52539 1.73102 
-3.07236 3.99952 -3.26165 1.28736 -0.313913 -1.45177 
2.00805 1.86673 3.62862 1.3487 -0.306007 0.996136 
-3.93663 -0.944473 2.62779 -2.3342 1.26986 -3.42784 
2.83317 2.35792 2.56161 -0.0386857 2.24848 0.703548 
-0.663717 -3.79038 2.35847 -1.8826 -3.36601 1.63384 
-3.33585 0.358757 0.454655 3.89973 -2.94662 2.89466 
-2.96115 -2.91561 -0.384185 1.90066 1.30799 1.69095 
1.24824 -1.33707 -1.66109 -1.89789 -1.86683 -3.52856 
-1.62127 -1.43871 -1.35961 -1.02451 2.5008 0.494901 
-1.81418 3.49259 -0.572335 -0.335857 -1.47196 -3.05469 
1.67536 1.56483 2.91578 -2.0142 -2.20726 0.632737 
-0.824622 0.34154 1.45657 0.631565 -3.37259 -2.43398 
0.560605 -0.441468 2.74085 -0.332485 1.42866 -0.26465 
-2.14143 3.77696 -3.27511 0.185271 2.87425 -2.52565 
-2.01192 2.84613 -0.223299 -3.64877 3.92884 3.64829 
-1.51585 -0.853038 -1.10462 -2.72242 2.03894 3.59699 

