-4.0882 0.707984 2.89722 2.24437 -2.12026 0.234617 2.93154 3.56537 -1.72381 -4.71553 -0.22696 6.97057 1.49167 3.80114 0.841342 -6.05203 -4.537 5.23032 -1.28494 -2.99885 1.88047 2.1888 4.3031 2.60289 1.62613 -1.68953 -0.666407 -3.94837 4.71242 -1.00749 -0.0900544 -0.713761 4.91489 -4.15592 1.8485 -0.671471 -1.27417 -0.821783 1.07449 5.50889 -5.81194 -5.11996 -0.445039 -5.60796 -2.69658 -3.2602 3.08981 -3.73657 5.91835 -0.13287 3.57919 1.1387 -0.575773 -1.83673 3.70288 6.67321 3.54246 -1.62548 6.15725 -4.22124 -6.454 5.91363 -0.637603 -4.14446 6.22483 -0.768805 -1.76384 -4.43698 -6.51193 -3.85943 0.726468 2.54953 -5.8025 -1.16245 6.59011 -0.884717 -4.96329 6.06982 5.73103 -0.819718 -5.9625 0.176036 4.25104 -5.81804 4.28971 -0.247869 -1.14987 1.72593 0.797952 1.62259 1.36627 -5.59885 4.41349 5.14982 2.77409 0.418513 1.92758 -5.87176 3.52907 -2.84395 5.09345 -6.16887 -3.62205 -3.33889 6.58053 -6.72798 -3.79579 4.528 -5.77975 -5.98876 -4.13552 5.75875 -6.19097 -4.49928 2.89973 -0.815764 3.01627 1.43669 0.0598251 -0.409267 3.67588 -4.86699 4.39574 3.00563 4.29947 1.04136 -2.85736 -2.9166 4.58767 3.40332 -4.13472 3.95894 0.111977 1.25292 4.6236 4.69969 1.2015 2.02155 6.79697 -5.80177 -5.10878 -2.19412 3.92122 5.20843 -6.87341 -0.895825 3.92065 -2.55855 3.15808 5.49266 2.76711 4.47392 5.5844 -0.593773 5.85122 3.9668 1.17072 -3.14563 -2.89651 0.797992 -6.33986 -5.74912 1.91126 -5.94376 -1.83538 -5.98047 1.55058 -0.440127 0.147671 3.72046 -2.40532 0.282822 -0.725862 -1.7621 -5.07419 -0.0517439 3.52058 -5.85475 -6.26182 -6.06681 -3.61525 6.23055 1.50873 6.6102 6.49096 -0.00473588 -0.00777862 2.24125 -1.36388 2.15049 3.45313 -5.52633 -2.85315 -1.0021 2.30081 1.69455 0.252803 -6.15039 0.861965 5.52876 -0.741988 0.671966 1.32134 -3.7339 2.11896 -4.96327 3.11082 0.452444 5.36324 -2.76005 5.02163 -4.0197 -4.90463 -0.355538 5.87132 2.49703 -1.69246 -6.41349 -5.45269 2.20353 -1.77226 -2.26359 2.87697 4.03256 -0.139017 -6.51576 1.8827 0.610634 -5.72595 1.00169 3.01877 -3.88326 6.28604 2.2603 -5.13638 0.3731 6.37227 -2.82853 1.699 5.37298 3.83635 -4.12522 -2.29828 0.209543 -6.50685 3.83206 6.36908 -4.11863 5.08404 -2.36396 1.96248 2.61208 3.25041 1.21224 6.92401 -1.1656 5.18838 4.07737 -3.85851 6.53653 -1.60391 -4.29545 -1.62796 -3.46286 2.27099 -3.42344 0.842488 -2.29311 -6.91067 4.59664 -6.18773 4.47925 3.67785 3.40397 6.34559 -5.60132 -4.35485 1.7866 3.95477 -1.69829 -0.940599 1.81825 6.56057 -3.83645 -2.32996 4.46433 1.21405 0.382429 -3.48998 1.81677 1.56094 -6.77674 1.51426 3.2663 -3.20184 5.87001 -4.25352 5.33305 -3.92662 -6.36531 1.80635 2.443 5.04189 -4.10367 4.86721 -6.3552 -3.41046 -1.47666 -6.72762 0.660792 -1.1334 5.09679 5.4566 6.40457 -2.8187 0.338034 2.90777 -1.85387 5.66699 5.96119 1.63963 5.77221 -1.25579 -2.16976 5.32456 -1.74705 2.01576 -4.02557 0.178192 5.14265 -1.52269 -6.43989 3.91136 -6.0948 -1.25099 1.81409 -6.10251 -1.38596 -1.34891 6.80893 0.839632 -0.10588 5.37355 6.16346 -6.57669 -5.79237 -1.86684 -2.65559 6.79514 -0.699114 -3.50524 6.58219 3.60735 3.97489 6.99793 4.2775 -6.74856 -3.16058 4.757 5.69113 0.359106 -2.84925 -6.27438 2.2846 3.23659 5.8212 1.03004 -2.23112 -5.31924 1.40478 6.74515 -5.51204 -6.17347 6.6321 -0.0421859 6.85527 5.2017 1.13477 2.5316 5.73352 1.46287 1.54389 -4.68627 1.70785 3.72433 -1.19769 3.27397 -2.15995 0.00331922 3.27997 -1.92275 -6.91809 6.62416 -6.3944 -1.5577 5.55394 2.0929 2.0384 -1.66103 -3.78697 4.34743 -0.232474 0.102954 3.25728 -2.84623 3.95415 0.271108 1.68294 0.0981588 -5.95264 -6.70099 -6.47173 4.15536 -6.7883 1.21645 6.66998 -6.5121 -6.59851 2.41754 5.81563 -1.25042 3.25 2.60551 0.558452 -6.99491 6.90046 5.25967 -4.21446 3.94093 -5.9372 4.63781 1.26455 6.34595 3.82567 6.18636 -5.61923 1.30273 1.39078 3.50571 -3.4119 -6.73595 -3.48835 5.62072 2.04906 -6.20427 4.49459 -0.605479 -6.17538 -1.954 3.14083 -2.98834 5.23357 -5.08275 3.88875 -5.74908 4.65785 1.59989 -0.529049 -4.44828 3.80323 5.95466 -2.74731 -4.9478 6.75156 4.89082 -1.22416 0.0666264 -2.8075 5.70433 4.27151 6.11055 1.73166 -0.666413 -4.8899 4.7453 4.7427 3.57506 6.62196 6.38171 -3.68734 -0.0808617 3.94969 0.235849 -6.86968 2.51301 -0.445137 3.37895 -0.219761 -5.15329 5.68476 3.09066 1.11378 -6.07479 5.4828 6.98672 -6.68199 -1.03992 3.23993 1.84827 1.02865 1.5745 0.0697166 2.44532 5.87506 -2.16028 -1.81819 5.01359 -0.591387 -3.49913 -4.49394 2.01013 1.25486 4.53144 5.73342 0.0948747 -1.80212 -3.99627 -2.19437 -5.87139 5.16939 -4.39006 -3.03206 -3.40173 -1.9901 5.67336 0.944694 -4.342 4.32502 -3.69305 -4.37088 5.12178 -4.89234 -3.77458 5.22746 2.65094 4.58427 -1.35763 -0.771644 -4.91243 -6.6473 -3.33469 2.4517 -0.54068 -2.301 -3.91351 -3.02251 -1.9335 6.98492 2.55924 -4.24863 3.66857 -3.00065 3.9356 -0.402486 -6.90975 -0.894169 -3.24577 -6.61927 4.53792 1.87335 -0.714713 -6.13315 6.5292 6.17343 3.1643 -4.65869 5.19278 -1.66924 -5.05333 1.9482 5.28332 -5.81045 6.58441 -5.5192 2.42266 -1.72022 6.35136 -4.47196 3.17203 -4.98846 4.70552 -6.68859 -0.922967 -5.27136 -4.17753 -5.45586 -0.299745 -5.7727 -2.9601 6.73033 -2.98133 -1.89588 -3.71908 2.36003 1.91107 -6.2515 5.90158 2.35546 -3.70706 4.95293 0.332625 -5.94229 6.19134 4.8393 -1.70262 2.56953 1.17538 -1.09833 2.57557 3.22678 -5.69231 -3.68444 -2.7604 -0.624729 2.29226 6.68572 -3.1543 -0.156172 4.89272 1.59688 4.29849 6.41356 -4.8297 3.29637 -6.57604 0.183026 -4.20192 1.58938 6.87513 -2.38619 -3.23452 0.836258 3.57066 -0.280461 5.75957 -0.964353 -1.60507 -3.43882 -5.80621 -2.33879 -3.77061 -1.78647 -2.31656 -6.11511 -2.14885 2.16967 -1.97937 1.20736 -3.90444 -1.77073 0.576347 -4.62502 1.09469 -6.81094 2.63099 1.71301 1.37725 -2.82887 5.76198 -1.75638 -0.749408 -1.03693 5.09321 0.62507 -1.46895 4.53406 -2.45021 -3.49383 -2.33423 6.85131 -3.82156 3.47649 0.536051 -3.66522 -5.4154 -6.39434 -4.68247 -1.01514 -4.3796 -3.7082 -6.30998 -0.964719 -2.59101 1.75558 0.240406 5.50327 -3.24718 -6.29698 6.9707 -3.59207 5.73763 -3.29554 -2.49115 2.05473 6.90241 -1.34955 -1.22803 -1.66148 2.61737 4.45101 -2.70723 -5.13413 -3.40352 -3.58607 -4.58303 3.19523 5.26422 -5.35141 3.45999 2.6264 1.61215 -3.51548 6.31366 -5.98982 5.08552 1.80742 -3.0008 -5.03075 6.60502 1.28991 3.61184 6.54826 -6.25982 0.104769 5.71258 -4.23189 4.53299 -0.119574 4.6719 5.875 -2.15127 3.32793 6.01088 2.35713 0.861524 4.65056 -4.46191 -5.06125 6.48895 5.48336 4.01124 -5.86016 -4.51338 4.56252 -1.58361 6.73993 -2.43725 6.3929 0.548288 5.98029 -2.25949 6.3981 -3.37106 4.61527 -6.39209 4.21642 -5.76968 -4.13225 -2.97529 -2.86031 6.54696 -5.86897 -0.597209 -6.12009 -2.08066 -5.12401 3.86624 -0.321668 -6.43206 5.30259 -5.66167 0.848508 -3.09854 -6.02032 6.70284 2.09285 3.72332 -3.36083 6.45029 -3.64352 -0.705692 5.10468 -4.35509 -2.71573 -0.0611096 -2.78321 -0.891274 -4.29836 1.59759 -5.32781 -4.40134 6.53581 -6.53602 4.52677 0.540579 2.8662 5.22364 2.0541 -4.17226 -6.23293 6.20766 0.684658 -0.518103 2.99311 1.609 2.0901 -4.22541 -0.618384 2.16045 3.14585 1.16568 6.53853 5.24344 -6.47376 -4.84834 -0.825452 -1.94135 4.24533 2.65484 4.84595 -6.7572 2.07665 1.27464 3.75444 6.12402 5.91866 -2.82971 -6.48288 -4.73371 3.96481 0.403321 1.82053 -1.06666 -3.59326 -6.62273 -0.562496 -2.19363 6.47333 0.991225 -5.09857 -2.73347 -4.14273 5.72816 4.64593 -4.16623 5.81759 1.04233 2.49743 0.667621 -6.34745 -3.23624 -6.30315 -4.06237 5.92871 -1.42876 -5.62365 5.74795 -0.377118 4.61821 2.28466 -5.11824 -2.76323 -3.58 -0.0411502 1.21045 1.47013 5.21103 4.16642 2.16195 -3.74589 6.98733 5.38806 1.77321 -1.69239 2.54674 4.72354 6.47008 3.68059 -2.44658 -0.3243 6.38275 -5.98756 -4.74794 5.06483 5.87699 -0.313001 5.65271 6.72202 -1.05719 2.95284 -5.57511 -3.96908 1.04894 -3.86611 2.10213 -6.37514 -6.50178 0.19689 1.89573 -5.7526 -1.4501 2.87952 -2.34764 5.20791 0.0941507 -5.26025 1.03813 -4.68394 4.0319 2.66274 0.374625 -5.71261 5.33014 -5.45888 -4.46473 -5.64201 4.81115 -2.4132 0.546428 0.47709 -0.729198 0.629347 2.9782 0.0143986 -5.53744 2.77105 2.04978 6.71919 -4.28165 0.469891 -1.17815 3.59197 -3.22311 4.06381 -0.513822 -5.09661 -1.53813 1.31837 -5.85022 -1.32991 -1.41606 4.68064 -0.678381 4.60517 -5.02736 5.40265 -5.54942 4.11131 -3.90463 -5.36691 5.29657 -3.41091 1.10632 -5.42529 2.89247 -6.09619 -2.60784 -1.58407 -4.81122 -0.901921 4.56332 -6.94949 -5.05482 -2.18539 0.559786 -0.434237 5.49308 5.33472 -6.83858 -3.42845 1.02672 -1.99557 -6.63771 -2.71324 6.01589 -4.28114 -5.69845 3.2158 -0.894619 4.14394 1.64688 2.95533 4.47541 1.17998 3.85524 -1.80532 3.31669 5.38009 -2.82932 5.38602 -3.15905 -6.4737 3.45751 6.76714 0.689814 1.28392 0.273978 4.13727 3.10156 -0.15013 1.05396 -1.94098 -5.01095 -5.90208 -4.36651 3.40998 -3.15823 2.78606 1.22707 0.0762468 -0.93083 -1.24237 -3.95193 1.95639 5.48413 -5.0384 4.02541 -0.475171 1.6915 6.00292 -2.39268 -2.97605 5.86554 -3.92184 6.32168 -1.17329 -3.47719 1.69956 1.94013 -3.80399 1.21421 -4.73639 5.25649 -3.74541 2.15803 5.36873 -0.82337 4.97923 5.98343 -4.04959 -1.92956 -6.66892 -6.51811 0.46939 -3.5647 0.0868473 5.77355 6.89091 -6.03603 -3.56688 2.95996 5.55253 6.86981 4.0543 -5.77401 4.02732 -6.38545 -2.7527 0.281421 3.89173 -0.277393 3.43817 -4.61337 -1.37882 -5.94235 -0.0119811 6.01823 -4.50973 6.39649 -1.73973 -2.74593 3.49631 1.61243 -1.41846 5.96826 5.30893 5.39236 -6.23351 4.79444 -4.28866 -2.17394 5.20836 0.333593 0.868399 -0.397146 -4.36479 2.89161 1.25218 -1.73291 -1.58841 -0.0366368 -1.4428 -4.1096 0.0984444 -5.85348 -3.36439 -3.77652 0.602039 -2.38474 0.331258 -4.5239 4.21902 0.0899002 5.04737 4.02989 4.98816 -2.12782 -2.54163 4.413 3.03662 -6.39539 -1.00155 3.3741 -1.40079 -0.975202 3.8001 1.3658 -1.07554 -6.38765 -1.9131 5.4979 -3.12363 -3.05453 -3.83639 3.8609 3.40683 6.94093 -0.445179 2.03862 0.481047 6.44566 6.48628 2.10546 -2.35616 5.1247 -2.15518 -3.04388 5.14108 -3.69971 -2.63923 0.0447998 -3.21639 6.6412 6.39217 -3.62298 -3.99146 4.14894 -6.33581 -4.0015 -4.67171 2.57623 -4.59851 2.00864 -5.84546 0.149475 -1.79891 -5.50416 -3.35097 -4.41221 4.47272 3.17746 -6.7263 6.49429 -3.09294 -6.17885 -3.01977 5.0167 4.20865 2.87465 2.30517 -4.81618 -0.932679 -3.46009 2.42038 1.42465 -4.95963 -0.109368 -0.394158 -6.18608 2.95875 -2.72734 6.49568 5.06793 -5.93832 -3.94994 3.1892 -3.51692 0.0988496 -2.99841 1.644 6.30398 -0.767874 -2.91447 4.43092 -4.6916 3.36758 -6.94492 -1.40919 5.26524 -6.42091 -0.817329 2.78466 -5.82902 0.71645 5.77183 6.4894 6.0024 2.74682 -3.21824 -6.69701 2.23144 5.11487 -4.1225 -6.68865 -5.4494 -5.1943 3.27415 -4.7723 -5.79493 -5.62387 -4.91587 5.56802 -4.86738 -6.31969 6.56185 -2.61335 -5.83294 6.26781 0.890666 -5.2548 -5.3397 -1.68356 4.5239 -3.37752 2.76399 3.1251 -0.921536 0.147455 -6.96577 1.90661 -3.82113 5.66851 -3.55431 5.2266 -1.26131 2.85901 -1.55581 2.88858 0.858209 1.47547 4.15052 0.830867 2.81335 -3.90505 4.67734 5.97471 -1.4364 0.151403 -4.4871 2.71028 3.71631 -6.88403 6.21005 6.71938 -2.17845 4.40687 2.6783 -6.32439 -1.68214 -1.31415 5.04313 -6.14316 -5.33187 4.8792 -1.60343 0.519282 5.68891 -5.32028 -2.45833 -6.37181 -2.13766 5.25546 -5.41881 -6.88513 -6.12799 -0.832066 -4.51886 0.193213 -4.90701 -3.97891 -5.339 0.880003 3.28695 -6.2148 -6.10915 4.34339 -5.86204 -6.45728 3.05336 4.17161 5.71603 2.86032 -2.81107 5.54297 -3.60574 -5.27096 3.96321 5.2505 -0.786397 -1.71074 4.33643 -5.37057 -0.816077 5.5543 -4.56049 6.47285 4.36133 4.62731 -3.02973 -6.29051 -2.65673 6.92309 5.98161 -2.12779 -6.86903 -6.1597 4.30113 -5.70466 -3.86995 -3.38611 -0.847757 5.71599 -1.19522 -4.73239 -6.25174 -4.83747 -6.64847 6.02528 2.86508 4.39722 3.56614 -5.62176 -1.31587 -4.93328 -3.27036 2.27622 -3.03402 1.39718 4.2322 1.08505 -5.08764 -6.81624 -3.57583 -2.57284 -4.56203 5.50847 -6.7505 -3.99998 4.30143 1.97163 -0.508139 -2.27094 2.8079 -5.87711 -6.47118 2.29963 -6.45593 0.925265 5.60401 -4.82965 6.36338 -4.94512 -6.30845 2.56924 -0.124408 5.22547 6.12363 -6.33058 6.97415 -1.80196 2.82452 -0.799946 6.14892 -6.29362 -2.56429 5.6601 5.85009 -2.02492 3.73621 6.99027 -6.39924 1.40915 -4.08686 -1.71321 -6.2427 2.82989 1.71856 -2.48179 6.42517 -2.53842 -0.732647 -0.716392 -0.963488 -1.93528 -5.93642 0.958932 -3.95942 -1.88014 -0.201385 1.44581 6.24795 -2.8265 4.42341 -0.0129269 -3.29133 -4.87476 -2.00753 2.73725 3.78152 -4.8007 -3.83868 -4.72353 -2.49454 5.2766 2.82168 -0.922572 -2.97198 4.95486 1.1942 2.70542 -1.35374 3.92013 -5.88752 0.334639 -6.22314 4.63589 -4.88512 2.64208 -0.418939 5.61632 1.49287 3.51311 -2.26243 -6.69728 3.77944 6.46249 -1.12056 -6.06277 -2.95407 4.92195 -4.02433 0.261636 -4.36439 -3.01167 -1.03272 1.84986 0.119569 3.02265 -4.28518 -3.46791 1.5351 -0.627798 3.8444 -0.447072 5.08541 -3.80545 0.533278 -5.10588 -1.00274 -0.0544058 0.0125054 0.576287 -6.93749 2.6874 -2.57246 -2.7789 -2.67716 6.59434 -2.81071 0.343944 -6.20663 -5.13377 2.39616 -5.53959 -3.25927 -4.78968 -0.156673 -2.87559 -3.00466 3.39053 1.0421 5.08951 0.93147 5.07725 3.69544 3.61823 1.23887 3.54658 0.892395 -3.76216 -5.01068 -3.31948 4.28191 5.85812 2.18279 0.984015 4.30495 -2.26039 -4.72527 -4.89185 3.37481 0.0196972 5.67124 -1.04674 5.39847 -5.62848 2.27306 0.920578 5.39888 -0.157798 4.34502 -1.25034 -5.66358 -1.47729 -4.49381 4.89649 -3.38609 -6.56084 -1.2866 4.98783 2.70106 -1.39221 -5.71811 2.06743 -3.01113 2.43135 -1.31457 2.86615 6.74922 2.34619 6.53246 -3.76259 -1.64191 -6.17692 -0.209952 -5.80447 -5.98583 4.64134 5.51629 5.11319 4.62466 -4.62074 -5.64782 -3.80085 -2.76404 3.62312 5.03961 1.27251 -3.35353 -4.81769 6.53718 -2.94565 6.64699 -5.20262 4.91127 4.93166 1.44139 -0.660276 -0.434332 -2.40631 -5.62721 1.64457 4.56794 3.54789 3.41822 6.23809 1.09963 1.56338 -3.93445 5.50452 5.84283 -3.47393 -4.37695 -2.77544 -1.92018 -5.62805 -6.78083 0.348149 -2.81198 4.75152 1.20936 4.49703 4.82902 -6.20845 4.30328 5.67284 0.580732 1.86903 2.78394 3.46877 5.60902 4.79784 4.46856 -0.138767 2.75394 -3.09026 6.20588 -1.25842 6.41557 -0.870517 0.23262 -5.1438 0.572353 -4.46667 -6.68423 -6.32381 3.42509 4.55979 6.76126 -1.50093 -6.52246 4.40065 1.53525 0.761561 0.0533395 -5.75976 -1.68297 -4.4711 4.14374 1.38098 4.72353 4.17098 2.75773 4.27763 -5.40562 -2.0083 -3.19453 -6.48243 -4.66665 2.93969 -4.45898 -1.73972 -2.83927 2.09078 6.45559 -0.0122527 4.23411 -1.24582 4.45868 -5.18766 -6.23949 3.20412 6.60934 -2.06334 6.10561 -3.69961 -2.29538 5.94664 0.596302 5.02119 5.74511 6.16461 1.33307 -3.25855 6.36502 -2.23231 -4.66052 0.87821 6.55527 0.500816 -3.60724 -0.862633 4.99278 -0.537153 0.748304 0.738887 2.69019 6.38502 -4.97439 3.3166 -4.37149 6.05467 1.48443 -4.25899 -6.57271 -4.95223 0.944146 -2.94956 -0.298742 6.23997 2.5426 5.92323 -1.92229 4.3414 2.74675 -2.3814 0.273779 -2.08087 3.74895 -3.26967 1.55626 -3.16794 1.79298 2.952 6.51792 2.41889 1.95071 -6.37398 3.88187 2.23644 -0.464159 5.49596 -2.70253 1.47472 3.90519 -4.83974 -0.309792 0.545734 -2.41149 4.63966 -3.48587 2.31318 5.89109 -1.91876 -3.04733 -0.502124 6.82729 -0.110916 6.57615 4.33002 -6.54214 1.82576 0.99158 0.310732 6.12143 6.54735 -5.13616 4.4211 0.590625 0.732001 6.51432 -5.1909 3.63225 -4.78474 -3.97952 6.16321 4.6527 3.109 4.51229 -1.12132 -6.10412 5.91622 -1.80182 1.74718 -3.07616 -0.0718163 -6.5171 5.51977 -3.03036 -1.27555 -1.57675 -4.5034 2.93965 -5.26786 6.5094 0.634035 -4.20303 0.977683 -4.94564 -0.134883 -3.79897 -2.0252 2.1913 6.36398 -0.987203 -3.15744 -3.15814 0.494765 5.55646 -4.03684 3.62309 -1.16207 -4.67034 -4.18823 -5.11266 -4.4401 -2.81135 3.33359 2.83688 1.20981 5.58361 -1.89659 6.95752 -4.02773 6.21092 4.17053 3.33306 6.04295 -6.13712 -4.57862 -2.3481 -0.887761 5.25072 -6.99374 3.20197 -2.63042 1.06669 2.5118 -6.88905 5.22436 -5.71465 6.05681 -2.58138 4.09633 4.95331 6.73029 3.52086 4.91377 1.82048 6.82374 -4.79135 3.97357 -1.64167 4.23398 3.21479 3.29357 -1.00161 3.43055 -5.24876 1.65184 5.54747 -1.04251 -4.78305 6.25824 0.164141 -6.77239 2.39313 -2.38235 5.03729 3.86769 -3.05403 -5.78936 4.89806 -0.0621226 5.45374 -3.85573 6.21515 -4.63843 -2.80063 4.1957 -2.87437 4.36334 -1.40661 -2.0278 1.25757 -4.10362 5.16189 0.826833 -1.85412 0.182278 -3.95747 6.30762 -1.19121 -4.82311 0.225369 4.21677 3.32779 -3.56747 -6.71277 -2.09575 5.69221 5.72548 -6.36141 -3.69587 -2.74871 -1.87188 -6.1577 -4.12375 -1.01646 2.04998 1.28347 6.60814 3.35692 0.0909191 4.26423 5.08572 0.887801 -2.92998 0.195988 -5.68147 5.48526 4.4974 1.13306 -2.98397 -5.21448 5.50802 2.97315 1.05507 -5.20266 6.97054 5.25949 -4.67396 1.03616 -1.37492 2.45471 5.6626 6.69362 -0.0660196 -3.96718 -1.55024 6.75645 -6.56927 3.6097 -6.49039 -4.43739 -1.96502 0.0945366 -4.67174 -1.34095 6.12281 -1.20966 -3.43067 0.644566 2.89538 3.63628 -3.91147 1.6519 0.652106 -3.70474 -0.627495 6.7376 -5.0071 -4.8359 3.08932 0.178411 -4.0381 -1.10364 0.4871 -1.6658 -3.26721 -1.30213 -4.34645 6.37349 -2.58307 -1.83075 -0.774259 5.83434 1.78666 3.69118 3.47773 3.19981 -5.38324 6.99542 -6.13152 -3.79111 2.11181 5.25074 4.71826 -1.93826 -6.86056 3.9655 1.52403 -3.18689 -3.97462 -4.65472 -1.75732 3.27949 -1.04314 1.1971 0.819644 2.94545 2.20935 4.60564 3.07451 -5.37489 2.33333 -0.924843 -5.34313 -2.93321 -0.297519 -1.14612 4.62895 3.12939 4.82926 -3.4926 -3.65394 6.42281 6.79885 1.93081 3.19892 0.421126 5.04027 2.61227 6.57112 0.590984 -1.89986 -0.648584 5.18745 6.697 1.78102 2.50463 -4.82732 2.34421 1.44491 3.54398 6.88232 3.9555 3.76169 2.78339 -2.69279 2.25268 5.71281 2.89355 3.25125 -3.73425 -2.2268 -2.58155 5.39152 4.46886 -3.62524 -0.588089 1.76623 3.85383 -3.8605 5.18975 2.94869 -6.41769 -6.8785 -6.49211 -1.58933 -1.77644 -5.50478 -5.90204 -6.62422 -3.68973 5.01422 -2.77158 3.98514 -0.242068 -1.50851 -2.14835 -0.635108 1.41642 2.18563 -0.312586 2.41909 0.817081 2.5533 -1.96514 -0.300256 4.48412 -2.32566 5.36374 -0.483494 -6.4204 4.41875 6.88137 -5.46618 -6.71431 4.53434 -5.1965 -1.03077 2.04846 5.22957 2.0179 0.673886 -0.0937232 -1.60743 -5.53545 2.20808 -3.38904 5.17123 5.31278 3.71806 -2.18533 2.46644 2.44471 -3.3167 6.6144 -5.0996 -6.468 -1.2189 0.229744 1.43887 -4.32183 1.19068 -3.74081 1.85463 6.58277 -2.06775 -2.0493 -1.97012 0.438592 -6.16703 2.15241 -5.67433 -6.96545 1.87518 -6.20964 2.80735 -0.591568 -2.6251 -1.12479 1.07751 -0.0561583 -1.86162 5.88065 -1.07202 3.52415 -4.00481 5.64077 5.89654 3.38549 5.44042 -5.83358 5.26242 0.378597 -0.917294 1.18008 -5.73143 3.56067 -3.26453 6.27628 -0.419274 -2.6956 3.47377 6.71608 2.22201 3.31826 1.6836 3.89522 -4.47211 0.196332 -5.75344 4.90249 -6.4564 -0.967803 3.81681 6.1409 -4.71573 2.16235 -1.3337 -3.79769 1.46577 2.53024 -4.56611 -0.96933 -0.504982 6.20141 -5.83272 -6.36209 -1.16295 -0.738016 3.63497 -4.28981 1.67819 1.00218 -3.36941 -6.67545 -0.833026 6.67437 5.19787 2.79579 6.74975 -2.09875 -6.1078 -2.68091 2.55022 -4.15561 -4.26252 1.75883 0.776825 -4.09047 -6.70673 -0.313278 -0.740007 0.278233 5.2813 -6.15507 0.43837 -4.19138 1.64839 3.76795 1.72568 3.9565 2.82624 0.63006 6.07902 5.42397 4.76898 0.973301 5.29332 -4.80041 -2.20512 -1.98173 -0.86017 3.09401 -4.09954 0.811608 -4.90362 -4.60101 -1.94102 -0.566032 3.58023 -2.81585 -3.42139 -5.92186 2.12485 -1.08793 -5.76913 -2.99288 -5.53962 -4.24851 5.66631 6.20125 -4.50732 -2.01288 -2.90939 -1.93066 4.14544 5.25006 -2.91492 4.83142 2.23875 3.23056 2.22531 -0.560093 4.0994 -6.39788 -1.80467 -0.185492 -3.93511 -5.76293 -4.74629 -1.88457 -6.12285 -2.58092 -6.49483 4.71133 -5.10098 -2.00326 2.30564 -0.46043 1.88113 -1.92676 3.86798 3.95676 -5.68992 5.63529 3.91356 5.60806 -4.22796 4.13391 2.67841 3.52591 2.4946 4.94462 -5.26079 5.97905 6.47335 6.65298 3.45787 1.58028 -5.20543 2.04767 0.84533 -2.19685 -0.243176 6.54647 1.16839 -3.9709 2.99979 -6.70854 5.05738 -0.645448 -4.57897 4.81316 1.52142 -6.09468 -5.42453 2.46227 3.4301 -6.85345 4.74195 -4.57622 2.6426 6.98614 3.64658 0.636961 0.178046 -6.03187 -5.01406 5.89079 -2.66617 1.73311 5.97525 2.65975 1.46081 -2.81602 2.37248 -5.38287 -1.77927 -6.87973 1.00479 -1.13484 -5.22849 -6.65188 -1.44083 0.622804 2.93935 3.71655 3.60537 -0.527041 3.44549 -5.81766 -4.43048 6.25639 3.77656 1.06067 -5.59616 5.11957 -4.04317 3.36991 -3.13595 6.53622 1.60819 3.70005 2.96545 4.67416 -5.78277 -6.55377 5.27207 -0.0816052 3.10143 -1.65318 0.869623 4.33906 -3.79524 5.10088 -3.57072 1.83123 0.774143 6.61297 1.08912 -6.86519 3.45112 5.17046 4.92527 4.17717 -0.29782 5.84693 5.23703 6.69466 -3.04817 -2.927 1.57564 1.3701 4.73076 -0.306563 6.96564 6.19465 2.65676 4.26341 -1.63927 6.13584 -2.28031 1.06893 6.06389 -3.91349 -2.2652 -0.858195 3.36335 -0.475344 1.58122 -1.71761 2.98915 -2.21546 3.4811 -3.88021 -1.61278 -0.731392 0.304134 -6.15558 2.70844 -6.53382 6.09991 0.601321 3.97144 -6.67971 0.58684 -6.96918 6.17646 -6.67059 2.16432 3.94713 -0.0815816 3.31731 -2.74562 0.186671 -0.246063 -0.368794 -2.52044 -4.64324 -1.04423 5.09177 -0.814525 -3.63791 -6.00833 -4.50697 -0.952683 -6.95085 -0.355372 2.56311 0.818189 0.141936 -5.05872 -5.97247 -3.51725 0.412969 -3.13995 4.15157 -4.55761 -5.04773 -6.48064 2.19655 5.63699 6.37512 1.66168 1.94766 -3.44305 -0.951283 -5.00725 3.71054 1.39072 6.99836 -3.24488 -5.71474 -0.176943 5.97022 -2.71982 -4.71399 2.3192 0.81585 6.32742 5.45229 -5.27547 2.30532 -3.30884 4.71584 -3.55154 3.06806 3.60865 2.26023 -5.1769 5.11414 -6.93772 2.52675 -6.56733 5.44558 -6.04771 -3.53485 -4.41487 0.728716 5.25732 1.21808 0.215181 -5.5943 5.54308 4.5005 3.00262 -1.38106 -1.45645 -6.42311 5.12355 4.25987 3.18812 4.29116 4.27097 2.92824 4.18034 0.184026 -2.5021 0.0963637 2.0737 -6.2377 2.90365 3.52323 -4.79017 -6.33762 0.477959 2.8789 -0.70032 -5.58011 2.33615 5.61245 3.94459 6.70385 -1.36617 3.90057 0.842263 1.74467 -5.53327 2.78299 -5.83998 -6.65409 -5.79848 0.940228 -3.28173 2.80575 5.39516 5.27438 -2.76208 6.93867 6.85841 3.91241 2.78817 -4.1757 3.33274 1.23788 -4.84139 -4.07873 6.96833 3.62611 6.54736 -5.37118 -1.20125 -0.294806 -1.23628 2.97728 -3.50074 5.5646 4.22564 2.71356 -5.05065 -2.62674 0.914156 -2.37308 2.23927 -5.77454 -4.42853 4.71186 3.33561 3.03865 -2.75884 -6.63735 1.49391 0.213845 -1.15663 3.23881 -5.85087 3.12124 -4.93647 -3.54114 3.77232 2.40425 2.64618 -3.33888 1.43692 3.55893 0.531867 4.58903 -5.34348 2.93625 4.61238 -0.487106 5.85139 -5.67415 -2.0201 -6.77201 4.81704 3.37887 1.57287 3.00083 2.51543 -3.35232 5.04158 -5.58886 -3.70702 -1.07637 5.4993 -1.70548 -4.14247 4.9235 3.9019 -2.31692 4.42738 1.70556 -6.8302 -2.76537 -1.17504 -2.96666 3.17305 -6.8015 -4.62726 6.42609 -4.02399 -3.46443 4.93998 6.52442 4.78265 0.685868 -3.44548 3.02723 2.74412 -5.12287 5.50432 -1.88175 0.199372 -1.44291 -1.34849 -3.89323 -1.66077 4.96896 -4.47172 6.17328 0.04966 6.65853 -3.89999 -3.64828 -2.45611 -4.84805 6.03426 6.11003 -4.07126 -5.49887 5.05942 -3.66384 -0.292895 3.86029 -5.54409 -4.45517 -6.92033 -2.6422 -5.32932 -6.38915 -4.82074 3.18626 -4.98521 2.96644 6.86822 -5.60208 5.46703 -2.72882 -4.35545 5.08343 -4.93288 4.90603 6.67896 4.03839 -1.84448 3.78817 -4.74815 -1.64716 3.11142 4.03595 -5.15444 -1.0133 -6.86653 -0.0668572 -0.788429 3.45515 -5.41139 -2.68557 -1.82154 -4.97437 -0.331572 -2.6813 -0.295494 0.875333 3.66854 3.65168 4.3095 2.75059 0.161605 -2.17205 2.51526 -2.13557 -1.25344 6.0177 0.643931 4.91643 -1.71002 3.34845 -4.2069 -2.18515 4.62174 2.82386 3.87463 1.2152 -2.94511 -0.209152 -4.76003 4.88369 5.31413 4.5227 -2.25053 4.89417 -6.44313 4.90697 3.42159 3.73533 -1.67202 -5.52355 -0.594638 -0.307291 1.1033 2.16025 3.84213 1.36261 4.94542 -3.33764 4.92406 6.54617 4.41693 2.99249 1.39946 5.36261 -2.5248 1.94065 6.63491 6.78151 6.98494 -4.77272 -2.21619 -5.34696 0.511545 1.76281 0.662083 1.25122 1.8369 -6.90989 4.34352 4.94105 -4.38986 -0.536888 2.03458 -4.48995 -3.5172 -5.43194 5.48197 -5.44321 1.42584 3.93681 -6.14041 -5.08435 0.603252 -5.76882 4.79406 1.12187 3.33779 4.28999 -3.72817 -3.79089 -5.7941 -5.34773 -1.55984 -4.22256 2.53494 -6.63249 3.89065 -5.77606 -3.94529 -4.60283 6.73885 2.13275 -0.480746 2.71074 1.65515 4.10475 4.78655 4.00417 -4.6254 -5.13833 -0.63555 0.175826 -5.24552 3.02251 3.54653 -1.78411 -6.79232 3.88182 5.66721 5.72332 -3.14949 3.77084 -0.383009 -5.46769 2.21179 6.80266 4.2865 -3.89078 3.09456 3.18557 4.20487 0.188946 -0.305165 -3.7425 -0.0645807 1.54993 2.99128 -3.19975 5.73637 3.25166 6.62238 -0.938203 -2.96011 2.39118 4.11731 5.45455 2.47673 -5.04314 -1.33468 -1.19452 6.09119 2.98258 6.09664 -4.14448 -4.71402 0.877637 6.34843 4.71317 1.59245 5.10696 -3.37133 4.51191 -0.549275 3.79223 -1.75354 1.09735 -3.97863 6.28735 -1.52841 4.19512 -2.41899 -4.9188 1.08182 -1.99051 4.84572 -2.98611 2.26806 -2.23887 2.43875 0.790968 -0.902472 -4.19766 -3.47446 1.41426 -4.37453 -3.78658 -3.11376 5.21551 -1.60596 2.56538 5.69371 -1.43336 6.28665 6.68818 6.93426 -4.07728 4.33436 -3.90298 6.0299 -4.23096 4.39386 -4.7883 -3.79537 -2.06988 6.4232 -2.53118 -6.0341 2.77278 -0.752629 -0.532629 -4.17902 -4.92597 2.08813 2.29507 1.22421 5.57839 -4.19615 2.64982 6.45318 1.64578 0.779949 0.579888 -6.6673 3.99012 3.7477 -5.29619 -3.13093 4.81249 -4.2659 -5.07513 3.06073 -4.23224 -3.44324 3.08314 -6.25151 5.20046 5.11027 -3.55859 6.78224 6.36652 -3.59517 1.46341 1.94753 5.01078 6.98388 -6.24415 -0.402438 2.53771 -1.82333 -5.14571 -2.1537 -4.77937 -3.46928 -4.23181 -1.1315 2.6764 4.43156 -1.08321 3.39201 3.59816 -6.22117 -3.48768 4.25163 -6.07493 -6.10743 6.13862 3.29235 -3.12616 5.92102 5.09589 0.709714 2.88531 2.17569 -0.67569 -5.83993 6.01331 -2.51998 6.49524 6.68037 5.08987 -1.02141 5.34023 -4.98034 -6.27638 -2.5771 -5.44832 5.98701 0.262699 4.08625 5.26448 2.42003 -1.87766 -5.60322 -2.71627 6.76804 0.625185 -2.46684 -6.04355 -5.15939 4.41004 3.4637 4.71508 -0.0300036 -5.97113 5.32784 -5.33803 0.326183 3.71438 -5.25101 4.54613 6.74139 -0.640705 -1.55987 1.44312 0.6873 2.69356 3.88213 3.82291 1.91268 2.04467 -3.74427 1.9324 -2.88174 1.04455 3.33714 -6.78901 1.16898 -1.42894 -1.02544 -6.76784 -6.6575 -3.09479 -2.4609 3.39578 -2.99193 -2.2342 -1.54399 1.34886 4.1764 -2.23467 2.40936 -4.44713 -2.05661 5.43343 4.97053 -0.127067 1.84327 4.43947 -5.79736 -3.74788 -0.697552 5.11496 -1.06451 3.83072 -6.55889 5.10859 -5.43104 -2.46174 4.28908 0.564203 0.500948 -0.895784 1.93211 0.249022 3.33155 -4.60874 1.66179 4.29021 0.285988 -5.08117 -3.92388 5.01527 1.48844 3.22211 -4.32538 -3.61704 0.0136596 -1.0689 -3.42198 2.35501 4.84721 2.09261 -4.6063 2.91567 -1.36967 1.06579 -1.74883 -4.17004 0.514556 2.27291 -0.854302 4.51942 1.02981 0.0722284 6.21397 0.851432 -4.71091 -5.39734 -6.912 -0.253832 2.96447 -4.97795 -1.32086 -0.0802374 0.690911 -5.55794 -0.914008 3.38886 4.09653 3.79433 -6.97389 4.74029 0.839935 1.31734 -1.84865 6.10952 2.80293 1.26083 -1.47713 -1.64154 1.86625 1.2997 -5.81317 -5.00857 1.20896 -2.97994 6.19634 3.58347 -6.80169 1.52054 6.9643 -1.75079 -3.89326 6.80175 -4.13618 -4.96918 0.00740357 -5.74266 5.20454 5.5804 -0.716189 -5.38221 -3.93215 -4.85427 3.31873 -4.97718 -5.42826 -1.95668 -1.21785 3.70279 -5.28806 1.90417 3.03512 1.5008 -5.87662 -6.7217 2.7008 -2.54246 -3.97929 -2.71561 -0.161907 -2.06911 -5.83228 -1.38565 6.74348 -5.59004 0.552601 -1.7756 0.904254 -3.80116 1.43547 -3.23336 -3.00694 -0.552446 -6.39731 0.847364 -3.8813 -4.70981 -2.36509 -1.20708 1.79435 6.8555 6.80867 -1.30463 -1.2535 -6.60793 -1.58794 -2.28477 3.52906 2.07719 -3.31094 -4.58371 0.910169 -0.637922 -0.540306 -1.1951 -1.69143 -5.05945 -1.25139 2.0756 -3.1083 -0.462993 1.54666 -3.58967 -1.84748 2.87747 6.4617 -5.28349 -6.98636 -1.03408 -4.06979 1.78266 -2.12983 4.44522 6.38824 3.78001 5.111 0.0203082 3.40433 -1.31113 4.33894 2.59096 -1.5855 1.58947 5.56581 -5.13401 -3.24008 4.39677 -4.04889 -2.3908 1.41344 -4.29244 -0.418076 -0.77716 0.342461 1.64055 0.357433 -0.131346 0.892717 -5.74807 -1.82603 -3.52393 -1.52892 -5.3853 -3.87092 -6.39077 2.28147 4.25918 -0.0396143 -3.49232 -4.10954 4.75211 5.45398 0.726423 6.1279 -5.17138 1.13148 -4.34719 1.96813 -3.56244 -3.38877 -2.76545 -3.61448 4.11723 -5.21542 -5.54755 2.35557 -3.00029 4.94144 5.53912 -5.77332 0.443143 0.663786 2.81274 3.7505 3.62654 4.16646 -2.26631 4.98879 2.82157 -0.402699 -4.48919 1.27473 -2.24472 -4.60046 2.5593 6.91441 -5.95255 -5.71221 -1.47137 -2.20316 0.602653 5.2359 -4.13141 -2.65273 1.15775 3.98336 0.500594 5.51401 0.423617 0.782144 3.17189 -4.13352 -4.53534 -1.58268 2.73329 -6.20341 0.991672 1.85997 -2.38634 5.34518 -5.40992 -0.525943 -6.17175 -0.97625 4.78813 5.15862 6.58709 2.22425 1.5635 -1.97585 1.96427 -3.53443 -4.48015 2.64032 -5.8084 -3.83128 0.785199 1.74374 3.81416 -4.01603 -4.69497 -1.24227 4.25906 -1.69242 0.608001 4.62223 4.77989 -1.83151 1.72214 3.16297 2.52578 -1.05268 -0.589407 -0.207968 -0.888292 -0.383825 -2.37668 -0.337297 3.19247 2.35368 3.91874 -4.81306 -0.439935 4.53295 1.69218 1.02315 0.301219 6.36542 -1.56886 -5.71924 4.98089 2.02556 -4.4473 -0.965923 -0.121725 3.24785 -3.26568 2.80992 -3.74635 -6.46386 -6.11415 -5.42924 5.44429 6.92623 3.47258 4.02607 -3.08427 -6.36637 3.02964 -4.90225 6.60586 -5.92537 1.04097 0.97409 6.93893 5.79934 -5.97119 2.87527 5.61361 5.45044 -1.01585 -0.222861 0.115642 -5.12678 -0.914126 -4.94553 2.02887 1.37793 0.227477 -5.59905 0.0941064 0.00696861 2.84072 -3.40928 5.37484 3.07703 1.00587 -0.109477 -2.67315 2.63561 -2.77884 1.1952 -0.597972 4.02235 -1.81142 -2.99575 3.7064 -0.941782 1.38724 2.40272 0.198578 2.47368 -0.259935 -1.78048 4.64754 -6.72324 4.80836 6.2373 6.39754 1.74976 0.0445837 6.90919 -5.12798 5.38357 2.41079 -0.997956 0.995467 -1.10494 -1.16638 -0.812017 -5.51692 -0.131105 1.23055 6.20524 6.70556 5.41756 -2.9517 5.5104 2.02394 3.93593 -5.3023 6.77204 1.35111 4.26475 4.33232 -4.14463 -4.29984 -5.53258 6.37621 5.16787 1.36775 -6.7146 2.77219 5.39131 6.91886 -1.32091 -6.30981 -0.640261 3.27477 0.351435 1.31028 5.90344 -3.70899 -2.42535 6.8405 -3.25024 -4.87289 -1.75182 -5.92396 5.33127 5.08543 -4.58595 -2.5031 -3.9831 0.0508221 -4.27203 -6.70288 3.51315 6.68521 4.26272 -1.46978 -3.77226 -6.25109 6.14119 -2.55349 1.48184 0.462256 6.50334 -4.11199 -4.35181 4.97478 5.06148 -3.90515 0.3333 4.74438 -4.88346 -5.78872 -2.96062 -0.550813 4.71427 4.77911 4.67597 -0.212521 6.65927 -6.83067 2.97571 -1.70616 4.41129 4.76033 -3.15042 2.5929 -5.4255 0.525441 -3.87764 0.403776 -0.975919 -2.02386 -0.142232 -2.21452 -0.780461 -6.59145 5.80085 0.195414 -2.15178 -6.74273 -4.16708 1.16578 -1.60132 -5.68699 3.89282 -1.74749 -5.10562 0.872799 -0.268441 0.3685 1.48136 0.0502426 3.21785 1.36394 -5.03074 0.196875 2.13623 -3.4332 -2.35439 -6.93929 -3.1013 0.380825 4.72925 -2.83611 1.89669 -4.60545 -4.69554 -6.98118 -4.82537 2.60281 1.24431 -5.71653 -1.45088 0.0984569 6.73741 -2.23229 -1.30072 -6.88286 5.9161 4.5283 0.164108 2.55635 4.45698 0.0381639 -1.71286 -4.38853 -5.35565 2.1884 -3.43164 -6.14557 6.72331 6.09677 2.67881 3.4324 5.81815 3.42782 4.74247 5.89358 4.17324 -2.81505 -4.93128 6.71337 -3.20525 0.992853 3.72281 -5.93077 -1.4938 -2.85015 5.38949 6.14898 3.58523 3.05352 3.55422 2.97222 -5.30694 3.35444 1.50855 -6.99904 -2.69793 4.63848 3.36748 6.88662 5.36978 6.58587 3.22721 5.39798 6.1363 -5.13328 -4.13762 4.53196 -0.45674 -1.27686 0.121336 -1.72146 -0.177412 3.53744 -5.89881 6.32609 -3.85447 6.10527 3.32118 -5.1696 3.91224 2.13795 6.15208 1.69222 1.82633 6.56153 1.07699 -5.14383 1.73561 -1.48134 -5.13918 0.951047 0.231121 0.0951891 -5.67233 2.05355 2.5954 -4.90782 1.83531 5.69836 -4.95128 6.81183 5.83138 1.2419 4.70334 -0.303533 5.0966 3.80678 6.54454 -4.45262 3.41811 -1.00414 -6.01479 2.81499 -4.19072 -5.98718 -0.101776 5.14923 4.6153 0.734245 2.53226 -6.53685 -0.457617 4.06543 -1.3081 -6.54863 6.88358 -4.10969 -2.84249 -5.65259 4.37736 -0.754797 4.001 -4.15644 2.26898 0.498522 -2.51228 -1.57164 6.48793 0.416476 0.153189 3.96333 -2.68077 -2.62547 4.10183 4.49656 -0.967825 -3.10358 3.89435 -0.0301111 -0.998434 -1.67367 -4.8451 -6.44822 1.00916 2.44209 -1.81901 -5.25356 -3.10234 -3.14575 -2.71955 1.93531 -4.55558 -6.9908 -3.34368 -6.55555 -2.40206 2.79499 -1.44554 4.24381 6.81985 4.49979 2.59122 -2.95237 2.4393 -4.13887 -6.75876 -0.280539 -6.68491 5.06622 -4.6796 -1.26302 6.36047 1.37886 -3.76921 -3.33597 -0.496785 5.18021 -4.18677 6.41361 3.15385 -1.77205 -6.30526 4.54229 5.00792 -1.61971 -5.53752 -1.67824 6.23882 -0.144002 -1.94966 -3.75314 -0.382207 -5.22994 5.21567 5.9269 -4.41451 4.78677 4.35291 -4.67943 -1.68926 -5.27052 -4.78853 -1.29734 -3.25536 -4.54927 5.18936 -6.15696 -3.54369 4.17455 3.3244 0.905441 4.32988 -2.65511 6.51331 5.21229 -5.82451 -0.997837 -1.20562 5.7644 -4.5239 2.57827 -2.72684 -2.99438 -4.50305 -0.992429 -0.990886 -6.13677 -1.73201 -3.89879 -2.18275 -5.26949 4.60732 -0.830015 -5.95592 2.20956 5.591 -6.57538 -6.83275 1.16049 6.29993 6.37561 -2.43367 6.5588 -6.5633 -3.30722 0.968023 5.35827 3.31375 5.82848 -4.47828 2.09477 -6.36529 5.89825 -1.116 -6.38289 5.30789 2.71572 3.7293 -6.29352 1.94541 -2.25087 -4.51084 0.72366 6.80084 1.71637 -2.6945 -6.41033 6.16946 -5.86172 5.32091 -6.45611 6.85516 3.45759 -0.655338 -3.85012 6.57984 4.01834 3.88137 3.35549 -5.54021 1.58067 2.2961 0.476739 5.41799 -4.91412 -3.13759 -2.54684 6.68041 -2.39428 0.626977 -5.32001 -1.53933 6.72847 3.09313 6.51661 2.97462 3.76617 -6.56575 -1.01919 -0.159454 -1.44531 4.55163 -5.45111 -2.00714 -5.40515 -6.02617 4.24128 -3.34846 -3.23779 -4.94823 4.66826 2.80822 3.75728 0.906106 -3.6234 4.65142 -4.7194 1.60874 2.84016 5.75613 -1.97551 -4.08493 5.96581 -6.16871 -5.50585 2.64012 0.00592638 -5.81405 1.75143 -2.31057 -3.87425 2.34378 3.54517 4.16818 0.423275 -5.08547 -6.03156 -2.01258 0.0243129 -5.68954 1.10597 0.893378 -0.937988 -4.70357 1.93152 -3.64144 0.0709504 -6.94448 -3.98682 2.38682 6.32395 -1.15004 -3.12405 0.930663 -6.95806 -4.97422 -1.54735 1.28188 -6.09223 6.83104 3.00493 2.76771 1.74688 1.30984 -0.020921 -3.39595 4.27518 3.65893 -0.929433 -3.42414 0.345449 0.811889 -4.67942 3.45233 -2.28941 1.41358 1.42127 -1.9197 3.78689 -5.51103 0.469588 0.0114846 3.3046 1.51086 5.11917 -0.204687 3.87374 1.84167 1.6519 -0.332387 1.00786 2.44324 -1.67163 6.65679 2.98631 5.31238 -6.22894 6.29881 -6.34276 5.33841 4.75036 2.95151 -2.27131 4.86847 0.348724 4.42388 -4.5666 0.122585 -1.69959 -4.62288 5.80146 -1.29397 5.57113 -2.5459 6.20492 -6.79995 -2.06202 -2.3519 -5.62004 -2.75655 0.313272 6.06611 1.52219 2.42252 -1.41939 6.1077 3.84566 5.14235 -5.24337 4.38977 -5.50138 -3.52383 2.0767 -1.52983 -2.1845 -3.99951 1.58635 -1.65404 4.80518 -6.54753 4.37404 1.39707 0.605849 2.66204 -1.18665 -0.917147 6.195 5.41372 -5.16056 6.1765 4.32553 6.83721 2.42301 5.85848 -4.64096 -2.20463 5.50596 0.838484 2.52935 -2.31412 3.80257 0.346417 1.98257 -0.792895 6.99503 -2.34593 4.38107 -3.47715 -5.58251 3.53039 -5.57807 -6.70542 -2.38337 2.87595 -3.53972 -3.91716 4.94555 0.217299 -6.00581 -3.31366 -6.91564 3.14674 0.400239 -1.70328 2.40194 -4.97964 4.40963 -2.11401 5.02284 6.05287 3.18798 -6.57706 6.55293 4.58133 4.45185 0.754721 0.085876 -2.77821 4.31568 1.07311 4.11073 -1.5515 1.34124 3.987 -5.88066 5.08414 0.507709 -1.54683 4.89196 -2.71407 4.31331 0.452312 4.41617 -2.38163 4.84049 6.07134 -5.02934 -4.61769 4.02331 -2.24127 5.03474 -2.62671 3.94752 2.81027 -5.84631 -3.69885 -0.507143 6.33176 -5.96248 -0.367781 0.54115 0.539263 6.20177 0.906099 -0.700558 -5.40278 0.33367 5.28177 -1.55523 -5.80378 -6.68258 -5.02251 2.02372 3.10426 -4.94439 -4.92366 1.70751 6.57789 -0.850497 6.59607 4.2011 -0.605483 -4.29341 1.2193 -2.3723 -5.58828 4.80974 2.30151 -2.48791 3.06314 4.11592 -0.120198 -6.82616 -6.16199 -1.3661 1.79559 5.21731 -2.24875 -6.42587 3.45214 4.30172 -3.85086 1.23404 -0.482156 -1.78655 0.379363 5.90161 0.840221 3.0847 2.69105 6.72232 2.81949 -2.37214 6.03056 1.66046 3.05376 -4.08675 4.09813 3.57253 -0.946702 -3.39411 5.66256 0.0261818 5.47409 5.78915 4.42312 -4.84782 -2.07747 3.1869 -3.47978 -6.17661 -6.96942 3.29667 6.47502 -2.87805 -1.21522 -0.0465638 -5.01657 -2.18785 6.49096 -0.400554 -4.40532 5.88605 -2.41516 1.89223 -2.42086 6.08878 -5.64118 0.220001 1.00295 1.62485 -0.439272 6.7624 3.83767 -3.56653 -6.51921 -1.21922 1.9133 5.51738 6.64624 -1.87711 -2.25634 -6.08323 -2.13567 -5.21382 -6.39832 -1.99193 -3.33047 3.9043 -3.83199 -1.23875 0.965393 -0.115032 -6.09513 -2.63894 4.79091 6.52485 2.22731 -4.92394 0.152588 -0.832394 -4.2826 3.67031 5.12273 -2.87466 6.70716 5.03866 4.45616 0.589804 0.247181 2.34177 -0.865301 1.44519 6.88379 4.85955 0.0916599 -2.69113 -4.22359 3.63423 4.82576 -3.40082 0.895933 2.42705 4.07538 -0.139382 -3.34335 -5.34573 -1.53235 5.11978 0.183099 -1.23289 4.33259 1.17046 -1.62132 -4.70967 -0.298527 5.48516 1.39092 4.63591 -5.22978 -4.02911 -5.7467 4.53665 5.95815 2.10519 -2.18732 4.54401 -4.46717 -3.96152 -4.11803 -4.58619 3.64543 -0.815076 1.25444 0.92672 -2.35133 1.41899 -5.33014 -6.79259 -6.12759 5.96747 2.17446 -4.58194 5.09594 2.9573 1.75707 2.25218 -0.778045 -1.50622 1.96859 -0.286603 -0.438068 -5.11734 2.74125 0.504898 -6.94229 0.924605 4.08355 -2.90292 -0.71128 5.52778 3.25704 -2.64908 0.366518 -0.193336 -6.16624 -6.7222 -1.08292 3.05574 4.82896 -2.37432 5.85462 -2.98717 3.80035 0.414169 -2.38825 -2.04248 6.13433 -3.05214 -5.09636 -1.53359 5.31591 -3.1016 -2.64383 -3.59692 -3.45216 -6.68863 0.218589 -6.70864 5.64188 -3.73809 -3.10018 -3.78006 4.7045 1.95772 5.11828 1.60132 -0.913984 -4.33076 4.72414 4.27386 5.5206 2.20332 -5.65863 -5.53208 0.298176 1.62664 6.35749 -6.38624 -1.04129 3.72276 -2.62131 3.71169 3.57466 5.83159 6.57333 -0.891615 2.40432 2.31864 -6.6887 6.86693 -5.23382 -6.86269 -4.86592 4.19976 5.77408 4.80393 -4.959 -0.313262 -1.20237 0.775572 -5.79694 -4.84243 4.94274 3.87238 -0.487861 6.79671 -0.708808 4.79961 -5.13966 0.0708189 -0.438071 -0.577287 -4.28227 -4.87938 4.23709 -3.30526 0.0337382 6.39101 -6.18469 -1.33328 -3.55333 6.79544 2.34582 -4.80042 -1.53769 2.60536 -0.853751 1.34637 2.59294 -4.20625 -0.591511 -2.88546 -5.48166 -1.92836 3.09133 3.63217 5.52089 -2.92909 2.37566 -5.40881 -0.116524 -6.37855 -2.78642 5.72059 6.40131 -1.06219 -5.92291 5.63991 -4.74209 3.69573 5.26372 -2.50433 3.73268 -3.52703 3.23496 0.554437 -6.79355 -6.77897 -1.99262 -5.92609 -4.14049 4.96002 3.48912 0.991106 5.94959 0.0603146 1.78489 -1.88174 -2.1498 5.49591 -0.0996068 3.75427 5.98171 -3.27849 2.42586 -0.508399 5.77608 2.72103 4.90573 0.265789 4.81184 -6.4477 4.23287 -4.39774 -4.26739 1.45833 4.71263 -4.87102 -6.48409 6.68894 5.40211 -0.401269 -3.21439 -1.34209 2.42421 -6.09398 -0.669279 2.07571 -1.84546 3.6908 -1.06584 -5.68529 -4.24435 3.47018 0.912182 -0.214645 6.33479 -0.246807 -5.22933 2.44548 0.381354 -2.31311 4.42388 -5.84437 -4.862 0.93963 -4.98059 -0.691304 2.42174 -2.77787 -3.07402 3.94355 -4.98076 2.00609 -1.36019 -5.23069 -1.47164 5.87864 4.31619 1.57482 2.18725 -0.50923 6.66462 3.79496 3.84267 -2.21293 -6.44401 6.22409 -3.04153 -0.286926 -6.28289 3.1806 3.41255 -4.41261 -3.20309 -4.30187 3.63536 -1.57891 2.34183 -3.87678 3.06585 -6.28414 2.83577 5.66268 -1.6489 -2.27843 -6.81812 -4.34519 -2.95248 4.95889 -3.58462 -2.75117 -6.55553 -5.57263 -6.8389 3.86566 -0.931584 -3.1708 -2.95068 3.61984 -4.39851 1.47528 5.0989 4.22787 6.80551 0.055949 -1.93412 -5.04364 -4.40234 -3.24996 0.248529 -4.33892 -3.7563 -6.4546 5.23277 3.19015 0.145396 -3.45054 2.43435 -2.66727 -3.41363 -3.30644 -3.44057 -5.30983 3.98674 -4.13663 3.41373 -6.22645 -5.66449 -1.52492 2.07136 2.82673 4.61689 -4.64165 0.40721 1.80773 -4.99292 4.35941 -2.04779 -0.904075 -2.95001 -0.75381 -6.33846 -2.56495 0.552596 -2.52818 4.83301 -3.52515 -4.32555 -6.70883 -2.2588 2.31299 -6.53362 1.27187 -0.0250615 6.86566 -4.00801 -1.36104 -0.335794 -1.22318 -5.00633 0.709358 4.23131 -6.15619 -6.65184 -1.06078 -3.99921 2.23801 3.34502 6.07826 -6.26989 -3.2048 4.65089 6.03425 2.09614 -2.47262 1.10762 3.10044 -0.162548 -5.73043 -6.59919 -1.83384 0.794702 -5.06687 -6.65416 4.51495 -3.55186 1.31225 3.76202 1.87592 -6.13472 -3.67654 -3.18978 -5.58874 4.22346 0.624553 6.90689 -6.19925 1.03602 -1.05385 -4.0127 -1.05753 -6.71946 0.164763 6.40937 3.99197 2.74994 -2.26789 1.70633 -2.88486 -5.8513 0.408728 -3.24085 -2.56222 -2.99972 2.80814 1.68908 2.31471 5.09635 -3.35947 -0.264536 -3.51907 0.623322 5.20647 -3.82822 4.39218 -0.904153 3.7743 6.25609 -6.47073 -0.0215635 -3.04976 5.87335 -2.96528 3.34865 5.46737 1.86645 -1.71406 4.12567 4.49765 -4.82998 5.38 0.125961 2.87119 -5.20978 3.4417 1.85844 -4.25195 2.95271 1.27019 0.236559 3.76147 0.927703 6.45978 4.79607 4.51771 1.27091 6.04414 -3.30285 -0.513101 -2.75574 3.89169 2.06565 -0.886558 4.60811 -4.34475 -5.22847 5.97147 -3.25753 5.03328 -0.825055 -0.436428 3.77512 -2.36945 5.86698 -1.8696 -3.19151 1.09832 4.47 1.54007 -3.55482 -0.278535 6.01889 -1.49092 -2.61232 2.00807 -3.45691 -0.45806 -6.53188 -2.80715 -4.23858 6.33696 1.74695 1.42011 4.4477 0.483112 -6.74371 -4.0349 -2.50532 -2.31713 2.59048 -2.75401 -2.24524 4.24872 -2.60522 -4.03289 -4.85296 2.16566 -6.35921 4.66511 4.07089 1.46739 5.7043 6.01324 3.84955 -6.96636 4.09388 -6.27457 -6.88772 1.84912 2.81789 -0.932292 4.21448 1.93197 1.47508 -2.14053 4.88384 -3.97701 -2.97816 -3.68557 -2.58195 6.709 4.51614 4.97563 1.79194 -6.43467 -2.49703 -1.58849 3.38689 -5.43781 6.36517 -4.08464 1.00555 2.16471 6.82619 3.84183 0.197155 -0.767842 -6.89993 2.44898 -6.20828 -6.81569 5.5021 -1.1724 -3.25154 0.132049 4.79817 -3.24259 -3.45867 -5.0062 -4.1751 -5.85514 0.863828 3.72148 -2.79988 6.32299 6.95315 0.149276 3.10277 4.32594 -1.9734 -0.81186 4.27065 -5.14738 -5.71831 6.50421 -1.99189 6.59101 3.64657 4.16832 4.12228 -2.60266 -1.17372 -6.78285 1.40965 -0.832605 4.92696 5.39354 2.37843 3.86428 -1.64786 -5.43779 -3.5597 6.64055 -3.57857 6.27896 -5.12324 2.17454 -1.62254 3.67643 -6.03912 0.341498 4.63378 6.5458 -1.70099 6.0169 -4.90423 6.12408 -6.67793 3.41955 -2.56378 2.0916 3.28393 -2.51365 -2.15969 -5.19547 -6.86753 -5.7202 -0.400413 -3.12459 2.27684 4.24311 0.140143 3.20667 5.41595 -6.0456 4.45393 -3.23443 -1.89074 6.4293 -1.77352 -6.99331 -6.11283 3.35362 6.2974 -3.99461 5.23055 0.0129693 6.42172 0.59054 -2.32779 -0.38608 -1.17082 -3.58068 2.86669 1.76083 3.27154 4.06987 -2.74471 -6.27736 -0.590994 2.65218 3.3396 6.20106 -5.52263 0.0482075 -0.597923 -6.60345 0.539575 3.39345 -6.18477 -5.69803 3.7135 -0.842466 -1.81063 -6.84822 -4.59709 2.63068 5.1969 1.17944 6.74256 -0.530798 2.57615 -6.33026 -4.80947 3.34845 5.60542 -2.41368 0.682591 -0.915439 -2.55049 -1.73591 -2.54235 -2.182 -3.23633 2.03661 4.97546 -4.38434 4.04529 -1.98893 -5.10453 -5.45649 6.92154 1.35499 -1.17727 -5.53815 2.71821 -3.18427 -3.745 -6.92623 5.52414 -0.404966 -3.76615 -2.96575 3.61474 -5.01322 1.4055 -6.81465 5.80685 5.74487 -0.508971 -5.38773 -6.99265 -1.83256 -6.78477 4.08335 3.67414 -3.73155 3.19141 1.73228 -2.08933 5.81194 -2.85366 1.49306 1.63885 0.332306 1.15728 5.29841 -5.14336 -6.05595 -1.10766 -1.92827 -5.39561 -5.63543 0.148857 0.813124 -3.07748 2.60039 -5.53695 -2.85754 3.08608 -6.92871 -1.37746 1.09742 6.81699 -6.73651 -6.33691 -4.52211 -6.68465 0.167761 -3.84286 4.8973 -6.10382 -5.99695 6.9396 -0.154404 -4.76666 -3.61519 -0.262297 1.91562 -4.34569 -3.62784 3.10805 0.873159 5.24901 -5.95353 3.95801 -6.55158 6.80852 3.14263 0.111467 -4.33102 2.55019 4.35806 -3.33287 -4.42565 -0.483427 -6.78199 -4.59017 -5.13211 0.135035 -2.74534 -4.41337 6.39993 -0.995725 -5.36747 -4.55925 3.16062 -1.18477 -2.51295 5.64794 -5.60829 -1.45258 0.729118 -0.270789 3.9425 -6.52501 -5.62664 0.815994 6.35065 -5.4477 -6.07237 6.98367 -1.92605 2.57118 4.74556 4.38799 3.73973 -5.51888 1.70455 -4.92375 6.65826 -4.43173 2.77491 -0.0659822 -4.30671 1.37066 1.45514 5.80735 -6.22191 4.94474 -0.404247 -5.27834 4.22913 5.77338 0.564141 1.16677 -6.614 0.376737 5.18646 6.29144 0.000640906 -5.42025 4.35073 -5.10386 -1.5854 -4.6963 -3.11438 -1.05671 3.62096 -5.06805 4.76882 -0.39035 0.14077 -3.97925 -3.17263 3.99692 6.6239 5.47073 -2.31477 2.7021 -6.62232 -0.650433 1.28668 -4.22549 4.47144 -0.979223 -6.94308 2.32806 -2.24844 6.59751 1.2686 -0.309855 -3.76382 0.209522 2.87923 -4.38656 -2.49794 -5.0033 1.89762 -4.46451 -1.83879 -5.31706 -0.214394 -3.29684 2.11548 -6.59668 -3.08742 0.442701 -4.10929 6.96799 4.55676 0.552436 0.580796 0.604867 0.698176 5.60512 1.24133 5.41442 -0.81328 -0.0960259 -4.38575 -5.05396 1.79874 -2.41921 3.68656 6.57578 -5.09551 -2.1855 -6.37364 1.52051 -5.28557 4.94517 -1.47547 3.39838 -5.95473 6.26234 6.86284 -0.558322 -2.56326 3.02572 4.67507 5.86132 -3.55425 4.5273 6.91577 -6.05089 4.10633 -3.18428 2.82815 -2.86215 -4.65531 5.97879 -5.88547 -5.41697 1.02276 -6.57679 3.41159 -5.89164 4.23355 -2.07247 2.97567 -3.06333 -5.62893 -0.318509 5.93993 5.97041 5.65025 6.86574 5.75338 6.76679 0.407872 -2.61414 -5.07909 4.40114 -4.8386 6.45076 -1.22301 -6.86968 1.08547 0.0184732 5.84831 -3.51431 4.28029 -5.48061 3.07939 4.44778 -3.56468 -5.37194 5.23786 -4.65002 -1.56786 6.19944 -3.33728 -0.518145 -1.68856 -5.46194 -0.333583 -2.40605 6.65116 6.58657 3.63756 5.65135 1.69749 -3.73444 -5.47057 -5.99724 -6.23316 2.03133 1.24215 2.92128 2.37631 -2.23345 -1.69564 -3.86002 3.03678 6.29698 -2.93267 -2.22151 -4.42038 4.79593 -2.55075 1.18071 4.0492 -6.30556 -5.12556 1.12788 -5.94157 -2.05888 -1.0931 1.2848 3.8806 -6.37341 4.3762 0.14891 -0.971821 -2.72522 2.01493 2.37422 -5.32777 -3.10054 -6.56304 -2.43368 -2.17974 0.288376 0.639273 4.06049 1.57065 -4.73156 4.5945 4.31093 -3.55351 1.03011 1.66584 -4.64062 3.77794 -2.49171 1.14435 0.949217 -0.453992 -5.70826 1.16659 1.98412 4.26895 6.09481 -5.6922 6.23948 5.45239 -6.78771 6.08146 -3.45845 1.50634 -2.25803 4.61424 -3.82776 -0.371589 3.16475 4.5627 3.12958 3.55866 -5.18046 -1.09759 -2.14085 1.04763 0.11784 -2.10948 2.20001 -0.759685 4.32349 0.511728 -0.111472 -0.68719 4.65115 -1.27012 -6.89105 -2.11131 -4.95412 6.93785 5.94637 -0.480757 0.668509 6.92394 3.79165 4.25088 6.94909 5.80162 -2.3041 -2.54663 -2.31736 -6.40268 -1.11947 1.24844 6.93279 -6.65019 -0.411379 -6.99537 4.49708 2.27934 5.03587 5.67047 4.68479 6.1905 -1.41286 3.53672 -6.82226 -5.02801 5.12788 2.41605 4.59372 1.53872 6.41233 -3.72219 -5.29222 4.72019 5.30335 -2.3263 -4.51275 -1.56631 -1.45333 -0.929722 -5.12853 -5.25362 -3.31068 -6.83331 0.744643 2.02378 -6.66359 2.55367 3.26944 4.7014 0.83708 -5.24725 -6.01944 3.32257 0.988338 1.87658 3.25126 -1.85876 4.91688 0.310601 1.03843 6.40302 -4.83609 2.64677 -4.4184 -5.06815 -0.908248 1.15454 -6.41723 -1.85733 3.06582 2.42513 -0.677333 4.37179 -1.94497 1.62011 1.75963 3.27552 -3.8236 -3.3905 4.76954 -3.02456 5.80326 -2.81348 3.54125 0.177787 -4.38754 -1.51957 -1.4801 6.74168 6.54591 5.99359 4.66895 0.399287 3.02963 5.3652 -3.20758 3.79935 5.08878 -5.77792 5.32888 -6.3698 3.81418 3.72354 -4.49804 -4.48302 -1.25248 1.05843 4.15573 5.1336 -0.231751 -1.69682 -4.3317 -3.08852 5.7807 5.51492 3.35058 -5.44207 -6.81971 0.0357835 -0.90719 -4.11616 1.20798 2.54016 -3.76028 -0.399136 -4.43611 -5.93072 -0.935436 -6.32761 -3.40247 -4.50722 3.72007 -6.9591 -2.00056 -4.05591 -0.0476395 4.90078 -4.42725 -6.39377 1.92365 0.364485 -3.00215 -5.0193 -4.89995 0.781235 -4.31091 -0.825845 -4.04449 2.06601 -6.92927 -2.3675 -4.95468 -5.66689 -5.23774 -0.559849 5.0555 3.55711 -0.469709 1.24145 4.44953 6.40403 4.78445 4.30292 -2.53292 3.99774 1.35726 -5.1806 -3.0802 3.02763 -1.01071 -6.63312 -1.28784 4.44784 -1.66463 -6.57382 -2.51623 -4.16591 3.46005 3.06212 -6.98608 4.31592 3.17606 1.15751 -1.53021 2.55232 -5.91652 5.96733 -0.85914 -4.69103 -0.218159 -3.86195 6.40867 1.9046 4.02399 -4.05473 -4.65249 -5.94948 -3.73351 1.23754 -5.37776 -1.86988 2.91313 -1.53466 1.45856 2.47703 1.30054 6.06027 0.809051 -6.87929 2.52606 1.11646 5.82844 4.21021 -6.5277 2.1171 2.04094 2.23482 -3.87911 1.05208 4.71231 -2.18542 0.663753 6.63898 4.2127 6.45842 2.93181 -5.41826 3.24362 -6.73126 3.87104 6.18698 5.91999 -5.35167 0.618441 5.15962 -5.10206 -6.6676 -3.65869 -3.26376 4.4132 -2.16806 2.86137 5.0983 2.33895 2.72549 0.191023 -2.0091 3.61991 -1.98853 0.116564 2.52999 2.0938 2.72084 -6.56657 5.31296 -6.1771 -1.17847 1.39945 0.994574 2.89847 -2.34431 4.201 3.09097 -1.58721 -6.59594 -2.37171 -3.91375 0.113722 0.421918 -1.4711 3.78386 4.04629 -3.8653 -2.67124 3.35213 -2.19603 1.01541 -2.59542 4.68962 -1.5579 2.94257 5.71032 1.52472 3.68807 2.52969 6.27749 -3.61492 4.95855 0.00343593 4.34237 2.32177 -6.43229 4.73286 -0.0653076 -3.02856 -2.62938 -5.81014 -6.77842 2.06429 -1.46489 6.50664 0.776829 -0.766013 0.616594 -0.512008 -1.43291 0.845517 2.2708 -5.02476 -0.10418 -0.34684 -3.09245 3.44285 0.607148 4.04261 3.55903 2.25881 -6.94985 2.36371 2.16241 -2.86158 2.50618 0.120646 -5.93253 6.88191 -5.98865 -6.64077 1.92295 6.25732 -1.9276 -5.54619 -2.71499 -2.87148 -0.915869 -4.07562 2.72684 2.70083 5.6433 -6.8174 1.72507 5.59065 1.22225 -1.85461 5.3532 -5.13411 -0.669248 6.69888 -2.58727 2.6983 3.82442 -1.57799 -1.19495 -1.20194 -0.0237168 -3.99583 3.48881 -4.23342 6.8327 3.29986 3.43898 -5.45356 6.3616 -6.15402 0.862249 -4.61059 -6.25261 6.0187 3.37852 6.14082 -5.54793 1.82335 -0.650444 -1.47558 -6.45067 -2.68692 0.246793 -2.09749 -2.73937 6.21551 3.04042 5.92714 2.2412 -3.68828 1.75023 5.383 1.69649 5.97297 -3.51641 6.86853 2.07771 -0.906661 5.28727 1.96793 6.38117 0.0608595 -4.81582 0.641599 -6.41089 2.52706 -2.85382 -1.00261 4.46394 3.52301 4.91061 5.17355 -2.14556 -2.76517 6.36388 -1.49981 -0.986502 5.73157 -0.0125774 -1.90615 5.26612 3.10398 0.575614 6.19957 1.90082 6.98079 5.71112 1.64195 6.6025 -2.83345 5.28117 1.93068 -1.63499 -4.43489 3.76742 -6.12578 -4.58675 5.75183 3.92387 4.14516 3.38074 3.76545 6.36262 -6.80824 -5.47683 2.77392 2.3712 -6.60889 -1.72742 -4.37477 -6.19681 2.89711 -5.45128 6.42828 0.480853 -6.60043 -4.91461 -6.07279 3.31065 -3.77826 6.36425 0.899034 3.24959 -2.91884 0.0219903 3.30757 1.62574 2.01233 2.92185 1.62654 -6.01575 4.11763 5.60057 -0.0791993 -2.02177 0.163388 6.40551 6.56021 5.70071 -5.95475 4.59482 -6.92339 -0.162621 -6.11708 4.16992 -4.352 2.27136 -1.77153 1.7936 -5.44014 -1.6984 6.45624 -0.110388 0.472299 4.83609 -1.95336 -3.76712 0.45707 -6.45816 -0.844212 2.36834 -3.57465 -3.22503 5.26264 4.34065 -1.67115 2.23065 3.15461 -0.623742 -1.81012 -1.48872 2.64532 -4.27837 -1.08843 -4.25382 0.697416 -6.07531 0.921059 -2.1394 -4.08398 3.93169 3.48327 5.01207 -0.905455 5.35733 -0.346503 4.82248 4.84291 -5.39313 0.700952 6.17534 2.95739 6.08552 6.9512 -4.43613 1.77865 -2.62947 3.40849 0.247259 0.570237 -0.746132 -4.393 -1.61971 -2.52995 4.01873 0.531577 -1.06119 2.99505 -3.05677 1.15977 -5.09485 5.49812 -3.76932 3.42943 -2.22718 0.0277086 1.24134 3.42292 -3.06584 5.1758 -3.40716 -2.92627 0.0159217 -4.98393 -2.75834 4.82578 -1.9677 3.64491 -6.878 6.37026 -3.0571 -5.95751 -3.24769 2.5036 -1.52743 -1.08504 -0.117626 4.15122 5.2568 4.95512 5.61628 6.11395 5.28393 -5.23923 1.73468 -5.32431 5.30416 -0.070517 6.177 -2.88437 -3.82092 6.59912 6.09691 -6.00072 -1.05887 -5.07759 6.8784 -0.312418 2.20899 2.28325 -2.31257 -3.17213 3.63836 -1.35829 -0.137833 -1.47581 0.81953 -3.12805 -3.71532 2.04741 3.98962 -0.596787 1.16358 2.85728 4.79789 -5.01281 6.94932 -1.7504 -4.99448 -6.5738 3.2827 -6.40714 1.21415 6.91237 -3.34561 2.59103 6.29156 -4.24679 3.00196 -3.08366 2.51756 2.42976 -4.9059 3.40452 0.613747 -3.97528 0.398526 -3.20719 -1.58254 -2.73689 3.95918 -3.64402 -2.74786 -0.12826 3.44722 0.429519 2.41053 -6.2708 0.653627 6.49308 -0.055839 -3.47973 3.57503 4.51622 -0.187167 -2.43826 1.64856 2.70663 -2.41921 -0.626718 -1.25385 -2.56033 5.76239 -2.36419 0.195881 0.64556 1.93504 -1.61501 1.93462 -6.20222 -5.83561 2.83761 -1.69158 -4.99617 -5.81936 3.74874 -6.84297 2.72258 5.14338 -4.60208 5.32242 -3.28213 -3.95921 -2.33766 -3.42468 4.83251 -5.5301 1.25553 5.61106 -0.318317 -1.55008 -5.59668 -4.30205 -6.15714 -6.89828 1.66899 -0.310586 5.23848 -5.1769 -1.87041 -0.525776 0.337022 5.47975 -0.992613 -0.196726 0.704341 -0.282093 -3.64234 5.57402 3.85915 -1.54446 -4.7319 -5.10595 6.32223 2.52222 0.238636 1.81205 -0.709098 -2.71321 6.20499 1.71498 -0.437268 2.25799 -3.30387 0.429065 -6.70001 -5.17593 1.98634 4.37043 4.55872 4.39993 6.81885 0.354439 5.91917 -0.777941 1.4266 2.4703 -1.4345 -3.5318 -6.91183 -1.73648 3.35313 4.68153 -1.78833 -6.40768 5.28753 6.38969 3.2856 -5.65665 0.578594 -4.52932 -6.35562 3.67816 -1.29944 -3.2799 5.98789 5.21545 2.15245 2.72654 4.15145 -1.68919 -6.27276 6.71042 -4.27469 -5.47458 -1.08662 -3.26779 5.90482 3.92302 -6.81671 -4.7364 -3.34789 -1.57921 5.34253 1.28581 -0.327315 0.939593 -3.30013 -6.27426 6.42038 -6.28274 -4.83485 4.41659 -3.20328 -1.87207 0.830106 -0.625167 -1.38564 -0.430833 2.06695 -4.41161 -6.73608 -1.44583 3.92292 -3.89662 4.76172 1.96922 2.13584 0.28846 -2.81011 2.85698 -1.83889 1.89938 -2.61937 -5.59634 -4.80353 -3.05538 -2.94864 -4.4186 1.14824 4.88814 6.76213 -3.96086 -2.31604 3.04736 -5.71127 4.13394 2.82464 5.42904 -4.74756 5.38433 -3.63984 -1.10476 1.94096 -6.30448 -5.40125 -0.519771 3.58252 -1.07969 -2.26614 -4.51353 5.06086 3.70276 -4.64938 -1.16729 5.96578 5.62037 0.803466 1.39725 1.23614 -4.56573 3.03638 -2.80137 -3.35511 -6.38336 -3.19471 6.55382 0.89718 -1.16943 -0.982698 -1.36302 0.713526 5.51305 0.543598 -5.74003 -3.31551 0.0991924 3.3898 -1.07126 -0.654766 -6.31807 -1.07053 0.336032 -2.66746 0.168524 -3.57411 -6.90286 5.72556 -4.03846 -0.493081 -3.85234 -5.89149 -0.914682 -5.98833 3.3571 6.53803 -4.80296 -4.90051 1.44373 2.94615 3.53468 0.358936 -0.402977 -1.76316 -4.56779 -1.00674 -4.01446 -0.660516 1.7534 -6.90623 -5.51787 2.48166 -0.530134 -2.95157 -3.84625 1.12345 4.40661 4.69807 4.20337 -0.723474 1.56487 0.984129 0.252401 5.01956 -1.67063 2.73794 3.81456 1.4589 -4.29491 -1.88824 -2.90433 -6.81186 -4.4119 -2.44875 -5.63531 -6.70495 6.01345 -0.953296 -3.14525 -6.1709 6.50351 -3.09043 4.737 -4.29465 -5.98192 5.32886 -6.62714 5.30108 6.66755 0.391896 -0.184104 -2.97222 -3.12216 1.06658 -2.57568 4.09719 6.38879 2.51604 1.42272 -0.0682379 -2.14255 4.79432 -0.0910737 -4.92032 1.12199 -2.62066 -1.9553 1.19836 6.24335 4.37297 4.5975 -3.82139 -4.03342 -0.936174 -3.95088 -2.58 -3.37844 -6.13383 -4.35455 -5.98227 3.83667 5.48398 6.10421 6.59404 4.62603 -3.45031 -5.25721 -5.94505 2.80542 1.26427 1.77276 -2.38365 -1.90171 -0.0558692 -2.08212 -3.41356 -5.46136 6.79829 1.25296 -1.24598 6.93388 5.8186 6.21261 -3.79944 -0.51261 5.34618 -4.06523 -5.8969 -4.98804 -5.40721 -2.78568 0.916226 -6.62495 0.245102 -6.2195 2.50458 -4.19026 4.62961 3.72435 -3.08499 -3.85765 -1.74392 -6.11589 -3.51422 -6.46913 -5.08618 2.87348 2.45349 -5.70703 2.2429 2.76591 -5.64683 5.31322 -0.260831 1.88357 -5.7046 -5.4871 3.79899 1.52189 1.07801 -0.343054 6.15018 6.15315 -4.87525 -2.31468 -4.40753 -2.33737 1.73741 1.71154 -5.55585 -4.03837 -0.0678839 -5.26206 6.74733 -2.33044 0.234369 2.17173 -0.267467 1.6881 5.84256 -6.20381 6.42032 4.67318 6.32806 1.46451 -4.12167 -2.81723 3.47673 3.04826 -5.00267 -3.88211 -5.11337 4.68574 1.88296 -4.26727 4.03965 -4.42261 2.80343 -5.75673 -3.0223 -6.13834 4.06772 -2.16784 6.1648 -0.772319 0.845775 -1.42913 0.697968 2.11709 -3.66646 -6.12729 -2.87287 -4.88736 2.31951 -5.03197 -4.60918 3.86552 -6.73635 2.29331 -3.24735 -5.73379 -6.71327 -5.56601 -6.06346 -4.71927 -5.18765 -4.08665 1.39986 3.89126 4.14607 -1.19432 4.67089 5.20407 3.39011 0.110849 -4.07562 1.89417 -3.4523 6.23663 1.5563 -4.82498 0.178518 -4.27094 -3.28447 2.66881 -6.41321 3.76639 -4.61546 -2.61498 3.28074 0.37273 2.08384 -4.93251 -6.95827 2.24376 3.98833 4.32884 -3.18408 2.75995 -5.56197 -2.39324 -5.57584 3.42018 4.69271 2.61372 -5.1728 6.19901 -5.42127 -1.88277 1.84868 1.69491 -6.13256 2.69834 -6.43099 -1.59226 -4.53549 -2.13781 -3.1415 2.33991 3.08077 -5.7298 2.92888 -4.57234 -6.69178 -4.81564 -6.07904 5.75458 4.79805 -5.59902 3.16577 -3.4132 -2.32556 -1.02383 -0.680426 1.52507 -3.00325 -2.73238 2.3014 4.33819 -4.72497 4.36953 6.08074 -6.28876 -3.98403 0.918917 3.69174 -3.70332 5.64847 -0.866542 -6.24073 5.36539 -0.52307 -3.44818 -5.42696 0.520653 2.29341 -2.9374 2.4343 -2.90604 -4.49541 4.68406 -6.00015 -3.40461 -6.96177 -2.17606 -6.00354 -1.5492 4.92692 2.51223 3.17771 1.04193 3.38466 0.0409544 -2.0597 -0.137177 0.77814 -5.05638 -1.36051 3.96652 -2.55111 -0.923127 0.253211 -4.67971 -1.92834 -0.938343 -2.71866 5.01925 -4.61235 1.45028 5.31927 -3.79408 -1.14673 -2.45293 -3.65532 3.09266 -4.42765 -3.19271 6.94915 1.25096 -3.8578 2.72218 5.97945 4.90816 -5.18112 -1.45518 2.62912 6.22187 -3.4614 2.30716 6.28908 -6.06927 1.52471 5.27097 6.41271 -0.857598 -1.83909 -0.898887 5.87932 -0.209858 6.87777 -6.54482 -6.62095 -6.29153 -6.42114 -2.10244 -6.86949 5.61481 -4.23093 5.44472 4.7297 4.12824 -2.73222 3.20139 6.40188 2.26895 1.60369 -3.81007 -2.3626 2.09324 -6.70931 0.731567 -3.32995 -3.76026 -3.07183 3.16726 -4.79986 -2.99392 -5.70625 -3.11646 -3.48612 2.52273 -0.073578 -5.84124 -3.76339 0.0622705 4.51104 -0.991935 4.78132 -3.76497 5.07714 5.27519 3.04005 4.12285 -2.13458 2.33627 2.70028 -4.5892 2.90289 -3.63362 -4.89036 -0.365294 -6.86656 4.45058 1.78911 2.87304 6.99058 1.96559 1.64631 5.97151 -6.20061 -4.92685 -4.63954 -2.61848 0.354509 3.18595 3.68004 -0.452251 4.42538 5.27579 2.40431 -1.64637 -0.359055 2.48399 -6.17921 3.48466 -2.58501 5.75445 4.62051 -2.7364 1.49689 4.81854 -0.540785 -3.40014 -3.81414 -2.90899 6.56305 -1.09884 6.38962 0.342265 -3.23401 5.57224 -3.09024 -5.69251 4.87318 -2.9446 1.38114 5.52698 5.3678 6.17845 5.94782 -2.999 -3.48245 3.24023 -5.53528 -6.64568 5.73883 6.83733 -6.65404 6.88632 -4.76543 5.11586 3.2355 -6.18959 -2.24509 -2.93805 0.812789 -0.437271 6.43216 4.64462 3.64423 -5.91048 5.2453 5.55953 3.71276 -1.99967 3.39097 -6.33834 6.89852 2.25904 -6.24278 -1.83201 2.50494 4.67436 -4.92367 -3.94521 5.4156 -6.01386 5.74308 -2.60958 1.91826 2.6859 -6.91787 -5.46396 -0.417124 2.37782 5.4822 2.48255 -1.44401 -6.97326 -3.02063 -5.35192 -4.74496 6.92877 -3.89651 -4.12075 -3.68141 -1.30722 0.493763 6.40287 -0.761125 2.40128 -1.04572 -6.43485 -4.39492 -4.01083 6.88805 -3.49444 4.45279 6.0415 -5.78013 -2.72239 0.190959 5.72651 5.77273 -4.20379 0.912632 6.93018 4.74925 0.980969 2.35507 -3.68993 -3.80364 -3.17131 -0.245488 3.03378 5.03473 -2.65186 -6.19474 3.78598 -6.23361 0.157321 -5.71078 1.4632 -4.42768 -2.66651 1.95724 5.07125 -1.9342 3.35895 3.3944 4.35448 -3.61768 6.73998 -2.94842 6.5714 -4.02342 4.86042 4.31179 -1.53619 -4.06266 6.47563 4.04955 -0.900894 -0.176298 -0.143016 -2.82623 -4.24629 0.955515 -1.09618 -2.67281 4.89843 -0.209164 5.01629 -6.49251 -5.99882 -0.86382 -2.11579 -5.38864 -4.35279 3.11122 -6.12349 1.83892 -2.79984 -2.53246 2.09511 -5.67368 0.577275 5.02108 1.79097 -6.13765 2.33533 2.00791 4.53025 3.65138 -4.5457 -3.54311 -1.46482 -5.17726 6.2765 -0.723152 3.42431 6.83512 3.76541 -0.370697 0.845702 -1.09082 -2.99465 -5.95086 3.15777 5.91262 6.86705 -6.55896 -6.78002 0.00157838 -6.07641 -3.65723 6.75327 -2.40577 -6.4138 1.55807 -4.30943 -6.27216 -2.76446 3.04354 -2.77784 -4.36483 -3.26416 -1.86401 -3.95881 4.92833 -2.89029 -6.06171 -1.69615 1.34038 -0.668841 5.259 4.29664 1.66817 1.33774 2.18027 -5.95625 -5.36933 -2.27331 6.52501 2.96832 0.564122 1.06164 -1.46117 2.79971 -1.93485 3.03084 5.61334 2.64953 3.31182 -0.0260351 -6.79179 -0.239147 1.55655 4.22908 -0.402154 4.10836 2.42401 0.231023 2.15409 6.76808 -1.16259 -1.76991 3.44917 -6.56108 4.0408 0.512993 -2.2575 2.38417 6.2587 -6.38124 2.94631 -0.495988 -0.074846 0.740016 -3.74145 -3.41424 6.60853 -0.357265 -1.09118 -1.86955 -6.53722 -0.453578 -5.79529 4.50951 -1.70052 -4.45483 1.7842 -6.11813 -4.88222 0.205194 5.09491 6.92615 0.619903 -3.52617 -4.29877 2.48073 -6.05658 0.0460407 4.0634 1.62248 -1.02539 -2.29054 6.07932 0.00365081 5.29778 -6.80573 4.32037 1.41096 -2.41625 4.33758 -1.34861 -3.47062 -0.123427 -0.609588 -3.43234 2.0882 -6.77516 -2.34801 5.57086 3.79157 1.99412 -6.87224 1.99444 -5.86059 5.3231 -5.28022 2.93531 -0.863059 -4.19256 -0.0844628 -2.52478 -3.10974 -3.10376 4.90709 6.20521 -5.71858 -0.441215 -5.414 4.38308 5.24999 -1.49181 -0.658412 -0.49496 3.00035 1.93559 -1.25018 5.49888 0.162441 2.91696 5.99241 3.25239 0.527523 -0.0804084 -5.46642 4.1826 -1.85927 -1.59478 0.690185 1.52374 -0.753003 4.15935 -3.0941 6.5356 -6.9945 -4.638 -1.81946 3.27293 5.15064 1.63083 5.82086 5.97664 3.35898 -3.34749 5.77805 -2.55538 -3.85332 -3.03578 5.78643 6.02658 -1.43185 4.11259 -6.04948 6.41886 5.12308 -6.95133 -5.83759 -4.59361 -1.61952 -6.02974 -0.822148 -6.31049 -6.80673 -4.30754 1.4176 0.629909 1.9884 -2.0416 4.27669 -3.80427 3.00416 3.28861 -3.55002 -2.65806 -3.35143 -3.93021 5.7843 0.401079 -3.66871 -0.794953 1.75757 -3.93731 -4.17828 2.95132 6.43956 -6.18156 -1.99713 -0.366568 -6.40182 -6.07657 -3.76612 -1.53526 1.00323 0.946459 -3.74351 1.82122 -6.60973 -5.31696 -5.71513 3.72308 -4.09237 4.93143 -2.0261 -3.1052 -3.42198 -2.60173 -4.13081 -1.80477 3.8115 -0.0842078 0.907256 -5.88151 6.90169 6.84908 6.87337 -3.01613 -3.87098 -6.81625 -2.40402 -6.10578 -3.37917 -5.53062 -1.12167 -0.805744 2.27823 -0.390695 -4.30092 0.798184 -2.00151 6.14837 -1.77019 4.30197 -6.83249 6.99211 0.142678 -0.150876 4.06815 -2.43535 -5.47538 6.34584 -2.74707 -6.19524 -5.63991 -2.26959 -2.54783 -4.01175 6.01575 -2.86816 4.31552 6.2053 -6.92904 -1.29095 0.805024 -6.21675 3.99804 1.49149 4.60732 0.712206 6.24472 3.13164 -6.54139 -0.209201 -3.067 -4.19071 0.143028 -0.920489 3.05637 -4.02721 2.28139 -0.439283 6.60902 0.645563 -6.94477 -6.03075 -2.22949 2.763 1.5919 -1.10059 -2.64271 2.99402 -6.42708 6.29319 -2.79248 -2.96501 -4.59015 3.09725 -1.78224 -2.61272 3.78222 3.98034 5.0865 6.42563 3.10752 -0.48039 -4.48604 1.33258 2.37555 -2.00104 -6.74223 1.71944 1.52477 -1.88142 -0.216166 2.73375 3.00635 3.81411 0.675473 1.75822 -6.2359 -5.96375 2.299 -0.948113 -5.61944 3.11942 1.72175 -2.93137 -3.04918 1.31455 6.43303 -1.54893 5.85837 -2.48314 -2.39898 1.97355 4.13593 -5.38299 -3.39357 -3.91528 0.92362 -4.27156 3.88749 -1.50532 -4.8657 1.92074 1.12811 5.74597 -4.49734 -3.11278 1.39286 0.547616 4.97175 3.16736 1.74721 -5.59572 5.10532 -3.04959 5.17224 1.16732 3.18313 -3.30406 3.05475 -2.40385 4.35663 4.44452 -2.19495 2.35866 6.10435 6.53709 -6.50662 -2.47809 3.37434 -6.95072 -5.23488 3.57882 6.14348 -4.89072 -3.52375 -6.97159 0.0404231 -2.82593 3.53385 -0.861546 6.19883 2.99183 6.04935 -4.68576 -6.00101 -6.08372 -6.37997 -4.03633 2.46638 6.27478 -0.703263 5.04121 -5.8784 -3.87416 0.620992 -2.75539 6.82242 -3.93516 2.96357 4.39366 5.51834 0.193823 -6.58679 4.20642 -2.45509 0.140955 -3.25693 1.88625 6.26913 1.42244 2.60755 2.83315 -2.10899 5.80314 2.01444 -1.83157 5.62151 -6.86957 2.00316 6.66119 4.15524 5.99743 4.0615 -0.719123 -5.99962 -5.43917 0.884779 3.76628 -6.73546 6.14363 1.10723 -4.10597 -6.64812 -5.64953 -1.75155 -6.4837 -0.360787 -0.196365 -0.176818 -3.55532 -1.31727 1.82963 4.06668 -5.77372 -6.53872 -3.32786 4.90041 -0.888745 -5.78899 -2.40974 6.2627 2.30226 -0.391642 3.10601 -4.93686 -5.16535 -5.19794 6.99945 4.64747 3.94488 0.762779 -3.75664 0.703894 -6.92822 1.8291 0.624593 5.09613 3.94583 1.50878 -4.12828 0.694105 -3.92203 4.73747 6.21916 5.83271 0.184998 0.564637 3.60471 -2.67535 -6.78083 -0.0808969 -3.21144 -3.4779 -0.33493 0.184612 -2.59553 3.84373 0.61042 6.33726 1.15643 -4.25033 -2.38521 -3.18429 2.66188 3.25273 2.86877 -6.06451 0.302324 6.06739 -0.328592 -3.7336 5.96886 -1.98382 -2.44956 3.92305 1.51088 5.78761 -3.00612 -0.462866 5.94186 -4.40814 1.49185 -1.43613 -3.14013 4.08226 4.10314 4.2822 1.76527 -4.88806 -4.13078 6.26963 -3.58427 -3.56074 4.34089 5.13495 -6.98003 -6.56865 -1.70943 4.77292 3.64471 4.75095 -5.42655 0.428241 6.91863 2.25513 3.23341 -4.03098 3.23466 3.902 -0.327213 -1.33901 0.442159 2.38712 2.60233 0.416514 2.73515 1.25901 -3.36223 6.07467 1.64188 -6.3911 4.83436 -1.46198 -2.05967 -3.3955 5.4547 3.31243 5.43425 -6.80508 3.70727 -2.18627 2.89187 -2.48464 -6.56196 -1.3442 -5.51094 3.04741 0.553303 -0.682829 -4.73884 1.36405 -5.44665 3.69248 3.14876 6.41758 -0.255446 0.925432 -6.14651 -1.42574 2.57635 1.84166 -2.25064 6.40314 -6.50947 4.74885 5.11233 -3.71442 4.93262 -5.44091 2.06832 6.9473 -6.49359 1.00341 3.14983 0.842569 -2.13891 3.11984 -4.3074 -0.606297 5.90001 1.86648 1.26472 2.78164 4.54426 6.89464 -6.02728 -2.57558 -0.28101 4.33501 -0.267285 5.2417 -5.46294 3.98636 3.77937 1.18814 2.34248 -5.81274 -4.46087 -5.82524 2.3489 6.30965 -2.23303 2.93898 6.36285 -2.05511 -0.516977 6.96808 6.60237 -5.53713 0.596257 5.29471 -5.81602 0.423836 1.49054 6.71593 1.1698 -0.819806 -2.03502 0.994456 5.54779 -0.714188 5.92669 6.10454 5.56541 -0.163398 -2.54302 -6.7972 2.84885 -5.34847 0.0020297 0.633569 -5.24403 5.77865 3.03295 1.86552 -0.352182 3.65349 0.25654 4.41947 -1.12965 4.60729 -2.08347 1.34135 -3.87348 -4.87923 0.677726 6.95654 4.93994 -0.685969 -1.62845 -4.84758 6.23987 -1.51809 -3.77835 1.71132 4.92739 -4.01574 -0.139342 4.13647 -1.64274 -2.85891 -0.53606 -3.1158 5.63302 6.65701 -1.49233 -3.08963 6.10565 5.8434 4.50629 -4.52217 -6.77092 6.51835 -4.23533 -6.65863 0.408923 -0.527836 -6.39769 4.1308 4.92748 3.37863 -4.66834 -5.82558 -6.82035 5.13537 -4.83866 -5.30456 0.935931 -3.17853 -3.69951 3.79139 1.73405 6.59945 -2.62217 -6.46043 3.45986 5.05765 5.51578 -2.42414 -3.83522 3.98111 6.34445 4.55962 5.6373 -2.30561 -4.5554 0.597167 -0.660294 -6.49071 -3.74988 -0.167259 -5.53358 -1.89728 2.96189 -0.56149 3.44992 -6.01306 -5.03418 0.620188 -0.796275 -2.26298 2.05453 -6.65734 6.90307 -3.33848 0.655691 5.00074 4.41382 6.27357 -1.62093 -3.44529 6.0954 5.62885 -6.58131 6.07686 6.52326 -3.97621 5.47288 3.18391 -2.10319 5.45352 1.64757 0.568072 -5.96486 -0.17301 5.74335 5.02956 -2.73555 -0.440184 -0.242949 -5.82381 4.24177 0.969686 -5.24633 -6.41919 -5.80581 -3.42814 -4.28426 -0.92041 4.84902 5.10815 1.64218 4.99842 -3.57653 -0.675337 -2.71096 2.58939 5.1223 -0.672328 6.91532 2.02933 -3.66297 6.60349 -6.61302 -0.231609 -4.49838 -6.50388 0.122374 -3.90069 -6.03296 -3.04829 -6.49685 1.72316 3.58677 2.72849 -2.5262 -1.5192 6.7206 4.28259 -1.78723 -4.64002 4.43231 -5.39113 -6.92487 3.65396 -2.33553 3.7703 4.72049 -1.1637 -5.44591 -4.34066 2.76465 -1.53586 -1.73177 -4.79603 4.22647 0.469388 -6.27094 5.09201 -3.34354 0.786779 1.76037 3.3348 2.44701 6.99076 3.74601 -3.23213 -3.08573 4.96827 -5.79242 -5.30062 4.22001 6.69191 4.96143 0.383944 -3.76223 3.73285 1.61663 -6.27133 5.15569 0.368193 2.14598 -5.892 1.21771 -2.49783 4.34242 -5.72166 -3.61656 6.56916 -6.68915 2.94686 -5.87248 3.98519 -1.84093 4.95556 -6.12646 -6.79888 -5.55518 -5.1267 2.28386 -6.26116 -0.34774 4.95771 -2.5315 -5.32883 0.533096 -4.3708 -4.11725 -5.86025 6.09784 -1.6268 -6.93234 -2.70839 6.67122 -1.17972 -4.11629 -2.67429 2.76814 -0.196915 4.87314 5.9387 3.54803 -3.66719 -2.20751 -0.119825 2.496 2.71394 1.44179 -0.853154 4.60337 -1.00577 -2.13982 -0.99995 6.74254 1.04715 -6.26748 3.49143 3.61698 2.39024 1.59196 6.5274 -5.19266 -5.38154 -0.916382 -0.976674 -3.74438 5.83441 5.91366 6.93351 1.95419 3.39561 6.22499 4.49247 4.41741 5.75534 4.93472 -1.77958 -6.91546 -2.40792 0.711518 5.54709 1.70345 4.45993 0.342161 -4.63111 -2.88293 -6.76623 -5.19567 -1.80902 -4.60605 -4.69043 -4.58483 -2.48102 0.54434 -3.8092 -1.84682 3.87937 -5.9543 -3.53592 -1.12738 -4.37342 -3.67918 1.83532 6.26096 5.40401 -1.78531 -4.37098 0.10322 0.445223 -3.43177 6.28828 0.276972 -0.563595 1.54594 -2.89448 3.52741 -6.11058 2.64605 0.108411 -4.34668 3.49112 -0.113358 -1.93939 -3.28105 -6.82971 2.87714 5.881 5.58763 -5.53112 -0.0252743 4.38212 -6.90598 6.56791 -4.69772 -1.72453 0.39773 2.97675 -1.31682 5.42984 1.73762 0.484815 -6.67322 -4.80519 1.25469 1.46201 -0.112523 -4.99561 4.30753 0.804712 -1.77493 -1.32037 -3.79586 -1.73401 0.695118 -2.55898 0.662579 -1.19815 -3.88696 -1.32238 6.48461 4.19756 3.57355 0.0834066 -4.91801 -3.7022 6.99621 -1.92616 2.79561 2.18591 -0.155906 3.28522 -5.56704 -3.70705 -2.81504 -3.42534 -5.11636 2.52007 -3.22056 -2.38394 -4.47592 0.633632 -3.90931 -2.48067 -3.13514 -1.53595 -6.07332 -1.40923 -0.771902 -5.27325 4.46572 -6.71458 -5.712 3.09854 -2.61935 -5.96711 -2.48096 -5.08522 -4.18035 0.0301114 -5.13959 6.85149 5.39265 3.62496 -1.39337 -3.03318 3.82465 -3.84583 1.31313 -6.63202 2.33232 5.66549 0.939988 2.21849 1.12487 -1.15834 -3.48484 4.10967 -5.74159 -0.940864 -1.7589 3.74456 1.33929 3.78924 5.39087 6.57317 2.29858 1.83955 -6.4216 2.94765 -2.22472 1.6824 -6.61225 -2.36766 5.97912 -4.06954 5.26386 3.73371 -5.83266 -1.27609 0.448133 1.75256 -4.52018 3.03353 0.93969 4.60852 5.88526 -6.31676 -2.61533 6.1286 2.17273 1.39758 6.66104 -6.11092 -2.48638 -2.64275 4.46258 6.56599 0.455404 -3.50394 5.12586 2.21418 -2.82653 6.61803 1.87836 3.15874 -3.75099 -2.41511 -6.16323 -3.85907 3.37608 0.227541 -2.98258 -6.10252 -3.85923 4.82157 -5.52679 1.98403 5.2659 0.0905135 0.25673 -5.39034 -3.50541 4.279 -4.563 5.09906 0.795393 2.16317 6.67243 -6.46756 6.58049 1.30411 2.43075 -6.28957 -4.4787 2.81018 4.3678 -3.90158 5.95198 -0.864233 3.43109 -1.62929 -1.37995 1.18322 0.241295 6.35864 5.92823 -2.45185 3.11148 0.369746 -6.17773 1.14631 6.79889 1.25818 -4.75714 -3.39357 5.0288 -6.79266 -0.21949 4.7514 4.72518 -3.47641 0.934494 1.49468 -6.15968 5.27498 2.60555 3.42486 -5.44949 1.55406 1.66857 -1.27298 2.86792 2.86571 5.65098 -2.91007 -1.9527 -6.69241 5.48395 -3.81857 -2.81953 3.31186 -1.76288 -3.62104 -0.552163 1.87493 -1.73883 -4.89031 -0.170327 0.930577 -3.74547 -4.65795 -6.43997 4.37363 -2.01694 -5.4144 -2.41516 -2.72739 0.806437 -5.84482 -5.97612 2.45864 6.98639 -5.80539 0.919884 -6.41932 3.47118 6.16062 1.16984 1.17478 -1.26702 -2.30829 4.49755 5.9766 4.42166 5.66539 3.37875 -3.4956 -1.35131 -6.81474 -4.70381 5.27442 0.313402 -1.32096 3.94807 -1.27634 0.570683 -1.7771 3.12716 -6.73864 2.08599 -0.762936 -5.37754 -1.25784 6.94476 -0.401404 -2.54029 3.28565 2.29686 -4.17914 4.03606 -4.60249 0.549331 0.857415 2.50459 -5.62542 -6.95692 5.79981 -1.81571 -0.257823 1.87965 5.34164 4.08646 -6.82636 3.63926 -6.05873 2.51095 -0.533469 4.66402 -2.43093 4.41515 6.22265 3.89219 3.70739 1.04196 3.24224 4.87633 -1.53907 -6.75832 -3.00871 0.530425 3.12107 -2.05701 1.90436 2.51587 -6.98679 -0.446728 5.19489 2.33593 5.54145 3.42719 2.57272 3.88124 -6.10465 -2.11558 2.29929 6.91015 -3.00719 4.72072 3.31982 6.60444 1.68572 -2.5555 2.13573 1.18302 0.30688 0.693915 3.12125 -2.36903 -4.26438 3.51331 -2.46358 -5.5944 6.72336 -4.73012 -4.69392 6.90298 6.88405 -6.59427 -1.58376 5.25207 4.86703 2.41072 -3.32097 -5.04108 3.48213 -2.83417 6.80417 1.02535 -0.580018 -5.46334 1.0895 -6.02438 3.17858 -2.03798 -4.85145 -5.37316 1.21213 3.10278 2.12279 6.593 1.44011 0.725671 1.4667 5.01955 6.10405 1.66157 -6.64068 3.67383 -3.13145 -5.06428 -6.25741 1.8639 5.63056 1.61372 2.21164 4.50678 3.40243 3.70583 -1.66108 0.0206749 -6.97183 -5.47562 2.75144 -4.30498 -6.98359 -0.697165 1.12728 -0.163986 0.0760894 2.35806 -5.62178 0.913945 -2.83566 1.9591 5.2751 2.39729 3.13743 1.69474 1.92719 -3.92328 -0.467254 2.51689 -6.30004 -1.49083 -5.87249 -5.62188 5.6024 -4.47361 -4.98449 4.39789 -4.4277 -5.1242 -5.03199 6.34611 -4.40953 -6.53664 -4.38806 -0.0756192 0.801931 -6.50793 3.09863 -6.93653 -0.854823 -2.56498 4.39888 3.82759 -3.5236 -4.7497 4.76441 
