-4 5 4 4 -1 -5 5 -3 4 -1 5 5 5 -5 4 4 -2 2 -3 3 -4 1 -1 -1 4 -5 2.17195e-55 2 -3 -4 -1 -1 -5 2 -5 2 2 1 1 -2 -3 2 2 7.48133e-55 -1 -1 3 3 3 1 -5 2 -3 -2 -1 -2 2 1 -4 -5 -3 -2 -1 -4 4.21247e-55 3.75092e-55 4 3 2.93742e-55 1 5 -5 1 -1 1 -5 -1 4 2 2 -4 3 1 1 3 -2 3 -2 4 -1 2 -1 -3 -4 -2 1 3 1 3 1 2 4 4.73974e-55 -2 -5 5 -3 -5 4 -1 -2 4 1 -1 6.22246e-55 -4 1 -3 1 4 6.549e-55 2 -1 5 -5 3 3 -4 -1 -3 3.7155e-55 3.72012e-55 3 -3 -3 5 -5 -2 -3 4 -2 -3 -2 2 -5 3 5 3 3 1 3 5 3 1 5.86898e-55 4 1 6.59803e-55 -3 -3 3 3 1 -5 -4 -1 -1 1 -4 7.29882e-55 -3 1 -4 -2 5 4 4 6.49405e-55 1 -3 3 -3 -4 -3 -3 3 5 -1 4 3 6.22992e-55 -5 4 1 -1 1 -1 2 6.96383e-55 -3 -3 -2 2 -2 -3 -5 -4 2 2 -2 4 4 2 2 -2 2 1 -5 1 -5 4 5 -5 5 -5 4 4 8.09306e-55 -5 -5 -5 3 1 -2 5 6.7292e-55 -3 -1 -1 5 3 1 -5 -4 -2 -4 6.25712e-55 -3 -2 -5 -1 -2 1 5 5.32606e-55 1 -3 3 -1 2 -4 1 -4 -3 2 -2 4 3 6.92095e-55 1 -3 3 3 2 -1 -3 -3 -1 5.88361e-55 5 -2 -5 -4 -3 -1 2 5.43747e-55 5.18359e-55 -5 1 -1 3 -5 1 6.56055e-55 4 -4 -5 2 7.58555e-55 -2 -3 -4 -2 -1 -3 4 5 4 4 -5 6.05073e-55 5.95036e-55 -1 -3 3 2 -5 -4 -4 5 3 -2 5 2 5 7.6944e-55 -2 4 4 -1 -4 7.06727e-55 5 -5 6.29074e-55 -1 2 -3 -5 -5 5 -5 3 3 3 -3 2 -5 -1 -3 5.33377e-55 -4 4 4 -2 -5 -3 5 -5 6.61265e-55 -5 1 -1 1 -5 4 -1 1 -2 4 1 -3 5 5 4 -2 -5 -3 3 -5 -1 5 4 4.46148e-55 2 3 -2 4 1 -2 -4 -1 -1 -3 6.67939e-55 1 -2 -2 3 5 -4 5.81611e-55 2 3 -2 3 1 -4 -4 3 -4 2 2 5 -3 4.11724e-55 3.32454e-55 5 4 4 1 -4 -3 6.21784e-55 6.05073e-55 -3 -1 5 -2 6.27843e-55 2 -2 4 4 5 -3 1 -1 1 5.76091e-55 3 -5 -4 -5 -2 -2 -2 4 1 -4 3 5 3 1 3 -5 -1 2 4 -2 6.28151e-55 3 -5 6.01863e-55 -1 -5 -3 -1 -1 3 5.93957e-55 -2 -4 -3 -2 -1 4 -4 5.42206e-55 3.37588e-55 -1 5.13994e-55 -3 1 1 2 5 3 4 6.7292e-55 -2 -1 4 -3 6.21939e-55 3 3 -4 4 -3 2 2 1 2 -3 -4 -3 1 -1 1 5.69033e-55 5 2 5 6.33439e-55 -4 3 -1 1 -5 5 -2 -5 -1 -1 -2 -4 -1 4 -4 -4 -3 4 -5 -5 1 5.93034e-55 -1 5.30783e-55 -1 -1 -1 5 -5 4.45378e-55 -4 -1 2 -2 1 -3 2 -3 -2 -2 -4 4 5 -5 -4 2 -2 -1 5.31168e-55 -1 -1 8.19728e-55 1 6.04225e-55 5 5 1 -3 5 2 -3 2 1 -2 5 4 -4 4 -2 -5 -1 3 -2 1 2 5 5.84228e-55 -4 5 7.58017e-55 4 1 -4 5 -5 3 6.04073e-55 5.47572e-55 5.6513e-55 2 5.42515e-55 -5 5 -4 1 -5 -5 3 -2 1 -4 -2 -5 -2 -3 2 5 -2 -1 -1 -4 1 3 -3 1 -3 -3 -4 2 5.70495e-55 3 -4 -4 -4 5 3 3 -2 -1 3 -4 6.83957e-55 -5 -5 -2 5 5.87284e-55 2 3 -5 5 -4 -1 -2 -5 3 2 1 -3 1 5 4 -1 1 1 -4 1 -3 -4 5.75552e-55 2 5 -3 2 5 1 3 -5 4 -2 2 5.47494e-55 -5 -4 -5 5.65284e-55 5 5 2 -3 -3 5 -1 1 -1 5.25649e-55 4 -4 3 -5 1 1 3 5 -1 3 -5 -2 4 5 5 4 -4 1 4 1 -3 6.21784e-55 -2 4 3 3 5 2 2 -2 5 -3 -2 4.84552e-55 -2 2 2 -3 2 -2 5 -2 -2 2 5.53475e-55 3 -5 4 5 -4 5 -4 5 1 -5 1 5 -1 -5 -1 5.82381e-55 -1 -5 -1 2 -4 -1 -1 5 6.09515e-55 -3 6.26534e-55 -1 -4 4 3 -2 3 -5 -5 4 -2 3 3 -2 4 5.53475e-55 -3 3 5 2 2 5.76399e-55 -4 2 -1 -4 4 -5 2 1 -1 2 5 -3 -3 -2 1 -5 -1 -5 -5 4 -5 -3 -1 5 -5 2 4 -5 2 1 3 3 4.68378e-55 5.19436e-55 1 4 2 3 4 -5 -4 -4 -4 1 -5 -5 5 -5 -2 -3 4 4 4 4 -4 3 -5 4 5 -4 -3 -5 1 2 3 4 1 -1 -1 5 -4 -4 1 5 -2 2 -2 -1 -5 6.10515e-55 -4 -1 2 4 -5 5 3 -2 3 2 1 -3 3 5 -3 4 3 3 3 -1 -4 -2 6.38264e-55 6.434e-55 5 6.49534e-55 3 2 -3 -3 1 6.04456e-55 -1 2 2 -5 -5 -4 3 1 6.27073e-55 -2 2 -3 5.98399e-55 2 2 4 4 -2 -2 -1 2 -1 -5 4 6.4363e-55 3 6.4938e-55 1 2 -2 5 -5 1 4 1 5 -3 3 4 2 5 3 5 1 -1 -1 2 -2 2 -5 3 1 -2 6.38572e-55 -2 -4 6.55131e-55 6.49611e-55 2 3 3 -4 -4 2 1 4 2 2 2 4 3 -5 -4 -1 -1 4 -3 -3 3 3 4 1 -3 -3 4 5 2 4 2 -3 -1 -5 3 -1 -3 -4 -1 -1 2 1 5 2 -5 -3 -1 5 2.70411e-55 5 4 -4 2 2 2.19352e-55 1 2 -1 3 1 -2 5 -2 3 -3 -3 -5.70616e-56 4 3 2 4 -4 4 4 -1 -2 -5 -4 3 -3 -1 1 -4.52756e-56 -2 -2 -3 1 -5 4 -2 -2 2 -6.34455e-56 -4 2 -1 -4.93301e-56 1 -3 4 5 3 4 -1 5 4 2 4 -1.18469e-55 1 -3 5 3 2 1 -3 -4 5 -3 3 5 -4 3 -4 -4 -5 4 -1 5 5 -5 2 5 5 1 3 -3 -4 4 5 1 2 1 -3 2 -2 -3 -5 3 -1.10939e-55 -1.08749e-55 4 4 -1.21685e-55 1 2 5 -6.01967e-56 -3 1 -8.9306e-56 2 -1 -4 -2 -1.33498e-55 2 2 -3 -4 -3 -2 2 -4 5 -1 3 -4 -4 -3 -3 5 3 4 2 1 -5 -2 -2 3 -1 -1 -7.85187e-56 1 -1 2 -1.33506e-55 2 -2 -4 -5 2 -5 -5 -1 -3 -5 -4 -2 -4 -1 2 -2 -1.09807e-55 -1 -4 -3 3 -4 5 -5 1 4 -5 -3 2 3 3 -4 5 -5 5 -4 -3 1 -1 4 4 5 2 -3 -5 -5 5 1 -5 -1 -1.14215e-55 -5 -5 -1 -1.00083e-55 -1 -2 5 3 -3 -3 3 -1.28099e-55 -2 -5 -1 -1.32434e-55 -1.30273e-55 -1.23801e-55 5 -1 4 2 4 -5 -4 -4 3 -3 2 -3 5 -1.06604e-55 3 -3 3 2 5 3 -4 4 -1.42122e-55 -2 -5 -4 -4 -4 -1 1 5 -3 -2 4 2 2 -4 -1.64666e-55 -3 1 3 -1.11784e-55 1 -5 -5 4 1 -1.0018e-55 3 -1 -1 -4 -3 -1 5 -2 3 -5 5 -2 1 -5 -1.2375e-55 5 -4 2 -2 -1 -5 -5 4 -2 -3 -1.07546e-55 1 5 3 -1 1 1 -9.68802e-56 2 1 -1.45361e-55 5 2 4 -5 3 -3 -2 -3 3 -2 -3 3 1 -2 -2 -2 -4 5 -5 -4 -1.13005e-55 4 -1.1294e-55 -1 1 1 -4 -5 -3 -1 -2 4 2 5 4 -4 1 1 5 4 -5 -1.32423e-55 5 5 1 5 -3 5 -4 4 -4 1 -5 2 -1.15108e-55 -3 5 4 -3 1 -1 -5 -5 5 2 3 4 -1 -2 3 3 2 -5 3 4 5 -1 2 -2 1 1 -5 4 1 -5 3 3 1 -5 1 1 -4 -1.05494e-55 -4 5 -5 3 5 -1 -1 1 -2 3 -3 1 -5 3 1 1 5 -2 1 3 -1 4 -1.11958e-55 5 -1.09798e-55 -2 -4 -4 -4 -4 -9.9994e-56 4 1 3 4 -4 -2 3 -4 -5 1 -1 -5 -5 -2 -1.17313e-55 1 -3 -1.1189e-55 -1.08696e-55 -3 2 -2 4 2 -1 -1.07628e-55 1 4 3 -2 2 1 4 1 4 3 -5 2 -2 1 1 -1.16246e-55 -5 1 5 1 -3 -1 3 3 -4 -4 -1 -5 -1.21641e-55 3 1 -3 -2 -5 5 3 -2 -5 -3 3 -4 -4 -3 5 2 -5 -3 5 -1.20558e-55 -1.25949e-55 5 -4 -1.17306e-55 -2 -3 -2 2 1 4 -1.14087e-55 -1 -2 -1 2 5 3 -5 5 -3 -1.05504e-55 -1.06592e-55 -1 1 4 -4 1 -5 4 5 -3 -5 -1 -3 -2 -3 -5 -1 4 3 5 4 2 1 -3 3 -3 3 3 -1 1 5 -2 -5 -1 -4 4 -4 -1 2 -2 4 4 -2 -1.31354e-55 -1 -1.13013e-55 1 -1 -1.12993e-55 -1 -1 -1.45351e-55 -1 5 -5 -3 -4 -3 5 -5 3 1 -3 -5 -4 -2 3 1 3 -4 2 -4 4 -2 -4 -2 -4 -4 3 -3 -1.09763e-55 -1 -3 1 4 -4 -1 1 -2 3 1 -1 2 -2 -1 4 -4 3 -1 1 -5 -4 1 3 -5 1 3 4 -4 2 -2 4 -5 1 -1 -4 1 -2 5 4 -4 3 -2 -2 5 2 4 -2 -1.31351e-55 2 -4 -1 -3 2 4 -1 3 -1 -1.32423e-55 2 1 5 -5 -3 -1 1 -3 -1 -1.30262e-55 3 -1.08698e-55 1 -2 -4 -2 -1.1518e-55 5 -3 3 3 -5 -1.07652e-55 -5 1 1 3 -4 2 1 -3 4 -1 -5 -2 -5 -2 3 3 -9.68624e-56 2 -4 1 -5 -4 1 -4 -2 4 -5 -1.00083e-55 3 2 5 -4 -2 2 1 2 -1.07645e-55 -3 -3 -4 4 2 -2 -9.79163e-56 -4 3 5 3 4 -4 -1 2 3 -3 4 5 3 -1 -9.03805e-56 -1 2 2 5 -2 -5 -1.07656e-55 -5 5 3 1 -4 -5 5 -1.03313e-55 1 -1.00078e-55 -3 1 4 -5 -9.0381e-56 4 1 5 -1 5 2 -5 -4 -2 -5 -4 -1.08728e-55 -5 1 2 -3 -2 1 -5 4 -1 2 4 2 4 -4 -2 2 -1 3 -5 -5 -2 -1.00085e-55 -4 -3 5 -3 1 5 -5 1 -5 2 3 -2 -3 4 3 4 -1.19512e-55 -1 1 2 -1.22736e-55 -3 -5 -5 -2 -5 -3 -1 -9.68408e-56 2 -5 2 -2 -4 5 -3 -2 5 5 -4 -9.68551e-56 3 1 2 3 -5 2 2 -3 5 -4 5 -2 -1 3 -1.11933e-55 -5 -3 3 5 4 -5 3 2 -1.13032e-55 -1 3 1 -3 4 3 -5 2 -4 4 -2 2 5 -1 -4 -5 -1 -5 2 -2 5 -1 -1 3 3 -3 3 -1 -1.11941e-55 -1 -5 -3 1 -1.13041e-55 -3 2 -3 5 -3 -1 -2 -4 -1 3 -1.19504e-55 -1.20594e-55 -4 -3 3 -2 3 4 -5 5 -1.13018e-55 3 -2 1 5 -3 1 4 4 5 3 -1 5 1 -5 1 1 5 2 4 -3 4 2 3 3 2 4 -4 -1 -1 -2 1 5 -1.07619e-55 3 -5 4 -5 2 2 -5 -1 1 -4 3 -5 -1 -1 4 -4 5 -2 -5 3 4 -2 3 -3 5 -5 5 4 -4 4 -1.11945e-55 4 5 5 -1 2 4 1 -4 2 -4 5 5 -5 -3 3 -1 2 5 -5 -2 -3 -2 1 1 4 2 5 -1 -4 2 -5 5 2 -2 3 -1 4 -2 -5 3 -3 1 -4.95309e-56 -4 -2 -3 -5 2 -4.19818e-56 4 3 1 -5 4 1 -5 4 -1.6208e-76 -5 5 -3 1 -1.15743e-76 -4 3 1 1 -3 3 2 -1.16707e-76 -2 4 1 4 -4 4 -5 -3 -5 2 -1 2 4 2 -5 -1 -5 2 3 -2 -2 -3 4 -3 -3 -1.18647e-76 5 -4 5 -1 -2 -3 -3 -2 5 5 2 -4 5 1 -1 -4 -1 -5 -6.57889e-77 1 -5 5 5 2 1 -1 4 -1.07451e-76 -2 -5 2 -4 -1 2 -1 -1.14459e-76 3 2 -2 5 2 -4 5 -2 -2 -1.02182e-76 -4 5 5 -4 3 4 -4 2 1 -1 -4 -4 -4 2 -3 -3 -4 -7.49643e-76 2 -3 3 2 -5 -7.31289e-76 -4 -2 5 -3 -2 3 5 -4 -3 -1.47523e-75 -1 2 -1 -2 -3 5 -3.48981e-75 3 4 1 4 2 -5 -5 -4.82192e-75 5 5 2 -3 -5 -2 3 -5 5 -5 3 4 -1 -6.42333e-75 -2 -2 1 -2 -1 -7.48601e-77 -5 1 3 3 3 -3 -4 4 -3 3 5 -4 -1 -1 5 -5.4175e-75 3 1 2 -4 -4 -7.12706e-75 -5 -1 -2 4 2 -3 -4.85192e-75 -9.13205e-76 2 -3 5 -2 -5 -1 -4 -1 -1 1 -1 5 5 5 -6.74587e-75 4 -2 -5 -5 4 -4 -4 -1 -3 -2 5 -4 -2 5 5 -4 1 3 -5 5 3 1 1 3 -1 2 -3 3 3 4 3 -3 5 -1 2 -2 -4 -4.70425e-75 -1 -2 -5 4 -4.33785e-75 -1 -5.35041e-75 3 1 -4.80143e-75 1 2 -1 2 5 -5 1 2 -2 -2 -3 2 -4.9456e-75 2 3 5 -5 -4.82071e-75 5 -2 1 5 4 -5 1 2 -2 -2 5 -5 2 -2 -4 -1.1034e-76 4 -5 4 -3 1 -1 4 -2 -3 -4.96552e-75 -2 -3 -3 2 -4 -4 1 -4 -2 -4 4 -2 -4 2 5 2 4 -5 5 -1 -2 -4 -4 -3 -4 -3 -2 -1 -3 3 -5 1 4 1 -4 4 -3 -3 -4.37274e-75 -4.35576e-75 -2 4 3 -4.81334e-75 4 4 3 -3 1 4 4 -1 5 -1.25561e-76 -2 -2 -1 -5.95786e-76 -4 4 4 -2 -1 -4 1 3 3 -4 2 -1 -1 -2 -3 -4 2 1 1 -1 1 -5 -1 -1 4 -3 1 -4 1 -5 2 -4 -4 -4 -4 1 -4 -4 4 1 4 -3 3 -1 -1 -3 4 2 2 -4.53152e-75 4 -3 -4.66369e-75 -4.30935e-75 -2 3 -4 -4.05278e-75 2 4 1 5 -5 -1 -2.67067e-75 3 1 4 5 -4.11235e-75 3 3 5 -4.79561e-75 5 -5 1 -5 -4 -2 -3 -5 4 -3 -2 1 2 -1 4 -5 -4 4 -4 -3 2 -1 -1 -4 -2 1 -1 5 -3 4 -4 -1 3 5 4 1 -4.19665e-75 2 2 -4.58785e-75 3 -1 1 3 4 -5 2 1 -4 -3 -4 -3 5 5 -4 5 -4 1 3 -5 -4 2 2 -5 5 4 -3 -4 -5 -4.53053e-75 3 4 -3 3 4 -5.04948e-75 1 2 3 1 -5 5 -2 -5.28223e-77 5 1 1 -3 -5 4 3 -2 -5 -3 3 -4 -5 1 -4.91853e-75 -3 5 5 -5 -4.73281e-75 -4.86822e-75 4 4 4 -4 -3 -4.37428e-75 3 5 3 4 -5 -3 1 -3 -2 1 5 2 -4.2761e-75 -2 2 -2 -4 -4 -3 -2 5 -5 1 -2 2 5 -3 1 4 -3 -1 3 1 -3 -2 2 -4.60983e-77 1 -1 2 2 1 5 -3 3 -3 5 -1 1 2 -1 -4.63959e-75 2 -1 2 1 -2 -5 1 -3 3 1 -2 4 -3 -1 5 3 -4 -4 -2 2 -1 -1 1 -3 -3 -2 -5 -4 1 -4.6909e-75 5 -1 -2 3 -5 -3 5 -4.14449e-75 3 3 -4 -5.03844e-75 -4 -1 -2 -5 4 -1 1 2 4 -5 -2 3 -4 -5 -2 -4.42724e-75 -1 1 -3 -5 -4 -3 -1 2 -1 1 -3 -1 -3 1 5 3 1 2 2 -2 -1 1 2 -3.83767e-77 1 -3 -1 -2 1 -3 -4 1 5 1 -1 5 -3 -4 -2 -3 1 4 -5 -4 -4.42245e-75 -2 5 5 5 3 2 4 1 -6.48349e-77 4 3 -5 -5 -3 -1 -1 4 -2 -4.33184e-75 -5 4 -4.42294e-75 3 -3 -3 -4 5 -5 -4 -4 1 2 2 -4.18436e-75 -3 -4 -4.54918e-75 5 3 -5 3 5 -3.51964e-77 -3 -2.77219e-75 -4 -3 -5 -2 2 -5 -5 5 2 2 -1 5 2 2 1 1 4 -4 2 1 4 -4 2 -4 -1 -5 3 -4 1 -5 5 -2 -1 2 -5 -2.49372e-75 -3 -4 2 -2 -3.7126e-75 -3 -4.5224e-75 -3 -2 2 -3 -3 1 -5 -1 4 -4 2 -4 -4 1 1 5 4 -1 5 -2 5 -2 4 5 5 2 4 2 -4 -3 1 2 -1 5 -3 -1 2 -2 4 2 -1 -1 2 -4.84074e-75 -1 -3 -5 -5 4 -3 5 -1 5 -3.08171e-75 3 1 -5 -5 -5 5 -2 4 5 -4.86784e-75 4 -5 2 1 2 4 3 2 4 3 -2 -2 -4 -4 -4 -1.08484e-76 -4 5 4 -2 -2 -5 -4 2 -4 -4 5 -3 -2 -4 -2 3 -3 -4.65021e-75 -5 5 -2 5 -5 -3 2 3 1 -2 -2 -4.694e-75 1 1 -4 1 -1 -3 -3 1 3 -4.75488e-76 -5 -4 -5 1 -4 5 -5 -2 3 -1 3 -5 -8.88671e-76 -1 -8.07291e-76 4 -3 -2 4 -1 -5 -8.43857e-76 -4 -2 -3 -4 -5.18547e-77 -3 1 2 2 -5 -3 3 2 3 -3 -5 -1.90409e-75 -2 -4 -1.07984e-75 5 -1 1 -5 5 1 1 -1.17411e-76 -3 3 -7.8588e-77 5 -5.33277e-77 -2 -2 -7.30261e-77 5 -2 -5 4 3 3 -2 -4 2 3 1 1 -3 5 5 -3 -2 4 3 1 -1 1 -2 -1.10989e-76 5 1 -5 1 5 -5 -2 2 1 -3 4 3 3 2 -1 -3 2 1 -4 4 -5 -2 5 2 -4 -2 3 3 -1 1 -2 -1 3 3 -4 -8.76727e-77 4 -1 -1 -2 3 -1 -1.01126e-51 1 2 -3 4 -2 -5 5 -2 -1.85724e-51 -3 2 -3 -4 -5 -5 1 -4 3 4 -1 -4 4 1 -1 3 -1 -5 5 -1 -5 -2 3 -2 -1 4 -1 2 1 4 -1 4 -5 -3 1 -5 -1 2 -3 -4 -3 -4.67686e-51 -1 -4.51645e-51 4 -4 -5 4 2 2 -4.51659e-51 -4 5 2 -5 -4 -4 -4.47949e-51 5 -4 -5 1 -1 -2 -5 -4.84398e-51 -5 4 5 5 -2 3 -4.79763e-51 3 3 -2 5 4 -5 4 -5 -5 4 2 2 -3 -2.58586e-51 -3 4 -3.31087e-51 4 -2 4 -5 4 5 5 -4.84199e-51 -1 5 2 1 -2 1 -2 2 3 -1 3 5 4 4 -2 -4 3 3 3 1 -5 1 2 2 -4 4 -5.00289e-51 5 -3 -3 -5.20464e-51 -4 2 1 -4.64252e-51 -4 4 5 -2 2 5 2 2 -4 -3 1 5 3 4 3 3 -4 5 -5 -3.63373e-51 5 -1 4 -5.12394e-51 3 -4.96276e-51 -4 4 -5 -4.55962e-51 -2 -4.52401e-51 4 3 -4 -4.80397e-51 5 1 -3 1 4 2 -1 4 -1 2 3 5 -5 -3 -3 -4 4 1 -4 2 3 3 -2 -1 4 -3 -3 5 -1 -3 -5 -4.76513e-51 -1 3 1 5 -3 -4 -2 -4 -5 2 2 1 1 5 -2 5 -4.4799e-51 -3 -4 -1 -4 -5 2 1 4 2 3 -2 5 -3 -4 -5 4 1 1 -4.28043e-51 2 3 -2 -3 -4 4 5 -5 -6.37249e-51 4 2 -4 -1 4 4 -1 5 1 3 -1 -3 1 -1 -1 1 -3.87439e-51 -1 5 2 4 1 -4 -5 1 -2 4 4 -4 -4 -3 5 3 5 4 -4.60025e-51 -4 5 4 1 5 -5.24556e-51 3 1 -1 2 4 3 -1 -2 4 5 -4 -3 -1 -3.99934e-51 3 2 3 -4 -3 -3 -3.79499e-51 -1 -4.60055e-51 -5 -2 -5 -3 -4 -4.84227e-51 -3 3 5 5 -5 -3 5 -4.31817e-51 -1 2 3 2 2 -2 3 -2 -2 4 -1 5 -3.71279e-51 -3.75116e-51 -2 3 -2.94907e-51 -1 5 -3 5 -1 -2 5 4 3 1 -1 3 -3 -3 4 -2 -4 1 5 3 -4 -4.11606e-51 5 1 -5 -3.95566e-51 2 -5 4 3 -1 -5 5 -2 -4 -4.76194e-51 -5 5 -5 -4.56046e-51 4 -3 -4.52012e-51 -5 -5 1 5 -4 4 -5 -2 -4 -2 -2 -3 -1 -3.79356e-51 3 -3 4 2 3 1 2 1 -2 1 -2 -2 2 -4 4 -5 -1 -5 1 2 -4.19897e-51 4 3 -5 2 -5 -4.11663e-51 1 5 -1 -3 1 -3 -4 1 1 4 -2 -5 -3 -3 5 4 -1 4 1 -4.56013e-51 -2 -4.88269e-51 -4 -1 5 3 5 3 -5 -4 3 4 -2 3 2 -2 -5 -3 1 -2 -2 3 -4 -5 5 2 -4 -2 -1 -4.27768e-51 -4 3 -5.20422e-51 2 5 -3 4 -5 -3 1 4 2 1 -4 -3.87531e-51 2 -4.23768e-51 -3 -4 -3.71337e-51 4 -2 2 5 -3.67329e-51 -2 -1 5 5 1 -4 -3 -5 -3 1 -1 -5 -1 -1 -5 -3 5 4 -4.11692e-51 2 -4.3583e-51 5 -1 -3 -3 3 2 4 5 -2 1 -3.10925e-51 -3 5 -4.23727e-51 -3 4 -3 -1 -2 -3 -3 -3 -2 2 1 4 2 -5.44616e-51 1 -4 -1 3 2 3 -4 -1 5 -2 -3.87484e-51 -4 3 -5 -4 -1 2 -1 -1 5 -2 2 4 -3 -2 -3 5 -4 5 -4 -3 -6.05033e-51 1 -4.55998e-51 2 -3 -2 -3 -1 1 -2 -1 4 -3 1 -1 4 -2 3 -4.31774e-51 2 -3 -4 -3 -2 5 -3 5 2 -1 -2 3 5 -1 2 3 5 2 4 5 3 3 5 5 4 -2 -4.92227e-51 3 -5 -1 4 4 -2 -1 -3 -1 -1 1 1 -4 -3 5 5 -4 2 -4 -1 -5.68756e-51 -1 -4.47934e-51 3 -1 1 -5 5 -2 4 2 5 -2 -5 4 -4.03538e-51 2 -1 -4 -4 -5 -4.439e-51 -1 3 -3.91518e-51 4 -1 5 2 5 -1 -4 -4 2 5 -5 -2 3 1 -4 5 1 4 -2 4 -2 4 1 -3 -4.0355e-51 4 -4 -4 3 -1 3 5 -2 1 -3.95467e-51 -1 3 -3.63478e-51 -5 -4 2 -3.7142e-51 -3.79476e-51 -5 3 4 -3 -3 4 -3 4 -5 -4.11579e-51 -3 -4 2 -5 -3 2 1 -4 -5 -3 3 -1 -2 -5 -1 -5 -4 -5 -5 1 3 -1 5 4 -4.0767e-51 5 -2 1 -3 -5 -5 -4.11587e-51 2 -4.27698e-51 4 -1 2 2 -3 3 -5 -3 -3 -1 5 2 2 -1 -3.91694e-51 -3.75413e-51 -2 -4.03636e-51 5 3 -2 1 -5 -3.35142e-51 -2 -3 4 5 -1 5 1 1 1 5 5 1 3 3 -4 -3 3 -5 1 -5 -1 1 -3.9958e-51 -1 -4 2 -4 -3 -4.07664e-51 2 -4 -3.27067e-51 -1 -5 3 -5 -5 4 -2 -3 4 -5 -4 2 -5 -2 -1 -1 1 1 -4 -3 -1 -3 -5 -2 -5 -2 -4 4 1 2 2 1 1 -3.51246e-51 -4 1 3 -4 -2 -1 -5 -4.55921e-51 1 -1 3 -2 -3 -5 2 1 3 3 -4 4 2 4 2 1 -4 -4.15634e-51 3 -4.31823e-51 -1 4 -1 -5 5 4 -5 -3 -2 1 4 2 -2 -4.55926e-51 3 -4.23698e-51 -2 5 1 -1 -4 -4 -3.83462e-51 -1 -1 -3 5 2 5 2 1 -5 -2 3 -2 -4 -3.55295e-51 -2 1 -4.4385e-51 -4 2 2 -1 3 3 1 -2 -2 -3 -5 -3 4 1 -4 -2 2 2 2 -2 -1 -1 -3 -4 1 4 -1 -3 -3.51239e-51 -3 1 -5 -5 -3 1 -5 2 -4 -5 -4 1 2 -4.19769e-51 -5 -4 4 -4.07664e-51 3 -3 -4 3 2 5 5 -4.19726e-51 -5 -4 5 -1 4 4 -5 1 2 -1.93709e-51 -1 -4 -3 1 3 3 -1 4 -3 -4 -1 -2 -1.69529e-51 5 -2 1 -1 4 -2 -4 -3 -2 5 1 4 -3 -1 4 2 2 -5 4.95191e-46 5 -5 3 -3 -4 -1 3 3 -5 -3 -4 -2 2 -4 -1 1 -2 -5 -1 -1 -4 -5 2 -5 -3 2 1 4 2 5 4 -3 -5 1 -4 5 4 -1 3 -4 -5 1 -3 4 -4 1 -3 -4 -5 -3 1 2 2 1 -3 2 -5 1 -5 -5 -2 -2 1.21893e-45 1 1.08561e-45 -2 1.46653e-45 -3 1 -4 5 1 4 4 -3 1 -2 -2 2 -1 3 -1 3 3 4 2.19027e-45 -2 -1 1 -2 -1 -2 4 -1 -3 1 5 1 1 -2 -4 1.8284e-45 4 1 3 5 3 -1 -5 5 2 -2 1 -5 2 3 -4 2 -3 -5 5 1.99981e-45 -1 4 3 -2 1.14275e-45 -1 -5 -3 -4 -4 -4 1.8284e-45 2.36168e-45 1 -5 4 4 -5 -1 -2 5 2 2 -3 -3 -5 1 -5 -1 1.94267e-45 4 -3 3 -1 2 2.19027e-45 4 -2 5 5 -3 3 -3 1 2 2.2855e-45 1 1 -5 5 3 4 -2 3 3 3 5 5 -5 1 -1 5 -2 -3 2.09504e-45 2.07599e-45 -1 1 -3 1.27607e-45 4 1 -5 4 4 -4 2.30454e-45 5 -3 -4 4 3 5 -4 -3 4 -1 2.22836e-45 -1 2.19027e-45 4 -5 -2 -4 1 5 -2 -2 -1 -4 -5 -4 2.68546e-45 4 -4 -5 3 1 2.15218e-45 -2 -5 -2 -5 -5 5 -5 -1 -2 -5 4 2.41882e-45 4 -5 -2 2 -4 1.71412e-45 1.8284e-45 5 2 4 4 4 -4 -4 5 -1 2.0379e-45 -2 -1 -3 3 3 3 -4 -5 -2 1.94267e-45 1.92363e-45 -1 -2 2.91401e-45 -3 1.94267e-45 4 5 1.98077e-45 4 -1 3 2 -4 5 1 3 5 5 4 2 -3 2.45691e-45 -4 2.47596e-45 2 -3 -2 5 4 -2 -2 4 3 -2 -3 4 -5 -2 -4 4 -4 -5 -4 -3 5 -1 -4 1.79031e-45 2 5 1.92363e-45 2 5 -5 5 -1 3 2 -5 2 -5 5 5 3 3 2 3 3 3 2 3 -2 -4 -2 -4 -5 2 2 2 1.56176e-45 1.39035e-45 2 -1 4 2 4 -1 -3 -4 5 2 2 -1 4 -4 2 -3 5 5 5 5 5 4 5 1.98077e-45 1 2 -5 -4 4 1.46653e-45 -4 1.65699e-45 -2 5 1 -3 2.13313e-45 -2 -5 -5 2.20932e-45 5 5 -1 2.05695e-45 -2 -4 2 1 -4 3 4 1 3 3 4 5 1.90458e-45 3 -3 4 3 -4 -2 -2 -5 -2 -1 -4 -1 4 -1 -3 5 1 1 4 -5 1.92363e-45 1.88554e-45 -4 -2 4 1.94267e-45 -2 4 -5 5 2 -4 4 1 -3 2 1.27607e-45 -2 -1 2.26645e-45 -4 3 3 -1 -2 1 2 3 -3 2.22836e-45 -1 1 3 -1 5 2.05695e-45 -1 3 -1 -5 1 -1 4 -4 -1 -3 -4 1.10466e-45 1.73317e-45 -1 4 3 -1 1 -2 -1 2 4 3 1 -2 -1 -2 -2 2 5 5 1 -2 5 -1 3 4 -5 3 1.75222e-45 1 -4 -3 1 1 -1 -4 2.2855e-45 2 -3 -4 3 -3 1 -2 3 5 -1 2.01886e-45 1 5 4 3 3 -1 -1 2.11409e-45 5 -4 2 1 -5 -2 -2 5 2 -5 1.56176e-45 1 -4 1 2.09504e-45 -3 1 -3 -4 -4 -5 1 -1 -3 4 -5 -2 5 1 2 2.43787e-45 -1 5 4 1 2 1.77126e-45 1.8284e-45 -3 -2 1 -4 -4 2.17122e-45 4 -3 -5 -3 -3 2 -3 -2 4 -1 4 4 3 1 2.85687e-45 1 -1 -3 -2 -3 -2 3 1 3 -3 -2 -3 -1 1.61889e-45 2 -1 -1 -1 -3 -1 -1 -1 -1 -4 3 -5 3 -1 -2 -3 1 -4 3 4 5 3 2 -3 5 5 -4 -3 1.79031e-45 4 -1 5 -4 -2 -4 3 -4 -3 1 5 2.34264e-45 -1 1 -1 4 2 5 -5 3 -5 1 3 -2 2 1 2 1 -4 -4 4 -3 3 1 -3 -1 -3 5 -4 1 -4 -1 3 2 1 4 3 -5 2 3 1 3 -1 -3 -4 2 5 -4 1.88554e-45 2 -5 -2 1.77126e-45 -1 3 4 4 4 -4 -5 -3 3 -1 -1 -5 5 4 -2 -3 1.71412e-45 -1 3 3 -5 3 2.05695e-45 5 4 -3 1 -4 1 -2 3 -5 -5 -4 4 -1 1.94267e-45 -4 -4 -2 -1 1.98077e-45 4 -5 3 5 -4 2 1 -5 -1 2 -1 -2 2 1.79031e-45 -1 2 3 1.88554e-45 -4 4 4 1.79031e-45 4 -3 -3 2 4 2.01886e-45 5 -1 -2 4 -2 1 2 -1 3 -1 4 -1 -4 1.61889e-45 -2 5 -1 -3 4 4 1.84744e-45 -3 -4 3 -5 2 -2 1.61889e-45 -1 4 2 -2 4 -2 -2 -2 -5 -3 2.01886e-45 3 -4 -5 2 -2 2 2 5 5 -4 -5 3 -2 1 -4 -1 4 -3 -3 3 5 4 -1 -1 2.09504e-45 1 1 -1 -1 2 -1 5 1 -4 1.98077e-45 -3 -1 1 1 5 -5 4 3 5 -2 3 -3 -4 3 5 1.69508e-45 4 2 -5 -1 2 -3 -3 -4 2 1 -3 -3 5 -5 1.98077e-45 -3 2 -3 5 -3 -1 -3 3 3 2 1 -1 2 -5 -2 2 3 5 -3 -2 5 -2 -5 -5 -5 -5 3 -3 4 5 4 -5 -3 -1 1 5 1.80935e-45 -4 1 2.07599e-45 -4 5 -2 -2 -3 2 5 -2 -3 -2 -4 -2 -3 2 3 -4 5 -1 5 -1 -4 -1 2 2 -3 1.88554e-45 5 -5 -5 4 -1 -1 -3 -3 -4 1.96172e-45 -1 1.99981e-45 1 3 -4 -2 3 -3 3 4 2 -3 -5 -3 3 4 -3 5 -2 -2 1 -3 -3 1 -4 -5 -3 -1 4 -2 -5 1.99981e-45 1 2.09504e-45 1 3 -4 -1 1 -1 -3 -2 -3 1 -5 5 -5 -3 1 1 -3 -2 5 -1 -4 -5 8.38016e-46 5 -3 -3 -5 2 -4 3 8.38016e-46 -1 8.95154e-46 5 5 5 -1 -5 1 1 -3 3 -2 -1 4 -4 2 -2 4 -1 1 -4 -3 2 1 -2 5 -2 -4 2 -2 -4 3 -2 -5 -3 -3 -1.16857e-65 -1.3409e-70 -1.47621e-70 -5 5 1 -2 -3 -3 4 5 -5 4 4 3 -1 1 -3 4 -3 -3 -5.53888e-64 5 1 5 4 -3 1 -2 4 -1.93823e-64 -5 2 -5 -4 4 -4 -3.08302e-65 3 -5 -2 -1 -2 -4.91909e-64 -3 -4 -1 5 5 -3 -2 -5.3066e-64 3 5 3 -5 -2 -2 4 -1 4 -5 3 -2.04458e-64 -5 -1 -2 4 -2 -4 -3 -2 4 -5 -4.91759e-64 -5 4 -1 -5.22788e-64 4 4 -4 -4 1 -3.18757e-64 -3 -3 -3 -5 -3 -2 -3 -4 -4 1 -5 -2 -3 4 -1 3 -3 5 -2 4 3 -1 4 -5 -2 -4 -1 5 -3 3 -4 3 -1 1 5 -5.50142e-64 3 -1 -3 -3 -5 2 4 1 3 1 -4 2 -4 -2.05385e-64 -4 4 1 4 2 -3 2 2 3 5 -5 5 -5 -3 5 -4 -3 -4 -4 -2 5 -2 -4 2 2 -1.27266e-64 -4 -5 -5 -5 4 -5 -3 4 2 -2 -1 -5 -2 -4 3 3 1 3 2 -3 -5.42456e-64 -1 2 -4 -5 -5 2 -5 -4 -4 2 -4 -1 4 2 -4 -4 -1 2 3 1 3 -5 -3 3 -4 3 1 3 -5.26823e-64 4 -5.30849e-64 -4 4 -4 3 1 -1 -3 -5 -5.69371e-64 -1 -4 -2 5 -2 -1 3 1 -4 2 5 4 5 5 1 5 -2 -2 -5.30885e-64 -3 4 3 2 -5 2 -4 1 -5.38489e-64 -3 1 5 -3 -3 2 5 -4 -9.50826e-70 -2 5 5 -1.59299e-64 -2.82763e-64 -1 2 -4.99707e-64 -3 -4 -1 1 2 1 -5.50047e-64 5 4 -4 -4 -5.57735e-64 -4 -5 2 3 -2 4 5 2 2 -2 -5 -3 1 -4 -3 -2.01587e-64 -4 2 -5 -1 -4 -1 5 -4 1 -1 2 1 -1 -3 -5 3 2 2 3 -5.19143e-64 -5 -5.38452e-64 -4 5 -3 4 -1.78463e-69 3 -3 -2 -2 -3 -3.29084e-64 2 1 -1 -5.03637e-64 -1 -1 1 1 -1 3 -5.42366e-64 -2 5 5 -5.3078e-64 -5.30778e-64 -5.27001e-64 -1 5 2 -3 -2 -5 3 1 -3 -4 -4 -5 2 -3 -3 4 -5 -4 1 -4 2 1 3 3 -2 4 -5 3 2 -5 -3 -2 4 -5.19154e-64 -1 -5.34606e-64 -1 -3 1 1 4 -3 2 -5 -4 3 -3 -4 2 5 -1 3 3 1 -4 1 -1 -5 4 1 4 5 3 1 -1 -1 3 4 4 5 3 -5 -4 -3 -2.39144e-69 -2.52187e-69 -1 4 -4 -5.03611e-64 2 1 -3 -3 4 -4.96063e-64 2 -1 1 -3 2 2 -5 -5 -5 -1 -3 4 -1 -4 3 3 -4 -1 5 3 -5 -4 -2 1 -1 2 -4 -2 3 -5 -5 3 -1 1 -3 -5.46264e-64 1 2 5 -3 2 -1 -5.19114e-64 -3 -1 -4 3 1 -2.13856e-64 4 -5 -3 2 -3 -5 3 -3 1 2 3 1 -5.07455e-64 2 -5.19094e-64 -5.26851e-64 -5.34606e-64 4 -5.42346e-64 -5 -5.46172e-64 5 -1 -5.11411e-64 1 -3 -5.03679e-64 -4 4 5 -4 2 1 2 5 -5 -3 -1 -4 -4 2 -1 2 -4 -5 5 -5.19152e-64 4 2 1 -1 -3 -5.26953e-64 1 -3 -5 4 1 -5 5 -2 5 -2 -1 3 -1 -2 -3 -4 -5 2 3 -3 -4 2 4 3 -4 -4 -4 -4 -5 1 4 1 1 -3 3 3 4 2 3 -2 -5 4 2 1 -5 -2.78389e-69 3 5 -3.87317e-65 -1 -3.06334e-64 -2 -5.15205e-64 4 -5 2 -5.1133e-64 -5.1909e-64 3 -1 1 -4 -4 4 3 -2 2 3 2 -1 5 4 3 4 3 -1 4 5 5 -5 -2 -1 -3 5 -4 -3 -5.03633e-64 3 -5 -4 -5 -2 -1 1 3 -4 2 2 3 -1 5 4 5 -3 -5 3 -4 1 -5 5 -1 -3 -4 -5 -4 2 -1 -3 -1 5 -3 -3 -3 4 -4 2 -2 -1 -4 5 -2 -4.95907e-64 2 -2 5 -3 -4 5 3 1 -5 -2 4 4 4 -3 4 -2 -4 -5.074e-64 2 -5.07405e-64 5 -4 4 -1 4 -5 -5.45963e-64 4 2 5 -5.07469e-64 -4 -4 4 4 3 -5 -3 -2 -2 -2.77365e-69 -2 -4 -1 -1 -2 2 4 -5 -1 -3 -4 -1 3 2 -4 -5 2 -4 1 1 -1 -2 5 -4 -5 2 1 1 -4.80038e-64 3 -4.68304e-65 2 3 4 2 3 -5 3 4 -1 -4.99682e-64 -5.07395e-64 -2 -3 -5 4 -1 -5 -1 2 -5.42288e-64 5 -5 2 5 -4.88072e-64 5 1 5 -1 2 -4 -3 -5 2 4 4 -2 -1 -5 -3 -4 -5.03526e-64 -1 -5.15145e-64 -1 -5.30584e-64 -1 1 -5.61487e-64 4 -5.61497e-64 5 -3 5 4 -5 -2 -4.80339e-64 5 3 1 4 4 4 2 5 -4 2 3 4 3 1 -4 -3 -5.03559e-64 -3 -2 5 2 5 -5.57705e-64 -1 5 1 1 -5 -4 -5 3 3 2 3 2 -4 -5 -1 -1 -3 3 -2.67029e-69 -3 2 -3 -2 -5 -5 -1 -3 2 -5.22872e-64 4 1 5 4 4 1 5 3 3 -4 -3 -2 -3 -3 -2 3 1 5 -1 5 -4 1 4 -3 5 3 -5.07282e-64 -5 4 1 -1 3 -3 1 -3 3 4 5 -4 -1 4 -5 2 1 -4.72456e-64 -3 -1 1 -2 -3 5 -5 -5 -2.59646e-69 -5 -5 -2.98159e-64 -5.03418e-64 2 1 -1 3 -3 -3 -5 -4 -3 -5 1 -1 4 4 4 -4.84025e-64 5 -3 4 5 4 1 -5 5 2 1 -4 5 -5.80206e-65 -3 -1 -5.14961e-64 5 2 -5 -5.07235e-64 -1 -1 -3 -4 4 4 2 -1 5 1 -5 -2 -5 -1 2 -1 -3 2 -5 -2 2 5 -2 3 -4.64222e-65 -4 -1 4 -2 -4 -2 -2 2 -2 2 -5.22754e-64 -5.30534e-64 1 5 -3 -2 4 -3 4 -1 -4 4 -4.79813e-64 -1 -4 2 -4 4 1 4 -2 -3 -3 -2 4 -2 -4 3 5 1 -1 4 -2 1.43218e-67 -1 -3 5 -1 3 -5 -5 1 -1 -1 -5 4 -2 2 3.33369e-67 -2 -5 -4 5 -3 5 5 1.53815e-66 -2 -4 -3 3 -2 1 4 -5 2 4 -5 1 2 1 5 2.42297e-66 3 4 -5 2.80724e-66 -1 -1 3 3 2 -2 -1 2 -5 -1 -1 -5 -3 4 2 2 3 -4 3 -5 3.84199e-66 4 -5 3 3 2 4.96102e-66 -1 5 -1 4 2 2 1 -3 1 -3 -5 3 1.70729e-66 1 -1 2 -4 -4 -5 -3 -3 -2 2 -1 5 -1 5.11872e-66 -4 5 2 -2 -3 2 1 4 2 -5 -4 -2 3 2 -5 -3 1 4 -1 1 5.22649e-66 -3 -1 5 6.6392e-66 -2 -3 5 -2 -3 -1 5 -1 4 5 -1 1 -1 5 -1 -2 5.28341e-66 2 -1 -3 -2 2 1 1 -1 -3 -5 2 -3 4 4.99237e-66 2 -1 -2 -4 -4 -4 -3 1 -4 6.23582e-66 1 6.02627e-66 -2 2 -3 -3 4 -1 4 -2 3 -3 -3 -3 1 -3 -4 -4 -1 -3 -2 2 4.6237e-66 -2 2 1 -1 -2 2 2 1 5 4 -2 6.34682e-66 6.33557e-66 2 -2 4 -3 5.94299e-66 2 2 -1 2 -5 -4 -2 -2 3 -1 5 1 -5 -2 1 1 4 -1 6.27522e-66 4 5 1 -5 4 5 5 4 2 2 6.507e-66 5 -3 -2 5 -4 -1 -5 -2 -3 5 4 -5 -5 2 -5 4 3 -5 4 2 -1 3 -1 -2 -4 -4 -1 -4 2 -5 1 -4 3 -5 4 -2 5 -3 5 4 3 4 -4 3 5.22155e-66 -4 4.9721e-66 -5 5.77454e-66 -3 -3 5.81487e-66 -2 -1 -3 1 5.60252e-66 2 -3 5.65493e-66 5 -4 -1 2 3 3 1 4 4 5 -4 -2 -1 -3 3 4 -2 -3 4 5 -1 1 -2 -5 5.57557e-66 3 -4 -4 2 -4 5 5 -1 -5 -4 5 4 4 4 5 -2 -3 -1 3 1 4 2 4 -2 -4 -4 -2 1 -4 1 5 5.40496e-66 5 1 5 4 2 4 5.25424e-66 1 4 -5 2 -1 -5 1 2 -3 4 5 2 1 1 3 1 -5 -2 2 -5 -5 -3 -3 -5 -4 -5 -1 5 4 4 -5 -2 -2 4 -4 3 1 -2 -2 1 2 5.19399e-66 4 -1 3.02977e-66 -5 -3 -3 -2 5 -4 -5 2 4.93284e-66 -3 -3 -2 1 -2 5 4.91181e-66 2 -4 4 -2 2 -4 -5 -2 4 4 5 -4 2 -5 1 -3 2.85177e-66 -3 4 4 4 -4 -3 5 4.52892e-66 -5 -3 -5 5 4 -5 3 -1 -4 -2 -5 4 -5 3 2 5 -5 2 -2 1 5.34077e-66 -2 -5 -4 -1 -1 3 -3 -2 3.72055e-66 -5 1 5 -5 3.79552e-66 4 -5 -4 1 -1 2 -4 1 2 3 -5 2 2 -4 -2 3 1 2 2.8931e-66 1 -5 -2 3.79417e-66 -4 2 -5 4.05748e-66 -4 1 1 -2 -5 4 1 -2 2 4 4 5 -1 -3 5 1 -5 2 3 -2 5 5 -3 -1 -5 -5 -4 -1 -4 4 1 3.9728e-66 -3 -3 -1 4 5 -5 3 -3 -4 -5 4.40646e-66 -1 3 -1 4 3 -4 -4 5.20268e-66 3 3 3 -5 -4 5 3 -5 -3 3.67107e-66 -3 1 5 -4 5 -5 -1 2 4 -4 -4 -1 -1 4 -2 3 -3 -5 3 -1 2 1 -1 -3 -1 3 -4 3 -4 3 -3 1 -4 -2 -1 -4 -2 1 -2 1 -5 3 3 2 -2 4 2 4.39502e-66 -4 4 -5 5 1 2 3 -4 3 -5 3.49041e-66 1 3 -4 4.23864e-66 4.34577e-66 4.44413e-66 3 4 -5 -4 -1 5 -4 -3 4 -3 3.76046e-66 5 -5 4 1 -5 -5 4.19699e-66 1 -2 4 -3 -1 3 1 -1 5 -2 2 3 3 4.11683e-66 -4 4 -2 3 -5 -4 -5 4 -3 -3 -5 1 2 -5 -4 4 -2 -2 4.87318e-66 2 4 2 4 -5 -1 1 -1 -1 1 -2 3 -4 4 5 3 4.38858e-66 5 -1 -2 2 4 5 -2 -5 -4 3 -5 1 1 -5 -3 2 4.73393e-66 1 3.94471e-66 4.3235e-66 2 -2 -1 2 4 3 -4 3 -5 5 -2 5 5 -3 5 1 5 5 -1 4.34464e-66 -5 5 4.03282e-66 3 4.22175e-66 2 -2 -4 3 2 3 2 4.32293e-66 -2 4 -1 5 3.85454e-66 4 -5 3 5 3 1 -4 2 -1 2 -3 -4 3 5 5 -3 3 3 5 -1 -1 4 -5 -5 5 -2 4 5 3 5 5 -3 -1 -2 4 3 -3 3 4 3.62826e-66 -1 5 -3 -5 -4 1 4.24544e-66 -1 -3 -3 2 4 -2 -5 -3 -5 -2 -5 1 5 4 -4 5 -2 3 4 4 -5 -3 5 -3 -4 5 -2 -2 4.18546e-66 -2 1 -5 2 3 -2 -4 -4 4 4 4.60639e-66 4.1798e-66 3.86715e-66 -4 1 -5 -5 3.35572e-66 1 -1 -4 4 1 3 -1 -4 1 -5 -4 1 3 3 5 -2 -2 2 2 -1 1 -2 -2 -1 -3 -5 3 -4 -4 -1 -2 -3 -4 -5 -1 1 -4 3 -2 3 1 4 -5 3.83086e-66 1 1 3 3 -5 2 1 -4 4.41992e-66 4 4.48155e-66 4 4 -2 2 -1 -4 -1 -1 -5 3 -2 -3 -4 2 -3 -2 2 3 4 -2 -1 4.17094e-66 -1 -3 -3 5 -5 5 -4 -2 4.74279e-66 2 2 4 -2 -1 5 -4 -3 2.30318e-66 -5 -5 -1 5 -3 -4 1 2.83857e-66 -3 -1 3 4 -2 -4 -2 3.14889e-66 -5 -3 4 -4 1 3.55701e-66 3 -2 3 3 5 5 5 5 -4 -1 -2 -2 5 5 -3 -3 -3 2.08588e-67 2 4 -3 4 5 -2 2.08797e-67 -4 -4 -4 1 -5 -2 2 -4 -5 1 -5 -3 4 -2 -2 2 -2 -3 4 2 3 3 1.40209e-51 5 -1 3 -5 -3 1 3 4 -4 -1 1 -2 2 -4 1 -3 3 -3 -5 2 -2 -1 2 -1 -1 -1 -5 4 -5 5 2 2 -1 -2 1 -2 5 -4 -2 -4 -4 3 2.60005e-51 -3 -5 2 -2 2.72739e-51 -4 1 3 4 5 5 5 -5 3 3 3 1.49489e-51 -1 -4 1 -4 5 -1 2 2 -2 -2 -1 1 1 4 -1 2 3 2 -5 -2 -2 -2 2 -4 4 -5 -2 -1 4 -3 -3 4 -4 -2 -4 -3 -1 -5 2.94771e-51 3 -3 -4 1 2 2.62467e-51 2 -1 1 1 5 2 -5 2 -5 -3 2 4 5 -2 -3 -1 1 1 4 2 2 2.01331e-51 -5 2 -5 -1 5 -4 -5 3.03452e-51 -4 -2 1 -3 -5 2.63127e-51 -5 5 3 5 5 -4 4 -3 4 -1 1 -5 -5 -2 5 -3 2.20903e-51 -3 -3 2.55655e-51 2 -5 3 5 2.94766e-51 -4 -2 -4 -5 -1 -5 -1 -3 -5 5 4 -1 1 1 -3 -3 2.61873e-51 -1 1 4 -4 -2 4 -5 2 -5 -2 4 4 2 -3 -1 -2 1 2.52026e-51 2.50895e-51 5 4 2 2.72371e-51 -2 -5 -1 2.59808e-51 4 -2 2.40293e-51 -3 3 3 -5 -2 -4 -3 -2 -5 -2 -3 1 3 -4 4 5 -2 -2 -5 4 -4 3 5 3 -5 3 -2 -5 4 2 3 1 2.57769e-51 -1 3 -1 -5 -4 -2 -2 -3 5 -1 -4 1 3 4 5 -2 4 2.39926e-51 5 3 2.30704e-51 -3 -1 2.74288e-51 5 -5 -1 3 -3 -1 -3 -1 -1 5 -2 -4 -3 2.86061e-51 5 -1 5 3 -5 -3 -5 4 2 4 2 -4 -5 5 2.39405e-51 -4 -1 -1 -3 5 3 -5 5 -3 3 -4 4 5 2.12204e-51 -2 -3 2.73055e-51 4 3 -2 -2 -2 -4 -2 -1 2.83433e-51 4 1 5 2.50196e-51 2 5 3 -2 -2 2 -2 4 -1 4 -3 3 2 -1 -1 4 4 1 -3 -2 4 -3 -2 -5 2.6779e-51 -5 3 -1 3 2.53433e-51 -1 2 -4 -2 4 -2 5 -2 1 4 -4 -3 -4 -1 -2 -1 -1 2 3 -2 -5 -1 -1 2 -3 -3 2.55604e-51 -1 -4 5 -4 -4 1 -1 4 -4 1 4 -3 -2 -3 1 -5 3 -2 5 -4 3 5 -4 5 -1 5 1 -5 3 -2 2 1 2 -3 5 5 1 3 -2 -4 3 -5 5 -4 -3 -5 3 -1 5 -3 2 -4 2.44802e-51 1 -3 4 5 -1 2 -1 -5 1 2 1 4 -4 2 1 -3 -5 -2 -2 3 3 2.50462e-51 5 4 -2 5 -5 2.34802e-51 5 2 4 -5 2 2 5 -1 1 3 2.5103e-51 3 2 2 -5 4 1 -3 3 -1 -1 1 1 -4 -1 2.46325e-51 -4 2 -2 4 2.43861e-51 -5 2.20255e-51 2 3 2 2 5 2 5 -2 3 5 2 5 5 -4 -3 3.01698e-51 -3 -5 -2 5 -5 1 2 4 -2 1 -5 4 -2 5 -2 -1 -1 2 2.49102e-51 1 1.86343e-51 -5 -2 2 -3 -3 -3 -5 -3 -2 1 3 -1 -1 1 -5 -1 -5 3 -4 -3 3 -4 2 -1 -1 2 -4 1 -5 5 2.38248e-51 -3 -1 -3 1 -5 1 4 2.52476e-51 -4 2 3 5 4 -4 -1 1 -4 -5 1 1 -3 -5 4 -1 4 -2 3 -3 -3 -1 -2 3 -5 2 3 -3 4 4 -3 1 3 -5 -3 1 2 -4 3 2 -4 1 -4 5 1 2.38638e-51 5 -3 2 -5 -3 -4 5 -1 -3 -5 -1 -4 2 -5 2.67994e-51 -3 -4 3 4 5 2 2 1 4 -2 2 5 4 2.67979e-51 5 3.21871e-51 -1 -1 -1 2.33914e-51 3 2.57808e-51 -3 5 3 -4 2.79582e-51 -1 4 -2 5 5 4 1 2.39011e-51 2.50406e-51 -2 3 2.28834e-51 4 -2 -3 -2 -5 2.12273e-51 4 -5 -4 2 -3 1 -4 4 -1 5 5 4 -1 -2 1 4 3 2.40379e-51 3 1 -5 -1 -1 -2 -3 2.17381e-51 3 -1 5 2.28677e-51 -3 -2 -5 -4 3 4 -4 -2 2.3828e-51 -1 -2 -2 -1 2 -2 2 -1 1 -5 2.44724e-51 5 2 5 2.46576e-51 4 -1 -2 2 -2 2.11944e-51 -2 -4 2 -3 2.06691e-51 -1 2 -5 2.23076e-51 1 -3 3 -2 2 2.2951e-51 5 -3 -2 -1 -3 2.55581e-51 3 2.59921e-51 -5 2.64266e-51 -3 -2 1 -2 2.32686e-51 3 4 2 -1 4 3 2.30665e-51 -5 5 5 -5 2 2.3828e-51 -2 5 5 4 1.81709e-51 2.09938e-51 -2 -1 1 4 1 -1 1 3 1 5 -5 -4 5 2 1 -2 2.06651e-51 3 5 4 1 -2 5 -3 1 -5 2 -3 2.01311e-51 4 -1 2 -1 -4 -5 3 4 -4 5 2.72962e-51 -5 -1 4 -4 5 -1 5 -3 -2 2 1 4 -1 2.53442e-51 4 -3 2.46934e-51 2 1 -1 2 3 -2 -1 -5 5 -3 -5 -4 -3 -4 -5 -5 -5 -2 2 1 -5 2.35177e-51 -2 2 2.33375e-51 5 -2 -5 -1 -1 -5 -4 -1 1 -1 1 2 1 1 5 -5 5 -4 -1 4 -4 1 -2 2 2 5 4 -1 -2 5 -1 4 -2 -2 2.62132e-51 3 1 -5 -4 -3 5 2.40437e-51 2 -4 2.1437e-51 1 2.18706e-51 4 4 -2 1 2 -3 -2 5 5 -4 4 3 4 2 -4 2.31751e-51 -3 4 1 -1 1 -3 2 -1 -5 4 3 -5 2 -2 2 -5 -1 3 3 -5 -5 5 -4 4 4 -1 -5 -2 -5 3 1 1 2 4 4 2.62182e-51 3 -1 3 5 3 3 1 1 3 4 1 -1 4 -3 -3 -3 1 4 1.31453e-51 5 -5 -5 5 3 -1 -1 1 3 -2 -3 -2 4 3 5 1 1.22784e-51 -1 1.27129e-51 -5 5 -4 -4 -3 -4 9.03044e-73 -4 -1 2 -5 4 3 -1 -5 -3 -1 -5 1 4 5 4 7.1794e-73 -3 8.30726e-73 2 2 -2 2 -4 9.70492e-73 2 -2 1.19089e-72 2 3 -5 -3 -5 5 -2.32527e-65 -4 -3 5 4 -4 -5 1 -4 3 -3 -1.86127e-65 3 -4 5 5 -4 5 4 -2 -4 3 1 1 1 1 2 3 -4 4 3 -2 1 -5 2 -3 -1 -2 -4 1 -4 -2.91945e-65 -3 1 -4 -3 4 -1 -3 -5.36918e-65 -5 -3 -4.44097e-65 -2 -2 -4 -1 2 3 -5 3 -1 1 1 5 1 3 4 -2 -1 -1 3 -5 -2 5 -2 3 4 4 -8.11162e-65 5 5 2 -1 -2 -2 -2 3 -3 5 -1 2 -1 -5 4 3 5 -2 -2 -5 1 -5 2 1 -2 2 1 -2 4 -1 -5 2 2 -5 -3 -1 -4 3 3 5 -5 -4 5 1 -5 -2 -1 2 -3 -4 -1 -1 -5 -1.86743e-65 -5 -3 2 2 -5 -2 -4 -5 5 -5 5 -4 -5 -2 2 3 1 4 -2 -2 -2 2 -4 5 3 -3 4 -2.71077e-65 -5 2 -5 3 4 4 -3 -3.43402e-65 2 2 -4 3 -2.72023e-65 -3 -3 -2 -2 2 3 -2 -3 -2 -6.25255e-65 1 -5 -4 1 3 5 -3 -5 1 2 -4.23163e-65 5 2 -5 -4.18962e-65 -5 -2 -1 1 -3 5 2 -4 1 -1 -5 4 -1 -3 -3 3 -6.08982e-65 2 4 -2 2 -5 1 -1 3 4 2 -6.90479e-65 2 -4 -4 4 -6.46739e-65 -1 -2 -1 3 4 5 2 -3 -6.59956e-65 4 -2 2 4 -5.49343e-65 -5 4 -2 -3 -1 -2 -5 -2 -5 -4 3 -2 -1 -2 4 -2 5 2 -1 4 2 -4 -6.00911e-65 -1 3 -3 3 1 3 -1 4 2 -2 -1 -2 2 1 5 -1 -1 5 -3 2 5 3 -3 -4 -2 -4 3 -4 -4 -1 2 1 -4 -2 -1 -5 -5 5 -4 -1 -5 5 -5.80086e-65 -3 -4.5307e-65 3 -4.11023e-65 -5 2 -6.05858e-65 -2 -5.80394e-65 -1 1 3 3 -2 -1 -5.8068e-65 -5.68211e-65 2 4 -5.92402e-65 3 -5 -3 -1 5 -5 5 1 1 5 -2 -5 3 3 1 1 1 4 -4 2 3 -5.93369e-65 -3 1 1 -1 -5 -2 -5 4 3 4 4 -3 -1 -3 -3 -3 -3 -6.64287e-65 -6.42913e-65 1 -3 -1 3 3 4 4 2 -5 -1 5 -3 4 1 3 -5 -2 4 3 4 4 4 -4 2 -5 -1 2 -5 -4 -4 -1 4 -5 4 -3 -3 1 -5 -2 3 -5 4 -2 -5 -3 -2 -6.56745e-65 4 -6.40032e-65 3 -2 -5 3 -3 -2 -6.44474e-65 4 3 5 -1 -6.6088e-65 -6.52919e-65 2 4 4 -1 -3 -5 -6.64243e-65 3 4 4 1 -6.52787e-65 2 -1 -1 -6.65233e-65 -4 -6.52479e-65 1 3 -5 -1 1 -4 -1 1 3 -1 2 -6.69367e-65 -3 -2 -5 2 1 -6.05704e-65 3 3 -3 -2 -1 -5 -4 -5 -3 -3 2 -3 5 5 -4 5 -1 1 -5 -2 -2 4 -5 -2 -6.27169e-65 -1 -6.43902e-65 -5 3 2 -4 -6.40208e-65 2 3 -4 -6.726e-65 5 -4 4 4 1 1 5 -5 -2 2 1 2 5 -4 2 -3 -4 -4 4 -1 2 -3 3 -6.40142e-65 3 -4 5 -5 4 1 -5 -2 -3 -5 5 -5 5 -3 -6.61386e-65 5 -2 -5 5 -4 -3 -6.27477e-65 3 -4 -3 -2 2 2 5 -1 -2 4 1 2 1 5 4 4 -1 -2 -4 1 -3 -2 -3 -1 -2 5 -5 -4 -2 -2 3 -4 -5 -5 4 -2 4 4 -3 3 -6.06298e-65 3 2 4 -5 1 -1 2 -5 -4 5 -2 -3 1 4 4 3 -2 -4 1 5 1 -2 5 -4 4 4 4 -6.31433e-65 -4 5 4 -2 -1 -3 1 5 1 4 -2 4 -5 -5 -4 -2 4 1 2 5 5 -4 1 4 3 1 2 1 -6.06232e-65 -3 1 2 -1 5 4 5 -1 -5 3 -4 -4 -5 5 -2 -5 -5 2 5 -2 4 -2 -5 4 -2 5 -1 -2 1 -5 -2 -5 5 5 1 -1 5 3 -4 -2 -4 -3 4 -5 2 -5 5 -4 -1 -1 5 4 2 5 -5 1 -2 -6.23606e-65 -3 -1 -4 -4 -5 -5 -5.98206e-65 -1 -2 -4 -6.27543e-65 1 4 -6.35943e-65 -4 -5 2 -2 -1 1 5 -2 3 4 -3 3 -1 -6.65563e-65 -6.14853e-65 -2 5 1 4 5 4 -4 -1 1 -2 1 -1 -5 -2 -4 2 1 -2 5 2 -2 -5.76304e-65 -1 -3 5 3 -1 3 1 1 -3 3 2 -1 -6.2332e-65 -1 3 1 2 1 4 4 1 2 2 -3 -2 -6.14589e-65 -5 -4 -1 5 2 2 -5.55215e-65 -3 -2 -2 -1 -6.1072e-65 1 5 -1 -2 3 1 2 -2 4 -3 -5 1 -5 5 2 2 -5 -2 2 5 -3 -4 -3 -2 4 5 -1 -5 4 3 -3 -5.93919e-65 2 4 3 1 3 -3 -2 4 -4 -1 -2 -3 3 3 4 -3 5 -5 4 -3 3 -5 -3 5 -5 -5.67947e-65 2 -5 1 -4 2 5 4 5 4 -5 5 -5.89586e-65 -1 4 1 -4 5 -2 2 -5 1 -1 -2 -5 -4 1 4 -3 -1 4 5 -2 3 -5.80988e-65 -2 2 -4 -2 -4 4 -4 2 -5.77008e-65 -4 2 -6.02297e-65 -5.9803e-65 5 3 -3 -5 -5.76744e-65 -5.68695e-65 2 -4 -1 1 2 2 2 1 -1 -5 5 5 -3 -2 1 4 3 -1 -4 -4 4 -4 5 4 4 -4 2 -3 3 2 -1 4 -1 5 -3 -5 1 -4 -2 1 -5 -4 2 5 -4 5 -2 -5 1.24183e-74 -5 -1 3.75511e-73 2 -4 3 -5 -5 -3 -3 2 5 -1 -3 -5 -3 -5 4 -1 -2 2 -4 2 -2 -5 -5 -3 2 -4 1 4 -6.1794e-47 3 4 4 -2 -4 -4 -2 -4 -1 -3 -3 1 -3 -1 -2.13902e-46 -2 -3 2 -1 -5 2 -5 -1 -4 2 -1 -4 2 1 3 -4 -2.6619e-46 1 5 -2 -4 -2 -4 -2 -4.70585e-46 -2 -2 -1 -5.79913e-46 -5.7516e-46 -5.65653e-46 1 2 1 -5 -3 -4 -5 5 5 -2 3 4 -2 -4.94352e-46 3 -1 -3 3 -2 1 -1 -3 5 -5 3 -1 5 1 1 -5 4 -4 -5 1 -5 -3 -5.03859e-46 5 5 -2 -5 -5 -5.41886e-46 -1 -5 -4 -3 2 4 3 -3 -2 -3 -2 2 1 -5 1 -5.03859e-46 -1 5 1 1 -2 3 2 5 4 -4 5 3 -4 -5.37133e-46 -2 -2 4 -4 -5 -2 -5.37133e-46 2 1 1 5 5 4 1 -3 -1 -5 5 -1 -4 5 5 3 1 -5.51393e-46 -4 2 -1 1 4 -4 5 -2 -4 4 -4 4 3 2 -5 5 3 4 5 -4 -4 -5 5 -5 -2 -3 2 4 -5 -3 1 -1 -5 -3 4 -3 -5.65653e-46 -4 4 3 4 -1 -5 -5.03859e-46 2 -5.18119e-46 3 5 -3.0897e-46 5 2 -4 -4 3 -4 -3 -4 -5.70406e-46 -5 -2 2 3 -5 -1 -5 -4 -3 1 -4 2 -3 -5 -1 2 4 -1 -2 1 3 -1 -2.6619e-46 -1 -2 -5 1 3 3 5 3 -4 -5 1 -2 -5.18119e-46 -5 -5 4 -5 -4.70585e-46 2 -6.0368e-46 1 -1 -3 -5.03859e-46 3 -4 -2 3 -5 2 3 1 2 -2 5 -3 3 -5 -3 -2 -1 -2 -5.70406e-46 -5.4664e-46 2 -4.89599e-46 4 2 -4 -4.56325e-46 3 -2 -1 1 -1 4 5 4 -4.18298e-46 -2 2 5 -4 -5 1 -5.70406e-46 4 -2 5 2 1 -6.1794e-46 -2 -4 -5 -5 -3 4 3 5 5 1 2 -1 -3 4 -1 -1 -1 -4.23051e-46 4 -3 3 -2 4 5 4 3 -4 1 4 -5.84667e-46 3 5 -5 3 5 1 -5.18119e-46 -1 4 -3 2 5 -4 -4 2 5 4 -4 2 1 3 2 -4 1 -3 3 -5 -1 4 -4 -4 1 -3 2 1 -5.56146e-46 -2 2 -4 4 4 5 -1 -3 -2 4 3 -3 -1 -1 4 -4.70585e-46 4 -1 -4.56325e-46 4 5 5 -1 -4 4 5 2 5 -2 -2 -2 3 2 4 -4 5 3 1 2 -5 -2 -2 -1 5 -3 -3 3 4 5 1 -1 5 3 -5 -4 -4.70585e-46 -3 3 2 1 -5 1 3 -3 -3 4 4 -2 -1 4 -1 -2 5 1 4 5 5 -1 -4.89599e-46 -4.42065e-46 -5 -2 1 -5 4 1 3 4 2 2 3 -1 -4 -4 -2 2 -3 -3 5 3 5 -2 2 -2 2 -1 2 -2 -3 -5 -4.80092e-46 -5 -4 -1 -3 -2 -4 5 -1 1 -2 -4 3 -4 5 -3 5 2 -3 3 -4 -4 2 -2 5 -2 -3 -5 3 -4.56325e-46 3 4 -2 -4.27805e-46 -1 2 3 1 -4 -4 1 -5.22873e-46 -5.70406e-46 2 -1 2 1 -3 -2 5 -5.13366e-46 -5.08612e-46 -4 4 -3 -4.80092e-46 -3 -3 4 3 -4 -5 5 -5 -1 -4.37312e-46 3 -5 4 2 -4 -1 1 1 -5 -2 -1 -5 4 -3 -4 -3 -5 2 -5 -5 5 -4 2 -5 -2 -1 1 -3 -4.56325e-46 4 -5 3 -4 4 4 2 -3.61257e-46 -3.80271e-46 5 5 1 -5.18119e-46 5 -5 -5 3 -4 3 3 -5 -4 -3 5 1 3 -5 5 1 4 -4 1 -3 4 -2 -2 4 -1 -2 5 -4.42065e-46 -4 4 5 -1 -5.18119e-46 1 4 4 -2 -3 -5 1 1 4 1 -4 -4 -6.08434e-46 2 5 1 -3 2 -2 5 -1 -4.75339e-46 -4 -2 -4 1 -3 5 -5.41886e-46 1 -1 5 3 -5.70406e-46 3 -5 1 4 4 -3 3 -4.84845e-46 4 5 3 2 1 -5.27626e-46 -5 3 -5 5 -1 -4.37312e-46 -4 -3 -4 -3 -4 5 -3 2 4 -1 4 5 1 3 -3 -2 -4 5 -4 -3 3 2 -2 4 -2 5 2 -3 2 -4 -1 2 1 3 2 -2 5 -3 3 -3 -3 4 -2 5 5 -5 -2 -1 4 4 -5 3 -4 -4 -5.13366e-46 -5.18119e-46 -4 -2 -2 -2 1 1 2 -3 5 -4 -3.99285e-46 -3 3 -1 -1 -1 4 1 -2 2 3 -4.56325e-46 -2 3 -4 5 4 -3 3 3 -5 -4 -5 -1 -4 -3 3 3 5 -4 -4.80092e-46 -3.80271e-46 -2 -2 -5 -1 -4 -1 -3 5 -5.22873e-46 -2 2 -5 -4 3 3 2 3 1 -4 4 2 -5 1 2 1 4 -4 -4 -2 -3 5 -2 -3.99285e-46 2 4 1 5 5 -5.32379e-46 3 5 2 -4 -1 -2 -2 -1 -3 -4 2 -4 4 -4 -1 5 1 -1 -4 -5.03859e-46 -3 4 3 2 -4 -3 2 -5 1 5 1 4 2 4 3 -4 -4.99106e-46 1 -3 1 -2 -5 -5 -4.89599e-46 1 -2 4 5 4 -4.84845e-46 1 2 -4.84845e-46 -3 -4 -1 1 -4 -1 -2 -5.22873e-46 3 5 3 -1 1 -3 -3 2 4 2 -4.80092e-46 -4 2 -2 4 -5 -5 4 -5 -4.99106e-46 2 2 5 1 1 -4 -5 2 -5 -5.27626e-46 -3 -4 -1 -5 2 -3 -5 -3 4 -1 -2 -1 3 3 -4.51572e-46 -4.51572e-46 -1 -2 1 -2 -5 1 2 -4.80092e-46 -4 2 5 -1 3 -5 -1 -1 4 -3 -5.32379e-46 -1 -5 -5.41886e-46 2 -5 -4 -1 3 2 -2 -5 -4 -4.61079e-46 1 3 3 2 -5.03859e-46 3 5 -3 -1 2 -3 2 -4.13545e-46 -3 1 -5 -4 1 -5.41886e-46 -5 1 -3 -4 5 -2 4 -4 2 5 2 -5 5 3 -3 4 3 1 5 -3 -4.94352e-46 -2 5 3 -2 -1 -4.18298e-46 -5 -2 -2 3 1 4 -4 -2 -4 1 -1 -2 -1 2 -2 3 1 4 -3 1 1 -1 -4 -2 5 -3 2 -3 5 2 3 -2 -1.85382e-46 
