-0.234144 2.21466 3.40751 -3.35912 3.6864 3.11972 -0.479661 -3.46018 -2.45547 -1.26703 -0.245907 0.942391 1.43032 0.568935 -0.07717 0.795016 1.46876 -1.41731 1.49157 1.07594 1.95487 1.82006 -2.49043 0.815318 3.91507 -2.70035 -1.89512 1.6966 1.43948 2.2005 0.0521565 -1.05646 3.28138 -3.24935 2.0413 0.26716 -2.05385 2.36147 -1.14513 3.05974 -0.728293 -1.01862 0.0477591 -0.101182 3.00568 2.7648 2.56577 -3.63483 -1.1677 -3.10985 2.30752 2.64062 -2.96839 -2.46705 -1.25646 -0.977183 2.13008 3.83875 0.0111033 -0.991465 -1.19285 1.9063 3.275 -1.7444 -2.43817 1.4356 3.90404 2.9206 -2.37752 -2.70843 -2.36587 -2.65441 1.95569 3.87929 -1.40038 1.84766 -1.95573 -0.223471 -0.815642 -2.63284 -0.453609 1.46784 -0.184182 0.480544 1.24856 3.91972 2.82096 -1.29802 1.47776 -3.5687 -1.06935 -3.30683 -3.77587 -2.38275 2.54842 1.82148 -3.14964 3.62923 -1.46824 1.48402 -2.31248 -3.57133 -2.06413 -1.7955 3.9311 0.994156 1.37818 -3.15552 -0.366756 1.38991 0.548214 -3.96562 -0.743571 3.38937 -2.8688 -3.62775 1.09111 -0.598914 0.0109795 -0.158497 3.46262 -3.48275 -3.30915 -0.568653 1.43341 3.99671 0.928991 -3.88704 2.3035 -2.79228 1.87833 -3.3568 0.752375 2.69489 -1.4244 2.56285 1.11798 -1.01676 -0.809474 -3.78107 1.31234 -2.76032 -3.69498 -1.5805 3.71938 -1.59869 -0.216596 1.77678 0.287105 -3.51666 -3.97557 0.903887 2.66674 2.44981 1.28424 3.25864 1.55814 -0.766159 1.53029 -3.3539 -0.277264 1.55711 -2.67523 -3.40711 2.79992 -3.76484 3.5022 -2.1862 3.86697 -3.40438 -1.29336 -2.11721 2.56452 -0.179631 -2.65694 -3.83569 3.15686 -3.81913 3.23001 -3.65063 -1.73684 -0.194802 1.15757 -2.3344 -2.50347 0.136183 -3.80911 2.16256 -1.50094 0.545226 2.82964 -2.33895 -1.86885 -3.06866 -3.36601 1.68673 -0.0786357 -1.80451 0.773592 2.51471 -2.65186 3.55609 -0.204375 -1.44385 -2.61072 -2.53237 0.682097 2.75856 1.20205 -1.92117 0.0605045 -2.41771 -1.25108 2.85078 -2.84812 -3.2945 2.89235 -2.87394 1.76885 0.341451 3.42537 -2.23639 -2.17757 1.76781 1.38395 -1.43428 -1.33557 -1.15325 2.33856 2.37518 3.53566 1.25002 1.4947 -1.3729 0.340169 -3.23695 -2.1071 2.1307 1.38017 -3.56329 -2.76598 0.89368 2.71244 -3.32895 3.43568 2.8833 1.3178 -2.5901 2.57307 2.87342 -3.15233 0.196638 0.998296 3.80275 2.09907 1.14081 0.802672 -1.29157 -3.82593 3.73288 1.55814 -3.56059 1.37405 -2.93263 -3.22305 1.64421 -2.29963 -1.72263 2.14817 -1.04818 2.10012 -1.87346 0.866967 2.19582 2.22573 3.21383 -3.42265 3.20593 -0.553286 -2.69042 3.47807 -2.24791 -1.35428 -3.10765 -1.17131 -0.286975 2.63862 2.59079 -1.15307 -0.549329 -0.206391 3.78944 1.91255 -0.321029 -0.88345 0.67328 -1.61369 3.64245 -1.78132 -0.504869 2.67301 -3.41598 3.81336 0.427302 -1.98619 0.518885 3.47651 0.667427 -3.78443 -0.863685 -0.326721 -3.46173 1.65854 1.47346 3.87836 -3.03713 0.355967 0.291761 2.80436 -2.18415 0.721677 -2.15919 -2.08132 0.679383 3.20722 -0.43799 3.51587 0.662146 -1.1325 -0.485563 1.53592 -1.92481 -0.980538 0.399655 -2.35003 -3.31268 3.30227 -1.35637 -3.73439 3.29645 1.18037 0.0791682 -1.74719 2.94731 0.138399 2.72151 -2.30052 3.82603 -3.68843 -2.00081 -1.56934 -2.10392 -0.555376 0.636292 -0.627201 3.24623 -2.4095 2.7147 -1.54967 -1.52336 1.15106 -0.898493 -3.77023 2.30839 -2.7321 -3.51346 -0.161964 2.73942 -1.17999 2.0419 -1.11878 1.08563 -0.513712 2.99608 -2.57157 0.682403 -1.15527 0.841489 1.41612 1.60004 2.28737 2.03414 -3.94605 -2.78812 -2.82268 -3.24845 -3.96317 -1.92839 3.84983 1.09663 -3.59776 2.70196 1.74991 -0.23697 -3.65803 0.162005 -0.0744974 1.10027 -3.30301 -2.35817 3.32113 2.36293 1.45075 1.39818 3.32059 -2.77925 0.0319289 -1.0803 2.72602 3.66927 3.10862 -0.82351 -2.60412 1.91714 -2.36344 -1.39275 3.64176 -0.80989 -2.40704 -0.493499 -0.313918 -3.96947 -3.3222 -3.17674 -2.00985 -0.672995 1.04364 2.54861 -1.88294 -1.96731 -1.86739 -2.47814 3.50324 -1.50311 -2.64648 -0.0844954 -1.43469 -2.63333 -1.65902 -3.52681 -0.435107 2.34887 -1.0985 1.81935 3.02394 -3.67074 1.34204 -1.56818 -3.02053 -3.56885 3.80677 2.45552 2.92999 3.59679 1.10906 1.4441 -2.15873 -2.16068 -2.2034 -1.68687 3.53177 1.38583 -3.52083 -0.492614 2.04708 -3.12183 -0.343817 -0.823263 3.61643 -2.86726 0.180782 3.17135 -2.97734 2.69453 3.54749 1.41184 -3.73329 -3.47414 0.411942 -0.0104385 1.15007 1.30345 3.45293 -3.78897 -2.10144 -1.01701 2.47251 -0.316999 -2.81597 2.47189 -2.63919 1.78404 -3.00759 2.63794 -0.173674 -3.07687 -2.86187 -1.86616 -1.83341 1.68923 1.90035 1.98091 2.87592 -3.72722 2.04011 -3.87212 -2.0125 -2.07968 -3.09523 -2.2908 -3.06341 2.00327 2.52482 -1.98465 -3.04013 -3.34094 -0.173782 0.609468 2.28617 -3.11368 2.60944 -0.614038 -0.715911 3.82178 -0.214648 0.399647 -0.0630382 0.598098 -1.55122 1.11675 -2.63743 1.77334 -1.0954 -1.10101 0.995032 3.62481 3.18374 1.43025 -0.903552 -1.44351 3.96842 -0.508078 -1.1323 0.6353 2.45635 0.308962 2.46573 -1.32059 -2.32679 1.54071 -3.92889 -2.24052 2.40479 1.86317 3.13374 -1.85614 0.160489 -2.56399 -3.73632 2.66123 -1.47029 1.93057 1.26792 -3.93589 0.732187 1.56424 -2.35873 -0.123643 -2.92422 -3.17647 1.15618 3.44562 -0.952481 1.03101 1.00123 1.82792 1.55614 0.661303 -2.69172 2.78156 2.04814 1.54677 -0.0431805 2.94003 -2.07056 3.65661 0.807066 -1.00897 3.84975 -2.53682 0.609204 3.52788 0.3591 3.70327 -2.68287 3.55772 -1.7175 3.54845 2.4838 0.717292 -1.70109 1.29145 -1.11843 2.31415 -3.75544 1.17812 1.31827 1.1618 -1.90398 0.533667 -0.737793 3.8523 -0.506146 0.168829 -1.70952 3.25663 -1.81506 3.35604 1.0346 3.48164 -2.54775 0.494232 -1.71985 3.03064 -0.0702248 -1.35695 3.20818 2.54325 -2.97746 3.05187 -3.57849 0.834863 -2.18957 2.65511 2.75041 -0.499978 -1.20334 0.847312 1.60719 -3.65657 3.8037 -1.16939 -1.7022 -1.34156 -0.200225 -0.264638 -2.79437 0.956585 -2.14521 3.40252 3.59712 -2.20358 -0.101862 2.32002 2.35071 2.99439 2.70495 0.56603 -0.229616 2.41249 0.435266 2.19626 3.14473 2.30301 3.53164 -3.13116 2.95969 -2.53522 1.93526 -2.00868 -1.07191 2.57523 3.08849 -3.00037 0.81564 3.77867 1.07189 2.12171 2.17017 2.08821 1.49069 -2.72139 -0.988609 -3.35962 2.38795 -2.34568 -3.56084 -0.00238162 1.80962 3.68643 2.17874 1.54172 -3.15435 -0.0908803 1.48895 -3.01321 -1.12992 -2.63858 1.55145 -2.94543 -1.85014 -1.98481 2.72696 3.45572 -2.93202 -3.85366 0.686792 -3.30993 -1.96609 1.58776 1.44466 0.268981 2.72687 3.49855 -1.55311 -1.15244 3.08932 0.863581 -3.67157 1.91091 3.55671 2.45226 2.66982 -3.80236 -0.697009 -3.53237 1.7998 -1.70001 -3.58144 3.21567 -2.28039 0.647611 -0.404369 -1.85053 -2.01625 1.291 -2.1457 0.801462 -2.97422 0.364423 -2.62936 2.11351 2.42503 1.8679 0.590829 -2.17447 -2.50991 -1.85682 3.70529 3.09032 2.75098 -1.38687 0.118294 3.83313 -1.48304 2.98728 3.42729 3.952 0.118171 3.09209 0.348786 0.962 -2.27032 -1.48564 -2.58356 0.713329 3.6097 2.33314 0.86533 2.74752 -3.06042 -3.2038 -1.64844 0.202198 0.695056 1.2918 0.184668 2.09763 0.365903 2.17966 -0.988523 3.30234 -0.523155 -3.0069 1.39604 3.21732 3.54357 3.647 -0.588004 -3.9615 -1.52269 -3.0341 0.889354 -1.52435 1.79547 -2.57198 2.58435 1.09854 -3.8324 -2.70228 -0.0343858 -3.48942 1.90586 -1.72734 3.63161 2.70169 1.8427 0.00330811 0.982178 -3.76912 -2.27687 -0.142312 -1.52867 3.4714 -3.66674 0.277073 -0.735987 1.76251 3.2909 0.356487 1.61791 -1.01484 -1.08466 1.82341 -1.75537 -1.88867 2.38394 -2.682 0.678274 3.26127 -0.356038 0.495101 3.79859 -1.69759 -3.49376 -2.58119 2.31652 -2.76529 -1.57706 -2.25422 1.5457 0.57586 -3.31183 -1.49012 0.0369183 -3.39681 -1.81246 -1.77038 -0.523854 -0.455269 -0.527196 -1.54954 2.8093 -3.58512 1.21864 -2.80414 0.122209 0.0320688 3.89296 1.36946 1.4736 -2.53128 0.330981 -3.22104 -1.39263 -0.995433 -3.54299 0.821339 1.48002 2.46304 1.93746 1.67265 1.77939 1.19066 -3.07873 -0.60306 -3.60714 -1.27115 -1.85621 1.63335 0.540972 -1.88244 3.18234 -2.0147 -3.15821 -1.51261 2.17036 -2.50739 3.43844 -0.22644 0.401173 3.39679 2.9422 3.26811 -0.382437 1.72859 -3.66459 -1.97928 3.08813 3.16251 1.93163 -1.5069 0.660282 2.28223 3.88852 -1.26205 0.68342 2.91332 -1.73869 3.57371 -2.24499 2.20242 -0.23241 -2.40542 -0.369939 1.45158 -0.40933 3.42138 -3.53504 2.75528 2.91934 -1.54156 -3.63913 -0.788028 3.75609 -2.93087 -2.0574 3.21985 -0.360524 -0.595898 1.02895 2.13388 0.244674 3.23944 -1.94962 -0.703831 3.93363 3.58027 2.38554 -1.72734 2.36602 -1.30579 3.70126 3.48856 -3.96345 -0.765426 1.24977 -2.74004 1.59571 -1.67013 -0.702233 1.83903 -2.75873 -3.34856 1.7847 3.66888 1.35354 1.59998 2.34846 2.17882 -2.06329 -3.30435 3.54865 0.789598 3.6115 1.90322 -1.56614 0.303134 2.77288 2.30604 -1.09938 2.53608 -2.58689 -3.75846 0.257507 -2.40555 1.04713 1.54305 -0.318445 2.29859 -2.55684 1.07423 3.38198 -2.56042 -1.24218 -3.61125 -1.30601 -3.81137 -1.70149 3.70851 1.54286 3.76915 -3.16394 -0.53672 -0.622431 0.699148 -1.36524 -0.332185 -0.650365 -2.80099 -3.79028 -2.2928 -0.410283 -1.47937 2.29064 3.37495 1.14072 0.0878054 3.00197 -0.181858 -1.24422 -0.65774 -2.91304 -3.45925 3.41583 -1.2434 -3.06419 -0.562033 3.3332 -3.42337 -0.348971 3.96331 -0.0371997 3.00051 1.46768 -2.52829 3.11101 1.18511 1.79136 -2.54714 0.963934 1.69066 2.78376 -2.659 0.623046 0.683639 3.12397 1.91101 0.109643 3.98452 -0.46255 1.46063 -3.38679 -0.402978 0.624783 -3.18566 -2.54227 2.23303 1.38506 2.83802 1.17636 -0.701636 -0.679549 1.3217 -1.04711 -3.66105 3.88959 1.3824 -3.90267 -2.82427 3.37059 -3.46608 -1.37971 -3.79936 2.50873 -3.36903 -2.21263 -3.38989 2.94836 2.16379 -0.705176 -3.94886 -2.97193 3.45 -0.0814233 1.14941 3.00633 1.62665 -1.71888 -0.672656 -1.8702 -2.83154 3.44745 -2.69357 -1.1082 -3.41657 -1.80596 -1.8522 -0.775504 0.18648 -0.0558096 3.51849 1.06837 1.06718 2.07557 -2.65908 -3.9444 -0.751727 -2.7415 2.58751 3.27481 -2.90895 3.61576 0.279144 2.20458 -0.0917132 2.90577 -0.782625 1.58786 -1.21424 0.179795 -0.0234946 0.386003 -3.53961 1.73855 1.30079 -2.13123 0.0882193 1.68043 0.269013 1.72794 -3.21504 -0.685389 -3.02709 -0.466236 -2.05467 -0.949909 -3.99699 -3.96588 -3.51559 3.29935 3.03875 -2.00916 0.314146 0.925306 -1.4712 -2.84118 3.39901 -2.57384 2.28289 -2.29588 -2.44749 -3.11404 -2.81058 -3.20679 3.09494 -0.401063 -2.77574 2.70927 2.85845 0.917907 -2.42111 2.50546 -2.16054 3.11585 0.969326 3.77364 -3.28757 -1.84914 2.93631 0.0645734 -0.105838 0.377472 3.22711 3.27569 2.62287 1.84638 2.59401 3.60401 2.28557 -1.50722 2.59612 3.56192 1.04995 -1.5059 -3.32166 -2.59805 -3.24315 -1.00902 1.59721 -0.730723 2.65728 1.3029 -2.01232 -1.93977 2.85918 2.41432 -1.3352 2.30499 3.35715 -2.20029 -3.90845 1.85942 -0.951357 -0.166986 -0.941731 -2.47608 1.97673 -2.26255 2.70312 -0.553268 -2.88292 -3.67268 -3.96052 0.310017 0.249382 2.44213 0.154141 -0.282984 2.82649 -3.82636 -3.45535 3.30091 -1.47756 -3.53799 3.04559 0.545589 -1.85751 -2.94642 -0.935525 -1.50261 2.81168 -3.74505 -2.14557 -0.783495 -2.84762 -1.42654 3.06585 1.74457 0.141243 -0.336152 2.77451 0.92858 -0.281698 3.91043 -0.76936 -3.32041 -3.68616 1.67806 2.73587 -1.29371 -3.74698 0.542464 -0.410434 0.396303 1.23318 -1.24275 3.49075 -0.890442 2.11721 -1.82766 -3.46231 2.35734 -1.4527 1.37484 -3.62827 -3.05643 1.25664 1.00923 2.58595 1.27881 -0.805105 0.346813 1.93249 -0.576685 -1.56318 3.00315 1.42448 -3.4737 3.88089 0.513885 -0.912369 1.39025 -3.87704 -3.29229 3.28706 0.405756 0.299571 1.99803 0.0301506 -0.42249 -3.5611 3.05988 2.50903 0.145822 1.96873 0.751115 -0.624731 -0.51097 -3.08193 -3.69477 -1.19375 -2.36148 2.13714 -1.22055 -0.65043 0.0303919 0.604694 -0.926512 2.03362 1.45706 -1.28696 -2.59156 2.59882 0.883617 2.97303 -0.29606 3.35101 -3.01839 -1.22738 -3.09932 0.063031 -1.27366 -0.969379 0.579479 0.979799 -2.08298 2.8883 2.39224 -1.24898 1.531 -0.658487 2.53908 -1.62221 -2.446 -0.750382 2.18177 3.31521 -0.933091 1.94228 -0.895812 1.05952 1.63192 3.10015 2.30122 -2.86188 3.01276 3.53632 -3.68396 2.56195 -3.59066 3.34626 0.0822451 -0.203238 -1.93451 1.40071 0.564303 1.6638 -0.144884 -0.755098 -3.12462 0.950022 -2.94501 0.397906 1.94234 3.24278 -2.21709 -0.624757 3.70408 2.90769 2.43155 -3.96205 -0.988199 1.96798 3.06473 2.28598 -3.49088 -2.38115 -3.94939 -2.11921 -1.17287 -3.90111 2.11153 3.84651 -2.55942 0.816872 -1.90388 -1.09074 -1.56803 -3.11981 1.25953 1.95725 1.19722 -2.80087 2.25714 -1.42116 -1.09915 -1.99157 0.453022 2.72932 -2.31558 1.17653 -3.9796 -0.819093 1.78371 3.20154 -1.68649 -1.57762 3.1061 -3.88393 -0.0457776 -3.3992 1.73696 3.17833 0.849577 3.49375 3.80256 -1.70643 -2.46923 -1.14675 1.28143 -2.7097 -3.01977 -3.23353 3.55213 0.230079 -1.39096 -3.98529 -3.89484 -3.65179 -2.61579 3.99616 -3.88633 -3.25464 -0.427632 3.68109 1.0069 -0.629126 2.71389 -2.55076 -3.01732 -3.41505 -3.64019 -0.715621 -0.21746 -0.194718 0.11988 -2.00913 -2.65262 -1.30367 -1.76373 -1.83954 -2.86132 1.76118 0.40899 2.20286 0.362959 -0.790247 -0.416743 0.697525 2.21807 -0.850209 0.777888 1.20409 -2.80946 -3.62671 -1.47086 -1.9651 -1.05584 -3.59153 3.82318 3.94262 -3.7132 -2.70389 2.75416 0.840322 -2.65238 -0.898656 1.07943 1.80991 -0.0183509 -1.60729 2.86211 -1.18239 -1.77245 0.149186 1.59468 3.74468 -3.67765 0.809699 1.64996 -3.82082 0.339715 -3.01418 0.837793 2.31856 2.10215 1.90689 -1.19628 -2.78815 -0.134028 -0.734918 0.059488 2.08239 0.669953 -3.83032 3.86863 -3.16213 -3.91092 3.19188 -1.99113 -3.81455 -0.524763 3.19303 -0.652936 -3.99133 -3.41306 3.89202 0.624284 -1.62134 2.48588 -2.92355 2.25111 -3.02229 3.36169 -2.63264 1.10674 0.85367 -3.06433 3.31611 -0.763769 -1.55741 -3.37799 1.90882 2.21069 -3.92694 -1.2216 1.23533 2.00245 -1.23607 3.38637 2.26653 -0.470886 2.16997 3.54403 -0.548549 -3.97443 -3.43041 -2.82133 -1.28778 -0.967936 -2.87047 -1.87825 2.53181 0.58897 -1.52639 -3.59414 2.89699 0.0315383 3.05066 -1.48625 -1.78431 1.64986 1.87873 -1.71168 1.86975 2.07943 -1.77769 -0.612122 3.8746 -1.00141 2.64679 3.36274 1.18839 2.63338 2.43028 -2.33415 -0.716572 -0.348222 -1.60753 1.55077 -3.81944 2.66132 2.81345 1.4596 -0.832521 2.0736 -0.00539602 2.11821 1.74426 3.10507 3.51919 -3.4092 -0.618391 2.44613 -2.24182 -1.31049 -1.93613 -3.99049 -2.31607 -1.39818 -0.880253 1.56082 -2.4594 -3.57964 1.3341 0.572687 -0.102464 1.15461 3.03588 -1.34921 -2.82454 3.9582 -0.0132232 0.679179 1.97325 -0.731962 -3.18729 2.59292 3.1723 2.37908 0.0901519 -3.16736 1.15146 3.18217 -2.50123 2.85362 3.54648 2.1566 1.34726 -0.737091 0.270472 3.71275 0.128203 2.25983 1.58533 -3.1702 1.08974 -1.10549 2.43349 3.15225 -3.40145 3.09446 -3.42981 3.87786 -2.29183 -2.55354 2.11352 -0.52998 -2.66573 -0.657701 -3.67077 2.31772 -1.81073 -3.36582 3.34296 0.41695 -0.661628 -2.53682 0.810402 2.65354 -1.74289 2.51877 2.72634 -2.97711 0.600505 -1.6385 0.243034 -1.56908 3.6266 -3.54659 2.42584 -3.98412 -1.43557 -1.55846 -1.68094 -1.11282 -0.377892 -0.551721 3.0164 1.49977 1.85548 -1.582 -0.399582 -2.75336 0.748804 3.32307 -2.24902 -3.63813 -0.381648 1.01523 0.849096 0.801381 1.45007 2.41838 1.69299 -3.6347 2.7044 -0.392226 -0.52115 1.03995 1.66638 1.77796 1.38744 -0.681937 -1.06888 3.99949 0.814514 -1.53019 -1.03403 3.68502 1.46826 2.02946 -0.704836 2.64156 2.12414 -0.224464 2.22431 -0.0972468 0.291448 -0.864361 -3.98309 -1.828 -3.02608 -1.72815 3.70595 -2.63124 3.1062 -0.0140219 0.39674 -3.24897 -1.83801 1.94746 0.779395 1.03181 -0.381717 3.54385 -2.72702 -2.59274 -2.7527 -1.2496 2.46557 2.52421 -2.84642 3.29176 0.28951 2.14066 2.94077 0.355038 -0.792264 -3.69902 3.17818 -0.34078 -0.454579 -2.33563 3.99022 -1.85062 -1.16348 -3.7537 1.40034 1.93228 -0.856572 -2.466 3.05222 -0.127902 1.43572 -1.04385 -0.0600794 -0.0492911 -3.44317 -2.9283 -3.69848 -3.78759 1.77542 1.16103 1.40423 -2.56904 0.0988104 -0.45085 3.81803 2.83631 2.82929 1.51828 -0.459061 1.39222 2.97931 -2.75707 0.164509 3.2722 0.724977 -1.45529 -3.26519 -2.30026 -2.18846 1.25692 0.736577 -2.99314 2.65623 0.705154 -3.70282 -2.67304 -0.159145 3.5466 2.33406 0.925374 3.89782 -0.730927 -2.94973 0.869622 -0.726526 3.46485 1.64939 1.71195 3.73191 1.26547 -3.30176 1.24795 0.399654 3.23425 -2.77636 -1.14104 -0.437947 1.62165 -0.512249 3.19195 3.3025 2.36887 -2.95882 -3.92408 1.44352 -1.83678 1.7622 0.382786 0.452611 2.65192 -3.09285 -3.62243 -3.15144 -1.12764 1.66997 3.62197 0.098621 -3.6664 -0.500483 -1.80868 2.2804 0.677187 0.329228 -3.63988 2.15922 2.32217 -3.68917 2.76636 -3.17364 1.1543 2.60235 -1.06137 -3.73212 0.533158 1.46816 -1.18466 1.2943 -2.06087 -1.44917 2.2302 -1.83882 -2.43095 -2.64879 2.35247 1.06346 2.13649 0.782138 1.29121 -3.45085 -3.40949 1.15938 2.30552 2.7722 -3.39273 1.72579 -1.2031 0.298742 -0.196636 3.45261 -1.27165 2.79219 1.13893 1.76718 -2.10566 0.97283 -1.50042 -3.19322 3.06168 0.187226 2.29356 2.13964 0.348529 2.20827 -2.58188 0.368509 0.290923 -2.93535 -1.89609 -2.63876 -0.158428 0.825818 2.12205 1.35791 -2.37312 0.969295 1.37216 0.762609 -3.10008 -2.82947 3.61199 2.19531 -3.66854 2.56225 -2.16542 -3.12338 -3.87389 -1.31871 1.34281 -3.83538 -0.924935 0.424771 2.11354 3.61848 3.58729 0.412042 -0.262476 0.618011 3.39518 -0.977035 -1.82312 -2.06298 2.76186 -0.863109 -1.99424 -2.49553 0.875469 2.98659 0.624625 -2.38272 0.718826 -1.65969 -1.21828 -3.52619 3.90086 -3.90811 -0.875346 -3.60712 1.60516 -0.661201 1.98496 0.919899 1.50911 2.07167 3.10127 -1.12589 -0.41493 -3.99259 0.250371 3.22983 0.332893 2.33881 1.26356 3.41816 3.99983 2.03747 1.54267 1.11463 -3.74985 0.972448 1.44616 -1.65718 -2.83252 -3.19132 -2.81211 -0.473912 -0.594669 0.496261 2.54012 2.40867 0.718306 0.624772 -3.38457 1.88362 -0.764708 -1.87003 2.69467 1.78752 -1.88496 3.30806 0.968182 2.97225 -3.92042 1.36428 -1.41422 0.700807 -0.454283 3.07606 1.38585 0.822264 -0.271813 -2.71767 0.91769 2.76783 0.774189 -1.02731 3.93199 -2.20519 -1.89762 0.12826 0.134933 1.92756 1.57121 -2.55917 1.64567 0.869519 -2.2385 0.0677673 -1.22469 -2.57436 -1.63693 0.511224 0.304239 -0.918653 2.8146 2.78968 -0.335742 0.651357 -2.76133 3.3843 -0.849468 -1.10067 2.93274 -2.84106 2.97055 -0.65579 -0.133531 -1.95471 2.41149 -2.10359 2.52767 3.40353 -1.41629 -3.87666 2.06217 1.83069 -0.532876 1.84682 -3.88457 -3.95683 -1.30792 -3.99211 3.28033 -3.3578 -2.32366 3.34038 2.46931 -3.77145 2.11835 -2.75713 -2.71011 2.63569 1.56806 1.81321 0.100415 3.923 -0.85638 -1.55628 -1.50574 3.12209 2.66683 -2.5163 -2.3004 -1.28301 -3.58366 -0.813548 3.03824 0.853619 3.25781 2.22192 0.977329 2.38973 2.86734 -2.69822 0.922683 -2.65908 -2.20473 -0.777918 0.228092 3.39299 -0.232525 2.19357 3.98624 1.16348 -2.74081 0.725958 0.683989 1.54638 3.09104 1.1881 -0.5016 -0.287685 -2.10524 -3.0348 2.48616 2.51068 -3.10499 1.81544 3.04798 -2.17261 3.33268 3.74272 -3.98543 -0.734646 -2.02114 -2.31696 3.882 0.884073 -2.14206 -0.291917 3.23687 1.0187 -0.829797 1.41472 0.52556 -3.7088 -2.65879 -0.34457 -2.85888 -0.728422 0.881812 -3.44294 1.34735 3.63696 -1.46269 2.8259 2.01667 3.61675 -1.07748 3.84362 -1.20407 0.960018 1.04122 3.98465 -0.507015 -1.06062 3.9009 0.512163 3.74025 -3.95451 -3.81094 1.37791 2.52752 0.761992 1.2916 -0.628202 0.343495 -0.521301 -2.68895 -2.18432 -1.21263 -1.02956 -3.83528 -3.29579 -1.45333 -0.51543 -1.6063 3.71404 3.27025 -2.14619 -1.20084 1.94068 -3.43091 0.816698 -3.75277 -2.47281 2.64566 -2.27827 2.98667 -3.88569 0.471404 -1.07202 3.19342 -0.150755 1.11055 -2.71872 0.805688 -0.0629946 3.76354 2.92765 -2.82184 1.4421 -2.99868 -2.19847 0.114525 -0.818926 -3.15607 -2.27727 -0.818667 -0.547125 -2.0255 3.72054 -1.92682 1.51842 -2.24337 -3.90466 -2.11612 -2.77091 -1.80015 -1.02084 2.72797 0.118658 -3.71089 0.506658 0.923662 -1.49888 -2.47207 1.17299 1.41193 -3.18516 -1.57423 -3.97523 3.29327 1.47047 -3.88383 -1.66866 3.09088 3.98466 3.53516 0.238575 -1.99375 1.79149 -0.609907 -1.82787 -3.84764 1.53466 -2.95703 2.17183 1.90192 3.55268 0.504952 3.46312 2.4619 1.9585 1.97721 1.5879 -1.61976 3.26869 -0.00149674 -0.120991 -0.270743 -1.00208 3.12699 3.99069 -3.01565 3.66491 3.15258 3.14819 2.61666 0.662876 -1.90413 2.57538 -2.89588 2.72223 -3.49181 -3.05596 -2.41571 1.1866 -1.21127 0.371711 -1.91891 -1.16366 1.08747 0.990612 3.71763 -2.12089 -1.17538 0.210209 -2.49593 -2.61374 -1.54026 -0.0520753 0.217093 -2.00113 -3.4385 3.95615 -0.743353 0.783104 -1.19589 -1.07597 -1.29783 0.714276 -3.77345 2.24069 3.55154 1.31132 -2.08104 3.86533 -2.54631 2.90297 2.43203 -0.509163 2.38653 -0.49165 3.81595 -3.84098 3.03625 -1.54523 2.63514 -0.468439 -3.36901 2.08133 -1.06641 -2.59453 3.44916 -2.62203 -0.216025 -0.795223 2.32649 -1.05569 -3.55619 2.71587 -3.97961 0.523197 3.74045 -1.03417 1.98391 -1.22808 -1.53131 0.445175 -0.563089 3.63615 2.79514 -0.910796 0.33972 -0.049627 -1.19649 -2.3152 -0.25587 -0.881206 -1.2599 1.85845 0.863635 2.96355 3.21546 1.75051 1.62068 0.488211 -3.90805 0.724817 -1.2557 -0.716073 2.26942 2.73178 0.727463 3.70928 0.278831 -2.67014 -2.80779 0.374538 3.25376 3.65592 -0.490698 3.91941 -0.724928 -3.54225 0.599128 -2.97491 -0.497228 -3.29313 1.77933 2.61123 0.0195935 -1.62865 0.797373 1.54287 3.8569 -2.3111 0.344601 0.34435 -2.34621 3.74811 -0.734993 -3.88375 -3.46557 3.61811 3.33216 0.896308 3.31013 1.50374 0.212789 3.27898 0.889855 2.05418 -0.406004 3.45197 -3.41647 2.29058 1.09207 1.90015 2.01436 -1.74818 -3.80806 2.43108 3.2013 -0.40253 -3.54059 -2.28995 -1.98274 3.91882 0.173869 -1.13492 3.34634 -3.64116 3.68927 3.06827 2.15978 2.06159 3.25935 -3.9851 -0.535675 1.51428 3.69648 0.0341237 -0.108107 -2.77005 2.17562 2.11251 3.86913 -3.65661 3.87841 -3.84442 1.08805 -2.63807 1.86363 0.978211 1.82309 -0.620626 -0.659801 -2.50622 2.89276 -0.629975 2.40362 -1.34564 -3.07772 -1.31685 1.98905 2.38637 2.0621 -3.17779 0.180863 -0.461892 1.08375 1.42924 -0.345561 2.95204 -0.47177 1.05833 3.74951 0.923446 -3.70494 -0.738706 -2.11779 -0.112005 2.82884 -3.02819 0.684028 3.44046 1.82736 -3.0451 2.5296 -1.5615 1.6983 -0.448212 -0.52081 1.77198 1.67516 -0.848861 3.25593 -3.8758 2.29775 0.553147 1.43315 -1.63407 3.01058 1.7079 3.5243 0.286089 2.50337 0.325209 3.19823 -2.88309 -0.499945 -2.28287 -1.36308 1.62564 0.985341 -3.9389 0.768475 -0.16203 0.539795 3.02485 1.38934 0.465306 2.45504 -3.12014 -1.86418 -3.26685 2.98014 0.646591 -1.44873 -2.77579 1.45144 1.32253 -3.16759 1.71672 -1.09946 3.58668 3.12784 0.671326 -0.0431838 1.26465 -3.9156 -1.34192 -0.114981 -1.0808 -2.04336 -3.35733 0.401919 -0.527195 0.494293 -3.80668 1.85922 -0.636186 2.07257 -1.54957 -0.550813 -2.92176 -2.58462 1.94026 3.33883 -0.574104 0.951972 1.67148 -3.67375 -1.45964 -1.74527 -0.255202 -3.66555 -0.294833 -2.05462 3.46857 -1.7047 -1.9006 0.108581 -2.31525 2.43881 -0.555736 3.9872 2.70803 0.271019 3.24751 1.64858 0.0471937 2.92916 2.41644 -0.311281 2.10772 -3.62919 3.07196 1.80032 3.76967 3.4165 -1.98654 2.60566 -0.858004 3.64712 -0.851116 1.02053 -0.415645 0.998213 -2.18854 -1.96351 2.48873 2.36367 0.918144 -0.313522 2.57378 3.88009 -3.12005 -1.4795 2.30262 -3.55373 0.702168 3.85782 2.82259 -1.92687 1.75496 -1.18739 2.06996 -2.32866 2.60064 -3.79005 2.85309 -2.47261 -3.73346 3.37104 -2.29492 -3.03452 3.6808 2.11907 -0.82559 -2.67528 -2.03123 0.926443 2.97735 1.52444 -0.760233 1.26633 -2.4499 -2.11127 -2.22504 -0.908648 -1.26189 -3.9242 -0.0540981 0.521792 -1.94691 -3.04646 2.09328 -0.951581 3.50777 2.26678 -0.22435 2.46092 0.911063 1.76108 2.53154 1.58111 -1.16784 0.239425 0.3542 -0.922063 -0.0610919 -2.0262 1.13904 -3.00033 -2.25689 -1.46958 3.34517 -1.48241 1.99885 3.62598 -3.85837 0.616867 2.5335 -2.96557 3.95899 -0.111129 -2.67289 -1.81617 1.79075 -1.7473 -0.61821 0.578591 1.36123 -0.17809 3.42523 0.135571 -1.60551 -3.02527 1.44719 1.37635 1.76273 0.46849 -1.12546 0.472691 -1.69526 3.88956 1.85073 -2.74226 1.5299 -1.4746 -1.6363 1.4533 -1.31475 -1.96692 3.98376 -1.14815 0.158395 1.90004 -3.05327 3.51388 -3.09524 -1.96916 1.86111 -2.05396 3.39485 -3.50575 -1.53134 3.00894 1.2223 -3.87487 -3.7702 -3.14345 1.24348 0.908216 0.816988 3.62266 -0.627909 -0.0421578 3.97009 2.05356 2.36807 2.80882 -2.12209 -2.52057 -0.38982 -0.84791 -0.679762 -3.56441 1.03506 -3.7055 3.73078 3.95629 -3.48211 -1.14241 -2.07501 3.11357 -2.97911 -0.570808 -2.11022 3.90592 -1.61871 -1.37055 -0.89274 1.62289 0.32517 0.490054 2.26293 -2.64495 -0.936438 -3.42709 1.46515 3.30912 0.327082 -1.93287 1.82679 -1.47618 2.26847 -2.89214 2.74926 2.48432 0.602672 2.12475 -1.11212 2.61102 -3.92477 -3.34319 3.64069 0.393761 -2.9967 0.284623 3.77311 1.21982 1.14479 -3.08573 3.28157 2.84146 1.17417 -1.10012 0.418831 -3.9013 -0.682574 -3.19579 -1.95186 -1.08539 2.38115 -2.38851 -2.74308 -3.28647 -0.524383 -3.63232 -1.74966 3.26028 -1.51757 -1.18419 2.40778 1.44579 -0.499772 0.514589 3.60057 -1.14827 0.281025 0.788386 2.93734 -3.57549 2.43679 -2.7954 -1.69698 -1.71807 3.44827 0.271823 3.35938 -1.13825 -2.43135 3.16961 2.73312 3.8205 -0.653541 -3.76022 -1.73927 -2.33746 0.952329 0.59538 -3.99907 -2.87432 2.00947 2.44047 1.63651 2.06019 0.285514 0.762845 1.37002 2.21947 -0.312862 1.06053 -1.93645 1.98099 3.7798 -0.692751 -0.00912871 -1.11606 -2.73577 3.76727 1.98051 -0.168493 -1.07493 -3.38779 2.3383 2.87064 -3.94056 3.83361 2.68089 -3.72008 -1.03289 -1.57615 -2.66128 -0.0373975 -3.08869 3.81953 3.10414 -2.48067 -2.79326 3.80675 -1.86917 -2.70641 -2.93711 3.26899 -3.77957 2.58628 -2.88404 3.45548 0.378675 -2.5578 -3.21686 2.84594 -2.06858 3.90375 -2.37637 1.94876 -3.06693 2.59484 -2.65164 -3.79609 3.00513 0.70115 0.412093 1.78615 -3.84951 -3.77512 2.51551 -1.57638 -1.63482 -2.16988 -2.54507 -1.8354 1.86252 0.229791 3.10074 -2.76183 -1.77986 2.72207 2.41982 -1.01755 0.234452 -1.04783 2.58162 -0.85855 1.4185 -2.40299 0.147442 -1.81389 0.786109 1.15348 1.94456 -3.887 -0.629838 3.64988 -3.12954 -3.77378 0.965871 3.7345 -2.38201 0.264523 -2.951 3.57296 2.42495 0.633012 2.39261 -2.91525 -1.93334 0.263301 1.86903 3.39298 -2.90525 2.36397 3.14681 -1.44927 -1.62378 -3.37667 0.0924605 3.14825 2.33896 -1.55783 3.06445 1.95256 2.6838 1.6641 -1.05113 1.71246 0.469107 3.05631 0.98656 -2.99825 -1.29707 -0.201153 -3.85258 -3.65822 -0.242735 -3.19667 -0.491345 0.218085 2.14316 -1.08584 -2.42047 0.600876 3.95904 -0.0310548 1.09147 -3.7631 -1.64023 3.90653 3.70468 -3.14594 0.0735137 2.88839 -3.08077 -2.33286 -0.491958 2.16709 -2.75584 2.5359 -3.92561 -1.40304 -0.920964 -3.12566 -0.368861 3.10724 -1.335 2.96903 -3.03553 1.55399 -1.5455 0.741019 1.14327 0.603627 1.08202 3.37131 2.09484 -1.20129 0.473202 0.0395767 -1.28388 -2.98441 1.17494 -2.74454 -0.758481 1.80051 -3.72922 -1.16503 0.207245 0.654029 -1.03286 2.30891 -3.79161 1.82248 -0.336368 2.17015 -0.0704538 3.50199 0.639192 3.20936 1.08787 2.98648 -0.312685 2.93226 -3.20784 0.901091 1.40355 1.54744 3.19763 1.94302 2.71955 2.79112 3.16075 -0.98348 2.87762 -2.74581 0.536709 2.70022 -0.699232 -2.27274 -3.23933 -1.24879 0.264964 3.14904 -3.62466 1.94669 1.44928 -1.83832 0.190416 -1.73561 0.226229 0.00752112 -1.62017 -0.442705 -3.24983 1.26802 -3.82905 -1.23596 -3.66677 -0.360798 -0.127147 -3.24019 -1.07846 3.8672 -3.86453 3.46874 3.32637 0.926824 0.231399 -3.67304 0.409474 3.6081 2.70617 0.119132 0.494512 -1.86528 1.48272 3.50418 -2.80747 -3.0822 3.94894 2.11923 1.71628 2.86243 -2.76362 2.36854 -2.5436 -1.11114 1.09364 -2.8278 1.44225 3.48953 -1.28928 3.33216 -3.0754 1.76634 -1.3631 -0.720979 -2.27302 0.0880068 3.00144 2.40366 -2.33478 0.432705 0.0926269 -3.43509 -1.25169 1.66036 -2.43441 -3.45655 3.20006 3.8599 -1.09509 -0.969089 0.870054 2.3784 0.933093 -2.31339 3.3154 0.903618 -1.08452 -2.90337 0.567103 -0.904443 -3.02717 3.30643 -2.0221 3.6936 1.85454 0.473368 -0.959567 -3.79918 -3.45037 1.28918 2.80657 -0.324908 -3.8908 -2.70675 -2.91303 2.80444 -1.72236 0.242075 1.04222 0.437885 -2.83714 1.90219 -3.92027 -1.08166 -0.152177 -0.686451 0.668603 -0.163518 -3.72399 -0.373192 2.9481 -2.73947 1.70011 1.16701 0.559408 3.16279 1.76235 -1.06953 2.68381 -1.56321 3.64052 1.81434 -3.92512 -1.75454 -3.76059 -0.751316 1.26685 -3.12009 -0.544392 -3.03731 1.62574 0.360505 -2.05645 -3.40337 3.2346 2.83572 0.0178202 3.76164 -1.10934 1.27223 -1.28847 1.04891 0.597003 3.13711 1.44363 0.839138 3.42705 1.24867 2.69631 -0.226974 -0.962177 -1.62802 -3.69576 -0.0201244 2.61493 1.41387 -0.799002 -2.09453 -2.7354 0.932322 0.887255 3.05225 3.86753 -3.4819 -0.0511951 -1.3712 3.26489 -0.501115 3.69142 1.94888 1.82148 -0.854412 -1.25606 -1.98102 1.22779 -1.72246 -3.89493 1.2182 2.44235 3.49209 -1.68468 -1.13532 -0.6657 -0.454676 3.58121 0.686301 3.62289 0.97699 -0.885433 -3.47688 -1.94948 -1.72007 0.887479 0.782006 2.10505 -3.97013 -3.28757 -3.27944 2.51692 2.36013 1.0885 2.54603 0.101908 -3.74159 2.29026 -3.98255 -0.462651 2.24833 -3.08071 -0.244332 3.74311 -2.77329 -0.59709 -2.01583 -1.84281 -3.90155 -0.136572 -3.45896 -0.46887 2.30126 3.53569 -0.288582 -0.100815 1.18481 -1.6185 3.37837 1.20412 3.90364 -1.24403 -1.25362 -0.0254352 1.52075 -3.75345 -2.02496 3.87126 -2.07032 -2.58821 1.49139 -3.50333 3.91148 2.67224 1.28167 -2.94887 -3.88648 -1.7287 0.686536 -3.79702 1.89809 1.06435 -1.43536 -1.31335 -0.228773 0.569246 1.33994 2.5841 -3.36754 2.63427 3.93543 0.518257 0.183166 3.04317 -1.55607 1.30066 -2.37421 0.0797423 -0.541023 -1.77854 -0.913164 0.391704 2.96682 -1.90279 1.27381 -2.9825 -0.900703 2.67404 -2.47719 -0.276034 -2.9987 2.43185 2.98786 -0.88769 -3.41443 -1.60963 3.4144 -1.93077 -3.81943 -3.53439 -1.06757 2.11917 -2.21737 2.24238 1.06261 -0.892956 -2.48821 -3.70052 -0.332851 -2.46737 1.4309 2.64476 1.14989 -0.76732 -1.39538 2.87762 -1.92136 -1.50419 2.78225 1.92033 0.865735 -0.533504 -0.68032 -3.22326 0.665671 2.41911 3.0146 3.82446 0.677445 -3.14139 -2.5399 3.87783 -3.87626 -1.96135 3.39944 -2.28968 0.658955 -3.37942 0.225759 -3.13746 -1.56 2.638 1.45848 -2.04049 3.53389 -1.17429 -0.26327 2.7226 -1.22278 -3.9549 -2.72301 -0.416029 -0.92027 0.426984 -3.29602 -3.59961 -0.248947 -0.584162 -1.75097 -0.578489 -1.6144 -1.88323 -2.42597 -1.13368 2.77484 1.09667 -1.42879 -3.69052 2.96927 1.79018 0.238388 -0.0655776 1.40807 2.5425 -3.96052 -1.48678 2.83379 -1.12038 -0.978852 1.88896 0.135491 3.65484 -1.7403 -0.616934 1.94875 -0.247277 -3.73711 -2.59531 -3.0539 0.675935 -3.06736 -1.04129 -0.0250417 -2.6421 -0.243867 2.82783 -2.81484 -1.77458 -1.13079 1.62603 0.436295 -3.85101 -2.69987 0.675131 -0.410885 -1.72672 3.83927 -3.07417 -3.15602 -1.95577 0.612089 -2.53802 2.99153 -2.26978 2.66552 -0.807766 -1.36882 0.740714 0.78454 -3.53221 0.732029 3.24201 0.034625 3.77464 2.53661 1.97089 3.69145 3.76538 -0.515532 -2.66501 0.715107 2.99176 -3.54813 -1.28482 -1.25711 -2.97185 -1.24683 -2.70327 2.26392 -0.0259266 3.36391 -1.06265 2.15676 2.47806 2.00356 -3.36174 0.0587752 -0.653775 -0.863787 3.86242 3.32996 -3.82451 -2.76848 2.4733 3.22281 -0.522057 1.88991 1.99936 -0.663038 -3.26365 -3.27801 2.24173 0.156058 2.93763 1.01252 1.03702 -0.741324 2.78342 -2.32571 0.844724 -3.62017 -1.86982 -2.64276 -0.823847 -3.619 -0.75612 2.68561 0.124509 -3.4352 0.382935 0.74385 -1.21777 -0.916475 1.14811 -0.0168152 -3.49262 -1.03183 3.41227 3.47368 2.65781 3.24603 -2.19346 3.74934 -2.5499 1.80272 -2.92719 1.83811 -0.865447 -1.6265 3.01744 -1.56443 0.273252 0.897122 -3.69793 -2.49296 2.90676 -1.79991 2.36759 -0.636526 2.20074 -2.24512 -2.78452 -0.722404 1.58993 0.952263 -0.567536 -0.0156593 -3.12124 1.70809 3.74839 2.18594 -0.0617243 -1.74025 -0.735399 3.32016 3.17999 -2.94853 -3.5594 -0.0534858 -2.31731 0.260473 2.94251 1.02919 2.54095 -0.922425 -3.52078 2.39268 -0.610066 -1.63039 1.65895 0.348237 -3.9479 2.64622 -3.74083 2.25321 -0.187831 3.53541 -2.01974 -0.339398 -1.25761 -0.667065 -2.64631 -2.47283 -0.852511 0.126197 -0.051567 -0.279027 3.40238 -2.75844 -3.7209 -3.55401 -0.459797 0.853541 1.09976 -0.0374621 2.64775 -2.59928 2.91805 -1.99342 3.56479 -1.8023 -1.6246 -0.771431 1.58525 0.291601 -0.603459 3.76512 -2.50719 1.2467 3.59064 -0.497588 -2.8597 3.21726 -1.44643 0.688512 3.33211 1.07231 -1.99373 -2.78299 0.189546 0.756231 -2.33699 -3.03441 -2.06209 -3.01979 3.31884 -1.59084 3.91149 -2.13879 -3.41487 0.0305491 -2.57147 1.45619 -1.36058 -0.229304 -0.245104 2.28686 1.29716 -1.83182 3.02363 -2.24029 1.65975 2.32059 2.34478 -0.0816634 0.805308 -2.21525 3.20065 3.4413 -3.49686 -0.115263 -1.54575 -3.98818 -1.1649 2.6095 -0.352719 -2.7679 -0.193417 -2.92133 0.724369 2.88496 0.0722103 -1.72018 2.04473 -3.61647 -1.17712 0.963022 -1.3118 3.24268 3.37316 1.36117 2.15726 -1.30751 -3.5585 -2.77461 3.53106 -3.13317 3.59722 0.00614466 0.534028 3.42663 0.0664009 1.1716 3.18751 -3.99847 -2.48639 -2.69565 2.6741 -1.24124 0.145708 1.23481 0.516067 -0.660459 0.414354 -1.60319 2.3901 -0.291011 1.13591 1.95092 0.21319 -3.27231 -2.88386 3.68587 -3.76807 3.04954 -0.805876 -3.5726 0.837378 1.7189 0.704473 3.11878 -0.988435 -2.41336 1.70585 -2.75598 -1.50062 0.131267 2.2718 -1.26593 1.62195 -3.58674 1.0097 -1.73033 -2.66352 2.15984 1.84788 2.46116 3.31773 2.77176 -0.964663 1.98623 -2.59775 -1.44199 0.599594 -3.89928 -2.01342 -1.79005 -3.15716 1.36909 -3.31701 -0.874967 -3.66588 3.07315 2.34173 3.8045 -3.66122 -3.47565 -2.475 2.7189 2.70105 3.3351 -0.123687 1.62999 1.42539 -0.404493 1.12496 0.822605 -0.553024 2.34666 2.37893 -1.07836 1.51943 -1.6114 3.29981 -0.703143 -3.35577 -3.75882 -3.23597 -2.57175 -3.53716 -3.7596 2.16313 3.84599 -3.87559 3.09514 -0.970253 3.46163 0.277157 -1.02819 2.43293 2.26066 -3.1633 -0.143396 1.45634 0.594822 -1.73278 -1.51605 0.278358 0.526493 1.49852 -2.76137 0.680273 0.926926 3.62184 -0.249682 -2.52786 1.33877 -0.689608 -1.21741 0.650326 -3.04083 0.901077 3.20761 -1.72462 2.99532 -2.01905 2.97622 0.0994136 -2.95965 -0.431816 2.42802 -3.5832 3.90683 -1.80675 3.60862 -3.0679 0.0664466 1.27798 -3.94461 1.71825 2.34048 1.81619 -3.75276 -2.75832 2.46744 -3.71871 1.53807 0.64592 3.01652 2.37214 -1.50017 -1.13447 -3.98241 1.92758 -3.8626 -1.78203 1.28579 3.21938 1.5191 2.14835 -1.9635 2.09148 -1.16738 1.92417 3.31401 -1.86268 -1.18559 3.78711 1.65808 0.59862 -0.760743 -3.33409 -2.01448 -3.06445 -1.36661 3.01073 -0.687208 2.79008 0.727191 -2.34306 -0.201921 -1.61937 -0.217371 3.94923 -1.1196 2.49079 -3.1431 -0.880091 3.74538 -0.569426 3.82984 0.640151 -1.39333 2.8979 -0.753421 2.70624 1.11736 -1.41784 -1.65276 0.705464 0.0563581 -2.71602 2.36134 2.93273 -2.52465 -2.739 0.818333 -3.20901 0.86127 -1.16753 -3.76376 -3.32322 1.18211 1.94604 -3.33182 -1.53223 0.210582 -2.68863 -3.02054 -2.21302 1.26847 3.12932 -3.44396 -1.25463 2.13896 -3.98746 0.82594 3.55087 1.44507 1.34927 -2.64871 1.40869 -1.02043 2.4886 -2.42167 2.80572 -2.32329 0.108506 -0.991612 2.34849 -1.21857 3.57422 -2.86308 1.87415 -3.53771 2.21713 2.84598 3.02102 2.57206 0.77173 -2.11103 3.70886 0.565843 -3.0447 -1.90685 1.99483 -3.83478 1.70911 -1.21262 2.71805 -2.36733 2.13578 -2.41411 -0.491596 2.0118 2.55796 -2.55451 -1.19656 0.862217 -2.33559 2.68227 -2.91968 1.96677 3.30905 3.40415 -0.34778 1.17284 -3.69669 1.94584 0.661092 -2.32288 -1.12591 1.3099 0.513636 3.05948 3.00411 2.24646 -1.72268 0.991095 -3.32088 -0.841353 -3.10681 3.04987 -0.358623 -1.06587 1.83231 0.283571 -3.57551 0.828416 0.0413718 2.07306 -2.0708 -3.26654 1.75819 -1.1453 2.24309 -1.56605 -3.02556 0.747865 -3.27844 -3.41332 -0.0508623 -3.88724 2.68744 1.08368 1.35593 -1.59567 3.74311 -0.0269193 -2.35319 -0.545434 2.12206 -0.391704 3.4335 -3.64664 -1.11571 1.45678 -1.02039 -0.857359 -1.98381 2.70989 -1.61378 -0.0447955 -2.45588 3.29091 0.263771 0.52902 0.421164 0.589263 -2.21765 -2.21274 2.06195 -3.00708 1.76074 2.39398 0.551263 3.45916 -1.7874 -2.91331 -3.60658 2.72949 -3.7509 1.6186 2.14637 -0.899799 -3.532 -0.612423 0.305037 1.89195 -2.55356 2.8768 -0.529549 -1.50175 3.99952 1.80177 -2.275 1.58271 -3.86587 -2.71561 1.34178 -3.98094 -3.60696 -1.7993 -1.301 -3.37705 -3.66326 -0.194909 -2.34877 3.04031 -2.78903 -1.43905 -1.78852 -2.08062 0.99257 -0.679041 0.493629 -2.40953 -0.566866 0.447156 0.00201621 1.14171 3.90256 2.66584 0.430075 1.37563 -1.94375 -3.51868 1.28344 1.17876 -3.20872 -0.961834 2.40729 -2.55114 0.519508 3.21768 0.107093 -3.09887 3.59205 -3.25203 3.61188 2.18887 -1.7511 1.05072 -0.629072 -3.8137 1.50337 -0.476708 -0.864991 -1.76195 0.62527 1.0889 -2.27752 3.76016 -1.17963 -2.02815 -0.93818 -1.28188 -1.12758 -0.0855965 0.144159 -3.06221 3.39638 -1.44052 -3.9464 2.58507 3.15998 -2.10394 -0.73642 2.39546 -3.26894 0.0965046 -0.880453 3.18145 -1.93533 -2.54832 -1.75492 -3.62202 -2.6886 -1.34543 1.00583 1.85996 2.87932 3.27992 -0.52645 2.96338 0.733496 2.38878 -0.996843 -3.5126 3.02048 -0.586224 2.79814 3.89863 -2.55046 -0.486562 -1.13479 -3.33478 3.03988 -1.18296 -0.128404 -3.35198 1.46675 1.60978 -3.76428 2.93664 2.16514 -1.41677 3.19455 2.17618 0.309223 2.19989 0.187812 -0.307336 -1.22911 0.200137 2.49299 3.58987 2.22159 -2.62292 1.62556 2.73206 -3.3097 -1.35125 -0.347692 -0.422358 0.412983 -2.55405 0.894493 1.89739 -2.18548 -0.274536 2.58761 -2.42821 1.03157 -3.43229 -2.41715 0.839163 3.3676 -3.36982 -0.71049 1.30953 2.04754 2.81423 -2.89823 -3.73959 1.98782 3.52602 1.48451 2.91423 -2.49973 -2.0958 -0.353592 -1.82949 1.47401 1.77808 -3.62999 -3.86279 2.86067 1.18172 -0.232005 -0.642286 -1.49356 -2.32622 3.54979 -1.46428 -1.41242 0.966874 -3.74489 -1.47879 -2.52431 2.31723 -1.58398 -2.07123 -1.21275 -1.61073 -1.23594 -3.90068 3.46952 -1.58578 1.63842 -2.36095 -0.327257 3.25373 -0.0301358 -1.81825 -3.78076 3.09767 0.18667 -3.34555 -3.80962 3.95539 1.23923 3.88208 -0.632995 1.42972 3.10811 3.55475 -1.5942 -1.00911 1.15998 3.61688 -1.77871 3.70021 -1.68523 1.4199 3.8921 -0.536116 -3.28343 0.327806 3.3396 0.182928 -1.14024 -0.981488 -1.52747 -3.84237 -2.9824 -0.383222 -3.54761 -3.25929 1.26581 0.0573355 -3.44499 -2.74062 -0.919034 -0.401111 -2.86532 3.26692 -3.76243 1.08201 1.70214 1.62917 -1.34141 3.04529 -1.45493 -2.06219 0.838822 -0.9479 1.00297 -3.1852 2.42739 3.49793 -3.93591 -1.76949 -3.50715 0.424717 -0.600755 -1.08145 1.73806 0.595093 0.990977 2.37389 -2.32821 3.03126 -3.18916 3.00947 3.51736 -0.293166 -1.06978 2.73097 3.43865 -3.29429 0.248753 1.98766 -2.26729 -2.27049 1.5038 -1.31031 1.91245 -3.12852 -3.31212 -3.54264 1.00879 -1.9105 -3.02172 2.09528 -0.121258 -2.02754 -3.39318 0.625968 -0.995382 -0.422834 -1.06852 -1.0262 -0.768671 -3.62901 0.795993 0.00898828 -1.18885 -3.03898 0.408718 -3.85249 -2.18986 -1.01585 1.96884 0.712709 -0.0543852 2.48052 -0.332533 1.0565 2.4864 -3.26856 -3.54718 -2.09004 1.30918 3.46561 2.38044 1.26449 0.737864 -2.8851 0.260932 3.5377 2.09729 3.90681 1.42584 -2.10141 2.18682 -0.846345 3.9275 3.52609 0.469791 0.381422 -2.07828 2.97829 -3.14688 -2.17432 -2.55611 -0.0287599 -0.322352 -0.366817 0.212359 -3.53762 1.97168 -2.37781 3.5006 1.81231 -1.00789 1.29283 -1.84123 0.134419 1.86961 -1.05395 -0.879006 -1.88442 -2.07592 2.10798 -3.53386 -3.46076 -3.21732 -3.43343 -2.48541 3.08115 2.01504 2.31619 3.55017 3.93249 -0.914689 0.309448 -3.6194 -3.03194 3.52858 -0.150181 3.77726 1.93402 -1.17506 0.489408 2.16856 -0.889714 -0.540133 0.732891 -3.88127 2.26974 -0.913102 -1.66021 -3.95456 -1.50762 -0.511794 -1.75323 -2.80127 0.60486 0.454126 2.41175 2.673 -2.02242 0.505181 1.37165 -1.54352 -0.853591 -2.52982 2.83766 0.35097 2.78384 2.64225 3.56853 -3.98009 1.45929 2.23898 -1.27808 -3.06984 3.60742 -2.46264 3.2352 1.01783 -2.29959 1.73092 -1.53339 -3.41052 -0.593207 -2.50748 1.00153 3.30644 0.799606 -2.86653 -1.4131 2.52391 1.71407 -2.71058 -3.73209 0.115491 0.819938 1.51725 -2.8844 0.960318 2.37564 0.171358 -3.005 2.26755 -0.214306 -0.477815 -3.88585 -3.96157 0.917938 3.92637 -1.56649 -3.27394 -1.59409 2.65172 -0.367273 3.02317 -1.09731 -0.0884384 0.98896 2.12773 0.0129162 -2.23485 0.0668718 0.0456782 3.64261 1.00819 1.74013 1.18376 -1.07793 2.52815 -3.34215 -3.52185 3.41239 0.604678 -2.41907 -3.84839 -1.38203 -2.61555 2.73659 -1.89619 2.04307 3.07464 -0.181991 0.72481 3.81547 -1.84061 3.55088 -1.60281 -2.50161 -2.11806 1.00125 -3.21211 -3.68868 -1.123 -0.800064 1.12274 0.202953 -3.27646 -2.35578 -2.64411 -0.52576 -0.995196 -3.98265 0.5635 -0.970279 1.55519 3.70557 2.06497 2.34543 -3.73942 3.76232 -2.01039 -0.28312 -2.63397 -1.52316 -1.61676 1.12629 2.79744 -0.641439 -1.88514 -0.839243 3.9347 2.87244 0.566496 -2.71522 3.45704 0.476257 -2.99412 0.423459 1.83096 1.86924 2.15949 1.98661 3.53311 2.37611 2.83211 3.64788 2.98609 -3.95478 -3.95963 1.39657 0.403279 -0.302778 2.28307 0.343857 -2.52981 -1.64272 1.717 -0.981463 -0.0200526 -3.21411 -2.81391 0.0428635 1.67963 1.38509 -3.54444 0.0407888 -0.600388 -1.43131 0.790005 -0.281786 -2.23748 2.5648 -0.765526 -3.05909 3.82322 1.65582 -0.229548 3.08469 -2.73396 -3.09492 0.788458 1.51827 -0.661799 -1.17465 1.19066 1.53699 0.188619 -0.466919 2.55504 3.26091 -3.19699 0.618971 -0.444558 3.76479 3.39799 -0.365529 2.11633 1.91483 -0.978926 -3.04697 0.031211 -0.847798 1.41088 -2.11026 1.68956 -1.94957 3.75008 -0.758168 -3.47052 -0.325503 -0.225421 0.978469 1.01061 -3.74137 3.13273 0.377559 2.43422 -0.477855 2.3908 -0.636598 -2.00312 0.603467 1.53366 1.373 3.59743 3.18928 -2.15573 -2.25923 1.67983 1.40954 -2.59037 -2.7216 -1.76122 3.21084 -0.24715 0.247722 0.495716 2.79295 -0.284745 1.2792 -2.36266 -2.02759 -0.0761955 -1.72921 2.05736 1.98494 3.53181 1.02006 -3.70557 1.72169 0.0155037 -3.68738 3.17235 2.33617 0.78104 2.22588 -1.80917 -2.06971 1.16443 -2.91271 -1.98964 -2.59342 3.04107 1.03867 1.40311 2.62546 0.178438 2.87594 3.11535 1.99316 0.399441 1.7166 2.16971 -2.7393 3.14224 1.24787 0.0372499 3.1697 2.66743 -2.81739 -1.41778 0.914196 0.00715101 3.96906 0.0492765 -3.30173 3.29262 1.01324 -2.20487 -3.80296 -3.35967 -1.38066 -2.67974 -2.61514 -0.216873 -1.02903 0.946165 1.59628 0.791694 1.59966 -3.47092 0.604731 -2.81662 -0.199405 1.99157 1.8486 -1.37464 3.17909 1.48171 -3.38073 0.569594 1.41771 3.54029 -0.596375 2.88682 2.34195 -1.05325 3.4313 -3.16766 1.67503 -2.61736 0.841876 -1.22229 1.61119 2.51782 1.33942 -2.85408 2.32172 2.33138 -0.931534 -2.99688 3.62902 -0.555857 3.37277 2.45455 -2.26575 1.46169 -2.27377 1.50946 -3.16215 -1.79653 -2.7874 -3.66546 -2.47125 -2.77327 2.36157 0.588948 -0.475584 0.663467 0.403655 3.32125 0.362414 3.16337 -1.50216 1.4214 2.70068 2.8349 1.27624 2.97825 0.672149 -3.31452 3.38711 0.946376 0.435181 0.0375711 0.846334 -2.3299 -2.15086 0.0413028 -3.72462 2.75107 -1.21778 0.958109 2.05916 -2.35084 -1.04014 1.56883 -2.99011 -1.38075 -3.95243 3.13315 0.387885 2.25313 1.22755 -1.55302 0.36898 0.356004 2.46037 2.73314 3.07973 2.0387 -2.3303 -2.40557 1.60578 3.48924 -0.783837 2.20821 2.13451 1.29453 -0.926621 -0.744427 -3.95722 -1.39939 -2.49059 3.11414 2.36728 3.73511 1.50854 3.87104 -3.02203 -0.792926 2.16317 1.25081 -2.85661 3.55239 2.10673 3.63701 2.66122 -1.87002 0.355767 -1.87803 2.55113 -0.969475 1.61198 3.78625 -3.38126 3.39327 -1.24264 2.07708 2.14487 -1.31794 3.56292 0.799362 1.61029 3.67466 -3.82213 -3.0406 1.89132 1.69382 -1.78581 2.59945 1.19933 3.37898 -2.80407 1.36152 3.11423 0.914015 3.57654 3.82679 2.17343 -2.29576 0.271305 1.54206 0.0385148 -1.13804 -2.70284 -2.06625 0.586745 0.97285 -1.77839 -1.56086 -2.7998 0.759571 -3.71604 1.91243 -2.38351 -3.01591 0.62946 -0.145834 3.91265 1.58588 3.2016 2.98386 3.03456 -3.61201 3.73209 -3.98266 1.53031 3.04834 3.66745 -0.886069 1.5994 -2.9296 -0.492336 -3.19188 -3.52449 -2.03369 -1.49561 -0.713675 3.13991 1.2464 2.72183 -3.01296 1.72193 3.70528 -2.30784 0.217993 -2.38964 -2.40969 -1.77945 3.76515 -2.64019 -2.26667 3.86839 -1.83692 1.55895 0.0951384 -1.24703 -2.89143 0.299113 -2.88426 -1.8534 -3.24359 -3.17873 -1.58529 2.84819 -0.208616 -2.62992 -3.01023 -0.851494 -2.26086 -0.5834 -0.0479548 -1.27489 -1.87577 -2.90646 2.66881 0.972272 2.33673 3.59068 -1.03724 -0.188976 -3.04567 1.27826 -1.14444 2.94932 -1.26585 -2.34154 -0.172895 1.30858 3.89139 2.70479 -2.7611 1.73941 3.53404 -1.30806 -2.25136 -3.67186 -2.62398 3.3796 -0.815634 -2.59595 1.58149 3.48171 -3.08747 -3.0836 3.28337 -2.67412 0.545772 2.06707 -1.50552 -3.53722 3.71097 0.158109 3.78073 2.08627 3.25982 -2.75955 0.201691 -2.25253 1.34581 -2.56468 -2.82772 -0.624393 2.92241 -1.99875 -0.389003 -1.26027 -1.38836 0.248556 -2.32106 -1.81641 -3.34779 0.977235 -1.58078 -3.57395 2.77861 2.07601 -3.07342 -0.351442 -0.462593 2.47502 -1.99467 -1.17283 2.08812 -2.92626 0.344609 -0.443359 3.34104 2.3848 -2.2103 -0.854528 1.67645 1.94396 -0.420985 1.50152 -1.83422 -3.62283 -2.7256 0.541315 -0.615683 3.27253 0.625975 0.954353 0.708408 1.62065 3.915 -0.264324 -0.197171 1.38166 3.93565 0.421221 3.68363 1.43285 -0.897554 -3.00898 1.95854 2.4333 -3.63498 2.6662 0.0877566 -1.88517 0.753278 -2.04074 2.86384 2.77542 -3.02428 2.8599 0.019348 3.48212 1.85709 -3.8106 -2.26179 -2.8733 -1.70539 -3.27955 -3.36368 -2.96713 1.45785 3.01238 2.66178 1.50551 -0.242021 2.57691 1.71496 3.09991 -1.26219 2.22765 -0.875625 2.62489 1.60626 0.95573 0.794529 -0.555145 2.48799 0.940056 -3.33235 1.04455 -0.0668359 1.86185 1.24106 1.68929 -1.73835 -0.226737 -0.759743 1.85433 0.530078 -2.05713 -0.132765 -1.57333 0.785305 -3.38476 -1.0692 -3.20289 -1.63028 -2.06494 -2.50806 -2.82629 -1.15269 -0.272963 1.08697 3.69959 0.841749 3.79383 1.71224 1.36981 -0.226529 2.81894 1.84282 0.399619 -0.86465 1.71875 3.50421 3.40564 2.00126 3.26453 -2.80672 -2.98822 -3.42795 1.63532 2.46642 -0.595305 -2.60581 -1.76484 1.22542 3.78549 2.04761 2.08233 -3.17281 -2.11847 -1.02459 -0.257173 1.97797 2.12369 -0.615009 3.33074 -1.56948 3.34924 0.0452036 3.73395 -1.59139 -0.161042 1.10806 1.34424 -3.53244 -0.0139492 -3.85343 0.951797 -0.0562792 0.677385 3.87608 -3.76689 1.71111 1.7255 -2.88061 1.94818 2.96438 3.85467 -0.146555 1.28433 -3.23455 -0.62365 0.738439 -3.80086 1.03308 -3.01025 -0.926718 3.13005 1.78102 -2.70023 -0.545437 -3.3159 -2.03234 -1.68328 1.51696 1.25066 2.29285 0.42357 -0.0806545 -1.20337 3.69563 0.107934 0.770979 -2.11574 2.50955 2.07681 -1.24965 2.07408 -1.59991 -1.49834 -3.40906 -3.38854 2.09178 0.422255 2.47025 2.45517 1.19434 -3.18113 -1.75063 1.62313 2.76792 -2.55123 0.427645 0.226264 -0.600923 0.807278 2.2242 3.71004 -3.47157 -1.1911 2.61068 1.42817 2.06354 0.164514 -2.60498 3.77284 1.41039 -2.59393 1.76923 -1.64317 -1.90468 -1.12718 -3.64182 -0.17576 1.83937 0.0361628 2.45429 2.93992 3.53854 -3.16955 1.71063 1.90827 1.77917 -3.8493 3.54462 3.00459 0.736749 -2.71224 -1.91684 1.30264 2.28955 2.90439 3.94961 -2.50374 -3.81892 0.0747939 0.0972729 -0.0547439 0.927934 -0.405114 -2.14597 3.07916 -1.11078 3.85771 -3.58754 3.3097 -2.69744 3.56517 -2.16319 -0.201919 -1.1245 2.64826 -0.895382 1.09136 0.46666 -1.84867 -1.99467 1.38677 -2.82682 -1.78356 -1.86959 -2.00081 1.91967 -2.41905 2.22005 3.76134 0.309956 0.478078 -0.356415 -2.88617 0.581185 -2.61556 3.39555 -3.91202 -3.63075 3.21965 1.27335 2.32303 -2.45587 1.56895 -0.952845 -2.30113 0.0865423 -1.419 -1.71354 3.80381 -3.72737 2.22158 3.62521 2.88476 2.25749 -0.101242 1.80491 -2.47668 -0.179279 2.15036 1.52617 2.75677 1.72611 -3.89821 -0.367395 -3.8988 0.619338 -2.96256 -3.13502 1.94158 -1.18009 3.13532 2.22473 -2.35001 2.47181 0.804896 0.375479 3.57174 -0.118269 1.73749 2.6783 3.40713 0.246285 -3.77058 -0.488155 2.29981 3.97698 -1.09292 0.0244939 -0.372663 -3.38124 -0.866437 3.83449 1.65795 -2.80484 3.17469 1.88602 -0.478717 -1.25962 -3.90314 2.4335 3.73414 -2.15631 0.268399 -1.50638 -3.49636 -0.575582 0.725876 2.9882 2.72739 -2.46499 0.943521 1.71405 3.28816 3.55014 -3.29154 1.35172 2.13466 1.75211 2.52385 -3.82269 -0.220408 -0.737044 3.72691 1.01346 2.52264 1.68695 -2.55688 -2.61209 3.83831 2.92729 -2.14093 -0.267297 1.87852 -0.0432775 3.54232 -2.78882 3.55368 0.512003 0.365799 -2.52737 1.45827 -3.48955 -3.50549 -1.94349 -0.949063 -0.538195 -2.88055 2.02931 1.33028 1.96394 -3.06532 2.77607 2.44972 -1.39416 0.948358 2.71753 -0.141105 -2.91511 1.6597 1.04392 -2.17824 -3.4385 -3.47198 -3.21995 3.78388 -3.1984 2.92444 0.546622 -1.151 3.49698 0.951435 -2.45465 -1.48414 3.64689 -1.42596 0.313949 2.74485 -0.403213 -1.51743 3.18781 1.10839 -0.486087 0.195277 1.92608 -3.05612 -3.35302 -3.32032 -1.57738 -0.84312 1.6179 1.80877 -0.180771 -3.26689 -0.170693 -1.26043 -1.7275 -3.41213 -1.5522 -1.67407 1.29567 -3.44246 2.07762 2.06966 1.80483 1.0249 -1.97872 -2.96184 1.99148 -0.51595 -3.19768 3.13864 -0.306658 2.20035 1.09182 -0.692078 -2.9005 -0.725306 -0.88394 0.755861 3.85885 -1.18104 -3.59889 -2.64831 2.1698 -1.27447 0.0790783 -2.93395 -0.851905 0.244758 -3.3059 -0.38766 -2.08827 1.49899 -0.43847 3.82985 1.37918 -0.082718 0.597444 2.70397 2.17165 -2.67535 -0.137923 -3.7314 1.12294 0.014929 -3.72499 -1.68836 -1.78076 -2.81888 -2.4241 0.894752 -1.01551 1.3408 2.14423 -1.37136 0.298319 3.98389 -0.743653 -0.514851 -3.74837 0.95444 -2.55926 2.47337 -2.72343 -1.93814 -2.44161 2.41541 2.31389 1.68345 3.13798 1.54449 -1.99712 0.607422 0.620517 2.02471 -1.0973 -0.148226 3.34401 -1.2205 -0.260284 -0.624074 2.68149 2.42261 2.53993 -1.59513 2.22823 -1.46008 -2.76658 2.67221 -3.66005 0.797853 -2.72813 3.11664 2.63505 -1.44401 0.646537 0.694921 -3.0847 0.193429 1.51257 2.38626 1.21315 2.08394 0.382879 -0.315808 -2.10255 -1.14609 3.84599 0.848024 1.65112 0.231883 2.44639 1.27433 -2.98462 2.73967 -3.71289 0.292189 0.365226 3.22661 -1.84092 -3.02192 3.27496 1.05472 2.17089 -0.738854 -3.78331 -0.713473 -0.762748 2.93942 -1.09731 3.61838 -2.58905 -1.15547 -2.19769 3.93053 0.740351 -0.416559 -0.198681 3.34284 -3.40424 -2.86403 -1.60278 2.11466 -1.35286 1.97952 0.333994 1.74305 3.32252 -0.630499 3.52387 -2.3914 -2.84162 -0.281119 3.10203 -3.28976 1.72475 1.18007 -1.53363 3.37436 2.98471 1.71903 -2.84069 -3.38432 -0.863948 -3.14544 -1.71531 -1.37251 1.09272 3.94699 -1.25676 -3.23462 -1.59939 -1.18175 3.2657 -1.17889 -1.05705 -3.6089 -1.84071 0.459806 -3.66365 0.452121 -2.08099 -1.41501 -2.1 -1.31496 1.5381 2.14688 -2.58283 -2.04753 0.480633 3.42267 1.56862 -2.13156 -0.00824612 0.536205 -2.4901 2.74414 3.33368 3.95852 1.94123 3.44208 2.53256 -2.93239 0.547046 -0.385491 2.89248 0.11699 -3.08399 -1.75586 -2.52002 -1.88888 -3.8904 3.46823 1.66264 -2.71443 2.13863 0.893296 -2.98584 0.0747825 -2.99867 -2.44702 3.92147 1.85828 3.18862 3.03696 -2.04009 3.02935 -2.54609 -3.6266 2.67229 3.6513 2.5904 -1.08271 0.28046 -1.40373 -2.1079 -0.202728 -1.81032 0.352263 -0.579441 2.66032 1.26271 -2.07609 -1.32996 -2.35422 -1.701 0.754667 -2.69202 -0.500461 -2.87703 -3.23895 -1.56608 0.849951 2.30448 -3.08988 -1.75357 0.665323 -2.06806 2.42626 -2.35207 0.417531 3.66803 2.7897 2.78532 -0.752446 -0.247426 1.54262 -3.8211 -1.25223 -3.8419 -0.0314249 -3.44526 -1.406 2.34815 -3.1455 -2.7633 -1.25502 -3.57034 -2.28298 1.14859 -1.24661 -2.04424 3.28507 2.44757 2.22984 -1.17964 -1.23969 1.13788 1.19016 -1.01263 1.40562 -3.65816 1.19229 -3.69201 0.128117 -3.96306 -1.50143 -2.90663 3.89656 0.805308 -2.2038 -2.12098 3.66256 -3.99768 2.69133 -1.10862 0.609989 1.98767 -1.70961 -0.1953 2.95708 -0.502259 -3.14915 -2.60831 -1.85203 3.40273 -2.65216 2.02462 2.77866 -0.633468 0.0255165 -0.382964 1.59669 2.74467 1.31912 0.510407 0.378952 3.07903 -1.18145 -1.27458 1.60255 1.97697 2.47548 -2.94668 3.85309 3.34616 3.08409 0.0658599 -3.16993 3.78678 -0.183905 -2.0175 1.85976 1.88377 2.87771 -1.25404 0.13466 0.396309 -1.00457 -3.82675 2.55927 0.725674 -2.38939 2.74048 -2.68097 1.24584 3.26945 -3.89276 -2.54508 -1.87853 -0.111973 1.9546 0.107617 -0.792311 -0.294383 0.440455 -1.69454 -0.473662 -1.34702 0.279337 2.47395 -3.92451 1.87296 -2.43287 -2.33922 -2.21437 -0.95696 1.08736 3.31378 -3.53178 3.17048 3.90389 -2.74864 -2.92637 0.457511 -2.67203 -1.79344 -0.978109 -1.51383 3.30272 -2.80339 1.01555 -3.28222 -3.94849 -2.95992 2.28145 1.85031 -1.95987 -0.730855 2.23126 3.99472 0.305529 1.60424 -1.78131 2.17273 -1.97112 -2.77571 -2.27493 -3.32325 1.60746 3.08231 2.75565 -1.85713 0.703869 -0.598337 -2.84146 1.35183 -3.04574 1.88197 -2.09818 1.69962 -0.940795 -3.72642 -3.86103 0.74065 -0.204278 2.13105 1.62518 0.389039 2.56134 3.57814 -3.58914 2.77188 2.68503 -2.75233 -1.79025 -1.34742 3.47876 3.25002 -0.950584 -2.95407 1.72159 0.547273 -0.333889 1.76079 -3.28058 3.10298 -2.27575 -3.62096 -0.441951 -0.386113 -0.502612 -2.11016 2.75109 3.09859 0.817985 1.61089 2.46685 3.38861 1.05169 -0.216235 -0.253579 1.51614 -3.26586 1.73053 1.90599 -3.58521 2.48164 0.726121 0.0517775 -2.07275 2.73793 3.53235 -3.20925 -2.26684 1.49987 -2.28487 -0.205301 -0.125718 2.54979 3.14667 0.232133 -2.06873 -3.46007 0.42234 0.0816168 2.35439 3.9328 2.95556 -0.64551 3.2933 -2.21405 3.78471 -1.4289 -0.0467302 -3.88341 3.13282 -3.19187 -1.4374 -2.65122 -3.67252 -0.638855 -1.1833 1.52075 3.15392 1.37573 3.61573 0.975185 1.6242 -1.06741 -3.30802 2.59543 -2.38327 -0.250775 0.497885 1.99148 3.48552 -1.42234 -2.14449 -3.73342 2.44509 3.8606 2.2644 -1.37911 2.27552 2.50943 -2.64715 3.86983 -0.490866 0.820793 -2.12788 0.63139 -3.82022 1.63832 0.802475 -3.45206 -2.06259 -3.66793 2.78849 -2.73872 -3.32618 -2.08094 0.465578 -1.3734 -2.42605 -0.165879 0.766485 -0.609326 -1.23094 2.70795 0.339556 -0.418316 3.69364 1.01657 -0.699147 -2.77433 3.35891 -2.84006 -3.14218 -3.5267 -2.73257 0.49249 1.41802 1.16059 -3.8175 -1.51424 0.0261419 0.53492 -3.54926 1.09105 3.749 1.17087 -1.93688 -0.668643 0.144244 -2.64562 -1.26894 2.27296 -3.65513 -0.147451 -0.0641692 -1.13564 -2.30366 0.670706 -3.12222 -0.560685 -1.35838 -1.45617 -0.663256 -1.7551 0.0522356 -1.5611 2.05825 1.54558 -2.85827 2.36561 -0.245679 1.37141 -3.00493 3.2225 -1.13519 -0.18529 2.30381 2.24479 -2.83686 -0.298028 0.116341 -1.62055 3.67416 -0.480942 -3.30088 -0.649982 -1.63144 -0.20445 -3.81475 3.91442 -2.19328 2.70467 -0.0189439 -0.832159 -1.61492 2.63362 2.6022 -3.22691 0.558646 -1.61729 1.96947 -3.72192 -2.46951 -0.401318 -3.61913 -2.89157 -0.0710174 -0.344108 2.23862 2.20435 -2.90982 -3.58847 -3.05528 -0.528396 -0.351867 -3.10707 -1.11037 -2.39546 -3.69395 -2.38843 2.55861 3.35818 -0.798834 3.84617 2.41734 -0.302265 -2.32378 0.319133 2.17123 -0.148402 3.37767 -2.61316 2.65294 0.162448 3.95673 -3.87323 -0.918695 -0.0495792 -0.779144 0.972765 -0.452471 -2.55381 -1.48611 -1.23617 -2.25078 -2.37132 -3.28643 -2.74386 -2.57823 -1.44051 1.97034 -2.84765 -2.39161 -1.502 -3.16904 2.92302 0.523149 2.70844 2.38411 3.15477 -3.10508 3.5435 0.225351 -2.36187 -3.82134 -3.70589 0.557592 -2.50441 -1.41815 3.37142 -2.51296 -0.414478 -0.132295 1.25076 -1.42467 -1.54102 1.02296 -0.179457 3.84145 0.0136499 2.73011 0.305806 -0.937409 0.554385 -0.552774 2.35623 2.28945 -3.14514 2.48477 -1.62803 1.21134 -0.282271 -3.10536 -1.19936 3.62903 -0.101215 -2.74285 -3.24342 -2.62717 -2.49122 0.804891 0.229548 -3.43949 -0.771088 3.23015 1.13461 -3.25632 -0.388451 -2.16417 -0.408991 3.39194 2.04444 -0.971634 1.84821 1.1391 -2.30682 -2.26009 -1.25184 -1.81134 3.78343 0.953871 1.25496 2.93034 -0.258477 -0.227362 3.09887 -2.38095 -0.831581 -0.419885 0.323265 -2.93697 2.84197 2.52178 3.86372 3.98105 2.70042 3.48274 3.07278 -2.73691 -0.350691 -2.03648 -0.639815 3.80152 -2.08656 0.274742 1.70441 -3.34144 -1.2798 -3.50446 1.02931 -0.560909 -1.64232 -1.6996 -3.12535 -2.32763 -3.5517 -3.62108 0.108728 1.3154 2.1056 -0.447952 -2.9181 1.8022 3.17913 -0.778622 1.89271 3.56062 3.52301 -0.953549 1.62412 -2.18621 -0.206201 -2.93526 2.01365 -3.20482 3.8599 -2.57437 3.39423 -1.88309 0.588261 1.8548 -0.816082 2.30749 -2.02537 0.28411 -2.40652 -3.89934 -2.59648 -1.7748 0.970763 -2.03546 -0.64918 -2.02736 1.55338 3.68928 1.31703 2.90313 0.753417 0.659569 -1.12016 3.67917 0.474913 -1.61861 -1.60706 -0.326157 -1.4315 -2.26051 -1.32877 2.96212 0.433143 0.141864 3.98356 2.65395 1.1914 -2.32616 -2.65671 -1.693 2.86408 -3.7505 -0.830695 3.2305 3.34462 2.19489 1.55062 2.97788 -2.76478 1.61026 -0.235438 1.22209 3.17394 2.09176 -2.25377 1.46716 -3.9781 -0.965308 0.645191 -3.21332 -2.24335 0.850105 0.997736 0.626953 1.8004 -1.46836 -0.424611 -0.726736 2.56721 -2.87769 -1.39058 0.68137 -3.11383 -1.53177 -3.88876 1.89628 -0.571378 3.9188 -3.56472 0.145815 -3.76039 -1.40136 1.14114 0.185831 -2.54897 -2.50197 0.925378 -3.86066 2.9977 0.895138 -2.59974 -2.92191 -1.01058 3.46063 -3.65508 -0.439944 1.74896 3.42918 0.0766889 2.93019 2.70949 2.56962 -0.578251 1.72234 3.4717 -1.02948 0.816702 -0.763195 -3.22841 1.0105 -3.50024 -3.30348 -2.14592 0.7077 1.81709 -0.738072 -0.644413 2.2943 1.38581 2.83315 -1.09666 3.13831 2.76415 -1.81318 0.707329 -3.88756 1.45438 -1.64498 1.74428 0.103646 -1.34516 -1.93236 -3.16889 2.7438 -2.75107 0.55197 1.94426 3.39035 1.74821 1.42071 -2.87317 2.53687 -1.23557 -1.84185 -2.45353 -3.01082 -2.29953 -3.91441 2.36904 -3.62607 -0.524769 1.64189 2.57816 -0.689111 2.5589 3.29029 2.7484 -3.27003 0.637085 -3.4388 -3.18064 3.75453 -3.76616 0.715542 1.2776 -3.73179 -2.1419 -3.76962 -1.73614 1.93347 -3.65155 -0.162276 -3.1291 3.62013 -1.15041 0.599945 -2.88469 0.303184 -3.53144 1.69661 -1.04529 0.496324 -3.74075 -0.603469 -0.917268 2.28453 2.10592 0.83885 1.66993 1.13749 0.275476 1.05373 1.75248 -2.19042 0.00969765 3.80132 -3.93557 -3.94956 0.306544 -1.37979 -1.47248 -1.28662 -3.74824 -2.02299 -0.0163578 -0.119719 3.80581 3.09542 -3.98297 0.662495 -0.891479 2.89777 3.09716 -0.965141 0.455952 0.331256 -3.81103 -3.95806 3.20848 -2.20151 2.50437 1.94258 -3.66963 0.416398 -1.26148 -3.22604 -0.946499 1.53869 0.154968 1.61338 0.449652 3.4203 2.5361 2.64954 -2.2774 1.39398 2.99517 -3.91077 3.42812 -2.21076 1.52245 -3.59714 -0.203677 -0.365215 -3.34656 -0.94386 -1.35166 -3.01098 -1.6274 -3.25135 2.1267 -0.761447 1.906 -1.4164 -3.23063 -2.96929 -3.47195 -3.76414 2.31615 -2.24032 -0.770347 -1.11998 -0.760786 0.621707 0.319541 1.96336 -2.21734 -3.88213 3.64023 0.0103313 -1.39215 -3.6339 -2.57173 -2.62824 -0.516564 -0.439536 3.26243 -2.61083 3.68822 -3.6256 -0.124117 -3.12808 -2.63259 -1.37645 1.59548 -3.48587 -1.93768 2.36957 -3.45292 2.14056 -1.28546 3.67662 -0.562075 1.50022 -2.62371 0.919735 2.48438 2.13097 0.946028 -3.85883 -3.36406 -2.87058 -0.897549 3.09462 -1.82962 -3.45444 -0.0249406 -0.611681 -1.62208 0.40791 0.0865061 0.869858 3.10974 1.4905 1.36249 -0.631944 2.29156 -3.29454 -0.0415946 -0.4725 -3.01193 0.326936 3.95658 2.18512 -3.38425 0.673316 0.830859 2.62036 0.342509 3.71642 -3.11976 -0.350868 1.22702 -3.20796 1.25853 -0.879145 2.90187 1.69711 0.232497 -3.64547 -3.63077 -3.90851 -1.22491 1.05378 3.9805 2.47492 -1.16166 0.787499 2.58859 3.49827 0.482618 2.86239 1.08904 3.08317 -2.38587 -3.68676 1.01581 -1.93531 3.57094 1.48576 -2.66905 3.16976 0.703605 -3.43724 -2.05389 -1.01671 2.64251 2.22508 0.437032 -2.3905 -3.59398 1.53923 -1.0982 -1.56092 0.307186 1.99599 -0.309658 3.25146 3.36639 3.5249 -3.05301 -0.4521 2.74323 3.047 3.68653 -0.999496 0.604396 -2.3788 -1.32608 0.381342 0.368389 1.44471 -0.208298 -1.51159 3.14451 3.90337 -1.42838 0.3142 3.20964 0.604873 -2.72758 3.68232 -1.27555 -3.3638 -2.08246 -1.58795 1.63009 -1.12065 -1.76445 -0.162573 1.7188 0.700904 1.56438 3.85335 3.08427 -3.49668 2.69529 -2.10521 1.46554 2.74966 0.163398 -0.470052 -1.5348 -1.87361 1.65022 -1.308 -2.18698 -2.44007 -2.8116 -0.699839 2.1781 1.18284 0.61266 0.925192 -3.51588 -3.84563 1.3043 -2.3801 3.02639 3.16574 0.542732 0.578133 -1.38211 -2.4086 -0.554342 -3.5431 0.81881 -3.17206 -2.936 2.81806 3.44365 1.06073 1.09787 -2.97893 -0.105328 -0.966243 -3.67916 -3.34919 -0.683818 -1.03722 0.477842 0.159092 -3.24748 -1.94314 -1.95105 0.240302 3.16239 -3.77605 1.44461 3.82836 -2.72232 -1.91855 -0.545617 0.321296 -2.42704 -3.08243 3.88277 2.30262 2.61077 2.50937 3.78141 0.533081 2.35101 0.899213 3.80198 0.69294 -3.73625 -1.59112 -0.697776 0.234568 2.31758 -0.593289 -3.12118 3.23451 -3.77772 -1.66633 1.11348 -1.39324 0.0918961 1.19703 1.22617 -2.21618 0.687967 -0.289974 0.74009 -2.43394 -3.67227 2.91752 2.50215 -1.85535 1.37135 -2.3777 1.43025 -1.68943 2.99909 -0.185779 2.3936 0.835149 -2.94308 -1.97513 2.25681 2.15823 0.308224 -2.41741 -3.56008 -3.87173 2.87406 -3.77359 -1.95489 0.823032 -2.67155 3.09185 3.0882 -1.93992 2.07235 2.39817 -0.374513 1.87525 3.49549 -3.84229 -2.08978 2.77047 0.905466 -1.60722 -0.0160363 -0.280136 1.74274 -1.575 -3.43187 2.73771 2.1079 0.0207274 3.10722 -0.189769 1.20057 -0.473376 -1.10456 3.7504 3.76288 3.38445 2.6511 -0.357733 -3.83422 1.78768 -0.582726 2.32656 -1.96709 -0.671304 -0.394387 0.59886 -2.7847 -2.26784 -0.194278 0.965969 -0.670501 -1.8217 -2.0918 -1.80375 -0.311003 -2.24763 1.61687 -2.83047 -1.86585 -2.40006 -0.98761 -2.47751 -2.63075 2.54608 -1.1433 -0.876472 2.85855 2.27565 -3.78366 -1.39832 1.45115 3.34121 2.45797 -3.51197 -2.26064 1.68008 1.83195 0.613816 2.72062 3.33341 1.32248 1.92543 2.33006 1.60576 -2.37117 3.35619 0.0230047 -2.23981 2.04182 0.82688 0.816792 -1.56818 2.36768 2.1337 -0.414682 2.0353 3.27767 -1.08311 2.93992 2.86028 -3.33391 3.60792 -3.53628 3.2369 -2.00591 0.12022 -3.5616 -0.31387 2.26584 -1.0457 2.2988 1.49824 -3.18776 -2.86754 -3.90756 -1.4469 3.47501 2.25733 -1.81256 3.52187 2.78263 1.28592 -0.536202 2.12317 -0.469468 0.993986 -1.97427 2.00556 -0.845304 -1.05325 -3.49806 -3.35546 -2.0719 -3.28084 -0.758304 -0.854995 -0.918481 -1.26981 -3.58478 -3.37442 -0.860247 -0.688237 -1.55005 3.30451 -1.15323 -2.63658 -0.944166 -0.165319 3.26274 1.15871 -0.0962328 -2.47334 -3.39208 -2.69021 -0.417903 -2.96056 0.482138 -0.187046 -2.89912 3.89001 -0.298401 -1.4672 0.329563 1.75596 3.05824 1.43825 2.27729 1.64279 -3.08621 3.36872 -3.49895 2.34296 2.42656 -1.95434 -1.20028 -1.88494 -3.30053 2.83666 3.1152 -1.5511 -1.71757 3.94934 0.366919 0.662104 3.18204 0.524852 -0.596567 2.52167 0.681049 2.88069 -3.51478 3.65615 -2.12047 -2.21358 -3.83799 0.480757 -1.13093 3.05039 0.876407 -1.92052 -0.858245 -3.58712 -2.65567 -0.0238709 -1.51607 -2.96705 1.09849 -1.39376 1.68846 0.788847 2.06825 -1.12535 -1.03129 -0.0682104 -2.26643 0.385971 3.97862 -1.79085 2.44296 0.137821 -0.685702 2.64438 1.66588 -1.64076 -0.0458193 0.930352 2.98031 1.41857 -1.7553 -3.78898 -3.3063 3.14761 2.36646 1.04765 -2.59699 -2.24784 -1.50676 0.0862995 0.379402 3.49227 0.159052 -3.95997 3.35854 3.66058 -3.14382 -0.914589 0.527442 -2.5626 3.72693 1.32084 -1.58506 0.406022 -2.89282 2.03373 -1.80561 -2.56814 -1.18564 1.5706 -2.38693 1.18721 -1.14578 -3.97836 -3.03825 -3.91373 -2.55861 1.44581 3.30428 3.78486 1.99241 -0.161381 -2.61785 -0.936713 -2.14805 -1.04379 2.61346 -2.64593 2.75458 1.78612 -0.613868 2.13497 -0.65652 1.97602 2.56964 -3.55976 -3.35101 -2.68136 -3.50243 0.510286 -1.00448 -3.73446 -1.33818 0.685508 -0.656375 -2.78891 0.112095 -1.3786 -2.56822 3.34526 -1.40031 -3.93068 0.555352 -3.13805 -0.166962 1.71056 -2.90633 2.15864 -1.67601 -0.881354 2.65292 0.319898 0.795018 -2.89042 3.16595 3.26352 1.91366 -3.08049 0.252279 -1.68479 -3.52335 3.54561 2.56904 1.21864 -0.121386 3.81691 1.45218 3.53346 -1.8891 2.12006 2.53537 2.34589 0.711778 -3.61232 -0.843847 -3.60234 -3.74363 -1.15543 -3.09292 1.48321 -1.14009 -0.40653 -2.28214 0.815486 -2.55912 3.4248 -1.8132 -1.78278 3.21869 -3.71698 3.59701 1.67752 2.81201 -3.77559 0.0577528 2.12443 3.33297 0.316805 -2.83654 3.77665 2.62338 0.250221 3.45131 -1.21944 0.474948 2.84459 -1.43356 3.52801 -0.184204 0.76441 -1.58987 3.03854 2.72346 2.06207 1.03194 -1.49762 1.48576 1.70764 -1.58281 1.68392 0.0179496 -2.96056 -2.27454 2.396 2.49112 2.5871 -2.04504 -3.35246 -0.877215 1.75094 0.853676 0.808623 -0.0920346 2.9954 -3.6762 
