1.83634 -0.786168 3.79588 0.979304 3.26064 2.97005 -0.740896 0.605406 2.62779 -0.847278 -0.770511 -3.84599 -1.09751 -3.63113 3.8456 -0.781784 1.6062 -3.37179 -3.15219 -1.62592 -2.01367 1.65703 3.85597 2.94661 0.681391 1.90526 -3.7029 1.73569 2.49784 2.28824 3.43108 -3.35791 1.85084 -1.79792 -2.84344 -1.69483 -3.89948 2.95907 -0.860948 -2.18684 -3.29218 0.380962 -3.19999 -0.758292 0.983571 -2.48034 -0.668804 3.97158 2.77429 -1.53468 -1.7706 -0.524808 2.27111 1.13125 1.87558 -1.87538 2.59336 -1.50006 -1.69054 3.04298 3.14123 -2.78314 -0.237807 -1.59286 -1.30405 3.61935 -3.36232 -0.140368 -3.86166 -1.33826 -0.755001 0.288905 1.61004 2.34881 -2.68041 -3.89326 -3.29899 -0.554618 3.65388 -0.383793 2.49578 1.27409 3.89927 -0.132554 -0.799942 3.0945 3.95224 0.425964 1.04577 -0.329941 -1.33361 -0.821761 -1.97694 2.57318 -0.743161 -3.51746 1.8121 1.21678 0.380033 2.2254 -3.86757 3.78996 3.17792 3.03065 -1.54799 1.1626 2.02426 -0.695681 2.89754 3.51488 2.34704 -0.121266 -1.90016 2.82926 1.19153 1.25787 0.336345 -3.44631 3.07484 2.20697 -2.23249 1.66004 2.91647 0.911935 -1.10319 3.87115 0.33478 -2.35247 -3.21663 2.71173 -1.63952 -3.17112 -1.10659 0.651288 1.56051 3.81908 -0.0881728 2.99288 -0.937944 1.77172 -2.43621 -0.12694 2.9376 -3.77156 -3.33657 3.03705 0.759941 -1.08953 2.98366 -1.23117 -1.67579 -1.2159 1.78983 3.2157 -2.47969 2.04098 -3.35493 -3.10884 -1.64725 -0.620286 -3.23728 2.90455 -2.17168 -1.01971 0.442183 3.51054 1.05778 -0.399362 -3.71306 -1.57204 -2.93633 3.9342 -1.26629 2.37072 0.764778 1.88133 1.62756 2.88105 -0.147435 -0.509586 0.748027 3.99467 -2.61865 -2.60154 1.43205 -2.20726 -2.70264 0.479212 2.93029 -0.337642 2.97454 -1.4158 -0.206536 3.69697 -3.46075 3.9191 1.77473 1.7149 1.66179 -2.8025 0.957539 -2.52451 -1.06016 2.26916 -2.39201 -3.3505 -3.32491 -0.0223502 -0.432799 -1.16104 0.657642 -1.55349 0.491146 -2.05758 -0.74352 2.16739 2.75826 2.30646 2.37322 1.0173 0.426343 1.1859 -2.27567 -0.341475 -0.887789 -3.81402 -1.12134 2.81027 -3.50319 -3.30814 -3.79838 -3.09573 -0.356589 1.31776 2.39792 1.36513 0.892643 -1.88954 3.58654 2.72959 -3.81219 3.04867 1.48543 2.421 -2.91954 1.33594 2.29072 -3.92151 1.05521 -3.68985 -0.921559 1.60502 -2.46702 2.96261 3.13806 -2.71529 -2.77725 -0.249674 1.78463 2.07997 3.25295 2.47002 -3.80861 -3.54841 0.116287 -1.77393 -1.08853 -3.38388 -2.03716 3.20746 1.3354 0.812035 -2.90146 -0.613944 0.329087 3.45965 -2.05067 -3.93488 -3.88425 3.33006 -2.67671 1.51154 -0.933217 -1.02728 -0.144989 1.89117 0.325708 0.586755 -2.42292 1.68381 3.78296 0.209153 1.24013 -0.26024 2.25134 1.92522 0.400159 0.581721 -0.832548 1.07458 -2.63235 0.521322 0.640841 -2.13872 -1.66329 1.59762 2.6715 -3.52547 2.16714 -2.71912 2.11776 -3.76106 -0.389207 0.242319 1.82713 2.53097 -2.73558 1.65538 2.29619 -2.29313 -2.76134 1.82498 -1.28035 -0.987844 3.69554 2.17134 -2.06492 -2.06564 -0.303306 -1.26507 -2.33799 -0.761366 -3.05524 1.64045 0.500199 1.15433 3.30368 0.914667 2.76169 3.88458 -3.58837 0.947235 -0.66084 -3.9372 -3.29033 3.31674 0.55765 1.58814 1.1759 -2.47348 1.01794 -2.29781 1.00062 -3.67192 -3.90079 2.88843 -1.33084 -3.26463 -0.0373204 -1.48794 -3.4864 -2.62395 0.747071 -0.319498 2.62394 0.244546 -1.74203 2.21299 1.20077 -1.74339 -2.98864 -3.65914 -1.60048 -2.01017 3.13943 2.04472 0.0480909 3.95421 1.96847 -0.367312 3.02468 -1.91124 -1.69857 3.22241 -0.409532 -0.402472 0.130876 2.15101 1.19227 3.95394 -3.30496 -1.8267 0.931708 3.24077 0.889445 -0.681496 1.48778 -2.22208 -0.585843 -3.21392 1.74093 1.27398 -3.86675 -2.5908 3.40855 -3.58959 1.67023 3.91117 3.05523 -1.76814 -1.25782 -2.29933 1.35311 -2.40154 -1.52945 1.96469 2.61163 1.13126 0.00173312 -1.82699 -3.33908 -0.341495 3.63081 3.29325 2.25909 2.70839 -2.23128 2.26548 2.59695 0.866895 -1.39591 2.82349 0.775102 0.320625 -0.942475 -3.4957 2.37662 -2.94716 -0.589151 -0.994613 1.02224 -2.72134 1.76181 -3.83842 1.24185 0.860386 -2.76586 1.81258 3.624 -2.81655 3.578 -2.46702 -2.15926 1.12418 3.21975 2.81739 -0.962406 1.79504 -2.944 -3.47678 -0.353371 1.37735 -0.403599 1.3739 -1.72431 -1.73964 -0.92584 0.854967 -1.11845 1.57314 3.10058 -0.133461 1.90664 0.143517 0.696402 3.57747 3.57539 1.55001 -1.03232 2.33736 -0.953664 -0.484457 -1.82202 -1.51248 2.39444 3.52075 0.684817 0.0512782 1.30134 1.54384 3.42817 3.21384 -1.13457 0.833349 -1.35351 -1.13958 -0.575082 3.72041 0.307142 1.94962 0.179308 3.66987 2.36993 0.333675 0.941513 -0.777799 1.55255 -2.13466 -3.63089 2.71143 -3.33038 2.73414 1.79491 1.93448 -2.89076 0.116566 1.08093 -2.25841 -1.89634 -0.835473 3.98091 0.622736 -1.06204 2.82775 1.13671 2.17465 -0.433352 -3.39268 -2.21893 3.16632 3.94006 2.05633 0.793389 -2.89541 2.32421 0.909656 2.8315 1.78118 -3.19745 2.49507 1.97679 1.97031 -0.816189 -2.80108 -0.658418 0.717103 1.78622 -0.720253 -2.30025 -2.33234 2.84361 -3.62229 -3.97338 -1.61737 -2.0373 0.36761 -0.777953 0.444453 1.92008 1.05455 2.78602 -2.33461 1.86389 -1.81283 1.12194 -1.07132 3.64665 -2.82472 -2.41003 3.99405 -3.76993 0.504693 3.81692 -3.78613 -3.0451 3.37699 -3.62144 2.68131 -1.10328 -3.16828 0.639035 1.9502 2.02033 -3.53681 3.48494 2.32697 2.36959 -0.314123 1.83786 -1.88919 2.06828 0.676931 0.0528971 1.75522 1.0606 -2.48986 3.62203 2.23478 3.88116 1.73207 1.60852 -0.688225 3.85858 0.91152 -0.385975 2.31785 -2.70477 1.55524 -0.765269 -2.3901 1.31913 -2.03971 3.40215 -1.41574 -0.546049 0.0123557 -0.518933 1.02272 -0.165076 1.119 -0.535228 3.61827 3.67106 2.0223 0.437437 -0.826427 2.0422 2.25637 2.00226 -3.61618 3.80299 -1.11086 1.04309 -3.86269 -2.03079 0.547756 -2.25708 2.87381 2.58826 1.62293 3.60992 -1.11926 -3.19982 3.4512 -0.142246 -3.17055 2.50437 0.807157 -2.79156 3.69231 -2.12512 -3.50767 -0.719384 -3.33654 1.52378 3.70422 -0.653876 -0.401783 -3.65325 -2.92233 2.04202 1.33589 -3.69531 -2.58191 2.00632 -0.845486 0.415019 1.14007 -0.130003 3.38174 2.91867 1.91178 0.824369 3.90691 3.05158 -2.15188 -2.66879 -1.62673 -0.708881 -3.01386 2.58571 0.529078 2.43293 3.25597 3.71335 -0.596787 1.51459 2.30625 -2.39193 -0.395598 3.59638 3.82663 -1.52019 0.792377 2.61759 2.27794 -1.66329 1.90956 0.35508 1.57349 -1.3894 -3.84406 2.96336 3.65013 -1.85146 -3.9074 0.96764 0.963634 3.97967 0.780694 -3.98663 1.79345 -0.848309 -3.06696 2.0582 1.45821 1.83865 -1.62379 -0.749115 3.06512 1.57538 -3.18672 -2.71846 1.93698 -3.48975 -3.53895 -1.96729 2.00349 -2.59357 3.50418 1.86285 0.515567 3.95157 3.91691 3.44598 -0.671238 1.05629 1.01461 -0.196911 -0.632608 0.360501 1.38579 -2.96536 3.89815 2.32772 3.83724 -3.86659 1.7063 3.72979 3.79762 -1.15576 -2.43945 -0.918778 2.11891 3.90483 -1.36934 2.81376 2.84136 -1.40403 -3.08286 0.37998 -0.11547 0.285593 2.11954 3.48235 -1.35186 -0.42143 3.01117 3.69154 -1.3739 -2.55032 -3.72529 -3.45372 -3.33655 -2.421 3.76699 1.21933 1.50706 1.44835 -3.23803 2.29285 0.305413 -3.57584 0.600432 -0.334005 -2.26235 -0.90705 3.51148 3.23733 -2.66966 -2.83017 -3.65675 0.830752 0.200588 3.2884 -2.88157 1.4302 -2.41842 0.147475 -2.03206 1.52202 1.76836 -2.50599 2.12118 -3.76682 0.748117 0.659591 -1.77733 -1.66905 -0.302428 -3.32242 -0.607487 3.92722 0.932887 -3.69018 2.16812 -2.44281 3.38499 -2.36861 -2.75201 -0.153406 -0.645962 -2.84999 -0.0518684 -3.82899 -0.38229 -2.29952 3.17703 2.12898 0.515726 2.89734 -2.83369 2.96172 0.960374 3.55192 -2.19224 2.70208 -3.32832 0.991398 2.64603 -1.82048 3.21469 -3.07645 -3.95385 3.9838 -3.17012 0.666561 -1.3998 1.70706 -2.72204 2.46641 -2.15686 3.99208 1.55738 -3.50419 1.71133 2.99956 -1.23611 -0.510274 -3.24 -2.9206 1.8463 0.393109 3.81074 2.34401 -3.90164 -0.078611 -3.53118 -3.39715 3.57496 -3.82638 3.4231 2.25937 -3.48934 -3.31432 3.53091 -2.1175 1.34958 -0.594341 1.1789 2.80037 3.99792 -0.314477 -1.0182 -2.13677 1.0238 -1.07309 3.5073 -1.76421 -0.314161 2.39566 2.57559 0.0126559 -1.57124 -1.011 3.08526 2.48603 -3.8406 -2.77967 1.9445 -1.18359 -1.68537 2.57902 1.94576 3.45713 2.16216 1.70583 -1.4239 0.0232471 -1.85056 0.834633 -0.196874 -2.90128 -0.932276 -0.954073 -2.41635 -0.455927 -3.64735 1.56574 3.3814 3.556 -3.76288 -1.45538 -3.34227 -0.476235 -2.26108 2.77163 -0.966932 0.366231 -2.91333 0.0797865 -1.97171 2.16038 0.719185 2.60725 -1.05433 -1.52135 2.29728 0.418379 -3.18043 0.900116 0.356663 1.10676 -1.17812 -2.03922 -2.22988 -1.49601 -2.20189 -3.93451 1.87066 2.04613 3.89701 -0.911977 -2.00339 -0.227137 1.38013 -2.05786 3.86144 1.66541 1.30886 -1.40597 -1.40297 -3.01646 -3.64961 -3.07731 -0.62431 2.91956 -1.06998 2.56477 3.23263 0.466601 -2.02966 -1.71237 1.11269 0.362525 -1.12988 0.864342 3.55715 1.19408 2.26579 -0.346288 -3.96189 3.86666 3.16654 -0.578344 1.55347 1.56151 -0.969954 -0.139638 2.48554 -3.34112 2.44727 1.20925 -2.37968 2.27498 3.32657 2.52176 1.58344 2.6551 2.29467 0.412261 -0.0530297 -2.62256 -1.76718 1.73271 -2.70775 2.30306 -0.769535 -2.22724 -2.02368 3.66656 -2.21789 0.850256 1.23769 0.217213 1.93854 3.82588 -1.37026 1.38468 1.57628 -1.64407 3.72162 1.35442 -3.06733 -0.990494 -0.229692 2.90729 1.38564 3.53518 -0.726981 1.94265 0.508587 -3.06511 -2.5652 0.132029 2.5569 -1.16435 1.60941 3.91662 0.651494 -1.93106 0.174279 -2.42119 1.93374 0.435405 -3.57444 -2.48223 -1.63056 -3.0081 2.3282 -3.09791 3.55719 -3.04453 2.13438 3.8705 0.491565 -1.14923 1.5232 3.13502 0.228848 -1.6357 0.790028 -2.58149 -0.747729 1.83505 -2.5541 -3.95241 2.38168 -3.40271 -0.944918 -2.44819 -1.6896 1.95607 -1.13037 3.76478 3.95492 0.145504 2.70894 -0.416175 0.388582 -0.495447 0.549491 3.66174 3.17078 1.16278 -2.5564 3.32948 3.66825 1.64556 -3.54651 2.78081 -3.12721 1.79034 -1.77533 2.60602 0.144123 3.70708 -1.87485 -3.43576 3.57134 -3.60173 2.83789 -1.926 -3.23376 -2.12612 -3.54318 0.43163 0.711868 3.29907 0.384823 -2.51383 -3.91533 -0.778117 -2.68382 -3.86285 -3.67262 3.61166 -2.70981 -1.66027 1.75917 -2.27866 3.31044 -0.533172 -3.82226 -3.19562 0.137588 1.76145 0.365094 -1.67789 -1.81397 2.11339 -1.53744 -3.76611 -2.3249 3.81577 0.941259 -3.76661 -3.0735 1.50018 3.5881 -0.566185 3.47367 -0.746078 3.8685 0.427143 -2.79074 3.77335 -1.80586 -3.88382 2.8528 3.94116 -2.84032 3.46567 3.08529 -0.393649 0.243523 -2.6123 -0.276422 -2.03593 2.53161 3.08888 -3.54437 -0.314267 2.64262 3.32708 2.79897 -2.21343 -3.38213 1.19026 -0.349445 3.73106 -1.95728 -2.51661 3.30026 -1.88685 0.749034 -3.36184 2.52419 1.23847 0.358703 0.446314 -2.78643 -3.63296 1.0372 -1.36031 3.49628 3.70987 0.0488305 2.58132 -0.709332 -1.08028 -0.239204 1.4249 2.12768 -2.86516 -0.30771 -0.081324 3.8444 0.494787 1.54812 -0.832088 3.72021 0.500176 -2.79306 3.35463 -1.79056 -2.83 2.80569 -2.24087 -1.00935 -1.23495 0.542966 3.95416 3.18258 0.419016 -1.06637 -2.48751 -1.1614 -0.824225 1.5872 -1.33351 -0.885887 2.76989 -1.57054 0.790566 3.32344 -2.83291 3.4663 2.01436 1.80095 -2.62245 0.268909 -3.60363 3.44158 2.78731 1.21436 2.18799 1.49107 2.37896 -1.69078 1.62115 3.30796 -1.3153 -2.00803 -2.60521 0.43982 -3.74049 -2.26331 1.88939 1.75199 2.47218 0.988079 -2.28618 1.04404 -0.196078 -2.54933 0.397678 1.80811 -2.38231 3.33848 -0.930877 0.75898 -1.8902 3.81693 -1.93213 1.15743 1.59769 1.6853 -2.95017 3.02367 -2.81329 -1.87462 1.38389 2.95923 2.02463 -3.40632 3.4354 -0.306567 -1.2307 -2.0568 -3.73751 0.955356 -1.27032 1.59789 2.15283 1.18669 1.00544 0.484588 -2.2812 3.83992 -2.49004 -2.53323 -1.35513 -0.788949 -2.56123 2.77056 -3.41462 -2.11632 -0.105939 0.710333 3.49424 2.81334 -2.31048 0.555992 1.64137 1.74004 -2.88976 3.21821 3.85863 0.506749 0.694763 3.33175 -1.08021 -3.56372 2.36444 3.91391 0.646876 -0.768151 -3.81789 1.96973 1.06663 3.47079 3.27264 0.394081 -1.1689 -2.97117 1.61277 -2.89336 -0.690594 1.69017 -1.20693 -3.48943 -3.65341 -0.25809 -0.457969 -2.4665 -3.27605 -2.14401 -2.05081 -0.334596 3.35066 3.0606 0.274605 -3.44807 -0.121066 2.25128 2.1682 -0.801268 1.54258 -1.61505 0.84855 -0.659761 2.95744 0.828307 -3.00372 1.7165 3.57493 2.49266 -0.398124 2.99102 -3.00915 0.170309 3.30229 0.759436 1.26507 -3.0302 3.75779 2.70179 -3.87423 -1.38025 -3.9058 -2.8575 3.19329 -1.89327 3.79667 3.07587 2.07298 3.293 3.75137 -0.285506 -2.06955 0.176793 -0.568016 -0.992775 -3.70687 -2.1101 -0.38574 1.95542 2.76547 3.68036 -1.17277 -2.49411 -0.839838 -1.23154 2.95699 -3.05444 1.38748 3.65555 -3.00849 2.58507 1.55832 0.722867 0.927317 2.85385 3.74363 -2.98726 3.80034 -0.735542 -2.09825 1.35204 -3.58302 -2.22718 -3.65342 -1.11049 -2.87512 -3.6953 -2.28687 2.00077 -1.32038 -0.868329 3.26921 2.38392 0.634896 1.23965 -3.54799 0.655752 2.78364 3.59579 -1.2879 3.77264 -2.13916 2.50555 -3.67275 -3.01836 1.94528 -2.26801 3.89323 3.2163 1.14294 -3.85103 -2.49946 1.58677 -0.512831 1.21065 0.32046 -1.14986 3.01508 -2.51507 1.98846 3.10681 0.510899 -3.14022 -3.99928 -0.628506 1.21978 -2.6591 1.42703 -2.89873 3.83275 1.36415 -2.26327 -1.16132 -3.59974 -3.68893 -0.883877 3.61652 3.09682 0.248369 -2.44392 -2.14142 -0.443567 -1.30753 3.41599 -3.81697 1.29625 -0.411653 1.05817 0.772269 -2.78699 2.74981 0.0625889 2.87182 -1.07403 -2.84898 1.74933 3.10734 -1.80273 2.58972 0.95016 0.458645 0.537192 3.84587 -0.682728 -3.22331 -2.98181 2.70239 -1.61422 -3.65594 -0.418573 -0.62617 -1.74948 3.86399 -1.71493 -3.8833 2.95701 3.21457 3.35637 2.74341 0.286208 -0.466116 -3.00209 2.59077 2.59513 -2.45622 -0.640551 -0.0157738 1.67495 2.53443 -3.06414 0.448703 0.76904 1.95942 2.11519 3.26735 0.273949 -2.83484 -0.626554 -3.51855 2.27511 2.45599 1.1227 -3.47101 3.34298 -1.48778 1.55104 -2.02341 -2.50085 0.475036 2.83755 -3.94464 -1.45228 -1.07974 -0.205178 -2.68907 1.88666 -0.293315 0.977173 -2.32965 0.903589 1.88522 -2.2059 -0.238294 3.67491 1.836 -0.0157526 -2.09616 -0.410646 -3.19404 -1.56553 0.873582 -0.274208 3.93817 2.64675 3.51319 -0.698582 -3.9499 -2.93209 2.50346 -2.21949 1.82533 -0.267176 3.72984 1.05508 -3.91715 3.26809 -0.334696 0.383338 1.92856 -0.849831 -0.199932 -2.75352 -2.76506 3.83231 -0.444499 3.43935 2.94741 -1.95644 0.0208245 3.38548 -1.7409 3.35301 -3.29679 2.6563 -3.9138 -3.93679 -2.65316 -1.30452 -0.524741 -2.61831 1.43324 -0.206469 -0.0781171 -3.27641 2.61838 -2.25419 -1.0004 0.354376 1.03631 -3.52317 -2.1583 0.614502 1.05474 1.71165 -3.87772 1.04798 0.615741 3.37649 3.39337 0.597888 -3.43331 2.00347 -1.67286 -1.36414 -2.92197 0.889972 1.02218 -1.51104 0.416935 1.6712 0.0998114 -2.75037 -2.27903 -2.78254 -1.58521 1.55341 2.92062 -1.92385 -2.49441 3.80502 3.77904 2.81195 0.831439 -3.74303 -2.38827 -1.84843 1.51176 2.91438 -1.11673 0.479523 0.679554 -0.934809 3.83777 1.53665 -2.68287 2.364 -3.24289 -1.42329 1.22562 3.31908 2.61354 -3.42952 0.205358 0.363082 -0.523646 -2.48369 0.617647 2.97339 1.25332 1.16141 -2.37115 0.789083 0.867408 -2.25251 -3.90005 -2.21576 1.58899 -1.92149 -2.60614 3.11701 3.82754 -1.97128 -1.92684 -2.30129 -2.32214 -3.55037 3.25247 0.57828 -3.33055 -2.23003 3.84524 1.10615 -2.89565 1.84239 -3.73141 -2.97447 2.2988 0.625748 -0.174123 -0.919914 1.87172 -0.147506 -1.3021 -1.27109 2.51353 1.92183 1.00063 1.70711 1.33636 1.58652 1.23607 -0.388924 0.471789 3.42475 -2.58071 -1.71464 -1.10207 -3.22594 3.30213 3.27174 -2.53579 -3.53303 -0.313663 2.15768 -2.43589 -0.139843 -3.40261 0.50968 -2.72372 -1.18706 2.92948 0.829743 -0.860705 2.46199 0.227553 0.227495 2.37792 -2.96718 -3.28265 3.78905 2.86444 1.60462 -0.285766 -3.54669 1.64916 1.96778 -1.01528 -0.756477 -1.41631 1.8863 -2.83601 -1.08074 -1.19044 3.81246 -1.09171 3.80483 -3.02931 -2.22118 -1.48227 2.54797 0.499709 1.05219 1.76365 0.429521 2.01856 3.34463 -2.65765 -0.968989 -0.877118 -2.98485 -2.08286 -3.90568 2.48763 -1.2494 -0.928491 -3.26519 3.36143 1.61149 -0.735409 3.80416 -1.27666 2.01743 1.10433 2.10352 -1.07837 -3.5965 0.641719 -0.0322778 1.94789 -1.35323 -3.46445 3.29538 -3.55895 3.74716 1.35562 3.81722 -1.10106 -1.22041 -2.65864 -2.98108 -1.49165 -0.314707 -3.23752 2.5861 -3.46223 -2.27898 3.42801 3.79405 0.799505 -1.73334 2.2352 -0.656689 1.67775 2.82946 -0.44399 -1.34123 -0.538105 -1.95881 -0.731757 -2.17877 1.60154 0.996627 -0.792594 0.729881 2.55832 0.28248 0.068175 2.31797 -2.17206 -3.02684 0.340592 0.211012 0.338154 2.67765 1.05249 1.25379 2.25654 1.95253 3.3084 -2.23861 3.25043 -3.65404 3.69078 -1.82779 3.02246 -3.90626 -0.0483856 -1.91329 -3.76717 1.72973 2.29675 -0.388913 1.0903 3.76077 -0.761361 -1.12268 1.67187 -0.443476 -1.75872 3.10282 3.817 3.22762 -0.530646 -3.83548 -3.46675 0.183045 1.52172 1.79547 1.62437 -1.99468 -2.89823 1.87461 -3.4551 2.63577 0.144355 2.60813 3.68594 -0.388837 2.22348 1.98744 -1.03158 3.26926 -2.59884 -3.09211 -3.35081 0.62415 -0.707985 2.50721 3.14518 1.49869 -1.20198 -2.29031 -2.15476 -3.85293 0.760269 2.98755 0.502766 -0.30577 -2.43513 2.58408 -0.710632 3.7679 -0.362069 -0.732128 0.892858 -0.300235 -0.56511 0.671064 -0.923868 -3.96871 0.264655 -3.23008 -2.5135 -3.18744 -2.82226 2.98848 3.91948 0.168103 -1.01926 1.56554 1.95673 3.58026 2.66557 -1.76659 -3.97398 3.61241 1.68049 2.55307 -0.378546 -2.35828 2.29581 -1.35983 -1.37549 -2.14853 1.34584 -1.19574 1.09829 0.743007 -3.75779 1.21385 0.203833 1.94131 3.60823 -2.23023 3.18766 3.49151 -1.22946 -1.65279 -0.689125 -1.40946 -3.57776 -1.70165 1.26398 1.9596 0.374481 -0.897322 -2.00211 -2.75966 -1.18892 1.24254 -0.0379243 -2.09636 0.142775 -1.2507 -3.56214 -3.83876 -0.486705 0.041221 -0.652649 0.17956 -3.8492 3.25796 2.03408 1.85573 -0.591588 -1.02571 -3.86591 3.22547 1.60828 3.31177 -1.49002 2.27678 1.43259 3.77136 -3.19402 -1.10765 -0.545129 2.00813 -1.04231 -0.852141 1.63105 3.29804 2.20251 2.54797 -1.39461 -1.51511 -2.11805 1.39271 1.14841 -1.38455 -0.438988 -2.19768 3.41161 0.44215 -2.52039 -3.78863 1.58039 -1.74429 0.983865 1.61379 -0.146402 -2.12008 0.911854 -3.81644 -0.169385 -3.63211 1.6776 0.405615 3.34581 -1.44354 0.213173 0.0744326 -0.925951 2.67924 0.674645 -0.918686 -0.652312 -3.23079 0.565843 0.708499 -0.581117 -0.517437 1.97091 3.03775 2.85978 0.564746 2.49705 -1.23202 2.94947 1.67413 0.491828 -1.61407 -2.93758 3.41285 2.8397 0.478973 1.62434 -1.6855 -0.503162 -2.48707 0.158881 -0.719172 2.42664 -3.94298 -0.878652 -3.54874 -0.701678 -1.78266 3.7976 2.57397 0.140358 1.39975 0.285966 -3.88632 1.21463 -0.663464 -1.03841 -1.59808 -3.98434 -0.725418 1.06089 -2.31851 1.26124 -1.778 1.75619 -1.30654 2.78523 3.91833 2.60501 -3.70261 3.28234 -2.22636 -2.04282 -1.08254 0.97824 -2.56988 1.4865 -3.96281 2.97051 2.46709 0.973493 0.190413 1.16136 1.07933 -3.12068 -3.1596 2.18169 3.82794 0.534228 1.02553 3.56768 1.58522 2.93233 2.25021 1.37087 1.0787 1.14595 -1.9537 -2.67778 -0.577635 -1.50675 -1.43349 -1.04113 3.14466 0.143945 2.95764 0.502192 2.77114 -2.7885 2.49383 1.92256 -2.22697 3.99325 -0.590572 3.25038 -3.47543 1.93006 -1.08084 3.70019 -2.01921 -0.222416 0.304059 -1.16595 -2.16038 -0.584315 3.3818 3.71532 -1.07702 -3.3106 -2.51166 -0.28022 -0.810447 -0.868081 -2.24807 2.09939 0.456871 2.0645 1.03501 0.262437 0.0763146 0.567639 2.05668 -3.46887 1.63707 -2.63822 -3.99564 3.3638 -3.66102 3.70898 2.45273 1.75976 2.96759 -0.409215 1.47942 -1.63725 0.476092 2.49815 -0.600048 0.042636 -2.13751 1.75045 1.73349 2.03189 -3.38908 -0.00236622 3.62456 0.38735 3.21983 -3.51747 -0.209645 -3.46966 1.48387 0.232179 -3.18314 -2.73179 -3.31043 -3.2914 -3.62985 2.0289 -1.32944 3.27152 -1.75062 -1.75468 1.60533 0.369809 -3.54946 -1.89697 3.75533 3.97099 -1.87357 -3.71743 -1.65505 0.718796 3.43138 -2.31508 -0.95516 -2.15548 0.259795 1.17159 0.323487 -1.6908 -2.23322 1.57512 1.07001 -1.93474 -1.08879 -1.80919 1.13664 -2.01452 -1.21893 -0.644915 0.341983 2.86971 -2.3215 -3.37959 -1.30033 0.766594 -3.65861 -0.0790483 2.73357 -2.45386 -3.8714 -0.881159 -1.37028 0.171111 -3.35264 3.93861 -3.933 2.43252 -2.10881 -3.01625 -2.8722 -0.228717 -3.26909 -3.45179 -3.36285 1.74669 1.19315 0.109421 0.967567 -2.54278 -2.42231 1.97646 3.74125 3.19391 -1.89062 2.19394 -1.09738 2.4696 2.236 -1.88442 2.57043 2.95646 2.08657 0.0630276 -2.61649 0.872217 -1.68283 0.315798 -2.9242 -2.52871 1.6644 2.55978 -3.57339 -3.56169 -3.35479 -3.93049 -0.0906535 0.617321 0.706487 3.74481 3.71816 3.6042 -0.647306 3.2905 2.07403 -0.593496 -2.97165 1.46317 3.88474 1.60227 0.979791 -2.96344 -0.471885 -2.79275 2.40119 1.79513 -2.03841 2.61648 -1.37646 -2.43887 -2.54577 0.712659 -2.83038 -3.83639 2.37935 3.611 -0.757132 3.72182 -3.99128 -0.865902 -0.638847 -0.834076 2.67178 -2.16799 -0.532845 -3.87998 2.74821 3.26392 1.44012 3.10944 2.81145 1.7235 -0.995395 0.355956 2.69423 0.519263 0.456941 -2.06707 0.926696 2.59116 -0.797135 -0.473427 -2.08474 2.21217 2.77391 2.37494 0.50533 2.80363 -0.612503 0.95679 0.676081 -1.09846 -1.82706 -0.973051 -3.51129 -0.225289 2.01742 2.44539 3.99408 2.85504 -2.62534 -1.86134 -1.93445 3.49719 -1.73376 0.560773 1.78279 -3.07177 0.129031 3.56085 -1.69373 -2.61634 0.0129584 2.55254 -1.42678 -1.34508 -0.0960305 -0.222805 -0.706748 -2.16883 -3.81537 -2.28959 -0.315371 -0.851617 2.03022 -0.933053 1.08694 -0.956619 -2.60487 1.69398 -2.13767 3.1719 0.794049 1.62075 -2.24452 1.83505 3.85165 3.2628 2.84105 -0.910944 1.04509 3.79332 3.6283 -2.76263 -1.14412 2.07124 -1.35429 0.345165 0.32465 2.13537 3.76768 -2.68428 -3.54965 -2.12157 0.943167 -0.00990577 0.86478 -0.984337 3.84704 2.7278 -0.026398 2.80983 -2.48394 -2.5536 -2.44809 2.42902 -2.30518 1.85068 -1.01454 -2.25804 2.80474 -1.58342 1.33166 -2.66456 3.41314 -3.88545 -2.88051 -1.53645 -2.53377 0.94112 -2.00903 -1.01623 0.655706 -0.558431 3.15715 3.17746 1.28478 -1.32903 -3.44333 1.30131 0.200003 0.0980165 1.85358 -0.930155 3.39043 1.0368 2.83097 -1.84677 2.77605 0.961877 1.58396 0.906043 -0.942646 -3.23329 1.79166 -0.0423079 -3.34282 0.598332 -3.35401 3.33244 -3.05664 2.12614 -0.267656 3.28427 -3.04951 1.70301 2.04959 1.73269 1.15812 3.87496 0.656683 -0.0738301 -0.110493 -1.74909 2.01886 0.119149 -0.284824 1.71452 2.00276 0.583198 3.70169 -3.35555 -0.381607 -2.2158 -2.60991 3.33965 -1.93157 -1.57524 -1.05013 -2.28213 3.88698 -1.10799 3.18421 -3.4841 3.99031 3.81455 -2.5175 1.54401 0.217689 3.02876 -1.5693 -1.96261 2.70201 2.41819 1.8914 0.522011 -3.91036 -1.02969 0.599307 1.17131 -1.40565 0.853627 -1.34454 -0.759419 -2.30885 -1.05046 3.15729 3.37059 -0.134027 1.98049 1.74176 -3.70393 -3.70176 0.38605 -1.74272 0.791862 0.25863 0.723439 2.4342 1.76441 2.12989 -1.95007 1.90189 -0.0978258 -0.975603 -0.614259 3.59368 -1.40409 -3.56489 -0.584892 -3.52884 -2.39859 2.1682 -2.99589 2.63841 2.25769 -3.23047 -2.51375 2.22131 1.28759 0.615095 -3.53629 3.55832 1.5991 0.234724 1.35836 -0.9785 1.84569 -1.70082 1.84388 -0.385078 0.554932 -2.2607 0.856779 0.421898 -1.05135 -0.794649 -2.96233 -1.23215 2.76761 -0.490911 0.390867 0.0384496 0.649711 -2.5554 -1.70033 -2.90946 0.422307 -0.159142 2.26 -3.73375 1.78388 1.14979 -1.32394 -0.102785 3.23615 3.83394 -2.95418 -2.38541 -0.265597 -2.33645 -1.13633 1.4502 1.49145 1.52807 -0.718827 1.43057 -0.126724 -2.29866 2.29807 -0.435991 -3.97545 0.990321 -0.468226 2.04296 1.86276 1.39196 0.953016 -2.28261 -2.25549 -1.63562 -3.08329 -0.0152345 2.94446 2.7262 0.78251 -1.63997 -2.32424 2.12941 -1.48264 0.283516 1.67823 2.42318 1.15457 3.49441 3.7779 0.687662 -1.75759 2.70651 -3.6169 -3.89061 1.67251 0.3541 0.736298 0.208602 1.79502 0.910784 0.348996 -1.44338 3.34709 -3.13296 -3.41673 -3.06014 0.100214 -1.1205 0.607944 0.0464095 -0.764462 1.08079 -1.91728 -3.70832 3.47594 2.66268 0.524891 -0.697404 0.401852 -3.02135 -1.54474 0.0392872 2.49794 -0.530905 2.72595 2.4753 -0.0593033 3.09774 -1.04832 -1.04653 3.07493 -2.04141 1.1652 -3.78885 2.40297 -2.11113 3.11651 0.409402 -2.85487 3.71255 -0.323452 -1.01836 3.56487 3.02516 -0.129868 -1.91936 2.25055 3.66439 -0.952711 -2.4083 1.90391 -0.0908573 2.52104 0.570915 -0.408242 3.35928 3.48361 3.56689 3.80774 -3.14307 -0.487479 -2.13207 2.09751 -0.832652 0.698101 3.21896 0.0180823 3.5448 3.15048 -3.04797 -1.1461 1.56766 3.79643 -2.01655 -3.28403 3.40229 -0.262431 3.71057 0.964271 0.793321 -1.61933 -1.37548 2.36453 -3.56313 2.81389 -3.99241 2.88077 -0.168571 3.12704 1.80958 -1.8003 2.54353 -2.71449 2.38143 0.519782 2.55713 -0.576607 -1.53424 -0.202742 2.85244 -3.19196 -1.32358 -1.08929 3.25318 1.65546 3.73079 2.70622 -3.48186 2.0151 0.642177 -2.43417 -0.710171 -2.76754 3.31406 -2.48998 -0.651313 3.46519 0.478611 2.50543 -3.04935 -1.37999 -1.00856 3.99109 -2.11503 -1.41822 1.19895 1.24727 1.46691 -0.649218 1.25154 1.22321 -0.685868 -1.65613 -0.826527 -2.79222 -0.0167465 3.46048 2.54501 3.82699 1.36348 -2.44097 -0.898787 -1.7832 2.41525 2.14191 -1.38047 1.84495 0.680616 1.09688 -0.375088 -0.107281 1.91338 3.97424 -1.49737 -3.44074 0.0351098 2.12899 0.274138 2.73229 0.367973 -2.10029 -3.17502 -3.69713 -0.62205 -1.78534 1.03227 3.79333 2.38361 -0.0113007 -3.28994 -1.83731 3.96764 -1.96785 -2.57603 2.04808 -0.864871 3.43396 1.29361 -2.37644 2.78398 -3.79093 -3.11307 -0.200708 2.53796 1.73899 1.60704 3.98142 -3.33447 2.91351 2.95567 0.507616 -3.56079 -0.86223 -1.23792 1.98898 -2.74631 2.03241 -1.59696 2.78848 -3.2504 -1.41941 3.878 -1.99594 -2.64036 3.63954 1.90853 -1.90764 2.46632 2.59983 -0.86259 0.700399 -0.793539 -1.05353 -0.066589 2.92877 -1.63372 -2.30049 3.26178 1.84886 -2.39185 1.07872 1.35718 -0.464619 0.92042 -3.3452 2.16064 1.68007 -3.60271 2.792 0.199734 3.79969 0.470443 -2.05046 -2.32167 -0.759474 1.54043 -3.62216 -1.12014 2.8187 0.461649 -3.74397 -3.6023 1.10504 2.8827 -0.816456 2.49501 -0.0319329 3.17352 2.83588 0.349191 -1.98377 -1.82468 0.188991 0.0433736 -1.62885 1.21362 -0.0758497 -0.71593 1.38366 -2.1451 -3.61773 -2.09962 -2.28259 1.74468 1.50923 2.78637 1.1011 -0.19855 -2.6527 -1.11506 1.30363 -2.95767 -1.57214 1.48418 1.62848 0.43129 -1.71098 -1.32703 0.871409 2.49309 3.27567 1.21353 -3.58831 -1.7532 -0.610285 2.79002 0.924354 -0.0749492 -3.98657 3.96954 -0.286312 3.8159 3.38382 -3.78453 1.39768 -1.1106 3.79849 1.11292 3.55572 -3.1947 2.49785 -2.0951 2.55491 2.06657 1.5169 -2.00726 -1.64786 -1.29259 -2.73572 3.89194 1.37362 -2.46964 -1.01875 -0.263914 -2.39761 1.99274 1.89311 0.577086 3.87246 0.678285 -2.37802 0.69955 1.25877 0.206068 -2.69931 -2.80604 1.34856 -2.90971 -0.924008 3.73481 -3.9245 -3.05115 2.28415 -2.02942 2.22788 0.197498 3.51809 3.66786 -2.85212 2.56794 3.30211 1.11674 2.81231 -3.21037 0.975143 -1.73348 2.89477 2.74778 3.4398 -2.81909 1.00882 0.988813 1.1421 2.43071 2.58587 -3.80641 3.54626 3.03353 -0.855433 -3.95958 1.69243 -1.8711 -2.58795 -3.98078 3.65297 1.21854 -3.92912 -2.06503 -1.79451 3.3474 1.34358 -1.61564 -1.6224 3.71954 -0.916496 3.89742 -1.68047 2.1791 -3.95715 0.839032 -2.9081 -3.29885 0.716875 2.9278 0.887099 2.56806 -3.95595 -3.51255 -3.99404 -1.74424 -1.34763 -3.9566 0.102104 3.173 -1.11011 -3.72943 2.36988 3.58081 0.584272 1.58575 1.10083 3.82756 3.6802 2.73152 1.84454 1.8856 0.854896 1.58813 2.56005 3.77345 -2.21529 0.15323 0.813376 1.21418 -2.44669 1.26533 1.11272 3.39096 2.88303 -2.47375 2.51972 0.636756 -1.31831 2.59528 -2.28318 1.47285 0.949525 -1.02651 -3.22219 -1.4416 2.28016 3.26379 0.688745 1.64728 3.12464 3.37985 -0.802489 -1.70492 -1.21219 2.22243 3.57736 -2.31295 3.85483 0.0598417 1.26739 0.265269 1.1156 -0.520574 -3.2206 2.4274 -0.354553 1.18407 2.50934 -3.45047 3.70145 -0.485287 -0.0629612 -0.379254 -2.33108 0.427058 3.9857 3.92768 0.357283 -3.97042 -3.36872 3.58348 -2.76026 1.45533 3.56469 -1.04467 0.368826 3.74698 2.15407 1.50869 -0.303276 1.51878 -0.756392 0.815618 1.83502 2.47488 -3.85604 -2.3351 2.58768 1.07757 -3.73122 -1.09929 3.99133 -2.29982 -3.84802 -3.49615 -1.82793 3.68007 -2.43866 -1.85608 -0.261808 -0.635606 -2.26851 0.56326 3.85715 1.51105 0.652267 1.95046 2.15651 3.18724 1.76567 -3.92469 -2.82357 -0.385996 2.34108 0.254985 2.42942 -0.76771 -0.984615 3.70103 -2.32245 2.82937 -3.74194 2.2221 -2.65912 0.743735 -2.9147 -1.34157 -2.06516 -0.324908 2.07297 1.13279 -2.06848 2.01628 2.61501 1.42302 -2.556 1.21168 -0.738107 -3.17669 0.866839 0.595964 -1.40347 -1.85413 3.34292 -1.62661 -0.338232 -1.37535 3.3618 -3.83771 -1.36335 -0.684837 2.85892 3.64475 -2.69908 -0.480709 -2.44718 -0.768879 3.87436 0.428175 0.792403 3.87084 1.05324 -2.22314 3.03296 -3.86304 0.334301 3.91783 2.43287 3.10118 -1.89423 -3.3916 2.80418 1.13287 -3.68846 2.69262 -1.50069 -1.43142 1.64252 1.52834 1.10406 -3.4263 -2.67095 -0.591124 -1.45558 0.729583 1.24289 0.342373 -0.764531 0.157298 2.38644 -3.96344 -2.39925 -2.07215 2.29305 -3.0396 -0.584894 -3.21037 -3.07896 1.21889 -1.20014 -0.220696 1.45192 -1.23928 3.70506 3.14248 0.572099 1.16887 -2.76086 1.62049 0.0568747 -1.86435 1.62902 -0.157615 -2.67216 -1.0248 3.17047 0.257127 3.0044 -1.87491 0.168414 1.99746 -2.95421 -3.32468 -0.653708 -0.0086116 3.46342 0.364075 2.86903 2.16452 -3.3402 2.90946 -3.09977 -2.40677 -3.07599 2.96024 3.28506 2.2865 -1.47858 1.80138 -3.24644 1.99464 1.94654 2.39945 -0.444417 -3.01155 0.795927 3.02948 0.107275 0.717601 -2.0344 -1.79808 2.47584 -3.79574 1.02828 -3.37018 -3.78216 -1.39646 1.51794 2.24657 0.195415 -1.89037 -2.80574 -0.967714 -3.46516 -2.71319 -0.359889 -1.92907 -1.59777 1.92944 -0.0396432 0.116523 3.13442 2.07106 -2.23338 -1.14252 0.514499 -0.881641 2.47711 0.0174819 3.60887 -0.633929 -2.25873 3.04159 -3.02722 -1.15516 -3.36968 -0.816011 1.89514 3.26235 -2.13283 -2.46773 -0.747632 -2.63878 2.88632 1.37589 2.33795 -3.31161 -0.807797 -1.32337 -1.87916 3.85473 -3.53006 -3.83776 -3.74887 -2.36107 0.00297427 -0.547139 3.58958 -0.59004 -0.626324 -2.16079 -2.23902 1.43535 -3.90859 1.43348 -2.9984 0.049104 -0.0608051 -2.55885 -3.30753 1.20088 -0.678388 -2.00551 -0.362855 -1.91617 3.58941 -3.09011 -0.313321 1.47247 0.760711 3.32113 -0.141421 2.26464 -1.24784 1.77664 2.91144 -3.74575 -3.16991 1.21419 3.80488 0.382218 -0.529226 2.96573 -3.45893 1.55866 1.70751 1.27197 -2.98576 2.53736 -2.82478 -2.756 2.22257 3.67809 3.94873 -3.48006 1.09406 3.13388 3.0053 3.47137 2.93375 -1.83479 3.64563 -0.0149728 -2.20256 -0.314764 -3.97142 3.55317 2.79164 1.17246 -1.48896 -1.42815 -2.33863 2.6265 0.662888 -2.78232 2.89513 3.15029 0.144224 1.75012 -2.83363 0.884834 3.27845 0.274885 -0.0944036 1.04797 1.4136 -2.98639 2.07867 -1.3235 -3.86603 1.07046 -0.848013 -0.235949 -2.39855 -3.69405 -2.33236 3.91452 0.43446 -0.684317 -0.697496 3.5 -1.62347 -3.26144 -1.19188 -2.966 -3.85614 -2.82009 3.5934 -0.930024 2.87354 1.52206 -0.123175 2.85959 2.80869 -3.32177 -2.26941 2.98315 0.141625 -3.4727 -0.448341 -0.129953 2.51728 -3.32416 0.614002 1.37846 -2.5635 1.47895 -3.4448 -3.36315 2.17482 -0.0987586 -2.02254 -0.85335 3.60856 1.08271 3.8559 -0.4545 -1.12647 3.22388 -3.66644 -1.86671 0.418716 0.722549 -0.916724 1.84012 -1.3169 -3.57771 -0.567639 2.94448 0.267873 -2.32167 0.955914 -2.82005 3.94625 -3.79255 -2.27674 -2.73366 3.91248 2.66919 2.83328 -3.52275 -3.61181 3.00601 1.44384 2.45304 2.2144 -3.43596 1.28004 -0.965769 -0.958243 -2.58901 0.867411 -1.03062 0.930528 3.93372 -1.48372 0.0344767 3.28249 0.795337 -3.99932 -1.63311 -1.2524 -2.84432 3.60263 2.01648 1.36483 -3.21753 -3.32478 0.0619352 -0.584315 -3.99441 0.28488 -2.19586 3.34303 3.80926 -1.2745 -3.97303 -2.63553 2.84957 2.25468 1.93778 -1.51941 1.98784 -0.819579 -1.28695 0.525276 0.4845 1.63792 -1.45632 -0.118823 2.08933 2.21071 -0.833348 -2.20038 -0.473457 1.34628 -0.83934 0.352966 -2.52321 -3.81903 1.03393 2.61302 0.906647 1.145 1.82428 1.44697 -2.53538 -0.0246125 -2.10136 -3.08665 1.12728 -1.6871 1.1883 -0.399751 -1.34483 -1.53293 0.572325 3.09992 0.813497 3.75998 -3.96854 0.214637 -3.55043 1.89336 -2.23951 -2.70094 0.190412 -2.23534 -2.73915 3.18082 -0.258605 -0.3539 0.474994 -1.02579 -2.86202 -3.26611 -2.01367 -3.00786 -3.31242 0.153912 -2.74377 -0.454712 -2.11696 1.31293 -0.581196 2.46764 2.03621 2.28813 -3.2107 -0.551581 2.83332 0.819326 -0.443836 3.35785 -1.84158 3.25945 1.41674 -3.63494 -2.16538 -1.06945 -2.39906 -0.669463 2.78755 2.02858 -0.828374 -3.67923 0.234751 3.07557 -1.15972 1.63185 -1.33076 1.43342 -0.568465 -0.566409 3.01669 -1.48158 -2.81302 0.984811 1.96114 -3.9913 -1.68263 -2.3359 -1.1758 3.02552 3.05031 1.89604 2.44987 1.11347 2.30794 -1.88085 -1.79138 3.98295 0.0399423 1.81122 -2.98637 3.68796 0.31568 -0.575006 -1.09762 3.48678 -2.37548 3.70824 2.3178 -3.27092 1.4001 -1.63613 3.17083 -0.376019 -3.57983 0.630956 -1.62742 1.42643 -1.11336 1.23015 -1.63926 -0.602535 0.257651 -3.638 -2.50398 2.6238 0.132665 -2.91746 1.0145 0.0530526 1.03823 -0.831032 -3.32802 2.82899 -3.18883 1.12269 -2.74227 -1.19249 0.74935 -1.18978 -1.86563 -3.09455 2.93057 2.13063 1.45788 -1.27689 1.56247 -2.58545 -2.88508 -2.53289 -3.94663 1.09171 -1.21767 -1.8542 -3.17284 -2.65715 -2.13544 1.40006 2.56339 1.40241 -3.74159 3.89226 0.444314 -1.20243 0.0582979 -2.3558 -0.694329 -1.81151 0.962719 -1.06385 -3.97373 -0.605103 -1.43254 -2.60782 3.7691 -2.24372 3.68455 -2.79538 -3.2092 0.423223 1.22556 -1.9723 -0.653202 2.837 -3.38374 3.83911 -0.470018 -3.52088 2.42618 -1.24293 -1.91685 -0.109715 1.84155 0.300742 3.35085 -2.85099 -2.97989 -0.503816 3.48505 0.829074 -0.773328 -2.4371 2.03899 -0.951643 -2.59092 1.06629 -3.2484 -3.04288 -3.83419 -1.26444 2.53923 0.0506801 0.0164115 -1.5006 2.11155 -0.623406 0.0759567 -1.5088 1.65934 0.61696 -0.769825 2.98213 -1.79116 -0.86049 0.230015 -0.467123 -3.46286 -0.881274 -1.05046 -0.711309 1.39982 2.63552 -0.744729 3.01547 -1.37859 -3.53008 -1.20518 -3.12679 0.958587 -1.18648 -2.92362 2.10092 1.58787 1.66937 3.83572 -3.74876 -3.63319 -1.60817 -2.54417 0.623098 1.1784 2.58583 -2.84534 -3.90953 1.66156 -0.00708457 -0.199019 -3.14166 0.885198 -3.94098 1.46328 -3.67406 -1.33607 -1.00078 0.624737 1.49334 0.12996 -2.63758 -3.35334 -1.47963 -0.58402 3.30992 0.472685 0.834585 -0.1984 3.31059 2.19374 -2.36973 -1.95272 1.80704 0.417018 3.01326 1.49146 3.9114 -0.999412 3.31941 0.213948 -3.07134 -2.33841 -0.0129109 0.052344 0.30981 -2.24582 -2.23033 2.46101 2.59438 1.65538 0.774717 2.1669 -3.62119 -2.63991 3.13435 1.32944 -3.40502 0.443328 2.1166 0.563263 -3.64279 1.21721 2.01603 -0.256662 2.30271 3.32963 2.40463 1.62995 2.54983 0.656749 3.47092 -3.02172 -0.829811 -3.2095 -3.43828 1.67204 -1.27954 -0.683004 3.45263 2.69343 -3.21915 -2.82387 -1.89164 0.886984 3.39192 1.6286 0.113821 -0.599881 0.763104 3.52338 -3.21056 -2.60934 -2.68731 -2.71801 -2.33305 2.69135 0.817123 3.20826 -1.6759 -3.89884 -2.4552 -1.29619 2.50762 -0.210324 -0.746251 1.90188 -2.49345 -0.959117 0.53947 -0.206681 3.92246 -1.88331 1.16939 3.94703 -2.10195 -0.667018 -2.4872 0.226718 1.02956 2.53251 3.72416 3.96469 1.72964 -2.35956 3.1686 1.72032 -1.80728 1.82377 3.97087 1.26816 -3.75762 -2.72156 3.07013 1.84541 1.9403 -2.5932 3.93032 0.136185 2.62722 -3.21373 -1.78244 -1.14206 -0.423612 -1.768 0.983086 -1.75423 3.82935 1.47621 1.02052 -2.69428 -0.7165 2.78325 -1.39066 -1.19197 -2.63569 0.960286 -1.88053 -3.26411 -2.18576 2.46465 -0.441977 0.978653 2.98205 -3.01008 -1.88288 0.775764 0.869871 1.07557 -0.924384 0.34084 1.891 -3.83664 0.0979042 2.7417 -0.425954 0.15038 1.22991 -2.11809 2.45384 -1.62115 2.84066 -0.720563 -1.07588 0.317069 3.76644 2.95609 0.461195 1.15421 2.52912 -3.13493 2.7819 1.70579 -1.1443 3.00994 -3.09228 2.88075 3.64034 -3.04055 -3.97055 -1.79742 -2.12962 2.35493 -3.73239 -1.0593 2.89119 1.1994 3.46442 -3.29099 -1.07036 2.12481 -3.91089 -3.85882 3.46751 2.22578 -1.23802 -2.6922 -0.754061 -0.8024 -3.49073 3.63678 -3.40186 -1.45498 -0.699688 -1.20268 -2.32085 3.586 0.438603 -2.27451 -2.63924 2.04239 2.58375 -0.813486 0.38067 -1.08855 3.99864 0.537419 -1.25389 1.0476 -1.42756 -2.66115 -1.32583 -1.6331 -2.02325 -1.22185 -3.00338 0.0515546 0.732435 1.80998 3.19536 -2.4602 -3.76956 -3.95018 2.185 0.748889 2.82367 2.57676 -0.766489 -1.13893 -1.28992 -3.85844 1.95003 -1.41571 -3.83781 -3.21379 -0.295434 3.2638 0.986574 0.723451 1.56549 2.54149 -3.24195 3.9848 1.76126 0.2165 3.88446 -3.22719 3.33621 3.7283 -0.233353 -0.814609 -1.44925 -3.71303 2.96324 2.77994 2.30483 -1.2497 -3.1194 0.501297 -2.02004 0.390509 -0.760166 1.48952 -0.632925 0.352298 3.58201 1.14941 2.30611 -2.10836 3.67978 -0.0883393 -2.35492 0.805687 1.3474 -2.66886 0.0814128 -2.99638 0.783432 -1.5127 -1.13781 0.362914 -0.330039 -1.51497 -0.44113 2.69241 -3.49044 3.5603 2.93864 -3.09474 1.21876 -3.97249 1.0769 0.0893281 -3.20624 -3.30079 0.403178 -1.12419 1.14795 2.07062 0.261569 1.97473 0.215667 -2.89866 -1.63536 -2.05734 0.118423 0.855072 -0.200894 0.414071 2.5918 -0.945642 1.01515 1.76405 0.770001 -3.13001 -0.356088 3.38556 -1.87388 -1.81832 -0.315641 0.69879 -0.953676 2.98845 -0.916278 3.31474 2.85581 3.61292 0.234252 -1.95919 1.88336 -2.57581 2.17461 0.668354 -3.62586 2.702 2.07482 3.38872 -1.89999 3.83002 2.98737 -1.2118 -0.55158 -2.7378 0.271463 2.44568 -1.75428 -0.824394 -3.189 2.01396 -1.94631 -2.25825 -1.08054 -3.38405 -2.88295 -0.730284 0.447461 -0.168418 2.35338 2.99967 -0.833434 0.11757 0.350457 -1.95719 2.61189 -3.95998 -1.1896 0.758518 -0.872096 -1.0413 3.35285 0.167017 0.485421 1.54783 -2.83827 3.82879 -3.18081 3.50136 -3.13484 -3.90117 -1.06293 0.422003 -3.83791 0.381522 -2.78676 3.46694 2.34665 2.03615 3.49128 1.53337 3.38113 3.58191 -3.74943 2.07716 1.07857 -0.669243 -0.15849 0.38594 1.49973 1.32681 3.0912 -0.129667 1.76369 -3.40834 1.4632 0.788438 -3.83978 0.364936 3.29826 -1.61061 -3.36512 2.34358 0.89023 0.233096 3.36781 -0.242724 0.115347 1.78836 3.54953 -1.93734 3.45831 -0.577252 -1.85287 3.28325 -1.54864 0.377987 1.01237 -2.53145 2.85761 1.35784 -3.16063 -0.593329 -1.38933 -3.26499 1.54613 0.406561 -3.94407 1.99174 -1.59762 -3.2423 1.13355 3.77976 2.75486 -2.221 2.40873 -3.67716 -3.0334 -2.56956 1.84477 -0.894301 -2.90649 -1.67795 3.94683 -2.19081 -3.36533 1.52132 -2.72605 -2.43862 -1.45754 0.457309 2.90895 -2.15428 1.78938 2.38178 1.38956 -2.39164 3.17188 0.272343 -2.99339 -0.54695 -1.76178 -0.703867 -0.442519 -2.85712 -2.47624 -1.30334 2.4419 2.34554 -3.25157 -3.00857 0.364367 1.54101 -0.660371 -0.792047 -3.26038 -0.496776 2.19195 -0.338647 -0.189043 0.210947 3.99396 -3.26871 -1.21181 -0.0259596 1.98972 0.343656 -0.582872 2.09703 -2.26974 -2.99627 -1.87186 -0.228503 -2.31178 -1.50132 1.7873 -0.344366 0.767583 1.40375 -0.593842 -0.130815 0.473145 -1.74622 2.97259 -1.85338 3.33346 2.62763 -2.83443 2.34222 1.93331 -2.24327 1.45852 -3.23923 -0.90935 0.700075 -3.9452 -2.56815 3.26788 1.92823 -1.50654 2.46369 -1.34289 0.233332 -3.90035 2.74463 -2.91566 -0.59946 -0.884253 0.818328 -0.679677 -3.21983 -1.77736 2.75079 -3.21825 0.412431 -3.25908 -1.14843 2.6836 -2.62144 -0.78096 -2.60182 -3.92596 0.974171 -2.65913 -0.638073 -2.65128 -1.04566 -3.60741 2.78275 -3.53575 3.3181 -1.37054 0.164766 2.18667 0.233298 -1.1643 1.91041 3.10547 -1.46024 3.13229 -1.3236 0.691403 1.83407 -2.79423 -2.87387 3.21022 -3.38362 2.58051 -1.03303 2.76166 -1.13178 1.55948 -2.72336 3.23316 1.67281 1.52026 1.11316 -2.93637 -3.81761 3.40766 -1.71543 1.55254 -3.49068 1.33349 0.119741 2.36077 3.28627 2.53577 -3.69754 2.35088 -2.1631 -2.22099 -3.35041 3.73518 -1.11182 -2.38796 -0.687017 3.27954 0.76862 1.38123 -1.30064 -3.33146 -0.486115 0.246735 -2.69868 -3.02527 -0.158355 -0.290733 2.964 2.9177 -0.32391 -0.313244 -2.40966 -0.396429 -0.192633 2.38492 -3.69864 0.712754 3.04978 -1.88897 -0.75452 -2.31009 -0.132572 0.49339 -3.44613 1.25525 0.758813 -3.96933 2.22789 2.94429 2.59945 1.11055 3.11075 0.448523 2.66381 0.372156 -0.367534 -1.80846 -0.832386 -0.555234 0.291698 -1.28214 -0.272448 2.61037 1.41737 -2.45185 0.0135873 -2.18628 -1.23529 -0.730752 -2.55535 0.112888 3.54611 -1.75383 1.02455 -2.99436 2.27164 2.14064 -1.82084 1.13805 -3.6549 -3.07991 0.487354 0.438675 0.768247 -3.36037 3.36038 3.43103 -0.797433 -1.54957 -0.712172 2.06654 -2.50807 0.750651 -3.05824 -0.932113 -2.02209 -2.21904 -1.2226 3.93533 2.1448 -1.39279 -3.29977 1.1375 -2.78094 0.609616 2.68802 -3.83025 -2.3911 3.45856 3.13327 -3.76921 2.49619 3.56961 1.40773 2.40473 2.773 -1.52122 -2.91346 2.08183 1.55746 3.60532 2.11303 0.372143 0.461573 -3.70489 0.985805 -2.04115 -3.49031 1.32971 3.52953 2.3459 3.66719 -3.57272 1.65157 3.74638 -1.76603 0.626356 -2.33424 1.76676 1.88733 3.39973 0.996645 3.69918 -0.904485 -3.06583 -2.36674 2.867 2.47567 -3.36528 -2.34682 0.423606 -1.74639 3.39674 -3.79403 3.77879 -2.4001 2.67598 2.37925 -3.68885 -1.66264 0.855365 -2.01321 -0.347358 3.30208 1.89283 0.777288 0.854046 -3.93595 3.5375 1.21704 -3.926 1.18716 0.477981 1.49913 -0.474076 -1.90849 -0.351026 -0.304917 3.01047 -1.84594 -3.5283 -0.0120109 2.42509 -3.11061 0.775748 -0.699584 -2.99318 -1.95428 -3.27374 1.7308 -0.936537 0.927684 -2.32771 2.11444 -2.91958 -3.01295 0.776737 1.84215 -3.03874 -3.39505 -2.74944 -0.693891 -0.872431 -3.28395 -1.14459 3.83178 0.645359 0.6474 -3.36647 -0.232482 2.94658 -0.614228 -3.74572 -0.845566 -2.36575 2.86589 -1.03067 -3.65957 3.83536 -0.52247 1.08429 1.94954 -3.27659 -3.09801 -0.283872 -3.34094 -3.80838 1.66725 -3.84651 -3.59561 -2.19635 0.732473 0.637393 1.65449 0.513829 -0.563962 3.38982 -2.20982 -2.05132 1.36754 -3.8637 -2.94331 -3.28334 3.48782 -2.13988 -1.24239 2.53161 -1.98879 2.09597 -0.909284 3.17893 0.711799 1.07589 -0.311602 0.380716 -3.46322 -3.98816 2.12363 -0.952829 -2.93499 -3.7167 -1.63509 1.79034 3.02899 0.766924 -3.68281 3.77807 1.82122 2.96679 0.823689 -2.52823 -2.37264 3.84147 -0.365641 0.684621 -0.122935 3.52167 -3.89219 -1.26111 1.89485 2.80595 2.91623 -0.443705 3.57668 -1.7005 -2.96748 -1.86269 2.20965 -1.24373 3.9278 3.83866 -3.18539 1.02459 -0.859199 0.988243 2.11214 3.18688 -1.49451 2.19135 -0.496435 -0.445481 2.01578 1.22923 -2.3925 3.1721 1.67542 3.14379 3.32881 2.05729 -3.6948 2.85203 3.46262 -3.89631 -1.32922 -3.25003 2.8899 -2.04688 0.710428 -1.28514 -3.96941 -3.04404 -1.91763 3.20589 -1.74549 0.154678 1.53952 -2.53962 1.42036 3.95537 2.25625 0.0831724 1.28923 3.5083 1.97236 -0.753813 3.56127 1.62051 -0.455558 1.23169 2.70218 -1.56592 -0.1544 -0.0157407 -1.81504 2.11936 -3.04711 0.00914886 -3.06508 -0.852057 0.144824 1.69245 3.24011 0.829919 -1.66943 1.8349 3.76168 1.53824 0.258504 -0.929557 -1.10801 3.66491 3.43954 -0.880718 1.93494 3.22183 2.99623 -0.632129 3.10137 1.86083 1.14436 -2.32182 0.779032 3.6632 3.5878 2.99509 0.722648 -3.5427 3.67819 -3.24255 3.33877 -0.0753226 -1.08101 -0.0262987 2.6971 -3.53928 0.463625 -0.0034604 -0.0819211 -0.615787 1.55138 -1.20822 3.40923 -1.7088 -2.81646 -0.00501426 -0.541207 -0.123179 3.79702 -3.77906 -0.824514 0.933067 2.55589 3.19175 -0.671498 0.0417667 3.97276 -2.41798 -2.65941 -2.08905 2.74236 0.584808 -3.58266 -1.68488 2.29357 1.41988 -3.32178 1.11029 0.224901 -0.68492 1.78018 2.39658 0.330966 3.56614 1.08957 3.3251 0.00984462 -0.789244 2.84583 2.14105 3.52482 2.05159 -0.855904 3.28302 -3.00589 -1.16438 -2.27435 -1.43039 2.12273 -2.5093 2.07406 3.99274 -1.07261 -1.77609 -2.00675 3.12323 0.808126 0.489797 0.931827 3.55099 -3.36153 0.922009 -2.86347 -2.43765 2.16725 2.60311 -3.47996 -2.30952 -0.586919 -1.40634 3.05018 -0.979227 -0.19411 3.84149 -2.96377 0.956932 -3.47538 1.42978 0.33075 -0.847999 2.45911 -3.57309 -2.636 0.952788 -2.74504 3.57594 -2.37621 3.31375 -0.457684 -3.53947 -0.21664 -0.0306264 -0.29185 -3.11653 -3.22243 3.29837 -0.406994 -0.491709 -2.00539 -3.38483 1.91699 -1.70611 -3.00636 0.91175 1.88726 0.459891 -1.27693 -2.49939 -2.56545 -0.00842796 -0.0714458 1.948 -1.27014 3.77058 1.23669 2.01744 -3.93757 1.67766 1.14608 -1.04022 0.324019 3.70145 -3.99592 -2.11486 -0.203627 -1.66193 3.4547 -2.18197 -0.420158 3.97362 3.29928 -1.44152 2.39882 -0.259307 2.00935 1.97594 1.89883 -1.13346 -0.843547 -0.5002 -2.79216 2.34115 2.65879 3.78845 0.159435 -1.35923 -1.39259 2.50675 0.73495 1.6608 0.147135 -1.30835 3.90509 -0.0215907 0.519849 2.77819 -2.2392 1.0731 -3.72584 -0.731737 -3.60234 -2.37224 3.66128 -2.5457 1.93854 2.0861 -2.53411 2.0627 -3.65347 -1.55087 -1.01496 -0.454175 -0.920522 -0.569958 2.03476 3.21286 -1.78794 -0.592747 0.504795 -3.43293 -0.564757 -1.42488 -1.45622 -1.37314 0.515905 0.144008 1.55789 -2.22795 2.9327 0.257348 -1.3879 1.6679 2.30875 0.778664 2.79325 -3.37997 -1.9667 2.45681 -0.670049 2.85838 -0.663798 -3.25803 1.78911 0.703639 0.515511 -2.38081 2.69778 3.809 0.229565 -0.688024 1.83507 1.05865 -1.49401 3.83254 -0.895502 -2.239 -2.02951 -3.71059 -0.51063 3.10014 -1.72239 -3.70861 1.62585 2.72791 -3.86637 3.66844 2.58231 -0.396465 -1.155 1.15845 1.21369 3.34825 -3.67812 2.60498 -2.31877 1.71853 1.45537 1.10371 -0.634457 1.0655 -2.4748 -3.62772 0.933949 0.272546 0.671997 -1.34563 1.41669 1.1424 2.29295 2.43544 -2.63127 -0.805709 2.00444 2.91508 -2.69328 0.722749 -1.85099 1.85229 -3.26104 3.00601 -1.80734 2.9658 -2.0735 -3.39274 -2.9556 2.71012 -3.87179 2.02312 3.29204 -3.94994 2.0774 0.0324256 -0.877562 -0.80281 3.8619 2.10053 -1.60975 -3.54887 -3.05642 -3.31001 1.9528 -0.678343 0.608273 3.61411 -2.97599 -0.294259 2.33837 -1.47105 3.01535 1.50013 -2.42248 2.18938 -2.56625 1.64907 -1.25048 2.95332 -2.04625 -0.212535 -3.05287 -1.10134 2.81964 2.99949 -2.19887 -1.59621 -0.740492 -0.797451 2.5155 -1.94945 -2.2004 0.206627 -2.46362 1.71735 2.65908 -0.942757 -1.31656 1.58799 -2.2928 -3.30285 1.54657 -2.12748 1.67736 -3.40588 -3.94683 -1.04445 2.21135 -1.19511 -3.19966 -1.62272 -1.15325 2.17609 -0.199918 -0.694269 1.31 3.37007 -0.792886 -1.32977 0.836064 -1.32913 3.97246 -0.733235 -1.22206 0.963761 2.38075 -3.32781 -3.66563 -0.599313 -3.66671 -0.751404 -3.18633 -2.4878 -3.80432 -0.24609 2.87058 1.74781 1.52442 2.09029 -0.278084 -1.33584 3.65611 -3.59305 -2.26057 -0.603251 -1.96232 -0.300356 -3.52794 -1.12444 2.87737 2.66332 -2.76065 2.6484 3.19674 -1.08611 -0.879039 -1.7547 -2.49566 -3.64848 0.267427 2.3318 1.85466 1.09248 -1.40352 -2.61865 -0.296941 2.87912 2.37604 0.407409 1.60061 0.842661 2.03975 2.29403 -1.53109 -0.259629 2.61739 1.18684 0.0588945 0.461253 -0.251564 -1.00164 -3.90086 0.870312 1.24946 3.85724 -2.53036 -3.04134 -0.199097 -0.616129 0.244008 -2.17654 -3.841 -1.55521 1.7333 0.324932 -1.21516 3.28221 -1.2072 0.722301 0.995115 0.565346 0.325026 0.974951 1.06769 -3.7751 3.49687 3.89008 3.40394 3.43832 -3.26175 2.23748 2.99856 -1.20657 -1.02105 -3.35378 -0.328478 -2.14338 1.1968 2.57495 2.89191 -1.82419 -3.29106 1.07856 1.6092 -1.93478 2.67722 1.41638 -1.4154 -2.07098 -3.43788 -3.4043 1.59312 3.68017 2.99929 3.97588 1.12016 3.65459 2.16946 2.61067 1.46507 -3.53468 3.18855 -2.67425 -0.0104026 3.87247 -3.75835 -3.58222 -1.00411 -1.93166 2.51144 0.69527 -0.297914 -2.66033 1.36489 3.21422 -3.95298 3.31417 1.72033 -2.72185 2.10497 -3.97994 2.83939 2.32769 -2.95754 -3.33929 -1.10688 3.85596 -2.31174 -3.96072 1.67249 -2.62748 3.98983 -0.445501 3.232 1.12616 0.798988 -3.26423 0.186416 1.32711 -0.207085 -3.08666 -3.17365 -2.47167 -2.51895 -1.35671 -2.00381 2.62554 2.74341 0.492426 3.48316 3.62005 1.61248 1.05655 -2.75162 -2.82379 -1.87205 0.328681 -3.7928 0.266578 -3.22223 -2.25662 -3.07864 1.40583 1.8158 3.69882 0.124303 -1.52772 -2.35169 3.53803 1.10601 -3.03778 0.763786 -3.93846 -1.45691 -3.49718 -2.46119 -1.04427 -3.76148 -2.96825 -1.95212 -1.46113 -1.47502 -1.80025 1.98009 -2.33406 -0.0372412 1.11835 0.122604 3.84204 -3.14344 -0.551658 -3.10971 -0.454087 -3.61637 -3.62907 2.05832 -0.609494 -2.3577 -0.975875 -2.94159 1.08302 -1.38708 3.14063 2.21808 3.54152 2.76883 -3.0308 -1.19353 -1.44695 2.71234 2.99836 -0.992809 -2.06778 -1.71365 2.53047 2.21448 1.43526 0.32978 -0.999016 -3.37586 -2.90463 -3.52715 1.37851 1.24394 2.80285 1.9229 -1.72572 3.49281 -3.03178 -1.2737 2.9531 3.16313 1.69701 -0.301092 -3.76502 1.88479 2.45913 3.12504 2.18586 0.256579 2.64718 0.391346 -3.67436 2.45553 -1.27081 -2.75194 -3.37878 -3.91417 -1.48023 -3.83844 -3.54316 0.00144748 -3.09372 1.04526 3.36281 2.93834 -3.83056 2.07263 1.05871 -0.780532 1.77848 1.77423 2.90594 3.14952 1.98057 -0.952855 -1.74712 1.20873 2.48137 -2.65766 -1.22844 -3.28066 -3.92178 -0.711989 2.27182 1.35733 -0.685864 3.96792 -3.86075 3.96644 2.15649 -2.65525 3.174 2.22829 -1.01071 3.40603 3.22008 2.16756 2.54293 0.552047 2.06387 -3.19643 2.43811 2.62876 -3.33258 -3.9396 -1.17317 3.30271 1.36141 3.17261 -3.05049 -1.18178 2.73429 1.9911 -3.97505 -2.4371 -3.90046 2.28793 0.947216 -0.717874 0.61599 -3.72628 -3.29705 -1.23852 -3.20263 0.462239 1.29336 -3.20916 -0.891362 -0.504207 -0.470614 -2.75147 -2.28974 3.60824 -3.08219 0.510408 -2.33606 -1.34494 3.94685 2.06681 -3.14659 -3.78128 -1.00374 2.19053 -3.75827 -1.32378 2.47265 -3.31952 -0.0631313 2.29028 0.0709682 3.60873 -1.62899 -1.8108 -2.38942 3.20778 -1.77351 2.26822 -2.39146 -0.680197 -3.92899 -2.07228 -3.20964 -2.11006 1.50704 -0.283798 1.17499 1.45569 -1.32675 -2.64261 1.78716 0.545864 2.84151 2.74922 2.05871 1.26848 3.54567 -0.327005 3.32757 -0.703488 2.06701 1.20165 3.0848 -2.83353 0.864128 3.02087 3.29083 -1.57198 -0.294767 0.790855 3.01669 0.58672 0.3025 -2.33551 2.31326 -2.71082 0.328858 -2.30163 -1.56719 -2.12815 1.70675 3.07759 0.172229 0.777748 -1.34294 -3.4709 -1.45735 2.75897 1.78045 -3.39283 3.43262 3.11873 1.45685 3.80421 -2.62465 -0.449239 2.61929 0.54201 3.51651 -2.87111 -0.843441 -2.80383 3.46648 2.54716 -0.433224 0.249076 -1.20952 -2.32304 -1.53422 2.53145 1.10128 -2.78745 2.40861 -1.17402 -0.16036 -1.02663 1.55372 -3.60101 -2.2045 -0.476738 0.234953 -1.02199 -1.21717 -0.802358 2.21445 -0.984586 -0.509701 -2.40245 1.14521 2.01532 -2.19841 0.212338 3.67899 1.76822 -0.74097 -3.62912 -0.956384 3.64956 -2.91918 -0.176796 -3.9175 -1.58351 1.22832 -1.23455 -0.419278 -3.26933 -3.06561 1.15866 -1.91134 1.83455 3.89112 -1.52082 2.44736 3.87109 3.83232 2.38037 2.00637 -2.22167 -2.92559 -0.957593 -0.224239 1.14847 -1.0802 -0.841513 -1.29011 2.48111 -3.18256 -2.00779 1.30684 -2.30385 2.42828 1.80273 -2.828 0.956301 -0.129304 1.5729 2.1532 2.546 -0.126498 0.0639209 1.99598 1.62563 3.53275 1.74999 0.36325 -0.637462 -3.4355 -2.86371 -2.956 1.11856 3.33711 3.67408 -2.99123 1.99063 2.37229 1.20441 2.21269 0.742412 2.69085 0.167335 -3.52915 0.856735 -3.36911 -3.64705 -3.74045 2.89236 -3.13179 3.12723 2.64525 3.58019 2.16021 0.438803 1.33592 -1.98906 -3.12853 2.34055 -3.0588 -1.1747 3.47554 -1.15849 -1.61137 3.79986 -2.68451 -0.261485 -0.262991 -3.19078 2.62361 2.3874 1.06689 3.69942 -3.02264 2.04682 -2.63211 -3.27531 2.17823 1.52323 -3.92229 -0.327768 0.360124 -2.13308 -0.501866 2.5726 3.21337 -0.833478 3.10997 -0.921237 0.281662 -0.462279 -0.235799 0.499685 2.51377 -3.10445 -2.54132 -0.29834 3.59162 0.185343 1.01095 3.17684 1.45511 -2.80445 3.27084 3.60862 1.46032 1.62091 1.89489 -2.5778 -1.68233 0.576709 2.51806 -1.11456 0.917866 -0.976319 1.15968 0.503024 -1.06247 -3.57245 -1.88543 -1.41322 -3.81718 -0.935162 1.02194 -1.95209 0.909384 -0.112996 -2.09567 -2.08237 -2.55077 -1.65879 1.14563 -1.91697 -0.862966 2.10535 -1.13702 -1.07291 2.44216 1.46389 -1.85625 3.63082 1.7275 1.0498 -2.77607 3.50835 0.908133 1.11063 0.608138 -0.360638 -2.69385 -1.36944 3.06563 -3.67032 2.6692 1.64501 2.65929 -1.57687 -0.943849 0.811932 -3.61622 1.20266 3.88183 -3.59272 1.33049 1.83272 -3.95025 -2.18201 3.60693 -1.89373 0.707457 -1.57187 -0.840263 -2.45351 3.67898 -1.93326 0.836887 -0.198682 2.3024 1.0053 3.35376 -3.09869 -0.178993 -2.87392 1.25798 -0.227172 2.2961 3.52619 -3.67932 3.55906 2.65941 -0.0657316 3.65586 0.70388 1.58037 -2.0498 -1.69927 -2.16453 2.42725 -3.3904 -2.84609 -2.20857 -1.96619 3.24995 1.56126 -0.531426 -2.86228 -3.34431 -2.89033 0.400066 -1.12306 -2.7967 -1.3783 -2.49652 3.73188 1.03746 -2.49461 1.84564 1.33397 0.321517 -1.09199 0.910802 -3.60874 -2.47289 -0.728993 -0.889444 3.30244 2.58795 1.2063 -0.878458 2.82207 2.08366 -1.80638 3.29152 -3.28415 -0.56848 -1.05277 0.813915 -1.01394 -2.44613 0.972669 -2.40466 -3.25931 -2.50636 1.33177 -0.697947 0.387515 -1.33972 -3.28753 3.77364 1.30318 3.86786 -1.46567 -0.592169 2.68735 -2.4673 3.47036 -2.69495 0.940843 -1.75072 1.82511 3.74315 -2.27764 0.940979 -3.97159 1.95028 1.90439 -2.99905 0.818218 -2.19923 -2.32322 -1.90358 2.73384 3.31975 3.63687 0.787862 1.10352 -0.113096 -3.28597 3.08738 1.23136 1.81876 3.99709 -3.22584 2.3081 -1.92725 3.46865 -2.48627 0.850468 0.675569 -2.5939 -1.71223 -1.00863 3.50473 -2.77168 -1.4716 -3.07577 -2.86124 2.07002 -2.47341 1.48066 -0.0507069 1.94814 -2.81735 1.25412 -0.883568 2.46046 3.09942 -1.96907 -3.54793 1.38292 -2.53077 -0.156165 1.05275 -0.396275 3.4607 -3.10678 0.361985 3.0811 -2.51158 1.787 0.455956 1.96994 -0.848237 -0.361744 -3.04686 -0.415444 -2.13669 3.115 3.97144 3.96795 3.70613 0.80666 3.22302 0.876248 -1.73904 2.03345 -3.71782 2.45335 -2.10488 2.20188 -3.19082 -3.28203 -1.13412 2.22629 0.882176 3.69381 2.78166 -2.6798 -0.443861 -3.70211 -1.80256 -3.27615 3.06536 1.42857 -1.92975 1.47426 2.53534 0.345188 2.13134 -0.70754 -2.37692 3.95021 2.87008 -3.19888 1.55015 -0.00166886 -1.18329 -2.18995 -2.59706 1.60517 2.43639 0.130184 -1.30791 -1.31475 -0.347022 -3.9352 3.07074 -1.83903 -0.37414 3.63458 1.94039 -3.09279 3.25088 -2.47973 3.22784 0.192161 -1.43911 2.40123 -2.29087 -2.05476 -0.456603 2.85126 -3.57019 0.219796 -0.955739 0.267642 -0.924904 -2.90441 0.340009 2.38755 2.95371 -0.907656 -1.99668 3.82922 0.840868 1.37828 3.78365 2.47889 -2.56635 -1.51106 1.58325 -2.51578 -0.227926 -3.84908 -1.59054 -3.70205 -2.40483 3.32674 0.0817672 1.12422 1.14085 2.6224 0.125318 2.85193 3.43858 -0.313531 1.09135 1.36963 2.79725 -3.22269 1.34529 1.19848 -2.89463 -0.800179 -3.67196 -3.27315 2.20204 3.349 3.38465 -0.548982 -1.42481 2.58639 -0.183471 1.72587 -0.725588 -0.205695 0.410524 -1.29455 0.907835 -2.87189 3.20995 1.75386 -2.27498 -1.49173 1.0052 -2.51458 -3.49773 3.33819 2.17177 3.30941 -3.08377 3.48747 2.30204 -0.0527633 -1.34037 -1.64587 3.97785 -2.80356 3.87145 -2.82434 -0.192388 -3.73739 0.265209 1.23195 2.07734 1.50806 1.94605 3.43999 -1.71511 0.516813 3.29335 2.3942 3.6488 -3.32097 -2.25882 -3.94552 -1.98106 -2.95619 1.72164 0.932101 -0.696612 3.61915 1.32626 -2.04706 2.17342 -3.91249 -3.01609 0.791088 1.56506 3.91246 1.43052 1.77828 0.221144 2.03493 1.02004 -3.187 2.01726 -1.17474 0.797394 -3.61826 -0.751385 -3.43634 3.76746 -2.15414 0.287239 -0.84755 -2.65074 -1.83525 -3.33856 -0.835063 -2.82294 0.0544476 2.57268 -0.516033 -2.17722 3.51248 -1.65924 -1.50572 2.34126 0.231034 -1.07753 -1.95636 3.38786 -2.42116 -0.669447 1.35138 -0.925126 -0.577245 -0.234102 3.81971 -1.51164 -3.84021 1.99921 -2.20574 3.12859 0.0799959 -0.494905 0.189546 2.67389 -0.312627 3.42536 0.94576 2.98899 2.53467 -0.871225 -1.11111 0.493759 3.87043 -3.06955 1.89148 3.13286 3.29466 2.46546 -0.926568 0.283242 -3.91761 0.835318 -1.10666 -2.75634 2.54101 -0.889776 1.36247 -0.254096 0.979693 -1.50486 -3.00579 2.6533 2.6056 0.603476 0.922166 1.58536 -2.03 1.50142 1.37791 -1.64507 3.76823 -1.40574 -3.17918 1.52163 -2.49385 1.427 -0.49051 -0.91129 -0.49185 -3.35109 -0.202296 -3.96413 3.36166 -3.05416 0.367833 -0.0304704 -2.74677 -1.03288 2.58171 0.285899 3.77875 2.84965 0.086501 -0.394043 -2.9503 0.589563 -0.153542 -2.02753 -2.63285 -3.12502 -3.47094 -1.53461 0.00181597 -1.18777 2.41358 2.45377 -2.25611 -0.923922 1.77759 1.29816 -1.93703 -3.43567 -1.39316 3.4575 2.64172 -1.03462 -1.57308 -3.58649 -1.84109 -2.6943 2.47888 -2.20951 3.59184 1.9863 2.69588 1.3082 -3.71093 -1.75076 1.32328 -0.115269 2.12454 -2.94871 0.915937 -0.978111 -1.0848 0.576333 -2.16476 0.91482 2.27371 -0.640238 3.67352 -1.93429 1.62164 0.680341 -2.23616 -2.307 -2.87179 3.29984 -2.7869 -3.03901 2.66778 2.91978 3.81141 3.04049 -0.269674 -2.61696 3.50276 2.85572 -1.98404 2.81044 -1.34235 -0.94221 -0.825446 3.91859 1.37969 -1.49076 -2.91717 2.48861 -1.79768 1.08036 -3.36467 -0.716962 -3.8132 -3.97684 3.10311 2.46846 3.46137 -2.97498 0.399494 -0.77919 -1.9328 2.6782 -0.0549776 -1.33457 2.02926 3.19236 0.390076 2.03213 -1.65303 -1.56747 -1.93531 3.63136 0.702897 0.0342982 1.36766 3.28015 0.484166 -3.1828 1.03962 -2.2707 1.79882 2.39693 -2.33154 -2.74676 -2.88008 -2.44674 0.299712 1.36747 -3.95422 -2.9774 1.23923 0.847983 -3.87484 1.84217 -3.83535 0.983257 0.782022 -0.907835 3.45523 0.427649 3.70266 0.0435806 3.17635 -1.85182 -0.466001 -3.5243 -3.69954 2.39802 0.470017 -3.08701 -3.38728 -2.1477 -3.05507 1.11297 -1.06723 -3.82966 -1.09278 2.34124 3.51787 -1.64044 2.0701 -0.205424 -2.78128 -1.96425 2.96902 1.86223 -3.51367 -3.73607 3.06845 -0.80844 0.0521818 1.10487 1.47593 -1.3596 -2.8639 1.84394 -2.70085 0.96118 3.19268 1.75632 0.496643 0.966409 -1.1351 2.65492 2.6507 0.343259 -2.2931 -1.54331 -2.83183 1.42369 -1.30869 -0.857931 1.35234 -3.79473 1.92968 -0.61443 1.15683 -1.65406 -1.32305 1.29366 1.28165 1.76958 2.91299 -1.61889 -3.16981 -3.46426 -2.86738 -2.54228 -0.672449 -1.08856 -2.44285 0.854603 -1.49928 -2.65443 -2.18216 -3.0509 3.95057 -3.62178 3.06594 0.101681 -2.62866 2.90603 -3.76835 -2.87819 -3.63719 -3.43679 0.835125 -3.95517 3.17389 0.319667 -3.44757 -2.61516 3.52871 -0.232853 -1.50512 -3.17304 3.91544 -2.63915 -3.41843 -3.77258 -2.9032 -1.56784 1.54722 0.675606 -2.60844 0.0972147 -2.3887 1.5472 -1.07322 -0.816211 -2.47286 0.477394 3.2961 2.12866 -3.85417 -3.53961 -0.691954 2.79679 -3.28101 3.47474 -3.06049 -0.578888 -3.31971 -3.44987 -0.746355 -2.08164 -3.44442 2.1068 1.77555 3.80227 -0.287811 -2.60065 -3.0919 -2.88807 2.50343 1.03273 3.73504 -2.22276 3.98208 -2.4337 0.471043 2.86402 -0.811238 0.443016 1.78828 -3.43784 -3.78165 -3.45099 2.43648 1.07301 3.9174 3.64897 -2.79832 -0.417146 1.62786 3.90814 0.161616 -0.40939 1.67004 1.53243 -2.71398 1.8887 2.93937 -3.29233 -0.495624 2.44392 -1.43261 3.04545 -0.117715 -3.64936 1.51452 -3.63581 2.73214 3.46935 -1.58597 0.817638 -0.0686791 3.86606 3.85981 -1.39551 -1.96682 0.230124 2.23117 2.08103 -1.04684 2.35977 -0.772479 1.89232 -2.55568 2.5219 -1.96268 -1.65074 0.407989 -1.07877 2.75896 -0.618732 -0.920654 0.452875 -1.60741 -2.06043 2.94021 1.02001 -0.493854 -3.66556 -1.34875 -0.390908 -0.409732 -1.22424 -3.61056 1.11207 -0.0812045 -3.3037 -2.17385 -2.29825 -2.51619 -1.748 -3.94013 -2.50755 -2.29133 -1.63729 -0.439042 1.87744 -3.74746 1.94544 -3.77882 2.18126 2.1025 3.74113 -0.815753 -0.932382 -2.09595 -0.0820055 1.19162 2.84502 3.74742 -1.08211 -2.08516 -0.388164 2.21047 -3.50837 3.15664 1.57399 1.83757 -0.933576 -2.68185 2.00587 -1.44996 -1.81231 3.5586 1.385 -0.0798397 -1.79353 -2.89494 -1.39047 -0.398053 -0.0912937 1.80625 -2.04593 -3.00673 -0.56666 2.00743 -0.27917 2.42555 -0.0759227 -1.13447 0.304114 1.07653 -0.299278 0.191795 -2.42274 1.15735 2.95685 0.597286 -0.702739 -1.60625 1.05215 0.354765 -3.04849 -0.871927 -3.99744 -0.14816 1.92384 -2.39903 0.699773 2.91029 2.51773 3.70636 0.146808 2.32466 -1.6704 2.14846 -3.03455 0.625658 3.78075 2.07888 0.201171 -0.68823 3.69916 1.46528 2.81807 -1.78842 -3.99684 -2.1614 -0.37146 -0.197672 -2.31073 -1.59153 -1.86549 -2.86493 -1.10692 1.5356 -1.30846 0.119599 2.35619 -2.63597 -0.688594 3.64867 -2.51571 -0.234327 2.55733 0.586835 0.0023304 -1.80427 -3.39881 0.248098 -0.646274 -3.48605 -2.23878 3.49824 -1.181 -0.987074 -2.86311 -0.20042 3.961 -0.122086 -1.1512 0.640749 -2.46334 2.61847 0.274235 -0.00188331 2.99486 -3.28147 -0.63953 -3.08761 2.50647 -2.64469 0.635768 -3.81137 0.592384 -2.68561 -2.88452 0.624499 1.24651 -3.65943 3.94956 -1.24765 3.96253 -1.53133 -1.84431 2.46669 3.53258 1.3592 2.95403 -3.1428 -3.67333 -2.94252 3.50927 1.32783 -2.8543 -1.19606 3.21639 -3.22694 1.4899 2.9307 1.422 -3.52435 -2.50585 -0.0420497 -3.50867 3.24823 1.62673 0.175272 -3.76545 -2.10198 -2.68989 0.855508 3.01729 1.38724 -2.32686 0.30703 1.05232 3.75886 -3.52087 3.89191 0.220423 -0.362615 0.848741 -0.408349 -0.2149 -3.44793 2.46503 -2.90284 -3.25987 2.70122 -2.86471 3.71472 -3.39086 3.6377 0.18887 -1.42335 2.6775 0.796273 1.73324 3.99684 2.28512 0.332534 0.61608 -0.522759 0.0646119 2.35211 -0.684066 -3.61998 3.16731 1.78148 0.717797 -2.8964 -3.91942 2.89304 -2.35237 -1.81286 -1.0486 -2.11073 -3.26152 -2.31773 -3.1461 0.488311 1.91658 2.7249 -1.3062 1.85286 0.440251 0.980936 -3.06761 3.98926 -1.46966 3.32678 1.19237 -1.71007 2.14668 -2.22113 2.72811 2.86551 -3.62269 -2.51477 1.23623 -0.561864 2.10839 2.86263 1.15914 1.83013 -2.54034 -1.02014 0.977085 -1.25494 -3.87557 3.01955 -2.78417 -0.517104 -1.34645 -3.38704 -1.85151 -0.123441 2.16822 3.5949 -0.102757 -2.64346 1.59708 1.74617 1.35518 -0.804709 -3.19093 1.82792 -3.62276 -1.73714 0.544495 -1.27659 3.61135 -0.963282 -2.92305 -1.11501 -2.85385 0.547154 -3.49052 -2.44863 -2.16563 -2.35786 2.1973 -0.226944 2.40619 2.47083 -0.439006 2.57492 2.05489 -0.963229 -0.485989 -3.05404 3.91088 0.196512 1.51245 1.91169 1.57878 -0.257308 2.94956 -2.60929 0.411779 -0.0874689 -2.10272 3.2939 0.980248 3.3424 -0.121469 -2.98973 -2.81068 -2.03311 -0.877145 2.97223 -3.44809 -3.09405 1.9989 -0.600251 -0.34254 -3.95425 3.36212 2.91968 -0.0231057 2.93898 -1.30832 3.72323 3.35395 -1.35284 -0.445537 -0.646501 -0.289656 2.2952 3.13832 1.20545 0.896034 3.99417 1.35557 -1.16187 0.219003 -1.12511 2.53759 2.98779 -3.89958 -1.59324 -3.28136 0.371975 -3.98889 -1.4854 0.264165 -3.72963 -3.63825 -3.78597 -2.78635 -2.00193 -3.37939 1.32782 -1.4089 -2.08477 3.1777 -0.796607 -1.95138 1.27192 -3.42172 -3.63897 1.9598 -3.27348 -1.82248 0.27509 2.73247 1.84346 -0.144746 1.93063 2.22565 -0.454224 3.69804 -0.911779 1.34747 -2.69048 3.34163 -0.929347 -3.58493 3.87987 -2.53192 -1.62232 -1.75456 -0.898788 -2.53524 0.754047 -3.394 3.3113 2.58482 -1.10736 1.03536 -2.39232 -3.17623 2.74574 -3.56449 -1.15437 2.05925 2.14575 3.03649 -1.58273 1.1508 -1.1131 -3.40443 1.26434 1.43794 2.95388 -2.63291 -1.99911 1.33371 3.76259 -0.0971808 3.80756 -0.74031 0.144119 3.51102 -0.425058 -2.74495 -0.068871 -0.958125 3.71123 -0.106376 -1.17449 1.06992 2.85792 2.64205 -0.48574 1.2563 -3.38559 1.26267 2.15282 -1.18045 -3.35644 -0.293045 2.90269 3.22854 -2.79313 -1.20017 -2.71251 -2.24937 0.728483 -0.309107 -2.69053 -1.92463 2.35179 1.77011 -1.4725 2.35505 2.07705 0.360748 1.28454 2.39497 3.88083 3.65525 1.66019 0.799827 1.39452 -0.924724 -2.33872 2.80688 -1.77123 -2.42519 -2.31337 -1.61455 -2.85694 3.12775 -0.885423 -3.94278 0.812907 -3.83466 -1.1646 0.603501 -1.73028 -0.444185 3.1497 3.09347 3.21285 -3.10342 2.5803 2.87539 -2.0525 0.0236104 2.34912 -1.23535 1.38627 3.87822 3.66822 0.658258 -0.226978 1.77221 0.529546 -0.704367 3.04294 3.12071 -1.7255 -3.14585 -0.482967 -2.22458 1.47484 -2.68823 -1.59494 -0.923642 2.68153 3.04017 -0.783908 3.71794 -1.79008 -3.81985 0.488264 -0.380323 -1.34061 -2.11247 2.52861 3.36072 -2.91193 3.05401 -2.47746 2.90833 -2.37077 1.52825 -0.821448 -1.74594 -3.90931 1.51769 -3.55178 -2.36352 -1.64399 1.91817 -0.247224 -2.29926 -1.79743 -0.843981 2.63389 2.8952 0.821596 -0.0339307 -3.28814 -1.27881 0.363862 2.58197 -2.98875 -2.52399 -0.222271 1.34937 3.91962 -0.947564 1.89469 -2.08692 3.34663 2.64836 -2.58635 0.549702 -3.7563 0.381877 0.786503 -2.25785 -0.150827 1.18159 -3.65129 -0.892926 0.936128 -1.04108 2.33514 -1.68669 1.78959 1.8085 -1.9764 3.59363 -0.160695 -0.917606 3.94867 1.35741 -3.52661 2.96289 -1.65691 -1.15501 0.233349 1.97929 -3.46241 3.67083 -2.0935 0.67754 -3.91197 1.64326 3.30748 2.84437 3.63489 -1.78188 -3.73065 -0.503464 -1.02753 0.212952 0.839835 -3.41551 0.485218 
