7.86002 -3.41103 0.929279 -4.07978 0.355722 -5.05836 -7.89927 3.78059 3.87307 0.436019 -4.37512 4.93742 -0.263523 2.9565 0.271238 -0.700767 0.453991 0.895472 5.27889 5.56534 3.09524 3.8704 6.22986 -2.16616 2.95702 6.20485 -2.59903 3.08898 2.79768 -2.6912 -1.61879 -5.20759 5.42967 1.39367 3.48231 4.62144 2.18117 -2.89284 -6.51421 -3.45216 6.59969 5.93765 -4.92818 3.99933 -2.5985 -3.73146 -3.63724 -6.85147 5.0876 6.63285 -2.36385 6.48046 5.45861 -6.7903 7.96667 3.33526 3.25765 0.606453 -3.45953 6.38055 1.94663 -2.69361 -6.53878 6.40071 -4.1907 4.37464 5.7396 0.663074 -0.292475 1.9891 -3.29084 -5.01205 -7.4011 5.55928 -3.42985 -0.327265 5.62453 6.49965 4.38383 -7.41055 7.83789 2.31537 -6.40603 5.49187 3.56768 -3.04662 -1.58128 0.381124 2.53356 2.47019 -3.41236 -1.77655 -5.82409 -2.92223 -6.02181 6.57649 6.3161 -7.2807 -1.99239 -4.53032 -2.38537 -3.27421 -0.569313 1.90797 5.85979 -3.16215 -7.90142 -1.3782 -7.60282 6.92884 2.83097 0.123547 4.94643 1.96805 -1.41123 6.99851 3.4072 -1.18475 6.85884 -0.798902 3.04838 1.98326 4.86308 1.32262 -6.19208 2.25961 4.12364 0.478722 2.82213 -2.39985 2.88164 3.53043 -2.16011 2.51464 -7.98791 2.6397 1.99562 7.71055 7.98184 4.03463 -0.801665 -1.49949 -2.7351 -6.55944 5.88588 -3.91146 -7.40893 0.199324 -2.76687 -2.67055 -3.48322 -6.55995 -0.298905 1.55004 -4.16743 -7.43349 -3.75877 -2.95852 -6.76325 -4.65797 -1.87677 -6.27101 7.91325 -2.54264 -6.13978 -2.84709 7.40356 -0.987731 3.3011 2.78788 -1.57322 4.40727 2.70779 -5.58565 -2.38301 6.71608 -0.251439 2.98718 -7.44146 -1.35381 6.6891 -1.92657 -6.23111 1.56295 7.77379 -4.21025 4.85703 -3.64332 5.02228 -7.545 5.60208 -3.14835 -6.11039 -0.0544189 1.98828 -3.95027 -1.45648 4.27318 -2.03387 -7.28218 -2.51189 -6.81509 3.27981 2.15746 6.75183 0.534278 -3.47907 -1.69746 -1.92092 3.8604 6.65535 3.05195 4.88891 -2.06773 -6.28691 7.21487 0.284604 0.287781 1.10069 3.31132 -3.05992 0.242811 7.27992 -3.57944 -6.55889 -3.95806 -0.880132 6.01971 6.95005 -5.57289 -5.22743 -7.97921 3.87068 0.508822 -5.80956 0.564654 7.35251 -2.36974 1.75553 -5.10037 5.02367 -4.06251 -7.81671 3.38747 -5.04227 -1.73068 6.0844 -5.83652 -1.61022 -2.35994 4.64947 5.36671 -0.826334 7.27183 -5.42807 -2.78255 7.5068 -7.13857 6.40443 6.7338 -0.506554 5.77754 -7.98261 3.53319 6.59501 2.40309 -5.86223 6.32175 1.03208 -1.93559 -1.83743 -6.85919 5.84351 -7.36237 5.74925 -5.91419 7.23588 2.60844 3.7248 5.07929 7.46639 2.8065 3.40198 4.34841 7.48816 1.44362 -1.40105 3.93801 7.27366 3.60568 -3.43516 -1.24956 -0.399784 5.86822 -2.34802 1.08225 4.59788 -3.44987 5.00737 -0.805158 3.5036 2.26791 -1.32438 -7.60494 6.47447 5.80643 -2.54135 0.0944443 -4.57682 0.0266277 7.27794 2.30277 -0.388473 2.21839 3.51019 -5.05856 2.08102 6.78265 -4.07684 -4.30434 -6.01116 -4.76892 0.564835 -1.48711 7.54712 4.05814 -2.56164 0.696851 6.98229 -3.31982 1.89872 -2.85867 -2.29006 4.957 -6.31619 -6.46388 4.14531 -0.555821 0.405477 -0.313067 -1.72697 6.87185 -7.25307 -0.967994 2.07129 4.20737 3.70762 -3.38781 -7.30087 7.05209 5.98557 -4.6706 5.43778 4.48649 -6.81878 1.11606 -6.00877 0.907313 -1.92576 -2.94522 3.29942 2.28678 1.46266 1.11988 0.769917 7.89968 0.418574 2.03321 -6.0994 -7.27383 4.67236 -3.41634 5.42085 0.504516 0.265334 -6.75597 5.31884 -3.09268 -7.47022 -5.00044 -7.74427 -6.54829 -4.95909 -1.66777 3.07091 -0.259954 4.24744 0.0146212 -2.88408 -5.03639 -0.911199 0.196991 -4.45922 -3.50411 3.43363 4.49519 3.2874 3.11829 7.29508 -7.07136 -6.71903 7.40404 -2.66178 -6.24315 6.96442 -3.59926 -4.03467 3.681 -7.66779 -6.52056 -5.01105 2.22078 1.12274 -5.55224 7.25045 1.36037 6.72303 -1.75675 2.14607 6.48925 -5.76208 -2.37405 2.7537 6.25789 -1.64709 -7.69205 6.83737 -2.77934 -4.66542 1.43326 3.24327 -0.82093 -3.45555 -2.40008 3.06643 5.94532 5.92401 -3.26329 4.73928 2.40542 -1.78186 2.26271 3.57887 7.14419 6.72552 7.35528 -6.8145 -1.07223 1.64826 7.08839 -2.60103 -3.68063 2.5909 -3.16053 6.57726 4.39873 -4.53333 0.541738 -5.08013 6.34491 -2.35186 -4.92487 4.04878 -7.47642 -7.06958 -0.0645925 4.78015 -2.51082 7.84222 -1.48153 -4.84182 -6.00528 -5.77518 -2.99384 4.21158 -4.73912 2.23066 -2.94668 -7.10372 -6.31806 3.77464 -7.23103 -7.47133 5.98177 4.72869 -7.20734 6.03169 5.92909 -1.12323 3.08104 -0.578303 2.79106 -5.31537 4.47821 -5.72674 1.80815 -3.40499 -4.12429 -5.31136 2.95055 -5.02746 0.861388 4.8253 -4.12123 -7.70641 2.34329 -3.91672 -5.14251 -1.35086 6.88302 6.13163 4.59452 -0.969331 7.42585 -2.6175 -1.5502 3.48949 -1.92376 0.957282 2.34847 4.19705 6.86528 3.10242 5.13824 -7.73794 -6.27536 7.90986 -0.92944 6.82355 -7.92005 -4.50943 -1.02728 -5.27497 4.4918 -4.25715 4.72759 -7.76772 -0.394136 -5.24059 -0.758365 3.83478 -6.4004 -5.05598 -4.53919 -0.446985 -3.62568 -1.60615 -7.44904 5.49116 -4.55392 -7.43827 -2.77722 2.18748 1.56061 -3.32797 -2.428 1.52111 -3.13355 1.73807 1.20387 1.0074 6.6913 -6.75531 -0.297848 4.25658 0.74943 1.38129 -5.71104 3.2217 3.13742 -3.608 -3.89035 -4.43864 5.17417 2.69083 -3.42403 7.78321 0.924295 -1.17132 6.99846 3.45452 -2.50523 -0.885815 2.82521 7.27835 -4.60122 -7.47465 -7.82777 6.85522 2.25027 -1.65204 4.21918 -5.18109 3.67051 -1.47102 -2.83428 -3.34137 2.84672 3.5052 -5.80265 -2.9317 3.69953 -2.59053 3.38841 5.24435 2.9636 -5.35225 -6.59834 6.25129 -3.48326 5.46026 -3.31318 -4.70441 -5.08553 -5.39592 5.79192 2.94596 6.68758 4.72344 3.23121 -0.981814 7.10532 4.22683 -1.701 7.63072 4.66465 -0.286694 -3.41899 3.34457 -1.28419 0.972655 -5.48689 -4.01652 4.09172 -0.986728 1.54643 -1.89889 0.360107 6.15574 2.94077 -5.86372 -5.99647 5.86608 0.604625 -3.21579 -1.50566 4.44327 6.81409 -4.01875 -0.233703 -4.4571 -0.394757 -1.29932 -4.40015 -5.92514 1.94646 -6.41644 -7.62727 5.8362 3.49741 6.20386 -3.7926 -5.34783 -0.425719 3.14521 -1.3412 1.93734 -1.50211 -2.17674 -2.62748 0.336211 0.576305 2.36583 -1.22608 4.54814 0.826481 5.48602 1.14662 -6.1961 -5.97028 3.61079 6.80104 2.6114 -3.57984 6.28828 5.35327 -2.63542 2.19312 2.33994 -5.04012 -5.82167 5.02698 5.14279 -3.67146 -7.9138 2.48626 4.81529 2.21182 -7.85844 1.74363 -2.15709 3.16784 0.290273 -3.35296 6.38402 -5.78856 -6.73478 -4.26682 -4.65126 -0.00630878 -7.78675 1.47226 -5.83281 -4.29252 -3.59523 6.61709 0.206327 -4.82301 -2.10485 4.96136 -2.09561 5.77269 2.12619 -5.61008 -3.15293 6.63025 -2.16605 -1.43454 2.70529 7.92585 -2.45434 6.72866 -6.81939 0.409045 4.03397 -1.18418 -0.517775 1.27614 6.38625 3.85849 -7.92721 -1.71765 -5.41721 -7.20665 -5.05168 -6.29219 2.4217 6.76517 -5.52392 5.87351 -5.08252 4.18026 -7.73944 5.44838 -2.62848 7.5725 -5.32017 -3.51674 5.61163 -2.83352 -2.07352 -6.99875 -6.66494 1.79495 -3.42642 2.69841 1.68872 -6.39421 -1.44785 4.34659 5.76705 1.70718 -2.06155 -0.37638 -3.91354 6.65587 -4.29816 -3.1873 -1.36394 4.41339 3.02495 4.62693 -3.58537 6.9073 -7.13358 -6.66389 -5.98196 3.68173 -6.89112 0.200499 7.2935 -7.57537 5.34306 5.87428 -3.50232 -7.37355 1.21179 6.23742 5.44236 -6.11382 -2.50976 -4.53345 3.58636 -0.523239 5.95882 1.33226 0.189482 1.6132 0.0756976 -2.37324 3.58246 -4.18497 7.78685 -5.25628 3.48682 1.41018 -7.97883 0.964213 -5.35948 -1.24701 4.65237 -6.97376 0.282156 0.0232743 7.53239 -5.23115 7.74557 0.353372 3.50489 -6.05711 5.71795 -3.12216 5.97589 -4.46847 7.74503 6.44621 -0.722612 3.21027 -2.30153 6.98502 2.32518 3.62692 2.76322 -0.738004 -6.76098 -7.20942 1.71415 7.31628 2.8274 2.80028 -5.79785 -0.581637 7.65294 4.22028 -6.4736 2.86884 -2.75753 4.64525 -7.13426 5.47335 0.238841 1.07644 -6.90857 6.90935 -5.59607 -2.51075 2.64513 2.48217 -2.4291 -7.80776 -4.27472 -7.53889 2.25214 6.58769 -6.71167 1.07656 -7.84269 -5.23789 6.67969 -0.540997 -6.4856 6.80199 3.45645 5.61297 3.3435 -5.54206 -2.40094 -2.45918 6.83417 -7.3521 -6.63545 -2.3165 5.91966 -0.892139 -1.7834 0.548872 -1.44197 -3.56035 0.573673 -3.6779 -5.77139 0.245859 -4.45665 -3.18396 -1.15729 -2.31953 -5.93805 -0.652641 -7.0337 0.0423055 -2.48799 2.88016 -2.37215 1.3655 -6.5463 3.12011 -0.530224 6.03106 -1.94203 4.81168 0.0166637 0.597693 3.92358 7.0503 -1.71124 -1.13797 -2.70523 -0.419311 2.21275 -7.39381 -4.5118 3.55682 -3.919 3.86503 2.6652 3.75499 4.12567 2.88431 7.9854 1.72754 -5.71204 3.30514 -1.80811 2.11207 1.81882 0.0865163 -3.9029 -0.728208 6.36026 5.41412 -6.34891 -7.98105 6.55865 3.33824 -2.42699 -7.10789 7.53118 5.27674 -4.34886 -1.13389 7.33237 -2.34506 2.27375 -2.01569 6.67434 -4.6631 -4.37459 -7.34192 1.18211 0.916435 3.8738 1.92403 3.74605 2.18499 3.65131 -1.27111 5.52109 -5.40394 5.31332 4.66827 7.10513 -0.260689 2.90088 -1.17981 2.95788 -3.34116 -2.20514 -2.32252 -3.44402 2.31149 5.52625 -0.0841321 -2.25664 -6.64384 -2.64754 7.37647 -4.1269 -4.99518 -1.19808 1.89073 -3.00139 5.90379 -2.44433 1.98227 0.444624 -3.38545 3.87988 -4.29466 1.01117 2.49532 4.84624 1.3385 5.02751 0.0048694 -1.79113 -6.05811 0.428017 7.49284 -6.03131 -5.66192 -6.06113 5.79446 6.30388 1.13504 -7.74537 -6.56498 1.79998 -5.53032 1.37899 -5.66297 -5.63373 2.78787 -2.48189 -4.49675 -4.84947 2.71323 -5.32937 -0.665301 7.52472 1.0984 -4.33757 5.03827 -6.51249 1.66216 5.47347 -1.84703 5.95862 -4.0542 -3.5691 0.978103 7.06677 -3.43846 -7.05436 1.06354 4.95428 0.63686 -7.78735 -1.10679 -5.78388 6.92853 5.42801 3.04576 7.9958 6.03992 -6.57547 7.62422 -1.48755 6.47212 -5.15941 -2.65359 -3.19703 -0.233013 0.996288 -2.92333 -4.47661 -2.51149 3.06848 -3.12796 4.64995 -4.93853 -6.88065 -2.87227 7.33647 4.04057 -1.962 2.85708 -4.77366 -2.65914 -7.00233 -7.7054 0.97042 1.43163 7.71024 5.10775 -1.75169 -5.69372 -4.40522 4.00997 2.5565 -3.45885 1.1931 -2.29622 1.5342 2.02894 -4.8962 1.87838 -5.46715 6.76982 0.781028 -2.76651 -4.65822 2.7703 6.47143 -2.84639 3.75696 2.42662 3.86373 0.70203 -2.06752 -3.55333 5.30702 7.88908 2.09452 3.04735 5.39141 -1.71998 -4.2009 3.00931 4.13864 -7.39384 0.522376 -5.86253 5.15948 -4.91377 4.63699 -4.05161 3.28103 3.40848 2.05374 0.1431 -2.40115 -1.37693 -5.87633 7.91061 -2.00799 1.00595 7.1204 -1.38362 -3.98118 -4.3699 -5.6025 7.48578 -4.82303 -3.01598 -6.91984 -5.94008 3.2358 -5.38843 7.55737 0.933929 -2.35879 3.33748 7.85432 -1.68216 2.79902 -3.53621 -7.40985 -0.456446 4.28425 3.54426 5.025 -3.14337 -6.84486 2.56017 -6.64211 -4.70558 5.4408 -0.750394 4.20485 -0.996202 -4.99623 6.80638 5.13243 3.00187 7.2258 1.72026 2.29654 -6.75966 3.65264 0.512807 -1.52653 -7.7071 -7.7044 -4.28087 -1.50875 -6.54202 -5.07024 -5.28722 -6.63551 -6.47713 2.01974 -3.55244 5.7394 4.03119 -3.76031 4.10721 -3.07518 4.75275 1.49611 -3.31995 1.05057 -2.39717 -2.18228 5.78217 -4.15751 7.89636 -1.1343 6.46416 -0.0461938 3.88662 6.8795 6.51929 4.72775 1.48576 -3.16705 2.85651 4.36062 -1.89551 -6.90096 -5.05517 -5.35525 5.21354 4.23472 -4.14167 1.34326 4.68024 0.556144 0.764681 1.35344 -4.76356 -7.77099 0.381041 -5.46011 1.33658 -1.39745 -5.59885 -1.7207 -7.99801 -5.19031 -2.55427 -4.65564 0.103588 -2.44874 -2.72877 -3.17769 5.00174 -1.26848 3.28259 -1.76218 0.769799 -3.36562 -1.53506 -5.22911 7.27967 2.5467 4.28696 1.36523 1.48766 -5.36875 2.07845 -1.05385 -6.08668 -1.29885 7.63582 -0.00835689 -5.41345 -5.46476 2.74789 0.781028 5.77463 6.95304 -7.49204 -3.73476 -1.92484 -6.37129 -3.22207 0.208881 7.16611 7.40203 -1.92529 1.98573 -5.99153 3.99009 2.74177 0.731503 -2.40441 -3.50146 -6.65454 7.19999 0.96056 -4.1166 4.46919 3.00372 5.39188 0.272701 3.19598 -7.72742 1.7972 6.53574 0.386535 5.83928 3.72414 -1.65802 5.9354 4.97193 -4.89793 1.35038 3.76571 1.12197 5.72289 -0.276785 6.51753 6.35353 -5.13714 3.90199 7.98746 -6.74571 5.8274 4.39161 -1.77389 -7.08932 2.91474 0.872202 5.21024 -3.15685 4.208 -6.38332 6.19488 3.37343 7.24607 1.10245 7.32072 -5.758 -7.04761 -0.803756 4.44652 1.99388 0.661104 -3.34035 4.28992 3.44988 -7.88582 -0.832787 3.88334 -0.248676 -3.24187 4.08597 -4.35465 -6.24276 3.76835 -7.82623 5.47497 7.6552 -2.87869 3.25459 5.793 6.50594 -3.35726 -3.48577 -4.5377 -7.15329 5.74571 3.92425 -1.03799 -1.1034 3.39884 3.61435 4.27929 -0.690421 7.13416 -1.76317 5.83238 -4.0524 0.694445 7.32688 2.6444 7.91332 7.62618 6.86895 6.09076 1.13767 1.07092 4.66251 2.05853 -2.57434 -0.0632191 7.02785 -1.05741 -7.3647 3.43211 6.21187 2.14339 4.09915 -4.09051 5.75895 2.30752 -3.28875 7.40085 -5.83731 -4.03932 6.85532 -4.13068 4.63286 -2.24486 -6.2629 -3.01 -3.33203 -2.30905 -7.27397 -5.81395 -5.85925 -2.53264 -5.9463 7.06005 -7.23011 1.48589 1.08579 -5.80507 -2.17557 -2.9747 -5.95351 4.81613 7.63458 2.71772 -7.69221 -2.89475 2.58589 -4.22544 -6.847 -5.21463 2.9175 -3.94656 -7.45115 6.68677 -6.40903 3.48127 -0.178495 4.00421 -4.02472 -4.63897 -1.50559 -0.170751 0.88752 6.96787 -2.59015 4.62081 2.52531 -2.82934 -6.84633 -1.70659 -2.35767 3.90645 -0.0339114 -0.148817 -3.02188 2.17919 2.64271 -1.02561 -7.54251 -4.80787 -5.57286 5.63268 6.32736 6.52314 -0.868319 -0.395331 4.38502 -0.747291 -6.6961 0.677695 -6.15501 5.33479 4.97601 -7.41479 2.54642 2.88816 4.35038 7.68678 4.18515 -7.89207 6.29235 -3.37045 7.06241 -1.9828 -4.87368 -7.96908 -4.98811 2.60363 -7.92771 2.64626 6.66191 -0.940054 -2.50608 7.61569 -5.44955 0.587397 -6.70673 1.99348 4.26038 1.55602 5.86297 0.323582 -2.37077 3.49622 0.582449 1.80256 1.61673 -6.22089 -6.10169 -3.42734 -3.11154 5.17477 -2.15598 4.76982 7.90576 -6.07205 -0.464307 -0.0729123 4.55957 -0.397964 -5.9072 7.14833 -0.662903 7.28628 -0.819178 -6.20584 -5.10453 1.41315 -1.54789 -3.40989 6.77618 2.85567 0.608216 -7.46673 5.90097 2.00048 -6.2175 -7.49795 2.78576 -0.135143 -3.82576 6.81246 -2.34361 -3.55136 -3.48839 -0.708367 2.70807 3.05981 7.4172 2.16575 -7.03403 0.76127 2.38946 -4.86225 4.77792 7.78771 -3.61795 -2.62135 4.71543 7.16827 7.74286 -3.57831 5.22997 5.69568 4.25002 -7.78901 2.42896 7.33367 5.92477 -4.03752 4.16854 4.00069 -7.17409 0.690791 -0.83993 2.62729 7.39649 -7.89179 -4.18085 1.51081 -6.35726 6.55741 -3.46962 6.88356 1.01495 1.10799 -3.75159 0.245578 1.91151 0.129916 7.30066 5.74672 4.38554 6.1775 -5.03299 -5.64765 6.28679 -4.11711 6.63904 4.40419 -7.32924 1.13257 -5.64052 3.12631 -4.43844 -2.27895 -0.0523265 0.516629 4.85361 3.42887 1.95691 5.0281 -7.39237 2.87854 6.42336 0.844251 4.99669 7.63239 -6.29152 -4.25021 -6.76401 -6.41151 -6.1303 6.98496 4.98065 6.4053 1.1024 -4.15176 -0.0450297 6.54032 -4.83802 -1.09997 4.38117 0.988967 0.947754 3.86035 5.23169 7.2356 3.42647 -2.51676 1.31636 -5.96798 0.310888 5.41509 3.81106 7.85893 -6.64088 -2.03955 -2.13297 4.386 -5.42735 -2.59547 1.07042 5.08319 -0.318187 -0.406237 5.438 2.65896 4.3782 -1.60448 6.58077 3.60579 5.92452 4.11311 1.24634 4.75539 5.90453 1.72572 -5.72223 2.13467 5.92298 4.38035 -3.45693 -7.49888 -2.59135 1.92826 0.17208 -6.10705 -0.591526 -0.70357 0.33281 5.51539 6.81502 1.95694 -2.16048 1.01296 3.56275 5.93594 -2.94226 7.32297 -0.832937 5.69065 -1.5609 -6.33849 5.29111 -1.23547 -7.37805 -7.10236 5.26831 -1.76141 2.60782 1.50731 -5.66352 -0.14566 -3.90451 -0.479491 -6.87559 5.65911 -4.70385 2.38352 -6.05712 -6.77694 -1.42686 -5.43631 7.69839 4.28508 -1.15336 0.898801 7.18526 7.0146 -0.449774 -1.97009 2.52654 6.05729 -1.43976 1.71301 7.43387 -0.770329 4.76622 -0.547123 -7.72008 -4.05053 -3.12529 -5.23511 -2.45738 -6.05243 -0.0571071 7.86334 -0.729601 0.855893 -2.21714 -1.20346 3.88794 6.33837 -6.06145 1.37704 -4.04 -0.956404 -5.39141 -3.22606 3.02369 -4.36426 5.63778 -1.83304 -5.93625 4.66182 0.66773 7.76652 -6.59237 0.502102 -0.738782 -3.99281 -2.81252 5.34465 -5.29254 0.161707 2.36175 -3.24599 3.10757 2.16481 2.45039 4.91866 6.91343 4.19752 0.126563 -3.07583 6.00447 -7.67273 1.4192 -4.37998 -5.5076 6.40632 -4.49805 4.49126 2.54679 -4.77191 -1.49499 -4.75299 4.25134 3.34446 -2.05543 5.29293 -5.85991 5.78523 4.76956 -7.6282 0.384911 3.3142 -0.896506 0.55804 5.6336 7.58729 -7.89064 3.1667 0.177352 -5.37735 6.18003 1.07944 4.41335 2.34127 -4.31431 1.74496 -1.11508 -1.43291 -1.48771 1.67101 -0.713076 -3.32419 0.882403 -6.46307 4.77442 7.22759 -2.65241 4.49651 5.65232 6.18776 -5.17888 -5.93359 6.18766 0.0432729 5.09938 2.17718 6.15893 -0.622866 -4.6609 4.26223 7.12147 -2.34354 -5.80208 6.56053 -3.84299 1.93607 4.91384 -3.24866 -1.42504 -4.2762 -4.63638 5.30762 5.0519 -6.46749 -1.93016 -5.36032 7.88919 -3.16009 -1.18945 -7.36264 7.60346 6.36818 -2.98839 2.76419 -4.91085 -0.346198 -0.626502 3.615 4.23451 2.31085 -0.843896 0.235781 -2.14082 6.3059 -0.457074 6.83101 -0.874379 -2.96956 1.87573 5.80689 3.10068 -4.94182 -2.45986 -5.19631 -7.57179 4.04772 -2.60674 -0.186591 -4.27856 -2.64449 2.65452 -6.66868 5.79998 1.78561 -5.03705 3.68793 2.5518 -3.34901 5.23723 -7.75032 1.81378 -3.72241 -7.35594 -3.80919 -7.93419 2.08511 6.2955 6.40806 0.480312 4.08226 -6.57594 6.66644 3.85697 -0.301835 -4.73652 -6.75702 -2.13026 1.22853 -4.52185 -6.29373 3.12868 5.46363 1.47755 -2.19604 3.12749 -6.46704 2.57682 6.48727 2.61934 1.43366 0.550508 -0.622474 -4.07444 7.73922 2.99134 -0.0571535 4.20435 4.9575 7.05598 7.86559 -2.87626 0.675357 -2.12555 2.4288 1.54905 -5.69021 -0.736145 -0.0369044 -5.21413 -6.63512 5.49963 0.915823 3.90762 -0.450324 -3.01416 4.07579 -3.10501 0.969512 -1.92533 1.01764 -0.643901 6.52881 -7.98995 7.60016 4.00926 5.85281 -0.97821 -6.89187 -4.29153 -2.13282 -5.10032 -5.39426 -0.816812 3.13291 -7.93161 6.07508 3.65668 5.22971 -0.428087 -6.78427 2.68807 7.40557 -6.97907 -4.1603 2.53702 -5.03149 -0.280454 2.69027 -3.80577 -2.09342 -7.96803 -6.71437 1.89806 4.64559 6.20467 -5.101 7.28458 -5.35551 0.0629375 6.75606 4.72303 -2.84239 5.31801 -1.22287 -2.31138 7.71953 -5.30015 -4.39636 7.1622 -4.94084 -5.67691 0.826106 4.09876 -0.469887 2.80202 -5.91295 -1.07431 5.8912 -5.87201 0.514996 4.32482 -6.08195 3.55521 -3.34086 6.16819 -5.37379 -7.58348 -0.791932 -2.11446 -0.425478 -2.24651 7.47442 7.87092 4.29605 -4.91073 7.32557 -6.84472 -7.57099 -5.31525 3.17364 -5.74694 -7.80462 -2.01325 2.49077 5.53996 3.15131 -4.27557 -7.43983 -6.12038 -1.75894 6.71425 0.892994 -4.20702 1.37272 -3.25339 2.06714 -7.16886 6.40654 -0.696474 6.26817 -1.04264 2.82389 -7.81102 -2.1847 1.05013 -1.60361 -6.77898 -5.82691 -2.39127 1.65432 -1.57133 1.8423 4.9186 -6.60277 7.79987 -3.49449 -2.02782 0.76901 4.80486 0.513554 1.52786 -2.9326 3.59718 4.77485 -2.48181 4.35268 0.876418 -5.41556 6.20522 -2.4993 2.62684 4.02259 0.790029 -0.24657 2.69684 1.85631 -4.65188 6.61123 3.19068 5.927 7.29076 5.16631 -1.53654 6.56047 6.52803 1.58604 4.73823 1.98833 -1.18043 -2.43839 -6.12183 4.88186 7.40217 4.86856 -5.37538 -5.85465 0.880007 5.96256 -0.232671 1.70676 7.15343 6.15179 5.13084 -2.86503 -3.72756 -4.17238 -1.31899 4.07722 -0.640959 6.18369 -4.80624 -4.24527 7.13076 2.3719 -2.18346 2.11139 -0.386807 -3.8489 7.09944 3.02562 -2.93257 -0.0724072 7.83294 -2.03444 7.40473 -5.57731 -5.70018 7.76765 1.70555 -1.57273 6.01466 1.3984 1.98689 -3.88446 -3.91117 1.77 0.255015 6.35998 5.73543 -6.49644 2.16786 -7.04073 -6.82866 6.39449 6.46892 -6.99488 2.28098 -0.995006 6.87957 -5.99952 7.11534 -5.7837 -1.59953 -1.4378 0.26844 3.6187 7.44569 -6.22302 5.6591 -5.01845 -0.679657 -5.76575 -1.67942 -1.16733 -5.17661 4.31675 -0.759699 -7.52821 -1.33913 -1.2523 -1.02453 5.67717 7.78946 -6.5899 6.37871 -0.507257 3.47499 -1.31169 5.03323 5.20594 4.72516 0.0337665 -2.14955 0.598029 7.96024 3.4625 3.58076 0.660071 -4.67932 2.59401 -7.91799 -0.167762 4.166 -1.49987 -5.64347 -2.07632 -7.83117 2.20154 2.43542 6.6544 4.69538 -5.67338 -7.60088 -2.29585 0.188415 -6.11589 2.25083 -6.37062 -6.54303 7.79568 -7.24221 6.87352 -4.69702 -1.96187 -3.76793 3.95399 -7.06482 -0.143058 6.39262 1.429 0.348471 -2.79872 -5.17309 2.17182 3.05532 -7.04891 5.80058 7.97804 1.66996 -3.07597 -6.83508 5.98677 -7.48487 3.21105 -2.6623 4.82615 -5.05293 1.12506 -1.12039 5.71371 -2.08239 4.66347 4.63997 6.10891 3.17347 7.42734 3.2603 -3.82535 -0.837876 -6.25696 5.19945 7.07397 6.40243 4.8969 7.70008 -7.98189 -5.14547 -1.21972 1.27144 -3.26945 7.13983 -3.5791 -6.77767 -6.7033 -5.7824 -6.45132 2.21594 1.05145 3.69254 -6.42446 7.02932 2.5146 5.61168 -3.48787 7.62494 -7.68816 -6.30162 7.98542 3.40142 3.37634 2.23372 2.36356 -5.30829 -1.23091 1.08281 7.52848 -0.153046 1.30641 -1.72936 -1.62185 7.82956 6.63446 4.05757 -0.582108 -7.37866 5.2038 0.778549 -0.874595 -2.55644 2.48811 1.5575 -4.84694 7.34322 -7.32028 2.293 -5.87912 6.6425 -0.868004 -3.52088 -5.24035 -0.0456383 0.110614 -4.6709 -0.915016 7.46179 4.36342 -0.940859 7.62843 -7.76208 1.03747 2.512 0.109064 6.19935 4.1541 -6.24021 3.25091 1.58368 -1.28175 -2.74257 3.02566 5.20041 4.68633 -5.32257 6.00069 2.09465 4.74343 -3.06433 -7.6254 -5.15505 -6.72045 -1.49329 5.8664 -4.27633 7.11719 3.82825 -3.91399 -2.67628 -2.0844 5.3413 -2.09009 5.05339 1.35658 2.30804 1.21006 5.73833 -1.31539 -4.4445 2.46939 3.32974 -5.80591 1.88244 2.17625 4.92679 6.31843 5.64138 -0.610398 3.28516 -4.79918 -4.05556 4.18697 -2.40061 4.39637 2.73788 -3.92896 -4.16218 5.1062 -4.17636 -0.408332 1.10766 -1.22472 -3.91089 -6.13454 2.17089 -5.85261 1.46006 -7.12473 4.43725 2.63382 6.95903 -3.80069 -5.70078 -2.06428 -5.69352 -1.84884 -1.13815 7.63807 7.70688 -4.68684 3.66267 -4.00848 -0.0402624 5.103 -4.4383 -5.6978 4.84222 -3.5493 5.15068 6.68362 5.46684 -2.26066 -0.264761 3.55993 -2.00475 7.7809 -3.19986 -2.788 4.79376 6.91619 6.14121 -0.0977284 5.07825 6.33928 0.194732 6.82708 0.539279 7.42852 1.2359 -3.81294 -7.98277 -7.38502 6.96368 -4.95181 -5.65598 1.83762 -1.66433 3.90917 0.454982 -2.8186 -4.78376 4.46884 -5.88725 -6.56863 -6.26557 4.87085 3.05811 7.82985 1.46267 7.27754 -1.44521 -6.36926 -2.93197 0.0692983 -7.13011 -2.59988 6.11696 -0.446858 2.05124 5.96127 -6.88252 0.650335 -4.86423 -7.75879 5.58328 -3.25079 -3.94585 5.30859 -4.27643 -7.40934 -1.42772 1.82225 -5.60622 4.56723 -4.44817 -1.99516 -5.86619 -7.98478 -3.6015 -7.63686 -2.53174 5.43987 3.76245 -4.50426 -6.24507 0.20686 4.35857 7.9087 6.28896 5.61021 6.38114 3.1193 1.73135 3.37688 -5.54202 6.39193 -3.50885 -1.4236 4.40672 1.7024 -5.02293 -6.461 6.17361 -6.04225 -2.47449 -5.50309 0.695346 -6.84002 -6.06621 4.62882 1.01119 4.00427 -0.630028 6.3745 -5.26016 4.85386 1.3635 -0.606239 -4.73651 -6.59148 -6.83663 -2.83552 1.79537 4.72104 0.857839 5.91717 -3.58565 5.62699 3.28329 -0.65297 -7.79939 3.56882 2.22812 3.2142 1.44866 0.730428 2.43319 4.83661 7.75448 6.13306 -2.97959 -4.73058 -0.489163 -6.55609 -3.27504 -7.19433 4.35133 -7.58399 -2.46147 -1.00317 2.23664 -7.87223 5.32404 -7.53701 -1.80434 -4.27453 7.51997 -5.90287 2.25758 -0.61166 -3.35948 6.62286 -6.08167 7.49672 -0.994754 -5.68155 -2.04258 -4.6354 2.41497 2.81948 3.77187 -6.54867 2.02402 -2.42191 5.60725 -4.19931 4.69188 -5.00114 3.64485 3.82232 0.40777 4.09182 -3.00668 5.09102 2.67753 6.66388 1.01436 -0.290287 4.60653 2.58797 4.04759 -7.38217 3.95856 -5.14567 -7.09172 2.50079 -3.17707 7.5599 4.76667 -1.56376 -5.55403 -3.55132 -7.79241 3.66679 4.17272 -7.91532 5.29821 -4.42184 -7.72386 -4.39998 4.44299 2.70723 4.45526 1.46135 1.10527 -1.66239 -2.2239 1.02676 -7.30737 0.47502 -4.6054 -3.3949 6.88899 -2.32933 -4.78632 -2.65774 7.61532 -6.52491 7.40731 1.75039 -1.85298 4.93509 7.46147 -1.69155 -6.11113 0.447079 1.50354 3.66819 -3.96761 5.69447 -0.852563 5.2183 0.732911 7.32392 -4.216 7.51942 -2.85978 6.06429 7.55959 -6.20664 -4.68253 3.02473 3.64763 -3.61194 -6.98228 4.57162 -1.51634 1.93102 0.416493 -4.88395 -5.25514 5.88689 4.84948 -4.94202 5.66888 4.00491 -2.40238 -5.77564 -3.54305 -3.45378 -3.0592 -2.80655 -6.86548 7.55214 -2.96418 -5.37419 -6.36513 0.26562 3.44876 7.56934 4.24658 6.68334 0.103346 2.72843 5.1254 -6.41898 6.76781 5.06153 4.35875 5.90236 6.68986 0.11865 7.60261 -2.97555 3.68551 3.42026 2.49344 2.23873 -1.74948 -7.76601 1.0159 5.02198 -6.41793 7.60459 -4.48244 -4.33357 -1.99959 4.75711 3.6349 5.08514 -7.84106 -3.50555 1.31411 6.88228 -0.691294 2.36497 0.909785 -2.38568 6.46121 1.01435 -1.56262 -0.540133 -7.65447 0.438411 0.440059 3.08432 -1.81571 -6.76638 5.06604 -4.75763 5.19327 -1.2671 4.25469 6.63043 -2.09189 4.16091 -1.18906 -5.49088 -4.97417 -0.934547 4.07413 -4.01416 0.524115 5.33984 2.66529 -3.91785 5.42862 7.95311 6.47833 6.23284 7.66345 0.876074 -7.96685 0.732516 6.95908 6.97095 -1.74835 -4.78193 -5.00152 3.82791 7.25817 3.70045 0.590592 4.72622 -5.69036 -5.57892 -1.57759 3.38997 -2.65895 -7.84202 6.89896 -4.51818 2.36151 4.52873 6.41324 7.83701 1.05352 -3.23371 3.40614 -7.95096 -6.46792 -7.9868 -1.77285 -4.05786 -0.379432 2.80884 4.49279 3.69689 -3.98817 7.54789 5.48267 5.95785 -3.77604 -5.76942 -4.84781 2.60273 5.44903 -7.83781 4.57859 5.76941 4.36346 2.42856 2.84937 -6.3554 -0.989288 0.778635 -6.0368 -5.54589 7.38013 7.81051 -6.96712 -0.25453 2.11177 -6.3692 -6.16158 7.36113 7.16697 4.92128 -4.43863 -4.23922 -4.05167 7.19208 3.47013 -4.15803 1.83674 -6.52706 -0.26003 -0.934811 6.8745 -2.96961 6.90195 2.16086 -1.00453 -0.375814 -5.21339 -5.8199 -3.99478 2.55911 -3.64395 2.3677 -2.06747 2.11297 7.36436 -4.20424 -6.93483 4.55327 1.83634 5.7706 -4.39318 2.31186 -7.76259 4.52768 -1.52936 -2.9339 -3.6262 -4.47948 5.25602 0.744737 -0.0686661 -6.49253 -4.90379 7.5018 5.5296 7.95705 0.439878 -5.84336 -3.23772 -3.79756 5.01848 -2.61228 -3.54269 5.32254 3.37959 4.20585 -7.01064 -5.03983 1.3484 -1.44037 -3.77759 7.12445 1.88632 -1.63359 -3.33107 -5.72665 5.65685 1.67346 -4.11362 -6.2244 7.69983 -1.90013 -5.14199 -7.83019 -5.78404 -7.61578 -1.13717 4.30197 7.06149 -2.82269 0.891048 -2.05101 -1.82577 -3.9932 6.73394 6.00827 6.93451 4.83166 4.64333 -0.72594 2.17441 1.30829 -0.128445 1.23356 7.98498 -7.62276 6.89575 -4.60047 -5.76847 6.94643 7.86854 2.97057 1.87988 -4.44113 6.77028 4.59105 1.97401 -6.86538 3.43029 4.44264 5.7685 -0.364335 1.49362 3.71556 -5.95886 3.28372 2.96234 3.57503 -4.72776 -3.64324 3.18395 -3.41245 -5.45378 3.02731 -1.25835 4.02316 1.65604 -7.05207 6.86112 -3.00368 -5.87554 -5.72452 -5.83863 5.97628 -1.29956 6.08269 -5.54315 4.78532 1.24558 -3.73994 -7.19516 -5.6134 -0.00326434 0.977949 6.55697 -0.565574 -4.31864 -0.923305 -1.8199 2.54156 -4.79673 5.70737 5.2121 -0.27763 3.64983 5.57076 6.6136 -0.6304 -6.04579 2.34836 4.2725 -5.72589 -1.16162 -4.90216 -7.53831 4.5483 5.63889 6.9348 -4.74417 -7.31274 5.6725 -1.19807 -1.17949 -5.15758 0.173897 -0.185145 4.79252 1.05183 0.615849 2.14293 -3.68836 -0.933542 3.2059 1.17292 -0.352287 2.82338 2.52185 5.57034 5.94442 6.47685 0.110665 6.01113 0.171974 5.02273 -7.39499 1.09954 0.208737 6.39165 3.16822 3.48598 -5.96479 2.00853 -5.69304 5.68071 1.47849 -2.15555 -7.36948 3.54558 -7.81264 -4.08871 -7.87147 3.28946 -5.5681 4.11214 -0.0612419 -3.39043 -3.7091 -5.30618 1.10792 -2.40819 -2.85106 1.10962 1.77134 -4.57204 -0.13239 5.10672 -7.2807 -1.20618 5.17211 -7.3589 4.7404 -2.42465 1.20917 -1.62091 1.19984 0.196328 7.45423 -2.75852 5.14907 2.36844 -0.175909 7.80925 3.09305 -0.196084 -1.86346 -7.99043 -6.70937 -3.06425 1.89593 4.31898 -5.81111 1.41562 -6.56319 7.8747 7.20876 -5.05003 3.59903 -4.70925 2.31105 -6.86337 -0.873034 -5.7737 -7.25688 -5.15127 0.057733 1.64996 7.91651 4.94948 3.36067 -2.3073 4.52621 -7.87161 5.79624 3.95673 5.19121 -1.27939 6.00756 1.85401 1.02856 -1.87997 0.302508 4.60873 0.484844 3.227 -1.71648 1.90116 -4.95818 -6.5878 1.32898 -7.82399 2.32446 3.33781 -1.44594 -7.36922 7.8296 -0.770684 -4.83297 1.22261 0.454835 -2.07658 -4.20379 6.9645 3.35001 -4.48406 3.68995 -3.60731 -0.829675 -7.47045 6.16086 -1.08137 -0.439433 -1.14067 -5.06356 -6.7319 -1.60177 -6.04489 1.01647 -2.73717 1.24181 -4.05337 -4.47496 1.82259 2.33484 0.00638598 -1.37039 0.777071 -0.760247 3.32669 2.13072 1.99964 3.77137 1.87112 -7.20341 -6.47634 2.06142 3.1036 -2.14274 4.28945 1.10416 -7.27353 3.59042 -5.18615 1.14097 4.08744 -2.6258 7.87001 -5.85616 -2.67082 -7.38829 -4.83396 4.10542 1.69444 -2.80041 5.2435 -4.04752 -0.125302 -2.46395 3.00536 -7.32843 -0.97285 -3.52587 5.89361 4.3996 -7.58712 4.55067 -2.30069 2.55738 -2.02177 5.42145 -0.800607 5.3441 7.18566 -6.30666 0.117987 -3.54496 -4.8693 4.93295 -4.71129 -0.677805 0.819701 -5.40639 -6.19489 6.40933 4.91482 -2.8996 -4.5426 -0.924326 5.34088 5.2975 7.37095 -6.30633 0.903716 4.36234 -3.06449 -4.51604 -7.81551 3.25935 -3.30061 -7.34256 7.54881 5.58158 -5.43784 4.58399 1.12144 3.91186 1.81443 4.52296 -1.65144 3.21927 6.89605 -2.82487 -4.81902 -1.79591 -7.73936 7.32269 0.839881 7.26272 4.07934 -0.997049 1.01841 -3.48822 -3.24882 -2.58614 1.04527 -6.93398 -3.87459 -3.02529 -7.23524 -5.88884 -1.03589 7.9864 -0.0854212 -3.23188 5.91667 2.83516 2.98987 -1.38624 5.91452 7.81438 -5.94997 -2.01114 -6.20839 0.477175 3.07986 -4.14896 -1.32206 -3.78698 -3.91862 -3.12241 1.58072 0.484679 6.61743 6.54637 -0.584401 3.73837 0.752362 -4.14894 -1.53207 2.60115 -1.71342 -4.8631 3.95259 -7.21238 -6.94964 4.61521 7.31998 -3.33876 -0.503748 6.96252 -4.5008 -0.592037 1.01741 6.24132 -6.2501 -1.0335 -4.58338 2.41213 -3.34417 -7.02333 -1.0222 0.35712 1.54236 2.59071 1.80824 -1.29507 -2.00766 1.43408 -6.31322 -1.40152 -2.97188 6.96782 6.83859 -0.0676654 6.16097 6.37818 6.37309 -7.46473 -7.67904 2.99148 2.06842 -0.367446 4.77635 5.66986 -4.11082 -7.14766 6.58958 1.60641 0.549465 -3.71979 6.64968 3.66484 5.39728 6.77726 5.38996 5.30079 2.12506 -3.70376 1.22456 7.39503 -2.64345 2.29521 2.75277 7.96708 4.76081 -0.179739 5.93756 -7.98365 -5.73217 0.63352 1.98467 -7.14951 0.338128 4.85631 -0.711763 -5.05867 -0.0136539 -3.70438 4.55102 6.06931 3.2117 -4.20385 -7.04967 0.486544 -1.34773 5.20633 0.365076 2.78803 0.270098 7.56445 -2.46112 -0.664819 -1.84972 -0.242745 0.520306 -4.50648 1.28385 0.504717 -4.53637 -3.1963 2.69872 4.69399 -5.7421 2.81256 0.516374 6.92975 -5.97745 6.49134 0.406681 4.36538 0.619932 -4.33285 6.17995 0.55154 0.454454 -5.64653 -2.22233 -1.12277 7.38884 -3.04757 -3.00342 -1.03035 3.43198 2.57465 4.36663 -4.93342 0.771295 -0.787487 -0.204027 1.85106 -4.67486 4.14931 -2.63349 0.938734 2.22506 3.40684 7.51141 -5.60236 -6.14917 1.18894 -6.5862 -1.62889 -6.17357 6.44205 5.44335 -0.789725 -3.09729 5.4284 3.76099 -5.34907 7.54881 -7.45283 0.915165 -4.0505 7.78722 -4.88224 -1.66313 7.91412 3.51056 2.14111 1.72496 3.62083 6.4095 1.66434 5.97212 3.58039 2.87421 7.18861 -6.10443 -5.7206 0.204494 2.79767 3.36574 -6.24358 6.39505 2.27748 -5.46596 7.54195 -2.74461 -5.57258 -3.23217 1.83115 5.68418 -3.22654 7.61024 -0.176124 4.57758 5.81299 -6.42118 7.79638 -6.7536 6.34947 7.71708 7.37618 -2.48228 2.48177 1.88933 7.12394 7.19901 -3.56631 5.31848 -3.04247 -2.04234 4.00111 -7.76732 3.94132 6.35387 2.30129 -7.22836 -5.15785 -7.43266 5.36698 7.50651 -7.2219 -4.05532 -0.187552 2.3325 -2.45757 -6.13172 6.89973 -7.12015 -7.94782 1.36157 -2.92131 1.09546 -0.110763 5.34414 3.35495 -6.24999 -4.13128 2.10319 3.68562 -5.05213 5.42829 -6.79146 3.96841 4.93546 -4.57104 -6.78279 -4.76971 0.0401366 5.02414 1.68336 -3.29165 -2.93236 -0.687432 -0.678756 -5.37307 0.606288 2.98279 -4.30234 6.07796 -0.281135 -3.0578 2.63089 -7.18325 5.08473 5.88579 5.46805 5.78156 -1.98927 -3.69943 6.80622 -3.09408 -5.58801 -0.820626 -7.62487 -1.59803 2.10141 -7.33517 1.96067 0.118757 -2.18306 -3.76121 5.71585 4.10496 1.44951 6.98418 4.65566 3.64626 -3.71669 5.06276 6.646 1.97563 5.46407 3.26184 -0.229265 -0.920712 4.94197 6.35132 -1.79514 0.925165 5.69714 -6.96399 -3.6207 7.62064 -6.764 -4.26174 0.752941 -6.938 -0.208116 0.139232 -6.08324 2.66447 -5.23178 -5.88555 5.76441 2.7004 0.308938 -6.28574 -5.78138 5.33937 4.30408 4.88179 -7.6511 6.41127 7.65859 4.59668 2.99926 -7.75757 3.27918 1.59652 -1.93501 -1.69576 -4.66347 2.5718 7.51602 2.06355 0.833761 -7.30049 -7.01366 3.70892 5.88829 3.55478 2.26548 1.16887 -6.32994 2.29922 -6.52498 7.4027 1.71777 0.0341603 0.110795 7.63361 -1.04512 -6.55278 6.41134 -1.1659 -1.49409 -4.49061 -7.13758 -3.42095 7.33582 2.57976 -0.204104 0.249105 1.32275 -0.192416 -2.02601 -7.51775 -5.57092 -7.6294 2.21049 -6.49404 -5.44538 -6.65102 -3.64885 7.44318 4.13813 3.55905 -6.86719 2.3155 -4.81548 0.784811 -5.59574 -2.85643 -5.34762 -5.76952 -1.68654 -0.441506 4.96722 7.23987 2.00852 2.95268 4.99364 3.7128 7.29198 3.4673 -6.66268 -4.92927 -7.67247 -0.399062 5.8768 -3.06549 2.21903 2.12072 1.29411 5.97947 -1.66012 -4.41145 -7.10816 2.81573 -6.36432 -4.01923 -5.26852 4.45614 -1.38417 7.73993 -1.07904 5.56992 -3.00646 -0.908079 0.78921 -0.454689 0.0410125 -2.78222 -5.42449 5.37605 -2.29723 -3.07474 -0.137189 -7.09737 1.00228 2.37568 4.69475 6.00428 2.72891 5.11933 3.52221 -3.97343 4.80074 -3.3892 -0.253468 -5.36197 0.326253 -2.2677 2.25363 -2.60333 4.99541 4.61752 6.6174 6.95144 2.18923 6.23456 -4.79986 6.35651 3.89256 -2.08998 -5.14082 -0.702069 1.08311 -3.22066 6.59032 -1.84312 7.55497 -4.35507 1.26147 5.69972 0.0378589 -2.84229 -0.464071 7.87852 -0.282172 6.59074 4.6997 3.78679 7.28877 1.57865 4.16206 2.27876 4.45292 3.81426 -1.96273 -2.2336 -4.37654 -6.29618 -6.86982 -5.8756 -0.44576 2.44461 -6.26154 -4.26088 6.49513 -2.80464 2.24439 -4.90039 5.48616 -1.81032 5.8853 -0.497553 -5.85499 -2.72519 -1.47714 4.20331 0.444812 5.62826 -5.10849 -3.2148 2.27771 4.23373 3.72049 -2.19876 -2.92048 0.781753 -6.81298 4.7276 7.40687 3.85714 -1.82518 7.60534 -1.55045 1.048 4.05995 -5.76832 7.32272 -4.8042 5.84444 -7.68436 4.95245 -7.79511 -7.96433 3.55232 -4.50221 2.57895 0.829909 -6.49097 0.00694678 2.97019 7.20232 -3.02178 -7.52286 6.81279 3.19933 1.44236 -2.34427 -1.2667 4.8472 -6.31667 2.46196 6.67884 3.41486 -2.08786 -1.67113 2.69783 -6.67805 5.32089 -0.124681 -2.68768 -2.62623 5.82253 -6.92777 -1.70253 1.86937 -0.825037 4.21138 3.98321 -5.04696 -4.03755 4.62748 -5.91871 1.91244 1.09041 7.1604 -2.42879 7.25373 6.67155 -1.92998 6.57747 -3.30118 6.63937 -4.62589 -7.44052 -2.03043 0.166204 -5.16694 6.71167 -6.0001 -2.44962 -7.07308 -7.83926 0.291743 -6.05695 5.48017 -5.39214 -4.96954 -5.06364 -6.3513 -0.503824 -1.51424 3.99587 -3.70875 2.84169 3.22836 2.14263 -1.36952 3.99648 1.7715 0.254854 -6.05906 4.95831 -4.38409 -2.35659 -0.0308354 0.98449 -3.60204 7.71517 -1.84724 0.129062 -0.378534 -0.613234 -6.10444 0.272865 -5.1533 -2.64601 6.36354 2.48853 4.54911 5.64837 -0.955633 -3.32777 -1.55813 7.81635 -1.27788 6.70211 -2.355 -7.53759 -2.39541 -7.17897 -2.02334 6.11099 0.93672 -7.93939 4.68042 1.32543 4.89125 2.49605 -5.51116 -5.06179 2.15133 5.36165 0.16937 -2.68615 -2.14811 -1.92496 -4.67113 -0.219867 2.88985 -3.19315 3.36715 5.31627 2.26672 -5.27494 -3.75576 -1.28617 5.27155 4.83173 1.20962 -4.73062 6.01127 1.42069 6.86558 2.29533 0.386834 -2.54208 -5.98064 -1.77728 -3.47312 3.24416 -0.793731 -3.50109 -6.64641 7.99549 6.56363 4.73162 -5.71577 3.70844 -5.17964 1.05948 -7.04696 7.48138 2.46111 0.0227707 -7.29439 2.06267 0.355553 -2.77164 5.31007 6.17348 -5.77076 5.74057 -1.03262 -7.41093 -2.03164 6.38038 -1.02205 -3.11645 -1.82825 -2.80452 -2.36941 -3.42336 5.27928 1.53092 1.43054 -6.39247 -2.71868 2.79495 -3.74603 2.50054 4.48476 -2.51209 -5.60355 2.03217 5.37813 6.58441 -2.35106 5.64711 5.56936 -1.06747 6.84636 5.90362 0.0874063 -3.93388 5.29435 -6.64584 2.99754 4.55141 7.12873 -5.45031 -1.58125 1.09064 1.4177 2.60524 -4.82253 -0.960652 -4.32737 5.66624 6.88427 6.96276 -2.12278 -2.95624 5.40224 4.1696 -5.3083 7.2161 -7.29427 1.61192 4.0466 -3.04382 2.89298 -7.7267 6.81788 -5.05654 -3.55577 6.26032 1.50906 -0.578231 -3.38096 -4.23903 -1.69299 -6.14883 3.69363 7.34547 2.0259 -1.57933 0.693928 1.5988 1.35668 5.48502 -4.54007 -1.6014 1.71447 7.03834 0.319957 6.09408 0.666386 -0.38865 -1.15883 0.910029 7.89388 -7.71835 1.38979 4.14462 -5.81617 -3.87129 -2.98172 -2.37516 -1.37838 -4.73112 1.18824 -7.70921 -1.74681 -6.9679 -2.05979 6.09912 0.78482 1.77102 1.07403 -0.519874 -0.579547 0.253047 -6.34056 -3.50558 2.739 -0.888961 -2.33396 -6.25155 6.97988 5.7355 3.67292 -3.35485 1.31615 5.62562 -4.35876 -6.64182 -7.80309 -5.05429 3.77093 6.26847 3.89942 -4.26078 -4.35049 -4.09058 0.763494 7.86509 1.99566 6.27242 -6.0004 7.79382 5.74204 5.77082 -0.841037 -4.72054 -1.24836 4.19188 4.75859 3.42062 -4.27234 1.67422 6.95755 6.73886 6.80997 -0.0212 -5.47797 -7.23281 4.22156 6.82909 5.35145 2.37946 -7.29061 -2.35604 -0.792293 1.97573 -4.49747 -6.69987 3.08767 -4.33145 4.68446 3.11012 -1.67738 1.10699 -7.95889 -5.69628 6.44478 0.837619 -4.14786 -6.74801 6.035 7.48412 7.91546 -4.77285 -0.447952 2.63006 0.860256 -4.68089 5.07277 7.87179 5.04893 6.78172 0.164342 -5.43854 -2.4899 -5.61078 6.53464 -0.259141 -7.47846 -2.70414 4.42047 1.2088 5.86446 2.21034 2.46139 -2.77611 3.45802 -3.8136 -7.10207 4.98834 3.59441 1.64689 -2.32536 1.45267 0.863146 2.67016 -6.7845 6.9706 -0.681508 2.13154 -6.22503 2.75491 -6.99189 0.314817 -7.01334 2.65152 3.92261 2.60767 -4.13386 -6.77295 3.83283 4.3923 -1.45579 2.30621 6.73051 -3.57229 -3.55813 2.32927 -0.313984 -1.88148 0.844038 5.97535 -1.1847 7.44124 3.82822 0.864109 -4.85831 -2.82468 -7.68225 -6.21928 -6.42546 0.750705 5.9312 -1.61181 -6.63916 6.46186 -2.23535 -0.922171 6.41974 -6.29967 3.03563 -5.16285 2.35057 5.64704 -0.106824 4.59373 5.78854 7.88142 5.39081 -2.04494 -1.26691 5.16197 -0.603855 3.06951 3.54155 -6.0763 -0.951101 1.88605 -3.22445 6.85426 -6.53664 1.26264 -2.20259 5.22428 3.45359 5.85687 6.63719 4.26963 -1.48246 3.68643 6.81012 4.93864 -2.80123 3.1604 -3.69889 -4.74226 0.853086 -4.04061 -0.956698 -5.42716 -6.02693 -6.08294 -4.14905 6.23671 -2.83397 -3.0637 2.62678 -3.79867 -5.38042 6.80462 3.26798 -1.86422 -0.347865 -2.25912 6.5868 4.02545 2.05489 -5.06639 5.56012 7.39951 7.74563 4.64904 -5.79535 7.8562 -1.35549 6.09541 -2.76716 -7.91276 5.39532 -2.72468 5.84267 -0.933219 6.98718 6.99293 -5.76017 5.04122 -7.21075 -6.17384 -4.12414 -0.231744 -6.40318 -7.63072 -0.22671 2.12253 7.69833 -0.56223 4.16468 3.82206 -2.08909 -0.262803 7.33234 7.83991 -1.77352 6.94922 6.23436 -3.1429 -6.24841 5.8438 6.8507 4.64266 5.5237 3.36454 4.38531 -4.36528 -3.28999 0.621471 -7.02793 -3.96486 -4.2436 -0.325041 1.52466 -3.45415 1.77593 -6.47916 -1.49812 0.844099 -0.689034 1.0717 -7.70838 -4.44185 3.69811 4.22498 6.38431 -0.148177 -4.72707 -2.12958 7.28428 3.48865 -3.88619 -6.46525 -3.20318 -4.2832 -0.273225 -0.334729 6.50736 0.268504 -3.24443 1.10055 7.15486 6.80527 7.07266 0.347546 3.71547 0.990148 7.18442 5.81392 3.30205 3.69301 3.18791 -4.74684 -4.46449 7.8684 7.40907 1.37402 2.66298 -0.993795 5.80537 -5.98152 -7.91094 3.69669 2.63259 5.04271 -4.37643 -3.79263 -5.31183 7.6139 -4.81778 4.57721 -5.80675 -3.55034 6.10137 -6.18268 -6.176 6.82617 5.9878 1.15433 -6.52881 -5.80119 -5.62416 0.45076 -3.41168 -1.89206 -0.00218427 2.20408 4.89764 -7.30509 4.55463 2.56113 -0.103013 7.18809 6.09987 4.77258 1.89726 2.24794 1.78556 -1.1676 -5.16573 -2.59351 2.67447 -0.703508 -3.70635 -3.00128 0.945469 -2.35768 -7.91773 -1.08341 7.64019 0.540438 3.4739 4.08148 7.11972 -3.31696 3.24072 4.51375 2.09439 5.08659 4.56544 -3.08384 -2.77726 2.80277 -3.7418 1.78776 -0.742134 -6.12424 -4.84611 -1.9942 -6.11894 -3.29335 5.99765 7.49092 -1.55673 3.28709 -6.5001 -0.78295 1.08432 -5.2917 -5.74119 0.28475 2.59618 7.18921 7.89443 1.27506 7.44841 6.95331 5.9669 5.16157 -2.11801 4.85415 1.87603 -6.35768 5.55018 3.83617 -7.83704 -4.26099 0.309546 6.85975 6.31569 -3.06544 -2.67561 6.85673 3.05631 -6.00259 1.53108 -3.2081 0.366722 -7.02405 1.17222 -2.05772 -7.08626 3.0065 0.171223 4.90898 1.83112 0.45936 3.62042 -7.90704 -7.52019 6.06228 -7.59089 -5.31639 1.84833 -4.40285 0.443024 -5.36541 7.75558 4.05169 6.76909 6.97061 -4.42823 -6.27909 3.37643 4.01569 5.3658 -6.3506 6.25117 5.12842 1.5768 5.89898 0.514066 4.11804 -4.6837 -5.29609 3.07161 -6.00473 5.64042 4.41081 -5.31617 -6.94642 5.91117 -4.30014 -5.35024 -7.4677 -0.790679 0.171764 -6.58205 -4.20712 0.241564 0.710991 0.291563 4.00618 -3.27852 -5.32239 -0.0311432 -7.53524 0.579413 -4.31848 3.27737 0.485744 2.24245 -2.82681 6.83241 6.44044 -0.126314 -1.5567 -3.20278 -3.87045 4.42944 -4.0414 -2.1629 -6.96311 -3.78888 1.71742 3.20347 -6.68045 4.07768 -4.80663 -1.1483 2.59452 7.0488 -7.059 0.359275 0.943756 1.63199 -3.90807 6.40484 -3.24658 -7.40108 -4.6427 -4.42388 5.98783 -2.24596 -7.85619 4.30576 7.14903 -5.08098 2.30796 -7.98499 1.44478 -2.37888 -0.794806 4.93151 -0.352202 -6.80838 -7.08798 -6.11303 -1.15175 2.85014 4.10393 6.34821 0.694762 6.82904 4.0342 -7.47933 0.241411 3.64296 -7.81721 6.49193 -1.2639 1.77643 4.51507 0.228801 0.441651 3.92608 2.22172 -1.29352 2.85818 -1.93302 0.550385 -5.96652 -0.524811 -1.22657 0.670938 3.89365 -5.1216 6.62097 -0.610683 -7.80508 -7.32656 -6.94397 6.95551 5.92252 0.37272 -2.96652 -7.03576 -7.53208 -0.261106 6.21947 -1.83696 -3.46327 3.45793 -4.8555 0.951751 2.79341 -2.71653 -6.26716 -1.90327 -6.17585 -3.11998 -5.38115 -7.1626 -0.544767 1.38045 6.43147 4.38454 -1.38625 -3.27678 1.0176 -3.76818 -5.67763 -4.09657 3.17599 2.27462 -0.284991 6.09946 -2.62007 -6.77047 -0.925355 6.97326 5.93199 3.83317 -0.0407419 -2.18457 -5.02654 3.14569 1.99427 1.42166 -3.20886 7.18714 -7.65996 7.30025 -2.07585 -6.54181 -7.55116 3.47471 1.53419 -3.80065 4.12786 2.7856 5.32067 0.402217 3.78799 1.06612 1.23855 7.81754 -5.66807 5.92735 4.06995 3.06204 -5.76946 2.52123 -6.38219 -3.34 -2.91721 -7.77598 -5.98883 1.87367 5.25178 7.77883 -0.687302 1.26523 -7.22482 4.23191 7.22643 4.57831 -2.8136 -6.17776 1.00027 5.62171 5.44641 -1.33345 6.26033 5.86998 6.31361 -3.2218 0.150052 2.91824 0.0497948 1.1634 -5.39867 -1.78573 0.418712 6.81813 -6.86489 3.72635 -4.45757 -6.4621 6.47879 0.557286 -2.82955 -3.65601 6.29402 -4.89837 3.77421 6.10295 -4.99907 3.13499 -3.02516 4.8077 2.22416 4.45838 -7.97234 -3.88334 -1.82761 7.24388 -4.50403 6.91528 3.73328 -7.75068 6.2036 -3.41753 3.84727 7.83807 -2.10849 -0.47662 6.22089 -1.61764 6.55862 -1.21985 4.13044 5.67472 -6.22555 6.52608 0.965012 -1.86905 1.69647 6.92585 -6.12143 -7.12617 -1.30867 1.72925 6.91387 -3.31764 4.71429 3.04318 -7.20626 1.96386 5.40638 7.51798 7.84261 2.93022 -1.35055 -2.97981 -7.83817 5.28292 3.48304 7.4851 5.367 -3.79256 -6.61241 5.36322 4.59218 6.89753 1.08676 -2.5757 -1.78682 0.569515 4.58159 -7.4622 -4.27969 -7.1314 -3.2952 -4.4601 -2.63876 -5.68685 -0.806736 1.10887 -3.38705 -0.236615 1.3552 2.07621 5.87629 -7.97744 -6.98487 1.6926 6.34435 7.64502 3.17797 1.61709 0.630127 -5.48297 -5.27951 7.8457 -1.32043 3.14629 2.43503 -5.55641 -2.09904 -2.32911 -1.36746 -3.43279 -2.17904 -5.01712 4.73273 -2.62398 -4.59321 -6.88536 6.70431 -4.91572 4.84127 -1.11504 -6.78901 -3.87632 7.98589 -1.3527 -1.81599 -4.95517 1.28198 5.23515 -2.47484 -4.5646 -5.31662 7.63638 4.88359 -5.49464 -2.54158 1.44753 1.59494 2.29473 -1.02714 -4.12468 -3.40648 6.85174 6.46495 6.99995 -3.42207 0.688573 -7.54493 -5.44806 7.43193 -1.01858 3.20952 -3.17084 4.68083 1.10508 -0.518735 6.94613 -1.75987 -2.579 0.535226 -7.75259 -7.91529 2.43901 4.84666 -7.07042 5.28061 -1.26902 -2.27632 4.96223 -7.00391 -5.80635 4.96506 0.768626 -2.9496 -5.08958 -5.5024 -5.35406 1.54815 -5.16761 -3.44678 1.59977 -6.79813 6.01461 6.46511 3.77761 -0.831269 2.30873 3.57187 5.08407 3.90397 4.1088 -4.88991 -3.46021 -5.16983 5.33384 -1.97978 -7.13671 -7.79768 -6.27471 1.6773 3.24892 7.71782 -1.50742 0.660142 -5.25558 -2.20838 -1.78497 3.58358 2.70771 -3.5716 1.33487 -6.03828 -3.93579 -2.78413 -1.21124 4.85529 3.50741 1.57724 1.12532 -4.08577 -3.4942 5.79599 -2.09912 -1.72904 1.52959 5.12412 6.15973 -1.19812 1.726 2.78835 4.84648 6.23665 -7.54809 1.657 7.25755 -1.92379 -5.77823 -1.34944 -4.09698 -4.84888 -6.97484 4.39015 0.810845 -4.01872 4.34746 -3.70095 -2.12104 1.94207 6.96501 -2.13843 0.0412617 1.5279 -7.22621 2.08043 -3.86228 3.38188 -5.74384 -0.298046 6.32169 -3.4505 -1.5621 -7.2173 -2.69797 -5.90244 -5.89406 2.70432 -1.84348 -1.00615 0.911234 -6.873 -3.61629 -4.77237 -2.99495 -3.69047 -3.37849 5.63968 -4.56648 0.334807 2.57361 2.0476 2.68749 3.08486 -0.789527 3.94802 7.9327 -7.66566 2.81728 6.18855 -5.78292 6.68775 5.37166 -1.30982 -4.93574 2.34543 0.892297 -3.33828 -1.19574 6.02085 7.04931 -6.1899 0.0414735 0.977549 4.42904 -5.92553 2.49554 2.8023 -2.77536 4.28497 0.783883 -6.81246 5.37427 4.69248 -4.2344 1.30539 5.11606 2.67825 -5.6296 -4.92532 -3.97996 -0.399377 1.25088 -5.51349 6.4339 -4.29759 -3.13286 -6.872 1.76063 4.93813 7.21347 -5.27151 -5.80999 1.64223 5.37964 -7.59156 4.60329 -0.880242 4.49835 -0.0898383 3.85742 6.37433 -0.621954 -4.16543 7.47253 -2.21431 -3.63836 -5.90348 -0.0411802 1.22143 6.34674 6.79588 0.983803 -7.15055 -6.44042 3.26628 5.77601 3.11292 -7.92868 4.40763 2.1217 -1.36663 4.07776 -6.27636 7.61075 -4.37869 5.88669 3.07852 3.0789 2.07129 -6.10218 5.84827 1.59281 5.38513 -1.7954 0.794973 7.50873 -6.03915 3.25347 3.54369 4.10699 -2.34108 -7.814 2.07124 6.95693 1.59973 -5.78166 7.61105 -3.39131 0.294782 -3.60755 7.58302 0.940367 -6.7824 3.37258 -0.688403 4.38665 6.14122 0.854953 -5.92859 -6.06124 2.99424 5.47376 4.45723 4.86712 -6.02431 0.589847 -7.91373 -3.0741 3.07404 -5.08669 -3.03567 1.40525 7.27559 3.42788 -5.58167 6.28169 1.4018 4.49913 6.19514 -1.91364 2.5568 -0.669362 0.555839 4.68797 -7.70401 3.98414 -7.59868 1.39481 1.71897 -5.00867 -5.58016 -5.55497 -1.17665 4.78151 -0.985785 2.88038 -4.96941 0.811361 2.76768 -0.482745 3.41938 -1.76538 0.360313 1.57582 -2.86336 6.41187 2.89187 7.50579 7.72174 -2.95955 3.46781 5.02177 3.9879 1.18478 7.32254 -0.15831 7.66919 -5.02826 5.20112 -3.95914 -3.10314 2.47148 -3.92759 6.68632 -1.73306 -0.968904 2.72353 2.36885 3.29909 1.22719 7.47094 4.60844 1.17834 -6.1837 -0.0494465 -2.71792 1.01597 -0.215769 -6.14692 6.86874 -2.47987 5.85113 -3.29475 7.77531 -0.282497 -4.24288 0.564694 -7.47543 -0.313171 -5.13937 -6.28931 -0.272026 -0.335797 -5.35356 -1.0159 1.44538 -0.818904 3.88976 -1.32177 -7.59664 1.04344 6.75716 3.06122 -1.66125 7.43906 6.10798 7.21652 -4.10593 2.37396 -6.11731 -2.88915 -1.55408 6.77541 -4.81936 4.28778 4.94585 -1.20223 2.17438 -1.52103 6.29881 -6.27879 -4.40794 6.93117 -2.40666 7.86288 -3.37289 3.73854 -3.84964 -3.13589 -0.445053 6.86707 3.31588 -7.43698 4.15903 -5.04899 4.68168 1.38718 -5.32769 3.20028 3.39069 6.60506 4.60067 -0.256172 2.60338 -6.95715 7.72477 4.75156 -7.36623 -0.437686 -2.05377 3.66785 2.22178 -2.21234 -4.93351 -0.574771 -5.81149 -7.21668 -5.88232 4.0769 3.78352 0.176088 6.06224 5.11848 5.39941 7.49282 -0.187491 -4.5759 5.31475 3.18436 -6.20446 6.53102 -0.346228 -5.54989 4.00269 -0.963258 -7.88201 -2.44853 -0.479782 -7.41044 3.23801 -4.49414 1.26706 -3.91905 1.28243 1.18885 1.49684 3.45833 2.03557 6.77995 0.482552 -4.15548 2.24543 -1.02416 -4.43698 1.18713 -2.32245 5.37527 6.71626 5.85072 7.97705 -7.40889 2.85088 -5.52897 7.21715 -7.32187 -5.7 7.38831 -0.69271 -3.16108 4.35455 0.428705 1.85846 -0.791281 -5.37988 7.88283 -4.9668 2.38637 -6.56365 7.53908 1.42603 6.26571 4.37404 6.31467 0.549897 -4.28237 -2.30025 -3.26906 0.636698 -2.87954 3.73143 6.99719 7.24911 -6.70769 6.42293 -5.61371 1.76111 -2.27187 6.55238 -4.29098 6.52655 6.30595 7.77385 -5.41609 -2.3968 2.11538 5.83193 6.72337 -7.74064 0.379109 -1.88768 -0.135698 0.273965 -3.18867 -0.27228 -3.9642 -6.57486 -2.9931 3.7829 -1.44728 6.9439 0.28974 -0.0471458 -4.01515 -1.79215 -0.568834 -7.92472 -4.75717 0.573704 6.43556 -5.66948 -7.58655 -6.41471 -0.71115 6.11052 7.52892 4.67146 -6.99724 -6.85464 7.40888 5.9317 -3.56474 -0.951729 7.26288 5.25617 7.60767 -7.49538 3.68407 5.03231 6.73153 1.95626 -1.32723 1.65273 -5.22499 -1.43223 -2.69402 -2.17328 -6.44415 -7.20323 -5.88062 3.15128 -5.23145 7.22687 -6.63238 2.95573 -7.06164 -2.68084 1.08974 -5.81803 -4.95345 7.05551 4.89186 6.23697 -7.04608 -0.752894 1.8124 -4.70213 7.60407 -2.2663 5.66627 -6.22264 -2.48937 -6.8468 0.874938 5.63187 2.4598 -3.28613 6.70933 1.89588 6.79908 0.702986 5.69912 6.96836 4.13281 -3.81888 -1.60168 0.938602 0.790667 3.25182 6.04764 5.96552 2.92028 -6.03374 6.22813 7.0139 -2.83756 1.64762 4.82527 6.26097 4.07663 -6.45444 7.74244 -1.97753 -1.57083 5.82729 -1.57821 7.46737 4.88003 -4.81706 4.38168 -2.10733 1.81028 3.80129 -1.20469 2.73321 -7.6937 4.22474 2.67394 0.661095 0.483998 -5.50851 0.916494 -3.08154 1.16156 5.35986 -5.95782 -2.65219 -0.293204 -1.64986 1.59898 -5.96133 1.53886 -3.14483 1.77776 1.62668 -1.0081 -2.95443 7.24458 -5.99481 2.57278 0.120255 4.91791 5.1443 -2.3817 -3.25093 6.978 -1.73542 -2.94366 6.08937 -6.19377 -7.982 -5.18603 5.58725 7.19189 5.27504 -7.3071 7.19495 -1.12241 -3.29597 -6.86795 3.48076 5.4191 3.50806 -1.50827 4.19768 4.01258 -4.37244 -5.99451 0.0272495 -5.95126 5.96986 -1.90218 3.21532 -6.22743 2.68451 -3.00567 5.41153 7.13306 7.69329 -2.89868 -3.77152 0.394113 -6.22374 1.20002 7.79967 -3.81853 -1.5812 7.8178 -7.8543 2.38032 -4.65717 4.53778 -2.97858 -0.237229 -3.99253 3.95687 -5.7607 1.34338 -7.02322 -2.44399 -0.0554038 -2.93467 5.97988 -1.62895 2.79994 5.13792 6.31911 -3.19902 5.22007 4.48575 -0.602694 2.67233 -2.78286 7.74143 -4.39095 2.87934 -3.41566 2.86247 -0.488683 4.45269 4.2816 5.56369 4.22466 -0.353799 -6.99117 3.04284 -3.72127 -4.25073 -6.69831 -2.95 0.721333 4.92049 -4.81161 -7.84457 -5.35621 -1.39344 -5.76202 3.52318 2.57334 1.19402 -5.67779 -4.46213 3.22482 2.37419 -3.80418 5.56605 0.0256464 -3.97408 7.22357 5.50594 7.16298 2.49097 7.25333 4.23051 2.39796 -4.43956 3.93798 4.87176 -3.88126 6.14765 -7.3356 -0.52898 0.610612 -1.74519 0.420284 -1.44807 2.94879 -4.91138 -6.04771 3.43298 5.17017 0.846417 4.46591 -7.28902 -6.05128 -7.21298 1.25302 -2.76292 -1.76955 -3.26189 -6.04338 -4.2935 2.04526 -5.47596 0.601287 -4.73105 -3.34358 -6.83979 -5.72813 1.42358 -0.23034 0.569709 1.65172 -4.00236 4.28292 -0.188215 3.70787 -2.01981 -1.73343 6.52558 -4.84983 -5.95199 6.09319 1.0952 2.27902 4.40381 0.517742 0.0025563 7.90843 -2.89737 -4.88198 -1.27655 -1.32163 5.97517 -3.88783 -7.35857 7.16256 7.15466 0.593542 0.38297 -6.13097 -7.14892 1.73609 -2.40349 -2.41345 -7.35516 -5.95408 -0.902443 5.67083 4.32601 7.14219 -2.73847 -4.34307 4.01771 -6.37122 -0.957411 -0.254563 5.6482 -5.03522 -1.57024 0.410547 -6.69126 1.76689 -3.90231 0.892485 7.40848 0.963782 4.63821 -6.32536 -1.83026 3.25505 -3.67325 3.25501 2.87729 -5.30391 7.25608 -6.77503 -3.59093 -5.42436 -0.897088 -2.95576 3.92453 0.890053 4.57943 -3.89401 -6.61726 0.139367 -1.05963 2.91953 5.40843 -3.97593 -6.52307 -5.92828 -0.105801 1.08251 7.33135 7.75062 -2.23662 -3.75982 -7.68775 7.60472 4.18191 -5.2541 7.81742 -3.11698 -6.81272 -3.46887 -1.22908 2.61633 -1.16002 7.49615 -5.69926 4.46231 5.88688 1.5354 1.29603 6.8038 -0.73004 -3.44247 2.50523 3.22031 4.5541 0.789945 1.00217 -5.66494 -2.1842 1.43773 -1.37522 4.03078 2.08977 3.74153 3.8991 -1.23986 -7.06297 -6.07539 -5.20456 -7.05924 0.475748 0.182078 -4.92129 -0.273413 -0.243906 -1.70075 0.327426 6.53105 -3.48332 6.74068 -0.583036 -6.76097 -7.37101 -4.82269 2.33974 -4.06775 1.15536 2.7942 -5.34214 -2.64809 3.67784 7.23671 -5.3766 -3.3263 -0.263901 1.9701 -1.87139 6.88968 6.54819 -2.96117 -6.66309 5.91279 -7.94768 -1.60087 1.69583 5.26709 3.61416 -1.26714 -0.581195 -7.12702 -4.7564 -6.73455 -2.3268 -6.42582 -0.380169 6.3592 6.33524 -2.63054 -1.78626 7.09754 -3.92287 -6.90023 -3.39454 0.850853 5.51786 7.0038 -2.95124 0.244242 -6.69274 -4.05925 -3.52756 1.6622 -0.938644 -3.55097 -6.25296 1.57185 0.406033 -2.3059 4.91595 3.9753 0.361675 0.715395 5.09133 7.27532 3.13585 -3.57184 -3.07063 -6.38357 -0.689923 -7.87864 -3.50997 -5.12791 -5.82923 6.32093 5.29306 -7.64523 -0.295495 -3.93315 5.81615 4.24981 4.94138 -0.858808 -7.19456 -3.16092 -7.89353 -4.48369 -0.189963 2.03921 0.695422 4.27279 -5.01215 2.79387 -1.84297 -7.23045 -3.57666 5.22275 3.55902 -6.08055 5.25512 -0.179342 -7.85449 7.57115 -6.95067 6.46251 -5.05825 -7.46817 0.37504 -2.98883 -0.0560404 -4.06254 -6.07279 2.8912 6.55474 7.23365 -4.62917 -2.37786 -2.87804 -5.94511 -5.30391 -5.93759 2.84581 -7.58612 7.70644 2.53205 1.62366 -3.20701 -4.77016 7.45991 2.9184 2.31834 0.164996 5.0319 1.12345 5.96175 5.786 1.05193 -3.24946 5.50344 -4.80276 6.2656 -7.98897 1.66462 1.2888 -7.75971 3.80344 1.38493 7.8402 6.60017 7.21378 -3.1185 -6.79429 -0.916756 -3.84247 -2.13481 0.0319192 7.91629 -1.78195 -5.26729 -6.80132 6.15296 -5.53846 3.49417 -7.01488 7.10221 0.931789 1.02542 -3.37928 -1.8641 2.88897 -6.26521 2.84167 -7.16227 -7.31541 -7.17937 1.05158 -7.33801 1.16455 1.2169 -6.76543 3.0209 6.52837 7.67972 5.03538 -5.91196 -5.17398 3.19119 -5.42652 7.13928 7.32748 -5.84375 -0.24012 7.38833 4.59232 4.53286 -1.25363 -7.16044 7.48113 3.40203 -5.51119 -6.74754 6.92549 3.47929 5.70552 -7.91849 3.23685 0.975093 -3.91723 -5.55221 0.74125 1.80067 3.66573 2.23729 2.81567 -7.19356 -5.26456 -5.10671 -6.03292 5.58164 -7.4388 2.26221 -4.3915 -7.54927 5.94275 4.90983 0.544286 2.19733 7.54524 3.33622 0.050671 6.25394 7.8314 -6.24812 2.73712 -6.01164 -1.59926 -2.52928 -3.13384 -7.96444 -1.20659 6.70581 -0.30827 -4.5172 -6.9164 7.46261 3.43114 -4.6927 6.68488 -4.17931 1.88357 6.69813 3.53341 0.154767 -6.25238 -2.02435 7.43633 -5.10522 2.28573 -7.84235 -1.01797 3.97768 -7.07932 -2.58057 1.37759 2.8656 -2.8203 -1.32137 7.29024 7.17804 -4.14616 7.67564 1.46289 -1.74028 -5.19917 4.20246 -0.46431 0.0513742 1.72991 -7.88028 -6.44296 6.93796 -6.66105 3.28868 0.891662 -2.62518 -4.42687 -0.702243 -2.95237 -0.846052 4.42455 2.38546 0.163171 -3.66929 -1.09364 0.945013 0.481137 -3.41177 3.09828 -1.68477 6.58733 1.94238 1.15067 2.1106 0.839003 6.53247 -4.48743 -3.85416 -2.51029 -0.508737 -0.643546 -6.69153 -6.87418 4.84382 -2.19978 -1.56479 6.29747 -3.2343 3.91872 -1.15585 3.36793 -6.82586 6.65554 6.66598 3.92209 5.31246 6.43431 -6.66541 6.10468 -5.99509 -7.01461 -7.39242 2.82605 0.562859 -1.48288 -7.53144 -2.65637 0.508491 -4.56729 3.26796 6.74588 -2.94574 -3.50209 4.1311 1.06239 6.59529 -5.73492 0.815016 -7.49194 5.25818 -2.31842 4.75608 4.61321 -4.79347 0.744208 4.57084 -4.78397 -5.6137 2.04864 -0.779046 4.63598 4.84027 -7.98466 -7.11171 4.49438 -2.97504 0.696447 -1.65734 -1.60213 -0.082335 -6.3596 -3.95617 4.55101 -5.97492 -5.08045 -7.03639 -5.45157 5.79532 6.33814 1.66906 -3.31122 3.84021 -3.65122 6.76317 5.51183 7.47131 2.15721 5.03677 -7.94325 3.83587 6.52915 -2.63018 2.56074 1.58984 2.64083 -7.20016 1.45422 0.913816 7.49269 4.82791 -4.97677 -5.56471 -5.81196 -1.05237 -0.586788 -0.614086 -4.41087 3.2975 -0.180432 -6.42048 3.28596 4.22016 6.78333 -6.9326 -5.27551 -0.637124 -6.29901 -4.97175 7.50947 -4.91534 -2.09927 -0.633189 5.16952 6.2306 -1.53981 0.702193 3.33829 4.86057 3.95064 3.902 -3.4424 7.83641 4.02306 5.07444 -6.06812 4.18873 5.06209 3.26034 0.0259328 -0.3299 -7.50074 -6.54548 -3.16846 -3.62088 6.16952 6.86519 0.691672 0.856944 7.81188 2.01539 -4.33178 2.2447 -4.21343 -7.75868 -2.05319 -2.21122 -7.7636 1.57348 7.39539 1.44848 -0.563564 -4.35977 -6.33733 -3.12334 -3.53961 -5.62808 2.03674 -6.57829 -2.85279 -1.67652 -3.05938 7.69586 -7.95982 2.6236 6.94185 -7.514 -5.85029 7.94876 4.83876 7.98295 -2.22783 6.79199 5.75758 4.38374 0.0485881 2.24897 3.06801 -1.37058 -0.17527 -2.90621 4.46035 6.10077 5.60046 6.34179 -0.185926 -6.60141 4.20515 0.692634 3.82645 7.03528 7.93177 2.57431 -1.05601 6.88947 1.7894 -7.68876 -7.40252 5.03845 1.79463 6.54032 2.37515 -0.332514 4.98711 -6.53386 6.77688 6.22283 1.88475 -3.22701 -1.39373 -5.90951 5.1196 -1.18509 -2.9907 -7.68975 -7.78005 -7.22098 3.35452 7.7825 -6.27964 6.1337 -3.94803 -3.46526 4.9561 3.3411 1.60602 4.31139 -1.56926 0.276521 0.0871305 3.37665 -7.73756 7.5704 -6.22448 -4.58764 4.97078 -0.352619 -3.31204 4.31819 0.225659 -1.43252 4.0405 2.15193 1.55432 6.24561 2.75055 5.60124 -4.25344 2.19127 -3.25215 6.10675 -0.854872 3.01209 -2.74378 0.443694 -5.58751 -4.6895 0.894106 2.7816 4.38677 4.33477 5.84902 6.83434 1.24857 -6.65569 5.09641 7.10677 -1.83255 7.69837 0.427932 -4.88285 5.06906 -7.85114 3.12137 -7.68834 -0.219858 -0.752208 1.86197 -5.96584 -3.16929 -2.43788 2.46898 -6.50544 1.36163 -4.65915 -6.18033 5.74737 -6.03046 0.564198 -2.90323 4.36048 4.47179 -5.8165 5.7082 0.27911 -1.91168 1.86861 4.9979 -0.754783 -0.194387 1.5204 3.57253 6.45537 -2.64566 2.47581 6.58106 4.2067 7.54298 2.61126 7.76682 -5.44151 -5.48907 -5.40414 7.08131 -0.118831 6.99289 7.69725 -5.80085 1.28628 -3.50697 -6.69046 2.43259 -1.82329 -7.73696 -3.57679 2.02442 3.54988 -0.290807 4.66806 5.23597 2.10266 2.82162 -2.79285 -7.34026 -5.30867 6.47437 -0.473488 -4.61117 -6.58808 5.04143 -7.72922 -2.35716 5.88207 2.15358 -7.34047 3.28627 -0.044972 -4.11603 -5.86098 -6.68013 0.997683 0.142063 2.71766 0.0817275 6.70783 -7.06962 4.13551 -1.2915 -5.33226 -0.687448 -3.15285 4.59 -6.24028 7.25991 0.235273 -2.93128 5.4069 -3.74433 -2.93229 -5.73855 1.22864 -5.95594 -0.572184 0.927793 7.39108 -1.73349 1.98519 4.99047 -4.93024 0.0913444 7.1392 -1.54749 2.83814 -1.83091 7.80228 4.18529 -1.97871 -7.26478 3.52135 7.40044 1.02733 4.99885 -5.12241 -4.07958 -7.34764 -4.11422 -3.70628 -0.191884 -4.67682 -5.41395 -1.66804 4.19518 4.90177 2.30846 -2.51154 -1.5274 1.17881 -7.52355 -1.82502 2.70449 2.08887 -7.76047 3.56774 -0.400735 3.68601 1.73451 -2.36986 4.99176 -7.5113 4.92448 -5.4356 3.69398 -4.31849 -3.03848 -5.59051 -1.41424 -1.3214 0.19128 -7.73469 -3.97525 3.48549 7.93851 -4.3194 -3.72439 -5.78751 -3.71355 -3.4193 -0.898507 5.27338 7.69406 -0.0782757 0.839109 -0.372697 -6.17739 -0.413105 -5.24287 -5.37898 4.14314 4.58906 -7.86926 4.20926 -1.45715 -1.36882 3.18363 -1.82374 4.29677 7.81993 -2.87197 -5.34307 -6.4209 -0.493804 -0.295982 -3.94143 2.4363 3.08068 4.44425 1.59598 -1.67479 5.70267 -7.82696 -0.0715234 -1.40266 5.83489 -4.87536 3.17289 -5.55623 6.58064 -0.749614 -5.64246 -3.55376 0.581333 -2.79733 -3.2706 -2.37019 -3.41708 3.59548 0.826025 3.50803 -4.04226 -4.7705 -3.30463 -3.93423 -0.919619 -3.01363 5.57683 6.80229 -6.83394 -0.988332 -2.31907 -3.453 2.477 -7.7338 6.39745 -4.51309 6.30711 -4.73583 -3.90561 -5.54026 -3.55174 1.41741 -2.38242 -3.66009 -4.11477 -5.41798 5.39082 -7.35922 -4.86982 -5.15481 5.19803 4.77046 -5.40493 -6.75379 -3.936 7.98268 -6.72289 4.58482 -6.71756 -3.52604 1.1181 -4.39384 -5.93756 -2.17408 2.87659 2.33818 -4.77744 -2.64775 7.91972 2.09081 1.67263 -4.13676 7.31507 1.19334 1.34395 -7.37571 1.34527 -1.17548 -6.32611 3.76832 -3.92388 6.2186 -4.13502 -5.9806 1.37053 6.94743 -3.87562 1.84486 5.21072 -2.0283 -1.06111 2.46885 2.2372 2.39416 1.05518 -0.212614 -5.11514 7.8634 -5.54884 -3.9771 -2.293 -4.45512 2.19095 6.7411 5.88276 -7.18513 4.4299 -1.22044 -3.66678 -7.36065 5.06533 -2.45149 7.14845 -2.39664 -1.41519 6.73708 -1.176 -2.36046 4.639 3.9594 2.79039 2.29514 -2.45301 5.72583 3.32653 0.865834 5.14494 -3.00258 -7.2897 1.21064 -3.54873 -0.625526 -3.67201 6.35716 -4.3677 -2.66331 -2.7812 -0.222395 -6.23106 -6.8609 5.8097 4.23936 0.82953 -1.60748 -5.58534 -6.87459 -0.109651 2.67683 -2.52892 -0.0154894 4.22948 -2.90603 0.160464 3.20703 5.90063 1.74864 1.04919 -6.11784 7.71157 -6.21253 4.82923 -1.29041 -2.73563 3.25539 3.23428 6.49243 6.82738 5.15747 -0.0163194 7.35867 6.54366 -0.561423 -5.82168 6.98963 7.83292 -3.43742 -4.07995 3.83982 -7.37624 -0.226058 0.0210687 3.3514 1.64923 3.81238 -3.61181 0.768577 -4.01257 4.95613 4.84911 1.93609 7.87659 -2.03233 -4.68005 -3.45353 7.23966 3.0922 2.13981 -7.61949 -0.749749 -6.7539 -6.3111 0.233402 5.60111 -3.23793 -0.308916 5.80404 7.35423 4.28112 7.31654 4.31242 3.45727 -1.23522 -7.48897 -6.91209 -1.90524 -2.99268 4.34711 -0.38739 -3.72809 2.27848 -3.59913 -1.79386 -4.69283 1.99996 -5.53673 -2.59471 5.37399 7.3352 6.32246 2.82358 -4.63521 -4.81504 -3.77932 0.827042 0.533273 -6.4633 3.54069 -2.72728 -0.59638 7.68316 -6.80088 -6.23144 4.73273 4.74841 -4.81862 4.96868 6.2352 -6.15527 7.12475 1.50648 1.6251 -1.71251 2.79549 -5.65168 4.8216 7.80084 -0.860404 7.3868 6.33009 -3.36721 3.73488 -5.65332 -5.37768 -3.54127 -0.66079 -3.49854 1.60392 -5.82181 5.45605 1.48739 4.27498 -5.83614 1.36974 -0.551447 -7.6012 1.89775 6.17785 7.30914 -2.50613 -3.84642 -6.58617 6.42451 -1.38361 2.09978 -7.12616 4.53165 0.860122 -5.22748 -6.66078 0.00775831 6.3359 -0.842759 -2.28465 -4.40146 -5.09178 0.751497 7.97381 5.77864 2.47207 4.64668 -6.30888 -0.824989 6.56145 -6.05038 -0.238312 -5.11539 -0.592643 -0.927115 -6.84764 2.30017 -4.33684 -6.93084 5.32323 -4.09311 -6.31665 4.44535 -7.68094 -5.55324 -1.1283 -4.18543 -2.90859 6.96716 -2.99548 -0.941535 5.70193 0.0869902 4.96168 -5.60073 -7.01127 -5.47215 -6.55921 3.66644 -2.94333 -6.64242 -6.24706 2.83675 -7.39301 7.16123 -6.51898 -3.50799 3.73136 -6.65458 1.27814 6.21574 4.16363 3.92188 6.41354 -0.0582632 2.72549 -5.29061 1.04868 1.61825 -3.39115 0.465334 3.02612 4.34303 -5.39879 2.38466 -7.89256 2.37245 -1.10375 2.85257 -7.77814 -3.94381 7.81549 6.14999 5.34978 2.70317 -7.08304 5.35637 0.251542 4.56884 -2.94673 -5.87669 -7.04748 3.04323 2.38174 -7.79624 5.35267 -1.97596 -1.66825 -1.23272 7.69647 -5.47865 -0.67615 7.75487 7.95178 -4.15992 -2.13669 -3.06467 -7.683 3.67153 3.14392 -7.53795 -4.46936 -3.21499 -3.0591 -1.29323 -1.47087 6.70144 4.01473 7.92769 2.49555 -0.411599 -6.03716 -0.187446 3.94256 2.84964 -0.594507 5.42883 -1.91599 0.141622 1.84744 6.78721 -7.05195 4.66362 -5.88814 7.13551 1.34612 5.72778 7.95894 2.41679 1.18814 -7.29016 1.69 -1.84712 -7.49112 -3.04409 -6.31277 7.5763 -6.62653 2.51249 7.39133 7.77492 0.956449 -4.68918 -4.66134 -4.73702 3.01159 -4.64838 3.05608 2.98181 6.09113 5.22715 -4.27107 -7.15436 -0.465425 -0.828602 5.57465 -7.09687 1.27854 6.19611 -6.16888 7.44779 4.58551 -5.33788 -4.29713 7.4952 -4.02769 1.69768 -1.12911 -5.38769 -7.73002 -6.74032 6.0795 -1.46464 4.47657 7.26424 -4.32073 -2.88397 6.75855 -5.38956 -3.17 -2.71634 -0.107291 1.02835 2.92325 -4.27377 -3.17174 -4.37069 -0.212897 -6.96021 3.54782 5.54851 3.93939 -5.06091 5.65816 7.3277 6.07396 2.38045 1.6554 -0.70702 -7.40923 -1.6491 2.19385 2.06552 -5.61341 0.15903 -6.65499 -7.05009 -7.92421 -1.20848 7.90828 -1.39073 7.45031 7.60704 3.16128 6.84127 -1.06461 -7.98763 -5.31183 6.07152 -7.00235 -3.79513 4.27242 4.3844 7.80786 6.79077 5.98549 -2.49392 -4.6856 -4.72767 -5.13157 -6.50707 0.302058 -6.43222 -2.43373 7.07202 2.2291 5.58053 -0.7531 4.80649 -7.71975 4.13691 3.09739 -5.36809 0.100985 2.10105 4.1808 7.30871 -3.50329 4.28485 5.84977 -7.89479 -2.34852 -3.61376 3.44978 -2.31541 -2.97739 -5.38819 2.63376 -1.8638 -0.296524 -2.30564 6.25392 4.02212 -2.11075 1.20347 -6.00119 7.22224 4.67858 -1.90917 -7.67222 -0.373653 6.30574 7.53672 1.37425 -0.452623 7.69038 -0.989306 -1.83779 -7.79978 2.8843 2.30247 -6.42224 -7.55602 -7.92572 -3.7205 -7.87612 2.31688 6.00898 0.735905 -6.63429 -1.77889 -3.00039 -5.08759 7.84913 -5.27284 7.28663 2.94858 -1.34584 -1.95405 -4.74357 5.55756 -4.92679 0.0790925 -3.53299 7.83033 3.89818 3.3222 7.82689 -4.71205 -6.12264 -6.2158 4.50538 -5.02606 -6.38021 -6.29345 -1.17362 -2.94202 -6.07146 -6.99318 1.39282 -2.48391 -3.89838 -2.92999 4.02974 1.04674 -4.34993 2.45171 0.258679 2.58571 -7.1114 1.80573 7.51597 4.62608 -4.54996 -5.54898 5.22399 0.977798 -4.64026 -1.18003 -4.85611 1.71154 0.928414 -3.73543 -5.83874 -1.59552 7.77 -0.426137 3.1159 -2.35683 3.83655 5.38989 -6.6128 4.98203 7.65948 4.31967 4.9917 3.92968 4.13204 -6.49612 5.00231 -5.73764 -1.80633 -6.79003 5.32813 2.80113 0.405932 -3.39455 3.45437 7.04674 0.684762 -7.74965 -7.50047 -6.27394 7.92103 -7.74373 -4.47553 -1.84427 -5.61579 0.19589 3.08848 2.34293 -2.09095 -4.12326 5.90265 -7.77482 -2.47462 1.88316 -7.79662 1.04217 5.06511 -7.22777 6.82817 -2.49274 -1.7301 4.01657 0.894892 -7.48782 6.00302 -5.29366 0.193928 6.17267 1.10241 -6.36518 4.38877 -2.72919 5.45263 0.114592 2.93002 -7.71265 6.49439 -2.96462 -3.16097 5.5616 3.35921 -2.01746 0.760415 -2.17146 5.90195 -0.288558 3.09124 1.75402 -4.08882 4.00544 -5.88197 -7.17407 7.2511 2.13708 3.4646 -1.02532 -2.91248 4.96701 -1.13007 4.6025 -2.98584 -1.51886 -5.56483 7.85998 5.27942 6.47315 -2.33038 -3.9923 0.887728 -7.34983 -5.27217 -7.48633 5.77592 -7.25536 -3.26788 0.225243 -4.69735 1.41459 -6.96529 -4.48072 5.22867 -7.82036 -0.656763 -2.92233 7.4691 -4.30253 4.56875 7.13098 3.45142 -1.91892 0.172704 -1.74185 -2.09935 -2.03791 -7.60567 4.60818 3.98903 4.18745 -6.85263 -0.253525 0.53078 -4.86393 2.10219 1.93879 1.06014 -6.80829 -6.56424 2.43564 -4.38351 5.6052 -1.07286 5.40421 -3.81021 -1.39809 -5.10258 -4.52818 -5.30328 2.84017 5.00487 -2.77925 0.444463 3.03762 -5.45622 -5.95766 -1.42743 4.61025 0.525809 0.949653 -7.9437 -2.79378 4.9939 5.45664 3.14714 3.8109 4.20631 6.97569 -6.69963 -7.02317 -1.85105 1.10669 -4.18118 -0.538968 7.70423 -7.86504 7.22962 -4.81193 -7.7328 -4.4295 -2.97788 -1.88806 -1.00613 -3.58598 7.39172 -3.57675 -3.87768 -3.37147 5.40189 4.12943 5.40524 4.81968 5.85693 6.30103 0.177748 5.87121 -7.45182 6.41356 3.74199 -3.2772 0.441371 -0.842833 7.65383 6.86773 -6.27031 5.71027 7.50636 -1.78021 7.7231 -5.35858 -6.47699 -0.360547 -5.71948 -4.86112 -5.27467 -0.331341 0.297962 5.71809 -7.61541 0.927905 -5.48505 -6.7043 3.37937 -2.72463 4.15629 -4.93142 5.12455 6.32599 3.11984 5.38876 7.64924 -6.58365 3.3037 4.09457 1.58891 6.22689 -0.713364 -5.02502 1.66242 -1.81371 -2.55972 0.689258 2.04682 -1.9623 5.78059 1.66635 -0.873548 -3.13658 -4.45819 -3.64144 5.45904 7.00152 -0.427114 0.152781 -1.75349 -6.70713 6.9538 -2.14454 0.84982 -6.40651 2.33102 3.02016 -5.16491 0.158825 5.27613 -1.5036 6.84134 -4.64177 -6.71285 0.701262 -6.85134 1.63018 2.26571 5.87925 2.48487 -6.98209 -2.80077 3.57108 6.01929 -5.02361 -2.54076 -3.18045 -3.85467 2.82316 -0.0979628 3.54497 -6.66097 -7.69764 5.49853 3.16048 0.631852 6.75587 -5.99289 -5.38323 -5.37864 -7.39811 -4.31293 5.39046 0.435976 -4.26858 -3.23698 3.97671 -6.14871 -6.36469 -5.7122 5.89144 -6.17952 -1.40596 -2.61409 6.7092 1.40317 1.703 -6.69205 -7.20385 5.74614 -7.16738 4.31664 -3.84423 -4.23707 0.332162 -1.7726 2.47451 0.634603 -6.43741 -2.52065 5.72273 -4.50504 -7.97331 -5.16946 0.464471 7.81675 3.26378 7.40719 7.3004 1.90615 1.28221 7.98809 6.08262 -5.88181 4.08886 -6.43638 2.00677 0.451055 -6.64992 -5.23424 0.130548 0.7329 6.88508 2.95351 -5.96933 4.07648 5.45822 -5.01417 -1.18593 3.49837 5.23661 -2.03198 -2.77467 4.74159 -5.2189 6.89527 -0.446047 0.331124 1.13745 -1.1748 2.25939 -0.366341 6.6135 -2.32407 2.96119 -0.166594 5.72715 -4.57435 2.57977 -1.642 4.32099 -4.5177 -6.24991 2.20332 -3.56318 -3.47104 5.69603 -2.54626 -6.82487 6.17142 -7.15493 -1.50999 -5.21769 -7.30104 1.36336 -7.81507 -1.66169 -7.54015 6.5852 -0.805833 -5.20144 -7.60129 3.56532 -3.99464 -7.54055 2.66201 4.33453 1.49792 6.15719 -6.03936 5.65095 4.94415 -6.92439 -3.79486 4.02537 -6.69249 -5.90432 5.50588 2.41368 -2.35395 -7.4254 6.98797 7.72905 0.641804 -0.734092 -5.32204 -5.87407 -0.311622 -0.107423 -5.95835 7.20848 -5.57836 -2.38771 -3.1854 -7.4744 -0.351717 -0.583065 5.82662 -1.54864 4.99187 2.53336 -6.1342 4.78791 5.55233 -7.75205 -4.93656 -3.0254 2.18424 7.31596 -2.55714 -1.48221 5.06694 6.87865 5.40561 -1.89525 -6.00678 4.30799 7.81567 -0.148643 -0.655678 -6.21466 -4.43134 -0.125318 -6.80198 6.26623 3.89381 4.3976 -4.94939 4.09755 3.34423 3.60509 2.01687 0.382813 -5.77242 1.2664 -4.14518 -6.09069 -1.16166 1.55779 -4.01528 -2.24644 3.2538 1.99652 -3.68021 5.45771 2.33094 -1.99528 -7.13182 -4.08073 -7.58449 -0.750754 -5.1833 -3.22036 -4.37498 -7.77227 -1.39003 -1.46506 -3.56026 0.450065 6.2769 -6.10956 4.48186 6.76887 -2.70075 5.84488 -1.10616 0.585531 -7.78678 7.14504 -2.24847 -6.61934 7.2306 -4.98776 -0.786466 -1.47896 -4.18182 7.34567 -6.22088 -2.04831 2.77586 -2.4765 -6.60564 3.32569 4.42435 -2.78611 4.46399 4.38564 0.420475 -4.91443 0.297392 2.78386 -5.75798 -4.98196 5.08187 -5.99055 -4.80608 -7.44947 -6.5266 4.23086 -0.594203 -1.96164 7.1363 -2.27051 -1.14578 3.11538 -5.00673 0.155378 1.27627 -4.46977 1.81612 0.336496 -2.94007 -7.24457 4.35372 -4.39508 -7.65275 -1.4622 3.51086 -2.57176 -3.32456 6.11543 -4.09106 5.01222 -4.66976 -1.54159 -4.42509 3.17829 5.65957 4.79239 -2.04428 6.46927 3.86483 -1.02879 5.83454 1.5435 -3.07721 -6.05307 0.927382 2.9035 7.18954 -0.801591 1.28427 -1.72352 3.41775 0.820266 -2.00197 1.56129 -6.70088 0.898783 2.43426 5.11974 -4.70612 5.64221 2.90158 5.76036 5.71848 1.27638 -0.437959 -0.475787 6.93975 2.15012 3.86983 -0.781609 2.41875 -6.25143 -4.02066 3.17632 0.22991 7.97104 7.43702 2.6323 -1.24661 7.31953 -4.16612 -6.8097 6.46036 -1.98016 3.34955 -4.57623 -3.54181 -2.74037 0.471684 -0.00453363 6.26723 6.09673 7.69638 7.34398 2.13911 -0.0711921 2.21738 -4.41492 -4.31317 -2.96305 -6.31474 -0.787 2.3829 7.4599 -6.67394 -2.17526 -5.26459 5.09784 -4.13359 6.43129 0.620214 2.16485 -6.58845 -7.11134 2.42176 4.75632 -3.7661 -7.79963 2.21646 -4.85614 5.75667 5.2124 -3.68695 3.14181 -1.23065 2.1688 -6.11522 -6.00855 5.71237 -5.65765 5.84469 2.15477 -4.99352 -3.17077 6.87161 -7.07073 4.64102 -1.85085 4.75388 -2.12014 -0.51181 -6.03533 -2.80135 2.5039 -1.44247 -1.23699 -3.58747 -7.81079 7.33606 7.29499 3.54326 0.927179 7.67532 3.16544 5.48054 3.5378 6.54384 -2.24332 -2.20549 5.91423 -0.930023 -0.735036 7.57472 5.30884 4.61847 6.09593 -2.60627 -2.77625 -0.205768 -0.98738 -1.97951 3.0899 7.45396 1.01006 3.32584 -6.87856 5.89551 -7.4016 5.06791 5.9256 2.24504 5.58533 -7.93255 -0.9809 -1.0759 -6.15322 3.31341 4.81374 -7.24917 -4.25995 7.48708 0.384461 1.04789 -7.94968 -4.75507 -3.75218 3.65137 4.62637 -3.77577 -0.4438 -4.81173 -1.21414 -7.98552 -1.2344 -4.3403 0.261787 -1.52897 -0.983017 -6.39134 -3.21039 -5.62228 7.45114 2.46525 -6.39553 -3.91138 -2.4575 1.62989 -7.08701 3.76056 7.0247 4.72307 -0.878603 -5.65224 -1.0978 2.23085 -1.41248 -1.17063 7.22681 4.46601 6.25223 -3.02987 3.14776 -0.226098 -6.6096 2.74011 -5.79761 6.04651 -4.26731 2.19421 3.10932 -2.63976 -5.93328 -1.23188 4.07248 -0.618653 -7.06133 -3.82667 -6.36832 4.04852 -1.46557 6.23919 -7.75627 5.69619 5.26443 -7.00498 3.12166 3.65996 -5.63916 2.29395 -3.22341 -7.5138 -2.30386 -6.91247 -3.51777 4.93479 2.63526 3.78954 6.20933 5.71976 1.19608 -7.4105 7.59751 7.21591 2.66096 1.6414 2.36258 -2.64154 5.27959 1.58538 -7.50031 1.06314 -3.29733 3.70548 -3.59678 2.37009 0.917889 3.11578 2.62569 -5.41691 -4.62439 0.988839 3.03154 -0.0246954 -3.28263 -2.07895 3.63285 -4.08658 -1.8953 -6.92451 -4.02337 -6.62864 2.96244 -4.06516 0.157341 -7.10558 -6.21729 -5.42262 -4.14609 1.58982 7.69424 6.86623 3.68079 2.62322 6.57372 -2.94243 -0.178555 -3.09793 -3.4733 -7.78577 -6.74562 1.14669 -2.5799 -5.32514 5.88192 -2.4857 5.53928 -1.9168 -6.46497 -3.55145 1.94418 7.99952 6.85724 -5.29619 0.821295 6.90388 -2.71765 -6.39095 -1.85706 -3.99339 -7.96975 -1.48689 1.82452 -5.76362 5.00128 6.73736 -0.171278 6.51922 -3.9146 -5.20498 -7.27744 0.6076 -6.22896 4.72786 4.48978 7.45469 3.51299 -3.29213 -4.91168 -5.3948 -4.27017 2.22851 -4.27133 -7.51122 4.41938 -1.087 -2.47384 -7.05525 0.863118 4.83152 -1.66767 5.00456 -7.54267 7.64409 7.14238 -5.51743 -2.81233 4.60172 -3.55151 3.67542 1.15824 3.15311 6.80534 0.250324 -6.64757 5.8449 7.80291 0.119317 -7.56208 3.40655 -5.19422 5.65001 -7.04995 1.47185 -2.04892 -6.80936 -1.94461 -4.00248 0.271276 -3.49112 1.35681 -3.88913 3.22291 0.87964 -2.16631 -0.090765 5.23424 2.73457 4.52007 -7.80958 1.80774 6.52875 -3.41388 0.784068 -4.06221 1.45903 -4.91157 -2.69023 -5.13343 1.34621 -7.30797 -7.80379 7.60292 -5.65781 -3.91093 
