1.46283 -7.16707 3.18599 2.11484 6.46775 6.83075 -1.51624 
-2.21395 -1.05351 -5.69845 1.3008 -0.763202 -6.23571 0.261727 
3.62268 6.29605 1.89354 2.1512 -1.18488 5.40612 -7.15058 
0.0566624 5.43336 0.671797 -0.389075 -0.246268 -1.16685 4.32159 
5.30439 5.75367 4.17443 -5.66086 -0.736271 -7.95306 -7.62214 
-1.35012 5.53694 1.34262 0.826575 6.9293 0.495176 -5.34881 
-4.59332 3.38507 -0.966171 2.06863 3.06716 -6.95926 3.22715 
-6.48246 2.57498 -0.704614 0.873005 3.19217 3.91802 5.3261 
5.40444 -7.8954 -1.24243 6.37658 -6.90626 -5.05387 -2.6094 
-6.82247 -2.50608 -1.81587 4.37757 -7.99371 -6.87697 -7.96452 
7.67322 -4.3404 -5.57319 -3.84721 -7.84546 0.36949 -5.9739 
-1.45498 -3.81813 -5.71113 0.375124 -1.50593 -1.98023 -3.24021 
-3.75954 3.8719 0.194681 5.98995 -4.0485 -2.34019 2.26057 
-6.96822 7.98427 -1.23771 -4.1256 1.4659 -6.79419 -3.14175 
-4.50177 7.33817 0.203315 -2.18967 1.66849 -1.61121 -0.654728 
-0.558523 4.88106 5.81525 4.11157 -7.43598 -5.54494 -0.274254 
-7.18112 2.7267 3.97588 1.71944 1.89034 -5.08825 -3.21707 
5.68285 4.38282 3.06886 1.16634 3.27675 0.571097 3.02022 
4.96094 -7.6756 6.81737 1.61553 6.37136 -6.6289 7.43847 
7.36487 6.42314 -6.18708 6.51987 4.79415 2.1829 0.56761 
0.752014 -5.67167 2.93861 7.77146 3.92133 -0.485025 4.41858 
7.08671 -4.70332 -5.4025 1.57631 5.10691 -7.07384 2.80244 
5.89351 5.47866 6.33573 -7.44685 3.68343 -3.29686 1.00461 
-6.73785 2.63109 -3.80608 0.92242 -5.58356 -0.778711 2.46416 
-5.26376 6.99291 0.798594 6.40814 -3.84694 0.814246 1.69114 
2.47679 0.530345 7.83446 -1.44298 7.5286 -2.88543 4.72994 
-6.01176 -7.49592 3.11699 -1.66992 4.23221 -5.10665 -5.57342 
5.88182 -7.7548 -0.854115 4.37399 -0.714714 5.20522 -6.11414 
6.0747 -7.07233 -5.7762 1.81628 -3.02328 6.61988 -3.12141 
-7.23621 -4.02627 6.41313 -2.11807 6.48521 -6.19129 -4.352 
2.37005 2.32158 3.0319 -1.02132 7.48929 5.51304 -2.41796 
2.1088 5.00305 6.90046 1.05323 0.516041 -7.76313 -1.29468 
7.17344 -7.31717 -5.58981 -7.97319 6.04724 -2.63398 -3.40622 
0.289371 2.61068 -4.06419 3.1797 -2.21266 -6.38216 0.837311 
-2.26076 3.77624 4.19686 1.36503 4.8658 0.817515 -7.09142 
-6.1644 0.636032 1.19258 7.39003 3.66294 -4.76568 -4.69274 
-3.53079 -2.35818 -6.79091 2.64597 7.62769 3.75789 5.87812 
4.90532 -5.0442 -3.62455 -7.98684 7.84035 -1.04151 0.902222 
4.31829 0.255165 5.4875 0.564892 -5.24986 -1.84582 -1.62369 
7.99 -4.75428 2.31337 3.01164 3.8465 5.32873 5.23667 
7.23364 3.71379 0.209862 -2.07269 7.7741 3.61467 4.48369 
3.81632 -7.36495 -6.11986 1.24009 -7.46476 -2.93956 -1.42118 
-5.6166 -4.52687 -7.2306 0.869269 7.34752 6.73947 6.25035 
2.27064 -3.84011 -7.60666 6.54919 7.46307 -1.10385 4.93882 
1.6619 -2.98335 -4.90232 7.59483 3.1234 5.2859 -2.00298 
-0.114513 -2.57095 -5.92685 -0.617588 -5.74277 -1.23998 -3.96712 
7.31234 2.39816 -1.75032 -4.94206 5.83504 -4.35683 6.78142 
-7.47753 -1.7883 -7.67552 7.42846 -5.35446 -4.45017 -4.2472 
5.18928 1.26303 -7.04082 -2.50526 -5.81913 -1.89504 -4.74409 
4.22577 5.46644 7.90584 4.08037 -7.89198 -6.0508 3.86845 
-4.59333 2.33495 3.98457 -1.72786 5.17089 4.86975 0.896562 
-4.76754 -0.142698 3.80498 0.890842 6.43599 3.02248 4.48568 
1.64193 0.540509 -1.19648 7.0607 -2.80132 4.08815 1.36082 
-6.2649 0.39419 4.15502 -5.04607 -1.94399 1.34578 -6.45479 
1.13576 -5.48845 7.54414 2.96076 3.24075 1.21057 -0.322046 
-7.26912 2.03278 3.23774 5.75112 1.09437 -6.13214 5.41186 
-4.87989 -3.76162 7.27019 -6.87086 3.43139 -6.77265 -6.64389 
-0.976245 -0.133897 1.12108 2.3643 -3.12566 -5.6986 3.54202 
-4.24023 7.15212 0.309354 -1.64542 -4.50058 -5.09713 5.93024 
7.88746 -1.33189 -5.19497 6.03527 -2.87786 4.43361 -0.167211 
-4.39032 -6.79619 4.78357 -4.69015 -5.53267 -4.04919 -0.386981 
-6.45172 -0.784367 0.421863 -1.79043 -7.16829 1.27603 -7.23969 
-7.39094 5.316 -0.472196 -6.40066 4.03178 -1.46993 -6.79322 
-3.88785 -4.79895 4.55179 3.30998 5.29085 -5.35365 -6.67701 

