0.997727 -0.00260736 0.996822 0.996811 0.995376 -1.00345 -1.00194 -1.00174 0.99782 -0.00219493 -0.00161175 -0.00137029 -1.0011 0.998472 0.998772 -1.00098 -1.00084 -1.0009 -0.00125113 -0.00100362 0.998718 -0.00158589 0.996948 -0.00748148 -0.00355644 0.998978 -1.0017 0.998475 -1.00097 -1.00125 -0.00160798 -0.00185762 -0.00339477 -1.00259 -0.00265773 -0.00279898 -1.00301 -1.00311 0.998093 -0.00090759 -0.0012933 -1.0012 -0.0011021 -1.00101 -1.001 -1.00125 -0.0010719 -0.00083102 -0.00152021 0.997953 0.997472 -1.00294 -0.00285066 0.997306 0.997297 -0.00242891 -0.00125327 -1.0012 0.998191 0.997833 0.997979 -1.00229 0.99726 -0.00252624 -0.0021765 -0.00254402 -0.00279842 0.997661 0.997617 -1.00241 0.997156 -1.00185 -0.00142563 0.999379 0.999166 -0.00114001 -0.00117692 -1.00125 -0.00116427 -1.00095 0.997538 0.997536 -1.00215 -1.00195 0.998408 -0.00131675 0.998788 -0.000770358 -1.00087 -1.0009 -0.00173022 -0.00185622 -0.0020198 -1.0024 0.997354 0.997903 0.997972 0.998037 0.997166 -0.00214076 0.99808 -0.0018653 0.997829 -0.00149628 0.998841 -0.000790578 0.999228 -0.00094032 0.998971 -1.00116 -0.00116319 0.998876 -0.00115688 -0.00112605 -1.00136 -0.00138348 -1.00144 -1.00146 -1.0013 -1.00129 -1.00138 -1.00123 -1.00139 -1.0013 0.998362 0.998003 -1.00175 0.998586 -1.00267 -0.00194572 0.997798 -1.00287 -0.00327863 0.997807 -0.00253895 0.998528 0.999031 -1.00111 -0.00086328 -0.00147912 -1.00165 -1.00157 0.99823 -1.00208 -1.00197 0.998846 -1.00149 -0.00155901 -1.00239 -1.00156 0.998447 0.998648 -1.0014 -1.00122 -1.00129 -1.00127 -0.00203215 -0.00160078 -1.00147 0.998674 -0.00452681 -1.00398 0.996957 0.997495 -1.0025 0.999298 0.998488 -1.00139 -0.0014217 0.9982 -1.00152 0.997978 -0.00212295 -1.00185 -1.00222 0.99737 -0.00245329 -1.00158 -1.00205 0.998026 0.997364 -1.00143 -1.00159 0.998751 0.998605 0.998544 -0.00147787 -1.00163 0.997898 -1.00129 -0.00148548 -0.00145262 -0.00306915 0.996314 -1.00344 0.997621 -0.00268296 -1.00126 -0.000601942 0.999046 -1.00162 0.997404 -1.0018 0.998114 -1.00221 0.997783 0.99742 -1.00245 0.997464 0.997665 0.997258 -1.0016 -0.00199707 -1.00097 0.998685 -1.00126 0.998638 -1.00132 0.998306 -1.00233 -1.00176 -0.00130972 -0.00154562 -0.00163183 -0.00182837 -1.00218 -1.00258 0.99728 -1.00256 -1.00267 0.998203 0.998384 -1.00174 0.997717 -0.00201147 -1.00195 0.997477 -0.00246751 -0.00310423 0.997185 0.997592 -0.00261426 -0.00253768 -0.00197296 -1.00194 -0.0013058 -1.00155 0.998498 -0.00140392 -0.00153121 -1.0021 -1.00271 -0.0014995 -0.0013261 -1.00177 -0.00156268 0.997592 -0.00254385 -0.00250542 -0.00271335 -0.00271037 -0.00288301 -0.00270366 0.997356 0.997403 -1.00262 0.997469 0.997733 0.997536 0.997442 -1.00257 -1.00261 -1.00233 0.997974 -0.00161638 -0.00166376 -0.00199032 -1.00145 -0.0016331 -1.00166 0.998456 -0.00146417 0.997384 0.997681 -0.00191 0.998319 -1.00173 -1.0021 -0.00173687 -0.00190722 0.997831 -0.0022218 -0.00229553 0.997724 -1.00194 -1.00261 -0.00298103 -0.00259706 -1.00251 -0.00186219 0.998024 0.997878 -1.00195 -0.00215778 -1.00216 0.998049 -0.0019575 0.99822 -1.00045 -0.0003978 0.99899 0.998869 -0.000281778 0.999159 -0.00182495 -0.00118416 -1.00108 -0.00108142 -1.00182 -1.00188 0.997707 -1.00142 -0.00165402 -1.00188 -0.00203242 0.997902 -1.00219 0.998225 0.997064 -1.00292 -1.00255 0.997859 -1.00202 -0.00218333 0.997902 -0.00230756 0.99803 -1.00182 -1.00168 0.998959 -1.00009 1.00008 -1.00171 -0.00165611 -0.00175581 0.998535 -1.00096 -0.00111963 -1.00097 -0.00152511 -0.0018751 -1.00089 -1.00182 0.998193 -0.00140515 -1.00183 0.998094 0.998058 0.997588 0.998184 -1.00197 0.997193 -0.00314835 -0.00233432 0.998059 -1.00279 -1.00277 -1.00253 -0.00213526 -1.00235 -0.0025424 -1.00199 -0.00113602 0.998436 -1.00184 0.998241 -1.00177 -1.00145 -0.00138067 -1.00125 0.997938 -1.00239 -1.0012 0.998723 -1.00112 -0.00205207 0.997788 -1.00185 -1.00219 0.997698 -0.00255419 -0.0021538 0.998382 0.998136 -1.00238 -0.00278329 -1.0019 -0.00161844 -0.00198005 -0.00115561 0.998757 0.997733 -0.00244438 -1.002 -1.00101 -0.00175556 0.998442 -1.00175 0.997877 -1.00097 -0.000878339 -1.00096 -0.00190166 0.998472 -0.0013113 -0.00132275 -1.00143 -1.00247 0.996511 -0.00319942 0.997934 -1.00221 -1.00231 -1.00217 -0.00196647 -1.00143 -0.00131847 -0.00202674 -0.00170493 0.998628 -0.00141214 -1.00082 -0.00204091 -0.00252601 -0.00288934 0.995067 -1.00534 0.996367 -1.00321 -0.00168907 0.998567 -1.00088 0.998938 -1.00095 -1.00072 -0.00094274 -0.00104681 0.998864 -0.00181041 0.996957 -0.00281867 -1.00384 -0.00307563 -1.00208 0.997875 0.997576 -0.00203312 0.998897 0.998918 0.998451 -0.00175994 -1.0017 -1.00167 -1.00165 -0.00404649 -0.0061056 -0.00811422 -0.00898121 0.99134 0.992275 0.994712 -1.00361 -1.00373 -1.00219 -1.00129 -0.00138606 0.998624 -1.00121 0.999016 -1.00119 -0.00205447 -0.00270731 0.996096 -1.00289 -0.00404613 0.996753 -1.0022 0.997868 -1.00194 -1.00124 -1.0014 0.997923 -0.00252957 0.996924 -1.0046 -0.00685123 -1.00841 0.990953 -1.00918 -0.00932596 -0.00869224 0.994289 -0.00337645 0.997519 -1.0022 -0.00396935 -1.00559 -1.00449 -1.00237 0.997713 0.997534 -1.00224 -1.00196 0.998072 -0.00319242 -1.00394 -1.00274 -1.00295 0.997545 -0.00254178 -0.00221758 -1.00214 -1.00208 -0.00236011 -0.0047244 0.993239 -1.00777 0.992357 -0.00839379 0.990678 -0.00932438 0.990378 -0.00972974 -0.00818999 -0.00574992 0.995865 -1.00571 -0.0073595 -1.00777 -0.00793031 -1.00641 0.995646 -1.0033 -1.00312 -0.00190529 -0.00151397 -1.00161 -1.00235 0.997657 -0.00217784 -1.00268 -0.00235697 -0.00258366 -1.00309 -0.00424806 -1.00671 -1.00837 -0.00892555 -0.00837555 0.991309 -0.00946941 0.992028 0.99408 -1.00915 0.991067 -1.00869 -0.00829961 -1.00783 -0.00824527 -1.00809 0.9928 0.993549 -1.00574 -0.00368787 -0.00297091 0.997754 -1.00163 -1.00151 -1.0016 -1.00198 -0.00235722 -0.00251116 -1.00235 0.997058 0.995167 -1.00742 -0.00815204 -0.00738663 -0.00781798 0.991321 -0.00860402 -1.00847 -0.00626119 0.996142 -1.00521 -0.00843113 -1.00799 -1.00788 0.992052 0.991976 -1.0078 -0.00831278 0.993342 -0.00457469 -1.00257 0.997766 -0.00190633 -0.00171468 0.998129 -1.00284 -0.00247924 -1.00187 -1.00181 0.99643 0.994356 0.991426 -1.01016 -1.01036 -0.00962426 -1.00977 -1.00981 -0.00809996 -0.005904 -0.00432274 -1.0049 -0.00461583 -1.00638 -0.0090109 -0.00874634 -1.00877 -1.00854 0.991546 0.990986 0.991434 -0.00554901 -1.00372 -0.00194114 -1.00228 0.998014 -0.00209499 0.997579 -1.00206 0.998531 -1.0027 0.994785 -1.00898 -1.00756 -0.00978482 0.989465 -1.01125 -1.01146 0.988752 0.989691 -0.00919135 -1.00785 -1.00801 -1.00862 -0.00864152 -0.00936565 -1.00958 0.990826 -0.00878969 0.991032 0.991685 -0.00683113 0.99473 -0.00465304 0.997064 -1.00239 -1.00245 -0.00252606 0.997218 -0.00142376 0.998802 -1.00359 -0.00835785 -0.00965338 -0.00943674 -1.007 -0.00629096 -0.00997469 -0.00984589 -1.01058 0.988746 -0.0108708 -1.01008 -0.00925777 0.991903 -1.00815 0.991367 -1.00876 0.991573 -1.00833 0.991615 0.99189 -0.00610063 -0.00331885 -1.00237 -0.00217635 -1.00248 0.996988 0.997103 0.997187 -1.00251 -1.0014 0.999147 -1.00399 0.991201 0.991402 -1.00629 0.991454 -0.00816472 -0.00669079 -0.00562225 -1.00618 -1.00865 0.989374 -0.0102069 -0.00974829 -1.00948 0.990787 0.990915 0.991455 -1.00822 -1.00801 -1.00662 -0.00672251 -1.00533 -1.00326 0.996779 -1.0033 -1.00416 0.995547 0.996351 -1.00195 -1.00174 -0.00104718 0.997529 -0.00440913 -0.00601417 -0.00557258 -0.00784947 0.994149 0.994992 0.994872 0.994658 0.994698 0.994513 -1.00882 -1.01066 0.990653 -1.00857 -0.00899112 -0.0091069 0.991059 0.992241 -1.00567 -1.0047 0.995695 0.996486 -0.00369663 -1.0035 0.995748 0.995524 -1.00448 0.995618 -0.00295453 0.998326 0.999018 0.998457 -0.00179086 -0.00223193 -0.00334568 -1.00505 0.997559 -1.00145 -1.00196 -1.00302 -0.00444294 -1.00779 -1.00868 -0.00890325 -0.0076394 -0.00698374 -1.00732 0.992532 -0.00574637 -1.00413 -0.0034628 -0.00241895 -0.00174951 -1.00131 -1.00185 -1.00246 0.997156 -0.0024838 0.997448 -0.00256363 0.997564 0.998169 -0.00194169 -1.00204 -1.00184 -0.00148185 0.998532 -0.0031003 0.994503 -1.00261 -0.00257245 0.992843 -1.00778 0.991893 0.992442 -0.00752656 -0.00749531 -0.00697145 -0.00615547 0.995757 -1.00355 -1.00225 -1.00134 -1.00103 0.997983 0.99841 -0.00168992 -0.00205496 -1.00184 -1.00186 -1.00188 -0.00194075 0.998153 -0.00175134 -0.00251261 -0.00392309 0.997142 -1.00168 -0.00163183 0.999557 0.997097 0.994787 -1.00738 -1.00869 0.991876 0.99219 -0.00748741 -0.0078909 -1.00804 0.994311 -1.00357 -1.003 -0.00195031 -0.00121319 -1.00173 -1.00132 0.998708 -0.0038792 -0.00363771 0.996957 -1.00315 0.997098 0.99754 -0.0024125 -1.00206 0.998232 -0.0023083 -1.00534 -1.00425 -1.00196 -1.00137 -1.0009 -1.00092 0.9957 -0.00714373 0.994877 -1.0088 0.991704 0.991907 -1.00715 0.994681 -0.00271696 -0.0018136 -0.0013026 -0.00111254 -1.00112 -1.00142 -1.00194 0.997169 -1.00408 -1.00412 -1.00262 -0.00224782 -0.00256301 0.997142 -1.00298 -1.00288 -0.0024121 0.99675 -1.0024 0.997626 -1.00165 0.998113 -0.00147185 0.998767 0.999058 -0.00144922 -1.00104 -0.00327954 0.993876 -0.00613831 -0.00236047 0.998644 -1.00129 -0.00116664 0.998818 -1.00115 -0.00102186 -1.00174 0.997979 -0.00307646 -0.0026896 0.996886 -1.00302 -1.0022 0.998284 0.998375 -0.00242745 -0.00226691 -0.00210314 -0.00513367 -1.00294 -0.00187848 -0.00149286 0.998072 -0.00228895 -1.00142 -1.00101 -0.000918257 -0.00361889 -0.00267749 -1.00104 0.999167 -1.00131 -0.000864111 0.999618 -0.00116862 0.998834 -0.00132013 -0.00105643 0.998547 0.997964 -1.00214 -1.00192 0.997958 0.997664 0.997465 0.997165 -1.00201 -0.00198726 -0.0012668 0.998786 -0.0056337 -0.00450787 -1.00237 -0.00166942 -1.00154 0.998524 0.998483 -1.00159 -0.00179178 -1.00223 -0.00161818 -1.00073 -1.00108 -0.00166234 -0.00105071 -1.0005 -0.00135574 -1.00168 -0.001731 0.998542 0.998371 -1.00211 -0.00203945 0.998091 0.99801 -1.00184 -1.00174 -0.00183669 -1.0019 -0.00175197 -0.00147852 -0.00136691 0.994614 0.994348 0.996284 -0.00155893 0.99858 0.998501 -1.00145 -0.00150083 -0.00154983 -0.000927471 0.998806 -1.0027 -0.00147309 -1.00126 -0.00114455 0.999115 -0.0012679 0.998628 0.99808 -0.00186786 -1.00121 -1.00146 0.998313 -0.00171385 -1.0016 -0.00159785 -0.00168272 -1.00163 0.99829 -0.00170937 0.998538 -1.00141 0.0228484 -0.975838 -0.971959 1.02426 -0.975326 0.0209474 1.02016 1.0239 0.0244937 0.0368992 -0.969452 1.03453 -0.951561 0.0485229 0.0312533 -0.964906 0.0398925 -0.95853 1.03903 1.03424 1.03201 0.0324823 0.0389672 0.0276235 0.0190734 0.0250973 0.0264075 0.0214954 0.0187991 -0.982445 1.01792 1.02074 0.015377 0.0194559 1.02166 0.0177782 -0.980755 0.0149588 0.0122373 0.0217134 1.02605 1.02635 -0.982479 -0.968017 0.0467037 -0.953772 0.0248973 1.02638 1.02694 1.02672 1.02421 1.0223 -0.972381 1.03406 1.04587 0.0369797 0.0243264 -0.977444 0.0268687 1.02062 -0.981007 1.01204 0.00985924 1.01483 -0.980877 -0.979371 -0.972872 -0.969315 1.01827 0.00656429 1.00487 0.011632 -0.971745 0.0179314 -0.9863 -0.976015 1.0392 1.04204 0.0273099 1.02769 0.0248369 0.0254953 -0.97996 -0.984647 0.0219496 0.0365879 -0.95609 0.036001 1.02519 -0.970094 -0.972644 0.0220585 -0.96959 1.02391 0.0150576 -0.979008 1.025 -0.979459 0.0289193 -0.964241 0.024334 -0.984153 -0.984491 0.0233104 1.02058 0.0174684 1.01931 1.01994 0.0181385 0.0287823 -0.96803 1.02947 -0.977391 1.01893 -0.982809 0.0156922 0.0216756 -0.981113 -0.979169 -0.983211 -0.981071 -0.981576 0.0160287 1.01576 0.0261445 0.0309126 1.02499 1.02575 -0.983678 0.00924842 0.0099076 1.01693 -0.982916 1.01491 -0.98196 1.02297 0.0184232 -0.98781 -0.986397 1.01561 1.02464 0.0451385 -0.957333 -0.954418 0.0247822 1.0152 0.0163146 0.0259512 -0.974787 0.0197373 1.01927 0.0166465 0.0179909 0.016517 1.02061 1.0243 0.0215629 -0.97828 0.0194579 -0.977592 0.0112739 1.01124 1.01278 0.0140803 0.0205992 -0.978723 1.02022 -0.985538 1.01816 -0.984331 1.01359 -0.982799 1.0267 1.04883 1.04108 -0.959704 -0.966523 0.0260766 0.0245379 0.0297576 1.02021 1.01372 0.0166072 0.0106985 0.0133543 -0.984348 1.02399 1.02898 0.0205653 -0.974981 1.02177 1.01579 1.01343 0.0132295 0.018851 0.0201077 1.02023 -0.978316 -0.977337 1.02505 -0.968381 -0.969366 0.031581 -0.974396 0.0265577 0.0343152 -0.965313 1.03142 -0.967819 -0.969791 1.02493 1.01903 -0.990958 -0.992175 1.00965 1.00635 1.00714 -0.984527 0.0336088 0.0266035 -0.981885 1.01772 1.01959 -0.984142 -0.988799 0.0120336 -0.983167 1.02211 0.0281429 -0.972398 1.02672 0.0289351 1.02961 0.0301772 0.0325716 0.0159215 1.01416 1.01724 0.0273522 0.0347349 0.0345344 0.0271447 0.0199026 0.0135962 1.01171 -0.98998 0.0101693 0.00825478 -0.98932 1.02076 -0.95865 -0.955218 1.02545 1.0174 -0.981306 1.01759 -0.979268 -0.974197 0.0242801 -0.971711 -0.976356 0.0234414 -0.975167 1.0255 -0.968026 0.0287529 0.0206522 1.00795 1.02101 0.0209556 -0.975324 0.0253154 1.01898 0.0167051 -0.988666 -0.987459 0.0227623 0.0143352 -0.991659 1.01698 1.01329 1.01313 -0.970994 0.0429611 1.02986 -0.979834 -0.977446 1.02495 1.02781 0.0291533 1.02583 1.01919 0.0219811 1.02452 1.03179 0.0318559 0.0373557 1.03597 1.03049 0.0262467 1.02848 -0.971838 1.02931 0.0280754 1.02493 -0.961108 1.04373 -0.963681 -0.96613 1.03199 0.0270411 1.02602 0.0224777 1.02261 -0.985817 0.0239684 1.02789 1.01994 -0.974857 0.0230284 -0.983828 1.02108 -0.973853 0.0218891 1.03045 0.0306284 1.03292 1.0317 0.0325349 0.0330887 -0.969277 0.0349176 0.0334401 1.02331 1.03403 1.04467 -0.950564 1.04081 1.04753 1.04527 0.0426273 -0.950057 0.0405491 1.02781 0.0273238 0.0324855 1.02302 1.01867 -0.979107 0.0230798 0.0175127 0.0247138 0.0178558 1.01365 -0.976673 1.03122 0.037002 0.0418647 0.0386826 0.0309621 -0.974416 1.02532 0.0365823 -0.954824 1.03969 0.0334265 -0.958688 -0.954508 1.04653 -0.950049 -0.94848 1.04199 1.03438 0.0452138 -0.953464 -0.962508 0.0314916 0.0275651 0.0302916 1.02698 -0.971952 -0.966917 -0.979963 1.02288 -0.977956 0.0119633 0.0225623 1.03389 0.0416035 -0.957867 1.03236 0.0343382 0.0293059 1.02296 1.03041 -0.957242 0.0438096 1.03665 -0.95095 0.0554164 1.03206 1.02624 0.0216427 0.0185321 0.0259562 -0.962629 0.0281079 0.0244755 1.02656 0.0361079 0.0353389 1.02872 0.0161421 -0.978178 0.0181176 -0.978101 0.0226465 0.0120193 0.0239606 1.04203 -0.959895 0.0348351 0.0286208 0.0309623 0.0319978 1.02952 1.0339 1.04118 1.05479 0.0523457 -0.944368 -0.946243 -0.960216 0.0239073 1.01668 -0.977925 1.02494 -0.969368 0.0410872 -0.96314 1.03654 1.02761 0.0281987 1.03159 -0.983048 0.0119776 1.00633 -0.982837 1.01742 -0.977013 1.03355 1.02222 1.02126 1.03427 0.0272486 -0.974905 1.02393 0.0286437 -0.97127 -0.959292 0.0497256 0.0453248 1.04624 -0.952313 -0.949497 -0.951702 0.0337801 1.02456 -0.971967 0.0328644 -0.956338 -0.954711 -0.959306 1.02681 -0.977206 1.01344 1.02199 0.0240597 0.0102364 1.01013 -0.98184 -0.974098 -0.973715 -0.969948 0.0216429 0.0263081 1.03046 0.0321678 0.0308503 -0.966563 -0.964374 1.04675 1.04549 1.04969 0.0552594 1.04759 1.04748 0.0635173 -0.94671 1.04293 1.03768 -0.967633 1.03141 1.0436 0.0402464 -0.972584 0.0250977 0.0231927 0.0255519 1.03289 0.0261676 1.00953 0.0131078 1.01869 -0.978872 1.02471 -0.97922 1.02783 1.0421 0.0450452 1.03232 1.02358 -0.96982 -0.957723 1.03816 0.0389091 0.0522165 0.0579726 1.06557 0.0706955 -0.927268 0.0655777 -0.948628 1.03886 -0.964944 1.03516 -0.959637 -0.955294 1.03017 -0.970808 1.03467 -0.966519 1.03175 -0.982793 0.0111221 1.00964 0.00805923 -0.983922 1.02984 -0.971994 0.0332839 1.03062 -0.972031 -0.984082 0.0241424 0.0399294 -0.96155 1.04809 -0.939265 0.0750017 -0.919918 1.0789 -0.925131 -0.933846 -0.938569 0.0497242 -0.956723 1.04374 0.0377307 -0.955912 0.039434 0.0320683 0.023273 0.0301575 1.02664 1.02264 -0.980539 1.02199 1.02348 -0.978844 -0.9764 0.0284766 -0.971197 1.02359 0.0267223 1.01367 -0.985416 1.03947 -0.955316 -0.9514 0.0595632 -0.931002 -0.91914 1.07419 0.0695891 0.0699569 0.06644 -0.938544 0.0540297 1.04918 1.05082 -0.950784 1.04119 -0.96675 1.02805 0.028968 1.02625 1.02275 -0.979311 0.0227168 1.03429 -0.968096 0.037652 -0.959126 0.0218904 -0.983498 1.02718 -0.979648 1.02563 -0.972654 0.0386971 0.0428185 0.0426336 -0.951844 1.0548 0.0486324 -0.955011 1.05045 0.0535459 -0.952012 1.04268 1.04732 0.0376291 0.0308142 0.0409372 1.04195 -0.962427 -0.966101 0.0394176 -0.958972 -0.970439 -0.978002 -0.971528 0.0280207 0.0513485 1.0478 0.0374919 -0.974845 -0.971508 0.0291629 0.0378538 0.0397236 -0.968904 1.03276 -0.971041 0.031427 0.0299757 -0.969566 1.03103 0.0372133 0.0442602 -0.952469 0.0531994 -0.959093 0.0365763 1.04076 1.05548 0.0452093 0.029573 -0.979754 -0.969941 -0.964088 1.01974 0.020031 0.0243693 0.0265521 0.0445912 0.0432174 0.0518948 1.04432 1.03499 0.0279525 1.02598 -0.96693 0.0289362 0.0254883 -0.970859 0.0353834 1.02772 0.0259418 0.0288291 0.0386547 0.0545359 0.049516 -0.948937 0.0560589 0.0534186 0.0563758 1.05205 1.04157 -0.97257 -0.975446 1.01766 0.0270995 -0.979955 -0.981866 1.02476 1.03153 0.0471846 1.05237 0.0405029 -0.964222 1.02901 -0.979296 0.0138373 0.0164174 -0.983201 0.0290686 1.034 0.02603 1.02095 -0.968564 -0.956128 0.0478823 0.0419586 -0.962527 -0.949108 -0.933105 1.05036 1.03848 0.0343529 1.02586 1.01865 1.02047 0.0235638 -0.973987 -0.971556 -0.98293 0.0180352 0.0263482 0.0260868 0.0429927 1.04159 1.03115 1.02137 0.0213844 -0.978949 1.02771 -0.975045 1.0236 0.0307631 -0.971758 1.0335 0.0284513 1.03092 -0.964062 -0.957106 1.04334 0.0326463 0.0264685 1.02563 1.02485 1.02576 -0.971908 1.02863 1.03126 -0.965966 0.031498 1.03088 -0.97816 -0.979021 1.02973 1.03395 -0.981824 -0.969428 1.03395 1.02993 1.02982 0.0212124 1.02207 -0.97255 1.02292 0.0283926 -0.963294 -0.966168 1.02643 -0.971038 0.0379582 0.0333828 0.0202378 0.0221998 0.0210868 0.0188885 0.0157693 -0.991639 -0.993672 0.0236563 0.0347319 1.02375 -0.972716 1.02578 -0.976129 -0.976165 0.0211167 -0.978392 0.0107218 1.02157 -0.965265 1.03834 0.0270691 1.00944 -0.988897 0.0178362 1.02688 1.02654 0.0207972 0.0169354 -0.970649 -0.973394 -0.984462 0.0128812 -0.98072 -0.969719 0.0312918 0.0227326 -0.978433 1.01235 -0.992532 0.0183413 -0.964467 1.02731 0.0165525 1.01916 0.0244494 1.02125 -0.986998 -0.973258 1.0396 -0.958069 1.02647 0.0335288 -0.96726 1.02057 1.01728 -0.9804 0.0204999 -0.979723 0.0250028 1.02249 0.014856 -0.987969 1.01068 0.00537782 0.0220184 0.0251795 0.0266453 0.0256495 -0.972337 1.01305 -0.990029 -0.990519 1.0258 -0.979217 0.0118462 0.0302817 -0.975266 1.01691 0.0175253 0.0253259 0.0438098 1.04713 0.0295333 0.0304187 1.03026 1.02613 -0.976926 -0.985295 1.01774 -0.983762 0.010805 1.00805 0.0181424 -0.979374 0.018368 -0.990438 1.0162 -0.983158 1.02277 0.0155369 0.0146578 -0.979234 -0.980021 0.0201187 1.03138 -0.975224 -0.985822 -0.982317 -0.973432 1.01833 -0.981865 0.0195092 -0.971023 0.0347404 1.02569 0.024156 1.02448 -0.984025 0.00691974 1.00027 -0.99319 -0.990206 1.00443 0.0137522 -0.980763 1.01879 1.01854 0.0175964 1.01909 1.01831 1.01652 -0.99099 -0.994606 0.0146825 1.01526 1.02275 0.0267332 1.01933 1.02116 0.00384355 1.00134 -0.993515 -0.998278 -0.999232 0.00378221 1.01946 -0.984592 0.0142787 -0.00627154 -0.00685713 0.0165756 1.01317 1.0137 0.015632 0.00495274 1.00596 0.0112234 -0.984424 1.01384 0.0129737 -0.980071 1.01705 -0.994246 0.00273438 1.00518 -0.983247 0.0103681 1.00789 0.0194988 0.0170487 -0.994945 0.996418 1.00691 1.01253 -0.0132872 -1.00048 -0.985368 -0.00195366 0.0014423 1.00545 -0.998609 0.00396095 1.00385 0.990649 0.00623598 0.000950289 -0.00349592 -0.00705491 1.00202 -1.00069 -0.997219 0.995316 -0.999483 0.00837391 -0.00870281 1.00258 1.0008 0.00099107 0.992144 0.998268 -0.995836 0.00900591 -0.00259864 0.00534462 1.01283 -0.980774 0.991538 -0.999901 0.0164023 -0.996083 0.99762 0.0134967 1.018 -0.981147 0.0081149 -0.013315 -0.000763965 -0.995329 0.00180487 1.00838 1.02002 -0.992444 1.00722 0.00628364 0.0111859 1.00574 -0.995384 0.00873707 0.00617148 -0.999916 0.996642 0.00501334 -0.981754 -0.984018 0.000818383 1.00556 0.00770684 0.00719227 0.00920696 -0.992934 -0.991548 1.00972 0.00945782 1.00644 1.0067 1.01135 1.01752 -0.979207 -0.981335 0.0123522 0.00718236 1.00505 -0.991305 0.00744067 0.00617895 1.00946 -0.991908 0.0103531 1.00871 1.00795 1.00972 0.00971552 0.00732658 -0.992037 -0.992162 0.00858638 0.012486 -0.996013 1.00688 1.00524 -0.99451 0.0071299 1.00664 1.01052 -0.988919 -0.994682 1.0067 1.01476 0.0194195 -0.981347 -0.982458 -0.991784 -0.996477 0.00690921 1.01469 0.00723738 -0.994614 -0.99357 -0.9903 -0.987454 -0.98748 0.0120837 0.0131443 0.0090722 -0.993003 0.00984464 0.00979739 -0.98861 0.0143039 1.00377 -0.994101 -0.993729 1.00503 0.00755184 -0.994968 1.00527 1.00977 0.00506872 1.00687 1.01178 0.0136771 0.0161925 0.0169434 0.00915752 1.00499 1.00862 0.0140763 1.0064 0.00705973 0.00750541 1.01327 1.01366 -0.988306 -0.983535 -0.980181 1.01397 0.0143151 0.0155119 0.0114702 0.0131847 1.01177 -0.995683 1.00276 -0.993246 1.00587 0.00850552 -0.99237 0.00511774 1.00539 1.00373 0.00718147 -0.987842 0.0153109 1.01606 0.0145817 1.01337 -0.989657 0.0118295 1.00918 0.00597675 1.01309 -0.990511 0.0156988 -0.982735 1.00986 -0.988382 1.01192 -0.985552 0.0171796 -0.982774 1.01268 1.01067 -0.990367 0.00684028 0.00425902 -0.991479 0.00460724 1.00954 1.01056 0.00602096 -0.996088 1.00459 -0.98978 -0.985624 1.01836 0.015313 1.01393 0.0155015 -0.988695 0.012578 0.00890428 1.01147 -0.983334 0.0102484 0.0156672 0.0106582 0.0105894 0.00920407 0.00927014 -0.986938 0.0172471 1.01679 1.01587 0.0130253 1.01058 -0.990554 1.00711 -0.986872 0.0102642 1.01106 -0.991855 -0.993988 0.00414734 1.00557 1.01213 1.01679 1.01766 0.0143074 1.01719 1.02081 0.0101357 1.00828 -0.98557 1.02319 1.02282 1.01049 0.012812 -0.990468 0.0102573 -0.990165 -0.990191 1.0133 -0.983517 1.01685 0.0180657 0.0191933 1.01682 1.00589 0.00375813 0.00896934 -0.98743 0.0152261 1.00805 0.00552655 0.00302091 -0.99294 -0.986417 -0.976067 1.02139 -0.985066 0.00963375 1.00893 1.01066 1.0136 1.01335 -0.975044 0.0233762 0.00894261 1.01231 0.010677 0.0107353 0.0112461 0.00760077 -0.988126 1.01677 1.01978 -0.975906 -0.978313 1.01963 0.00488479 1.0034 -0.993804 1.00847 0.0107449 0.0100882 -0.995092 1.00303 1.00795 -0.989243 1.01885 -0.969518 -0.977279 -0.98972 1.01126 -0.981572 -0.980804 1.01864 0.0274414 1.02899 -0.981325 -0.978535 0.0130774 0.0115398 -0.988542 -0.991575 0.0104299 -0.987671 -0.985119 -0.980966 -0.97803 1.022 1.00792 0.00668004 0.0049436 1.00582 1.00847 1.00949 -0.992175 0.00490249 -0.991051 -0.987272 1.01499 1.02931 0.0238805 0.0106632 1.01116 1.01968 0.024961 1.0215 0.0246543 0.0328472 0.023627 -0.98484 0.0128945 -0.983249 1.01719 -0.988891 0.0160911 -0.987174 1.01745 -0.982813 -0.977625 1.02208 0.00591905 0.00542715 1.00481 -0.995556 1.00838 -0.986515 1.00813 -0.99357 0.00703366 1.01183 -0.986245 -0.979274 0.0203055 0.0243595 0.0287925 0.0326937 -0.96158 1.02993 -0.974911 0.0305473 0.021875 -0.982329 0.0183079 -0.977634 -0.984565 1.01389 0.0183744 1.01207 0.0189181 -0.98296 1.02256 0.0188958 1.00445 -0.995804 1.00609 1.00547 0.00899193 0.00874223 1.00609 1.00407 1.005 1.01026 0.0111128 -0.981318 -0.97861 1.03026 1.03565 -0.957544 -0.953312 1.04493 -0.966117 1.02933 -0.978718 -0.978278 1.02177 1.01748 -0.985496 1.01633 -0.982406 0.0126876 -0.978952 1.02241 1.02244 -0.985117 0.00503044 0.00592487 -0.992006 0.00905868 0.0106341 0.00863762 1.00786 0.00420263 0.00723093 0.0110444 -0.98549 -0.980402 1.01323 1.01766 1.02293 0.0289034 -0.971327 0.0307118 0.0263527 0.029469 -0.97824 -0.976031 -0.977146 0.0174805 -0.984875 1.01412 1.01684 0.0149254 -0.978204 -0.974937 0.0212352 -0.986323 0.00715091 0.00851385 0.00823532 -0.99108 0.0150532 1.00902 1.00839 0.00559655 1.00792 -0.986221 -0.985609 -0.990652 0.0139042 -0.982137 1.01543 1.01197 0.018585 0.024238 1.02199 1.01649 1.01818 -0.980788 1.02279 -0.979351 -0.981879 -0.982576 1.02177 -0.980643 -0.979502 0.0204538 1.01664 -0.987076 -0.989836 0.0116612 1.01111 -0.990697 0.0164674 0.0133334 1.00893 -0.994277 -0.989448 0.0207719 1.01328 0.0100708 0.0113704 -0.987219 1.01152 -0.987834 -0.985021 0.0170681 1.01632 1.01995 -0.974576 -0.974323 0.0231663 -0.982149 -0.981768 1.02058 0.0268603 0.0225787 1.01536 -0.987141 0.0132264 0.0162069 1.00574 1.00387 0.00714076 1.00768 0.0081026 1.0094 -0.994264 -0.994892 0.0116682 1.01597 1.00841 1.00768 1.01405 0.0109862 0.0126387 0.0178636 1.01595 -0.986274 -0.987791 1.01086 0.0213403 1.02368 1.0209 -0.977693 0.0206827 -0.984213 0.0176415 0.0123075 1.01174 0.0133476 1.00901 0.00855295 1.00804 1.00591 0.00464678 0.0050254 1.00607 0.0062326 0.00748736 0.00521993 0.0120234 0.0155565 1.00789 -0.992626 1.00955 0.00820151 0.00709251 0.00839112 1.00881 0.011047 -0.985325 1.01518 1.01731 1.0173 0.0104314 0.0155258 1.01263 0.00893523 0.00978351 -0.991184 -0.989947 0.0134584 -0.989431 -0.990291 0.00855192 1.00602 1.004 0.00465057 -0.996215 -0.99294 0.0106862 1.00534 1.0095 -0.986212 1.00851 0.00648434 0.0069784 -0.990086 1.00807 -0.991444 1.00949 1.00857 1.0114 1.01161 -0.991536 1.00883 0.00934568 -0.988559 -0.988731 1.01043 1.0097 0.00903087 -0.991571 0.00819759 0.00831875 0.00779345 0.00640747 -0.992954 1.00479 -0.995468 1.00493 0.00570192 -0.994756 1.00519 1.00607 0.0109921 1.00709 0.00671097 -0.988758 0.00776362 1.00785 0.0119423 1.01382 1.00662 -0.991147 1.00807 1.00593 0.0093333 -0.992422 1.01173 1.00988 0.0070009 1.00817 -0.992186 -0.993058 1.00556 0.00430902 1.0038 -0.990677 1.00729 0.00516504 -0.994713 0.00829966 -0.991176 0.00604902 1.00664 -0.99167 0.0103474 0.00594483 -0.99292 -0.988746 1.00822 0.0101199 1.01378 1.01159 0.00488618 0.00681756 1.00643 -0.995082 -0.988898 0.00644582 0.0117503 0.00911448 0.00694678 -0.994048 0.0057882 1.00759 0.00546212 -0.994798 -0.994924 -0.988421 -0.989671 0.010254 -0.989106 0.00654407 -0.99283 -0.991421 1.00619 1.00906 1.01225 0.00645309 1.00709 -0.989269 0.0141319 1.01012 1.01114 0.00974555 -0.995106 1.00665 0.00960652 0.00798034 0.0141696 1.00636 1.01557 -0.98418 0.0144244 1.01426 0.0102778 0.0101397 1.01402 -0.984595 0.0145067 1.01521 -0.984654 0.0174057 -0.989924 -0.993333 -0.988047 -0.987835 0.0089977 1.00981 0.00982981 0.0111179 0.017801 0.017285 -0.981337 0.0171615 -0.983819 0.010159 1.00562 0.00585367 1.0144 -0.980257 0.0196405 -0.987206 1.01833 0.0177876 -0.983558 -0.982428 -0.988892 -0.990014 1.01421 -0.988385 1.01336 1.01843 0.016478 0.0169754 -0.992852 0.00643545 -0.982861 1.0123 -0.985094 -0.992226 0.00766505 -0.984233 0.0230513 0.0219975 -0.978121 0.0222067 1.01947 -0.989041 1.00892 1.00828 1.01479 0.0227605 0.0214899 1.01825 -0.982346 1.01372 -0.989089 -0.989715 0.00720615 1.00705 0.0110371 0.00809695 0.00789075 0.020599 0.0192167 1.01939 0.0198987 -0.976365 1.02881 0.0254579 0.0287964 -0.968066 0.0291459 -0.974355 1.02743 1.02611 1.0263 1.02492 1.02278 1.01738 1.01493 1.01304 0.0170663 -0.975575 0.0266843 -0.975937 -0.972128 1.02407 1.02411 1.01878 1.01584 1.0179 0.0176408 0.0173417 1.01612 1.01854 0.0192606 -0.980179 0.0198224 -0.978613 -0.97704 -0.96839 -0.963593 -0.956981 1.04178 -0.960281 -0.958104 0.0403173 0.038924 0.0407313 1.03883 0.0369886 1.03294 1.03264 1.03302 1.03939 1.04272 1.03856 0.0399189 0.0333848 1.03156 0.0281452 0.0257482 1.02563 -0.975277 -0.975286 -0.975728 -0.984266 -0.983716 -0.984435 1.01627 1.0183 -0.976687 -0.962295 1.03801 1.0414 -0.953921 -0.950366 0.0481562 -0.948917 1.04811 0.0477876 1.04921 -0.949748 -0.950486 -0.949074 0.045758 1.04978 -0.949134 -0.951421 -0.953971 0.0442974 0.0344714 0.0230144 -0.980439 -0.981908 -0.981498 -0.982413 1.01708 1.01533 -0.982913 1.01894 1.0206 1.02515 0.0374245 -0.966697 1.03273 0.0394789 1.04246 0.051987 1.05268 0.0534862 -0.946125 0.0512564 0.0494266 -0.950189 1.0522 -0.950719 -0.951797 -0.949183 1.03909 0.035903 -0.963425 1.04096 0.0424303 0.0290699 -0.975593 1.01637 -0.982847 1.01676 1.01745 -0.983295 -0.979967 -0.977054 0.029999 -0.965121 -0.958837 1.04793 -0.946095 1.05446 1.0549 -0.944318 0.0556663 -0.944343 1.05524 1.05339 0.0535681 0.053571 0.0513226 0.049511 -0.949652 1.05226 0.0493208 -0.955049 -0.9529 1.04753 0.0477686 0.0430619 -0.963219 0.0250798 0.019643 1.01636 -0.984688 0.0147275 1.01484 0.0205803 -0.978766 0.0219813 0.025358 1.0317 1.03167 1.03711 0.0337984 0.0362989 -0.963739 -0.961913 1.04059 0.0338859 -0.96209 0.038863 1.037 -0.962625 1.03645 0.0377718 1.0387 0.0377841 0.0360479 -0.963132 1.03542 0.0371154 0.0356452 0.0306869 -0.974455 -0.981441 -0.984148 0.0124848 1.01276 1.01289 1.01469 0.0149692 0.016121 1.01492 1.01453 1.019 -0.985093 -0.984048 0.0154173 1.01818 0.0186926 1.01746 0.0176912 -0.983657 0.017423 -0.983068 1.01511 -0.986036 -0.985605 1.01413 -0.986142 -0.986394 1.01351 1.01549 -0.984446 1.01457 1.0156 1.0124 0.00901602 0.0114653 0.0119875 -0.987228 1.01328 1.01261 1.01287 1.01319 -0.986409 -0.982874 -0.978936 0.016456 1.01505 -0.984799 1.01548 -0.986397 1.01386 0.0134836 -0.987494 1.01218 -0.990201 -0.989392 -0.986958 0.0107947 1.01029 -0.989278 0.010162 1.01233 1.01158 -0.989043 -0.990139 1.00988 0.00923535 0.0119143 -0.987574 0.0120424 0.0124252 -0.987946 1.01204 1.01287 1.01317 -0.98588 1.0172 1.01551 1.01706 -0.984039 1.01689 -0.985188 0.0150552 -0.984921 1.01708 1.01562 -0.98346 0.0156044 0.016155 1.01615 -0.983554 1.01684 1.01601 1.01449 0.0137168 -0.98628 0.013981 -0.986432 0.0135728 -0.986994 0.0142632 -0.985608 -0.985985 1.01238 0.0116264 -0.988215 -0.984359 1.01627 0.0132804 -0.987593 -0.986437 0.0146111 0.0181723 -0.985464 0.0147601 1.01515 0.0178108 1.01557 1.01608 1.0149 1.01756 1.01686 1.01414 -0.985742 1.01263 -0.987016 0.0129793 1.0131 -0.987016 1.01323 1.01261 -1.00298 0.993033 0.990137 0.993608 -0.0034231 -1.00159 1.00159 -1.00508 -0.997686 -0.999384 0.00313152 0.99242 -0.0182298 0.978302 0.989025 -0.0238441 -0.0280092 -0.0197076 -1.01732 0.97837 -1.01485 -0.00827823 -0.00844768 0.00398302 1.00931 0.998774 -1.00731 0.998722 0.000264722 0.999497 -1.01923 -1.00193 1.00167 -0.00337279 0.000874416 -0.00424061 0.995696 -1.00483 -0.00296191 -0.00114121 1.0056 1.00831 1.0053 -1.00531 -1.01423 -1.01462 -0.00319135 -1.01364 0.983011 -0.00808815 -0.0072988 -1.01354 -1.00436 -0.998765 0.995152 1.00109 -0.994779 0.00115105 0.98452 -0.997767 -0.996435 -1.00245 -0.0137901 -0.00127629 0.996804 -1.01494 0.995993 1.00228 0.99844 -0.999864 0.996874 0.00438491 0.00905025 0.0143128 -0.989255 1.00181 0.00229623 -0.00180453 -1.0022 0.993944 -0.00179506 0.99681 0.997005 -0.00711098 -0.00661071 -1.00463 -1.01291 -1.00407 -0.000242816 -0.990588 -0.00121954 0.00719907 -0.00287496 -1.00531 0.988134 -0.0082494 -1.00666 -0.0108013 0.989571 0.99449 -0.00363319 -1.00111 1.00245 1.00559 -0.994345 1.00412 0.00475266 1.00341 -0.000991893 0.995692 -1.00643 -1.00508 0.0073909 -0.000536603 -0.00109323 -1.00796 -1.01686 -0.00443297 -1.0051 1.00246 -0.989705 1.00455 0.999267 0.00462439 -0.997667 0.985974 -0.0163748 -0.0106769 1.00665 1.00592 -0.999219 0.99689 0.997697 -0.00171623 0.992308 0.000121713 -0.98534 -0.98888 -0.994872 1.00915 1.00577 0.996436 -1.01397 -0.00619628 0.00926902 1.01009 -0.997521 -1.00633 -0.00318847 0.99649 -0.00737496 -0.999227 -1.00054 -0.0129967 -0.999666 0.00509205 0.0121368 -0.00459584 -1.00186 1.00496 0.00928323 0.998653 -0.00633496 -0.00437025 0.000433074 -1.00225 -1.01462 -1.00444 1.01154 0.00562037 0.99606 1.01253 -0.984256 0.00718552 -0.00733708 -0.999974 -0.985609 -0.99757 -0.995768 0.00225589 -0.999623 -0.00608571 -1.01928 1.00032 -1.00469 0.978002 -0.000258484 -0.993903 -0.990874 -0.00309093 -0.997489 1.00843 0.00216809 -0.0050347 -1.01426 -1.01324 -1.00742 0.987441 0.98065 0.998719 -0.99146 1.00301 0.996552 0.00124487 1.00951 -0.993943 -1.01247 -1.01216 0.998975 0.993785 0.00358565 -0.00209346 0.00227277 -1.00614 -0.0123 -0.995503 -1.00233 0.994107 -0.993863 1.00737 -0.994157 0.0100968 0.0107971 -0.991309 -1.00171 -1.0011 -0.00185757 0.993705 -1.0038 -1.00663 -1.00793 -1.00034 0.0039725 -0.00600328 -1.01555 -1.00401 0.000707785 1.00096 -1.01738 -1.02515 0.974164 0.985707 -0.00531915 -1.00948 -0.999011 -0.998533 0.00511629 1.00586 1.002 -0.00600819 -0.00402012 -0.996922 0.00294012 1.00917 1.01014 -0.992185 0.998523 -1.00412 -0.999655 0.994071 -1.0106 0.987651 -1.01197 -0.00870303 -0.00595347 -0.0165789 -1.02861 -1.01728 0.995524 -0.00510519 -1.01542 -1.03234 -0.0352978 -1.01502 -1.00521 0.995871 0.996952 -0.999399 -0.99705 -0.999861 0.999039 -0.00241578 -1.00118 -0.00393505 -0.996882 -0.998452 -0.994932 0.00506181 0.996596 0.998079 -1.00541 -0.00230535 -1.01253 0.982865 0.981163 0.986069 0.99278 -1.01825 -0.0211548 0.977694 -0.0152122 0.982995 0.963213 -1.03553 -0.0217222 -0.0183304 -1.01678 -0.0169297 -1.02416 -1.00744 1.00612 0.00148155 0.989749 -0.000382706 -0.994846 -1.00144 -1.00309 -0.999615 -0.994293 -0.998018 -1.00073 -0.00102579 -0.00123715 1.00043 0.986085 0.989244 -0.010865 -1.00386 0.997058 0.990481 -1.00778 0.987245 0.996206 -1.00394 0.975474 -0.0155216 -1.00753 -1.00774 -1.00947 0.981729 -1.03086 0.978115 0.00372774 -1.00057 0.987628 0.991928 0.999275 -1.00687 -0.00400629 -0.00383309 -0.998493 -0.995968 -0.00857074 1.00223 -1.00284 0.986188 -1.01933 0.984247 -0.0148568 -0.00700591 1.00389 -0.995428 0.00215055 -0.000589497 -0.0050401 -1.00556 0.983887 0.989322 0.996199 0.995435 0.987573 -0.021653 -1.02603 0.981586 0.989046 0.995793 0.98862 -1.00581 -1.00673 0.991796 0.994217 -0.00695338 0.998544 -0.998708 -0.0192582 -0.0148595 0.983857 -1.0211 0.977975 0.979326 0.974686 0.974145 -0.0106013 0.999481 0.995253 -1.00438 -0.0146628 0.97884 0.980177 0.985259 -1.0062 0.997409 -1.01177 -1.02283 0.984974 -0.0187468 -1.01477 0.989524 -0.0125274 -1.00895 -0.00805055 0.988768 0.993206 -0.0102469 -0.00946856 -1.01084 -1.01737 -1.01646 -0.0146385 -0.0170437 -1.01928 0.981835 0.975315 -1.02486 -1.02212 -1.00755 0.986459 0.990546 -0.00977971 0.985691 0.984037 -1.00907 -1.00446 0.00129325 1.00072 0.990934 0.989553 0.992871 -0.00819929 0.989035 -1.01476 -1.01409 -1.01107 -1.01132 -1.01061 -1.01046 -1.01125 0.985041 -0.00528245 -0.00502063 -0.00478784 -1.00875 -0.00641294 -1.00435 -1.01509 -1.01657 0.986197 -1.00918 -0.00268852 -0.00192682 -0.0031516 -0.00418768 -0.00707594 -0.00926255 -1.0109 -0.00894954 -1.00439 -0.000469447 -1.00715 -1.00544 0.991383 -0.00911644 0.994029 -0.00990655 0.992022 -1.01137 -1.01416 0.982243 0.98633 -1.00877 -1.00053 -0.00804806 0.98725 -0.0207019 -0.0166755 -0.0109445 -1.02044 0.979473 -1.02208 0.980476 -1.01667 -1.01284 -1.01271 0.989629 0.983016 0.983537 -1.01036 0.989794 -1.01215 -1.00383 -1.00305 -0.00191046 -1.00642 -1.00815 -1.00981 0.992924 -0.00438936 -1.01401 -1.01316 -1.02389 -1.02548 0.98004 -0.0108887 -0.00876033 0.985461 -1.02307 -1.01867 0.986065 -0.0228509 0.981756 0.983263 -1.01291 -0.00963684 -1.01152 -1.00925 -0.00751472 -0.0150513 0.981858 0.978154 -1.01718 -1.01448 0.988044 1.00063 1.00464 -0.00688424 -0.007405 -0.0144481 -0.0145508 -1.01427 0.99002 -1.00979 -0.0225951 -1.02805 -0.0237093 0.987154 0.988905 -0.00744282 0.990604 0.991245 1.0049 1.00609 1.00607 0.00821667 -0.994531 0.00609677 1.00023 1.00129 -0.00661625 -0.01014 -1.0164 0.977205 -1.02232 0.983244 0.999684 1.00777 0.00292014 -0.0130628 -1.00171 -0.00517537 0.980903 -1.01928 -1.01278 -1.01357 -1.02418 0.980234 -0.0148902 -0.00466114 0.990697 0.995356 1.00114 0.994823 -0.997659 1.0037 0.00256261 -0.99541 0.00304765 -0.993896 0.993634 -0.00695935 0.984445 -0.0247475 -1.02735 -0.0298709 0.969585 0.970149 -1.01132 -1.00092 -0.00509376 0.983025 -1.01074 0.977266 0.978255 0.983833 0.985131 0.970727 -0.0293456 -1.02417 0.980252 -0.0107946 -0.0118444 -0.00508267 -0.0041482 -1.00836 -0.000890848 -1.00333 -0.00459976 -0.00497008 -0.000465278 -0.997375 0.0124528 1.00043 -1.01086 -1.01339 -1.016 0.982897 -1.01774 0.982751 0.983626 -0.00173468 -1.00877 -1.01824 -1.01459 0.985038 0.986854 -1.00678 -1.00708 0.9852 -1.02115 -0.0233559 0.972881 -0.0130046 0.980624 -1.01787 -0.0151784 0.981946 0.997255 1.00046 -0.000889026 -1.00513 0.996844 -1.00369 1.00592 1.00733 -1.00412 -0.00521998 0.988732 0.982768 -0.0126122 -1.01354 -0.0125353 0.986306 -0.0139719 -1.02654 -0.0263677 0.984552 0.0011799 1.00505 -1.0082 0.981531 -1.01701 -0.0149353 0.980935 0.985529 -1.02009 0.982296 -1.01749 -0.0232929 -0.0180313 0.986599 -0.00811603 -0.997205 -0.992456 -0.00668495 -0.0131277 -0.00560962 -0.00625491 -0.0222157 0.969066 -1.02987 -0.0258907 -1.0245 -1.01857 -1.01449 0.973052 0.973232 0.984152 0.996656 0.999224 -0.999424 -0.0106601 0.988454 0.983562 0.976588 -1.02168 -1.02191 -1.01668 -1.01052 -0.0142367 -1.01227 0.989945 0.991742 -0.00836992 -1.0057 -1.00117 1.0018 -0.00482049 0.996466 -1.00789 -1.01038 -1.02336 -1.02577 -1.02787 -0.0322718 0.981051 -1.01379 -0.0144452 -1.00655 1.00198 1.00539 0.00465731 1.00209 -0.014286 -0.0105558 -1.01909 0.971854 -0.0231507 0.981385 -0.0113694 -0.00410283 0.988476 -0.012883 -0.0053319 0.000828077 -0.00253146 0.994418 -1.00695 -0.0155466 -1.00848 0.985793 -0.00424826 -0.0051469 -0.0102594 -0.0211851 -1.02058 -0.0212764 -0.0151976 0.991741 0.990001 0.998022 1.0023 -0.99426 0.008275 -0.00710533 0.993815 -0.00735548 -0.0150657 0.984209 -1.01532 -0.0216152 0.981327 -1.01928 -0.0202049 -0.0129681 0.987469 -0.0211182 -0.0238525 -1.02056 0.990624 0.988102 -0.0172989 -1.02336 -1.0204 -1.01341 -0.00920803 0.984408 -0.0180499 -0.0124113 -0.00798838 -0.0117656 -1.00746 -0.00050882 0.000461037 0.000582238 1.00676 0.990024 -0.0141158 -0.0134278 0.982764 0.984253 -0.0180242 -0.0209904 -1.01757 -1.01658 -0.0157993 -1.01454 0.986145 -0.0166483 -1.0213 -0.0301571 -0.0105428 -0.00973681 0.985045 -1.0133 0.966806 -1.02979 -1.02153 -1.02163 -0.0194992 -0.0184371 -1.00459 -0.00939346 -0.0036827 -0.98962 -0.994834 -0.995445 -1.00126 -0.0150531 0.982907 -1.01452 -1.02341 0.981329 -1.01891 -0.0209554 -0.0169467 -1.01387 -1.01356 0.985957 -0.0148087 -0.010721 -1.0179 -0.0249582 -0.0200626 0.984293 -0.0192968 -0.0160428 0.976142 0.969074 -1.02471 -0.0185697 -1.01748 -0.00904338 -0.00208301 0.00411599 0.992404 1.0009 0.00276908 1.00438 -0.0100891 0.986572 -1.0051 -1.01296 -1.0216 -0.0166618 0.983908 -1.02888 -0.0254872 0.984153 -0.0204 -1.02308 -1.01866 0.981914 -0.0158266 -0.0190648 0.976287 -1.01791 -1.0172 0.979046 0.970903 -0.0235462 0.989281 -1.00966 -1.00905 -0.0111325 -0.0107049 -0.011339 -0.0097854 0.994149 1.00731 -0.991237 -1.01278 -0.021188 -0.0136471 -1.01523 -1.01995 0.975337 -0.020281 0.970664 -1.03363 -0.0200344 -0.018947 -0.0286615 -0.0204331 -0.0174893 -0.0235669 0.975221 -0.0200034 -0.0217076 0.980704 0.971542 -1.02607 -1.02253 -1.02203 0.974598 0.981298 0.984103 -1.01667 0.974462 -1.02165 -0.0132647 -1.01231 -0.00624762 -0.00915278 -1.01754 -0.0254356 -0.0197175 -0.0166312 -0.0217166 -0.0140276 0.9751 -1.02319 -1.01598 0.987923 -1.01738 -1.01673 0.98039 -1.02184 -1.02356 -1.02072 -0.0163163 0.984829 -1.02574 -0.0214451 -0.031116 0.973213 -0.0317666 -1.02808 -0.016518 -0.0206413 0.982785 -1.02032 0.981221 0.984293 -1.00843 -1.01345 -0.0174126 -0.0198714 -0.0146192 -0.0167245 0.978008 0.979351 -0.0126516 -0.00698876 -0.00805168 -1.00106 -1.00971 -0.0142519 -1.00888 0.988229 -0.0166925 0.982183 0.979818 -1.0212 -1.01512 -1.02043 -1.01828 -1.02018 0.975703 -1.01889 -0.0095143 -0.0178906 -0.011818 0.985093 -0.0204962 -1.01304 -0.0153855 0.98305 0.988897 0.989345 -1.00887 -0.00612723 -0.00992066 -0.0197026 -1.01441 0.986056 0.985292 0.993925 -0.0105296 0.989142 -0.00792408 -1.00796 0.987504 -0.0152304 0.982605 0.985828 -0.0196075 -0.018858 0.986197 0.986293 -0.0159146 0.978457 -0.0147138 -0.0161948 -0.0157113 -1.0177 -1.017 0.987719 -0.0150116 -1.01893 -0.0140048 -0.0102812 -1.0098 -0.00752275 -1.00818 0.985258 1.06831 -0.931831 1.06232 -0.949499 -0.940125 1.0575 1.05297 0.0518792 1.05664 1.05949 0.0557158 1.05399 1.05177 0.0488741 0.0498025 -0.949775 0.0553872 1.05258 -0.948255 1.05306 -0.944706 -0.941316 -0.941464 1.05928 1.05991 -0.93989 -0.936014 0.0687981 -0.928797 0.0793065 1.08127 1.08602 0.0272108 0.0341747 1.0276 -0.981635 0.0241618 1.03352 -0.972292 0.0283 -0.975965 -0.980231 -0.977185 1.02815 0.0214169 0.00921791 -0.990545 1.01279 1.00808 1.00995 1.01052 -0.984983 0.0152013 -0.982799 0.0128969 1.02304 0.0314046 0.0353615 0.0345711 -0.962616 1.03869 0.0526185 -0.945211 0.0571692 0.0209359 0.0234828 -0.983094 1.01376 0.0145376 1.01644 -0.986616 0.0115138 1.0023 -1.00312 0.999692 -0.981449 1.01615 -0.991166 0.0161771 0.022469 0.0121327 1.00046 0.993643 -0.0100148 0.00664266 1.01894 0.0079224 0.0213095 -0.982277 0.0271733 -0.963033 0.0395335 1.04463 1.03819 1.0373 -0.945563 1.03085 0.0146255 1.01109 -0.981818 -0.978425 0.014682 0.00956746 -4.14972e-06 -1.01968 -0.0245811 0.992769 1.01975 0.0218665 -0.99118 0.0091064 1.02417 0.0318683 0.0353099 0.0149948 0.998878 -0.0075379 -0.996252 0.0229624 0.0348983 1.02807 0.0228427 0.0205174 1.03854 -0.949777 -0.963218 0.0381358 0.0569833 1.03522 1.02946 0.0121867 -1.00179 0.013492 -0.00266281 -0.0241626 -0.0228818 -0.0223593 -0.0486719 0.967992 0.989998 -0.00986744 -0.0405504 0.968062 0.00352113 -0.997788 -1.00588 2.4514e-05 0.984137 0.978418 -0.0240622 0.000406107 0.0152494 -0.993809 0.00957537 1.00978 0.0189364 1.02056 1.02707 -0.960767 -0.955203 0.0179529 1.01377 -0.00216744 0.973578 0.982316 -0.0149684 0.970948 -1.03232 0.956604 0.945475 -0.0608411 -0.0569488 -0.039884 -1.04295 0.975992 -0.9985 1.00926 -0.00190466 -0.0167897 0.981999 -1.02452 -1.0285 0.976572 0.976858 -0.999923 1.03338 -0.97421 1.01651 -0.997804 -0.973307 0.0238421 -0.978268 0.0203119 -0.9921 0.995191 -1.02256 0.991429 0.99105 -0.0165209 0.972502 0.958168 -1.03221 -0.0457716 -1.05562 -0.0212374 1.0058 1.00834 -0.988189 -0.977028 0.0235672 1.00192 -1.02129 -1.01418 -0.0297216 0.976155 -1.01702 0.000864971 -0.981403 -0.975097 1.02051 0.00364022 0.0182788 -0.976795 -0.96928 1.03207 0.0238235 -0.98367 0.00209792 -0.993587 0.00155111 0.999536 -0.011412 0.974262 -1.02478 -1.02123 0.981112 -1.00216 -0.974913 1.02367 1.00719 0.0142614 0.0245868 1.00806 -0.0106119 -0.00138326 0.00489191 0.990558 -0.0125342 -0.997434 -0.983033 1.0155 0.0114972 1.00283 -0.973444 1.0406 0.0465051 0.0371358 0.0343399 1.02135 0.9862 0.996546 1.00679 0.0192766 -0.975495 1.00706 -0.0184022 0.980522 0.995053 0.998087 0.00172459 -0.990395 0.00126534 -0.988732 1.01528 0.999108 -0.0148138 -0.0157453 -0.996215 -0.989238 0.0154179 0.995393 0.00855008 0.00272874 -0.00424577 1.00043 1.02236 0.0466519 1.04567 0.0327814 0.0284712 1.01399 -0.0173397 -0.00146028 0.0138765 1.02835 1.03443 -0.98958 -0.0025821 -0.011418 0.985406 0.982319 -1.0272 -0.0243168 0.979831 0.995939 0.986496 -1.01632 0.977085 -0.0254269 -1.0111 -0.985527 0.0272913 -0.981002 0.015258 1.01559 -1.00435 -0.0155555 -0.993582 0.0194461 0.0253104 1.01788 1.01076 -1.00114 -1.02045 0.995972 -0.994222 1.0109 -0.984586 0.994025 0.991935 -0.00561323 -0.0094845 -0.0059329 -0.0253803 0.967025 0.977449 -0.0192142 0.976698 -1.0217 -0.0260192 -0.0211374 0.994254 -1.0161 0.00909242 1.00685 0.0172666 1.00481 0.97568 -0.0340318 -1.01595 0.0179942 1.02352 -0.999408 -1.00056 0.998812 0.971861 -0.0122059 -0.00244971 -0.00101605 -0.989645 0.00188297 -0.0136233 0.986838 -1.01272 0.987525 0.982061 -0.0198488 -1.00218 -0.997263 0.994548 -0.0117239 0.982496 -1.00616 0.00520506 -0.0248278 -0.00440578 -1.00401 -1.01476 -1.02729 -0.0359591 -0.0474191 -1.03247 -0.00133812 0.0053271 0.0179727 -0.995853 -0.00384112 0.975206 -1.02825 0.985112 -1.00305 0.996504 -1.0087 -0.0195102 0.9761 -0.0189762 -0.031844 -0.0394178 -0.0347845 0.987062 0.985994 -1.01798 -1.03195 -1.03236 -1.01998 0.990018 -0.0197989 -0.0367698 -1.03064 -1.0252 -1.02689 -0.0338464 0.955193 -0.0295791 0.977887 -0.0160801 0.0154474 1.00121 -1.01885 -1.03596 -1.03913 -1.02662 -1.02082 -1.02643 -1.023 -1.02067 -0.0238919 0.966442 0.960923 -0.0617949 -0.0449923 -1.01935 -0.0145701 0.979097 0.96512 0.96589 0.960276 -1.03567 -0.0223878 -1.03024 -1.06171 0.951479 -1.0341 -0.0256205 -1.03824 -0.0153446 -1.00504 -1.0102 -0.993834 1.00875 0.990052 -1.03142 -0.0404274 -0.0348548 -1.02959 0.966444 -0.0316213 -0.0229761 -1.0269 -0.0420518 0.955593 0.94265 -1.04988 0.970211 0.977898 -1.02583 0.95738 -1.04256 -1.05042 -0.0575923 -1.0435 -0.0299515 -0.0573728 -0.0600384 -1.03027 -0.0331331 -1.03798 -1.00751 1.00862 0.00761035 2.59167e-05 1.00056 -1.00515 0.960743 0.955103 -0.0417618 -1.04527 -1.04931 0.945935 -1.03907 -1.0339 -1.03182 0.966142 -1.05455 -0.0510889 -0.0497561 0.969899 -1.02966 -0.0397625 -1.04305 -1.04571 -1.05248 -1.04997 0.952704 -0.0628089 -1.06231 -1.04701 -0.0493781 -1.05202 -0.0120852 -0.999248 0.00457039 -0.991386 0.011028 0.00338479 0.97075 -1.039 -1.03575 0.967787 -0.0391317 -0.0344352 0.975339 0.981065 -0.0161518 -0.0225379 0.964643 -1.03215 -0.0304736 -1.0218 0.982004 0.977382 -0.0206636 0.967272 -0.0438359 0.961512 -1.03426 -0.0447774 0.958644 -1.05592 0.950488 -1.03802 -0.015377 -1.00181 1.0043 0.00171842 0.00697134 1.00186 -1.03204 -0.0272811 0.983991 -1.01723 -1.02815 0.983577 -1.01007 0.983619 0.976872 -1.0242 -0.0324966 -1.0277 0.971588 -0.0282833 -1.02043 0.981318 -0.029982 0.967324 0.96057 -0.0342426 -0.034411 -0.029906 -0.0327485 -0.0400171 -1.04112 -1.0284 0.994989 -1.00403 1.00169 -0.997298 -0.988086 0.0136148 -1.02674 0.981685 0.982015 0.970818 -0.0351574 0.976012 -0.0255195 -0.0242471 -1.02521 -0.023221 -0.0324237 -1.03886 -1.03382 0.962925 -0.0292081 -1.02718 0.970177 -0.0289797 0.978221 0.971695 0.972375 0.971138 -1.03944 0.96178 -1.04351 -0.0324001 -0.00294462 -0.993246 -0.990295 -0.973017 0.0322947 1.02319 0.977259 -1.02004 -0.0168796 0.980633 0.977076 0.992619 -1.01312 -1.01094 -0.00548541 -1.00476 -1.00768 -1.01966 -1.00408 0.993612 -0.00788021 -0.0070152 -0.000840953 -0.0030417 -0.00158499 -0.010015 -1.01693 0.972954 0.962797 -1.02967 -0.0321345 0.959348 1.0014 -0.973518 1.01622 -0.972611 1.02436 1.01671 -0.0121812 -0.0121951 -0.00439525 1.00259 0.998976 1.00823 0.00619404 0.012867 0.0245823 0.0272562 -0.981409 1.01223 0.0125291 -0.987463 1.01783 -0.98131 0.0163916 0.0116466 -0.997184 -0.00587584 -1.00679 -1.01265 0.980465 -0.0273416 -1.02802 0.968098 1.0025 1.02557 -0.992608 1.01336 1.02571 1.03116 -0.00363331 -1.00263 0.00800525 1.00845 0.00895423 -0.99053 -0.993401 -0.988876 1.02177 -0.973561 -0.978643 -0.985343 0.00914723 -0.982017 -0.981388 1.02234 -0.976648 -0.990919 1.00546 0.00363563 -1.0017 -1.00652 -0.00992117 -0.0189969 -1.01343 -0.0236089 -0.994027 1.02447 0.00739357 -0.966299 0.0323606 0.0437915 0.0101896 -0.99223 -0.992601 0.00948747 1.01279 1.01058 1.01183 0.0194033 -0.965554 0.0404715 -0.962445 1.03829 1.03244 1.04036 1.0356 1.03674 0.0362023 -0.972943 -0.981162 -0.974449 1.0174 0.00951344 -0.00431654 -1.00159 0.987951 -1.00546 -0.972453 1.021 1.00746 1.03208 1.04224 -0.955431 -0.98757 1.01292 0.00849753 -1.00317 -0.993166 -0.979917 -0.975403 -0.973724 1.03582 0.0346808 1.04227 -0.957437 0.039114 1.0446 1.04264 -0.969707 1.02783 0.0230164 1.02265 1.01839 0.0117865 0.0082485 0.000784165 0.985894 -0.0151796 0.999122 1.02994 1.02882 0.0118967 0.0194433 0.0213645 -0.979086 1.00601 1.00456 -1.00056 -1.0053 -0.991257 1.00767 1.01442 1.02378 0.0239174 0.0243289 1.02733 1.0252 0.0273026 0.0279697 1.02339 0.00654602 -1.00081 0.00127114 -0.996227 0.994707 -1.0123 0.982238 -0.0170223 -0.0142802 -0.0142735 -0.00776095 0.0321616 0.0264198 -0.97813 0.0177108 1.01561 0.0132103 1.00636 0.0168137 0.0217021 1.01831 -0.984222 -0.994322 1.00796 1.02312 -0.980865 -0.977257 -0.980408 0.0195726 0.0246337 1.01951 -1.00059 -1.00996 0.98645 0.991003 -1.00429 -0.00238873 -0.00443167 -0.0241091 0.979424 -0.0155602 0.98342 0.985005 1.02613 -0.964732 1.02893 -0.991609 0.00853084 0.0162842 0.00582384 0.00678879 -0.971036 0.032199 1.02887 -0.980126 1.01236 1.01583 1.02037 0.0229909 -0.990845 -0.990913 0.011227 0.00673176 1.00181 -1.01537 -0.0114995 -0.99681 -1.00293 0.99921 1.00071 -0.0125226 -0.0148028 0.979427 0.980951 -0.0307048 -0.00282716 0.0143826 -0.976325 -0.987755 -0.993602 0.00929978 -0.00639787 -0.984929 1.02059 0.0315691 1.03362 0.0216471 1.01001 0.00849484 0.0119951 -0.990078 -0.996627 -0.990188 0.0130671 -0.984434 1.01373 -1.00027 -1.00531 1.00341 1.0012 -0.993231 -0.991556 -0.996433 -1.00298 -1.01287 -0.0161198 -1.02586 -0.0014616 -0.992371 -0.979832 1.00442 1.00066 1.00564 0.00123607 0.0177246 -0.984234 0.0143254 0.0225877 0.0253861 -0.983217 0.0211259 -0.982099 0.0140996 -0.98536 -0.977486 0.0263344 -0.98149 0.00983057 1.01414 -0.980384 -0.990473 -0.988049 1.02181 1.01119 -0.995323 0.0141072 0.00675967 -0.00447801 1.00188 -0.987627 -0.996061 -0.990134 0.991846 0.987486 -1.01159 -1.01092 -0.00727309 -1.00307 -0.012405 0.989045 -0.994008 0.00439253 -0.993405 0.00817616 0.996588 -1.02799 0.987386 0.99623 -0.0151202 -0.0115724 0.988139 1.00123 -1.00228 1.00307 -0.995545 1.00393 -1.001 -1.00481 0.990481 -0.0126911 0.985274 -1.00347 -1.00917 -0.0143992 0.995413 -0.987716 -0.984396 -0.991032 -0.00442028 -1.0021 0.994955 -1.00707 0.00349386 0.0100952 0.00614843 -0.997584 1.0071 -1.01193 -1.00188 1.01288 0.999034 -1.00584 -0.00372463 -0.00279002 -0.996498 -0.992772 -0.991628 -1.00124 0.998399 -1.00931 -0.0158858 -1.0118 -0.0105451 -1.00063 -1.00474 -1.01478 -0.983837 1.02582 -0.960113 0.0334054 0.030893 0.0323712 -0.964677 1.04254 1.04878 0.0428918 0.0400086 1.03473 0.0347728 0.0374274 1.04406 0.0465855 0.0363948 0.0348262 0.0363538 -0.967528 0.0361216 -0.962693 0.0398732 -0.969713 0.0195619 -0.974196 -0.986791 -0.990444 -0.984725 0.0255855 1.0309 0.0211878 0.0025879 -0.996229 0.00805617 -0.995155 0.0102072 -0.987532 -0.992288 0.0132344 0.0117198 0.00751656 0.00967771 0.00604296 -0.996623 -0.995355 0.0107069 0.0142585 0.0126485 -0.985749 -0.987349 1.01307 0.0160379 0.0174913 1.01672 1.01487 0.0140958 -0.986508 0.00857253 0.00768632 0.0136886 -0.98925 -0.985388 -0.985882 1.00443 0.00597276 0.0112295 -0.989799 0.0102009 1.01434 -0.986625 0.0168612 -0.988505 -0.989196 0.0118892 1.00526 1.00288 -0.995183 1.01239 -0.985554 1.00723 -0.989556 -0.987282 0.01216 1.01322 1.01718 1.01748 1.01729 0.0163984 -0.98401 0.0155983 0.0150696 -0.985201 1.01215 -0.986463 -0.984726 -0.996433 1.00644 0.0108456 0.0117911 1.0142 -0.98552 1.01614 -0.983138 0.0157805 -0.986438 1.01362 1.00849 -0.994913 -0.993893 -0.988101 0.0140582 1.0071 1.00037 1.00272 1.00481 0.0107609 1.01686 0.0176746 -0.982341 -0.983371 0.0155133 0.0171886 0.0161088 1.01372 1.01093 0.014989 -0.984583 0.00106695 1.00294 -0.994772 0.00784925 -0.984049 1.01642 -0.985464 1.01575 0.0184059 1.0163 1.01439 0.0124917 1.00813 -0.991751 1.01126 0.00974804 1.0065 -1.00166 0.999501 1.00248 1.01225 1.01765 1.0169 -0.982046 0.0160902 1.01289 -0.983963 -0.984133 -0.988783 0.0116863 1.01514 0.0142898 0.00302769 0.00162108 -0.99554 -0.99296 -0.985133 1.01721 -0.986248 1.01257 1.01158 1.01365 0.0124235 1.01314 1.00902 -0.989733 -0.989063 -0.9939 -9.60533e-05 -0.000372473 1.00129 0.00343781 1.00673 1.00879 0.0143419 -0.982999 -0.984169 1.01256 0.0139192 -0.987117 1.01078 1.01379 -0.985036 -0.987388 0.00559085 -0.995088 0.00404299 0.00599535 1.01172 -0.989804 0.00957881 0.00711973 -1.00013 -0.996723 0.0056663 0.0103907 0.00774728 1.00889 -0.989315 0.000500622 0.998989 0.000144234 -1.00005 -0.997351 -0.993272 1.00245 -0.992894 1.0137 -0.985291 1.01419 1.01039 0.00559127 -0.989506 0.0155622 1.01394 -0.986128 0.00260364 -0.994815 0.00664754 -0.99646 0.00814289 1.00471 1.00401 -0.99594 0.00541826 0.00552349 1.00339 0.00304077 0.00774055 1.0056 -0.996026 -1.00043 0.000381942 -1.00012 0.00141833 1.00266 0.00438167 0.00611549 -0.990991 -0.987782 -0.985352 1.01169 0.0132986 -0.992056 -0.987075 1.01687 1.01514 1.01047 0.000456711 -0.997545 0.00660295 0.00492636 0.00183716 1.00154 1.00782 0.00905721 1.00908 1.00934 -0.994116 1.00427 0.00731913 1.00219 1.00186 1.00585 -0.996648 1.00006 1.00055 -0.994114 1.00755 0.00587935 -0.994271 0.00913682 1.01318 -0.988141 -0.988259 0.0138345 0.0152218 1.01643 -0.985941 -0.997502 1.00037 -0.998665 0.00483627 0.00506811 0.0040071 -0.99791 0.00700269 0.00744996 0.00881407 0.00589717 0.00314659 0.00446177 1.00598 1.00299 1.00093 0.00144591 0.999178 0.998917 0.998007 0.0028653 -0.996815 -0.00183763 -1.00597 0.00176175 0.00814598 -0.99325 0.0020004 1.00918 -0.98845 -0.988311 -0.991721 0.999864 -0.999987 0.00205013 1.00238 -0.99775 -0.000609332 0.0001456 0.00577502 0.00839454 1.00555 0.00493853 -0.996047 -0.997291 0.00100393 1.00131 0.00031746 0.998227 -0.00268606 0.000332392 -0.00335638 0.99743 -1.0011 -0.00416384 -1.00748 0.00152701 1.00881 0.00104615 -0.00392704 0.000558718 0.00191688 0.00482255 1.00565 0.00106689 1.00037 1.00244 0.00363776 -0.995236 -1.00294 -1.00349 1.00422 1.00743 0.0049864 0.00460276 -0.996488 0.000979002 -0.000838348 -0.00049997 0.999541 4.73663e-05 -0.00191718 -0.00155835 0.997121 0.997088 -0.00137455 -1.00427 0.993307 1.00149 0.00464676 -0.0019206 0.997126 -1.00206 0.999304 -0.996303 0.00703447 0.998392 1.0033 0.00395343 -0.995631 -0.996189 1.00363 0.005004 1.00404 -0.993866 0.00448762 0.00555473 -0.995789 0.00321556 -0.997708 0.000727336 0.000559701 0.00278273 -0.00130605 0.996816 -1.00388 0.00173987 0.998443 -0.00754731 0.99306 -1.0037 -0.00453327 0.999306 1.00018 -1.00023 0.999959 0.00184173 1.00465 -1.00551 -9.8022e-05 -1.00069 1.00093 -0.998004 -0.998268 -0.000537578 1.00234 -0.995575 1.00237 0.000921437 -0.997424 1.00201 1.00222 1.00108 1.00075 1.00132 0.997926 0.00187535 1.0012 0.00531036 0.00274259 -0.999867 -0.999731 0.998283 -0.00352895 -0.00088455 0.0020978 0.00146715 1.00199 -0.996206 0.997955 -1.00311 -0.00271499 -0.00289046 -1.00144 -0.996312 -0.996051 -1.00233 0.998834 -0.00321025 0.995093 0.997001 1.00158 1.00205 -0.998639 0.000991049 -0.999915 -0.00167883 0.998414 0.00110913 -0.998058 1.00142 0.00309806 0.00248132 -0.999144 0.00204908 -1.00029 1.00025 1.00094 1.00092 0.00104662 -0.997279 0.998821 1.00224 0.998836 -0.00296124 4.07603e-05 1.00309 -0.99745 0.000994158 0.00162499 0.00155479 -0.000789173 1.00353 0.00461538 -0.996154 0.00304983 -0.999328 0.999838 -0.00362794 -0.00655441 -0.00489891 1.00111 1.00291 1.00107 0.996556 -0.00167466 -0.00082035 1.00055 1.00158 0.00364605 0.00322888 0.00444943 1.00571 -0.995705 1.00368 1.00447 1.00449 -0.997411 1.00342 -0.995617 -0.995495 1.00385 -0.996432 1.00259 1.00501 1.00203 -1.00035 1.00037 -0.00135817 -0.999676 -1.00259 -1.00623 0.997405 0.998749 0.99881 -1.00115 -0.00343935 -1.00128 1.00042 0.00134151 -0.998024 0.00324528 1.00244 0.00217403 -0.996335 0.00333767 -0.997444 0.00407841 -0.994635 1.00478 0.00292095 0.00145726 1.00148 -0.997279 0.0020958 1.00062 -1.00147 -0.00208568 -0.00129097 -0.00418801 0.993373 0.995879 -0.00533889 0.993142 -1.00647 0.995351 -0.00312632 -1.00247 -1.00129 -1.00259 0.999633 0.000443011 -0.998535 -0.998471 -0.999721 0.000354021 0.999977 -1.00093 -1.00191 0.999918 0.000109968 -1.00131 -0.00108673 -0.00144966 -0.00310476 0.99798 0.997451 -0.00281997 0.998709 -1.00131 -1.00336 0.995694 -1.0072 0.990671 -0.010316 0.985734 0.984956 0.986257 -0.0101154 -0.00782942 -1.00778 -0.00530205 0.998364 -1.00176 0.998748 -0.00255761 -0.00238021 0.997433 -1.00352 -1.00178 0.997975 -0.00503994 0.995054 -0.00511051 -0.00511229 -1.00667 -1.00691 0.995432 -1.00238 -0.00168054 -0.00330887 -0.00386446 0.994814 -0.00793345 -0.012911 -0.0159983 0.985841 -0.0130309 -0.0143012 -1.01218 -0.00779983 -0.00718867 -1.0058 -0.00523328 0.990365 -1.0091 -1.00694 0.994885 0.99654 -1.00243 -1.00472 -0.00403228 -1.00246 -1.00089 -1.00165 -1.00368 -1.00384 0.997187 -1.00197 -0.00154344 0.995594 -1.00417 0.994025 -0.0077188 0.988039 -0.0153089 -0.0146256 -1.01349 -1.01253 -1.01508 0.983448 0.983676 -0.0147307 -1.01045 -0.00852229 -0.0135824 -0.0143163 0.985148 -0.0164398 0.986567 -1.00526 -1.00259 -0.0046231 0.995413 -0.00456038 -0.00138256 -1.00049 0.99938 -1.0008 0.999193 0.998484 0.998093 -0.00810464 -0.00777073 -1.01219 -1.01702 -1.01609 -1.01484 -0.0147009 -0.011162 0.988424 -1.01632 -1.01701 0.983596 -1.01612 0.984596 -0.0153045 -1.01516 0.984827 -1.01588 0.9859 0.993766 0.997121 -1.00365 -1.00399 -1.0082 -1.01007 0.995962 0.998355 -0.00159838 -0.00247943 0.997197 -1.00437 -0.00721596 0.990409 -1.01332 -0.014656 0.984602 0.985132 -1.0168 -1.01179 -0.00867268 0.983527 0.983436 -0.00963162 -0.0140326 0.983539 -0.0152293 -0.0129219 0.985339 -0.0165843 -0.0131541 0.994792 0.996612 -1.00413 -0.00415792 0.990624 0.984049 -1.01115 -0.00791745 0.995746 -1.00424 0.99639 -0.00729012 0.98856 -1.01576 -0.0131207 0.985679 -0.0176034 0.983429 -0.0166494 0.981246 0.984941 -1.00825 0.98938 -0.0110622 -0.00926898 -0.0158493 0.985787 -0.0132998 -1.01451 -1.01754 -1.01285 -1.00748 -1.0038 -1.00466 -1.00449 -0.00777919 0.985212 -1.01472 -0.00599529 -1.00497 -0.00432288 -1.00649 -1.01141 0.983963 -1.01242 -0.0115992 -0.0160452 0.982829 -0.0157989 0.984049 -1.01687 -0.0176322 -0.0186783 0.982913 -0.0134482 -1.01372 -0.0163204 0.98434 -1.01435 0.983432 0.984217 -0.0113282 -1.00744 -1.00576 -0.00477021 -1.00475 0.992502 -0.0158057 -0.0147283 -0.00759741 0.996444 -0.00303835 -1.00847 -0.0143817 -1.01545 -0.0142463 -1.00847 -0.0161961 0.984952 0.990168 0.992439 0.987318 0.984597 -0.017029 -1.01874 -1.01771 -0.0178935 -1.01812 -0.016595 0.984088 -0.0172576 -1.01475 0.990653 0.995621 -0.00301045 -0.00460667 -0.00475953 -1.0087 -1.01369 -1.01785 -0.0116413 -1.00673 0.992228 -0.00658229 -1.00972 0.987912 -1.01409 0.987243 0.993593 -1.01168 0.993508 0.994824 -0.00747482 0.991994 0.992144 -1.01353 -1.01871 -1.01864 0.983043 -1.01741 -0.0161271 -1.01663 -0.0146668 0.990757 -0.00495667 0.996865 -1.00296 -0.00349707 0.992585 -1.01479 0.98361 -1.01014 -1.00437 0.99401 -1.00795 -0.00444144 -1.00502 0.993742 -0.00874991 -0.00795935 -0.00323287 -0.00523581 0.995055 0.993033 0.991855 0.993996 0.988236 -0.0172545 -1.0191 0.980921 -1.01794 -1.0174 -0.0170931 -0.0142371 -0.00733813 0.9941 0.995517 -1.00431 -0.00428697 0.992588 0.986755 -0.0162718 -1.01134 -0.0025044 0.999951 0.997621 -1.00319 -1.00362 0.996048 -0.00372193 0.995207 -0.00529913 -0.00545431 -1.0055 0.992614 0.992736 -1.00785 -1.01393 -0.0193685 -1.01951 -1.0187 -1.01882 -1.01723 0.982376 -0.01332 -1.00618 -0.00520824 -0.00492959 0.994118 -0.0058968 0.990993 -0.0153507 -1.0169 0.987816 -0.00439298 0.99645 -1.00128 -1.00215 -1.00258 -1.00187 0.998111 -1.00256 0.996739 -0.00554585 0.99401 -1.00506 -1.00552 -1.00717 -0.0104276 -0.0162082 0.981907 -1.01867 -1.01845 0.983031 0.98336 -0.0124442 -0.0049695 -1.00407 -0.0041148 0.995508 -0.00443051 -1.00679 -1.01296 -1.01727 -0.0136785 -1.00356 -1.00368 0.996111 -0.00201753 0.996958 -1.00356 0.00330733 0.0015446 -0.000403466 -0.00036116 -0.998103 0.00318612 1.00226 1.00246 0.00207878 0.99921 0.997969 -0.00549606 -1.00922 -0.0119428 -0.00954667 -1.00422 0.999219 1.00241 0.00197865 1.00121 1.00171 -1.00122 -0.0057981 -0.0104318 -1.00872 -0.999091 1.0035 1.00271 0.0019521 1.00184 0.00171305 1.00161 -0.997501 -0.00381885 -0.00690468 0.996783 1.00312 0.00438467 1.00449 0.00456528 1.00296 1.00145 1.0009 1.00033 -0.00121723 -1.00474 0.998821 -0.99634 1.00294 -0.997337 0.00227935 -0.997617 -1.00205 -0.0070431 -0.00876648 0.990785 0.995704 0.00296142 0.00227997 -0.998881 0.999623 -8.68929e-05 -1.00008 1.00213 -6.79559e-05 0.00232317 -0.996779 0.00189414 1.00315 0.00329633 0.0034453 1.00362 0.00384623 0.00303011 -0.997116 1.00215 1.00132 0.0013298 1.0027 0.00365018 -0.997176 -0.997598 -0.996493 0.000825128 -1.00478 0.992958 -0.00525572 -0.00165939 1.00144 5.3639e-05 0.998591 -0.00190536 -0.00199707 0.998605 -0.00173968 -1.00063 -1.0003 -0.00016771 0.999855 -1.00041 0.999573 -0.000254072 -0.000440963 -0.000171162 -0.000347184 0.999876 -1.0004 0.999737 0.999763 0.999708 0.999089 -1.0009 -0.000816819 0.999057 -0.000256557 -1.00014 -0.00025144 -1.0003 -1.0001 -1.00032 -7.54332e-05 -0.000245825 -1.00018 -0.000171228 -1.00021 -7.53687e-05 -2.99243e-05 -1.00004 -0.0001792 -0.000114731 0.999948 -1.00022 -1.00022 -0.000174602 0.999845 0.999889 0.999891 -0.000139365 0.999873 -0.00016342 -1.00013 0.999866 -0.000203087 -1.00024 0.999764 -1.00023 -1.00013 -0.000132307 0.999852 -1.00013 0.999902 -9.17597e-05 -7.07136e-05 -1.00007 -1.00008 0.999843 -0.000128506 0.999924 -1.00013 -1.00018 -0.000127281 -0.000116316 -0.000179082 -1.00035 0.999442 -0.00059026 -0.000634084 -1.00047 0.999765 0.999805 0.999838 -1.00021 -0.000161185 -0.000150168 -1.00023 -1.00032 -1.00039 -1.00024 -0.000113063 -0.000155992 -1.00018 -0.000251256 -0.000140419 -1.00012 -1.00011 -1.00011 -0.000135216 -0.000149877 -0.000178835 0.99994 -0.000113939 -1.00017 -1.00032 -0.000253751 -1.00053 -0.000438641 -1.00033 -1.00033 0.999685 -0.000256961 -1.00048 -1.00034 -0.000314965 -1.00035 -0.000325852 -0.00218324 -1.00431 -0.00418072 -0.00449589 -1.00206 -1.00054 -0.000298641 0.999738 0.999749 -1.00023 -0.000308697 -0.000192215 -0.000170792 -0.000239826 0.999721 0.999687 0.999771 -0.000187778 -0.00017756 -1.0003 -0.000253948 0.999459 -0.000409931 -0.000313558 -0.00034977 0.999695 -0.000373481 -1.00064 -0.00033648 -1.0004 0.999555 -0.000469787 0.998047 0.996016 -1.00465 -0.00343103 -0.00167518 0.999078 -1.00046 -0.000388755 -1.00041 -0.000336008 -0.000548588 -1.00036 -1.00032 -1.00034 -0.000402456 0.999648 -0.000496889 0.999714 -0.000263226 0.999703 -1.00027 0.999417 -1.0004 0.999715 -0.000298129 0.999716 -1.00049 -1.00059 0.999632 -0.000411106 -0.000459594 -1.00053 0.998247 -1.00257 -0.00304153 -1.00186 0.999074 0.999068 -0.00052924 -0.00036679 -0.000366137 -1.00034 -1.00054 0.999522 -0.000309773 -0.000370786 -1.00041 -0.000341743 -0.000555896 -0.000348639 0.999693 -1.00037 -0.000425067 -1.0006 0.999623 -0.000346334 0.999748 0.999735 0.999376 -0.000418081 -0.000373381 0.999618 -1.00042 -0.000535884 0.997397 -1.00348 -0.00281436 -0.000832481 -1.00073 -1.00091 -1.00057 -1.00033 -1.00037 -1.00039 0.999546 -0.000567801 -0.000308485 -1.00035 -0.000444604 0.999343 0.999356 0.999617 -0.000331732 -1.00032 0.999204 -1.0013 0.999706 -1.00042 -0.000424905 0.999372 -0.000855854 -1.00062 0.999465 -0.000854602 -1.00046 -0.00101042 -0.00119822 0.998841 -1.00089 -1.00064 -1.00062 -1.00102 -0.000796477 0.999483 -0.000649071 -0.00059643 -1.00041 -1.00074 -1.00046 0.999705 -1.00036 0.999589 -1.00074 0.999415 -0.000530169 -1.00021 -0.000321628 0.99935 -1.00026 0.999602 -1.00041 -0.00050929 0.999487 -1.00042 0.999563 0.999431 -0.000378653 -1.00086 -1.00087 -1.00035 -1.00036 -0.000372651 -1.00046 -0.000985088 -1.00083 -1.00036 0.999607 0.999601 -0.000302048 -1.0006 -0.000435483 -1.00035 -0.000275639 -0.000390715 0.99966 -1.00043 -7.04818e-05 -0.000179604 -0.000233024 -1.00056 -0.000469561 -1.00025 -1.00026 0.999314 -1.00044 -0.000474776 -1.00042 -1.00037 -0.000317187 -0.00084492 0.999248 -0.000378714 -0.000474951 0.999579 -0.000462101 0.999138 -1.00094 -1.0004 -0.000341428 0.999578 -1.00034 0.999389 -1.0006 0.999731 -0.000219651 -1.00048 -0.000370965 -0.000360861 -5.23945e-05 -0.000157536 -0.000483606 0.999465 -1.00049 -0.000379024 -1.00045 -1.00073 -0.000372762 0.999469 -1.00052 -0.00029386 -0.000406726 -1.001 0.999294 0.999578 0.999618 0.999608 0.99962 -1.00081 -0.000995361 -1.00039 -0.000403953 0.99954 -1.00047 -1.00063 0.99931 -1.00039 -0.000452015 0.999631 0.999615 -1.00035 -1.00005 0.999767 0.999586 -0.000361059 0.999425 -1.00056 -0.000527077 0.999492 -1.00047 -0.000495739 -0.000561989 -1.0004 -0.000421531 0.999195 -1.0006 -0.000530775 -0.000495824 0.999486 -1.00054 0.999311 -0.000873433 -0.000368025 -0.000352449 -1.00052 -1.00044 -1.00046 0.999115 -1.00051 -1.00077 -0.000533835 0.999272 -0.000465803 -0.000295775 -1.00019 -1.00015 0.999734 -0.000578713 -1.00063 -1.00036 -1.00033 0.999575 -1.00055 -1.00069 0.999357 -0.000504587 -1.00061 -0.00042327 0.999514 -0.000515257 -0.000437743 -1.00045 -0.000593013 -0.00090035 -1.00068 -1.0006 0.99952 -1.00063 -1.00054 -1.00083 -0.000636751 -1.00061 0.999208 -1.00046 0.999537 -0.000317672 -0.000220724 -1.00018 0.999753 -0.000885945 -0.000762687 0.999299 -0.000705148 0.999414 -0.000837187 -1.00099 0.999306 -0.00051875 -1.0006 -1.00061 -1.00046 -0.000722743 -0.000710339 -1.00038 -0.000479765 0.998885 -1.00063 -1.00048 0.999559 -1.00052 -1.00045 0.999612 0.999167 0.999166 0.999234 -1.00038 0.999611 -1.00021 0.999768 -0.000165009 0.999775 -1.00109 -1.00162 -1.00208 -1.00225 -0.00212725 -1.00239 0.997408 -0.00234265 -1.00234 -0.00207764 -1.00228 -0.00188515 -0.00260727 -0.00252545 -1.00148 -0.00221798 -1.00202 -1.00188 0.998284 0.998394 0.998513 -0.00110833 0.998718 -0.00130696 -0.000698086 -1.00051 -0.000254327 -0.000154585 -0.000197828 -0.0002682 0.999896 -1.00044 -0.00146916 -0.00206464 0.99675 -0.00502737 0.994724 0.994506 -0.00581808 -1.00523 -0.00570572 0.9942 0.992249 -1.01003 -1.00701 -0.00584153 0.990578 -1.00945 0.99291 -0.00652816 0.993757 0.994036 -0.00631952 -0.0058863 -0.00617976 -0.00502721 -0.00212149 0.999012 -0.000428126 -1.00036 -1.00024 -1.00021 -0.000327938 0.999214 0.999071 -1.00299 -0.00645578 0.991907 -0.00879602 0.990251 0.990167 -0.00965822 -0.00962586 -1.00979 0.989441 -1.01106 -0.0093952 -1.00958 -0.0101325 -0.0100309 0.989098 0.988964 -0.0110885 -0.011032 -1.01003 -1.00963 -0.00936631 -1.00863 0.994282 0.998145 0.999672 -0.000315323 0.999644 -0.000669243 0.998974 -0.000914485 -0.00171491 -0.00641287 -0.00967386 -1.01083 0.988312 0.987216 0.987307 0.987268 -0.0126441 -0.0131783 -1.01352 -0.0135895 -1.01164 0.988827 0.987641 0.987657 -1.01318 -0.0135756 0.986615 0.986785 0.988823 -1.01126 -0.0107918 -0.00973762 0.992382 -1.00369 0.999334 -0.000199532 -0.000437822 0.998656 0.998409 -1.00191 -0.00349716 0.991259 -1.01225 -1.01317 -1.01393 -1.01445 -0.0116907 -1.01076 0.989181 0.988614 -0.0113864 -0.0109201 -0.0102091 -1.00968 0.989839 -1.01024 -0.0104967 0.989201 -0.010406 -1.01116 0.98809 -0.013291 -1.01223 0.988674 -0.0089463 -1.00391 0.998741 -0.00064985 -1.00029 0.998318 -1.00193 0.997441 -1.00665 -0.0112241 -0.0129278 -0.0136054 -1.01399 -0.0142497 -1.01015 -1.01 0.989618 -0.0110622 -0.0105735 0.989668 -1.00973 -0.00950464 0.990366 -0.00953089 0.989822 -1.01027 -0.00984343 -1.01026 -0.0141515 -0.0147187 -0.0141273 -1.01326 -1.01163 0.992443 0.997528 0.998686 -0.000524184 0.999029 -1.00135 -1.00206 0.993273 -0.0113485 -0.0126005 0.986638 -0.0142539 -1.01298 -0.0087281 -0.00964512 -1.01032 -1.01106 -1.01064 -0.0102321 -1.01005 0.989991 -1.00976 -1.00939 -0.01022 -0.010782 0.989514 -0.0103735 0.985366 0.984884 0.985028 -0.0140678 0.987615 -1.00791 -1.003 0.997874 0.998518 -1.00026 0.999315 -0.00364884 -1.00905 -0.0109089 0.988239 -0.0124353 0.98632 -0.0112597 -1.00725 -0.00806609 -1.00887 -1.00888 -0.00840854 -0.00814499 0.992182 0.99205 -1.00791 0.992466 -0.00931347 -0.00997166 -1.00887 -0.00835353 -0.0119708 0.986665 -0.0133129 -0.0125201 0.989224 -0.00855953 -0.00401744 -0.00153516 -0.00122981 0.999765 -0.000632655 -1.00384 0.990876 0.989356 -0.0115154 -0.0122519 0.987047 -1.01021 -1.00777 -0.00785965 0.991474 -0.00838096 -0.00798862 -0.00780832 0.992634 0.992505 -0.00731848 -1.00691 -1.0076 -0.00815822 -1.00801 0.9924 -0.010327 0.987594 -0.0120292 0.988844 0.990372 -1.0075 0.997148 -1.00041 -1.00017 -1.00048 -0.00161066 0.994869 0.991427 0.989943 -1.01121 0.988059 0.987629 -0.00977151 0.991226 -0.00882386 -1.00899 -0.00903047 -0.0090759 -1.00907 -1.00798 -0.00827946 -0.00876995 0.991595 -1.0086 -0.00892746 -0.00935149 -0.00925522 0.989205 -1.01225 -1.01176 -1.01099 0.990566 0.99212 -1.005 -1.00152 -1.00088 -0.000561363 -1.00338 -1.00585 0.992304 -1.0095 -0.0106283 0.98885 -1.0108 -0.0107972 -1.01094 0.988933 -1.01122 -0.0113483 -0.011413 -1.01141 0.989769 0.99052 -1.01161 -0.0111369 -1.01142 -0.0116338 -1.01218 -1.01242 0.987935 -1.01135 -0.0105659 -0.00991012 0.991537 -0.00721651 -0.00595764 -1.00295 0.999765 -0.000571756 0.996696 0.995369 -1.00632 0.991774 0.990963 -0.00907773 -1.00963 0.990489 -1.00905 -1.00937 -1.0097 -1.00986 -0.00986907 -1.00973 -0.00975814 -0.00911596 -0.00995633 -0.00959095 -0.00972015 -1.01007 -1.01077 0.988953 0.988843 -1.01018 -0.00927674 0.99184 -0.00705086 -1.00623 -0.00519553 -1.00362 -0.000652936 -1.00049 0.998028 -1.00315 -0.00451078 -1.00515 -0.00589571 -0.00599341 0.994481 -0.00679215 -1.0066 0.993384 -1.00653 -0.00756259 -0.00763891 -1.00788 0.992126 -1.00772 0.992565 -0.00772408 0.992505 -1.00613 0.991412 -1.00895 -0.0087615 -1.00596 0.992849 0.993646 -0.00578612 -1.00502 -1.00397 -0.00279728 -1.00047 -1.00008 -0.000321159 0.998957 0.998792 -1.00106 -0.00149742 0.99916 -1.0004 -1.00084 -1.00095 -0.000944826 -1.00076 -0.00112133 -1.00247 -1.00365 -0.0035731 0.996853 -0.00305029 -1.00163 0.998713 -1.00096 -0.00143554 0.998532 0.998028 -0.00128374 0.998233 0.998505 -0.00135589 -0.00111059 -0.000700352 -1.00041 -1.00018 -0.00034834 -0.000743321 -1.00079 0.999198 -0.000844258 -1.00024 0.999721 -1.0004 0.999798 0.999771 -0.000264053 -0.000218635 0.999744 -1.00068 -1.00066 0.999114 -1.00058 -1.00073 0.999585 0.999675 -1.00028 0.99977 0.999843 -0.000256902 0.998822 0.99903 -1.0004 -0.000735882 -0.000440484 0.999835 -1.00013 -7.06919e-05 -0.000321991 0.999461 -1.00079 -0.000529793 0.999709 0.999651 -1.00064 -1.0004 -0.000294246 -0.000313822 0.999775 0.999839 -1.00049 0.999552 0.999608 -0.000635904 -1.00032 -1.00023 0.999499 -1.00047 0.999799 -0.000197657 -1.00022 -1.00012 -0.000456938 0.99878 -0.000815939 -1.00046 0.999625 -1.00028 -0.000158051 -1.00012 0.999362 -1.00065 -1.00028 -0.000143751 -1.00015 0.999628 -1.00058 -0.000205105 -0.000154602 -0.000178752 -0.000199704 -0.000169971 0.999438 -0.00054756 -0.00010858 -1.00015 -1.00018 -1.00015 -0.000486166 -0.000577843 0.999799 -1.00017 -0.000179394 -1.00018 -1.00013 -1.00045 -0.00124498 0.999386 -0.000321065 -1.00029 -0.000263647 -1.00013 -1.00073 -1.00012 0.999916 0.99987 0.99985 0.999553 0.999618 -0.00020479 -0.000145211 -0.000104215 -1.0001 -1.00021 0.999503 -0.000355618 -0.000139129 -1.00028 0.999843 -0.000174493 0.999653 0.999507 0.999784 -1.00017 -1.00013 0.999849 0.999773 0.99981 0.99945 -1.00101 -1.00078 0.999687 -0.00020105 -0.000275456 0.0509261 0.0535293 0.0645989 1.07482 1.05122 1.05574 0.0584266 0.0550002 -0.929637 0.0691376 1.06041 1.07112 -0.935176 1.04014 -0.947444 -0.956307 1.04556 -0.944784 0.0520737 1.04306 1.05687 1.05322 -0.94568 -0.941993 1.0568 1.05576 -0.944263 1.06099 -0.942081 0.0606184 0.0601769 1.05815 1.06024 1.05141 -0.92661 1.0674 -0.93759 0.0550309 0.0594196 -0.935294 0.0661383 1.06699 -0.940595 0.0676616 1.06976 0.0513766 -0.944913 -0.955004 1.04976 -0.942684 1.05783 1.0492 -0.931481 0.0548541 -0.944628 0.0600247 1.05682 1.05634 1.05745 0.0620477 0.0627106 1.06366 -0.940752 -0.942231 0.0765313 1.04529 0.0735831 1.07596 0.0514778 0.0426763 0.0498478 0.0668266 0.0624225 1.06034 -0.941409 0.0638333 0.0656496 1.05417 -0.934027 1.05211 -0.93963 -0.931153 -0.930503 -0.94965 -0.940427 -0.941312 1.05661 -0.939694 1.0573 1.06088 0.0567851 -0.940503 1.06275 1.06203 0.0578321 1.05876 1.04644 -0.951546 -0.951775 -0.95154 1.05178 -0.954096 0.057502 1.06932 -0.943371 0.0452239 -0.954893 -0.937202 1.04634 1.04376 1.05311 0.0461214 1.0549 0.058777 1.06117 1.05081 1.05541 0.0593441 -0.955056 0.0399326 -0.941897 -0.949317 0.0445084 -0.955551 -0.942435 -0.953114 0.0398696 -0.959636 1.04927 1.04484 1.04881 -0.949504 1.05086 1.04524 1.05398 0.0662898 1.06634 0.0586486 0.0698438 -0.937185 0.0582542 0.0640166 1.05514 0.0456203 0.0428267 1.04731 0.0484818 1.04519 0.0459479 0.0398556 1.04182 1.03844 0.0485027 -0.958031 0.0601111 1.04918 1.0598 -0.966069 1.03064 0.0350681 1.04862 1.04199 -0.947698 -0.945135 1.05732 1.05124 -0.96793 1.04732 0.0637344 1.05468 1.04872 0.0559172 0.0462196 0.0626303 1.05189 -0.954398 -0.956388 1.03996 0.0305621 1.03966 1.04736 -0.958126 0.0391725 0.0367368 -0.95933 0.032816 1.03645 1.03566 1.02768 -0.97165 0.0326674 -0.964708 0.0421765 0.0372072 0.0482552 -0.957685 1.05118 1.04986 -0.966221 -0.969226 0.039019 -0.970548 0.0376277 -0.960428 -0.948657 -0.937832 0.0545926 1.04116 0.0388673 0.0394506 -0.967429 1.02913 -0.961877 1.03817 0.0399859 0.0310501 -0.968925 1.03428 1.02537 1.03078 -0.973806 -0.973865 0.0310863 -0.97031 -0.961609 0.0454281 0.0386305 0.0394731 -0.955492 -0.959038 0.0363512 0.045502 1.0464 1.04241 0.0394377 0.0415904 -0.957363 1.04945 0.0440681 1.04139 1.03568 -0.964181 1.03415 0.0370925 1.04706 1.05267 0.0505307 -0.966307 0.0417564 -0.96631 1.02431 1.02687 -0.974562 1.02466 1.03046 0.0286813 -0.954511 1.04949 -0.959678 -0.950153 0.0604194 0.0611189 0.0688976 1.06919 -0.930356 -0.934607 1.04345 -0.960127 1.03779 0.0597711 -0.933326 0.0657456 0.0501351 1.05078 0.0540531 0.0518311 0.0514319 -0.948993 1.04827 1.04477 1.04467 1.03808 -0.956108 0.028079 1.04243 1.03466 1.03341 0.0300664 0.0463287 0.0541576 0.0494683 -0.937603 1.07084 0.072279 1.07176 0.0590321 1.05885 0.0514528 0.0597357 -0.936152 0.063833 1.07561 -0.921424 -0.91821 1.07735 -0.929426 0.054917 1.05021 -0.952029 1.05258 1.04993 0.0445463 0.0434712 -0.952863 0.0449465 0.0415746 -0.949872 -0.943925 -0.950659 0.0414371 -0.945275 1.0498 -0.936478 1.05068 -0.93577 -0.92777 -0.940281 0.0632002 1.06229 -0.943554 -0.91575 0.091901 -0.906216 -0.905929 0.0883858 1.08871 -0.91744 1.08333 0.0729369 -0.946688 0.0400838 -0.965576 -0.959325 0.0474952 0.0476797 -0.954504 0.0357105 1.02548 0.04501 0.0460293 0.0427056 1.04673 -0.946427 1.04844 0.0511958 -0.952902 0.058875 0.0628224 -0.936439 0.0665777 -0.921517 -0.912443 0.0983615 0.0984112 0.0920568 0.0950591 -0.905935 1.08774 1.08443 0.0862317 -0.918078 1.05835 1.04465 0.0474177 1.04567 1.05151 0.0272122 -0.954227 -0.96219 1.03981 0.0371081 -0.96166 1.03995 1.04014 1.0564 -0.947842 0.0595853 1.05389 -0.942102 1.06221 1.07367 -0.907476 0.100558 1.10129 0.0987167 0.0977128 0.0922076 -0.91046 -0.910566 0.0895424 -0.910913 0.0754133 0.0582638 1.05228 0.0556306 1.05845 1.0568 -0.937786 0.0358511 0.0566154 1.04835 1.04785 1.04466 -0.961063 0.036013 -0.959536 -0.933098 -0.946613 1.05015 1.05623 0.0801271 -0.909174 -0.910126 -0.900289 1.08656 0.0985153 0.0803671 -0.908368 -0.910359 1.09291 0.087786 1.07508 1.05921 0.054883 1.05441 -0.942524 -0.93896 1.06729 0.0622231 0.0668065 -0.957502 -0.934738 1.05699 -0.949076 -0.951094 -0.952242 -0.955069 0.0424181 -0.937764 1.05778 1.07337 -0.921843 0.103821 -0.897895 0.0654453 1.06975 -0.927318 0.0668947 1.06854 -0.918035 -0.918656 0.079302 0.0678641 1.05431 0.0545266 0.0524656 -0.939339 0.0568363 0.0602299 -0.935787 0.059094 -0.93996 -0.925169 1.07454 -0.924722 0.0550157 -0.950294 0.046037 -0.945988 -0.948454 -0.929348 0.0792102 0.100879 -0.908452 0.0826473 -0.899295 0.0774523 1.07159 -0.919662 -0.924491 0.0758288 0.0895878 0.086437 1.08744 1.07849 0.0624417 0.052209 -0.948006 1.05737 1.05796 1.06147 1.06243 0.0651669 0.0798586 0.0869452 0.0915723 -0.906782 -0.921873 1.06186 1.05612 0.0647916 1.05923 0.0915297 -0.893372 1.10177 0.092649 -0.908349 1.09764 1.08422 1.0739 -0.925423 0.0872936 1.10358 -0.89272 1.10563 0.10379 -0.900664 -0.896283 0.0947008 -0.925767 0.0710682 -0.931231 1.07617 -0.916679 0.0824812 0.0773664 -0.931682 0.103906 -0.896407 -0.898507 0.0869896 0.0739613 -0.939442 0.0570324 1.09369 1.10343 0.100712 1.09473 -0.908469 0.108658 -0.891611 -0.911086 0.0921734 -0.901408 0.106455 -0.891483 -0.890738 -0.895739 0.101466 -0.897729 0.10544 1.10168 -0.92131 0.0800913 1.10103 -0.891659 -0.91654 -0.898048 1.09039 0.0775248 -0.922904 -0.915745 1.08407 0.0792027 -0.929812 -0.939931 -0.90548 1.10214 0.0941534 -0.9 0.0862503 0.108731 -0.90146 -0.914838 1.09941 1.09544 0.110857 1.08752 0.10319 1.09913 1.10581 1.103 1.10498 0.0911119 0.0953512 1.09722 1.09747 0.106458 0.101098 -0.89474 0.0969495 1.0947 0.096823 -0.910068 1.06506 -0.939694 1.05466 1.05466 1.08999 -0.905229 -0.888233 0.112621 0.0990071 0.1066 -0.903068 0.0884761 -0.905594 1.10365 1.10376 0.108715 0.100197 -0.896059 0.107691 1.11082 -0.882185 -0.909933 1.09579 0.100867 1.09894 0.0944146 0.0915041 0.100367 1.09509 -0.904908 0.0898222 -0.92343 1.08192 1.05299 -0.941834 1.05744 1.09297 -0.910678 0.0987548 -0.90301 -0.900427 -0.893342 0.0999944 1.08768 -0.922362 0.0949207 1.10588 1.10395 0.103974 0.104014 0.109621 1.10479 1.10311 1.09186 0.0909545 -0.897378 -0.900618 0.0936786 -0.911346 -0.910892 -0.924688 -0.90713 0.0938538 1.08562 0.0574822 1.05841 0.0435291 1.0251 1.09912 0.0824449 1.08625 0.0882992 -0.908073 0.103668 1.081 0.0719625 0.073618 -0.908282 0.094725 -0.89916 0.10964 -0.888187 -0.899349 -0.898857 -0.90412 0.0915953 -0.905859 0.0988423 0.0987609 -0.905706 -0.906663 -0.911786 1.071 -0.919614 0.0815227 -0.934618 -0.933012 0.0509116 0.0281504 0.0257514 0.0915606 1.08259 -0.914428 1.08933 1.0962 -0.913615 0.0632256 -0.935022 -0.925471 -0.920834 1.07566 0.093188 1.10712 -0.892962 0.108013 0.100102 1.0976 -0.903843 0.0978632 0.0976264 -0.903913 -0.904558 -0.901687 1.09102 1.0679 -0.944215 1.06162 0.0494632 1.0488 0.033887 1.03491 -0.945286 1.08778 0.0857142 -0.917345 -0.921281 0.0833931 1.07322 -0.928588 1.05746 1.06335 1.10142 -0.913091 -0.915464 -0.891432 -0.89245 0.110127 0.110878 -0.900358 -0.900176 0.094287 1.09384 0.0972238 -0.901058 1.09736 0.0753684 -0.940268 -0.940925 0.049061 -0.9332 1.04684 0.040366 0.0432891 1.05245 1.08694 -0.907913 1.08366 0.0712971 0.0945589 1.07902 0.0674301 1.0813 1.0701 1.08221 0.0895599 -0.898133 0.109758 1.11003 1.1088 -0.891514 1.10845 1.11241 -0.910248 0.0977084 0.0982287 0.0845445 1.07337 1.06361 0.0615987 1.0545 -0.944267 1.05223 1.0591 0.039341 0.0360798 -0.960542 0.080056 -0.917075 0.0887394 1.0873 1.09835 -0.914057 0.0589432 1.0781 0.0829736 -0.894037 0.108596 0.109337 1.12268 0.109505 -0.889743 1.11007 -0.897498 1.10146 0.0854477 -0.901287 1.09194 0.080455 0.059588 1.05966 1.06339 0.0541633 1.06479 0.0482818 -0.949878 0.0396838 -0.959422 1.03523 1.06922 0.0818491 1.08657 -0.911091 1.09206 0.0840359 -0.921055 1.07513 1.0806 0.0964262 1.10095 -0.898899 -0.894758 1.1045 1.10479 1.10155 0.103351 1.09941 -0.901573 0.085596 1.07588 -0.927335 1.05462 1.04188 1.06098 0.0692066 -0.932594 -0.939551 0.0329051 0.0349137 0.0356602 -0.962117 1.07859 1.08466 -0.910759 1.09333 0.100373 -0.908468 0.0815513 1.09743 0.0925425 -0.908519 1.09086 0.092274 0.0905949 1.08936 1.09131 0.0880699 0.0921774 1.08655 -0.935225 -0.940711 1.06666 1.05304 -0.95525 1.0582 1.06598 0.0678312 0.0552105 1.06361 0.0465002 1.05696 0.0335417 -0.971334 1.06722 1.06979 -0.91935 -0.910057 0.0833179 0.0896315 -0.903492 -0.909433 -0.908954 -0.892092 -0.902664 0.0963273 1.09516 -0.90239 1.09628 0.0950982 0.0856477 1.06535 -0.937335 0.0698177 0.0584056 0.0584894 0.0510556 1.04661 0.0609772 -0.938806 0.058569 0.0576537 -0.935328 -0.934179 1.03277 -0.954321 -0.928559 1.06571 0.0682466 -0.913965 0.0883325 -0.918048 1.09272 -0.909606 0.0849843 -0.914443 -0.911966 1.09484 1.0934 1.09469 0.0882392 0.073446 0.0597178 1.05819 1.0551 0.0587071 1.0545 0.0400499 0.0609572 -0.948914 -0.932415 -0.950803 0.0568546 -0.942698 1.06192 1.05459 0.0458324 -0.960707 0.0746468 -0.924244 1.07131 0.0760609 -0.912875 1.08072 1.08235 1.08385 -0.917802 -0.917986 1.07973 0.0865571 0.0970844 0.0949117 -0.926816 0.0704659 1.05661 1.05278 -0.927876 -0.946064 0.0504791 1.05251 1.05115 1.05331 0.0477969 0.0466769 1.04717 -0.953542 -0.951604 -0.944569 1.05081 1.04339 -0.938285 0.072168 -0.922231 -0.925777 -0.924848 -0.914067 1.08715 -0.919308 0.0818384 -0.921042 1.08511 1.09242 0.086196 0.0692811 -0.942428 -0.945603 -0.95659 -0.955777 0.0535578 -0.948415 -0.945078 -0.938399 0.0427341 0.0542497 -0.947558 -0.950225 0.04996 1.05171 1.04923 -0.949664 0.0517049 1.04591 
