-1.89146 -3.06729 -0.263141 -1.75328 -0.0117751 0.466896 
-1.46065 -2.9762 1.75609 -2.4484 -3.91165 -0.361292 
-2.8053 -2.62167 2.34838 0.0125294 1.80824 -1.83985 
1.13744 3.10703 -0.0821915 -2.97148 -1.07153 -2.65133 
3.71238 -2.77998 3.51163 -3.97023 -1.89067 1.82415 
3.90115 2.86659 1.85094 -3.22378 2.78116 -1.39543 
-3.9858 0.479247 -1.34755 -2.4558 2.40426 2.46889 
3.26992 -0.102823 1.94285 0.428649 2.62475 -2.51591 
-3.14662 -2.34141 -3.66525 -2.58369 1.90613 1.9576 
3.17886 -1.97024 -1.72332 -0.951624 1.99491 -1.70405 
1.29141 -1.122 0.499439 3.67261 2.56491 -3.92524 
-0.690359 -2.90882 3.21451 -2.98402 -1.68775 2.37475 
-2.07938 1.93346 -0.220936 -3.88985 -1.34043 -3.53633 
-3.0381 -3.2035 -0.125849 1.11365 -2.81146 3.6011 
2.09039 -0.791823 2.81581 -2.40997 1.2227 -2.40485 
1.86304 -3.60936 0.256867 1.85723 2.88665 0.985777 
-1.17077 0.31679 1.89324 2.9056 3.8853 1.06419 
-0.947597 2.61066 -1.99713 2.08855 -2.43694 -0.966575 
1.48223 3.70625 -3.7494 2.11274 1.05717 0.823428 
-3.60737 -2.81913 -3.99706 -0.599899 0.636116 1.81605 
2.58611 -4 -2.78959 1.51126 2.58745 -1.71906 
3.544 -3.4085 -1.09477 1.10166 0.705918 2.39164 
-3.75504 2.50771 1.2338 -2.40057 3.35859 1.33231 
2.57237 -0.213371 0.893282 -1.94589 -3.9267 -1.98961 
2.77541 2.81683 -0.024747 1.31235 2.73493 -2.44611 
-0.71521 -2.03059 0.0675624 -1.47437 0.728417 2.09514 
-3.7878 -3.73274 -3.29233 1.36104 -0.437317 3.19424 
2.85767 0.196615 0.530629 -2.64831 -1.75719 0.181802 
-0.52169 -3.63263 -2.1316 2.34939 0.271052 0.549406 
3.88199 0.608487 0.734863 -0.755413 0.38559 0.487107 
0.151568 2.47329 -3.02822 3.70968 3.85595 1.02247 
-1.65891 0.346421 -3.85745 0.420295 3.82926 -1.75978 
3.41871 -3.65997 3.74525 2.52949 -2.25807 2.35657 
-1.75777 2.56867 1.5424 -1.42659 -0.9542 1.20347 
0.293428 -0.353453 2.20492 -3.07821 2.4631 -2.65528 
2.41126 -1.14526 -1.26356 -3.50872 2.01684 -1.11377 
3.31238 -0.394329 -0.713954 3.67655 2.68416 1.32346 
1.8831 3.47202 -2.76191 2.64553 -0.729712 -1.5045 
-0.36143 -2.20641 -0.174376 2.0631 0.165848 2.04505 
2.55663 -2.12528 2.06038 2.61488 -2.43057 -1.85012 
-3.58472 0.0494861 3.14548 3.00697 -0.321745 -0.520933 
-1.78713 -0.163305 0.364154 0.526508 -3.6626 -3.05986 
-0.143079 2.08302 -2.33894 3.54208 -3.5046 1.42808 
-1.54027 -2.26595 -3.3684 2.55807 -2.98111 3.5811 
0.739559 -0.825339 1.54463 1.32675 -3.92138 -0.487466 
1.98903 -2.25347 -1.89189 2.99104 -0.460898 3.70054 
3.31697 -0.507836 -0.664693 0.423989 -2.12179 -2.60269 
2.56341 3.4913 -2.61245 2.76801 1.95239 -0.166793 
0.96593 3.32439 2.30418 -0.310713 1.52753 -1.98608 

