-2.13392 2.40246 -44.7922 -259.188 -265.647 -264.663 -233.474 -198.282 -159.769 -119.613 -106.731 -118.455 -125.553 -101.526 -98.5933 -90.9615 -100.803 -100.785 -91.0075 -103.314 -112.771 -109.363 -117.412 -116.123 -108.046 -97.3097 -133.174 -209.673 -259.115 -50.9421 2.61591 -0.834688 -3.42213 2.57777 -42.2541 -248.349 -234.408 -181.934 -128.806 -91.4738 -93.4753 -97.8053 -105.694 -97.3272 -94.2914 -87.6895 -96.6595 -100.384 -113.427 -120.665 -143.214 -125.05 -106.521 -113.88 -99.4526 -93.4728 -94.7143 -96.2582 -103.049 -118.208 -155.176 -35.8485 3.85544 -1.23138 3.10466 -1.8634 -39.6288 -179.374 -135.901 -72.0708 -72.6121 -78.5185 -99.6084 -96.3768 -82.4942 -83.3257 -133.978 -96.5148 -101.278 -75.6988 -112.843 -119.678 -112.86 -95.9286 -100.815 -107.985 -124.062 -115.983 -100.034 -109.33 -105.094 -104.807 -106.546 -17.0498 -2.42266 -0.689292 -2.21292 1.31846 -23.7754 -95.843 -88.5352 -80.2284 -83.4249 -104.252 -104.197 -74.839 -100.492 -133.392 -165.749 -104.229 -90.5401 -88.0111 -115.736 -110.796 -104.809 -99.0512 -118.183 -110.06 -95.3238 -113.227 -142.211 -136.917 -134.686 -112.203 -90.6281 -19.9473 -2.01698 -0.604072 -2.82227 -0.00885641 -8.36374 -104.721 -95.829 -72.4154 -80.1495 -97.5789 -91.1309 -135.199 -234.938 -214.789 -201.551 -142.829 -180.941 -122.359 -102.996 -103.107 -99.7831 -88.6533 -97.0918 -100.393 -92.8456 -85.1533 -134.709 -150.833 -143.743 -141.636 -116.942 -22.4494 -2.43788 -0.270356 -2.15256 -2.42524 -9.96289 -91.6505 -88.1038 -73.7123 -103.722 -101.31 -74.1433 -112.982 -164.372 -150.769 -195.462 -228.196 -249.332 -149.13 -87.9849 -98.61 -114.401 -124.455 -98.5945 -100.512 -89.8137 -73.0505 -124.361 -146.65 -152.116 -164.87 -150.878 -20.4198 -3.93774 -0.34322 -0.346269 -0.526306 -17.4003 -95.6973 -85.7619 -91.1967 -88.2609 -71.2887 -65.9851 -88.3039 -163.464 -208.907 -258.965 -257.742 -204.153 -142.268 -135.345 -177.284 -239.064 -217.715 -102.624 -92.9048 -103.234 -79.3062 -98.8722 -148.088 -155.199 -158.217 -165.332 -32.7238 2.02702 -2.076 -0.46899 2.58676 -16.1045 -76.2817 -82.2102 -82.7627 -63.2619 -82.1718 -67.1095 -63.7474 -224.012 -268.977 -270.645 -261.831 -167.764 -167.01 -155.32 -230.764 -213.975 -148.212 -92.5378 -81.2964 -86.5199 -89.4138 -98.7506 -133.611 -135.625 -142.007 -150.211 -24.1656 -0.713647 -1.29231 1.587 0.103182 -10.8324 -75.0607 -55.9986 -57.602 -72.3746 -105.182 -89.8671 -166.709 -243.471 -274.034 -262.906 -249.554 -216.105 -167.337 -90.367 -254.27 -236.081 -131.95 -95.4911 -64.1947 -74.6848 -83.2248 -99.0751 -114.787 -137.343 -146.36 -165.736 -26.8535 -3.01558 -1.8756 -2.47971 2.31278 -13.547 -58.009 -45.5864 -38.232 -67.8432 -190.642 -236.849 -224.613 -200.358 -169.115 -152.991 -143.051 -225.415 -151.107 -77.1127 -164.662 -192.683 -148.858 -114.749 -68.4036 -57.8787 -49.782 -92.4389 -129.416 -161.843 -161.66 -183.85 -39.7496 -2.20068 -1.38754 -2.08385 -3.19785 -8.57852 -49.7173 -48.8054 -33.0192 -71.2496 -239.883 -189.579 -204.653 -181.534 -123.311 -143.918 -152.69 -224.627 -120.179 -68.3526 -147.874 -139.091 -138.91 -105.008 -75.147 -44.236 -50.3981 -74.3648 -138.19 -184.141 -175.264 -171.049 -30.8668 3.42558 -2.23294 -3.30024 0.278684 -11.6904 -72.9938 -53.8772 -37.3266 -77.6659 -166.592 -159.556 -157.775 -178.501 -98.8751 -97.638 -135.542 -262.71 -120.352 -54.8946 -117.145 -133.529 -119.153 -86.436 -89.9842 -67.6676 -80.4269 -83.1105 -138.71 -162.319 -198.477 -184.432 -25.831 -3.61469 -3.0624 1.69858 0.0824777 -7.40509 -63.847 -66.8947 -60.9447 -97.9117 -107.661 -115.064 -141.182 -168.617 -197.214 -205.4 -231.826 -226.318 -141.868 -93.6569 -140.718 -138.861 -128.076 -125.107 -113.128 -110.186 -97.3551 -117.505 -97.0347 -121.229 -158.557 -148.263 -19.8188 -0.502468 2.67492 2.72207 0.427319 -6.85573 -66.6202 -112.46 -63.5261 -74.2635 -82.9936 -124.92 -166.195 -174.559 -222.297 -189.278 -181.754 -209.647 -163.502 -172.575 -196.886 -113.973 -122.111 -178.343 -139.041 -123.85 -139.982 -139.975 -132.128 -108.088 -116.643 -128.368 -25.246 0.0850721 -0.818049 2.31808 3.18186 -9.63848 -52.8761 -59.245 -43.293 -47.7107 -66.7225 -130.939 -142.923 -148.132 -160.54 -155.777 -115.175 -184.778 -185.569 -135.163 -141.068 -115.038 -121.219 -151.797 -128.352 -135.287 -205.356 -173.787 -144.451 -105.414 -127.3 -112.019 -21.6161 -1.00341 -3.81267 -3.02214 3.37419 -5.70705 -46.1804 -44.673 -44.4313 -59.2132 -90.1083 -139.021 -152.665 -151.274 -156.135 -155.1 -147.35 -161.835 -155.016 -155.234 -161.943 -159.581 -148.95 -159.895 -117.416 -208.282 -264.75 -256.459 -204.093 -136.581 -109.729 -79.1669 -17.9624 -2.67778 -0.34363 -0.698045 2.81783 -8.83776 -58.6792 -48.7574 -46.2994 -55.3322 -81.6019 -127.569 -135.551 -133.686 -139.19 -134.855 -143.521 -152.781 -135.128 -132.183 -134.272 -134.252 -136.278 -161.122 -155.379 -165.145 -234.289 -266.151 -180.929 -130.15 -89.0554 -66.951 -16.341 -0.0519377 3.46252 -1.87383 -0.199989 -8.56724 -60.356 -67.646 -55.4271 -75.6041 -121.398 -140.668 -141.561 -145.006 -151.708 -156.418 -157.773 -159.063 -151.083 -149.15 -146.837 -144.423 -140.766 -141.309 -177.53 -197.622 -201.034 -231.106 -190.746 -151.044 -71.6932 -43.9444 -15.5502 -3.03816 3.77874 -2.13627 -1.41365 -10.7818 -82.8656 -101.038 -82.6085 -100.771 -133.986 -138.856 -140.303 -146.914 -148.652 -159.636 -156.513 -149.082 -152.913 -157.005 -160.589 -162.587 -153.415 -156.974 -156.729 -199.339 -233.891 -186.766 -231.262 -123.768 -61.5037 -53.4251 -21.6991 -0.721998 -2.07726 -2.81106 -0.165622 -13.4944 -93.8886 -104.462 -127.565 -133.356 -140.992 -138.312 -136.525 -140.715 -144.76 -146.19 -148.599 -142.893 -146.132 -148.153 -151.576 -157.806 -155.487 -152.305 -137.954 -176.938 -232.22 -238.218 -244.371 -126.895 -69.0603 -53.9422 -14.4169 0.99275 1.69951 -0.519834 3.13703 -8.35295 -84.9791 -124.758 -137.779 -134.009 -130.243 -135.762 -132.519 -137.788 -141.832 -146.317 -147.443 -146.127 -145.02 -147.183 -148.29 -145.67 -149.275 -148.953 -134.691 -160.649 -208.45 -223.134 -234.707 -200.306 -173.419 -62.6608 -5.20291 0.803058 1.00537 2.74536 2.11211 -10.3111 -112.107 -132.19 -142.784 -132.587 -132.138 -136.676 -129.817 -129.691 -136.617 -143.867 -143.485 -145.992 -144.575 -145.009 -145.88 -145.971 -150.053 -152.606 -137.462 -153.658 -223.382 -254.476 -263.916 -245.775 -206.773 -72.2654 -9.63188 2.09453 -3.53791 -2.4186 -3.54459 -21.8894 -112.315 -132.873 -144.734 -128.247 -123.742 -126.904 -129.482 -130.179 -143.891 -138.09 -140.344 -144.944 -146.509 -145.309 -147.492 -150.338 -154.909 -148.845 -137.734 -145.448 -213.31 -263.406 -272.086 -268.209 -194.783 -72.5688 -9.1267 2.97628 3.20992 2.50668 3.3331 -22.3381 -112.825 -138.57 -140.567 -132.813 -129.267 -125.676 -127.129 -138.73 -143.381 -140.821 -142.05 -142.549 -143.502 -144.616 -147.161 -153.518 -160.403 -150.61 -138.863 -152.362 -215.626 -248.103 -266.23 -267.668 -209.068 -99.9886 -3.87328 -0.268068 2.74521 2.99129 1.58584 -24.222 -126.516 -135.92 -129.081 -124.009 -124.78 -123.486 -129.784 -135.722 -136.405 -147.863 -139.417 -142.797 -154.092 -154.072 -151.812 -150.508 -157.08 -151.779 -151.095 -162.791 -206.094 -241.007 -263.024 -278.183 -190.405 -95.4987 -22.0235 2.25411 -2.95782 3.6993 0.149288 -26.7645 -129.962 -125.08 -126.23 -116.578 -113.086 -118.833 -121.044 -124.762 -137.448 -139.491 -133.76 -143.683 -146.496 -141.95 -151.438 -156.498 -164.996 -153.288 -149.976 -153.872 -182.242 -239.091 -260.273 -278.791 -207.657 -129.811 -27.098 1.01045 -3.89081 0.0452426 1.9726 -20.6995 -121.55 -122.14 -122.039 -104.453 -106.317 -112.962 -121.646 -119.144 -131.155 -133.095 -125.659 -133.314 -139.124 -142.769 -148.093 -137.998 -153.583 -147.064 -138.82 -151.167 -165.879 -232.197 -253.033 -263.639 -232.712 -113.941 -16.7535 3.33706 -1.9432 2.30927 -2.46053 -23.6391 -109.727 -109.602 -115.277 -112.573 -104.649 -105.892 -106.438 -123.98 -131.393 -129.807 -120.452 -128.087 -133.77 -138.507 -140.274 -137.817 -149.007 -142.359 -129.431 -133.543 -164.065 -217.56 -244.885 -240.925 -160.44 -105.447 -25.8615 0.572652 -3.66491 -3.68413 3.92586 -16.227 -95.6396 -109.371 -108.43 -109.887 -103.77 -101.268 -104.477 -135.324 -133.817 -125.888 -128.668 -130.093 -128.158 -132.181 -132.483 -139.628 -146.233 -137.008 -136.332 -126.423 -154.181 -196.432 -244.8 -189.322 -84.5166 -96.8901 -30.3625 -0.183007 -2.27351 -1.16989 -1.58601 -10.2039 -80.7086 -104.503 -104.852 -108.412 -100.484 -107.476 -115.495 -125.885 -125.442 -119.423 -127.431 -124.801 -129.989 -131.939 -128.055 -143.317 -146.963 -135.844 -136.346 -131.048 -145.726 -189.756 -236.467 -188.16 -89.4279 -117.668 -31.7515 -3.69331 3.67942 -2.11678 1.64821 -9.88216 -92.1146 -94.0084 -105.015 -105.421 -110.862 -113.798 -118.473 -128.383 -125.189 -123.625 -126.662 -124.422 -125.352 -129.808 -126.66 -135.744 -144.227 -136.149 -134.627 -132.609 -141.444 -180.456 -191.607 -130.502 -80.4152 -128.733 -31.0485 -1.3403 -2.30916 0.690895 0.181636 -16.4836 -78.5984 -82.7226 -106.531 -113.104 -122.376 -114.772 -116.051 -124.896 -126.575 -121.439 -124.373 -125.545 -124.864 -122.26 -129.984 -135.108 -141.29 -140.261 -134.359 -130.931 -135.434 -167.81 -176.612 -92.425 -57.8832 -101.875 -21.9137 -2.6695 3.87058 -2.18063 -3.057 -1.68968 1.27951 -1.69511 -0.0634172 1.41555 -2.16424 -2.31728 -3.55051 -3.77474 -0.358681 3.85548 -0.492692 3.36322 -3.29943 -3.49641 1.16733 2.84405 2.1682 -2.85562 3.35709 -1.1474 2.98561 -3.8735 0.30113 3.95441 2.14525 1.46079 2.43628 -0.744074 2.7504 3.66391 -2.82119 0.23194 1.98957 -1.90714 -2.98538 1.82142 -0.549036 -1.55923 -0.765485 -0.485306 -1.96995 2.85696 -0.0243566 -0.126473 -0.661603 -1.41898 1.87464 0.291146 -1.00349 2.65507 2.68937 0.442977 -2.17576 0.302085 -0.151461 1.04993 -1.47374 1.16938 -1.69254 -2.08315 3.10123 3.78652 -3.32089 0.602694 -0.655468 1.13715 -2.08224 -1.91953 -3.23089 -3.58633 -0.0431919 3.38467 2.24947 1.55779 -1.46149 -3.67738 2.54274 -3.84227 3.92797 -0.338288 -1.76929 -3.43798 -2.16389 -0.327492 -0.834622 -1.39403 -2.57623 0.198538 2.10425 -1.79577 -3.9667 -2.34334 -2.46851 0.152364 -0.915077 -3.87942 2.2022 -2.62513 -0.371906 1.02962 -2.84008 -1.6527 2.15643 -1.61207 -3.16941 2.24767 -1.7266 -3.38959 3.13908 3.72608 3.9758 -0.94249 3.36193 2.68491 -0.287871 1.04179 0.480538 3.16886 -0.431594 1.25165 2.56371 -3.8231 2.06981 3.14451 2.39603 1.29987 -0.543853 -2.29295 2.13436 -1.6755 3.36971 1.23667 -1.8278 -2.10335 -2.86088 1.36237 2.08146 0.855579 0.26051 -3.77239 0.478851 -3.94541 1.40088 -2.34486 0.0249993 1.98285 -2.14728 0.870446 -1.04377 0.739687 2.08513 1.27583 0.0860308 -3.75559 -0.78571 3.3409 1.9485 2.30269 -2.65461 1.10971 1.38046 0.239151 -2.29338 -2.42817 0.941428 1.49135 0.518063 3.05881 -3.87177 2.32467 1.11906 -1.1181 2.44846 -0.0229115 -3.88213 1.22675 -1.82183 3.10697 -1.91893 2.08337 1.24022 3.55749 0.982915 3.17969 -0.585965 -0.319067 -0.483958 -0.0824793 1.59255 2.9936 -0.330157 0.53786 0.350051 -0.199444 0.566708 -1.31981 1.77353 -1.97839 -0.366342 1.6836 3.3511 1.36224 -3.90352 -0.667025 1.43869 -2.99955 1.38156 -1.67761 -3.58026 -3.60414 -2.10014 -0.288479 -0.93704 -0.830925 -3.88492 -3.91838 -1.51724 -1.22694 -0.130871 -1.60594 -0.0736619 1.53127 -2.32388 -3.01293 -2.66442 0.272898 -1.66692 -1.63295 -3.30294 -2.63956 -1.06468 -0.260576 3.56089 -0.961446 -1.75815 -2.00309 3.8616 -2.58394 -3.49873 3.16683 3.11548 3.92164 -0.894999 -2.68833 -2.17168 3.67456 1.42996 -1.16388 2.01138 0.829388 3.30686 -0.19626 -1.14676 0.765839 -2.34969 -1.89108 -3.25346 -0.594622 -0.837794 -1.83508 2.25784 0.866279 -2.42172 -0.526448 2.64209 -3.90956 3.65871 2.00967 -3.61182 -0.435896 2.80618 3.73229 3.90895 -1.38212 -2.83246 0.450638 3.61273 -1.11593 0.118338 1.6115 1.57346 3.23622 -1.35936 -0.807503 3.44842 -3.028 -3.13609 3.89284 1.54232 2.39902 -1.18807 -0.011621 1.16461 1.70344 0.239936 -3.53755 0.929314 -0.343315 1.26567 1.41439 -1.1422 -0.938985 1.29801 -0.0236763 0.614333 -0.11039 -3.98224 -1.60516 -3.96305 2.19058 3.61703 -2.38982 3.70049 -3.52545 -1.82102 1.51947 3.41137 1.23173 -3.62608 -2.53383 1.0112 0.63616 -2.86525 -1.65028 1.27288 -1.53611 3.96074 -0.454961 3.97902 1.58749 -3.74218 1.32824 -3.53694 -0.900316 1.69132 -1.31444 0.285395 -1.83839 -3.53735 1.36273 -0.355702 2.67122 0.907835 -1.2462 2.75359 3.90526 3.35055 -0.639417 0.332779 -1.32191 1.89801 -3.91687 -3.55483 3.93638 1.68376 -1.6146 3.84101 -2.93053 -2.52123 2.27526 3.85644 -1.96641 2.36029 3.10085 2.5416 -1.32196 -2.41778 -2.30677 2.61944 -1.76822 1.31873 -1.27747 -0.18096 -0.0645115 0.590525 0.81748 -1.76365 1.31178 0.535319 1.89102 3.60467 -2.31251 -2.09883 1.42391 0.344518 -3.99392 1.82701 1.24793 -2.13324 -1.68299 3.67017 -0.31 -3.33699 0.598129 1.90533 3.48754 3.13318 -1.31923 -2.84362 1.57657 -1.65173 -3.11491 -1.90699 -0.846559 3.16046 -2.1925 3.48337 -3.32856 0.0649721 -2.42397 -0.00243833 -3.29988 -2.17855 3.32776 1.86218 3.10996 -2.2878 0.944152 -3.47408 1.31217 -2.97341 -1.9377 -2.92511 0.0927737 0.774344 -3.31985 -1.9808 2.53247 1.792 2.36178 1.27284 3.60516 -0.533411 3.59193 1.32412 -0.244361 1.98816 -2.51249 3.55868 2.81072 0.415876 2.9815 2.18327 1.88999 -2.95787 2.61969 2.669 2.54953 3.95364 -1.35697 0.0927946 2.8167 0.645413 2.04519 1.97386 -1.21629 -1.29486 3.56117 1.53359 -0.864387 3.43543 0.711582 2.87966 -2.99362 -0.810162 3.34263 1.00296 -1.51145 -2.93715 -1.82305 2.91208 0.77258 3.74314 2.58909 3.9647 2.16746 -1.09997 -2.42579 2.00333 0.0370031 0.607941 1.23962 1.20784 3.22143 -1.38907 -1.77187 -1.60531 3.36315 1.00949 -0.0587313 -1.11186 -3.86657 3.5822 3.26894 3.22782 3.37221 -0.587862 2.21253 -2.0628 0.816858 -1.75917 -2.34654 0.721061 -2.26557 -2.24154 3.76957 0.265145 -3.55571 3.09405 -0.954011 1.52574 -2.0123 0.86615 -1.08726 -3.10972 3.43275 -1.51464 2.85934 3.28769 -1.32259 -0.0126244 -2.12479 -1.0481 -3.68176 -3.82635 -3.15438 1.15728 3.47816 2.17186 1.95525 -0.304041 -3.81537 1.41883 1.11217 1.13532 3.15649 2.99913 -3.79156 3.35318 3.51751 -1.5724 0.88858 -2.40376 3.21984 -1.97659 3.45217 -1.26532 1.49689 -3.11754 0.657433 3.04966 -0.930298 -0.348878 3.80358 1.65113 0.217293 1.44973 -3.53548 2.8233 3.49879 -1.2829 3.57637 -2.4646 1.3509 1.11235 1.57322 -0.678129 1.54875 -3.32813 -1.27026 -3.14881 -3.97344 -0.958964 -2.04293 -1.47023 1.81891 -0.176509 0.241196 2.00795 -0.414155 1.47828 2.65851 -0.862113 -2.47059 -3.99356 -2.44697 1.55389 1.11725 1.77834 1.40293 3.07498 -2.22941 -2.69024 -3.524 -2.67985 0.1477 -2.45009 -2.68738 -3.13029 -2.89297 -0.715855 -2.78989 -0.976067 0.121479 2.12789 -0.749965 1.20604 1.10359 -1.34121 3.4614 3.69453 1.3392 -0.830343 -1.80443 2.54172 -3.59447 0.0705394 3.12904 0.897165 0.548458 1.74201 1.35748 2.39422 -0.418443 0.734692 -2.75186 3.76426 1.84598 0.0935275 -2.67503 3.723 -3.98066 -2.9305 2.6194 3.0514 -0.517704 -3.02761 -0.165782 1.63475 -2.73798 0.348575 2.14798 3.81137 1.06332 0.191552 0.158269 3.06162 -3.46973 2.21212 -3.17741 -2.85936 1.19112 -1.99677 2.67655 0.944908 0.481803 -1.15628 -3.51812 -1.90924 -3.23861 0.70993 -3.51 -3.57883 -0.912816 0.764112 -3.90801 -1.84488 1.58985 0.395728 2.11747 2.79201 -1.39554 0.329005 3.76817 2.4746 2.76436 3.31728 3.23837 0.0795067 3.22366 0.783604 -2.27914 2.2552 -0.512056 -3.36655 3.60833 -0.693824 -3.76509 0.163963 -1.42473 0.0255723 -3.3377 2.80292 1.50101 -2.2679 -2.0914 -3.13561 -3.43941 -3.86979 -2.847 2.91901 -2.82601 -2.39022 -3.39155 0.351908 -3.02485 3.31301 1.02084 -2.13379 3.98555 -3.86437 -0.943637 -2.82718 2.4195 -0.974456 2.17403 -0.854238 3.5744 2.74616 -2.95593 1.11949 -2.84898 -3.34619 -1.2519 3.19264 3.83182 3.3295 -0.0269161 -0.226993 3.70563 1.33828 -0.3145 2.55882 3.99368 -0.489137 -3.25447 -2.23754 -0.259928 -3.51437 -0.22405 -3.55338 1.65146 2.73717 0.0410291 -3.66498 -3.18082 0.337834 2.83501 -1.78007 3.52208 -0.630795 -1.83408 0.534074 -2.88304 3.91634 1.32123 2.48871 -0.856448 -1.2936 3.54981 1.58126 -0.666302 1.21992 -0.295096 -3.14513 3.5756 2.73349 2.45089 1.57117 -3.78789 -0.277168 -1.65147 0.650155 -3.82758 0.540335 -0.959362 0.0873567 -0.17194 2.03573 3.58237 3.54298 1.8461 0.107413 2.02348 -1.44853 -3.40337 -2.57294 3.22571 1.10657 2.13783 -3.99798 1.78991 -3.52996 -1.90926 2.36144 0.108079 -0.385789 1.05496 2.77155 -3.45471 -0.884784 -0.217821 -1.98745 -0.702037 2.99879 1.37392 0.412996 -1.88513 0.873372 3.75039 3.49518 1.0746 1.13101 3.94452 -2.9722 1.41056 -1.09565 -1.66972 1.79728 3.4787 0.660781 1.26589 0.696465 -0.505127 -3.8549 -3.88197 2.92203 1.73752 -0.35366 -1.35648 0.940509 2.01924 -1.61531 0.369591 -0.586208 -1.60648 -1.76383 -2.44283 -0.208414 0.257794 1.62943 0.121863 3.16497 0.457906 3.64826 -2.85704 0.211075 -0.889538 -2.24241 -0.853681 -1.35704 -2.31596 3.91389 -0.343236 1.75114 1.75261 -3.31557 0.593845 -0.917044 -0.161944 1.48252 -1.88551 3.1615 -3.08119 -1.62369 3.93797 -1.01679 -2.44418 2.02353 -3.63279 3.9169 3.23235 0.380159 -3.33492 1.0052 1.57938 -2.16075 0.213769 -2.294 3.0892 2.48449 1.15522 -1.08184 0.968551 -3.37189 -3.79085 3.82064 0.245644 -3.8361 -1.44572 1.42112 0.772909 -1.46343 2.58925 2.65115 0.676399 -3.62259 -1.69851 1.88681 2.79608 3.47091 -3.85295 -2.68597 -1.73179 -2.24489 0.366866 -3.92677 1.59715 -0.710206 -2.49662 -1.35282 -0.224968 0.840313 -1.04517 1.73818 1.68484 3.6284 -2.52714 -1.23399 0.91327 2.62852 -3.61533 -3.75569 1.67804 -1.73606 -2.74167 -0.484992 -3.79729 -3.73587 -2.10302 -3.62773 -3.67969 -3.77327 1.88206 1.63086 -1.63937 -3.04542 0.655812 -0.817814 1.51875 0.618598 -0.37973 -0.974893 -3.51157 -3.13072 2.31768 -1.88986 3.71503 2.6554 3.54241 -1.62203 -1.37983 1.3595 2.71388 3.27713 -2.36597 -2.90831 -3.92617 -3.60665 -3.96014 -0.477062 -0.313681 2.09819 1.00444 -3.20031 3.82837 -3.19228 -1.52247 -0.712882 2.70053 0.122301 3.05471 2.19659 -0.826183 -3.2639 -1.44073 0.995981 -3.69487 -1.73445 1.56775 1.92157 2.19058 -1.65481 -3.49503 3.77518 -1.998 3.62187 2.11225 -3.20237 -0.174922 2.20958 -2.61791 -2.9592 2.73927 3.76187 -3.29785 -2.93036 -1.44382 -1.94601 -0.444557 3.55701 -2.7843 -1.38398 0.604843 3.34958 -3.1192 1.96224 -3.56269 3.21997 -0.0222216 0.171488 1.23028 -2.84047 2.75775 -0.236118 -2.59852 0.598102 -2.99202 -0.0861044 3.95532 2.10663 2.62374 2.93618 -0.275929 1.11835 0.830527 -1.88151 2.1274 2.50164 -1.86106 0.714668 0.479442 1.31286 -1.71848 0.70867 1.83223 -2.77617 -0.681692 -2.98557 -1.92403 2.83096 -2.40133 -1.49833 -0.139183 2.99808 2.83592 1.09821 3.83821 -0.825815 -1.58987 -3.87098 -1.89231 -0.734879 -2.7754 0.32656 -2.00341 -3.48313 -0.538041 1.98752 1.61521 1.92753 0.265995 0.613506 0.520567 -2.75838 -2.51717 -1.23815 0.489817 1.72019 -1.96383 -3.39987 -0.78901 1.37995 3.64648 -1.14225 -0.0986355 2.73066 -1.84682 -3.38926 2.27733 1.36756 2.61781 -3.3559 -1.48988 0.949101 2.54385 1.72995 1.37993 -1.45497 -3.25415 -2.81275 -3.07595 -0.197437 -3.95938 1.66419 1.2409 1.00982 3.69909 2.17976 -1.64298 -2.78599 -1.81938 -0.0679095 -0.544705 -1.27149 1.03544 3.46787 -2.61704 2.91826 -0.101195 -1.61654 0.889399 -3.53199 -1.73021 0.298373 2.7536 2.01727 0.654664 -3.15438 -1.00216 0.840591 3.02113 1.72726 -0.92936 -0.440792 0.387304 3.11214 0.62499 1.20446 -1.46249 0.180874 3.5169 -2.65209 2.35793 0.679727 3.96199 -0.918369 -0.631473 0.0948124 2.01392 3.85253 -3.13294 3.10712 -1.23833 0.842041 -0.996562 -3.62584 -1.73022 0.151501 1.84333 -3.76007 0.91406 3.60175 -3.68901 2.55773 -1.50682 -2.72086 -1.99171 -0.20796 3.18362 1.2359 -3.42066 0.814872 -1.53438 3.74905 -2.30409 -0.695512 -1.37032 -0.260434 3.52118 1.07445 -1.81119 1.0312 -1.19803 -0.120196 2.59473 -2.90565 3.87535 -2.13245 -2.46711 -2.10529 -1.5244 -1.54279 -3.32635 2.45154 2.32851 -1.53471 -3.48389 1.57141 3.61682 2.64052 -3.1059 2.93384 0.451844 -0.884329 0.0576076 3.2744 -0.870308 -3.06562 -2.60024 2.96334 -3.49603 0.950069 2.67472 -0.24938 3.30877 -1.25933 -1.10614 -2.39761 1.39663 1.84034 1.33973 -3.4989 2.91489 2.66473 0.40981 -2.90011 -2.57434 -0.505381 -0.329565 0.0112176 -1.4509 1.99112 1.66438 -0.49752 3.78473 -1.33121 -1.20913 -2.78594 -1.77985 3.9942 1.35294 3.21946 0.346145 -3.70257 0.589184 -2.46971 -3.99804 -3.01936 -3.25078 -0.25844 3.77681 -2.93722 1.89543 -0.589199 2.67352 2.43547 -0.949211 3.85037 2.74472 2.61589 -1.86137 -1.21868 -0.0217227 1.34072 -0.481351 3.39635 -0.413679 3.08801 -3.76673 2.51686 3.31266 3.4334 3.5508 1.10546 -3.99852 2.52937 -0.269095 -2.16474 2.18719 2.27008 -3.87377 0.909568 2.72568 2.85647 -3.41148 -1.05162 0.2572 -1.41506 0.633889 -1.09117 -0.668098 -0.904103 -3.37369 3.95874 -0.77189 1.07621 -0.022422 2.23721 2.53524 3.80493 2.45322 -1.79588 3.28179 -0.336914 3.36256 3.25813 1.87146 -3.97981 2.7681 -3.80921 -3.06013 3.48515 3.76377 1.5111 -1.25668 -1.39127 -1.34525 -3.74519 3.83547 -0.907376 -2.82346 -3.24006 -1.03042 -2.03008 2.55719 -1.98021 -2.5756 -0.638845 3.20199 1.9295 -3.34328 -3.36547 3.78911 -2.30043 1.72498 -1.38682 -0.891929 0.467512 3.0063 -2.51853 -1.21297 1.67126 2.18477 -3.3344 -3.78791 -1.83222 -1.21627 3.59956 -2.23011 -1.97948 -2.54635 -2.54556 -3.72092 3.63694 -0.670763 -0.705096 -3.49826 0.729287 -1.97847 2.08935 -0.209794 3.29165 -3.77957 1.40934 -1.16044 3.06786 1.80219 2.37442 0.539519 0.289797 3.4946 -3.30371 -0.695308 2.17632 -1.60605 -3.34422 0.492623 1.63315 0.827254 0.0901375 -2.84202 -2.95291 1.28186 -2.04113 2.92368 -2.37598 -3.20698 3.95359 -2.37452 -2.71414 3.00742 1.48271 3.66089 3.16656 -2.10027 -0.194892 0.260363 -2.18338 -2.1028 1.14423 -0.962976 -1.82648 0.345113 0.75238 1.13729 0.234804 3.66515 -2.139 -0.140283 -3.34181 -2.127 3.72916 -3.91093 -2.07187 3.10867 -1.42042 -2.48873 0.716412 -0.760204 -1.01824 0.872297 3.58871 -1.90411 -0.258866 -1.60668 -1.01791 -0.0304374 -3.91691 -2.01238 2.68306 3.24479 1.86809 2.23153 0.503079 -3.96255 -3.91614 -0.775809 0.655482 -2.21447 -3.22568 1.01038 3.63802 2.39354 3.69472 3.68249 0.80181 -0.517323 -2.62409 2.34369 -0.83605 0.713615 1.54676 2.86495 0.643307 3.01331 -2.1814 1.81281 0.691177 -2.88584 2.26292 -1.41218 -0.197023 3.38198 3.71873 -2.32223 -3.7392 0.312826 1.4821 1.05199 0.446321 -3.40876 2.04535 1.58722 -2.25554 3.79952 0.0348079 1.71613 -1.19137 -1.07143 0.874621 -2.64934 0.437521 -1.55355 -1.48481 -1.1628 0.256016 -2.87744 2.15159 -3.3675 0.202707 -2.41258 1.92093 -3.54794 -3.08358 1.60658 -3.73791 0.804176 0.382133 -0.0910553 -0.88815 1.25534 -0.795221 2.56434 1.85985 0.528901 -2.04506 -1.44469 -2.75894 1.08101 -3.68235 2.44797 -1.84627 3.89833 3.71375 -3.64289 0.799842 -3.63305 -3.73933 2.36924 0.763937 -0.710831 1.30456 0.292137 -0.561044 3.98923 0.513059 -0.433922 0.891182 1.11379 -2.20296 2.38941 2.34686 1.16194 0.77525 -3.28553 3.0095 -1.06054 -1.63285 3.33334 -0.0813141 -1.92177 -2.79099 1.38827 -1.68831 0.884448 3.16462 3.22439 1.31007 0.875517 -2.45139 -1.05758 2.46241 -3.27571 -0.882025 -3.24196 -1.69997 0.847136 0.414173 -3.95116 -0.55801 3.13468 0.669196 -3.2825 -2.98149 -1.44031 1.4248 3.9278 -1.12351 0.0036372 3.55582 -0.646567 2.35315 3.41192 2.38439 -2.61684 -2.68723 2.89722 1.78915 -2.52212 -0.0486153 1.29215 -0.133758 3.53036 0.528294 3.09156 2.8168 3.69725 -1.42909 -0.942344 -2.39262 2.6113 3.74684 1.40794 -3.53642 0.181176 -2.35666 1.222 1.87198 3.50911 -2.90302 0.0301977 3.92827 -3.85263 2.83555 -0.354845 0.691391 1.22341 1.00836 1.84369 1.31019 3.87987 -3.06761 -2.44884 3.13547 1.89114 -3.36977 -2.19604 -2.24149 -2.82606 3.82661 -3.22952 0.704128 0.35635 2.44668 -0.315864 3.4903 -1.45285 0.181047 2.34859 2.04622 1.70772 0.627283 2.29453 -3.32162 -0.218402 2.74916 -1.19115 -2.06582 3.32809 -3.45496 2.69044 2.21277 0.544424 0.850737 -3.44998 -3.29524 0.103218 -2.3508 0.0189356 -3.61865 -1.66557 0.647739 -2.22492 0.997098 2.7638 3.5189 -0.685419 -2.54928 3.49274 -3.7085 -1.04992 -0.949449 -1.37042 3.68803 -1.60318 0.140256 -0.794405 -2.59514 0.879953 -0.0300775 -0.314598 -1.05037 -2.14721 -2.14678 -0.78613 1.91945 0.879114 -3.86484 2.8464 2.49455 -0.768192 -2.8106 -2.39415 -2.21857 0.291308 2.57293 -1.0919 -2.70201 -3.0095 3.21014 2.59035 -2.75687 0.429966 -0.32919 -2.0307 -0.149534 -2.73477 -3.4543 1.1741 0.381071 0.280122 -3.46776 0.142993 -3.29063 1.85743 2.9141 -2.56739 -3.48187 0.271399 -3.06156 3.73402 2.28626 -3.86329 3.57177 3.91137 3.02971 2.01163 -3.44111 -0.778755 -0.981344 -2.05217 -0.532654 -1.90205 0.386596 -3.46924 2.03657 3.76134 0.602238 1.71739 0.72879 1.00251 1.05529 0.610127 1.20057 0.742748 -1.37082 1.87676 -3.51139 -0.443096 0.0612812 0.626968 -3.55266 -0.0600397 2.40224 0.0319812 -0.865761 3.63418 -2.51937 -3.50959 -1.02013 3.48578 -2.21736 -3.39748 -0.689293 -0.212514 -1.53812 -3.43207 0.783751 3.29415 0.858341 1.20895 1.8877 -2.26464 1.06169 1.91902 2.12732 -3.59765 -2.93465 1.16598 -3.76911 -1.56365 1.39471 0.824511 -1.88526 2.43991 -1.10358 1.57489 -0.181425 2.94687 -2.22307 1.90903 -3.87059 -0.354096 -3.63374 1.22413 -1.87139 1.31748 0.102846 2.24541 -2.80536 3.09909 1.44144 -2.43521 3.29644 -2.95792 1.27101 -3.17014 0.362645 -2.35473 3.22891 1.42576 0.242225 3.69217 2.08304 0.0939978 -3.62794 2.8361 -3.18926 -1.68302 -0.715706 3.3405 -0.751348 2.33431 -0.657184 -2.32294 1.26652 1.61051 -3.47154 2.15657 1.19353 3.68974 0.233716 0.860525 0.631381 -1.70949 -2.67698 -1.71231 -3.43552 0.107973 -2.7424 0.287971 -2.86409 0.430976 -3.69702 1.33444 -2.96312 1.24357 0.622031 -1.6447 3.40082 -2.89712 -3.91305 -1.03841 -3.70635 1.43807 2.67563 2.9593 0.541859 2.37963 1.86603 -0.288827 -2.99637 -3.90536 2.9513 -0.538075 2.33537 3.85016 -2.42727 -3.45029 -3.36501 -0.149361 -2.91419 -2.09506 3.59106 -3.22816 -0.238528 0.0073804 0.945849 1.82062 0.587853 0.995928 1.29732 -1.80227 -0.737029 -1.47314 2.9723 -0.923457 -2.08313 0.600656 -2.46812 -1.24797 -0.165525 2.91908 -2.65024 -0.423531 -0.830886 -2.92277 1.63383 -2.3007 1.11553 -0.092861 0.771942 1.39544 1.92521 0.119831 3.73061 -1.78828 0.122086 3.46503 0.118849 3.51742 0.402462 -0.344882 0.592039 3.34147 -1.40941 2.13291 2.25626 -0.513607 3.31577 -0.0379012 0.85505 0.538047 2.11009 -2.12508 2.60644 -0.984109 -3.03825 0.320468 -2.00452 1.9308 0.14406 0.470474 -3.56835 2.2594 -2.23153 0.808985 0.774546 -1.52174 -1.81885 3.99729 3.22841 -2.11711 1.90501 3.71955 0.967423 -0.381156 0.605293 1.41866 2.36876 -1.31935 0.929676 -3.93604 3.21979 -3.65639 -1.76314 -2.62272 -2.90436 -2.10313 -0.902769 -2.56128 -1.7422 2.55057 -1.95639 2.47159 0.692521 -3.81178 1.83943 -2.47921 -3.86858 2.21649 0.0923376 -0.356274 3.27746 -0.181052 1.52187 2.75148 -1.84006 -1.32682 0.00526238 1.13501 1.11314 -3.05933 0.527221 -0.854502 1.17338 2.50638 0.169318 1.15676 -0.417937 -3.95556 -0.133652 0.851739 3.8957 -1.74514 3.71433 -0.182285 -0.386394 2.17284 0.302566 -0.926358 -0.221398 1.6824 3.53975 -3.48047 -0.506071 -0.0988282 -0.204891 2.23047 -1.66712 1.43405 1.90438 1.41878 3.57012 3.77922 3.77981 -3.3642 3.55474 1.83263 0.827405 -3.66717 1.72235 2.33179 1.39718 1.69037 -3.94367 -3.73145 0.992504 2.38105 3.46992 0.150491 1.62224 2.38556 3.07857 1.35924 -1.64538 2.69491 3.74935 -2.68111 1.11226 0.589214 -1.26244 2.56161 -0.564352 -2.68352 3.32507 -0.0536913 2.46795 -0.266992 -3.47658 2.67277 -0.554488 3.30966 -3.37746 -1.3052 -1.54823 -0.231353 -3.21449 0.728701 -1.25659 1.03436 3.37447 -3.14846 -2.51485 0.548691 0.136589 1.6 -2.70028 -2.82195 1.11822 -1.76659 -0.56644 2.40674 -0.253934 1.96169 -3.58146 -2.08599 -0.817544 3.89697 -1.12632 0.443314 2.4029 3.2489 2.47809 -2.29358 2.28444 1.06615 -2.07018 -3.88989 2.92301 -0.453457 3.15924 0.334354 -3.51073 -1.94081 2.07508 2.27677 0.290772 0.467807 -0.715566 -2.93278 3.12776 -2.33298 -3.86826 1.75775 -1.71941 2.8444 2.87263 -0.057 1.42442 -1.91111 -1.40016 -0.178127 3.29799 3.91896 -2.49787 3.38932 -0.513699 2.95224 -1.79582 -2.31117 -0.194093 -1.97991 -2.48098 -3.72174 2.82165 3.12481 -3.79598 -1.12572 0.5973 0.910947 0.032038 -1.03175 -0.265565 1.99912 -0.205457 -3.91527 -2.48035 -1.98261 -0.255087 -2.50031 -3.42221 3.81181 1.80017 3.96371 -3.80233 -2.53473 -3.51934 3.15769 -1.86978 -2.068 2.9962 -3.59157 0.0848996 1.06577 -1.72983 0.236629 2.19452 -0.158539 0.566712 2.5757 -2.69238 -2.22599 -2.86398 0.833518 2.27661 2.90146 -1.02318 3.67426 0.237573 -3.45644 1.4402 0.337134 -2.53208 -3.09931 1.09441 3.6271 0.490451 2.8397 -1.33349 -3.90404 2.69834 -0.488123 -2.3905 1.33291 1.42723 -3.51429 -1.91265 2.56708 -0.451576 -2.57217 -2.14902 2.91438 -3.04953 1.78391 3.1646 3.44763 1.02838 -2.53884 -3.39785 -0.765748 -2.36902 3.37948 -3.53019 -1.89681 2.34282 2.13445 3.08188 1.37351 -1.81571 -2.16632 -1.17036 1.7858 2.31491 -3.13883 -1.65045 -2.84407 2.20385 2.61881 1.2497 -0.431704 0.0621593 -1.35815 3.80498 -2.97276 -2.13987 -1.25542 1.51028 -2.16198 1.05968 -3.01612 3.70747 -1.50721 0.596711 1.63338 -2.84352 -1.74219 -3.63702 2.16885 3.39497 -2.67582 -1.00505 -1.31009 3.58912 -0.216857 3.61721 1.59335 0.00944413 0.161041 2.66099 -3.32791 -2.80344 2.79035 1.08579 -1.06626 3.95282 1.91593 2.13832 2.11643 0.696298 0.91271 3.12648 -3.67643 1.61843 -2.80391 -1.34238 2.30205 0.214139 3.46663 3.63281 1.74993 -1.59278 -3.94428 -3.1004 -1.30644 -1.69546 2.08755 -1.78026 -2.71087 -1.22967 -1.63254 1.25636 2.22166 -2.53857 2.52239 3.27929 0.871034 -0.926387 3.89517 -1.22174 1.7952 1.63144 1.44737 0.917662 3.78728 -0.677641 -2.92592 -0.515427 0.756166 1.19334 0.645531 -0.0851875 0.730544 2.94811 -1.49493 1.04765 2.92976 -1.04764 3.7161 -2.53536 3.98706 1.31472 2.67346 -0.971206 -0.195057 -1.21293 0.533867 -2.89162 0.952897 -3.10189 3.03832 -2.76448 -2.67163 1.68923 0.556815 -1.30387 1.40027 1.10501 2.78056 -1.11597 3.73757 -0.354846 1.49708 2.50331 -3.02741 0.861079 -3.62621 -2.33885 2.21858 -2.98782 3.71232 2.30127 -2.73275 1.85381 0.91573 -2.59601 3.97113 -2.85808 -0.45062 -1.65562 -3.74631 -2.58265 2.80517 -3.13368 3.40735 -3.79082 3.25683 0.790656 -2.42752 3.3775 3.85298 -1.99701 -0.806951 -1.99938 -2.62247 -1.35266 0.380438 -3.74517 -1.14484 2.78613 -3.52461 -1.44937 -1.85733 -3.24045 -2.89076 0.747858 -0.962785 3.44242 3.40112 -2.95748 2.15334 3.0811 2.37284 -0.302831 2.19068 2.30642 2.24423 -2.73178 -1.8758 -1.0085 0.0974045 2.91461 -0.828508 -0.743089 -2.4204 -0.39908 3.00209 -1.75751 3.07837 1.29305 2.65306 3.00111 -2.65604 1.86154 0.241107 -1.70964 0.423937 -2.2806 -3.71983 -0.82723 0.00223279 0.850367 3.65617 2.45679 -3.44197 -1.75919 1.6436 -3.63253 -1.79228 -2.7196 -0.66116 1.25818 -0.796606 0.210714 -1.5764 -2.05287 0.513554 -3.37134 2.54862 2.32497 -2.26435 -1.94549 -1.7253 2.55309 -1.51399 0.409969 -2.82705 0.524147 -3.34017 -3.47396 1.40926 3.97605 0.625839 0.181551 1.1266 3.27505 2.76313 -2.20769 -0.781704 0.856676 -3.71732 -0.64199 -2.92433 -3.88473 -0.237451 -2.37511 2.06988 0.756522 -1.18224 3.75112 2.2336 2.35788 2.48832 -2.80089 3.91816 2.21003 2.97258 -0.136673 2.39022 -1.51841 2.7838 -1.8818 -0.707411 -1.98776 3.75245 -3.99607 -3.14197 1.45916 0.657841 -2.79381 -1.61072 1.4702 -0.213327 -2.86913 0.471834 -2.63793 2.80792 -1.80958 1.51819 -0.390619 1.98599 3.42166 3.55516 -2.00247 2.61052 0.676853 -0.826062 3.77358 -3.40365 -1.19245 -0.798708 -0.083691 -3.68852 2.73049 -3.94072 0.448706 -3.90943 -1.75537 0.0173944 1.33589 0.566235 -3.12312 -3.14445 1.71642 -1.81551 3.91242 2.05269 0.851337 3.17366 -0.231351 -3.34964 0.395503 1.92213 2.74067 3.12623 -3.154 3.44766 -3.3752 0.671061 2.48213 3.94746 -3.59596 -3.33111 0.00296167 0.497208 1.31937 -0.524216 3.64477 0.397452 1.96343 -2.42455 3.50194 -0.695412 -2.55292 -2.83926 0.0165127 1.98271 2.50328 3.34826 -2.4895 2.56099 -2.20075 3.77106 1.46191 2.88714 -1.42803 -0.693754 1.42505 -1.25608 3.17687 1.95606 0.443415 -1.98823 -0.0365482 0.766561 2.40444 -2.54448 -3.6789 -2.97478 1.50768 0.491929 -3.03402 -2.97143 -3.8579 3.88394 -1.4797 -1.99717 -0.835876 -1.61128 -0.754952 -1.37085 -1.98837 2.99459 0.23086 -1.48937 3.55346 1.28956 3.55962 0.611468 2.97941 -3.28971 0.00610648 -3.12318 3.15486 3.8946 -3.456 -1.86058 -3.41453 -2.49433 3.30765 2.55447 2.30903 -3.88501 -1.9943 -0.847477 -3.29858 -0.702456 -0.933629 -0.599779 -3.30265 -1.65467 2.07574 1.95299 -1.97174 -3.93922 -3.89004 -0.836346 -0.731187 -3.0286 1.06594 2.53717 2.06901 0.192412 2.684 2.33263 -2.4118 -1.10563 2.49172 -2.69 2.05071 -0.94543 -0.604744 -0.506735 3.87322 0.525872 -1.85646 -2.8094 1.8068 -3.9964 1.08447 3.23866 -2.3853 0.698081 2.24468 0.684523 -1.93956 -3.75848 2.17064 -1.80892 3.76336 3.13011 -1.94458 0.0988829 0.614008 -0.131155 -3.38622 -3.6424 2.7745 3.38168 -2.21114 -3.61649 -0.229261 -1.40574 -0.59248 3.63025 -2.90154 -1.13555 -3.3284 -3.63293 0.639232 -3.08934 0.786456 -1.32018 0.406692 -1.3055 -3.7037 2.8447 -1.46802 3.71294 -1.14082 -3.68699 3.21869 1.01079 1.34666 0.324082 -2.90628 -2.47587 -3.19087 3.71808 -1.32113 -1.57873 1.39459 1.63716 1.20565 1.2731 3.49305 0.923869 -1.4562 -2.36864 0.166352 1.02848 -2.08494 -2.95031 3.632 3.21227 -1.23045 -0.589031 -1.12702 2.94506 -0.00573341 -1.19214 3.05909 2.68079 0.157125 0.519247 -2.71861 -0.875017 -3.97213 -3.50437 -2.67604 3.19056 -1.04767 0.0580665 2.56359 -1.63934 -2.18195 -2.56948 1.28383 -3.68871 3.89208 0.405596 1.67768 -0.450899 -3.4173 -1.07699 0.509392 2.46836 -0.207493 -3.06111 0.294957 -1.10188 -3.89303 2.68914 3.64988 -0.493722 2.60021 2.80807 3.42008 -1.06669 2.68773 0.335847 -2.881 -1.42758 -1.23689 -2.90075 0.208546 -2.20361 3.8636 2.12422 -3.13386 1.29423 -2.32114 0.960854 2.45331 -0.631177 -3.70245 0.474909 0.150083 1.89582 -0.0700718 1.07273 -2.94682 -2.77762 0.443378 -2.85017 -1.71369 -0.457279 -2.71204 1.65152 -2.21022 3.52587 -1.46097 -0.352604 -3.6255 2.80124 1.20856 -2.31125 3.85331 -3.72428 -3.30329 2.28725 -2.65191 1.54799 1.05222 -1.98338 -0.743118 3.05426 1.43475 2.00153 1.87582 1.33214 2.79066 0.450982 -3.69904 3.98934 3.55122 -1.91595 -1.98922 2.20435 3.30352 -3.26711 -0.734618 -3.42228 0.760486 1.0269 -2.73813 -0.215889 0.304464 1.0539 3.86197 -1.19784 -3.72024 0.98742 -0.275445 -3.52035 3.51043 -2.624 -3.62593 -0.771578 -2.23832 0.0614607 2.55579 2.90768 -3.89314 -3.75179 2.59323 1.11524 0.190952 -3.16725 -2.12644 -3.70663 -2.1366 0.967611 3.88615 2.15629 1.65728 -2.22945 2.05835 -0.324344 -2.76028 -0.85623 3.30681 -3.09893 0.591754 3.62351 2.0111 -1.69742 -1.60361 0.924922 -1.36869 3.54674 3.18715 -1.04811 -0.446457 -3.09901 1.36892 -0.374916 3.45206 -3.19158 -0.914648 -3.36185 1.40361 -0.166775 0.685328 -0.130317 -0.589492 1.67161 -2.02474 -2.60432 0.924688 -3.10231 2.65697 -2.3197 2.95864 2.98022 -3.79022 -2.8044 2.35634 3.10096 3.71316 -1.42575 -3.71036 0.961456 1.22763 -3.47328 0.374757 1.89134 1.31444 2.84692 1.16677 -2.50849 -1.09577 2.55002 -0.581683 3.3149 3.75384 0.942738 3.36796 1.73263 -2.89974 -0.675379 -2.54391 -3.34222 -1.3262 1.15323 1.03774 -2.71583 -0.154533 -3.7281 0.390295 -1.05541 2.94934 -3.45208 -2.46083 -1.00027 2.52795 0.908437 0.957212 -0.637894 1.74581 -0.152727 3.186 0.428792 -1.46519 1.99592 -0.578118 -0.172224 3.897 3.98683 -0.764771 3.01396 0.0729631 -0.351565 1.0075 2.12432 -1.75317 -1.32651 0.770102 0.606795 -0.8681 -3.94141 2.99199 2.10899 2.70562 0.28316 -2.03048 3.36393 -3.17999 0.0251943 -0.0605 1.40246 3.07793 -0.0308652 0.201268 2.25128 -0.348663 1.97994 -3.37994 -1.99426 -3.64257 3.23426 -0.0562599 -1.15512 -3.851 3.73282 2.23267 1.73578 2.90166 -0.617356 -1.76184 -1.32125 2.57918 -2.64452 -2.15025 -1.11489 -0.089362 -0.234319 -2.29574 -1.81693 -1.78132 -1.65149 0.297884 -2.3098 1.01231 -1.80383 0.140589 -3.51839 -1.22117 3.56116 -2.9109 -1.75673 3.28359 2.96076 2.58632 0.0509829 -1.32549 -1.74968 2.75415 -2.5355 2.24065 -2.87288 1.96197 -0.546991 3.8622 2.42008 -3.00658 -0.808072 2.99485 -1.03065 3.1513 0.91542 -3.76462 -2.93124 3.39559 0.347252 3.5071 -0.142074 3.84557 2.80132 2.61006 -3.16614 -2.41392 3.5306 -3.93602 -0.937194 1.04302 -3.98989 2.24695 -1.77762 3.89528 -0.80753 2.46977 1.58332 1.74178 -2.17345 -3.77915 -1.26538 -0.712666 -3.24713 -3.08549 -0.0272926 -3.6178 -2.06397 3.43437 2.5222 -2.84866 1.39902 -1.51898 0.183188 -2.64926 -3.62587 1.66929 -0.883432 -3.70474 -0.132583 -3.09943 -0.551091 -2.37551 -0.0206405 3.10779 3.55439 -2.2772 -2.31431 -2.87181 2.42319 -3.17118 -3.13162 -2.58348 -0.997386 -2.69183 1.85097 2.94127 2.39937 2.88151 -2.45118 -0.231619 -3.10323 3.79785 3.18889 -1.04761 2.87329 -2.3082 1.93498 -1.9519 -0.839893 0.967379 0.673618 2.3774 2.62519 -3.94897 -2.47226 -0.266163 1.15477 3.8274 3.78442 -0.21812 -0.560192 -2.3689 -0.291434 -2.41455 1.23341 1.55311 -2.35687 2.8935 2.78391 2.60288 3.53646 -0.420171 -0.561059 -1.07389 -3.51662 -1.81703 3.27294 0.665252 1.33879 2.32818 3.77596 -1.75529 3.92425 2.81173 -2.48968 -3.70854 0.199642 0.668839 -1.25265 -0.292557 3.15895 -3.71273 -2.37329 2.20531 1.7927 1.16466 -3.0336 0.585364 3.43541 -1.20839 -2.58644 -1.26373 -2.00057 2.15229 -2.65456 3.07923 3.81868 -1.42313 -1.1313 -0.125524 2.45805 0.561109 -0.776594 2.74522 -2.95451 -3.63453 -3.91728 0.845762 0.458546 0.130372 -2.83146 -3.50626 -1.68418 2.83674 -0.118374 2.43444 -0.934663 -2.5453 1.35224 3.60964 2.77801 -3.93985 0.978936 1.95088 -0.367336 2.42769 3.61614 1.39431 1.42625 3.34761 -1.12775 3.3128 2.00227 -1.87798 -2.48999 0.550397 1.19177 1.00276 -3.99647 2.53594 -2.05882 3.34452 0.11655 1.84651 0.0405633 -3.94088 -2.18195 1.35252 -2.36106 -3.66597 1.92579 0.508221 -2.81993 -1.76769 2.59407 0.0369609 -1.22826 -3.86878 2.43294 2.82577 -1.55743 -3.75381 0.348095 1.58848 -0.81136 -3.53038 -2.47642 1.85258 -0.184217 -2.94284 0.883669 0.237587 -1.6656 1.58627 -3.82104 1.69425 -2.14112 -2.15855 2.18006 1.39032 -3.43738 2.41725 -0.784815 -2.21434 3.90066 -2.49677 2.27784 3.34572 -0.102603 0.844451 0.701321 2.26763 2.09109 -3.40703 -2.47455 1.15625 2.66612 -2.92977 -3.18476 2.49857 1.29013 -1.05513 1.55536 3.49342 -2.38947 3.78867 0.28259 1.12112 2.13148 3.69963 2.15415 -2.58196 3.5279 2.68342 0.834791 -2.49023 3.80231 2.88578 2.88843 -0.819204 0.755429 -2.4721 -2.77971 -3.52585 3.57887 -3.71885 -2.16914 -3.11199 -3.44493 -1.55585 1.98907 -3.40644 -0.161167 -3.76416 -3.80837 -3.36052 0.204265 1.54619 -3.29162 3.27898 1.90737 -1.35932 2.32379 -1.8688 -0.197004 -0.623758 -1.84372 1.69606 3.129 0.485466 -2.54792 -2.23085 -3.77836 2.91778 2.13123 -2.42174 1.16825 0.606441 -2.40898 1.15208 -1.63639 0.101088 0.0658839 -3.8794 -3.44107 -1.49976 3.70332 -3.6401 2.64052 0.27417 3.96963 -2.77452 0.965756 2.66818 2.92784 1.81955 -0.193489 1.01245 2.52002 1.42386 -0.132487 -2.97717 2.69676 -0.140735 0.609868 3.25309 -2.84471 1.88428 2.23968 0.631785 -3.79033 2.53987 0.511938 3.11667 0.453148 2.65358 1.40546 0.905712 1.12675 -2.9901 -1.18081 -2.39132 1.99993 -2.26111 -0.915455 -1.35088 -1.56678 1.22961 -1.80286 2.00968 -2.95242 3.12357 0.970995 -2.97271 0.791903 2.17788 0.504384 1.08602 2.51167 1.0878 -0.453166 2.68376 1.16521 3.55003 -0.60251 -0.861327 2.08336 -3.52465 -2.09857 -2.85813 -2.3882 -1.858 0.385491 -3.62586 -0.0910006 -1.03168 -0.373038 3.45718 -1.28875 2.98445 1.70255 0.690071 1.73724 -1.92918 0.346056 -2.4282 3.42679 3.52474 -0.216299 -1.34106 3.93858 1.97285 3.20004 2.60947 -3.60814 -2.22093 3.64123 0.15962 -1.29667 -1.61826 0.63279 1.00247 -2.99119 -2.57624 -1.84279 -1.25136 -3.9972 3.38314 -0.442699 -2.5062 1.92888 -3.58571 -1.57801 2.72201 3.4572 3.17861 2.69007 -1.21378 -1.01486 1.07597 2.65334 0.221231 2.30114 0.77363 -1.73743 1.49698 -2.21619 -2.74997 -3.16916 2.25397 -0.200216 0.735078 -0.900451 2.02215 -0.744798 -2.39868 1.88887 1.22206 2.12394 1.54413 1.42828 -3.8215 -3.25411 0.721452 -2.95449 -1.57048 -3.00694 2.82693 -0.0266284 -0.227073 0.842878 1.99049 -0.0128777 -2.51245 2.22683 -3.2377 3.19538 -2.00572 -0.178378 -0.614673 -0.761736 3.815 0.214166 2.62339 0.371809 2.33504 -2.83579 0.614391 1.12433 2.5761 1.21588 -1.55624 -0.737368 2.02872 1.63977 -1.75391 -2.02258 -1.36629 -3.54391 -3.84451 -1.53784 -3.39225 2.72286 0.0131551 1.86101 -2.40162 -3.91709 1.39871 -1.96011 -0.2935 -0.418961 0.648651 -1.70107 -1.80545 -2.51556 -0.258634 -3.09343 2.00228 -3.41912 -3.17289 -1.25884 0.338361 -0.872682 1.64775 -0.84977 3.70802 -1.07973 3.92889 -3.70785 1.48652 2.99423 2.86878 2.07985 -1.27592 -1.68749 -0.434219 -0.342212 -3.66318 -1.26964 -2.51394 -3.71953 3.49895 -0.0569025 -3.39483 -1.65185 0.999912 -1.85274 -1.31259 -0.240816 -2.27387 3.09937 -1.02197 2.8707 -0.791255 -3.48589 -1.97234 2.74633 -2.65402 2.0278 1.17539 -0.55502 -1.68028 3.17148 3.15371 -3.73296 -3.54953 -0.438396 3.60691 -3.12326 -1.29378 -3.0697 3.70092 0.866449 -0.144189 2.21801 0.16473 -2.18883 2.54958 -3.64937 1.46724 -3.50336 0.801333 -3.22638 2.0501 -3.95664 -2.19254 -0.0367857 -3.10487 -1.81868 -0.418511 0.531952 -1.40273 -2.19404 -2.56617 0.845135 -0.582195 2.52053 -2.28303 -0.126022 -3.93313 -2.29306 -1.32173 -1.0894 -2.47718 -1.31221 -1.49884 0.212211 1.58048 1.27732 -1.41562 1.00557 3.10968 -3.04374 0.737481 3.01865 1.46455 -2.223 3.0692 2.12603 -1.29742 1.85253 -1.50566 -3.032 2.11715 3.43943 -1.2265 2.26939 1.10023 1.43219 -1.37641 0.417472 1.76124 3.31866 -2.24046 1.21887 1.21428 -1.69837 3.15012 1.80277 2.8769 2.59577 -0.336791 -1.36812 0.0306696 0.463602 0.0599092 -0.660078 3.63631 -2.18584 -1.71348 -0.532641 0.0440436 1.83432 -2.54339 -0.164073 0.970008 -1.3958 -0.231775 -2.59103 2.38644 0.896337 0.23164 1.25659 -2.55439 -1.25421 -2.3209 3.09243 2.90802 3.32123 2.11847 3.11727 -1.02876 2.36792 -0.483822 0.613613 -2.49205 0.402464 3.76582 0.575335 0.754974 2.47884 2.96253 -1.89432 -1.46182 -1.74916 3.89094 2.43871 -0.792379 3.26861 3.78056 -1.91555 3.44416 2.3124 0.0631592 -3.3639 -3.06718 -3.7215 -1.01457 2.55675 0.914447 -3.66645 -0.648747 2.62101 3.59564 -1.92636 -1.45132 2.55765 2.98771 -1.5559 -2.28517 -0.496418 1.91619 3.33344 -0.967536 -3.75505 -0.21644 2.8315 2.87738 0.718352 3.9015 1.40861 3.13678 3.0222 0.33785 2.50557 0.0560449 1.23755 -3.40848 -0.448788 2.98486 -0.398927 -1.64243 -2.54273 0.289691 2.89714 3.74418 2.18482 -0.707945 0.162981 2.56089 -3.22861 1.14005 -2.9116 3.42048 -0.668404 -3.66853 -1.00866 0.355776 -1.97655 -3.24319 -2.45357 -2.11647 0.181251 -3.43445 2.49034 2.46158 -3.76147 -2.41493 3.77456 -1.48268 0.184463 0.706535 0.568338 -2.9938 3.10468 -2.69677 -2.87577 -1.7052 1.3136 -3.81769 2.81368 -1.73157 0.905331 0.999266 -0.919068 -1.90949 -1.48857 1.32876 -3.53634 3.05345 -3.59912 0.755638 -3.96967 -1.98409 0.760744 -1.86719 -1.62013 3.1601 0.126523 -2.6547 0.172263 3.05819 1.82118 2.81158 -0.944904 -3.90419 2.28989 -2.52799 3.97645 -3.89471 -1.58351 1.62593 1.76992 1.18013 -3.44938 2.89727 1.4767 -3.89809 1.46878 -0.835497 1.72041 3.43032 3.54989 2.88921 -0.900555 2.91386 1.94663 -1.34128 2.48945 -2.73631 -3.02138 -1.20297 -0.578465 1.90689 -3.83485 -0.625633 -2.48859 -3.65852 -0.482313 -3.49812 3.40902 -3.59647 -3.41279 -1.20174 -1.892 1.98527 0.6523 -1.26842 -3.04 0.964762 -1.5116 3.60768 1.1264 3.23211 -3.44658 0.614234 -1.09851 3.49593 -1.21583 0.78281 0.696557 -2.99886 -1.18532 1.62294 -2.25077 3.92047 -0.61358 3.8319 3.8166 3.19391 -3.59153 -1.96771 0.6112 -1.30193 3.93997 -1.48477 0.130355 -0.0288235 -0.42886 -2.62091 -1.20327 -0.725283 -0.803679 2.10106 -3.04254 -2.04907 -1.22854 2.3988 2.31313 -0.435836 -3.77755 3.58311 -1.24897 -1.40437 3.13692 1.79844 -1.6858 3.5878 3.77019 1.18848 -1.32004 -0.371699 -0.338567 1.61914 -2.30827 1.46362 -3.45594 -3.99988 2.1008 3.40044 -0.247128 2.21494 -3.72957 2.67153 -2.31457 -3.68175 -1.37515 2.91962 0.802158 -2.75405 -0.0581088 -0.992258 -0.958824 -2.8654 3.2348 0.123086 0.0833606 1.52558 3.14258 0.827605 -2.20218 -3.2903 -2.19852 0.676699 -3.06608 -1.02156 -0.209607 2.90106 3.12858 1.5345 1.38026 1.60672 1.1807 1.61811 1.07735 -0.408247 0.585918 -0.875901 3.43117 -3.6764 0.540512 1.83403 2.27795 3.59849 2.2913 -3.01865 -1.42074 1.91256 -2.44355 0.810558 1.06524 3.34278 -1.70362 -3.29535 1.73297 3.17262 1.79766 1.30248 -2.36873 -2.43719 1.93313 0.889874 2.86133 -1.40798 -2.66781 -2.89195 -0.858075 1.15888 -2.77585 2.75315 -1.26749 -3.78388 0.784088 2.45166 -3.14709 -2.75611 -3.24141 0.740577 3.02559 3.13985 0.977568 1.79486 -0.460529 3.55888 -3.09914 2.40826 2.64394 -3.61297 1.36118 -1.14581 -0.110413 -1.84521 0.589987 -2.40471 3.40951 -1.10874 0.78386 -0.77904 -3.06699 0.459394 1.21833 2.25403 -2.04676 3.14912 0.0538608 3.36111 2.2239 0.779028 -1.1921 3.66234 -1.35855 -3.24094 1.88097 -1.64613 0.0815773 -0.773288 -2.89855 -3.15825 1.63976 0.594024 3.60414 -2.51191 2.03086 3.44423 -2.18894 3.97413 2.7903 3.3117 -1.32929 3.93697 3.46515 -3.4169 -1.3392 -3.36643 -1.30939 -2.21656 -2.90537 1.38264 2.07216 1.49864 2.5167 3.25282 -3.58992 -1.3922 3.72332 2.52005 1.80947 -2.85823 0.922 -0.342761 -2.38123 -1.06998 -1.30993 3.8653 1.01428 -2.76293 -3.51961 -1.38073 3.06392 0.0705309 1.18259 3.97415 -1.556 3.79704 -3.10691 3.87763 -3.38513 0.588003 2.78835 1.74852 -2.58568 2.60932 -1.10658 1.58821 -0.37885 3.04259 -0.426983 -2.65229 -0.477514 2.91938 -3.11924 3.26248 -1.28202 3.45864 1.08623 1.12393 -1.76297 -2.84918 -2.14598 -0.656571 -0.458126 -1.41168 1.37736 0.881092 3.99717 3.54169 3.10601 -3.77987 -0.198687 -0.856155 -1.62537 -1.85151 -3.01962 -1.8693 1.83166 -3.26321 -3.28426 1.67906 2.02053 -2.69331 -2.4787 -2.75919 -1.38801 -1.63382 -3.81995 2.60204 -3.53604 2.55017 24.4637 134.134 140.851 138.378 126.791 103.474 84.4477 67.128 55.1696 62.3647 65.0593 54.3027 53.5713 46.2694 50.8704 50.5135 49.1123 56.7511 61.3727 59.106 61.5839 65.8669 57.9137 51.2421 70.3113 115.38 134.359 28.5332 -3.36516 -0.633977 -0.653818 -0.221729 23.5764 132.253 124.757 98.0494 64.2321 50.354 52.3761 52.3558 57.809 53.4892 51.6626 50.8136 47.4171 51.9629 60.0984 66.1352 73.9163 71.8311 55.5545 61.6625 46.7715 43.8068 50.059 51.5726 58.4958 60.3572 82.6438 15.0863 -1.10681 0.980059 -3.29767 -3.84027 20.0508 94.4837 70.7478 37.909 38.7458 38.0628 54.1178 54.2176 44.3322 49.0639 71.1693 52.7347 51.1349 37.0576 57.2133 61.5694 60.363 52.3289 53.9102 57.2611 66.0272 57.9291 51.9509 57.6075 52.4296 52.5258 59.9426 6.81574 1.81564 -0.819433 3.89893 1.42755 9.85747 50.6468 43.5727 42.326 48.5296 50.1352 55.2942 35.5195 49.5081 67.4168 85.2939 54.2265 47.695 48.3761 62.4735 61.4085 56.4475 47.7187 64.0076 63.0872 49.5108 56.3603 73.2251 76.1855 66.1029 64.3491 46.8613 7.93082 3.59032 -3.52138 1.81051 2.62736 6.86491 57.3007 51.3365 41.3566 37.5262 52.4204 46.0989 69.7075 120.817 115.83 104.887 72.4938 94.9973 64.4036 51.9428 53.265 53.9957 52.1298 54.1172 50.7117 46.6271 44.8691 68.9103 76.995 77.3116 73.8796 63.5272 14.179 -0.1134 1.46416 -1.85578 -3.25826 7.8272 49.6291 48.3335 37.4329 54.5909 53.2755 42.0572 64.4167 84.3555 81.3081 105.941 122.915 127.672 79.3142 49.3047 51.534 58.8446 63.4325 55.2046 52.6134 46.5732 36.263 62.899 77.7677 81.0006 88.5847 78.7437 15.9406 -3.32214 3.64793 -2.85134 -1.03515 11.591 47.5379 44.2703 44.3144 43.1147 39.676 34.8029 46.7982 82.5322 108.467 138.066 133.722 106.122 80.6203 72.8155 89.6475 123.943 113.836 55.1439 53.8859 55.6361 44.181 49.5566 79.5461 78.2798 82.3349 91.0342 14.7408 -1.20491 -1.20674 2.07861 1.29106 6.65712 37.9464 38.5539 41.4941 34.567 41.7013 34.6802 37.6848 115.543 146.127 146.486 139.86 89.6151 84.7807 79.2666 120.599 111.852 78.6942 50.0988 41.0933 42.3381 48.9359 53.6837 69.6222 74.9119 75.6713 80.4504 12.1318 -2.03637 0.616079 1.13631 2.16806 11.5061 39.3683 30.0824 27.3385 33.542 59.4761 45.5463 83.7812 123.348 144.758 136.483 135.403 117.733 86.3289 49.9183 129.499 124.277 71.1268 50.1376 31.156 36.8675 44.6926 53.1396 56.5543 71.7238 73.4585 85.3309 19.5612 -2.91184 1.14015 3.69486 -0.582116 6.54385 33.0743 18.4868 16.0211 32.3816 98.0629 127.683 122.341 108.599 88.0401 82.0741 77.1227 122.008 74.3723 37.94 82.8519 104.854 79.2956 63.0297 37.0636 26.2892 28.9549 47.0749 65.3145 85.5904 82.8875 95.0881 21.0432 1.52826 -3.58149 -3.01487 -3.52284 1.58032 27.5023 20.9884 18.6043 41.2884 129.562 100.027 104.64 94.8952 63.9932 73.7033 81.2486 116.464 64.7816 34.1037 74.1075 76.122 70.9795 55.1804 36.8435 23.3209 28.0201 36.4109 71.934 93.4696 90.6769 86.9355 20.519 -3.80393 -3.36911 -2.13265 0.288313 3.93854 37.0934 29.0331 18.3883 45.0508 88.3873 85.3293 88.6475 93.2413 54.0776 46.2549 69.1252 139.169 63.7336 29.1353 62.1488 73.0165 63.1742 45.3315 52.2625 38.7818 39.7124 43.6523 73.2545 86.0211 103.117 93.4109 12.6424 2.62913 -0.877367 -3.35824 1.65692 3.87376 29.1807 38.1429 34.3249 51.3243 55.5952 58.3566 71.0297 90.0449 103.451 106.637 123.036 120.303 72.3869 47.8989 72.5239 69.7339 63.2391 65.4823 63.0339 59.0222 54.9396 58.6065 52.381 61.559 85.1186 78.8903 13.8005 -0.887658 1.8252 3.11369 3.70091 1.08671 36.1201 59.6369 32.7326 41.5449 41.9313 62.7958 85.2903 93.1212 116.683 103.587 97.1178 107.533 86.8248 90.7751 101.766 61.7919 63.5036 97.4483 73.1533 60.9052 76.3799 71.0416 65.3965 53.9683 58.9853 67.6964 15.2561 -1.38424 -3.77878 2.97793 -3.58292 6.24799 27.9708 34.0048 25.4962 29.7354 33.9869 65.3223 74.3933 82.3746 82.8508 84.1841 62.6353 101.518 101.773 71.4561 72.7419 57.9878 62.7479 80.6951 67.9236 69.6705 108.035 92.4204 74.0096 57.4181 66.2316 54.3945 9.38346 -2.77055 -1.36951 3.1206 -2.50521 6.60635 20.8129 28.9456 25.8111 29.8062 49.2252 73.1273 83.6027 86.1697 88.6001 79.2931 74.7138 87.4839 78.6337 83.7798 87.916 82.8696 81.3948 82.9462 65.5124 111.833 140.025 140.971 109.344 75.316 55.8675 37.109 8.37854 2.98164 2.0407 3.94229 3.22099 9.06585 27.8071 25.9479 20.0694 34.0134 45.4241 66.2812 71.3625 69.1811 74.9623 73.2054 76.6099 77.2611 68.3251 67.9758 67.3984 76.3396 77.1229 85.8189 81.2375 82.9624 122.901 145.256 96.825 68.59 45.5849 37.8798 7.3087 -3.04924 1.26755 -3.06563 2.61468 8.74508 32.0307 36.0973 30.9254 41.7006 65.4209 77.3667 74.1861 74.6688 81.6715 84.07 83.7853 82.4527 80.2768 74.61 77.3851 72.871 72.7229 73.2416 95.5661 105.438 105.798 122.787 99.6471 74.9289 40.8143 23.7103 6.02568 0.89614 1.07563 -3.67225 -0.139927 6.09198 43.6408 54.055 39.9383 53.9937 67.7279 72.5359 72.9184 73.4991 76.8481 84.7849 81.7309 84.6945 78.611 80.8586 84.599 85.6629 81.6912 87.2957 86.1544 106.62 121.284 95.9168 119.796 69.2078 32.1746 28.7921 11.2428 -0.739637 -1.56216 -1.77172 -2.43997 6.17681 52.3363 57.2967 66.2848 70.0063 73.4306 75.5045 74.3516 76.0482 75.3715 76.5553 82.143 80.8799 75.0411 82.5541 82.1408 79.2721 79.2641 78.9173 72.6922 97.4982 124.117 127.139 131.735 69.4248 33.0609 26.1069 4.79621 2.98886 1.61798 3.24792 -2.61534 4.92217 46.703 66.1567 69.3909 72.1684 67.3268 66.5952 70.6809 71.4536 76.7139 76.5021 75.4977 80.5429 76.8267 75.0957 77.6724 75.1454 77.1816 77.3973 67.9083 88.4719 106.92 118.288 123.357 104.26 90.9139 35.5243 5.41355 -0.612798 -3.91377 -0.0372578 -3.55001 9.05655 55.75 70.6058 77.0095 73.9793 65.9031 73.5831 66.9392 72.1276 71.3192 76.1064 77.0464 77.2588 77.4437 80.631 77.6179 80.5807 78.3651 76.0707 73.4301 83.6962 119.204 133.491 137.749 131.943 106.725 38.5441 5.62124 -0.970322 -1.36571 -2.17732 -0.598566 13.0058 56.7142 69.5272 78.4023 66.6045 65.5494 68.4797 70.4803 67.8242 74.0052 72.2585 73.4597 76.7264 74.4568 79.5262 80.653 81.7154 79.3804 75.7658 74.6572 78.6279 114.881 136.953 143.229 142.431 107.666 38.6038 3.15073 -1.14929 -2.30655 -0.320995 -3.15156 11.8345 57.1067 68.4214 72.533 65.9245 71.005 67.8294 67.3066 76.4994 79.2895 75.9081 76.2688 77.4036 79.4315 76.46 78.1225 81.0841 82.7462 79.9134 74.0812 79.9105 109.155 131.487 143.254 146.803 114.197 55.1752 5.59621 0.160555 0.996596 1.20498 -1.19349 10.225 63.9117 68.2875 66.2602 61.7162 64.8727 64.222 68.739 71.1654 75.6691 78.5063 70.333 76.9425 80.4783 79.7549 82.9248 80.7166 87.9989 83.2312 80.5649 83.7974 113.214 128.222 139.989 145.481 106.072 54.5843 12.5109 -2.09872 -3.0524 -3.50331 -3.4743 12.6873 71.7604 70.7519 62.6727 61.6271 65.2953 58.0621 67.2678 64.8221 75.8572 70.937 70.7122 74.7322 80.2019 74.8656 82.0384 80.6571 87.241 81.9153 82.8115 83.4364 99.3409 128.601 135.258 148.61 107.147 64.4732 15.7654 -2.31279 -1.09773 0.664819 -1.63075 10.0399 68.1584 67.1472 59.765 59.3142 56.2954 58.9696 62.4761 62.8531 67.352 73.6661 67.6975 72.1579 69.9609 72.3918 78.6648 74.0707 83.7492 76.5492 73.7006 76.6942 92.3259 119.867 130.931 142.302 118.817 60.4094 6.82284 -3.23025 3.05788 -3.59321 -0.828658 12.6188 56.8711 59.757 57.7778 56.6463 55.2462 51.7955 61.5423 62.3216 68.9526 63.476 66.227 64.9111 69.2857 69.0646 75.5986 68.2762 80.9806 73.3808 68.1756 66.878 87.3067 114.67 128.358 124.202 83.5018 51.4849 11.0598 -3.92787 1.59016 -0.746597 -0.907415 5.87703 49.653 54.4176 56.8426 59.9185 52.2354 52.7514 52.4083 72.6846 70.939 65.0545 68.4636 65.8258 69.5565 73.2214 67.6052 77.0419 76.1735 73.5367 73.2217 67.8277 85.4256 102.487 132.039 101.482 43.2016 48.9662 12.2137 -2.83312 3.20481 0.890349 0.498552 2.30946 46.5784 59.0023 53.6564 58.9738 51.2321 58.2034 61.295 63.0524 64.3677 62.1247 64.5933 65.4124 67.3226 68.7882 66.3608 73.4335 78.5277 74.3825 70.2521 69.9788 77.6178 101.429 120.929 103.066 47.5745 67.5157 11.8058 1.96518 1.8006 -2.51072 0.124028 6.67245 49.5362 51.2984 53.0891 59.0819 58.0554 63.6401 67.2521 66.5404 62.249 61.8613 66.0086 67.3616 69.3737 65.6743 67.8433 71.0534 71.735 73.4332 68.1107 70.6027 74.6246 96.951 104.541 70.9629 42.0031 69.517 18.6985 2.01621 -2.96907 1.15193 2.33441 12.1131 44.3149 38.1927 58.5269 57.4437 63.2565 58.5073 60.2281 63.306 69.2338 69.5712 63.5109 66.3757 71.1519 65.6495 65.7358 73.3917 74.2422 74.8592 66.7774 70.4126 74.5151 87.1845 94.6186 51.6513 32.5983 52.6804 13.095 0.353118 0.440401 0.843137 1.62013 0.00864134 2.80381 -2.80754 -2.28612 3.36492 3.95554 -2.2702 -3.26684 3.20161 3.47421 2.15784 -2.51429 1.89533 -2.05535 -3.98164 -1.5723 -1.37704 -0.565996 -2.59606 -0.916776 1.89189 2.5475 -1.58278 0.969541 1.75839 3.83583 1.92661 -0.0373695 3.76394 -0.230936 -0.808738 -0.91032 -2.5259 0.836458 2.22842 -2.5347 -2.40877 1.99706 -2.145 -1.892 -1.10692 0.169051 3.62872 -3.19168 3.29497 0.878417 1.96218 1.56305 -1.42635 -2.21743 1.54256 3.21184 -0.099785 -3.27923 2.74498 2.44826 1.70588 -3.42745 0.723926 -0.096379 -1.68894 1.83198 -0.158018 -3.87901 1.50505 3.99608 1.96086 -0.111995 2.24111 -0.632206 2.1691 0.187582 -3.98067 3.58302 -2.85411 2.32499 0.387705 -2.86617 2.04399 0.298138 3.21402 1.97052 -0.44324 -1.47926 1.41698 -3.65846 3.67874 -3.55093 1.62037 -2.62578 -0.0900776 0.918762 1.90305 1.3097 -3.45088 2.47976 0.776784 0.31463 -2.99185 1.25092 3.34521 -2.86108 3.45692 -0.710433 -1.59219 1.83693 0.227514 0.298739 3.00181 -3.59555 -3.27651 0.15847 0.363939 -3.89085 2.66544 1.00097 -0.504887 -2.7034 0.4685 3.25297 -2.01229 -2.1167 2.06789 1.17899 -2.03264 0.497739 2.52338 -3.18753 -1.29348 1.74015 -0.327907 0.184184 3.20978 -3.64977 0.480117 1.93609 2.9582 1.82811 0.466869 -2.60061 -2.84478 -1.51148 3.95549 -2.65203 -2.34003 -0.0912042 1.00002 3.6878 -3.06349 0.693678 1.29317 0.889774 -3.6132 2.89152 3.49 0.679439 2.12562 1.58585 3.24929 -3.86636 -0.086122 2.87172 1.70667 -2.99197 -3.65282 -0.153987 3.46304 1.39686 -3.1158 3.13404 0.89009 0.904152 -3.70717 -2.52148 0.463256 -2.94043 1.0849 2.62099 -2.08596 -2.39772 0.0532216 0.0637922 -2.62795 -2.96055 1.57232 2.28414 0.411806 0.00807894 1.03114 0.748207 2.34313 -2.16497 -2.91459 1.76944 -2.45736 1.04317 -0.918369 -1.75469 -2.97331 -1.89737 -1.22522 0.138301 0.285265 -3.58184 1.95482 1.60409 0.788787 -0.943449 -3.43501 -1.0681 -1.41055 2.18878 -2.4702 0.239133 0.261195 -3.73609 0.298106 2.50869 3.65259 3.31308 2.6496 3.0441 -1.38225 -2.52227 0.854404 -2.92997 1.92348 -0.817031 -3.1257 2.54592 0.637455 -1.04315 -3.89657 2.63315 -1.65697 -0.00201052 0.645325 0.072498 1.16169 -2.21511 -2.38828 2.2817 2.69915 0.330845 -1.88967 -2.6051 2.84492 1.02331 -2.78263 0.701735 1.19269 3.65479 -1.51042 -0.437011 1.8688 -3.39357 1.35379 1.14112 -2.56368 -1.47665 0.15706 -2.65354 -3.6041 -0.586921 0.590825 -3.15348 1.61906 -2.8206 -1.92103 0.39842 2.6797 3.5894 -3.91164 3.29072 2.95341 3.78973 3.73075 2.9783 -1.45326 1.14494 -0.215366 3.79184 -1.06159 -2.9958 0.549822 -0.896379 1.46818 -0.466474 -3.47591 3.22565 -2.15127 -2.43653 1.5125 -3.32078 -1.06206 2.28884 -2.73081 -3.17212 3.35871 3.02908 0.0983938 -1.22503 1.61031 1.42471 -0.605738 -1.78876 1.0282 1.11303 -2.03763 -2.47273 -0.399904 -1.86813 -1.09128 -1.68797 -1.34753 -1.59135 3.44392 2.25055 -1.0669 3.4167 1.79053 -1.87462 -1.97758 -0.451456 -0.855938 3.70154 -2.98308 3.46862 -2.61555 -3.61809 -1.92784 -1.08167 -2.39057 1.43839 -2.95402 -0.0608496 2.44434 -3.30918 2.59883 -3.96966 -1.21426 -3.47292 -0.27875 0.217487 -3.46643 2.44033 -3.81907 0.740086 -2.47601 -0.280996 1.23608 -2.51362 2.7073 0.710029 -0.716794 -0.361156 3.78417 0.293408 -3.27507 1.86439 -1.22974 0.713667 -1.10579 1.6547 3.55948 -1.42667 -1.24543 1.85456 1.11073 -1.45649 -3.72272 -3.94578 1.40322 -2.10168 1.04 2.53069 -1.02426 -3.88171 -2.45081 -2.1613 -3.47815 0.447212 0.315146 -2.27527 -1.39412 1.9186 2.68099 -3.15442 0.865717 -0.663754 2.90113 -2.57179 0.0689212 2.8488 2.56269 -1.76783 1.67355 -2.06398 -0.75103 2.95158 1.54534 -2.20952 -2.21456 -1.11409 0.959623 -0.0347878 1.15531 2.27032 -2.65953 -2.71529 -0.406929 2.24787 2.3509 1.75202 0.77112 2.84365 -0.0126173 -1.86664 1.77797 3.49774 0.899501 1.28186 -0.881492 1.93544 -3.75271 -1.60909 -3.80667 0.933358 1.21136 -1.34118 -1.05784 1.35248 2.1689 -2.23232 2.23487 0.763482 -2.3699 2.75491 1.89931 -1.28713 3.05219 -2.28363 1.20859 1.01971 2.60587 -3.91984 -3.61535 -0.0827884 -2.8307 -0.784396 -2.01528 2.84079 1.32373 0.961027 3.75915 3.0217 3.92308 -1.76927 2.16519 2.96021 1.02173 1.07919 1.94373 1.54184 -1.81139 -3.64747 -2.33427 -3.6437 2.5098 -3.85983 -3.47719 1.48635 -3.09382 -2.3286 -0.0860607 3.49796 -0.668358 -3.96589 -1.05276 -0.841514 -0.266779 -0.0233333 -3.25633 -3.31478 0.494165 -1.59891 1.58968 3.53064 2.87058 -3.68811 3.57542 1.66503 -0.79485 3.51147 -1.45585 3.05888 -1.25159 -2.21467 3.46621 1.18829 2.58622 0.656158 3.28724 -3.29201 -2.52784 -0.488284 3.94481 -2.34278 -0.0692163 -2.28858 1.5534 -1.59207 -1.88384 -2.7491 3.48164 -2.88413 2.10558 -0.878025 0.508384 0.283151 -2.54912 1.56878 -0.359811 -1.80222 3.04225 0.944117 2.15365 0.653233 -3.85278 -0.553408 -1.83507 -3.09569 0.544048 -2.053 0.530786 2.98587 -2.21763 1.15666 3.3413 -2.65414 -1.73398 2.03444 3.76806 2.30966 -0.794274 2.7843 3.58733 -3.77043 -2.26186 -1.90918 1.3074 -1.13827 -2.91668 -0.792995 -1.95052 -1.26806 -3.37216 -2.43118 1.77802 1.85657 3.57403 -2.54479 -0.091955 1.07621 -1.72806 3.69314 3.37475 2.72278 -1.65168 2.98179 -2.48718 2.31108 1.69026 -1.56345 2.74421 2.21294 3.69162 1.46644 0.432722 -1.24176 -3.47801 -0.152806 -2.784 3.57904 1.30997 -1.9375 -1.14691 0.844533 2.20792 2.23821 1.97736 -2.41835 0.417633 -1.14723 3.95153 -1.61605 1.65342 -1.69963 -0.407954 0.342886 -2.60131 2.33644 3.70088 2.92881 -1.60123 -0.63546 3.83632 -3.55165 0.913087 1.98403 -0.45844 3.49466 1.70103 1.40878 -1.03441 -2.67646 1.17673 1.77728 3.11537 0.488606 3.29045 -2.19552 0.502752 -0.734847 0.490523 0.482496 -3.31649 3.20742 -0.211388 1.96329 -2.07182 -0.380231 -1.12201 -0.973517 -0.505198 0.972439 -2.30473 0.0566509 3.89019 0.276013 -2.89148 -0.29587 -0.0932451 2.84125 -1.63355 -3.86017 -2.98488 0.00819203 0.238298 -2.60805 1.70774 0.325036 0.501512 1.77771 -2.04254 -1.70297 1.98141 -1.93412 -3.33063 -1.48917 -2.90367 -1.05003 1.62437 -3.07992 3.70311 0.311636 -3.75596 -3.71393 -2.87004 3.02679 -1.47025 1.47245 3.7203 -2.86533 1.02966 3.02209 0.0755874 -0.372165 -1.52264 3.53451 0.773764 0.135425 -3.04069 -1.12766 0.321577 -0.0303613 0.75312 0.843426 -0.805034 -3.39551 1.38552 -2.38251 1.52443 -2.99918 -0.903789 -2.0813 0.420222 2.49073 -3.61479 -2.73499 0.901737 3.81452 3.69838 3.26198 1.33503 0.211033 -2.76694 2.63078 -0.573315 -1.66773 1.81555 3.80214 2.77789 1.49206 1.13624 -0.87585 3.69787 2.96787 -1.63387 2.60046 -3.08123 3.58117 -2.58859 -3.33568 0.81592 -1.19328 0.0775146 -3.27663 -2.96025 1.3778 0.940421 -0.107536 -0.00666733 -1.0877 -0.81186 0.0178353 2.23975 2.61712 -1.16105 -3.30768 -1.00408 1.42296 3.41789 -3.36014 -2.52309 -2.68764 -1.85404 1.39016 3.38751 1.41461 -3.70663 -0.136516 1.88693 3.86356 2.94066 0.74265 -3.58469 0.839286 3.42274 2.48031 2.66208 -2.44922 3.41373 -1.26412 1.32412 1.40176 -3.62427 1.18808 0.358877 -0.817011 -2.88145 0.697525 3.48367 -0.249742 2.30557 -0.324279 -3.51593 -1.2548 3.92103 -2.81105 2.94097 -0.629596 2.56721 1.28722 -2.4469 3.9802 2.38973 0.825561 -3.28967 -2.00865 2.81183 -0.478832 0.0302059 1.41666 2.89435 -1.16653 3.3733 -1.25285 -0.356054 -3.70435 3.13832 -3.57442 -3.83963 -1.73225 2.65145 -2.41051 0.436083 -2.23544 -1.40828 -0.0557361 0.280293 2.89356 -3.07395 -2.50683 -0.0955225 0.810537 -1.73208 3.97547 -0.283507 3.16791 -1.25051 1.73283 -0.40696 1.20765 -1.00174 0.379793 2.0435 -2.29102 2.34256 -1.80309 1.70539 0.5612 3.28628 0.774781 2.14121 -3.25406 1.53934 0.445676 3.31086 2.27701 2.8984 2.34968 -2.34109 -1.10221 3.45333 2.7818 0.479995 -1.31409 -1.58018 -2.08262 -1.78979 3.16966 0.772566 0.0685035 1.12547 -3.71523 -0.41293 -1.13682 -0.987596 3.60219 -0.0888013 -1.70305 -0.950875 0.936869 3.66284 -2.73168 -2.22669 -1.04681 2.29096 3.68332 0.847616 -2.94571 1.81815 1.34666 -0.751169 -3.97141 -3.29895 0.809066 1.76994 -3.0415 -1.54392 2.42431 2.97452 -0.887496 3.07841 -0.890419 -0.207475 1.73261 2.83785 -0.873149 2.10899 0.434587 2.89258 -2.07597 0.0523499 3.61337 3.46049 0.418499 0.142766 2.56597 3.29167 -3.23383 0.500351 1.1398 2.60991 3.55447 -2.01955 1.73693 -1.53666 -1.87568 0.472278 1.68598 -2.31602 0.585007 -0.482387 1.82285 -2.30164 -0.392919 -3.9803 0.034134 -0.118313 1.77681 3.15724 -3.28783 -3.99196 -0.690616 3.7941 -1.79098 2.05479 1.5175 -0.905502 -3.25075 -1.35333 -0.164358 3.88252 -3.33741 3.67502 -0.365542 2.93155 -1.93183 -2.04729 0.427428 0.882674 -3.3772 -1.82634 3.79552 0.818767 -0.756004 -2.62115 -2.27675 3.72096 3.76625 -3.54694 -3.07293 2.49103 -0.588555 3.32107 -0.682779 2.81632 2.72914 1.56395 -0.0637792 2.59326 2.19192 -3.11133 3.40262 3.13778 -2.10683 -0.0689321 -3.38278 -3.87294 1.70887 -0.286545 1.62457 -1.57408 -1.80514 3.1588 3.97546 -0.283969 1.68094 -1.79848 2.71281 3.59672 1.81763 0.476254 0.433694 -0.817402 1.11964 2.30929 0.482856 2.50724 -0.833244 -2.57165 -3.01868 -3.87863 -2.73757 -1.76135 -0.855755 1.27455 2.02775 0.683377 3.63673 1.14545 3.38644 3.60771 0.839352 -0.159529 -0.142174 3.82046 2.49447 3.00833 2.67515 0.422878 -1.11416 -0.819005 0.600878 1.3978 1.11022 2.3887 -2.05924 2.63177 -3.16294 2.15932 -1.62755 0.549768 2.07496 -0.0168666 -2.15302 -1.84161 -0.710091 -1.91999 -0.811488 0.610615 -3.91522 1.70762 0.447846 3.90783 0.629659 -0.0370589 -0.130514 0.225094 1.47382 3.57107 -2.06657 -1.91585 0.580757 -1.78388 2.8054 -0.438094 -3.21712 -3.81923 2.58147 0.558052 0.531536 -1.52677 0.901169 0.403639 3.91801 -2.52156 1.25712 -0.321142 -0.833535 -1.36031 -2.21025 -1.36534 2.75923 0.155401 -3.37094 0.728105 0.725309 0.565179 2.6185 0.366906 3.37551 0.418998 -1.79182 -2.74004 1.04013 1.84829 0.0261475 0.663469 0.839125 1.98327 3.18618 3.55285 -2.3605 -2.86777 3.37682 0.895948 2.03911 0.263907 3.67495 -0.605519 2.17632 2.99498 -0.222292 1.2835 -3.94197 -2.30412 0.715057 -0.764325 0.996451 0.0817096 0.818171 -2.52519 -3.32475 -1.31789 1.45627 3.54743 3.77334 -0.15268 0.231989 -0.392709 -3.78641 0.90047 -3.75202 3.08551 1.60354 -3.71663 2.93587 1.26695 -1.39216 3.60046 2.9122 2.86103 -1.81959 -1.72238 -2.75082 -0.677662 -3.15195 1.03929 0.0658388 -0.567397 -0.527063 3.79449 3.77593 -3.62904 1.22467 3.53986 0.339289 2.67348 2.32487 0.326891 3.90197 -2.89237 1.36456 -0.403126 -2.91106 0.404744 -2.72713 -0.45999 -2.70434 1.85453 -2.24028 -2.99639 -1.50481 0.97406 -2.5828 -2.02239 3.8663 0.658322 -2.1154 -2.23094 2.73268 0.645969 3.08679 -1.28088 3.89566 -1.41575 -3.95444 1.33071 -2.76229 1.56685 -3.15067 -3.61743 -0.887768 2.59575 -2.84096 -2.06174 0.0868859 3.86992 1.24511 -0.582148 0.656337 -3.27995 0.170835 0.968504 1.41399 -0.457184 0.764987 -0.463219 1.13511 -0.179006 3.07793 1.01626 0.331399 -3.45991 -1.98568 2.00419 -2.81892 -1.47115 -2.86362 -0.683262 -1.0195 -3.1194 2.44567 0.558393 -2.33974 2.97891 -3.01783 -1.64279 -3.59558 -2.85179 1.68162 -1.28875 1.04497 1.96087 3.48816 3.27032 -0.218476 3.03039 -1.08806 3.91452 1.41488 3.75959 1.00859 -2.98647 -2.27848 3.89097 3.79441 1.83101 0.529446 -1.52328 1.32767 -0.301535 1.5991 -2.30182 1.71133 2.93226 0.823836 1.01943 -1.04929 2.74823 -3.62711 -1.4269 0.882362 -2.75084 0.94723 2.41971 0.748559 -2.97895 1.88598 0.10054 -1.64793 -0.0816354 2.24148 -3.44502 -2.77408 3.55542 -1.62337 0.828964 2.15934 -0.195325 -2.74305 -3.45782 -1.22523 3.68854 -3.19501 -2.16348 1.91846 2.38874 -2.18242 0.487808 -3.27495 0.496325 1.37214 -1.58754 2.05416 2.03414 3.63391 -3.42853 3.38367 1.24272 2.97102 -1.11683 -2.37024 -3.15037 0.0992972 1.69783 -2.86902 0.438802 3.89257 2.01175 1.4649 -2.2633 -3.8986 3.62933 1.9492 0.40036 2.55578 3.40963 -3.97357 0.933762 -0.35768 -0.652651 1.15186 -0.794512 -1.42215 2.96497 -2.31919 -2.64703 0.346637 1.69404 -2.89729 3.65653 1.73167 -2.97358 -0.0958778 2.09531 1.66067 2.62557 -3.97642 0.295162 2.37054 0.220475 2.52682 -0.603605 3.89888 -1.05323 1.56656 -1.45776 1.55794 -2.93544 -1.50399 2.67161 -1.12276 1.15173 1.51822 -3.13277 1.63213 3.39498 3.69588 -2.15249 0.572704 -0.0392547 -3.31011 3.36685 -2.88425 2.89596 -1.91978 1.16414 2.48662 -3.17904 2.61199 3.19664 -0.387041 -1.87695 2.91082 -0.978123 2.77339 2.11937 1.65123 0.420587 0.924736 -3.88592 1.38758 -0.382088 -1.17152 -3.3698 0.495825 2.42993 0.397016 -1.52888 -2.28638 -2.73194 -3.60414 -2.0418 -1.61475 3.25984 0.00864611 3.79364 3.05605 1.03308 -1.59227 1.25899 -0.00823319 1.80799 1.11792 -1.36975 3.03308 -3.04043 2.441 -2.72264 3.29726 2.69093 -1.40601 -2.7728 -3.41228 -0.0638151 1.47085 0.194422 0.612112 -3.07147 1.67165 1.21192 -0.521777 -0.0306661 -3.9621 -3.09064 -0.79886 -3.31861 -3.0718 0.409721 2.0832 3.97831 -1.43847 -1.9933 -0.796808 0.0935911 0.743832 -3.2934 0.899228 3.22764 2.66229 -0.359521 0.0239858 -3.12671 -1.13431 0.898226 1.51839 -2.02108 -0.779256 -1.80365 -1.97755 3.28902 -1.79608 3.65346 3.41241 0.905644 -0.729705 1.35639 0.0812179 -1.52091 -2.57057 1.08855 -3.97595 3.32779 -2.4773 -2.46939 2.41468 -3.18446 -3.03006 3.53576 2.30088 -0.526502 3.36573 0.116253 3.74298 -0.132242 -3.18416 -3.45577 -3.87473 1.79633 1.79394 3.35899 0.741634 -1.83507 -1.14076 2.04997 3.56903 -1.10833 -2.18575 3.664 2.6434 3.62919 3.49742 0.899437 -0.770592 3.97947 -1.95283 0.278487 0.990655 3.66191 2.50339 1.31371 -1.12349 -3.59282 -2.76899 -2.56251 2.90334 1.84258 0.642958 3.42812 1.56801 -2.21268 -0.366851 -3.16484 3.86054 3.25005 -2.48774 -3.74555 -0.881799 3.69086 -1.66467 2.85634 1.67141 0.484837 1.11574 1.44384 -3.27019 1.12404 -3.2326 -1.67842 3.37056 -1.81491 -1.59243 1.93204 2.71873 3.99033 -3.47008 3.12335 1.24492 0.144267 -0.375421 -2.25376 -0.0819505 -2.10356 -1.92516 1.02772 3.27634 -0.510949 3.79616 -1.4848 1.57402 -3.52534 -2.28383 3.80058 -1.27666 2.70685 -1.73114 -3.65623 1.94816 1.94021 -3.18469 3.22056 2.27142 -0.311818 -2.40598 0.514775 -0.57296 1.72726 -2.17246 0.00185007 -1.48669 3.40379 3.11571 -3.96884 2.07212 0.312932 -2.26139 -0.59755 0.214273 -0.649426 0.566828 1.08976 2.08186 3.41023 3.10475 1.6551 0.164763 -0.974877 -2.22906 -2.34678 0.198446 -1.14131 0.908198 0.274221 -0.0874376 1.01456 -3.54488 -1.47193 2.5672 2.00668 -1.01691 3.37766 -3.68271 0.0756226 1.80249 -0.58261 1.5493 -0.737838 -1.79363 -0.565559 0.987547 2.81574 3.42762 0.345348 -2.65163 1.67207 -1.68359 0.901744 0.982167 1.03177 0.511601 0.0903349 3.15073 2.87988 -3.8804 0.752539 3.21742 -1.19312 3.8517 -0.10319 -0.699407 1.56594 2.31301 2.47255 -3.57955 1.49763 3.66275 1.66557 2.55189 2.29259 0.199865 2.80248 2.89098 0.872749 -3.19316 -1.29789 1.31054 -0.688737 -0.419144 2.9586 -0.858275 -1.29784 2.07045 -1.79248 0.0685379 3.16592 -0.305679 2.00994 2.21708 -3.00037 -0.941451 -3.79946 2.85556 -2.45262 1.12374 -0.0332323 -2.95392 -1.42094 0.214148 2.63647 3.2233 -0.518171 1.11789 1.30157 -0.193975 -1.41978 -2.48835 3.54521 -2.72127 3.07636 -0.369566 -3.56447 2.35978 -3.56663 -2.87995 0.600426 2.47464 -1.89446 3.64116 -0.0205347 -0.508056 -1.25095 2.19419 3.79465 -0.343371 2.20967 1.01689 1.08378 1.23134 -2.96488 -0.110052 3.65192 0.357311 -3.2515 -2.73446 -0.0870832 -3.4994 2.30868 -2.50424 0.87644 -3.09904 1.07143 -1.83633 -2.87699 1.62426 -0.519192 3.65817 -1.57089 -2.78632 1.04526 -2.50673 1.07391 0.525478 2.13185 -1.0329 2.37549 3.46615 0.50814 -3.09602 3.00632 1.06092 -3.94636 2.29354 -2.18352 1.14219 -3.9558 -0.419882 -2.16476 1.44324 -0.291267 3.46976 -3.89253 1.54915 -2.96726 3.59392 -0.401743 0.813103 -0.356476 3.38921 -0.0205308 1.95148 -3.22232 0.729679 -3.5263 -1.56104 2.33621 -1.38165 -2.35946 2.07135 0.171581 2.80181 -0.793898 2.01537 3.23826 1.305 -3.71746 -1.40791 3.88967 1.38805 3.02717 -0.822706 -2.48644 3.00713 -0.798677 -2.29246 3.89993 0.140466 -3.79555 -0.922324 2.46036 3.3158 1.47232 -2.73363 -0.722 2.23492 0.341314 2.81767 3.45795 -2.70068 -2.70881 2.37592 -3.16306 -2.94758 3.07077 -2.74861 -3.66808 3.7607 1.08152 0.0869322 -2.00152 -0.15193 -0.462756 0.253211 -0.719857 -1.63956 3.70494 -3.94123 -1.87996 1.88071 1.98985 -2.0005 3.98414 -0.760764 -3.13069 3.73897 -3.816 -0.508494 -0.759962 0.100373 -2.47696 -3.55261 -1.56468 3.02827 -0.0948492 -0.483937 -2.63803 3.97353 -3.12723 -0.632252 0.140508 -1.4936 -0.303493 -1.39084 2.20323 3.60331 -0.150758 3.67441 3.78478 0.362655 3.47648 -2.07704 -2.10699 -0.942888 0.789973 2.92086 3.42347 1.77655 0.736074 2.34705 3.03036 -2.9736 -2.08839 1.47373 1.31605 3.8464 2.59813 1.19434 0.771359 0.638541 -3.56701 -2.2137 -2.93198 3.66922 0.823767 -3.99643 2.66624 -3.88372 2.26687 -3.33861 1.17662 0.897696 -0.591121 0.150887 2.38177 -2.99018 -0.854116 -2.36179 3.21462 0.584864 2.26546 -3.03402 -1.85302 -3.6963 1.08019 -2.73807 2.08406 3.70949 3.00326 -0.75249 -3.47757 -3.62316 -3.26883 -1.34443 0.759272 -2.48102 -1.23313 1.91081 -2.76614 2.61052 -3.1106 -2.76361 3.87931 0.862788 2.46011 -1.62343 0.869053 3.79228 -2.10722 1.6263 2.54033 -1.83447 -1.22372 0.147202 2.90856 2.5521 1.81366 0.350164 1.72037 -3.1115 -2.22292 3.36471 -2.73718 2.87754 -1.78753 2.01293 1.56111 -3.77495 -2.15004 2.88192 -3.11781 0.53863 3.62342 -0.3699 1.08543 -3.09853 2.14176 0.390517 0.977685 1.47208 -1.67964 -1.60751 0.667468 2.88359 -2.24928 -3.06603 1.05875 3.31483 -3.9221 -3.01097 3.26446 1.52865 0.0796623 -1.14589 -0.468595 2.87634 2.99566 -3.54829 3.85821 3.04278 0.937162 -1.43022 -3.01978 -0.780523 -3.90007 -1.31511 1.05459 -3.99698 -3.5119 3.02206 1.18425 3.12976 1.25954 0.872676 -1.66796 0.894768 -1.58004 2.57765 0.981939 -0.584044 2.29912 -3.70395 1.45947 -0.877481 -2.28729 -0.60344 1.63031 3.19636 -3.28058 -3.13122 2.34819 -0.332027 2.19035 -0.667164 -2.8335 1.37641 2.93981 1.62 -1.01224 2.55758 1.28938 0.317249 0.388641 -2.18695 -1.73641 0.406017 -2.9436 -2.55727 -2.68801 -0.49092 0.917972 -3.41152 3.97925 3.13517 3.3549 -3.97463 -1.40538 0.402794 3.58586 1.50527 -1.9009 -2.57341 2.52094 1.864 -0.408564 2.79239 1.04187 -1.45055 -2.09951 -0.810353 -2.38067 1.42559 3.3298 -1.45345 -2.53336 2.83752 0.416005 -0.967928 -1.55194 -2.46217 0.953668 -0.0353386 2.30676 -3.11124 -3.77076 -2.01167 -0.420009 1.50146 -2.34755 0.492492 -3.62374 -0.263998 2.81941 3.99567 3.73315 -3.71159 -2.82821 -1.38442 -3.49172 3.09813 -2.04909 1.83032 -3.40849 -3.82388 
