-1.9647 2.49224 -0.0858172 -3.98577 -4.49629 -0.534005 -0.537064 2.662 -2.0845 0.655355 1.68179 4.3727 -4.96756 -3.50349 3.26492 4.35894 0.0105952 3.24964 -0.971084 -2.32152 -3.72034 2.25986 3.31718 -3.5803 1.30474 -4.60127 -2.19931 4.6922 0.453201 -2.92312 1.74119 -1.3313 4.37408 -1.60746 3.24963 -4.89965 -0.634613 4.27012 2.27204 1.11814 -4.163 -4.58709 -1.53581 -2.62294 -0.802591 -1.14581 4.14335 -4.64457 2.37465 -1.07465 -0.468987 1.55879 3.65398 1.59418 -3.14479 -4.08215 -1.79552 -2.21888 -4.35918 -1.24351 4.23269 -2.85914 -2.27736 3.44272 2.18331 1.37009 1.85741 -4.71491 2.38539 -3.76374 4.77781 0.9296 3.5336 3.3767 2.9496 -2.15551 3.10384 4.79437 1.56105 -4.74334 -1.92302 -3.54806 2.16627 -3.89602 -4.99479 -3.21029 -0.535982 -2.42443 -1.88848 0.789839 2.19369 2.80144 -4.14092 -2.62597 1.28868 -3.91226 -1.7588 -4.63134 -2.68263 -3.78923 0.712378 -0.276827 1.42765 4.37866 -2.25329 -4.3896 -0.527368 4.28599 -2.50017 2.57039 -4.75854 -3.74063 0.306819 -3.07088 -0.821928 2.85276 -4.52342 -2.33508 -2.2554 0.205635 0.0431035 -2.15089 3.14674 3.99702 0.597044 -4.27844 1.86553 0.575226 -4.59826 -4.70007 -4.30245 3.8733 1.73176 -0.714463 -2.39707 1.7089 -0.047423 -0.159131 -4.45127 2.13306 0.535458 -3.25019 1.99592 4.24084 3.69264 0.340261 -1.51932 -0.100061 -1.46176 -1.9324 -4.43303 3.75974 -1.7244 -2.13007 3.69755 1.9821 -0.18815 4.75198 2.93182 -3.13333 -1.26431 4.5285 -0.870058 -3.81874 -0.85061 -3.9422 1.61838 2.68218 -4.43925 -2.25285 -2.2362 4.97487 0.0949433 0.198104 3.32251 -1.34451 -4.69601 -1.44915 1.90557 -3.52559 -0.593728 -0.755616 2.52756 3.3427 4.48255 -1.46606 1.7055 -3.60124 -2.25243 -4.51552 -2.33458 -3.24012 -2.09941 -1.88579 -3.90292 4.91083 -4.47753 -1.55206 0.196625 -2.89201 -0.181701 3.63202 -3.80889 1.28382 0.684755 -0.903663 -0.297002 -1.18612 0.779106 -0.718743 4.41529 -4.2241 0.104255 4.85343 -1.77728 3.60561 -2.39608 3.17805 4.88125 -1.14092 1.5751 -1.05651 0.807657 1.8741 1.96442 2.76483 1.2892 2.56324 -1.78974 -0.253529 -3.02457 -1.22392 2.68078 -1.11446 0.745208 2.46704 1.62823 0.194533 -2.71782 -3.92087 4.54693 -0.523222 3.85245 2.602 -4.25681 2.29798 -4.62928 3.77953 0.871143 -1.58183 -2.07949 4.91815 -3.37649 4.46906 -0.482783 -2.63925 4.73626 2.19003 -4.62341 2.81441 -1.72089 1.68285 -1.18205 -4.66048 2.46759 2.18509 0.460928 -2.73238 0.497365 1.99569 -3.11087 2.99287 -1.80188 -0.799341 4.80079 -4.56408 -0.578349 -1.80363 -3.28107 1.91405 -4.51798 3.38563 0.309838 2.48177 4.10896 4.26437 4.81167 2.91307 1.00399 -0.622365 -2.22018 2.18612 -2.62726 1.23256 3.6697 4.16998 3.04177 -0.521159 2.39307 -2.19445 -0.516199 -3.00919 0.119886 -4.72424 1.29234 0.843303 -1.05738 4.84624 4.02155 2.15498 3.96591 -3.07028 2.45107 4.14572 2.56667 2.46215 -1.25075 -1.44679 4.63012 -2.61254 -4.24539 -3.86785 -0.80412 3.11144 -4.93322 -4.18281 2.58084 2.1936 4.19436 -1.93879 -0.964316 2.61458 0.0247708 -3.3765 3.13778 -1.55316 -3.35292 2.61226 -1.06488 -2.26115 -0.981736 -0.617019 0.969008 -4.30924 4.60247 2.37349 -2.76081 1.82484 -3.37549 -3.59927 -3.50856 -3.09086 -1.4587 3.13496 -2.84849 4.66067 -1.97013 0.634955 -2.04519 -4.70951 3.96866 -4.45001 -3.82721 -1.12009 -2.52512 -1.73554 -3.85865 3.7578 1.21291 -4.70796 -3.79842 1.20013 1.15867 1.63879 3.81281 3.06266 -1.00541 0.437584 -4.40004 0.518182 -2.47152 1.08815 3.98311 0.50638 0.502327 3.77933 0.612792 -2.69422 2.57556 -3.89159 4.8991 2.99625 1.09538 -4.43556 1.84335 -2.99187 -2.06213 -2.23367 2.89899 4.24172 2.07763 4.26105 -2.13896 -1.36213 1.2679 -0.710377 -2.65862 -4.46741 3.47591 -0.628364 -1.45412 4.61468 2.23754 1.40164 4.33155 3.19666 4.68546 0.173041 -4.9091 -0.254645 2.6752 3.401 -0.620829 -4.47444 -3.62672 -3.88606 -4.7883 -4.59923 4.6632 2.88927 -1.72132 1.89344 0.773011 4.60549 -3.048 1.90568 4.04349 -1.5334 0.368389 4.35518 -4.45818 4.66324 0.19527 -1.76029 1.21283 0.299567 -0.710283 3.42956 3.67924 -0.0121846 0.172227 1.54969 -1.22331 -2.22175 2.9826 -2.83962 1.01113 2.27029 -2.29224 -1.40723 -2.08028 -3.04524 -0.24422 4.30643 1.69383 -3.81021 0.645715 -4.13106 2.14242 -1.52947 -0.921436 -4.45466 4.67838 -1.64108 -1.80523 3.19324 3.19529 -2.49938 -1.12695 2.61595 -3.3413 -0.658984 0.948166 -3.50939 -0.826497 0.261801 3.53345 4.44423 4.65955 -0.736374 -4.16321 2.50463 1.80664 1.83303 1.7665 -0.58141 1.39239 -1.04689 2.57285 -1.89461 -1.93869 1.70179 1.89685 3.8598 -2.20118 -3.02855 -4.26561 1.30181 4.00287 -1.87803 3.74687 -0.437553 0.597728 0.0652066 3.21609 1.03797 0.658533 -4.32381 4.95657 -3.33838 1.33983 -1.39985 1.78117 2.11539 -4.26308 -0.704776 1.1405 2.7454 0.253915 3.45947 4.77395 2.89489 0.907943 0.611661 -2.37069 -0.46941 0.381572 -4.87943 3.58248 -3.31925 4.58136 -3.69855 -0.534847 4.03919 3.4688 4.79787 -2.04582 3.98066 1.0287 -4.66116 -2.3387 4.25151 -3.71788 1.77862 1.78494 2.98567 4.47197 -1.86231 -3.63661 -4.93963 4.16879 2.73531 -1.89201 3.28076 -0.416233 -3.93396 -3.72018 -4.242 -0.763019 -4.69863 -4.36496 -4.47189 1.78924 4.03343 -4.6799 3.13111 -1.33991 -3.81473 -0.596093 -0.208764 3.45848 3.26182 4.37608 -3.82664 4.62383 -0.0821781 -4.05602 3.23606 3.8659 1.467 4.52413 -0.305454 0.889534 3.72587 -1.29958 -1.49045 2.60105 1.92172 0.492736 4.5417 0.480615 -3.05566 -0.720514 4.0518 -4.67291 -2.13753 -0.758482 -1.3595 -3.44688 -1.73373 4.08608 -0.810337 -0.367973 -2.77641 -4.04284 -4.55268 -0.359541 -2.10936 -1.88377 -4.49425 -4.33741 4.61566 -3.77851 3.66533 -2.83112 1.3029 -2.86532 -4.12472 -2.08385 2.90699 3.62019 -0.597929 0.894262 3.02333 3.23952 -2.54537 -2.18269 -1.15441 -0.901482 -2.844 -3.94282 -1.37314 2.44254 -1.44721 4.17084 -0.097405 -2.3634 -3.26387 -3.83733 -2.15623 -2.46651 -3.35458 -4.26169 2.21883 0.449652 2.08264 4.30971 -4.00577 -1.15466 3.00892 -1.13924 1.0328 4.35023 -1.55017 -3.78426 3.27026 0.451308 -4.97224 2.62024 0.990085 0.349679 1.94375 -3.45916 4.77656 0.632492 -1.39728 0.756249 3.85016 4.98932 3.62659 3.11682 -2.97362 4.09222 3.10936 0.387819 4.44819 -1.90048 -2.58758 -2.13258 -2.19867 4.34391 4.26 4.15004 -3.70695 0.533871 0.937753 3.70071 3.72615 -4.85195 -3.23795 -1.24805 1.52112 0.606142 -4.95993 -2.1239 -1.29814 -4.82173 4.45062 -4.94571 -0.762555 -2.6088 -2.7513 2.03581 1.84699 -0.463841 4.56776 2.63346 2.5768 -0.0680777 0.24469 4.73179 2.95023 2.62088 -2.39564 -3.71518 -4.69016 0.69631 3.7703 3.39585 1.06607 -4.57514 -3.90619 -4.19132 2.24897 -1.33928 4.99712 1.46151 3.30676 3.3324 4.53507 -1.38403 3.06765 3.02091 0.557449 -3.46114 4.2991 -2.94267 -0.620018 3.41286 -3.44341 -4.99909 -4.84576 0.0845316 2.72203 -1.35741 -1.12031 3.13207 -2.94265 0.390958 3.85007 -3.78114 -4.46336 2.367 -2.20241 -1.55021 1.83783 -1.59069 3.97521 -0.450857 1.39771 -3.05714 -3.27127 0.856537 -2.11682 2.63665 4.70002 -1.05207 4.0961 -1.14438 2.45936 3.85881 -2.83603 3.84929 -2.32937 -4.59994 4.80534 -2.43898 -3.87528 -2.94717 -2.90554 3.54538 -1.36176 3.07196 4.89661 3.9527 -4.46291 -2.61024 -1.91473 -2.93698 4.92313 -2.25848 2.43189 -2.32444 -0.967235 -2.37965 3.64306 0.760354 3.50052 -2.17369 -4.14643 -1.7752 1.2781 -3.69649 3.732 -2.923 -1.67569 2.90874 1.32583 3.5342 -1.99718 -2.30627 4.70056 4.41798 -2.98328 4.79569 -2.33687 -4.86345 -3.42697 -2.63446 -1.9798 -2.87906 2.02873 -4.69554 2.48754 0.589256 -4.93492 3.23458 -3.94749 -0.0872388 -4.99086 0.643704 2.7318 4.7334 -2.07355 -1.53381 -3.24195 -3.64934 -1.24468 -2.35623 -2.21102 -4.23685 -2.49827 -1.07188 -0.89133 -2.7567 1.00248 2.41168 -4.92281 -3.65687 -4.32653 -4.50669 2.49121 1.83855 3.42732 -2.35726 1.04488 -1.05693 -2.44527 -1.80865 3.25501 0.843774 0.653842 2.63062 1.51745 0.328823 1.46675 3.22324 -4.97385 -3.92395 4.63174 -1.44266 -4.39244 -4.21059 -4.35515 3.49785 -0.945157 -0.238843 -0.831848 -2.49684 -4.41624 0.0371086 -4.74901 2.47002 -0.0217078 3.07844 2.6992 -2.63149 -0.0179877 0.645331 -3.60177 4.26357 1.72284 -3.15754 1.03569 2.81752 2.29277 -1.44856 3.87273 -0.57191 -1.43653 -1.6108 4.35195 3.33605 1.56503 0.453089 -1.32377 3.40599 2.72163 -0.679416 4.06625 4.86111 0.767722 0.731272 2.58742 4.94005 3.15625 0.886225 3.03451 0.595995 1.71672 -4.75222 1.19019 1.43286 1.36765 1.92302 -0.371964 -2.01487 -1.31911 4.22566 -3.54564 -2.39874 -2.08346 2.18095 3.29154 -0.155398 -3.95583 1.26515 2.81926 1.18882 0.771263 -0.657448 3.82142 -4.02538 -3.84915 -2.19557 -3.4794 2.01189 1.2827 4.66557 2.44627 -3.3946 2.07505 -3.6583 1.7538 -4.26288 3.03656 -2.14195 -3.23147 2.3229 -4.61894 3.31754 4.12628 -1.73632 -4.96666 -1.53651 -1.87812 4.64606 -3.49129 -0.374328 2.53919 -0.645538 -2.04919 4.05176 2.24362 -2.78838 -4.73324 4.1271 2.26243 0.224973 -4.3093 4.6633 2.82545 0.552827 -3.46998 -0.221974 4.82581 0.69274 4.46898 -3.96379 -2.00097 1.54226 4.98716 -3.30283 4.58397 -0.0795693 3.25725 -4.3646 -4.90628 1.07628 0.984247 1.05809 -3.59808 -4.89304 4.52043 -2.92108 -0.241503 0.95458 3.36114 2.55938 -4.18565 -0.32641 2.72759 4.72293 0.157791 2.01976 -4.19033 3.60075 0.925931 -2.32326 1.10693 2.79244 -1.76025 4.49846 1.847 2.69007 2.39312 2.63332 -2.98572 3.35855 -0.4859 -2.7816 2.52938 4.31038 3.21383 1.18317 2.42232 -0.0108534 -3.38419 2.26395 4.60246 0.511313 3.53361 4.94392 -1.09599 -3.32533 0.33317 0.853722 -0.915874 -3.61827 -4.17167 -4.88867 -2.77442 -3.63834 -3.33689 -1.3992 -1.81211 -3.84723 0.425432 -3.1648 1.2714 -4.87458 -3.52905 -4.95498 -2.46249 -3.82728 -0.4259 1.81134 0.408894 3.02467 2.44408 -0.83173 -1.09889 -2.20236 -2.62243 1.49106 1.25332 0.195912 -0.429024 -3.31486 2.02849 3.24058 -0.333661 4.96395 2.16994 1.36843 2.11119 3.8469 -4.19655 -2.62452 1.84753 0.939326 3.92187 -4.91032 -4.25039 -0.435959 0.322754 1.26067 -4.36699 -4.92686 -0.563051 1.31741 4.74059 -1.75987 -4.81602 2.57058 -2.45869 2.47626 3.214 -1.10409 3.2803 0.794887 4.17157 -1.8429 4.51979 2.84462 1.37947 -1.43065 4.49627 -0.925642 3.33801 2.74169 -4.93122 2.29473 -2.77196 -0.854117 -2.34078 4.69051 4.08069 -4.95734 -0.375449 3.54424 2.4564 4.13636 -1.84485 -3.40944 3.28096 4.50997 3.85484 2.68377 3.37806 -0.314784 1.7709 -2.16376 3.00443 -4.18007 -0.0437159 -3.87727 0.963808 -3.36783 1.22454 -2.22481 -4.41721 4.10634 0.5757 3.92878 2.61729 -0.619985 -2.98847 -2.19238 -3.94897 1.27721 2.54174 0.844782 -3.0499 -0.5416 4.58028 3.44148 -4.20857 -0.926698 -0.852233 0.7296 3.00487 3.47479 4.25405 0.730187 -0.163748 -1.94917 -1.1037 2.14802 0.795951 1.56976 -2.48961 4.0578 1.24525 -1.14784 4.90898 -1.04478 -4.5726 -0.582041 4.60573 1.70051 0.718024 1.49935 -2.42411 0.327711 -4.98564 -2.23433 3.42211 1.34919 3.1385 -4.83435 0.475735 0.860444 -0.0351456 2.52076 -4.90544 -4.50916 -0.956039 1.36437 0.32406 -4.79985 -2.9146 1.67951 2.48182 -3.91567 0.719913 4.87689 -1.77312 -0.0965872 1.01688 -2.50805 2.64609 -0.404709 -4.34633 -4.45084 -4.85766 -2.84255 -0.564107 -0.112857 -3.22361 -3.15709 -1.55063 -4.77897 -1.47296 -0.731397 3.05144 0.401896 3.17178 -4.64534 4.62598 2.84954 -3.45709 -0.617419 -0.842887 -0.585164 -1.4174 4.10592 -4.67174 1.68316 -4.46403 0.654691 -0.433026 3.82338 -3.24343 -1.6611 1.32969 -2.226 3.41974 3.81793 3.93712 0.513048 -0.958807 -4.95835 -1.60937 -3.35753 -4.23645 -2.94257 1.52483 3.89635 3.07815 -4.1263 3.3541 -1.36596 4.86615 -1.24729 -3.10537 -1.5524 2.41449 2.13007 -1.13501 -3.27727 -3.82193 -4.0612 -0.813256 1.7028 -1.02234 -4.43206 -3.05668 -3.37078 -3.1317 3.47571 4.94601 0.348081 -0.304148 -0.799735 -2.26506 1.02813 4.86301 -2.31697 4.10807 -4.12305 1.29928 -4.21418 3.16805 1.53709 -4.05486 -2.46196 2.69903 4.81636 -3.49596 -1.30991 -3.82037 4.53438 2.67783 -1.7121 -3.71202 -0.770463 -1.29658 -3.57864 3.79628 0.20247 -3.99893 -1.77655 -1.5466 -4.37317 1.08258 -2.36791 2.30836 4.84606 -3.54566 2.06038 4.08842 -0.845847 2.25574 -0.871536 -3.51758 1.15936 4.73463 -1.53639 -4.61269 1.80946 3.32078 -3.72739 1.37484 4.6232 4.58976 3.03067 3.47908 -3.11687 -2.1276 4.33332 3.8957 -0.900361 4.42998 -2.09193 1.4822 -0.427714 -1.01147 2.93404 0.336293 2.92485 1.89981 4.81229 0.204769 -0.46257 4.58 -3.34372 3.70154 -1.71554 3.83459 2.9735 -1.71536 1.31573 -0.0902839 -2.11678 1.21578 0.409001 2.4247 2.84004 0.88456 1.03516 -1.21092 4.93666 -1.4336 -0.951574 0.383782 4.0877 2.06874 3.58354 -4.36086 -2.10447 0.352132 -3.98341 -4.12274 -0.657488 1.3688 1.46369 -0.221545 3.6405 -4.48285 4.99027 -4.60153 1.80999 2.00774 2.85374 1.51775 4.24471 -0.0588992 1.34958 4.9384 -1.10033 -1.17161 3.00739 2.61867 -2.34105 1.72445 1.39916 -4.4558 -1.87538 2.60481 3.43055 -4.80008 -3.22579 -1.40177 -2.82012 3.69178 2.05977 2.41197 0.769087 -2.84514 -3.51185 -1.61884 2.91383 -4.89505 -1.19843 1.17758 2.64254 -3.45003 2.73539 -1.21993 -3.40542 -2.58466 -2.33361 4.59745 4.64444 -3.34903 2.52498 -4.19144 -4.22393 3.88901 -2.33414 -2.2751 3.24452 3.12914 -2.75909 3.758 -4.8959 4.39355 -0.375794 -2.58577 0.619781 -4.83557 0.34428 -1.15349 -4.15101 1.98181 -2.66982 -4.09325 -1.25798 2.17385 -4.05248 0.902664 0.703277 -4.35484 3.47109 -0.153814 2.42129 -0.122496 1.93905 2.10379 4.6695 -4.71715 -1.01987 -0.119247 -1.94379 0.847965 3.11756 1.61339 2.86491 -1.32273 -3.56349 -4.42635 0.00855152 2.74574 4.78812 0.119887 0.745925 -3.58496 1.28954 -3.09453 -3.63958 -1.61287 -4.35954 -1.45303 -3.00512 3.59461 -3.55329 -3.08472 0.596035 1.33341 3.97585 -1.99295 2.82086 -0.166604 3.70449 -2.22263 -4.01907 4.78292 1.52788 -2.10881 1.51136 4.96911 -1.30096 -2.19578 1.66661 3.62221 0.268822 -1.41104 -3.02675 3.91525 0.0271193 0.254958 -2.14659 -3.63061 -1.49704 4.41819 -1.31579 2.8064 4.45553 3.95788 0.678795 -1.27507 -0.491086 -4.04765 -3.63389 -3.93537 1.7402 0.459252 -2.38208 3.7499 -3.26101 -1.91867 4.51489 -2.57879 0.226122 3.97964 -1.07067 2.67731 -0.0514164 -3.36373 -0.321105 -0.270107 -1.62665 1.03885 0.948226 -1.81395 -3.81725 -3.82472 -4.41224 4.04969 -0.269274 -4.39474 -3.77031 2.07857 1.89846 4.47912 4.75514 2.99427 4.07884 0.904144 3.78373 -1.87868 1.78437 3.60164 3.46661 2.17019 -1.93373 -2.66362 -2.17914 4.57945 -4.58014 -4.88297 -3.19142 -3.0371 1.98707 -3.50832 0.0274299 -4.65196 2.89082 0.175075 -4.1574 -2.10434 0.61509 -0.314695 -4.32927 1.60643 -2.61059 -3.34046 1.79728 3.16872 2.00923 2.92246 -4.01516 -3.7057 -4.45404 3.65253 1.39755 -4.70481 2.99516 4.07417 -2.32976 4.32304 1.42647 -1.10359 -4.42807 -2.59309 0.431194 -1.84008 0.957657 -4.75832 0.530208 -4.66081 -2.69351 -1.33852 4.42107 -0.209277 -0.0775549 -1.24006 2.93732 2.42048 -4.57255 0.0814989 0.765652 -3.11247 2.95511 2.77644 -1.48201 0.549019 -2.26352 -2.37922 4.63722 -2.15864 0.0656276 -1.68906 -1.78112 4.71477 2.9631 2.36495 -1.18729 -1.24267 0.972317 -1.05919 2.53946 4.52714 -0.0295255 2.07771 -1.81354 1.3561 -1.61611 -3.6417 -4.53304 4.28343 4.87432 -2.59473 3.88305 -3.4467 4.57288 -3.55503 -3.00633 -4.04445 -0.658189 0.749531 -3.12372 -4.78893 -1.75546 3.71568 1.35673 -1.00401 -2.53508 1.50283 -0.701673 2.77589 4.79921 0.695072 2.55032 2.23201 -2.59581 3.05038 3.7048 2.60347 2.66397 0.71232 -2.7455 -1.58565 -4.86546 -0.366426 1.21007 1.77766 1.08318 2.84696 1.33967 4.03152 -4.92055 -4.89987 -1.58634 2.7659 0.986984 -3.05845 4.58448 3.58709 -4.45398 -3.53851 0.4773 2.97219 -4.90689 -2.4982 2.05271 -2.92495 -4.83405 2.05425 1.73014 -1.11646 0.587319 -0.889487 2.78659 -4.88834 -4.7907 -4.97852 -0.204992 3.66993 4.90738 -2.36901 0.581706 -3.9801 3.35483 0.321954 -4.73582 -3.75534 4.41491 4.58287 2.46631 -4.51053 -2.93177 -1.44747 2.2883 -1.74326 2.71336 -1.75606 1.91504 2.3564 2.52237 -1.89396 2.49616 3.66291 0.654822 -4.21718 -2.64437 -0.631109 -1.11891 4.26553 0.522761 0.87081 -1.53732 -3.44838 -1.54127 -2.43853 -0.0216572 4.90138 2.37485 1.89642 1.54221 2.0706 3.90822 3.04158 -1.19572 -3.34269 0.796292 3.55191 -1.71992 2.48176 -4.13057 -0.664672 3.14985 2.82463 2.28471 -2.8105 3.87205 2.54607 -4.42177 4.019 4.30568 -2.32358 -2.14361 1.85176 -4.66579 2.42474 -3.57678 2.40498 2.60332 4.2025 -1.9829 2.89082 0.271886 4.85084 -1.39895 -4.06452 1.32661 2.28975 -3.97393 4.45271 3.00643 3.76673 3.21344 -0.183967 -0.110395 -4.86485 3.77062 3.86127 -3.7068 3.41895 3.40421 -4.44595 1.54915 -1.14796 -1.89861 4.11965 2.10577 3.75545 -1.2391 -4.11243 4.24631 4.34121 -3.61457 -1.12996 2.10479 3.12681 4.06357 -4.40359 -0.578284 3.94001 -4.82399 -0.88594 -1.89288 -4.95376 4.54778 -4.73674 1.16508 0.277624 1.29299 -2.55823 -0.0835913 -1.4035 -0.355606 4.74704 3.17198 -2.61654 1.27912 0.829297 3.66358 4.81704 -2.94002 -4.11513 2.48185 -0.597164 1.91628 -3.23517 -2.78015 3.8084 -2.48689 -1.74152 -1.40778 2.50418 -1.57348 -2.11043 -1.72137 -2.51235 -0.185357 -1.46187 0.491994 0.936108 -0.238314 -4.38364 0.96788 2.4682 -3.17246 1.25061 -2.33091 -2.41284 -3.70428 -1.29724 -1.12934 -2.83727 0.17088 -1.10235 -4.47226 2.61923 -2.04543 -0.914703 -1.72241 -2.17513 2.48724 -0.537272 -2.98988 -3.27929 -1.8888 -1.22344 -3.06599 3.60775 2.81219 4.91572 -0.446648 -0.837019 1.90449 -3.86494 2.93168 4.1833 -4.53358 -0.36106 2.1753 -0.0888786 3.49983 -0.555565 1.35961 -2.82131 -2.98571 -1.61141 3.11135 -2.95723 4.43585 4.56534 2.10353 2.70016 -2.86687 -1.04659 3.90415 -4.23943 -2.58453 -2.06234 0.675892 1.38427 2.32 2.90128 3.72175 3.6385 -0.811438 -3.72376 2.5608 -1.96023 4.29883 -1.92329 3.29043 4.75792 3.52748 -3.60688 1.0332 -0.831632 1.33123 -4.34991 -0.177126 -2.95164 3.83462 -4.662 -3.20032 -3.30494 -4.95764 -4.95255 -2.0706 -2.25135 -2.96209 -1.70858 4.01771 -0.439242 1.77473 -4.91319 2.48771 4.87386 0.471541 3.89831 0.317131 1.00394 3.92916 -4.73052 -2.88654 -3.18135 -4.13896 3.42351 -1.34244 -3.81664 2.96803 3.70279 -0.0358623 2.4865 3.85577 -3.51379 -4.81029 -3.5932 2.02321 -1.0823 -3.38896 1.88251 0.518146 -4.00969 0.149472 -2.44068 4.51423 4.49684 4.99195 3.37217 -3.59974 -3.01816 -1.01838 -1.83476 -4.20118 0.923551 2.19615 0.209963 2.3653 -4.34901 -2.61692 4.35651 4.57604 3.52018 1.41583 -3.54617 -0.740497 -3.71535 -0.274555 4.03429 -4.58546 -1.47068 1.90376 2.6693 0.296226 0.986941 -1.10173 4.35414 -1.39524 0.571508 -4.86697 0.242603 -0.320655 -1.56955 -4.21278 4.83021 -4.04557 -4.41287 1.81576 -4.66276 -4.14619 3.03216 3.89301 1.93188 -0.154814 -2.84739 3.65927 1.07201 -4.03863 0.432052 -2.56354 -1.25886 2.17715 -4.54292 4.47692 0.857912 3.05306 3.901 -2.66535 3.56197 -1.72413 3.74668 -4.10223 2.64424 3.01644 0.893914 -2.89094 2.68986 -2.98314 1.66891 -2.20902 2.02937 0.19884 -0.790142 2.53038 -1.28822 -3.54588 -0.785039 4.72915 -1.13505 1.65132 4.09093 -3.32607 4.87486 1.65903 -3.22553 1.90206 -2.24575 -2.61507 -0.211429 -2.4525 4.16251 -3.38272 -1.17058 4.07772 -0.593773 2.84442 2.47937 -3.85101 -4.48368 0.992714 0.130741 2.17441 -1.46493 -4.14644 -1.2606 -4.52483 3.31153 -1.42343 -4.18244 -1.39147 -4.45495 1.63788 -2.15759 -3.30536 -0.791652 -1.64445 -0.414425 3.87064 -4.78544 -0.571464 2.12383 1.65339 -0.861124 -4.47885 2.13348 -4.95684 -2.81851 0.0457571 2.5996 -2.49887 1.5658 4.50681 0.864449 -3.93513 4.83241 1.65474 -1.84694 -4.6876 1.41629 -2.23254 -2.84007 -3.06088 -4.82804 4.85768 1.13876 3.88869 -1.91711 -0.676644 -4.50917 -2.70386 1.87499 2.04846 -4.13145 3.96788 -2.86683 2.07034 3.67244 3.56134 -3.51714 3.11846 1.70792 -0.750166 3.78324 -2.25763 4.37801 -3.15818 2.52833 -3.89155 4.13288 1.39468 0.0571662 4.78768 -0.793153 -0.209943 -4.44059 2.19023 -2.29259 -4.11968 -4.0774 -4.49939 3.11182 3.29445 -3.87892 -2.77245 -2.18144 1.70487 -1.541 2.97197 3.30353 0.377378 -3.41122 -2.67807 0.741397 -4.01415 1.50431 3.505 -3.8669 3.0427 2.63751 -2.99345 2.00139 1.04164 -4.06983 -2.65286 -4.36578 -0.597733 -0.530716 -1.024 2.03731 -1.35822 -3.72382 -2.06041 0.0656164 4.40953 3.12832 0.309527 4.28543 -0.817364 2.2902 1.91092 0.827493 -0.491331 -0.643953 -0.89366 3.10735 -3.01602 3.8382 -4.17335 -2.07235 -0.179087 -1.76409 3.85929 3.48982 -1.83372 -1.10544 -2.32721 -4.00979 -0.367575 2.86849 -0.648806 1.3058 0.0800291 -4.43824 -0.341806 -2.81628 -0.370578 -3.59812 -0.168669 -0.639347 -1.88877 -4.28825 1.77483 -2.15057 -4.01897 -3.93138 2.49523 -1.07822 -3.06257 0.0837934 3.98489 1.83532 -1.14193 3.13209 1.05465 4.82893 -1.66339 -0.552027 -1.87768 -3.00842 -2.47861 -2.58568 -2.13568 4.90758 -0.332827 3.12315 -0.477948 -2.2039 -1.06732 3.39882 -3.44395 4.84635 4.03417 3.2477 2.44695 4.9588 4.0621 -2.10675 4.90966 -4.11152 0.416086 -4.44288 4.90938 -0.0736748 -0.565618 -3.44456 -1.89203 -4.45047 1.09576 4.98706 -4.68422 0.392764 -0.328412 -0.672627 -3.3629 3.29237 -4.8939 2.58317 -3.88311 3.57769 -1.45127 -4.22288 -4.38191 4.8706 1.80614 3.79485 2.45788 4.55903 4.17209 -4.2634 2.21666 -2.98992 -2.57664 -0.107081 4.46934 4.70255 0.770993 3.84527 2.41324 -1.47112 0.059111 -0.623247 -2.83244 -2.1483 1.00282 -2.34664 1.20156 2.22377 0.833398 -3.62343 3.15838 -3.28543 -1.00523 -4.44128 -4.27554 -3.42428 -3.68319 -2.20847 1.88785 1.4458 -1.72281 -4.66421 0.0623337 -1.15177 -2.60826 -2.05831 -3.07003 -3.5938 0.0692796 -2.15038 -3.29279 4.40286 4.76458 0.788625 -3.68522 -1.5677 1.70698 0.418294 -4.29602 -2.55483 4.92134 0.301659 -4.89101 2.55262 -0.0587524 -0.957876 1.26979 -1.84673 -2.17664 3.25661 3.0477 -1.50987 -0.506847 0.947889 -3.34121 -1.91506 -2.50711 -3.44941 4.50267 -3.92299 0.816504 -4.93659 -3.82803 -2.66601 -3.47472 -4.81184 -1.91116 4.76121 -4.26785 -4.15536 -3.59895 -3.38418 -2.27489 3.16052 1.1928 -2.14752 2.31102 -3.55783 1.21531 -2.82357 -2.65577 -3.01583 0.817033 -4.25409 2.31286 2.07732 -2.37512 4.18675 0.349645 -0.255854 -0.125984 3.42627 1.34234 -1.79543 4.8419 -1.46275 -0.0288791 -4.30331 3.44986 -0.588626 -4.81246 0.0195107 4.70551 0.540217 0.316788 0.380148 3.87232 -2.81155 3.47272 1.51266 -2.36529 0.479854 3.24235 1.84099 3.3558 -1.04619 4.04895 -1.21655 2.42797 -4.99731 4.99714 -3.66405 0.494976 1.05644 3.01787 -2.39591 0.311201 -0.726628 -3.18351 -2.46174 -1.71179 0.293866 3.93458 -0.756599 -0.253528 4.49402 0.494762 -1.65346 3.74168 2.5932 -2.22548 1.23873 2.99674 4.57713 4.69246 -2.93853 0.947356 3.06629 4.84831 -4.13482 -1.72075 -3.81147 4.86546 -1.37513 0.17679 -3.30421 3.76555 2.23126 0.531494 -3.41371 4.91424 3.42658 0.875875 -2.98281 -2.62053 1.00572 -3.33377 -2.7998 -1.42106 1.82176 -1.32833 -1.59262 0.941203 1.23565 4.42787 -1.10496 4.28799 0.649147 1.39641 0.690343 2.41546 -3.66742 -2.64591 2.66537 3.20363 -3.42436 0.1324 -3.85904 -4.47459 -3.94801 -3.37819 0.170055 -3.81761 4.03851 -2.97011 2.88853 -0.782482 -1.34616 -0.38799 -3.70846 1.4222 -4.03193 -0.223644 1.18151 4.60814 -0.456891 2.237 -1.5627 -2.09882 -3.97719 -4.12796 3.05944 2.99933 2.87554 1.28083 1.82866 -1.20785 -1.8426 0.136968 0.876367 -1.81652 -1.3073 2.20714 -3.76871 2.95859 1.05239 -2.5301 3.56813 4.48246 -0.593701 4.9634 -2.31164 -1.90929 -1.92103 -3.97282 -3.30369 -0.10771 2.77279 -0.944949 -1.00973 0.378688 -0.688079 2.86092 -0.888972 0.290254 3.8598 -0.999525 -2.1626 -2.89668 -3.38297 1.10308 0.793211 3.67339 -0.292074 -1.19216 0.202805 -1.1743 4.2342 -2.69488 -0.239064 1.3789 -1.07788 3.42006 -3.8385 -2.70635 -3.11724 3.74818 1.82628 0.890585 -2.33249 2.95612 2.97147 -0.921288 -3.11961 3.51716 -0.355511 4.54792 1.15219 -1.4919 -4.70111 4.62016 -3.20751 2.87327 -2.51305 3.76684 2.89506 -1.37725 -4.27154 -3.75435 4.72937 -0.308673 4.06917 3.67732 3.29049 1.15167 3.27781 3.1771 0.327575 -0.260992 3.92937 -3.06505 -1.2109 4.07778 -3.12687 3.4009 2.35521 3.08212 -3.1003 -0.362724 -1.22628 0.766643 -4.50064 -2.45682 -0.440542 4.0076 -0.610994 0.511548 3.12893 2.34939 3.08485 3.25086 -3.5622 -4.52927 -4.18616 2.26076 -3.33411 2.60786 -1.61434 -1.3641 -3.75637 -1.15096 -0.666954 -4.82861 -0.965546 0.292912 -4.45917 0.102612 0.729357 -0.0887344 4.6203 0.517713 -2.32717 4.89961 -1.866 3.75757 -0.000905273 3.23025 3.2873 3.63432 -1.04717 1.77669 1.55326 3.06529 1.78255 -1.45772 2.87651 3.256 3.86448 4.86155 -1.57182 3.51161 -1.30431 0.154141 -2.61147 -0.242401 -1.4791 3.67805 0.510396 3.1889 -0.888269 -1.73973 -4.81913 -4.52079 4.26724 0.819053 0.129797 -2.94928 0.0316517 1.34977 0.832116 -3.31987 3.06648 -3.05098 -0.815464 -1.37967 0.876646 2.57281 1.69855 -3.66617 4.83709 3.04338 -2.62695 4.19688 -4.25961 2.89527 4.32629 3.51568 2.48808 1.87143 -0.758869 0.0630901 0.780287 -3.80254 -3.14928 -3.90413 -0.506066 -4.94082 1.44513 3.69036 1.34242 -4.91487 -2.56731 -3.24264 -1.00114 -1.47361 -3.12012 -3.67092 0.744863 -2.90845 -4.54002 -3.84082 3.77816 -4.91527 -1.66806 3.50846 -3.8186 1.23132 -1.91985 3.11936 1.2603 -2.30928 -4.23496 -0.657689 -4.84053 -4.39134 0.44366 -2.78299 0.315916 0.295242 -1.82557 -4.31954 4.44308 -0.123771 0.594842 -0.598571 2.61482 -3.98141 -3.72363 1.14696 -0.2933 1.53627 4.48907 1.16214 3.47094 -1.37663 -4.0509 4.70826 -4.29965 0.55525 4.23386 1.17936 -3.85243 -0.235521 -0.897624 -3.11617 1.94777 -2.64414 3.2652 -3.0043 -3.77441 -3.22449 -3.07592 3.63763 3.85258 -2.02079 -0.606554 1.47907 0.0481295 2.77023 3.40422 -3.73124 0.362458 -3.97268 -4.35699 -0.62325 -4.29167 -3.64796 -2.10532 2.85214 0.344875 1.06812 -4.94987 -0.390693 -2.50348 -1.43656 -0.205849 2.24973 -3.53278 -2.72634 -1.63882 4.29895 1.22391 -0.159534 -0.418437 -4.97673 3.5451 -0.728143 -4.5066 4.85913 -4.31716 -3.22379 -2.55132 0.92115 -3.42257 -4.07672 1.02006 -1.05206 1.12906 -3.53167 3.94676 0.836973 0.688584 3.22472 2.0661 -1.26444 0.0468767 3.2566 0.0641501 1.78845 0.948223 0.782792 4.41474 3.27105 4.56623 0.607582 -4.62291 1.17374 0.847458 -0.583869 4.91465 -3.10841 -1.11604 3.42401 1.77651 -4.694 -0.0071783 -0.432672 -4.01135 -2.38716 -2.41665 -2.43153 -3.51986 -1.32773 -2.74302 2.12689 -4.25477 -2.01251 -1.23514 -1.44747 3.72035 -2.48689 4.9422 0.473798 3.33209 -0.735708 -4.96566 -2.8912 -3.77175 3.10377 -4.73129 1.68124 2.25462 3.38582 0.13219 -0.50998 2.49454 -1.65666 -0.445159 -0.605999 3.25954 2.67991 -1.95944 -2.21389 -1.96252 0.754206 0.878623 4.24993 1.80503 0.295412 -3.33983 -2.56249 -3.00988 0.177216 2.43405 -1.96487 4.98695 -4.68283 3.27771 0.200657 4.3421 1.86315 -0.867819 -0.377899 -0.0529851 1.04397 -4.99301 2.19966 -4.37453 3.66555 -0.882166 4.58961 4.74092 0.498224 1.55852 -4.52595 -1.99031 4.12173 1.69248 1.69409 -1.01987 3.05486 -3.78809 -2.83283 -0.775725 0.901896 -4.77385 3.98658 -0.601186 3.28418 -0.272098 3.33019 -1.67135 -0.842499 -3.1506 0.423948 3.76754 1.00735 4.40082 -4.70501 -0.0631737 2.25235 -0.399648 -0.458533 -3.96512 -0.415412 -2.47508 0.689368 1.30442 -3.71195 -2.47097 1.06505 -3.87406 -4.53614 -1.45176 1.75835 1.54699 0.0302311 -3.53637 2.73374 4.45974 -1.38639 1.0826 2.87627 1.55479 -1.20558 3.0896 0.675606 -0.578215 3.16429 -3.82619 2.65309 1.93978 2.81783 -0.108613 -3.54959 -0.775524 1.27533 -4.77499 -2.06144 -2.79894 -4.12833 -1.77098 -0.22742 3.83721 2.19041 2.869 2.5071 -3.64781 3.72231 2.39045 -2.34706 -0.72152 3.8209 0.832102 0.554828 -0.647735 2.92027 -1.5763 1.92925 -1.30201 -0.32754 3.12844 0.326207 -4.77027 -0.133157 2.009 1.09626 3.6032 -3.01633 -4.98608 -3.48922 3.83463 -3.0678 0.807125 -4.34359 2.03644 -1.12559 2.8772 -2.45564 -0.297898 -0.276974 -4.84641 -4.54069 2.63314 -1.1566 1.08056 -3.79111 -4.65317 4.30039 -4.48459 0.823289 -0.489525 2.12894 3.14047 2.06327 0.10549 -3.36668 -0.984081 -4.76538 0.566041 -2.02654 3.93414 2.58052 3.37038 -2.7071 4.76651 -2.64825 -3.37948 -4.10094 -2.80496 -2.03858 -1.46646 2.16672 -3.42716 1.11734 0.0646918 -4.07627 -0.179675 3.12176 -3.2849 0.570521 -2.7767 1.4008 3.49273 2.52921 -3.25202 -2.65108 -3.30521 -2.92695 -2.5804 -3.05935 -0.598896 2.66324 -3.15142 2.09798 -0.420369 1.43297 4.37702 1.80317 3.80613 -0.422444 1.67135 -3.54781 -3.30895 1.44109 -0.418931 -4.33182 -3.15519 4.75318 0.550572 -1.74922 1.00639 0.916967 -4.41168 -3.77054 -4.59582 -2.58531 3.23436 2.99977 -3.80828 1.27588 4.83267 -1.98889 0.264165 0.659733 2.10164 -0.120434 -3.85519 -1.82688 2.31054 -4.54834 -3.8303 4.06036 -3.91136 1.30106 -0.727306 -2.14941 3.90233 4.31314 -4.50501 3.45371 1.88906 -4.20821 3.47832 -4.70613 -3.52273 2.81891 -3.59595 -3.54404 -0.0412941 -2.12288 -1.81076 1.67423 0.667979 0.132812 -3.76214 2.57158 3.78573 4.80637 -3.27686 -0.689809 4.80018 -2.1569 2.2129 -3.88208 1.03718 -0.664673 -0.000123263 -3.62852 -4.97014 -2.37516 -0.0210102 0.973667 4.73724 4.71882 -0.397176 -1.56818 -2.36093 4.79873 0.00567717 4.55108 -3.23611 3.13096 0.907618 -1.60691 0.641906 -4.81404 -0.307116 3.28084 2.71372 3.87719 -4.34471 4.46678 -1.61062 1.18638 -2.36947 2.16047 -4.95456 -1.26683 2.43219 -2.65013 1.36318 4.18919 0.969183 -1.59495 1.65619 4.97895 1.49436 -0.0486834 -2.89263 -4.2288 1.76212 1.28983 3.88237 1.73391 -1.74506 -3.87361 -4.93489 3.18796 4.44353 4.77976 1.42226 -4.90261 -1.2061 -1.72989 4.87717 -1.19652 -3.49544 1.25657 0.377065 -4.38474 -4.72153 0.415324 -4.35201 -2.45112 0.102379 0.771896 1.30086 -4.95134 -4.45574 2.29758 1.40448 -4.95945 -3.78478 1.68459 -3.44269 4.21699 -3.75841 -1.22923 -3.82399 -0.0661905 -2.76299 -2.48184 2.49771 -2.14905 -4.01409 1.47623 4.8262 1.00154 -2.77228 1.31351 1.9418 4.50705 3.61737 -1.27096 -4.32998 -0.354834 2.43068 -1.50339 0.927693 3.00706 -4.33907 4.86905 -1.952 4.72923 -4.28514 1.8556 -4.12605 3.2416 -2.04742 -3.28205 3.20435 -3.20541 -4.49944 -3.02729 1.08134 1.16465 2.2923 -1.76203 -0.182537 3.61609 2.57058 1.74229 2.0505 2.39831 -1.68878 -2.56695 -2.54287 -0.714072 1.68691 -2.22615 1.03748 0.0303377 -2.19032 -4.83426 -2.46701 -2.64239 2.45136 -0.324199 -3.3962 -4.21071 -0.887849 4.93283 1.67124 -0.798919 4.27489 -2.04035 -3.14143 4.15486 -3.06361 1.31407 -4.62047 -3.40725 -4.98725 1.21405 -4.75864 3.37386 3.45494 0.744642 -2.95859 1.78633 2.09283 -1.62793 2.8272 2.12296 -0.866327 -2.30871 0.261718 -3.83394 -2.44853 -2.47335 0.937816 4.96765 -2.12079 3.03475 4.28951 -1.18913 3.22875 1.39431 -3.3471 1.32725 -0.384548 4.90333 3.7677 0.950379 1.90531 0.496749 -2.70267 3.47232 -3.86854 1.64384 0.0810939 -3.37811 -2.61833 -4.5972 -3.80796 0.751588 -2.41885 3.43058 1.50961 0.568137 1.40744 4.49938 4.07364 1.47332 -4.4674 -1.08674 2.02453 -2.94906 -4.96669 4.31781 1.3918 -2.76611 0.734882 -2.74862 -4.4147 2.6234 0.720701 -3.36892 -0.606573 4.30631 -1.44195 0.492173 0.14921 4.58495 3.71648 -3.50958 2.04893 3.95187 -4.48343 -2.22363 -2.5865 -2.17472 3.79252 -0.840335 -4.63655 2.31956 -3.09686 -0.521781 -1.13805 1.92167 3.37563 -0.966727 4.62274 4.95983 1.63089 4.61547 -3.37551 2.70967 -4.91116 4.50876 2.58313 -4.14276 4.23476 -3.36619 1.06249 2.71283 -2.33263 -0.6744 4.09714 -0.500231 2.96719 1.5737 -3.4464 2.25922 0.95618 4.99976 1.25246 -3.67739 -3.96841 -1.45898 4.59701 1.32661 0.217731 1.03379 -4.43955 2.77177 -4.93125 -2.62732 -1.92589 4.35198 -0.0450363 4.37738 1.61943 0.514392 3.63215 4.64844 -2.74879 -3.96997 -2.35257 2.56277 1.65097 -1.53521 3.89175 -1.37347 3.45386 -4.66968 2.80311 4.96306 4.74492 4.07485 -0.258909 -0.159264 -4.39571 -4.82713 -4.50284 -2.32432 2.15728 3.02931 3.92577 3.23315 2.68051 3.65855 -1.2985 -0.185979 1.94741 -3.02541 -4.05456 -0.393439 -2.77236 -2.16341 -4.48431 -2.69184 3.62726 0.759416 1.51686 2.82112 -4.65263 2.08134 -1.69436 -1.21056 -1.27032 1.9652 4.36035 -2.10625 -1.92248 2.25859 2.89588 -4.04351 1.03042 -3.58763 -1.29632 -0.276102 1.36127 -2.95729 3.76518 4.57097 -0.395603 -4.99685 -1.57524 -4.261 -4.85191 -4.76557 -0.50516 -3.53125 3.24336 -2.33949 -0.266029 3.6236 -3.7415 -3.27965 4.60824 3.06955 -0.0776166 2.99254 -4.37933 -4.91554 -4.33316 1.51563 -2.32524 3.50812 0.136264 1.83352 2.97707 -3.27973 0.227972 3.15092 -4.58153 -2.68772 -3.34961 3.06849 3.36011 4.34605 3.53961 2.70979 1.82653 3.98393 -3.16907 3.02915 -0.613306 2.12057 2.73941 -1.85765 -4.71035 2.89787 -1.32586 -0.763613 -0.244171 1.64552 0.604484 -2.17221 -0.23149 3.35645 0.573981 3.82062 -3.89306 1.17754 0.697188 -0.198568 3.43827 3.91779 -3.6029 -0.602152 0.657631 -3.90359 -0.151834 3.91292 -4.82599 -0.572958 3.18735 1.70552 -3.47048 -4.48998 -1.03118 3.79841 4.95804 2.48385 4.43496 3.92369 3.76606 -2.22935 3.26648 1.52886 3.59686 -3.59033 -2.58458 -2.58518 -3.05935 -3.5881 -1.78146 -2.67685 2.43807 3.46936 -1.51495 3.47524 1.38628 0.0108617 -4.38249 -2.23154 1.48914 2.76665 -1.87874 1.80641 2.61409 -2.69289 1.45345 -4.20074 -3.46638 -2.38339 -4.19691 -3.92152 -0.812013 -1.67274 3.6201 0.690315 -4.56814 4.27487 -4.07418 -4.60869 -4.86108 0.0124615 2.10826 -3.17756 0.927229 3.96497 -0.461002 -3.72988 -4.65649 -2.71851 -3.82246 -1.48911 2.09392 -1.47678 0.158282 -2.7481 -3.56031 1.72876 -4.1849 0.412297 1.93851 -0.413807 -1.39197 4.95324 -4.06434 -1.35252 -0.957279 1.0317 3.51457 -4.80305 2.39432 3.67302 2.29215 -2.21572 -1.67632 -1.81206 0.232913 1.27144 -2.59314 3.42314 -1.17294 -0.402097 -1.55741 -0.389715 3.97155 0.447129 2.98335 0.646707 -0.694457 -2.45513 3.85027 1.01279 -2.49912 -2.87555 4.27717 0.0506512 -2.7163 -4.57961 -4.64029 -0.56044 1.73053 -4.07324 -3.92294 1.3719 1.15399 3.51811 2.65847 2.19873 -2.05697 1.32813 1.48191 4.88143 -2.77212 -3.69962 -3.59548 -0.749728 2.77921 -4.67495 -4.02135 -2.19439 0.164103 1.62754 -0.541115 -4.79326 -1.93354 -0.0164666 1.70951 0.744511 4.42659 -4.24964 -2.0039 -2.31729 4.3119 -2.51765 -1.17161 -3.6544 2.83532 -4.5149 2.89953 3.04164 4.36978 2.91997 -1.56646 -3.96973 -4.69794 -1.92025 1.15924 2.27381 3.69471 -4.44271 -4.24433 -1.0506 -1.35237 1.43855 -4.85426 1.90156 4.3066 3.28452 0.307922 -0.905172 -1.79476 -3.92112 -3.98701 0.721296 -3.60233 4.1443 4.63906 -1.54611 2.25203 1.9841 -0.86587 -3.52774 -1.61505 4.87286 4.01971 -1.15044 -1.15426 -4.07145 3.01979 2.35177 -0.0292291 3.11752 1.37277 0.64547 1.50456 -1.68007 4.76272 4.60907 -2.66838 -2.16471 3.91737 1.71123 4.69036 -1.16716 4.29591 -4.01237 -1.63636 1.55758 -0.118007 -1.10966 4.77477 1.01508 3.25165 4.38527 -2.64389 2.45998 -0.136115 -3.45216 -2.53506 4.69044 2.47752 0.723465 -4.08459 0.388358 4.04767 -2.08325 4.88265 3.75927 -3.54074 -1.87483 0.749427 -4.63741 -0.643117 -0.600465 0.844638 3.89084 -1.0196 3.64603 3.43477 1.09329 -2.17648 -0.224121 0.089512 3.69644 -0.645282 -1.29676 3.87595 1.51166 -0.136444 0.450381 -4.03991 4.23271 2.89344 0.900333 -4.52131 -1.96888 -1.47221 3.9795 -3.54035 -3.42525 0.750771 3.48651 -3.2765 3.368 0.749576 4.81849 3.03745 4.09071 3.99441 1.67899 -3.68508 4.08096 4.50381 3.74139 4.65008 2.11954 2.24631 -1.45181 1.0641 4.55694 0.481597 4.53527 -0.794494 2.73425 2.41769 -0.641141 -4.09276 2.21932 -2.43879 2.41222 1.50369 0.0964713 -0.421843 3.82433 0.826846 3.75555 -4.37387 2.79351 4.00541 4.60104 -2.54448 -1.73153 -4.10315 -2.84397 -1.77743 0.395402 -4.75791 4.01362 -0.245392 4.43221 -2.54666 -2.49528 -2.3641 3.74713 -1.80876 -3.07534 -4.34168 4.147 1.2134 0.363745 3.92685 -1.80299 -3.71465 -1.72459 -2.37629 4.96445 -0.529283 -2.93265 -4.29666 4.4942 -2.1558 4.52905 2.79589 4.87972 -3.40223 -3.45609 0.123228 4.75611 0.120922 -3.01211 0.365747 1.60401 0.529146 -1.02588 3.12958 -4.60362 -2.56271 -4.60845 4.41837 -1.56586 0.442638 2.28788 4.21699 -0.888067 1.88433 1.28747 3.1464 4.51569 -0.277179 3.09881 4.06569 -1.17781 4.64507 4.86806 0.363237 -2.25346 1.3573 -3.76157 3.15843 -0.649483 1.04714 -3.3644 -2.44223 -2.02763 3.74583 4.67916 -3.55975 -1.42308 -4.12219 1.7338 1.8228 1.33573 -2.625 2.43614 -0.528411 -3.3632 -2.34221 -4.87082 3.99837 1.2561 -4.99202 0.739153 2.8158 2.54108 -4.19234 1.42208 -0.774329 0.504697 2.14566 4.95234 3.84525 -4.14021 -4.63527 0.957774 -3.40622 2.73031 -3.17869 -0.312127 -2.23603 -4.35393 4.86056 0.775868 4.70443 3.04739 -4.9145 2.98807 2.98351 1.32798 3.35606 -3.00097 -3.47044 -1.30433 -2.31213 -0.7235 0.394316 -3.8158 1.22928 -4.1784 -2.96693 -0.461648 1.20944 -4.40851 -0.515305 -0.495346 -1.78439 -4.36613 -1.01783 2.32522 -0.523154 -4.32717 2.66477 -0.381949 0.667714 -4.3241 -3.02187 2.07179 2.23802 -1.82085 0.0616281 -2.6495 -3.39829 -0.487904 -3.78309 -2.36193 4.52318 -3.27412 4.27061 2.77662 3.89759 3.61881 -2.37711 3.0127 -4.80381 -2.21213 2.59086 -2.99685 0.223019 4.53834 -3.56863 2.42069 0.0400828 4.7045 -1.53432 -0.219515 2.0744 -2.8355 0.192229 -3.15538 0.571062 4.88732 -1.71752 -0.357037 -2.82449 1.23582 -4.34663 1.93003 1.28755 -1.09247 1.93816 -1.48575 3.46173 -4.16818 -2.95687 2.29651 -1.64501 -1.08946 -1.67733 0.642166 -4.63074 1.20031 -2.88664 -2.14391 -2.21862 4.08625 1.35113 4.3272 0.722521 -4.38662 3.53652 -1.32733 3.30062 3.32251 3.77932 -2.25361 0.569407 -1.25798 4.38759 1.33725 -3.12567 0.27908 3.28592 3.64147 3.39151 3.45304 3.92195 2.98301 -0.543573 2.76108 -4.28682 4.87095 4.1662 1.99638 1.56164 -3.35275 2.93264 1.71284 1.86019 -2.32298 0.528258 -4.06017 -4.48309 -4.23907 2.73042 2.39896 2.68269 1.82406 0.851002 -0.38303 2.34242 1.91734 -4.04939 2.7036 -4.53623 2.72321 2.08084 -2.18382 -2.47455 0.298758 2.71983 4.70365 -3.47827 0.467708 0.63011 -0.857229 0.38867 -4.15803 3.27797 -3.50181 -4.64075 -1.36497 -1.07087 4.59392 -3.27159 -4.43805 2.48052 -0.963383 -3.73758 4.90539 -1.14424 0.63163 -0.0572941 4.97257 2.65243 -2.48627 0.992692 -1.63782 0.676854 -1.76151 -3.43813 -1.82182 1.00281 1.34942 -0.419723 -2.46987 2.80156 -1.24119 3.98007 1.661 4.11033 4.8246 3.02882 -1.68797 3.76818 -3.55583 -1.67283 0.560388 -3.67811 4.37852 0.211511 -4.97757 -4.90184 1.133 -0.792074 -0.899458 3.68768 -4.63911 3.909 -4.10192 4.62513 2.48542 0.57186 4.51403 -0.567227 4.42742 0.520401 2.03493 -0.96421 2.20062 -3.54704 1.07134 3.21365 -1.93592 -1.48851 1.14099 -1.03113 2.67273 -0.301019 -4.39375 -1.67739 4.20701 -4.89646 -4.69009 1.80342 3.39606 1.63537 -3.47714 2.64772 -1.04479 2.24962 -2.70836 0.344705 1.91995 -2.1004 4.04549 1.8596 -0.861163 -4.75211 -0.364542 -4.08186 -1.19667 3.12093 -3.62595 -2.37848 2.75318 -1.25262 0.634999 -4.0163 4.2697 -1.88357 3.12926 -1.3707 3.62655 -4.14309 -1.918 1.27669 -0.918053 0.258854 3.42735 -0.917462 -0.0943958 -4.89442 4.23327 -0.0266405 -1.10175 -1.12337 -4.87536 -3.53238 -2.73064 -1.89148 3.23532 3.28645 0.532462 4.92583 3.26226 -2.30048 -2.63794 -0.887034 -2.4008 2.74203 0.19971 -0.150314 3.06847 -1.82506 -0.465021 4.37514 -1.91714 1.76163 -4.16278 4.09254 0.0474299 -0.613395 -2.65758 4.40103 2.95657 1.90326 -0.939471 -3.66263 1.41981 0.245224 -2.52098 4.6419 2.26167 -3.99181 -2.48089 3.1874 2.07202 0.0480033 3.20855 3.6161 -4.97398 1.18021 2.70366 4.51839 0.274856 -4.42474 -4.65661 -4.20761 3.23994 -3.63074 4.95554 -1.96107 2.6665 -3.95535 4.17919 3.70455 1.3125 2.64011 3.51505 2.06328 3.94482 -0.596698 4.34429 0.117201 -3.46783 4.31703 4.50516 0.0853626 2.31624 0.026418 0.274283 1.39004 -0.686534 3.4096 3.50978 1.42765 1.911 3.1364 -4.52457 0.073935 3.57387 -2.28738 4.72997 4.17424 -2.85669 0.676787 -2.63402 -1.13874 -4.16828 1.98612 0.820995 -3.04976 2.91974 -2.2158 -1.17476 2.2287 -1.0205 -1.40186 -2.39863 -1.37606 -3.76374 1.98177 -3.18967 2.95061 -3.51424 4.15727 -1.1258 2.94134 1.88685 0.0357771 -4.17569 -2.66959 -3.25319 -2.85145 3.00592 4.89842 0.672878 -4.95297 -3.17491 3.37083 2.91697 0.170022 -2.11906 4.61645 2.7952 -0.0605834 2.32742 -4.11791 0.84107 3.89859 0.967755 4.55018 4.32505 1.86578 1.346 3.33145 2.39468 4.46782 -4.21841 -4.88631 -4.08737 -2.01827 -1.71516 -3.74087 -4.93566 2.81335 1.25729 -3.04447 2.56682 -1.83945 4.22967 -4.73179 -4.89552 -3.54159 -0.157267 -3.66831 3.11006 2.82957 3.60742 2.38154 -4.42404 -1.99462 4.98177 3.14417 -2.32534 -4.41089 2.47346 -1.57705 0.599866 -4.50476 4.46955 -2.66772 1.95255 -1.90938 1.54686 -1.81471 -2.54041 3.30249 -2.76256 1.44646 -1.30389 1.08205 1.70494 -4.74731 -3.37937 -3.70766 4.6739 -0.116519 -0.636751 0.0298514 1.60069 -0.556549 2.81459 -3.16871 0.760192 -4.43922 -3.38329 2.49667 4.68965 4.27824 2.86291 -2.06075 -3.09986 0.32895 3.13643 2.35153 -0.81225 -0.183907 0.526296 -4.84068 -1.08943 -2.57798 -3.70904 2.18625 -0.525308 -0.656201 0.820991 -0.831663 1.40171 4.3671 1.91897 2.12231 3.95298 4.07605 4.29995 4.98406 1.83663 -2.97152 -2.88478 1.64872 0.624882 1.00863 -4.77987 1.37511 -2.12096 3.57831 3.31322 -2.59497 -4.16143 0.446359 2.25377 2.42083 -2.66381 4.66398 -3.65468 0.0694452 -3.74143 0.764361 -0.610008 0.932578 4.41067 0.706875 2.92632 2.15203 -0.511411 -0.523847 -1.95655 2.64265 -0.085998 0.763834 3.63761 -2.94361 -0.957515 0.198155 -4.46125 3.99333 2.2198 -4.01665 -4.2494 -4.47867 -2.12525 0.296856 2.40183 -3.45951 -2.33236 -1.54493 3.79921 -1.28249 -2.93498 -2.59858 1.65105 2.6514 3.27041 -3.34239 0.0571627 -3.22641 3.82941 -0.32146 3.32741 0.459693 -3.13671 2.99278 1.02456 -4.23389 3.80147 -2.03346 -3.73048 1.92639 -2.46662 -4.728 3.10302 -2.90291 -2.56936 -4.62223 1.20939 1.20475 -3.50894 2.26491 -0.769607 -1.72425 -4.06027 -0.671902 -1.88755 -3.48312 -2.91275 -0.251818 1.3095 -1.6563 0.0227666 0.568076 -1.51587 -4.28109 3.0168 -1.04063 -4.90088 -2.14617 -0.0334631 0.644382 0.736724 3.61453 1.46639 3.15504 3.57211 -2.04528 -2.11136 3.41034 -0.0548404 -2.90747 1.28526 -0.00117912 -0.717488 2.19777 1.74994 4.47678 -3.59789 3.79127 3.92989 1.93674 0.982226 0.120371 -2.1844 2.73781 -4.40045 3.07343 -3.86267 4.10422 3.52346 -1.24474 -0.799234 -1.55496 -3.2251 4.98236 -2.61076 -4.11994 0.331207 -0.393576 3.75352 -0.00144988 4.30139 -4.05559 1.5442 2.62468 -2.63361 4.20762 2.11079 -4.08948 -2.00377 0.952214 -0.359074 4.96314 -4.38616 0.127653 -0.484608 -4.39786 -3.36941 1.00218 -0.57872 3.49017 1.71027 -1.7472 -2.88873 -4.21996 2.07794 1.2349 2.61364 3.56893 4.03784 -4.24229 2.84534 1.06816 -3.7715 3.52891 -1.46935 -1.13302 -3.99086 -2.20538 3.8491 -3.46258 -2.04421 -2.10548 -0.504816 -1.56252 0.842319 -3.82293 -4.17601 -1.62756 3.91482 2.38144 -0.108381 -4.80385 -2.25353 2.43938 -1.49218 2.78286 -2.42238 -4.03627 -3.85825 -0.192263 3.94216 1.24257 1.58872 -3.30569 -1.58969 -2.64284 0.369227 3.3449 2.47258 -0.152408 -2.86907 0.771099 0.87723 -4.56177 1.3783 4.49836 -2.35112 -2.21183 0.0701889 3.37949 2.78141 1.71602 3.42593 -4.07795 0.0188006 4.53947 3.9957 3.15641 0.326383 0.544602 1.5471 3.37594 1.81501 -3.92093 -4.63077 -1.23013 4.69437 -1.72739 -0.264821 3.2697 -0.516803 -0.709505 1.22093 3.34923 -3.31232 -2.53212 1.81278 3.78649 -1.0272 -4.35631 4.12603 2.58804 -4.61301 0.868751 0.482789 4.12941 -2.0867 -4.54061 -4.84228 2.47502 0.529024 1.93255 -0.319368 2.34949 -2.86812 2.81839 -1.67868 4.95215 -0.849979 4.79103 -1.11861 1.86393 -0.245753 1.34644 -0.984575 2.10173 2.37168 4.53363 0.207799 4.8299 0.902053 -4.29664 -0.490943 -1.41829 -0.293748 4.72007 -2.21826 -1.67069 0.691242 -1.98771 0.321142 1.92963 -0.189519 -1.07464 2.59748 -1.29226 -0.528232 2.68776 3.62158 1.1634 -0.798288 -4.39941 3.3208 4.68864 4.0884 -3.90071 -0.151398 -2.14738 -2.73548 -1.93572 -3.51629 -4.88325 3.13219 1.80865 -2.93533 -4.37373 -1.7242 1.56314 3.42398 -4.51159 0.351319 -4.76401 4.92444 0.320097 -3.28208 -2.02329 2.13302 0.806219 -0.449154 0.893258 -0.954847 -0.0466073 2.13506 2.66896 -3.34817 -3.39583 4.62845 -0.187225 0.666215 -1.35061 0.452589 3.01989 -4.75938 1.29404 1.17512 0.664708 -1.41591 -2.96056 1.22955 1.48063 -0.462981 -2.08277 -4.82484 1.24605 -0.512919 2.48758 -2.64344 -2.0085 4.88082 2.31782 4.48855 2.96734 -4.09996 2.13221 2.52678 -4.94587 -0.0795145 3.42735 0.311654 2.89818 2.64543 2.4097 0.448903 -1.53223 0.0108301 1.60038 4.06083 -1.13633 -3.10118 -2.70655 1.01112 -3.6314 -3.87025 1.3937 4.15818 0.53371 4.66419 4.87791 -2.18046 -4.56519 -3.66944 -4.72688 -3.71686 -4.10371 2.92276 -4.94275 -3.36591 0.816045 0.667754 4.6243 -2.42023 -0.960478 2.3632 0.875834 3.69602 1.38395 3.98614 -4.25358 2.40596 -2.73599 1.39344 -0.819174 1.44549 -4.72346 -1.87327 -2.85668 2.07971 -0.949566 4.06803 1.95488 -4.63152 -3.32214 -3.80881 0.933184 -3.86537 -2.93646 1.56473 -4.89285 2.55304 -0.124827 -3.65972 -0.450311 3.07 1.65286 4.10938 1.56313 4.03429 -4.9352 3.90767 -4.62178 -4.53825 -4.28956 -3.42796 4.15471 0.0470083 1.94756 1.90036 0.977767 0.927546 4.84219 -1.21297 4.16752 -1.6804 0.220894 0.257742 2.37509 -4.44115 4.75531 1.61985 2.68365 2.46097 1.36597 0.0313999 1.41192 -2.76592 4.92072 3.79131 1.5259 -2.79999 2.49753 4.31531 2.07788 3.17695 1.64174 2.14103 2.98902 0.179663 1.58536 -2.16754 2.78387 4.83005 0.120911 2.84247 2.98331 -3.47565 1.1554 -3.37682 0.732414 3.38314 4.98955 -0.675164 0.723502 -2.67029 2.29003 -2.23813 -4.01563 -0.737492 -2.23475 2.45981 4.72752 3.95159 3.72218 -2.84472 0.500166 1.59085 -1.5571 -0.909576 1.82031 4.57483 4.29082 -0.301206 3.14593 2.31315 4.62413 -1.79833 -0.968762 -0.452685 1.02917 -4.21586 -4.83997 2.54571 -1.9443 0.518396 1.3812 3.99885 -2.77076 4.5574 -1.29318 3.32231 3.53057 -1.33282 1.66902 -0.632131 1.70397 4.99261 1.07255 3.74366 0.366703 3.93723 2.61719 -2.92619 3.12354 1.30643 -0.373312 4.65783 -4.00869 2.78314 2.4949 0.00764353 4.70216 -3.93426 -0.000100864 -0.163143 4.04226 4.26339 -2.14397 3.65896 -1.49827 4.19557 -4.9998 2.88248 1.70289 -3.36037 -1.12389 -4.90674 -2.45632 -1.64333 -2.66889 1.67496 -3.38737 -4.60083 -1.39156 4.86126 1.95847 -4.89029 1.06881 3.12522 -4.17151 3.43556 -3.44687 0.438926 1.04741 -4.99886 1.74827 3.68146 2.5384 -0.12038 -1.02968 1.20791 2.07178 -0.0321046 -4.32634 2.58618 -4.09814 3.9068 0.937066 -4.59614 -2.53493 1.1324 4.76029 2.12595 4.83957 2.43178 3.65838 0.807093 -4.11012 2.36051 3.41453 2.13212 0.490727 -1.18233 2.06192 -4.55704 -3.51759 -3.07631 -2.94348 -3.26199 1.23635 -0.890725 3.33104 -3.98612 -1.57816 3.03026 -3.94345 0.588237 -2.57701 -3.07378 -3.58692 -3.37276 -4.46423 2.40593 -4.54625 -0.981738 -3.90808 1.39478 -1.59887 0.8489 3.19303 -4.49741 4.41224 -3.90532 -2.77286 -1.31772 1.79612 0.556701 -2.73927 3.52876 -0.190207 -4.01848 2.53761 1.14327 3.50649 -4.01334 0.569932 3.43131 -4.41885 2.06203 0.126405 -0.366866 -0.244249 1.32726 0.633758 -1.72901 1.1011 3.19008 -3.86916 3.27119 1.3715 1.19861 1.92967 2.74072 -3.29742 1.19183 -2.04879 2.87984 -0.148638 -0.619592 -0.515133 -3.04739 1.44785 0.386224 -3.48982 -4.45547 0.810393 -0.196465 1.21185 3.51702 2.80648 -2.12829 -3.2562 0.414927 3.26939 -4.50159 -0.355808 0.44165 0.438955 -0.574558 -4.15604 1.1722 -3.7531 0.775725 2.437 -2.25061 -2.15842 4.79346 3.27577 3.35747 4.83114 -3.43363 3.2337 -1.52661 3.86181 2.89883 2.57669 1.14273 -3.94511 2.08738 -2.21522 4.19434 0.838168 0.924304 -4.32555 -2.95709 -2.04624 -0.409306 -1.56795 -1.37457 2.5492 -4.08236 0.60408 -4.2985 1.36118 -0.437645 -2.38301 -1.91742 -2.10001 -2.29188 0.0846358 0.0918403 1.56953 -4.41847 -2.2801 4.48862 -1.12093 -0.413053 -1.16906 0.943037 1.06859 -0.118049 3.93528 -2.63703 -3.44935 -3.59412 0.561859 0.863847 -2.3506 -1.28508 -0.635929 -1.86816 0.507027 3.5214 0.251321 3.23677 -0.571801 1.58847 1.99007 3.45658 2.03621 -2.64914 1.7624 -2.15248 1.81169 2.59546 0.674582 -0.84356 4.44336 1.29798 1.88516 2.5011 1.20306 -2.02617 -2.36767 0.608397 -0.0249912 0.469739 4.75838 -4.54292 0.187767 -0.624966 -1.05445 -4.04228 -0.485117 0.416756 0.95573 -4.09886 -0.43099 -3.93507 4.91071 0.856569 0.890761 -1.29496 2.31676 0.932422 -2.02177 2.34978 -2.40718 -2.33784 -1.39692 -0.162052 2.47003 2.63063 -1.44994 -0.161847 -2.32389 -4.33499 0.100817 -1.65055 1.56132 -4.18497 4.8793 -1.31785 -0.720171 -0.212035 4.94864 3.28368 -1.11056 -2.18851 3.40432 -3.5485 3.50704 -0.483605 0.633551 0.046807 -4.4891 0.5743 -2.08775 4.73099 -2.75529 -4.56792 -2.27358 4.56508 -3.42649 -3.98981 -1.41626 4.39576 3.24789 -0.0934058 -4.48763 1.01347 0.478618 2.922 0.134681 -4.63335 -2.18758 3.85367 -2.52964 1.50956 1.58532 2.81923 -4.46922 -0.0737975 -1.56636 0.721816 2.37618 -4.94523 -1.20104 -1.06044 2.60893 -2.3762 0.588999 -3.1068 0.903888 -1.49093 -2.26213 -1.76967 0.798889 -2.04486 -3.158 -4.74403 -1.45484 1.72362 1.92291 -0.708473 -1.59568 -4.67883 1.26495 -2.30648 -4.98464 3.37702 -4.57448 4.05154 2.13742 0.813993 -0.573825 0.422974 4.19334 -3.21578 0.261475 2.57088 -3.2148 -3.84312 -3.21514 1.24616 4.68265 -3.65838 -2.27047 -1.6264 3.65011 -0.658667 3.71366 4.78235 2.91893 2.55654 1.36574 0.438501 0.18732 0.201395 -3.69921 -4.42333 -2.2197 -0.569374 -3.91894 -4.27605 1.04518 -2.85832 -3.09196 -3.01266 4.165 -1.12999 -2.46634 1.04791 2.2677 -2.07955 4.45481 -4.55818 3.31115 4.59274 4.39041 -0.376345 -0.559931 -3.39432 2.06856 4.53493 1.41641 3.79579 -2.66802 -1.20689 2.45131 -2.43159 -4.704 -2.56097 2.77804 -4.52501 2.19543 1.99148 2.79879 -3.55266 4.09938 -1.16069 1.01659 -1.17555 -0.116509 4.39026 2.50364 -2.77931 -0.697571 -0.128199 -3.60041 0.167269 4.93648 2.04999 4.29604 -3.18524 0.182568 -4.10478 -1.72829 -0.193395 -4.11772 1.48075 -4.91059 2.77706 3.58717 2.17414 2.17231 -4.38048 0.0461452 0.441076 -4.23495 -4.67852 -2.53456 0.208986 -4.19169 -0.586919 -1.40672 -3.91598 -0.948348 0.836506 -1.98569 -2.32773 2.01401 3.31039 3.2776 4.02563 4.47146 -1.67039 4.58725 2.14017 -0.85132 -1.18938 -1.96685 3.26052 4.26826 -3.11419 -0.558243 -1.13261 -1.19854 3.05154 -4.75239 2.81739 4.02966 -2.73524 -2.5527 -4.04937 -1.2919 0.0436942 4.91864 -0.516059 -3.0664 2.82102 3.83485 -4.96373 -4.50744 4.52093 -3.72114 0.397734 -2.18991 -4.99478 -2.12717 -4.04034 0.136575 -3.87031 4.36056 2.0328 -3.80827 -2.05197 -0.745205 -1.24223 3.49302 1.30296 0.653411 -3.90456 4.30467 -1.34809 -0.0556984 1.985 -0.46819 2.60865 -2.6563 4.85304 4.74916 3.39492 4.88791 1.92778 0.929479 3.6114 4.08198 2.43324 2.33462 -2.87575 -0.367054 0.114129 1.75643 0.041866 -1.62123 3.28609 -0.950611 1.69614 2.98862 2.78372 4.0267 -2.77459 3.07816 -3.16546 2.11275 0.888457 2.68454 -0.578039 1.26724 -2.14258 0.68402 -1.46879 1.09595 -3.08796 -1.80611 4.42151 1.0882 0.0613855 2.04656 -1.43113 -1.78156 -2.5947 -4.92849 4.79669 -1.18621 -2.80602 -0.0834636 4.49046 0.197919 -4.15197 -3.84155 -0.729028 -2.34231 2.37309 -2.71204 2.4443 -2.96312 2.4013 -2.78232 2.23294 -4.00951 4.55178 -1.40118 -2.66581 -1.59525 1.41486 3.27818 -0.167193 -3.70308 -3.1401 1.44728 -2.486 3.38023 -1.22691 3.92668 1.89527 -0.826104 0.848723 4.16718 -2.36829 -2.79419 0.553304 -4.45982 4.04425 4.05922 3.78911 -0.573654 -1.4056 3.38655 -2.28459 0.494613 -0.0475462 -0.602508 -1.36509 -1.76218 -2.93006 3.49556 -2.10143 -4.08389 4.06476 4.63212 -2.03129 -1.03418 -2.30804 -3.51026 -0.0197037 -1.99734 -2.33106 2.87745 4.23369 3.76951 -4.01195 -0.200815 -0.756107 1.35669 4.3898 2.95995 4.05418 -1.80239 1.47239 -2.23765 -3.76656 3.10532 -1.19548 3.13656 3.7691 -1.7832 -0.0590741 -4.59557 3.06249 1.36945 -4.36967 -4.10845 2.541 3.42969 -0.754461 -1.12879 4.50171 -0.368391 3.17889 -4.13361 0.241221 3.03971 3.74175 -4.82011 4.97618 3.99605 -1.42031 4.59824 -1.96924 1.18259 -0.206757 1.19972 -3.18761 -2.18339 -0.596744 -4.61594 -4.38167 1.10144 3.66878 -2.54711 -1.13949 2.60236 2.76605 3.41154 1.6787 3.40628 1.37842 -0.150271 2.58929 -2.02558 0.731873 -0.178158 -1.35896 2.68801 -3.90086 1.0088 2.13919 4.93159 1.20493 0.310706 -1.04548 2.49028 -4.21899 1.91603 2.21868 4.15262 1.85803 0.0754496 1.33011 2.9065 0.525508 -3.4746 -3.10155 -2.58684 1.21029 -3.32471 3.13023 -1.81376 1.7999 2.12688 1.76382 0.839494 0.0734397 -0.895276 2.05097 -4.71532 0.673994 -2.40424 -3.66085 1.02989 -4.44064 2.36726 1.01144 -1.55039 3.09213 -4.97761 -1.55726 -4.13273 4.31613 1.33643 -4.34449 -2.46014 2.72325 1.64137 -0.734222 0.723787 3.13504 -3.39942 -3.99264 0.0622821 -1.1001 -0.0357011 -2.55278 -1.66139 -1.54844 0.56627 4.79157 3.50375 -3.91877 2.73618 2.06604 1.38425 -2.5269 -4.14625 -3.77685 -3.78092 1.44827 4.77192 -4.423 -4.17277 -4.51038 0.538873 2.62255 -0.165585 -4.59898 -2.81954 -4.14787 -1.60347 2.12853 2.07102 4.79346 -3.374 -3.75646 -4.67566 -3.35912 4.43921 -3.72937 2.49241 -3.83256 4.09395 4.83604 1.34839 0.68557 -2.80639 -4.26532 3.50745 4.44261 1.99341 -4.29505 3.06433 4.18817 2.09342 -3.54378 -2.79805 -3.63518 -0.802046 2.74118 -1.82253 3.46904 -1.90758 -1.97954 1.9331 -1.80982 -4.74379 -4.7704 -2.50463 3.52894 -2.35899 -3.35502 1.4921 2.1789 3.49071 -2.04573 3.92021 4.44817 4.2223 0.228499 -1.68825 1.8426 -3.75513 3.01051 -4.14097 -1.05323 1.6242 -4.21727 0.507913 -4.59231 -0.877728 2.2139 1.22225 -0.54792 -4.13224 -0.187721 -1.0196 0.347777 1.78427 2.13096 -3.72308 2.35413 0.0503753 -2.57598 3.84247 3.98205 -3.85107 -0.752553 -0.58835 -4.54449 -2.31794 -1.04647 4.37725 4.35811 -0.615002 1.65551 2.11153 -3.11622 -3.21288 3.4336 1.72638 -0.534088 -1.77663 2.43042 4.30591 2.03813 -2.93855 -4.73219 3.30423 2.50551 -4.96867 3.19838 -4.57186 3.86188 3.39741 1.05475 -3.75343 -4.27506 -1.91128 3.21012 2.48191 3.75608 2.02012 3.0428 1.44219 -4.29313 -2.70428 -3.92043 -1.42854 -4.11644 0.704088 1.84472 1.28696 -1.98036 1.46336 0.100889 0.989141 0.731072 2.71163 -1.6879 -4.00795 3.69628 4.98978 -4.10242 1.73354 2.61998 0.484369 -1.4148 3.52892 -1.61343 0.273265 4.66014 -4.66197 -1.9257 -1.43956 3.05511 4.81111 4.18566 3.26245 -3.84269 0.0400024 -4.41818 -4.44346 -0.0391421 -0.87703 -1.54575 -4.35866 1.29529 -4.15287 1.53764 -0.823657 -1.82338 2.4104 -2.12096 0.974363 -3.53709 0.391367 -2.89238 0.399065 1.57102 -2.18538 0.842112 2.83815 1.09282 -2.39093 -4.87596 4.32728 1.79283 -2.43507 -0.781597 -1.97482 3.99486 3.69246 -0.461779 -3.01902 -4.28313 -2.9669 0.913719 -0.938726 4.26366 4.03537 -0.291083 -3.88493 2.17269 1.22512 -4.32591 -0.00465441 0.527777 -3.97279 0.880455 4.24999 0.572306 -1.82112 -0.740391 3.87703 2.67866 3.90127 4.67673 -2.88703 -3.79747 0.382671 -4.4745 -1.57364 -0.54353 -3.28459 -0.181579 4.02018 -2.31479 1.33117 4.13243 4.00213 4.51491 -3.83938 1.3006 1.65709 3.23614 -3.97636 -0.539005 0.947298 -3.31776 4.47736 -1.15061 -3.47708 2.74557 2.26865 0.13202 0.933554 -2.93786 -1.44499 1.31574 4.48611 -2.31311 -2.0992 4.93639 -4.95263 3.12273 2.16815 -1.75856 3.9723 -3.43107 4.8047 -1.31383 -4.38949 -1.83714 2.32508 -3.07052 0.0418163 3.37868 1.20297 -3.46934 -1.68166 2.04988 -1.94588 2.98523 -4.35102 -4.30703 -3.70689 -2.95303 4.59826 2.30655 -1.45902 3.39188 -1.72307 0.747141 -2.11213 0.986599 1.49415 4.95843 1.68747 -0.365214 1.43773 4.70745 -4.33245 -2.99612 -2.08345 -4.01769 -3.18651 -4.34196 3.98671 3.09472 0.512851 -0.0713821 -4.58528 -3.5496 4.4753 -4.22287 2.61766 -1.12542 4.99763 0.705537 0.376582 0.651156 -3.74161 2.42218 -1.73146 -2.94717 1.81264 -2.71607 -3.03157 3.56677 -2.94695 3.05827 3.91624 -3.97263 1.46486 -1.58725 -3.46988 1.60162 2.48871 -2.91646 3.2173 1.95637 2.83091 0.660421 -0.449811 -1.30409 2.5074 -4.67076 2.75089 4.44048 1.98208 -1.6551 4.02497 -2.3707 2.61962 0.160194 0.999175 -0.627822 -3.28019 2.80308 2.4523 3.39974 -3.25481 0.2036 0.616569 4.67701 -4.23414 4.67575 -3.64323 -4.64278 2.71436 -2.41975 -0.00622133 2.79806 2.10517 0.910487 -1.72158 -1.31964 -4.61085 -3.87694 1.57595 3.1416 3.73632 -3.23256 -1.76532 0.343824 1.89307 3.15523 2.94987 -2.19772 -1.87453 3.00764 2.93688 2.50074 0.418139 -4.98224 -1.37494 -3.79681 3.06656 -0.93337 -3.75113 2.19024 -1.18153 2.82019 -2.66354 1.39407 0.394823 -3.88018 -4.23718 0.494433 -4.84731 3.79494 4.57253 -4.79415 -0.847372 4.95562 2.72096 -4.72756 3.7772 1.81344 2.79652 0.117621 2.14417 3.35049 2.38399 4.01034 -0.844084 0.821395 -3.54638 2.8937 -4.01853 -2.1118 3.36167 -3.90665 1.98369 4.93828 -3.95624 2.23392 2.712 0.588393 2.43897 -2.61972 -4.59276 -4.49337 -3.65203 0.34798 1.67569 3.32885 2.34337 2.90484 -1.88713 -0.129049 -0.994119 -4.84708 4.54219 4.40954 -4.737 -1.89384 -4.16024 -3.97215 0.466492 0.903433 4.07638 3.51088 -0.754428 2.71718 -1.01094 -3.62816 -3.22447 -0.784307 -0.936292 2.42983 -2.24781 3.03053 3.57606 0.199153 1.16868 1.69198 -3.72351 1.96259 1.01692 -0.685649 2.39189 2.28787 -2.30471 0.133376 -0.846856 -2.639 -4.72419 -3.34642 4.16571 4.50024 1.25575 4.4484 1.64999 3.11508 -3.61043 3.12663 -4.7568 2.85438 3.93647 -0.971903 -4.32749 2.49518 3.42479 0.857819 -2.48816 -4.96665 2.70563 -1.26247 -4.61553 -0.876488 -0.743439 0.696438 -0.171691 -3.93654 -2.77149 -4.69359 1.37627 -2.0629 -1.53169 4.74072 2.59854 3.53103 3.97743 -2.59782 1.67927 -4.45939 -2.64961 4.3268 1.34531 -4.41462 3.19117 4.0394 -0.963476 1.9637 -0.702843 -2.93172 2.76416 -2.10089 3.07846 2.5083 1.92124 -3.02167 -0.449314 -4.74222 0.809406 -2.43848 3.58376 -2.00995 3.322 -0.438581 -2.33939 2.47327 4.31573 2.08656 4.43736 -1.61628 -0.444461 -2.68123 -2.7664 2.18489 -4.25064 -4.66596 3.56569 -4.37688 0.19548 -0.984222 3.50249 -1.2692 1.47376 -2.50713 0.596395 -0.490504 4.96377 -3.64561 -1.09147 -3.33702 2.76139 -3.63315 1.34882 4.49034 2.03931 -2.11169 -3.06141 -4.00054 -2.02889 0.517821 -2.48852 -4.8238 1.99414 2.9656 -4.88476 1.73523 -3.86789 -0.834401 -0.129486 2.59991 -4.0864 4.21354 1.58641 1.74638 2.25856 2.44574 0.688238 4.68021 -4.81148 0.222091 0.438501 2.21996 -2.47794 -1.20411 0.808973 3.72553 3.3464 2.31145 -0.355558 -0.337739 -1.26246 2.41368 0.767377 4.86085 -3.23804 -2.88301 1.9084 2.6882 -4.34282 4.59719 -0.00814411 -0.399976 -1.96009 4.0094 1.3877 3.90607 -4.60791 -1.2801 -1.42028 4.56198 -3.44556 -2.26314 -0.806265 4.33044 2.21443 1.14671 2.17937 2.38615 1.67783 0.481277 4.87571 -4.41485 -0.0562648 3.06988 -1.254 -4.18339 -2.29869 3.14138 -1.87843 -0.928495 4.22119 2.34606 -0.181992 -1.126 -4.06498 -4.01337 0.482409 3.50001 4.43683 4.76175 2.73614 3.2926 -2.99871 3.5312 4.41355 -0.800584 3.68394 4.18758 1.39859 -4.53962 -3.25701 -1.76735 1.04976 -4.76777 3.89886 4.22534 0.0852694 -4.6485 -0.668538 2.20521 -4.542 2.12749 -4.44431 4.91165 4.51214 -3.67317 1.19877 2.88833 4.0409 -1.69059 -2.62458 -1.82872 3.5969 0.358731 0.586604 1.70352 -0.397348 0.0352931 1.90496 3.29057 2.44168 4.31165 0.875823 -0.300203 -3.33409 -2.67886 4.13631 0.895487 2.6151 0.190567 -0.929978 -2.92318 1.51787 -1.28803 -4.18749 1.08892 -3.75322 -3.84843 4.02328 4.75608 -3.65572 2.15556 0.331436 2.23678 -4.95638 -4.38723 -1.41301 -4.7798 4.68393 -2.16637 -0.379699 0.611954 1.8428 -3.01241 1.345 -4.75103 -0.0970567 4.67743 -2.53874 -3.74512 -3.38877 2.44899 -1.88745 0.824408 1.79488 -2.27056 0.803444 -1.41116 -4.85042 -3.08416 -4.50399 2.38532 -0.690806 4.6129 0.855163 0.102043 2.69653 1.30179 0.280757 4.05834 1.00714 4.26247 0.918364 -3.35363 -1.92236 4.45563 3.27487 0.391749 4.38839 -2.66918 -3.83923 4.00335 -3.53427 -2.77447 2.79403 2.9604 2.88899 -3.31338 -2.68636 -0.396943 3.90836 2.77187 -3.03129 4.66077 0.122243 -1.98396 0.630658 3.37215 -0.568977 2.55505 -3.59336 2.60212 -0.429138 -1.12127 -2.67441 2.68052 4.78299 1.72645 -2.85734 -1.26105 -2.41694 -3.68286 -2.69817 0.988928 0.605717 4.35131 4.10395 3.62756 -4.28709 3.73854 3.59125 4.946 -0.569465 -1.66934 2.79006 -4.78183 -1.22695 4.9934 4.74352 4.66126 3.49003 1.65718 -1.01946 0.502262 4.14883 2.50722 4.50682 1.79553 3.75306 -0.351694 -0.608527 -1.32334 2.68587 -4.6632 -0.101443 3.37785 0.458988 -0.514329 -1.51969 -2.94939 2.92822 3.00813 -0.124363 1.52035 -1.03535 1.57784 2.24745 -3.85681 0.342481 -2.13241 1.41901 3.32974 -2.76835 -2.62371 4.73766 -4.73067 4.56959 -1.05772 0.811123 0.310146 -4.40048 -4.96953 4.82524 -4.84832 -3.65295 -4.42772 -4.68079 4.50642 1.31931 -3.66666 2.64272 0.992238 0.333872 -0.50098 4.36274 4.72106 2.98654 -0.945771 -3.83905 2.72113 3.73444 4.15745 -1.57774 0.292878 -3.88954 -1.06868 0.042296 4.37643 -2.39212 -4.99431 -3.56413 2.01964 -1.32693 2.11702 -4.35261 -1.61438 -0.340934 0.791126 4.97433 1.35791 -1.78849 3.37367 2.89489 -0.67644 0.257709 -1.38952 -4.60517 1.45033 3.76338 -2.82646 4.9989 3.14329 -4.04477 -4.97566 0.257045 -0.719908 -4.47897 -1.78895 0.100556 3.40885 -3.27519 4.76481 4.87787 3.34612 -4.61597 -2.88368 -1.04813 -4.44197 -1.71309 4.80183 2.37131 -0.401042 2.02696 1.20375 2.96747 -1.35718 1.86427 2.19403 4.17151 0.681864 0.70947 -2.59193 3.89353 4.76808 1.5389 2.92936 4.77589 2.40385 3.04078 4.28227 -3.23555 -3.27692 -2.10192 -0.730747 0.233883 0.565551 -2.00853 -4.60992 4.28289 -0.865736 -4.75543 -3.61213 3.6439 3.95505 2.45509 0.336464 -4.69277 3.27553 1.91463 2.31985 4.01164 -1.26631 -0.146893 1.86916 -0.640139 -1.82399 3.65111 4.37196 -4.22194 2.04169 0.05483 4.94018 1.83925 3.29552 -3.31877 2.74418 1.21015 -2.48297 0.138171 0.742012 -3.50256 -1.65084 -0.552186 3.83685 2.70825 0.689008 -2.09874 -4.34903 3.32762 3.45079 -3.29317 1.78297 -3.14847 -0.279635 1.55062 -3.36443 1.17745 2.10942 2.01483 3.36617 -4.9516 -3.771 0.91355 -2.86507 2.35244 -3.02188 -4.03202 -2.84364 -2.36081 -2.71892 4.48127 4.66245 2.812 -1.66447 -4.0403 1.88455 4.96602 0.0862948 -2.51323 1.275 2.67834 -2.01943 1.02092 4.60066 -2.77132 2.20199 2.31268 -3.02703 -2.56888 -1.28222 -3.44961 3.96888 0.429827 -4.02428 0.974745 -1.8465 1.29875 2.37569 4.27794 2.36393 4.24007 -1.45587 1.1931 3.60366 -4.68394 3.33081 1.01461 4.29614 4.46425 -0.930545 -0.762632 -4.16861 -4.50465 -0.768815 1.00332 2.67766 0.783291 1.48695 3.08808 -1.2377 0.431874 -1.22271 -4.18586 2.32009 3.43519 -3.62938 -0.61131 -4.95922 -0.51414 -1.92528 -1.60126 -4.92931 1.16359 -2.3042 -0.519696 3.31824 4.98417 -4.27698 -2.39021 0.916618 1.97963 -4.057 -1.14664 -3.16025 0.89409 -4.92008 -4.76589 2.23809 -0.849661 -4.3508 2.35317 1.16985 1.95261 3.73934 -2.48242 1.09522 -1.10844 -3.33797 2.78954 3.53821 -4.67771 3.53409 4.01386 -4.58367 -0.923131 4.82557 3.15401 -0.772565 -4.7551 3.23728 3.06657 -3.9631 4.5576 2.44563 -1.57595 4.56176 1.27199 0.22098 3.20635 2.34479 -0.100828 4.67343 0.0633361 -0.676733 -4.92054 -3.0814 -3.83589 -1.42676 1.42864 1.11492 -2.10081 -3.70599 -4.54613 4.95207 -4.15344 2.99155 1.30539 -2.37425 1.8844 0.267669 2.31087 0.135317 -3.59069 -1.82553 -2.52347 -3.44638 2.9408 0.504739 -1.94925 0.930545 1.81144 -4.92149 3.93824 -2.07555 -1.40987 2.17108 0.511797 4.65019 -3.54417 -1.81795 -1.00125 -3.13365 1.2849 1.75221 2.41029 -4.49579 -2.71205 -1.10914 1.66919 -0.244396 1.34211 -1.44898 4.50445 -2.80432 -2.89898 0.195967 3.74105 1.58551 -3.08676 -1.12076 1.00537 -1.76801 0.906653 1.85659 3.52973 -0.397578 -0.904773 -2.44515 -2.1833 -0.666967 -2.0271 -3.17412 3.45643 -3.6063 2.38002 4.70261 -4.23199 4.90499 -1.20735 -0.522078 -3.86881 4.48872 -4.58667 3.0304 -3.00302 -4.16553 2.43525 1.97354 4.7937 -0.322346 -1.35268 -0.116889 -2.55382 -4.01637 -4.40817 0.627177 3.95809 4.25769 -0.66243 1.70082 4.99128 -3.7302 -0.291138 -4.96629 3.51262 2.6066 1.68683 -3.77076 3.0521 -1.73446 -2.27524 -0.156489 -0.195226 -0.864624 -1.28566 4.34293 4.59063 -0.733632 -1.11186 -3.91386 3.55438 0.646049 3.0642 -0.674798 3.91535 2.9961 -2.87787 -3.59757 -0.238355 -1.62027 2.47766 -4.29974 1.30897 -0.0626031 -4.94068 -1.38569 -4.27743 1.73833 3.21629 -0.0623312 -0.796083 0.191839 1.59446 -2.12037 0.543598 -2.31761 -3.69412 -2.79607 2.73648 -3.23089 4.12667 0.911314 3.58462 -2.30291 0.309104 -1.00239 -4.72248 -0.056932 -3.61526 4.02235 2.69996 -3.50544 2.29429 -0.13963 4.75175 1.41596 -3.60566 0.098248 -3.90669 -0.376821 -0.706756 -3.29712 2.0816 1.43473 3.17196 1.11399 -1.17404 1.67693 4.29842 -4.59742 1.07359 -1.43211 4.88424 -2.01633 -3.64735 -1.84517 -1.88378 -1.17603 1.94389 0.332439 -1.84447 -4.64345 -1.92546 -4.66429 -3.8536 0.919636 4.754 1.90324 3.00965 -4.9022 1.98754 2.26267 -0.189919 -2.56917 -0.268633 -2.56145 -4.12982 0.498571 -2.28842 0.419606 -1.73038 -3.64413 2.54505 -1.43294 0.519098 2.37185 1.8806 -0.090543 -1.64119 3.09896 0.308374 -3.84172 -0.554656 -1.5341 -3.71861 -0.884785 -0.166463 -3.35463 -1.93548 1.74792 2.52971 3.32446 -3.21989 1.34977 -1.51765 4.06841 -4.06754 -3.64381 3.30802 -2.90371 -3.65395 -1.9096 4.87794 4.3208 -0.684312 -2.41974 -1.3967 -3.77416 -4.57302 -0.567404 0.663509 3.72771 2.54852 -4.32802 -1.01389 -2.92937 3.62611 -0.175788 1.65538 0.57342 -1.41652 3.29717 -3.40407 -3.6899 1.31731 -3.71607 -4.41491 -1.79729 3.80703 -0.0258476 4.02822 -0.658528 -4.97486 -2.12377 -0.769713 -4.79137 0.751013 -1.9725 -0.986819 2.53674 -2.80003 -1.66245 2.90923 -1.42155 -2.53148 -1.79452 3.75297 -2.93698 1.95691 0.195383 -3.28282 4.89398 -1.4255 -1.79943 2.34505 -4.89851 -4.42239 -4.58026 -4.71288 4.02176 -2.52678 -2.63652 -4.48002 -1.21897 -3.48154 1.29528 3.68467 -0.890476 -4.28693 -3.87462 -0.711769 -2.69177 0.3511 -3.3608 4.94298 2.92141 -4.83982 2.76837 -4.6708 1.3225 -0.00642898 -1.887 -1.72048 -4.89084 -0.181954 -0.742167 1.82288 -0.175949 0.359987 -2.68519 3.51476 4.7776 4.57534 -3.29958 -4.78783 -0.737797 -2.4896 -1.8724 -1.11048 -1.12687 2.71522 -1.89003 -2.53694 2.72756 -1.77084 -4.98152 -4.90533 0.115131 0.483162 2.01051 2.22348 4.59456 0.283357 -2.82936 0.797946 -0.294415 2.44577 -2.29866 1.91157 -0.288561 -4.9215 2.15161 -2.69657 -3.06787 -4.0525 -4.39249 -2.85145 -0.134823 -0.431792 -4.69639 2.55153 2.46324 -0.249505 -2.42497 -0.181172 1.37837 2.36994 2.93949 -4.25773 3.16715 -2.3888 3.73996 -1.8068 -3.5625 1.20367 -0.4749 4.66903 -4.4328 -2.98323 1.86038 0.958892 0.244588 -0.895755 -1.45006 -4.6545 3.29282 -0.840225 -0.311079 -4.69489 -3.14664 -2.06605 4.3819 -0.335688 4.5804 1.93219 1.75435 0.62102 1.47657 -1.50175 3.61877 -2.66541 4.10591 -1.65952 2.66169 4.80157 0.4899 4.44237 -0.817109 -2.58497 4.6319 4.70536 -2.62401 -3.94931 3.26511 -4.64937 -4.34969 0.239698 -3.05499 -3.76227 -2.48464 -2.08449 -3.27501 -1.41412 3.3012 1.3933 1.7882 -4.36691 3.52363 -4.29799 -4.71705 4.66573 -1.8222 -0.310317 -1.9073 -1.01471 3.24544 2.29651 0.309082 -2.94007 3.00202 3.50477 4.0831 0.405938 3.99503 3.11539 -1.27096 1.65559 4.56369 -2.55725 0.196149 3.37147 3.70567 -1.20929 2.68133 4.17187 4.35154 0.759875 -4.45522 -3.26172 -4.78178 2.82285 -0.998903 -4.35107 -1.98252 -0.646729 -4.29502 -0.863866 1.36873 -0.54855 3.11546 4.21946 3.45044 -0.118989 0.987498 -3.99922 -4.25105 3.41033 2.0333 1.34511 -1.59485 -4.94054 -0.736125 -2.86708 4.82054 -3.52998 3.03485 2.26122 -2.1504 1.77534 4.53343 -2.0175 1.77515 0.519606 -0.866739 0.799432 4.56455 2.70081 -3.62357 -1.98454 1.31016 -0.587339 -0.361308 -4.18126 1.56677 3.6851 1.91207 -1.35747 -0.112795 3.29262 -4.019 -1.12648 -2.90486 3.40881 -4.63257 1.18015 -1.98082 2.75105 1.56848 -3.08058 4.83222 -4.86882 -4.48406 -0.717945 -3.07792 -2.23683 -2.78498 -1.39462 1.32664 -1.95347 2.73357 -4.47034 -2.10022 -3.14194 -3.19368 -2.98503 4.68096 1.8526 -2.45501 2.40652 0.342386 -0.829666 -4.15089 -4.2332 2.42923 -3.07903 4.42481 -1.98852 3.6366 -1.37103 1.319 3.77574 4.85256 -0.789925 4.57257 -3.1141 -0.533729 1.09549 -3.61146 -1.14305 -0.0403449 1.69945 -1.85787 2.14838 -1.67239 0.415315 -0.534979 2.89113 -1.32551 4.79019 4.14263 2.01163 -0.0929317 -4.20829 0.726005 -0.452058 3.30859 -1.59277 3.99036 3.19126 -3.58367 4.40646 2.88434 -3.35426 -2.42378 -3.17263 3.65134 -4.69614 -3.40204 3.56155 -4.53085 1.66249 -3.77578 1.4898 0.313441 -1.80412 -3.84109 -3.94042 0.088337 -1.36202 2.52858 4.78711 -3.60648 3.80672 2.24474 -3.09103 4.93859 -3.48409 3.18299 -1.79391 1.20703 -0.208653 -3.50354 -3.63502 1.63134 -0.861329 -3.1258 -4.85003 0.517029 3.34905 -1.96837 -1.13268 3.42921 0.586661 3.21635 2.97083 -0.537512 0.825394 4.55512 -2.8645 -2.62958 0.127404 1.2046 2.66854 -0.719888 3.16504 -3.51579 1.95134 4.42223 -4.83636 -1.82699 3.27592 0.118861 2.69756 3.06206 4.8126 0.659686 3.44637 1.13444 -3.11486 0.653626 -0.445023 -2.05988 1.85669 -2.79444 -0.548236 2.24407 2.58953 0.76238 -3.71737 -2.78514 -1.40368 2.7439 -3.79995 2.77033 -3.14478 -1.19473 1.75437 -2.09883 0.263569 0.444948 -2.50339 -1.0984 -3.71126 1.16916 4.0687 3.32372 -4.30194 3.89822 -4.23408 -1.80385 2.55057 3.12939 -4.23276 -1.15238 1.96201 -1.19951 0.502061 1.4703 0.549005 -2.36998 4.12227 -1.16725 -4.98774 1.49199 -2.45764 4.51103 -4.04566 1.8586 -1.91061 2.50396 -1.55973 1.19327 -3.24087 -0.727605 3.67868 -1.10039 0.378463 2.09667 -3.99725 -0.496573 -4.60494 0.921842 4.72708 0.0213026 3.42105 3.47818 -3.60126 4.50818 3.02675 4.09656 -3.23596 -4.19448 -1.24167 -3.79631 -3.68023 1.2465 3.4782 -4.97092 -3.53164 -4.97502 0.971975 3.69749 0.0808273 -2.47927 -0.908512 2.36297 2.62017 -2.87206 -3.82566 -0.0720316 4.68004 -2.48238 1.15954 3.32877 0.135 -4.31774 4.36742 3.62314 2.49935 -4.01562 -0.501587 -0.387967 3.75893 2.51083 -3.04793 3.97869 2.03521 0.474568 4.05512 1.17268 -3.44737 2.48154 -4.14938 -3.93636 -1.795 -2.96166 4.82082 4.30686 -3.52373 -1.91606 2.44379 -3.11042 2.06963 0.471836 3.04205 3.22961 -1.74825 -0.862269 -4.60791 -1.20062 2.92402 3.40882 -1.6403 -3.23974 4.92862 2.81737 3.31918 2.81863 3.55092 -0.226981 0.310526 1.14128 -2.80877 -4.32147 -0.197239 4.40501 -3.22037 -2.42558 3.73891 -2.00424 -2.47437 -2.32636 0.667391 -1.35087 -3.22472 4.10341 -0.685293 4.67402 2.82612 1.63899 1.02007 0.839106 1.94059 2.72284 -3.26809 -3.41861 -4.28 3.54382 4.95296 -0.950229 0.168637 -2.6402 2.26267 2.47616 -1.90225 4.89895 -0.537962 1.43809 1.6915 0.821737 -4.35632 -3.45357 -1.12843 3.04153 3.57993 -0.792099 -2.23312 -1.6984 2.77696 -3.9323 2.20554 3.53347 0.943093 -2.5919 3.95747 0.674952 -1.9029 -3.55855 3.60894 -4.39756 -1.11086 -0.978135 2.96196 1.22647 -3.81125 1.13835 0.398111 1.47354 -3.66462 -2.28256 -2.06194 4.10414 -1.9777 -0.93637 -3.73062 0.0367437 -4.48226 -2.09513 -4.42248 2.97786 2.73651 4.66776 -3.53374 -2.00215 -4.2258 3.13245 0.76888 3.12287 0.599207 4.30333 -2.77401 2.64379 0.907646 -1.17415 -1.03693 2.3148 4.81751 -2.85291 2.32142 -1.86388 0.650569 3.09317 -1.77069 -2.67179 3.66312 -0.120684 3.49311 3.99415 -4.51854 -4.65526 -3.68419 -3.40019 4.74817 2.64211 4.11712 -2.1375 3.2995 4.71688 4.26317 1.60154 3.15797 -0.11521 2.86837 2.38404 2.57761 -0.179411 -1.04313 -1.93072 -0.860482 1.17283 -1.45583 -3.275 -0.911988 -0.403006 3.03377 -3.52036 -0.264371 3.43899 3.50731 4.08894 1.51441 -3.38758 1.31078 2.77728 -2.40692 -0.915589 -0.960093 -2.64588 -1.18976 -0.308859 4.83135 3.2309 4.85676 3.65527 4.18695 3.8525 -4.44092 -4.27821 -4.27014 2.47295 -2.6324 4.2253 1.57226 -3.31485 3.74695 -3.35042 2.5353 3.54074 0.101339 -2.41398 0.934465 4.81253 -3.25557 -3.93268 -1.9247 4.731 0.289062 0.340738 -3.21887 -1.5545 -1.06585 1.27144 1.40365 0.834466 3.61802 -3.44787 4.3784 0.743601 -2.92978 0.122359 0.105933 4.5616 2.48189 -1.69621 4.83813 -0.314606 3.85253 2.65721 3.08584 2.62672 3.16564 4.54206 2.87861 0.314541 4.206 -0.650871 -0.91742 -1.23659 4.0051 -2.2644 2.75623 0.712912 -0.760315 -1.65116 -1.01189 -0.815699 0.389748 -4.9496 1.8191 4.52895 2.16242 0.388003 4.26878 0.489347 -2.93902 0.815784 -1.47439 3.72882 -1.28342 4.44033 0.950518 2.33272 -2.79875 -4.72913 2.88317 -0.894867 1.3088 0.224524 -4.23019 -4.16485 2.11123 4.5686 -4.10077 -1.49772 -2.82749 -1.68782 4.60179 -1.57544 -0.105821 -3.84837 1.46166 -3.58195 1.83095 -2.77961 -3.83789 4.74157 -3.24937 3.96593 2.0271 3.09159 -3.23976 -2.38476 -1.09495 -4.54675 -0.0131586 2.97256 -2.46507 -3.23944 0.120361 -4.65959 -1.24913 2.8936 1.2056 2.4225 2.15272 -0.431231 -0.343376 -2.45979 1.48954 -1.93953 2.91426 0.957612 3.90263 -0.702067 4.81442 -2.81501 -2.56329 -3.49829 -3.70591 -1.78524 -3.57155 2.76502 -4.01822 0.196451 -2.39697 -4.10154 -4.81554 -2.79191 -0.0212814 -2.76836 1.11641 -4.65027 -4.73188 -0.180944 -3.44692 1.53896 1.77689 1.71149 0.568684 1.59546 -1.25353 1.07703 -2.62595 -0.388429 -4.63672 -0.542671 1.66496 -0.712291 4.26133 4.88165 4.56501 0.10825 -3.14011 -3.58732 2.42668 -4.63301 -0.567024 -2.84913 0.370458 3.12557 4.68138 0.799909 2.56045 2.52034 -2.29116 -4.81369 1.02731 1.9244 -0.224192 2.53737 -1.12339 -2.38885 -1.38112 1.42229 1.44542 4.17659 3.18063 -0.00733719 0.638757 2.09254 -4.6302 -4.74501 -2.93713 4.81366 4.31594 -2.46272 -1.91961 -2.38702 -2.22604 0.953679 -4.33822 -1.6016 -0.900749 -0.303923 -1.18856 3.6615 -0.349641 -2.60033 4.97026 -4.86967 -0.358714 -4.84503 2.77738 1.99493 2.11838 2.84079 4.84019 4.56668 -3.98666 2.70116 -1.73714 2.16795 2.1196 3.50864 4.12573 -0.784462 -4.76349 -0.523553 3.55227 -2.79853 -4.71105 0.836549 -4.55439 -1.06987 0.0620699 0.990121 2.30008 1.19422 -3.11091 4.39277 2.77098 4.95606 -0.295496 -4.9324 2.54801 -0.975006 -4.27504 -0.0699873 4.41988 -0.695771 4.17772 3.91221 -1.3501 0.505906 -1.38382 -0.905366 -4.2132 3.36038 -4.26154 -4.48999 1.55445 0.544819 -0.183779 1.99831 3.95153 0.105081 3.13392 2.03651 2.07251 -4.53286 -0.567088 -3.46318 -2.29877 1.84533 -3.83975 -4.94357 4.35684 -4.97202 4.34705 3.81553 1.28221 4.31729 4.03055 1.33696 2.08457 -2.20827 1.74804 -0.409956 -1.19613 -2.83918 0.732366 0.712926 -3.42397 1.85992 -2.60942 -0.0669732 -1.92441 2.27534 1.74041 3.65663 2.24336 -1.91111 0.319654 -3.49608 3.21598 2.05343 3.78781 -0.627274 -3.34563 0.00348248 -2.67223 4.90416 4.70042 -3.74284 0.0506419 1.66168 3.5136 -0.431698 1.21013 -0.630151 4.35303 4.74494 3.34874 0.0417809 1.8632 1.4045 -2.55108 -4.78445 3.94573 -0.363637 1.71754 -3.87322 -0.067511 -3.52977 2.2601 -2.17705 1.78665 -4.44161 4.60714 3.19749 2.48208 -3.52147 -4.25824 -0.468093 4.46579 -4.38854 -4.5953 -0.470479 1.59414 3.03625 -4.38637 1.15637 2.10531 -4.22414 -0.90608 4.37409 -2.78708 0.373779 2.54183 4.06193 2.75701 -0.816519 -0.899592 1.97774 2.51656 -1.13181 -4.99391 4.71159 2.01632 2.56161 2.09863 -3.9063 -2.00833 1.79112 -2.23965 -0.515368 0.434866 3.15375 3.90971 4.19048 0.892394 -0.637248 1.03901 4.76368 2.02973 -1.00667 3.59157 1.74545 -2.09561 1.45786 -1.57313 3.16608 2.50594 -2.30888 -3.18406 -1.74998 2.41533 3.25396 4.25481 -0.0594807 -1.15095 -3.91832 -1.66903 3.73272 -1.85897 3.88171 3.0341 3.58811 1.44763 -1.19246 2.06528 1.13631 0.797206 4.3284 2.5129 0.805313 -3.76464 -2.02655 -1.04786 -1.01296 3.78471 0.195238 2.03451 4.54953 -0.702755 -1.24568 0.509033 -3.63686 -3.8534 3.31975 1.86407 -3.70543 4.00523 -3.65966 0.899863 1.3428 -0.198283 -1.03249 4.87781 -2.98149 4.81902 4.35963 -0.51705 0.791246 -2.33941 4.42251 1.66806 1.10661 1.76885 2.16818 -2.08782 3.56376 3.58292 -0.684509 1.20722 -4.49894 0.0672507 0.513769 -4.29471 2.38945 0.170698 -3.19256 0.610899 1.30159 0.835349 -4.91152 4.89007 -3.98421 2.04222 0.674327 2.82887 0.141598 -2.07535 2.29913 -3.5975 2.23135 1.50504 -3.68684 -3.6137 -0.958456 1.51758 -1.86378 -2.91118 -2.80438 1.83075 0.266577 -3.02277 -4.29918 2.79613 4.76716 -2.55875 -3.53083 -4.2658 2.42728 -3.21661 -2.70774 0.125256 -4.56974 -2.96176 0.648805 4.206 4.33628 3.20071 -4.0166 -2.3033 -2.22953 -0.235564 -2.61186 4.65366 1.07819 1.08088 3.95502 -1.1298 -3.35277 -4.92952 1.54477 -0.871533 -3.42415 -2.02289 -4.11489 -0.972535 0.176119 -4.26372 -3.72694 2.1573 4.54047 -3.49035 3.54728 -1.02371 1.54773 3.03354 -4.03959 4.5986 -3.32416 4.8208 -2.24965 -4.9309 4.36186 0.823832 3.0999 -2.06139 1.30467 -2.87165 3.33583 -4.66938 1.38522 2.24983 -0.481337 -3.66613 0.392529 -3.29882 4.71956 -0.90536 0.376873 3.06032 2.02157 1.26479 1.73829 0.760169 -4.41616 3.50265 -0.358379 3.79289 -1.38848 0.962419 -2.20225 -1.48164 -3.22607 4.47331 -1.55622 -2.61046 -2.98086 3.56112 -3.81609 3.0698 -0.590041 0.359484 -4.12752 -1.42168 2.87358 -3.91326 -2.87484 -4.88025 2.64946 4.03762 -1.74346 1.73291 3.16692 -3.0228 1.53274 2.25505 -2.40958 -4.72163 -2.21605 4.45142 -4.48896 3.50406 -0.863471 0.199607 -4.63327 4.72591 2.87885 0.343514 1.98365 1.26693 1.70405 4.20599 -2.25726 1.30965 -0.643499 4.03284 -3.31752 0.0684629 -4.34744 0.558475 4.21997 -3.26423 -3.15083 -0.0482313 -1.59547 -1.826 -1.40656 1.02871 3.66365 4.07827 1.07264 1.6077 -1.64061 4.12829 -4.68319 -4.66131 0.70506 -0.323612 -0.436226 1.78322 1.02687 -1.30285 -0.179887 4.77618 0.860915 4.7582 -0.375741 1.6751 4.93992 -2.29153 -2.14657 2.26275 -4.05444 1.67893 4.93526 -4.28951 -4.876 -2.32045 -0.977615 2.10881 3.01765 -3.1377 -2.94049 -4.453 -4.70856 0.539542 -3.56362 3.95118 -4.50957 2.1046 -3.76685 1.74789 -1.1624 -1.13365 -4.75242 2.91522 1.34361 2.46686 0.728579 2.91902 -4.81809 0.645701 -2.34192 3.87023 1.74266 -2.07251 4.98322 2.05015 -4.89712 -3.84598 2.5479 0.163795 -4.82385 -4.10245 -0.519653 0.406952 1.3428 0.788751 -1.68945 1.11113 3.36319 -4.94081 0.662391 -2.02811 2.39789 1.62885 -0.850725 2.78347 3.38355 -2.50014 2.53174 2.33897 4.7019 -0.128863 -2.51604 -1.75744 -3.76938 1.37116 2.94411 -1.93521 -2.08651 1.00569 -4.03844 3.14685 2.30471 -4.27051 -2.60349 -3.09656 2.01779 2.08289 -4.31717 3.50667 3.50568 4.44677 3.92549 0.303195 0.763221 3.82039 -3.34266 -4.26844 0.74882 2.82953 -3.69938 1.80959 -4.03819 0.905891 2.41225 -3.28744 -3.90668 -1.35398 -0.991574 -0.381881 -4.76047 -4.15177 -3.45592 -1.40168 -3.97124 -0.218341 -2.75271 1.50842 0.604195 1.03557 -2.55288 -4.14041 -4.41882 2.24481 1.27555 0.952459 1.98386 4.67571 2.43802 -3.49674 0.145508 4.61425 -4.73484 -2.17619 -1.95556 2.6285 4.37688 4.2313 3.35288 1.39285 1.3462 -4.25796 3.92949 0.729277 4.66623 1.7796 1.56826 3.3928 4.27669 -0.0634706 2.70232 -3.96303 2.23604 -4.51587 -2.07832 4.60423 1.92778 -4.62379 -4.37574 1.64732 -2.35355 -0.377496 2.25733 4.0152 0.358333 -1.0873 3.12784 -0.931509 -1.32853 -4.37985 1.29346 -1.57378 -3.73243 3.37469 4.57828 -1.47001 3.50937 1.43065 2.61419 -0.0702765 -0.0142842 3.36837 -3.45621 -0.176746 -4.82644 -1.34912 3.16061 -4.51968 -2.99313 -0.414662 -4.06761 0.0295588 1.36375 1.39142 4.49142 -2.76519 -4.09949 0.901006 3.68001 3.23415 4.39574 1.18468 1.17353 0.18307 3.69294 1.27759 4.49652 1.20281 -1.61986 -2.13433 -1.81663 2.18195 -0.570211 -0.904753 -1.35538 -2.34411 1.31344 -3.83379 -1.5259 -0.058422 -1.63588 -4.32569 4.48458 3.57114 2.14101 -0.253979 -2.26078 -0.655354 -4.51827 4.00547 -2.14714 3.18819 -2.91561 -1.99017 0.850912 -4.60591 0.0987891 0.402675 3.7048 -3.35488 4.43693 -3.95846 -1.13988 4.06407 -4.38902 0.703003 -1.60572 -3.76383 1.23346 4.30535 4.02452 -1.98958 2.27935 3.49456 -3.32434 -0.604591 -3.1114 1.05356 -0.678049 -0.615136 -3.26169 -1.09784 -0.63541 -3.87761 4.36615 3.10751 3.6293 4.46279 -1.25504 -2.45325 -1.81731 -1.13696 1.99782 3.54696 -1.21883 0.684187 3.29038 1.1474 2.15343 -1.88569 3.4003 -4.60354 2.61053 -2.96725 3.24188 1.50839 -3.52604 -2.301 0.934491 4.32061 1.34495 -1.5563 0.654037 -0.117557 -0.426625 4.8112 0.123243 -2.79102 0.426821 -0.9932 -2.22004 2.13519 4.65143 -0.652607 -4.71675 4.68105 -3.33941 2.57715 3.59198 -1.17227 2.13322 1.7297 3.40362 2.06734 4.07982 0.625307 1.39295 -3.23857 -2.72013 -3.62717 3.00449 -3.69007 -1.66022 3.88064 -3.45657 -4.26715 -3.8251 -1.22677 4.02394 0.15597 -1.12755 4.56386 -2.869 -4.22854 2.01926 4.16739 0.634192 -3.64216 -1.14732 -3.61309 -1.72916 0.789447 3.98015 0.597692 4.75624 3.94896 -4.34184 -2.20694 -2.28044 -0.51658 -0.089104 -2.01989 4.63686 -3.62961 1.53012 -2.06001 2.87484 -4.45079 1.41041 0.0873754 4.36041 -2.78163 1.06908 -1.52506 1.53131 -0.476853 -2.77531 -0.966158 -1.66507 4.57726 -3.32355 0.046264 1.43545 2.86421 2.84299 -3.9789 0.754574 -0.955681 1.16326 -4.10578 -4.34393 -2.6025 -3.12662 1.40593 0.112822 3.97404 -1.44573 1.66096 -0.271961 -2.27225 -1.78597 1.06878 -1.23292 2.41357 -2.7298 -3.2057 2.78884 -1.85692 2.35948 0.373871 2.64842 4.85459 4.0812 2.77851 -4.00006 1.57793 2.97406 3.93828 1.16053 -1.04037 -3.23511 -4.06624 -2.74569 -4.73317 2.12341 4.39588 -4.25992 -3.21798 -1.07438 -2.06996 1.8369 -4.54815 -1.55594 0.612628 2.19712 -1.69447 2.14827 3.70349 -3.41265 4.43805 2.51064 -3.30725 -3.60157 -2.55858 3.69997 -3.22155 -3.02522 0.628928 -0.780566 1.56889 2.89906 4.95193 3.44298 0.839285 1.73794 0.0938959 -1.99187 4.8561 -4.78004 0.911441 2.34896 -3.35684 -2.06453 2.56754 -1.33145 3.11954 -4.74492 -1.237 -1.80393 1.62396 -4.35517 -0.0130963 -0.967295 1.70472 -0.869475 -3.63406 3.71246 3.16333 -3.0025 2.75411 -4.36993 1.561 -3.40501 3.13965 -4.43685 3.41276 -0.606102 4.24821 3.28217 0.396217 2.81282 1.77183 -3.66478 -3.49737 3.01478 0.208281 -2.664 -2.26002 4.40946 2.08158 0.684057 0.907444 -3.68088 -3.18524 2.00837 0.631312 3.70826 4.89995 2.10316 3.88502 -2.42305 -2.05849 4.99214 -4.70009 3.27231 -3.97167 -2.6749 4.76519 4.74841 -0.176602 0.897198 0.806637 3.74814 -0.135162 -4.65071 0.721943 4.3196 -2.21601 3.03006 -1.19396 -1.61744 -2.61197 -2.66531 -4.29281 -0.0427514 -3.41738 1.6018 -0.256611 -1.70077 2.49555 4.17574 -3.9091 -1.62367 2.26899 -2.30933 -2.40593 0.399051 -1.48187 -3.47154 -2.48352 3.18496 -0.582952 3.49268 2.64634 -3.14517 2.50709 3.63746 0.644866 -4.76774 -4.5254 -3.83667 -2.83453 -1.84816 1.12954 -1.56594 2.0184 -4.04849 -1.97207 -3.9088 -2.48808 -3.75884 3.95557 2.69856 0.907446 -1.07309 -1.68286 1.97426 -0.264388 0.0827511 3.9526 -3.49535 -4.069 3.31746 4.42335 1.99136 -1.6873 -3.66856 -0.423754 -0.701503 4.94332 2.11131 4.66378 -0.642726 3.72647 4.29752 -4.81674 -0.20622 -1.09948 4.15579 -4.57777 3.97274 -2.76554 3.58079 -3.19989 -0.262896 0.580611 2.84887 -3.64613 2.89403 -4.53476 1.43217 -0.486726 4.43009 -3.6559 2.19311 3.72679 3.38124 2.47925 4.96708 3.6853 -0.428769 -4.11496 -3.59186 -4.75926 -0.453753 1.53233 -1.39897 2.5795 -3.06374 -0.754897 1.47486 2.00414 -0.130245 -0.543967 0.0496628 -2.07891 1.09957 3.43824 -2.25417 -4.7094 -0.717836 -1.49023 3.37096 -3.63956 0.895412 -1.93322 -4.59326 0.805356 0.0104465 0.00292978 -1.276 -3.36849 -2.42686 2.27869 1.19537 3.55513 -3.21072 0.0833285 -4.42782 -4.86351 -3.54966 -4.23137 1.64909 -2.98255 0.932759 0.208069 -4.24506 -1.34671 1.7728 4.73141 4.71773 -1.51903 -2.75368 2.97258 2.56436 -2.46371 -0.387096 4.53904 -3.01552 4.65655 4.07719 0.693943 -3.89867 -3.40701 4.92007 2.48744 -3.98753 2.07187 -4.10136 -1.81266 -3.98904 -4.14573 -4.9056 -1.2764 -3.02275 4.49843 4.84031 -2.59067 -3.36264 -1.29655 -1.72738 -0.030132 3.81422 3.28159 -4.45327 -3.2945 -2.60755 -0.984452 4.84305 -3.71458 -3.71988 4.36176 3.14838 3.01285 3.63443 -0.73682 -4.07781 0.0793673 -4.22505 2.52811 -2.85544 -4.68803 2.78598 0.435703 -4.22605 -3.32936 2.2506 2.3918 2.71238 0.237763 -1.97427 2.95811 -2.58857 -3.70378 -3.62802 -0.629582 4.49464 -2.78432 3.03521 -0.683392 -2.23068 3.93551 -4.82476 3.51179 -2.31443 -1.17981 4.79958 1.73899 0.996813 -0.692516 -3.9315 2.16434 -4.48055 2.84731 -2.696 3.11507 0.28104 -0.240212 -0.310062 0.649657 -2.7996 2.53941 1.01957 -0.886939 -0.359619 0.450863 -0.262009 3.05738 0.726661 -2.77637 0.353174 3.81004 1.21337 3.55014 3.88418 3.84255 -4.76399 3.36319 3.1262 3.32589 1.89354 3.13252 -3.14913 0.443093 0.369768 -4.5133 -4.17633 -3.13261 -0.287201 4.4429 0.716735 4.65997 -1.49737 -1.51516 -1.75707 1.62495 -3.38755 3.55014 0.391763 -2.24258 4.86141 2.12578 4.25129 -4.35207 -1.39179 0.220695 2.62781 3.97827 -3.5034 -1.39734 4.20302 0.243691 0.907615 3.74425 1.34418 4.81867 -2.62759 -2.34669 3.9122 2.11864 -3.91006 -2.79864 1.18449 0.690483 3.78734 1.73258 -2.1408 -0.246508 -0.528358 -4.98111 -0.234489 -2.46638 -4.49892 4.67843 -4.33934 -2.79482 1.24113 0.535592 3.11183 -3.23239 2.36282 -1.10482 1.08496 -1.2352 0.00832191 2.73568 -4.61693 -2.904 3.54377 -4.02777 -2.67596 -0.035556 -0.624315 -2.53388 4.89146 2.17481 1.23569 -0.887204 -3.04821 -2.56202 3.42331 4.60575 1.63869 -4.82926 -0.667889 -0.233837 -4.58347 3.78952 2.78357 1.14054 -2.21417 4.1209 1.46509 -1.57585 2.43287 0.352678 -1.9359 -1.65283 -2.75664 -0.266576 -2.10568 1.5397 -0.0491903 -4.92158 -1.77629 0.727672 4.80685 -4.77706 0.0531096 -0.0142744 -0.976267 0.581889 -0.639991 2.19653 2.10037 2.35322 -3.14147 -3.63697 3.26174 2.29995 3.24196 1.2281 -3.79145 4.1702 1.62876 -3.71719 -2.81809 -4.1298 4.29497 -1.91919 -2.7131 3.43908 -4.55952 0.0765555 -2.68177 2.5217 -2.66685 -3.33457 2.86578 1.65629 4.99826 -0.686437 0.765016 2.76968 4.00181 -0.436998 1.77023 -3.60536 4.50639 -4.16923 3.85045 2.65781 -0.321464 -4.82879 -4.89886 -1.09967 3.03416 -3.64553 3.23315 3.36927 -0.464006 -0.459877 3.01656 3.72384 -3.11563 3.39239 3.62175 0.322271 0.765137 -2.27364 -4.31119 -2.63687 -0.560295 -2.82067 -0.720905 -4.28706 -1.59511 1.80867 -1.35932 0.626802 -3.9925 -4.27724 0.317956 -0.168006 -4.46666 0.314737 4.428 -3.67786 -0.655985 1.59879 1.51859 -4.5695 -4.16556 1.64817 -2.38397 -2.35133 0.281102 -4.64604 2.22226 -3.58948 -0.410661 2.98309 3.25098 4.80851 -0.32074 2.21512 0.834678 0.972649 -3.13045 -2.29862 -3.43654 0.199668 -2.16617 -4.98387 3.90824 4.55077 1.1341 -2.27846 1.25471 -4.37509 3.19369 -0.241612 -0.225855 2.97946 0.495492 -2.66447 3.13533 -1.08543 4.21905 -0.553574 -2.11185 2.0177 0.487616 -0.89145 -4.36917 -4.00546 -3.2443 -3.45309 -0.563857 -3.2741 -2.77631 1.94108 2.91458 -4.84871 -0.00308943 -0.355124 0.550552 1.74955 -3.28584 -2.50701 -3.47222 1.34764 3.21867 -0.618388 0.531454 -3.23359 -4.41021 3.19449 -2.7982 0.141231 -2.9935 4.74862 4.10854 0.110419 -0.0203987 -2.44671 -1.30215 2.31298 -3.44824 4.13894 4.90476 4.43585 0.326522 -4.78099 1.89995 3.88608 -2.38508 3.96896 4.66758 3.51797 -0.641215 0.0386758 0.676717 2.21833 -4.40914 -0.0989718 -3.86396 3.92329 0.869225 -3.30273 -2.27356 -1.49656 -3.37669 -2.44193 1.7064 4.46859 3.84235 4.30813 -1.87447 4.67512 -1.63338 -0.964905 4.47778 -4.35393 -1.76187 -4.63223 -0.872044 2.42506 4.21851 -2.26394 4.80839 -3.576 -2.70051 1.27216 4.13597 -2.65038 4.85507 4.5076 4.79598 -3.15943 -4.26617 -1.78702 -3.69644 2.95215 4.41719 -2.52626 -0.454982 -4.47928 3.56387 -2.94039 -0.543336 -1.97453 -3.06449 2.74276 1.52375 3.76134 3.64246 -1.29618 1.28839 -0.0292556 -1.55866 2.84702 -4.44232 0.729628 1.12629 -4.13316 -2.50053 -0.74391 -3.8695 2.76561 1.85892 1.7147 4.46531 -0.175663 0.0989261 -2.27249 1.60072 -1.30132 -3.08687 1.24782 -2.68161 -0.292423 -3.98721 -0.173258 2.48743 1.57545 -4.19276 4.3198 4.36702 4.36477 -1.15156 -3.54723 0.358924 -0.956887 -0.913635 -0.0996611 -2.09568 1.17157 0.100871 -3.0678 -3.05793 -2.26636 -3.61659 3.88747 2.08539 4.29021 -2.92486 -0.32751 -1.55124 3.01026 -0.631906 -1.59984 -3.20683 -0.29976 -3.23733 -3.5162 -0.12418 -2.59269 -2.33869 -1.50088 -4.61171 -4.90242 -4.24273 3.94604 -1.60015 2.96365 1.32857 1.81164 0.237907 -3.65378 4.17869 2.58189 2.41217 -2.56181 1.55485 0.33509 0.769278 3.70763 -0.808587 1.03936 2.19474 3.83286 4.49186 -2.58821 -1.69931 3.64266 -0.776803 -0.289639 -1.94892 1.97487 3.61819 3.61868 -4.60861 -4.40988 -2.44433 -3.86087 2.54133 -0.994679 3.51789 3.52826 -4.76095 -0.808759 -0.0911601 2.0141 -0.382431 3.8892 0.184379 3.80637 -4.11914 -2.75478 -2.4559 3.13932 -0.707309 -3.80788 4.04026 2.74935 3.74367 2.01691 -4.78788 -0.385312 4.90044 2.03496 -1.87633 4.79619 1.91191 -1.18005 0.121774 0.689975 -0.128565 -1.23022 -0.745013 -0.905569 4.55513 0.120656 -2.90867 0.161482 -0.338623 -4.38271 -3.14862 3.26321 -3.62061 3.24359 -2.68276 -4.16232 3.1841 -0.805956 -3.44061 2.70397 -0.609175 4.32835 -0.342272 1.76048 -3.37336 -1.42017 4.89442 -3.60933 4.44654 3.10251 -3.42405 -3.08662 -0.755141 2.51021 2.06898 -1.43226 1.20227 -2.29917 -0.915337 -0.777458 -3.56674 -0.484513 3.25635 -1.80613 -0.843913 0.74967 3.88706 -3.45319 2.16313 3.94248 -3.16001 0.851394 -0.714627 -2.09016 4.17664 0.699636 4.24323 1.71682 1.37092 -0.475953 -0.411145 0.826419 -0.740539 1.35457 0.755115 -2.07417 3.07969 -2.16439 -0.631069 4.00735 -3.44537 -0.393039 2.45515 -1.61131 1.36226 -3.23 3.11185 0.505958 -1.44595 -0.554281 -4.5439 1.48092 3.99887 -1.53969 2.96002 4.93108 -0.0269529 2.14403 0.715468 -0.159637 -0.937021 0.134211 4.59871 -0.201603 -1.10268 -1.07487 -3.06542 1.77487 -1.69005 -0.73251 -3.89768 -1.99819 -4.43761 3.57241 0.92728 -3.37017 -3.52953 -1.7795 0.683073 -1.81393 4.80889 2.20402 2.43036 0.7048 3.84914 -2.85109 1.10305 -4.3715 1.68813 2.90354 2.92865 0.112755 -3.34321 2.66964 2.5479 1.36315 -4.10286 2.24639 2.86503 -2.51887 -0.488567 1.42144 0.775551 -1.18293 -0.70893 -4.92796 4.552 -1.85603 3.39974 3.73801 4.00267 -2.44695 -1.84443 1.26587 -3.60464 -2.6305 -0.888981 -3.89592 0.443515 -4.79501 -4.9093 -2.63454 -0.594179 -3.4568 3.13373 1.48844 4.14118 -1.16828 0.127111 3.89317 -4.34195 1.41728 -4.32728 1.17257 -4.31156 1.46495 -2.06561 0.512971 4.32155 4.33979 -3.47453 -2.99151 -0.582406 3.8401 1.83496 -0.466727 -4.85149 4.83263 3.11857 1.8559 4.60427 3.07342 -2.15647 0.684245 -3.95367 2.15091 -0.25882 4.90604 4.25289 1.91439 -3.07443 -0.599114 -4.96013 -3.67713 0.452457 1.81997 -0.878769 -4.5502 0.690656 1.76051 1.03888 -1.60171 2.85809 -4.79906 -4.79659 1.23326 -0.509629 -0.511449 -0.84862 4.35451 0.346628 -2.05002 4.95613 4.65512 -0.857569 3.54716 3.52671 -1.19546 -0.736234 0.724517 -2.30194 -1.25993 3.42381 -2.40763 -0.137196 3.35963 2.02929 0.395779 -1.07047 0.239665 2.24301 -2.79129 -3.40058 -4.83631 1.39544 2.17588 -2.48381 -3.10445 0.186942 4.65755 2.20799 0.913175 3.42399 -2.20636 -4.87558 -0.758116 -0.407805 -3.11588 3.6969 4.3242 -0.729445 2.14788 1.29662 -0.14341 -1.92027 3.46318 -2.47827 -3.36908 2.43761 4.07343 -1.40847 -1.61968 3.92128 1.44435 -2.41441 -2.63617 1.43794 4.39163 3.06898 -4.6303 3.589 4.47272 3.35029 -1.97283 1.55322 -1.7855 0.478078 -3.44004 1.61642 0.971793 -3.92488 4.92547 -2.9239 1.44679 4.7362 -1.59446 -4.23342 2.03584 -2.17014 -0.80285 1.22415 -2.54577 2.65693 2.35796 4.20153 -1.01314 -1.42645 -0.356239 -3.98859 1.05156 -1.78276 -0.280377 4.72054 -4.63048 -1.01027 0.760678 0.870797 -3.48417 -1.78636 -3.50773 -1.46302 -3.2017 -2.63567 3.43232 2.97242 -0.822588 -1.59643 0.34761 -1.2865 2.06684 3.12624 -0.167901 1.10994 -2.50635 -3.51753 -2.32616 -3.79222 -3.71712 0.814223 3.42287 2.09202 2.97937 3.31823 1.17584 0.105163 -0.134841 0.0172042 -2.40637 -3.0059 -1.61577 2.38084 -4.66624 -0.790604 -4.13792 0.446959 -0.5771 2.14922 -4.2954 0.0708649 -4.23005 -4.18665 0.333393 2.1308 -3.43417 -0.0150289 3.29377 0.681955 -4.49092 -2.84191 -1.12177 -1.91505 -4.21669 4.82497 -1.56078 -4.52477 -0.129861 -1.88668 -2.49615 0.179016 -4.73858 -2.19958 -1.6178 -0.681806 -2.67001 -2.46148 -3.76545 3.35075 3.47545 -1.56104 -1.42148 -1.08601 3.71168 1.94966 -0.961193 1.74091 2.47946 0.224161 3.85206 -1.25904 -1.37961 0.49479 -3.622 0.504624 -2.89293 3.46575 4.86754 4.08883 3.42983 1.64373 4.27515 -1.02777 4.49865 -1.58345 -0.00774887 2.83221 -3.9533 3.64631 4.20013 0.300136 1.42827 4.82518 -2.80054 0.92727 1.27858 -2.30237 0.721485 3.29485 4.35671 1.13761 1.29241 -0.282779 -3.26331 -0.661933 -2.92365 -1.33389 3.99681 
