4.5337 12.5923 -3.28999 -8.41931 -8.80422 10.4729 -8.39662 1.15546 -2.13111 3.23457 -11.1115 -3.77476 -8.89515 9.59188 4.38544 -3.88688 9.67489 -7.50463 -4.9495 11.023 3.31798 -7.10053 3.37375 6.4471 -4.45746 13.9931 11.7221 13.9432 1.91248 12.0072 3.41866 12.9574 -10.1473 12.861 2.52682 5.7518 -13.3393 6.02849 12.092 7.74625 6.57177 6.41625 1.38523 10.561 5.41075 8.04725 -8.23697 12.5008 13.8961 -5.87788 12.1609 -5.61095 6.68502 -6.01922 -1.94495 13.6692 -11.7824 -9.92813 9.68249 1.97899 5.73418 3.76946 10.7703 7.21876 3.81712 -7.58914 12.7842 12.746 -5.85456 7.61512 4.43257 6.85016 -5.89287 -5.85585 -11.0475 10.2765 0.700264 -1.42324 4.23026 -2.64534 -4.41735 -11.9745 -8.21512 10.7769 5.96224 4.39801 -6.39723 7.65038 4.48164 -11.9096 0.577817 4.84968 3.04196 -12.8355 -5.47917 4.72284 -5.70187 -12.4406 -13.3581 13.1198 -13.7235 -11.4767 -10.2793 -1.60297 -4.67468 -6.52461 8.52791 -12.3725 1.85066 8.21607 1.13443 -2.3866 9.49723 2.60213 9.04098 -4.23676 -5.86303 -9.71601 13.8388 5.39595 -13.4301 -3.49122 11.716 -13.5316 4.32419 7.36366 2.5571 3.28561 -9.80624 8.4862 1.9019 13.6202 -10.455 6.12825 -4.19501 -11.5667 1.9894 -7.23118 -10.803 11.3883 -0.349212 -3.86793 -9.20424 -12.189 -0.0986647 4.65456 4.19551 -1.13852 -12.7637 -11.6616 5.63462 -3.68308 -12.4619 5.39967 -6.31249 -1.81607 11.0095 -13.4133 -7.40952 4.05453 -8.28661 -0.352024 -7.40794 11.966 7.6368 -1.30519 -0.107543 -9.56415 5.26573 -5.28294 8.65478 5.18793 4.94856 -13.1656 -5.01195 -11.4295 0.44181 -6.704 11.6995 0.259404 -12.5143 13.3906 -6.30848 -11.4047 7.29162 -13.1227 7.94125 9.16877 -9.50354 -5.6914 -10.7187 -13.0003 0.887633 -8.34888 -12.6107 -12.693 -13.7466 12.5457 7.44203 -7.25472 9.06645 10.5275 -12.447 -1.76096 -12.2398 11.2679 -4.57011 -4.93531 -8.5415 -10.0728 3.16376 -12.7915 5.94802 -6.189 13.2975 12.299 0.985814 3.2446 4.11723 -6.8832 -7.17197 -7.51435 6.11472 -2.05886 -0.154216 -10.6617 -1.88213 7.70263 4.25609 7.89817 -11.8262 -6.02649 -9.75956 -10.6915 -4.79561 3.29622 7.94162 -11.2069 -0.14763 -8.96073 11.215 6.72434 -8.4132 -13.6343 -10.7494 -1.40204 12.392 10.4988 -10.1507 -6.68739 -5.35134 -12.7911 11.3618 12.0394 -11.2821 -7.62195 5.66975 1.07536 -5.99555 11.204 -9.26295 4.90122 5.43291 1.37888 -4.92103 8.36395 -13.9373 -8.83103 -4.4235 10.7833 -13.4771 -4.81579 -7.96308 4.68158 8.29894 1.27295 -12.4436 -1.76826 -8.38075 -6.69843 -13.0202 3.22894 -8.72071 -7.99392 -2.3814 0.495301 2.61425 13.1665 7.70499 -0.452046 0.426121 -6.97285 6.61416 0.5484 0.928502 12.5123 -11.1415 -4.78672 -7.36686 1.36855 -13.3624 -7.28927 -7.46111 -11.6235 -0.0780182 1.86619 -0.632576 -10.1693 3.39919 4.28506 -8.23401 11.7907 -11.9347 -8.93621 -0.0393622 -11.729 2.60155 10.6349 -3.85371 10.0755 4.02346 9.94917 6.94046 -11.7911 8.30805 -11.9924 -0.635511 7.72607 -13.2146 12.8447 -10.6945 -1.61625 4.50454 -0.370524 2.91319 -7.81798 -8.18928 10.4334 -10.0986 -7.96637 -9.24359 12.9848 3.20842 9.31637 12.1992 -6.77153 -11.5378 11.6515 3.56312 -2.42367 -10.4693 0.708619 9.69914 -9.00116 -12.671 -8.2927 0.933515 13.1301 2.18388 -10.2446 9.4226 5.11464 2.76269 5.98522 3.93008 4.8461 -4.99828 -0.336714 5.90976 -10.0842 -9.32814 3.33383 7.27928 1.23698 6.22005 13.2348 6.83174 11.6998 13.1505 -1.5529 10.1643 2.51852 3.59688 2.14618 7.56031 9.65207 -0.0135942 9.00463 0.703046 7.97844 2.48858 -11.2686 -5.9394 -3.2642 -3.16375 8.61782 -10.214 -2.72371 -5.1215 1.25354 -3.19681 -0.872675 -6.22397 -3.59488 -1.23746 7.16508 4.17054 -0.535096 -4.02468 10.1728 2.69364 -2.75134 -6.63269 -12.9323 1.19369 9.08598 -1.5605 6.38154 -6.24338 3.75023 -8.08573 3.05772 -11.7136 -2.87294 1.14258 -5.87229 -12.7181 2.00516 6.87807 1.6108 13.5149 -1.55455 0.442504 2.43024 6.94667 -13.7178 -3.60926 -7.30586 0.586383 10.0601 9.45119 -7.68081 -2.1401 8.77973 1.42975 -6.41736 -2.64596 0.954124 5.25386 7.58615 1.91525 -13.3439 -2.17494 -0.512494 -8.24906 -1.10217 7.80558 -5.5109 -8.48376 6.57983 10.7938 3.38988 -1.58768 -6.66227 -9.73562 -6.17234 -10.4883 -2.31963 -7.58964 -9.17907 -7.02092 4.58421 7.80814 -1.05703 -8.74884 5.07116 5.46489 6.40264 -12.6684 11.1509 13.8727 -11.338 12.9668 4.83538 -8.29718 12.6233 7.25816 -1.54586 -4.2243 -3.92871 13.3528 -12.9714 13.4924 10.6205 -4.62727 -7.19418 -8.67042 1.07753 -13.5809 -12.1178 9.22984 7.18494 9.3224 8.33698 -0.287567 7.48094 9.56132 6.84321 -2.84102 1.56918 1.2527 -4.13529 12.0994 5.78399 -6.53236 4.23377 5.47039 -7.20514 -9.00939 10.7856 -11.8177 11.6819 12.7893 -13.5841 0.621557 13.3709 -3.63855 4.52004 6.30729 6.19439 6.23597 6.58863 10.163 1.92243 -5.68567 -13.2405 -5.52363 12.4908 10.092 7.93296 1.12382 6.9903 10.8624 8.92802 0.229591 6.42114 -8.81187 7.62386 5.23185 -7.53413 5.65272 1.21276 2.61509 -4.81745 4.71407 -7.25692 2.59856 8.34104 0.986909 10.5107 1.25088 8.89936 -9.76319 10.785 10.3052 12.358 3.96649 -5.35543 3.88683 -2.71029 -10.5058 6.08404 -13.5118 -3.49879 12.7468 10.8237 -11.8299 -5.01898 -6.18426 -8.91801 -6.57083 -8.18311 -7.32142 13.0034 -10.5811 -0.770411 8.13022 -7.26944 -11.2869 -10.2297 13.325 1.87607 4.67556 -4.74944 -9.06606 4.17341 -3.35819 -5.02901 8.97553 6.1843 8.83778 -1.73805 0.361102 0.539751 -0.328912 11.3867 -7.94658 -1.45345 -8.76255 10.707 -1.03556 12.0227 6.20068 -6.46638 8.61791 10.9623 2.59758 1.72863 11.15 8.18714 9.30411 6.21959 -8.60567 11.4553 -0.941766 -4.16832 -13.2668 -8.95413 -6.31691 5.88495 9.66669 3.33664 -12.609 7.16546 -12.0166 -8.28987 -9.29237 -4.81953 2.37741 -8.98027 -10.2064 -2.30839 5.48593 6.70363 -5.80682 -13.8435 3.78374 3.6709 7.23038 13.744 6.94114 13.2326 -3.99547 8.7358 6.13217 -12.7573 -10.3672 -8.03324 -10.146 3.69318 8.14626 10.2514 8.65715 5.5651 -12.1882 4.08788 9.75205 5.07664 -1.19092 -1.29687 0.833102 -9.96864 -7.47758 0.435217 11.5105 3.82425 -8.89623 -13.952 -7.4005 8.20186 -10.701 -10.4491 9.17984 11.9753 11.8167 -4.11231 -13.4573 6.45989 -7.44638 6.68086 -7.44226 3.22883 -6.13969 7.41679 -8.69479 -0.927277 11.645 3.67183 -7.39118 3.6254 11.6972 -3.6032 -12.6043 -2.42901 -6.04274 -6.29808 -11.8374 3.54985 -9.49895 13.9439 -2.61575 -5.28568 1.18584 -0.188159 -3.39008 -9.46089 3.61583 7.15442 10.6397 5.05215 1.534 -8.09844 -4.12883 -10.8527 10.8311 2.9894 2.2038 -0.072943 -0.921634 11.8418 6.54477 6.6947 -4.61637 3.46977 -10.4896 13.9403 2.43618 -5.02486 0.248465 0.724756 1.21911 -2.89869 6.11755 11.2663 6.02505 -11.398 -7.73774 6.23093 13.1298 4.71103 -11.7252 -10.7572 -4.13474 -9.20267 6.23744 9.56177 -3.14156 11.1691 13.626 -0.804879 8.21561 10.9476 -4.3827 -3.67091 -1.0322 12.7565 10.7673 3.95747 -3.84684 -4.64177 2.04414 -13.7687 5.9935 6.25813 8.12333 1.40736 11.7048 -2.55733 -8.38496 8.29054 8.62752 -3.82471 10.5305 2.43122 3.573 6.83304 7.16411 -4.34158 -8.32588 -6.72376 3.79161 -13.8239 -13.0666 12.6336 1.09095 -5.02245 11.69 -0.0837054 -5.42932 8.88074 -13.6936 9.97239 -5.81845 -10.5525 12.3377 -9.6547 12.4739 -9.10772 -4.07902 10.2432 -3.01653 -6.42091 -3.22519 2.06606 -1.60615 -6.72975 0.725836 -5.96209 -7.65747 5.17959 8.14262 8.70851 -3.4241 -8.53912 12.5854 -12.4697 -7.19163 5.39081 -13.9159 -6.1617 10.1033 3.3917 8.85473 -5.68678 12.9136 -0.457772 1.75279 -6.30529 -6.76397 10.6384 -6.13761 -0.26187 -2.69482 13.931 2.71479 13.3534 -13.8554 -0.645115 -7.46912 7.67261 13.8072 -6.35016 3.51286 -4.81726 -11.57 -0.781092 -4.83824 -5.37257 13.7712 4.98464 5.3658 -0.557783 7.86645 -5.72041 2.7265 5.10761 -7.24503 12.921 -1.918 -13.842 -13.2771 -6.89821 -10.3725 5.1957 13.6608 5.10931 -11.0124 11.9016 7.58482 4.76239 1.62503 -11.7163 -3.52236 8.59339 -10.3534 -7.19256 -5.97617 -4.97061 9.8917 11.9372 -9.08831 -8.53651 3.99603 4.23683 10.0416 11.4149 6.33543 9.69346 -6.20014 11.6274 13.2697 -11.1127 -4.25977 -8.36957 -6.69026 4.6801 6.18331 9.05215 -11.6006 1.39057 -10.9173 0.570104 -4.6587 8.01711 11.4726 -9.74751 -13.4895 1.20097 5.09309 -5.65865 -11.5882 7.19003 12.4463 -1.44759 6.38385 -6.24426 -2.03872 8.39994 12.1439 1.97288 9.6356 8.81323 -10.9734 1.80336 5.78515 -13.973 13.0825 9.69748 -5.71456 -1.5942 6.3425 5.47524 -4.96861 -1.83902 6.39182 4.10125 -3.59779 -2.27695 2.90339 -10.9571 2.15959 11.2275 5.83682 -11.4695 -2.45662 -13.0901 -2.18945 -9.42225 -11.6913 2.75456 1.87932 -11.4279 -10.3656 4.72212 -11.5003 4.5649 3.40031 7.38715 12.5615 6.79025 -5.79343 12.2689 -8.63178 3.96613 -5.4579 4.97826 -7.87599 4.41508 12.8525 -3.31922 3.50813 -2.86056 -10.9327 -10.8835 11.7566 7.75237 -5.7296 1.74115 -11.3108 -13.5592 8.36233 -0.402314 5.46866 1.16189 11.5116 -8.84816 -2.85559 0.319041 12.0518 -6.14035 -2.7529 -7.60744 9.47229 -2.54999 -11.5619 13.327 -0.300725 -2.37828 1.041 11.3762 -9.91853 7.34239 -4.60494 -11.7271 13.8289 4.83473 -10.0271 -9.8915 3.41078 -3.49429 0.0524266 -6.60057 2.18236 -4.35147 -12.2742 2.64742 0.531381 13.1862 -2.31986 12.6193 -0.754305 2.47655 -4.15392 -2.53202 -1.88095 -7.55365 -12.6269 12.5957 2.89708 -0.120584 6.87774 12.9559 8.83385 8.78733 -0.329095 0.899296 -13.8144 -0.739022 4.21742 5.13337 -9.92396 7.64328 -10.6235 11.6237 -4.0739 -2.85111 2.72827 12.7939 -5.57227 -10.2008 -8.11771 10.3696 7.53915 -0.0179556 1.54183 2.74085 7.51114 5.48596 -4.5908 8.97296 -5.48532 13.4583 -4.82002 12.6863 11.3519 11.2464 4.87244 -3.60879 9.21726 7.51414 0.108064 -5.99071 -11.0301 9.29227 5.74954 4.5471 12.8931 -13.7718 -3.2328 2.13033 -7.18681 8.27999 2.23869 3.77658 -7.61084 -6.00649 4.94433 -9.66192 -10.5779 5.36844 -3.5141 2.98211 -1.62819 -11.4477 6.50105 7.35866 2.93744 11.0272 7.26879 11.5408 11.5802 11.4024 1.47318 3.62086 -3.24779 -4.67706 -3.92981 1.7406 0.387061 6.00075 -8.23319 -8.50447 7.62069 -13.5513 8.56468 7.93416 2.99828 -5.88779 -9.82187 -6.12701 5.57048 4.32258 0.750762 0.694138 -6.9803 1.25548 -9.47455 12.5486 11.601 -9.18447 12.6506 -3.58282 -4.23258 6.55771 -10.8496 -9.98583 -0.721181 6.75049 -2.74693 1.80755 -6.77246 3.80792 8.30488 3.5352 -2.78785 -12.686 2.24476 3.06049 -8.6302 0.682793 -2.32797 11.8636 0.299686 13.3897 -2.31704 4.60155 10.127 -1.25719 5.96838 -0.38383 -5.12858 -11.7467 -5.16379 2.18536 5.08956 -3.56372 -1.14545 -13.5351 1.64228 -11.869 -6.90342 9.88958 6.97436 -11.5613 -13.4609 9.49004 12.2675 -9.20763 6.02286 6.91203 -5.04877 -4.7832 4.34592 -10.2497 12.1297 4.16793 -3.52413 12.8686 -0.321832 10.7149 -9.97512 -0.347184 4.64567 -6.64686 -4.15314 -12.6267 10.4058 0.149433 6.29653 10.864 0.395229 -4.15707 -0.135268 -13.9371 -1.46625 6.0563 -10.9689 13.2368 -3.62272 11.9755 4.34968 1.90471 -10.0764 9.16516 10.8493 -6.4621 9.9815 -8.03415 12.0893 1.44595 -11.6568 11.1271 -7.35445 -6.46531 -1.75255 -4.61619 -2.05763 8.27412 -12.6182 -7.34783 13.927 -5.13734 6.20081 8.0711 -1.13043 -5.65068 -13.6083 7.91134 -1.70439 12.7667 8.9134 2.29475 0.637215 0.118246 -9.63999 -4.8977 -0.731353 11.6189 2.8775 9.93845 -11.3496 11.0848 3.01027 5.54098 -2.08553 -6.09672 -7.69958 -6.65015 -10.7315 4.52736 6.47712 -0.79555 5.97212 5.13415 -3.9875 4.89034 4.90027 7.96317 -13.995 5.20039 2.56223 8.34732 7.51694 3.531 1.84088 9.61889 4.0893 -6.69511 12.8702 -2.50536 10.5228 13.3441 3.36096 -1.21612 10.4203 4.17924 -1.7083 -6.1686 -5.7863 -4.3016 6.18306 -5.98816 13.9478 13.3345 -13.6106 4.76911 4.07643 7.24898 -4.46761 -3.43616 -11.6564 0.574527 -12.1604 9.68451 11.262 2.321 -4.37726 -10.6642 12.0912 7.76722 9.55176 4.42603 -3.4357 -6.1986 -11.766 2.78923 12.5025 11.2 -7.76197 10.286 3.44124 6.45522 -1.09708 0.228847 0.572115 11.9529 -11.6022 7.34548 12.9373 0.390861 13.8788 5.50744 -1.64816 2.28771 -1.02494 -0.440989 -8.53149 12.3108 -2.41425 -6.06187 -11.8109 1.78151 -4.20071 -13.1924 8.47425 -3.50717 3.35356 -4.04414 -7.79142 -13.7719 -4.87365 -9.74543 13.5483 -5.76369 -1.17459 10.8274 5.43267 -10.4867 7.22078 -0.553046 -2.42878 4.86299 -1.17062 3.29712 12.8991 -5.11025 -12.2009 6.43279 -0.299181 -3.00701 4.23001 -12.8626 -13.3661 -2.1919 -1.38275 8.73919 -4.38932 1.74118 -3.02471 6.58473 5.59273 2.03759 -9.86529 -8.39012 -7.18289 4.35223 7.16151 -13.2134 9.99606 -1.09589 13.0339 1.85968 5.20098 7.69896 -3.88449 3.46922 4.43451 7.1721 2.05691 -6.31904 -5.97969 -1.20865 7.1241 -11.6137 11.2035 2.94235 -8.67434 5.30198 -1.60753 -3.30763 8.92306 12.1826 -3.65886 1.67309 11.2577 4.27323 13.7308 -4.15289 -13.6198 11.5848 -13.8328 -13.1807 -2.2503 -2.2071 -3.52393 -7.21241 9.19913 0.550141 6.35212 -4.80213 -10.2969 12.8135 -7.51118 -12.3648 -3.07867 8.07702 6.27862 5.10437 0.2384 -0.895766 -10.0778 13.7468 0.23557 -2.0449 7.76783 -4.61238 -12.377 6.46688 -9.04318 8.96542 -1.28104 11.2301 8.79996 -11.2634 13.132 -5.20616 0.66744 5.52593 -7.53145 -7.3295 0.13798 -2.14349 -0.375124 10.8426 13.5198 -1.00025 -5.87657 -0.595735 -4.02536 2.7121 -8.05681 -6.0889 4.0235 -13.3743 -0.650177 -11.3752 -11.0752 -2.67383 -5.41704 -1.97051 -3.33667 -12.0009 2.5393 1.79479 -4.51264 -4.53232 11.5915 -6.86439 -4.30632 -1.317 -8.78702 -6.18554 2.55194 4.35617 3.59497 -11.5244 -7.9734 -0.935462 -3.08277 -4.60806 -6.29707 -2.67262 12.7286 -5.38655 11.2056 -12.2756 0.876184 5.61713 0.279399 -1.53271 -10.981 1.38563 -0.523666 -13.9753 7.60038 -2.99313 13.1793 -12.6125 -0.888654 -0.588223 4.4738 -5.55547 11.3243 -7.64781 -3.87015 -5.99082 3.54813 6.52655 -8.94137 -1.16655 8.61422 12.5653 -6.40521 2.82087 11.9896 11.2038 -1.16685 3.00478 -11.5193 8.56979 -1.34418 11.6625 4.29277 -6.67898 -10.4441 -1.45499 8.16796 1.67353 -12.1611 -2.07104 -3.6881 3.06612 -7.95206 -8.42599 -9.34862 -6.9672 -2.36605 -1.8059 6.62736 -4.00628 -9.62539 5.36334 -8.27882 -3.49078 7.83169 -13.5587 0.956662 -1.80193 3.13869 -8.6446 -12.627 11.561 -9.43275 -8.19523 6.92196 -13.6514 2.17613 3.22929 -12.916 1.36073 7.64124 1.40884 -12.7291 11.6613 3.34959 -1.12233 6.26235 0.102641 8.469 0.0215991 -10.6654 7.63744 -0.974176 -6.6796 -5.94333 -3.47793 2.55986 0.585968 13.6072 -9.92576 1.73114 2.67089 -13.2891 -2.14195 7.38958 4.25489 12.0264 10.5778 -0.00895681 6.89593 13.9428 -8.31383 -5.41768 5.97917 8.20997 11.0604 -3.37618 12.1887 -13.4721 -2.24231 11.3425 6.32455 0.624872 1.17022 -4.32934 -10.4037 13.5966 -8.63106 -12.6507 3.02535 6.42111 -0.703801 11.4414 -3.94607 9.33419 -12.4832 -3.01802 8.54902 12.5628 -7.5269 -2.43686 -9.56637 1.11602 11.4396 -5.38449 -0.353489 9.97851 -11.4757 12.1082 -3.5261 0.380231 11.6499 -4.42782 -12.9516 11.9412 -4.83678 -12.8205 7.8972 13.1355 -9.06454 12.9829 10.5976 -7.5684 -3.40336 1.15519 6.69259 5.69841 10.4926 11.1312 -9.99217 9.17626 -13.0491 -7.6721 10.7311 -3.76781 10.0895 -4.86521 -13.6554 2.56014 12.1283 5.71767 4.94709 9.2056 -1.87204 -0.612594 5.86328 -9.86231 -2.91791 -11.1981 3.91786 4.41496 7.78493 -13.0782 -0.917605 13.0423 7.31573 3.61729 12.0297 -7.17173 -0.269859 -0.623063 -0.318652 -7.22702 10.421 -7.50893 -5.23123 -3.29663 13.9416 10.5581 -13.4495 -7.22842 -4.66269 -12.4361 2.84336 8.3161 0.726825 3.88088 -11.812 -4.82933 6.717 8.118 -5.75057 -10.824 -5.78321 -7.27408 -1.85431 -13.6155 -12.5764 13.4039 12.1808 -13.867 3.02735 -13.2862 6.81862 -12.6206 -11.036 -12.9707 -0.113646 -5.90324 -10.9103 -9.05837 -5.70542 -5.17723 4.61148 -12.8708 -8.88828 -0.0166361 -10.246 -2.00252 -3.17235 4.69453 12.0071 -10.0502 9.49108 -4.09892 13.5413 -12.083 -6.156 -9.99659 12.5982 -11.5204 -1.89395 -1.54246 1.48335 5.80639 12.6605 5.35445 -6.92547 4.40511 6.55196 -4.92012 -1.82564 9.62344 -12.5398 0.0145362 0.905175 -6.95945 12.7761 -6.28327 1.55399 -0.402251 -0.0569562 5.85855 -10.875 -12.0289 0.700528 -0.90188 3.84658 -10.0973 -13.4027 -0.449538 -1.50692 0.883386 -3.30566 9.88831 -11.4169 -7.69205 5.07305 6.78894 12.4563 0.430651 -10.9834 0.666569 10.7196 -1.24522 -1.48917 -0.0665659 -5.71562 3.12464 11.7015 7.96158 -8.05818 7.96812 -7.66043 -8.54275 5.93571 -10.4657 4.42962 13.9509 -11.2221 -10.2611 -0.0171017 13.8717 -1.5554 11.9832 -5.01584 -1.56713 9.4177 -7.37521 0.473237 -4.14389 -5.00322 -6.86445 1.74098 5.77949 9.92137 -3.98592 1.80113 -4.16851 1.55399 -9.07812 -9.45566 -10.7833 -11.116 -7.14665 13.1733 13.1881 13.6113 -4.1036 -6.24768 6.55875 9.68005 4.07402 10.1436 13.1073 -8.60084 -10.5358 -9.35951 0.534106 11.3358 6.95188 5.30981 11.8569 8.73489 1.16439 0.669017 -0.846088 -3.36607 12.8774 1.30067 6.12005 -6.67249 2.40497 2.64885 -13.5703 -1.06148 11.2562 3.55951 -6.67603 -12.4226 1.2437 0.595852 6.36338 -6.81923 -0.639832 12.7087 -11.8414 13.7706 -4.83111 -3.88712 -5.63379 11.5439 5.97412 10.6089 1.64581 -10.6916 5.60263 -11.8106 11.1748 -13.6775 -1.67266 -13.889 -9.92637 -5.709 -4.14198 3.21025 8.08811 -12.1349 4.70575 -10.3548 12.7391 -11.3059 -13.8659 -10.5986 0.0211667 -11.4212 11.5472 0.48085 -4.19383 10.6954 -9.26442 -12.6968 10.7973 6.57714 13.0736 -3.35412 -7.64238 -5.7894 12.6094 -7.44646 -10.2157 5.48027 -11.2006 -11.4077 13.6599 6.48061 6.08737 12.7943 10.0936 2.39343 -9.5415 -6.84678 -11.1585 11.0452 9.22362 5.29194 9.98132 5.91245 8.69368 2.52575 8.41862 7.42368 11.8839 -10.8243 4.17304 6.77935 2.72897 -4.67214 0.95041 -12.0644 -1.245 13.9616 13.1154 10.2699 0.534721 -9.68164 -9.16295 4.8031 -6.99344 7.97764 -11.9395 -11.4071 -4.38807 12.0964 -2.99292 3.93085 0.489703 9.90857 -12.4581 10.9927 -6.77275 10.2457 -3.89777 -5.25688 7.21036 -5.52969 -5.74596 -3.68674 9.26618 -5.75633 6.13553 -1.94704 -10.7677 -10.2528 10.6919 4.14207 -2.81231 4.51526 2.08762 -7.33587 -5.03861 1.94998 11.6692 -3.92822 12.4577 5.41336 -5.07468 2.19744 -12.7253 -8.01825 -4.91824 11.8782 4.34258 -3.69846 -8.91611 7.90437 8.48206 -12.0457 8.55984 -10.133 -4.06218 7.62689 11.1955 6.63376 10.2071 2.27132 -9.72761 -4.99168 -5.05499 -2.5341 -8.76167 -1.21018 7.99001 -4.73626 1.46674 1.6498 -2.96485 6.27489 -3.53256 -10.2989 3.38527 -12.3486 13.0815 -9.18493 -11.4136 0.369876 -13.1506 -4.4388 -3.1197 -5.29543 -13.7355 13.0158 -8.17466 8.25937 12.3072 11.1909 4.89961 -0.596546 3.90102 -6.17373 -0.780781 5.18407 11.9388 -12.1539 9.96282 9.22561 -6.37765 -5.44993 7.65612 4.84368 9.03348 12.3356 4.45569 8.88154 12.4375 7.68953 -9.2879 0.998981 -2.30602 -8.14015 11.5827 3.00435 -10.033 7.5136 2.05442 -9.97179 6.12131 10.1934 5.86054 -13.7739 4.00556 -0.772476 -11.1097 10.4035 5.12953 7.70388 -12.3427 -13.0034 2.77726 -7.94542 10.5388 -6.94027 12.3308 -12.728 4.88003 -11.4483 1.11204 -9.38545 5.41015 -12.0414 -1.56784 -5.87363 -10.7523 5.38931 4.31799 7.47671 6.30409 -12.4385 -5.45087 -2.66322 5.4971 2.81204 -9.93682 10.7153 -13.054 6.97393 13.0958 -4.32236 -7.88753 -13.6063 8.57035 8.81778 -1.79803 9.35364 -13.8707 -10.5008 0.54262 2.95848 -2.31416 5.40598 -0.0465774 8.88694 0.497852 9.28153 13.9279 -4.08991 4.6961 10.309 -0.774421 -3.38479 -11.0808 -9.73455 -7.58991 -10.4918 -10.0113 0.95536 9.03623 11.2152 -12.1656 -0.638033 2.53838 0.844207 -0.184785 4.92198 10.3469 -11.6467 8.94179 -8.68854 3.84137 -9.31538 -11.2225 9.21126 -3.55356 -12.6428 -2.46333 9.00497 -8.16164 -3.18749 -5.30193 6.10204 4.21286 -10.4657 -12.3739 4.70783 -9.80764 11.448 -1.48947 4.86773 -10.0403 -2.3404 3.99242 -3.4698 -13.9398 -0.740602 -3.80451 -1.45524 -6.11995 13.7913 8.01814 -5.58103 -10.169 -11.3114 -9.12846 11.817 2.9466 4.13067 8.99345 7.71903 12.2087 9.55165 2.72692 7.0279 -4.26916 -12.8821 -2.47459 0.937525 -0.756293 3.90051 -13.2642 -9.51083 -10.0286 -5.74099 -2.32744 2.30083 5.02125 11.3692 3.3312 -4.99848 -0.124939 -9.53809 6.62236 11.1118 2.67715 10.0458 10.3469 13.5668 2.23232 -7.72578 -12.3865 7.73142 8.17313 2.59045 4.90578 2.24729 2.54702 5.41161 2.26281 6.81702 1.10082 7.93929 -10.1534 10.9682 4.21712 -4.37199 12.7896 8.45281 5.3879 -12.9711 -9.6171 -9.98973 -9.58183 12.0817 -3.36555 0.0626574 9.65836 6.32449 13.4477 -8.78374 -12.6698 7.21649 -13.469 -9.14026 12.333 -0.00390335 -3.47643 -11.6772 1.27884 6.71876 -0.533555 -7.12919 -9.7653 8.95466 5.84233 4.06382 -12.3781 0.52856 -10.3937 -8.90149 8.31004 2.54601 10.0304 13.1394 4.3397 -11.778 -4.39001 -5.81187 8.26822 -4.0565 -8.01049 -5.63717 -9.60482 -1.39497 9.45973 2.63037 -1.71955 2.03258 7.46539 -1.50006 -10.8275 6.33327 8.84935 -6.18943 -6.55969 13.407 -4.03515 7.0819 -4.57404 -12.6475 -5.14498 4.83801 -11.9117 8.67898 -6.68841 6.01997 -7.8282 -6.0211 -0.558259 9.76952 4.63375 -7.60827 6.77506 -9.01773 -1.24943 2.2856 -2.63681 4.125 -13.1018 8.8192 13.8534 8.38125 13.4465 10.174 4.97651 -6.75488 -11.9124 2.3314 10.5877 -3.86287 10.491 1.60664 7.9309 9.71859 -9.9902 7.76279 -4.87709 11.7653 8.98527 -13.8431 10.1719 -1.11315 10.2002 5.63744 8.66359 -9.2702 -9.54077 11.6033 1.71488 -13.3957 0.94849 -7.5043 -7.25121 -4.6102 8.17665 -6.32501 8.86012 -10.6679 5.20694 -4.33983 13.2192 -5.41952 7.83079 13.3399 12.0611 7.48699 -11.7642 6.31769 9.41722 -5.51492 -3.70929 -10.6697 -2.8173 -11.7602 4.3593 7.56182 -3.64435 -6.06958 -13.6717 0.491012 2.39253 -3.31304 -1.58148 -8.52815 -6.49471 12.5901 13.0493 -13.5609 13.8856 -12.9806 -11.8737 12.0478 -8.44607 10.8422 -9.69513 -10.5116 -2.23223 -6.71704 12.4093 4.53644 -4.80689 7.40607 -1.36882 -4.318 -3.79094 1.50981 -2.99351 10.2458 -3.62228 -10.1601 6.22073 12.8691 -6.57696 -1.13016 4.27651 5.03772 2.81467 -6.55955 -11.185 -11.798 9.89895 12.7655 -12.9332 11.17 -3.629 -10.3513 10.7429 13.7219 -7.71418 -6.8086 -8.77134 4.28693 8.40318 9.43839 -3.90786 13.5474 -0.178369 2.61759 -9.75113 2.88 12.1178 3.79233 4.11793 2.55798 -7.70702 -4.2075 -7.5272 -1.88516 5.48323 -9.30423 2.37757 -9.4593 -5.05086 -5.51144 10.1485 12.7697 12.3515 10.2331 12.5383 0.0085347 8.68765 -11.6422 13.088 -4.88843 9.53601 -11.8992 -0.247877 -12.4394 -2.88108 -11.0867 -13.6426 -3.62688 6.66728 -6.39431 -1.04746 -0.433154 5.14911 -10.8113 3.98913 9.69915 -3.49595 13.3477 8.84416 -7.56879 5.61877 13.4752 -1.51857 -9.2252 5.55132 -7.10065 -6.93108 -5.1925 11.1224 -3.22506 4.84328 0.0671521 0.00751937 -9.91757 10.5269 -4.99822 9.0772 7.43272 2.75409 -10.5465 -3.44048 13.5352 12.4239 4.19721 8.69194 -6.33172 -0.666916 -0.545108 -6.23556 -7.73385 11.2536 5.76329 11.1878 4.6252 8.28995 -4.76548 10.8757 -4.58615 -1.21144 6.58581 2.49351 11.747 4.24269 6.13346 -2.64507 -2.82792 -5.38215 10.7498 6.14946 -11.6604 -0.379969 -10.9965 -5.38583 10.0307 12.6396 6.44455 -0.965332 -2.47516 -9.03478 -12.6649 -1.22198 -11.1239 11.1326 4.96385 -1.38043 13.699 -12.2777 8.13435 -4.5086 12.2235 -0.104859 -12.5378 2.52811 10.3568 3.72101 -13.9847 -7.83287 -8.01869 13.9187 -13.4331 -10.495 -4.8728 1.17994 -11.1339 -2.06402 10.8647 6.14221 13.9198 1.71165 -9.37251 -10.7484 12.7088 12.2663 2.07505 12.1626 2.87506 -3.29442 3.98719 -1.52615 3.26247 -2.10213 -11.3835 -6.85926 -1.4326 -4.07825 -3.13604 -8.01984 12.8347 -0.651542 -5.79067 9.38868 9.70063 -12.4908 12.389 8.05816 -4.10469 -6.32816 1.21287 1.21816 3.19935 3.35888 -11.296 9.56774 2.13603 12.1276 -1.05503 10.7971 1.73742 -9.76217 1.41775 -3.20315 -12.349 2.09945 1.08748 4.39199 -1.33166 10.903 -0.462864 -13.1221 1.43395 12.4556 8.13992 -9.20449 -12.9737 -3.3854 -13.3742 -12.7824 10.1874 -1.79827 3.00347 -11.8604 4.16279 -9.39679 -5.35533 13.1754 11.6378 -0.126735 11.2535 -8.42102 -5.00381 -5.82098 0.357972 5.20547 -5.18941 7.77998 13.648 -10.3036 2.77242 9.77571 -3.85794 -12.0561 0.361822 -10.8317 10.8759 4.35885 8.81773 -2.66727 -13.2177 -12.0734 -8.02586 -5.79927 -3.57363 -12.2583 10.3629 -0.608087 13.3683 -12.6603 -6.49743 -13.7952 -13.2812 -10.5852 -8.82361 -11.974 -12.0716 10.4645 -2.90809 -2.47805 9.71427 10.7472 -8.56005 -9.0015 -8.98044 -6.96327 -7.86669 3.72086 -0.656944 -0.102831 9.1562 -8.18991 -2.61879 -6.22133 7.54581 -13.2969 11.3854 -7.32969 4.01917 -8.52978 -0.32866 4.05787 -6.40926 -5.51099 9.4657 3.71796 -5.89156 -12.7535 0.430222 12.2237 2.75385 -1.65522 -11.9155 -2.346 -10.7565 4.16291 -7.78563 10.2437 13.4915 -10.0214 5.63326 9.80683 3.32545 -5.63373 -6.47873 -11.171 9.99371 7.5122 -10.4194 -0.651403 13.2813 -9.69971 -6.32457 3.77116 -9.32557 0.16232 8.41687 -11.5001 8.99203 -12.4083 1.47007 5.18347 1.85774 5.78599 9.9096 9.93832 7.28791 -10.8956 -1.51072 -9.65194 -11.2762 -2.49723 1.81773 8.80211 2.03651 -10.2138 -4.93181 -4.3723 5.70029 -6.11226 8.20567 2.12674 -4.34386 8.00348 -1.72237 -12.0762 -11.0425 -13.0515 10.6306 -4.25872 -10.2995 5.64958 -10.8642 11.2408 -13.1514 0.793627 7.76867 9.3398 -12.0922 5.1988 -6.73948 4.5833 5.04886 10.3662 -0.541613 -9.74923 -11.9548 9.91458 8.74704 7.35456 -6.1405 -9.58675 -12.7187 10.7553 2.99287 -3.82888 -8.11346 -3.11203 5.39555 -0.690414 -5.52701 10.8338 4.9326 6.29103 0.873316 -1.42774 -0.065691 -7.42894 -9.61685 9.80882 -8.78665 4.65928 -4.9549 12.2652 -12.5017 -1.68765 -6.8213 3.53791 3.1144 10.5953 11.0926 4.15115 13.1097 -6.48191 5.30668 -2.74313 -11.5316 4.94434 -8.67964 9.05585 10.5848 5.37978 -13.4607 -7.10417 -11.1198 -3.64139 -13.5498 8.6611 4.15624 -1.43674 4.85389 -8.24699 13.6765 10.0311 -4.09725 2.45778 -3.75865 -8.96646 2.7955 7.84192 -9.74579 -7.712 2.69013 13.5275 10.838 -10.5009 9.06758 -4.08738 8.26598 0.883484 -2.64424 5.81461 -9.18207 -1.23917 -3.55175 -9.7686 -4.95395 5.86754 -7.28789 11.9825 -5.91079 10.1907 -0.0612249 -12.0148 -1.77774 -7.26089 3.17288 10.6889 -8.60682 -6.3979 9.16339 -9.00943 -2.80337 -13.9381 1.9581 -6.38649 6.65436 -7.06289 -2.88931 11.207 8.76354 13.4265 -3.72708 -0.237324 -13.6016 7.66759 -7.43276 2.94568 -6.21381 1.46427 0.0292416 -11.2979 10.1096 -13.9938 -2.6514 7.62665 4.75305 4.29803 -1.67151 -5.95664 -0.715404 3.19882 -6.67261 -1.28933 -13.8221 -0.978825 9.77894 -9.70696 7.46358 -12.3009 -4.03157 -3.35105 6.50493 -5.42715 13.2044 5.75095 7.26376 12.3303 -4.93324 8.61138 4.516 -13.5047 6.8315 8.49744 -7.0733 -10.3646 -1.94491 -0.907457 5.21717 -4.64068 6.18296 11.5703 3.37765 -3.33408 -8.91656 -9.63672 -12.7651 0.304362 -4.1694 1.19256 11.8143 11.6573 11.3502 13.1782 -9.41273 1.99232 12.502 -3.32712 -10.2556 -1.77279 3.68479 -12.8145 3.87907 -7.73482 -12.2138 12.5522 6.37135 -13.3619 3.54277 -4.38371 -8.7363 2.64553 -2.04345 13.7288 -6.01579 -13.308 3.80422 -2.79044 0.786992 12.131 8.51336 1.01707 -11.5758 -3.43125 2.00733 12.9121 -7.39365 -3.29994 -1.42298 9.28781 -1.42808 -9.86927 11.5285 6.46982 10.9004 -5.40943 5.33122 -11.4445 10.1399 1.20874 3.03209 -6.50321 8.54071 -10.6071 -5.67339 -10.1572 -6.20963 9.74834 12.0833 6.97503 13.3142 -4.356 2.7261 -10.1387 -9.31462 10.315 -1.13161 -7.18763 -6.79832 8.59506 9.45149 -13.5776 4.91605 12.4789 -3.59516 0.148762 -8.14693 12.8823 -3.29917 -5.96447 -11.2325 9.36653 -1.65 9.5883 -13.8592 -5.9305 -8.68026 0.979159 10.997 -11.8399 -10.3713 -10.546 -11.152 -8.53664 4.46123 1.52067 -9.07339 12.8206 1.64787 -5.17625 9.74735 -6.02999 -5.87437 -3.15606 0.730296 3.00422 7.06881 11.7221 -10.7667 -10.1545 13.255 4.87495 8.22301 10.4836 -13.1115 -13.2935 -13.5616 8.08631 2.66375 11.0805 11.5844 11.6201 -4.99031 7.57935 2.47097 9.75478 2.07751 10.7701 13.9732 5.58151 9.8528 -12.5592 -5.67682 7.67139 6.07656 3.23727 11.6455 0.530812 6.83764 -8.33298 13.4871 -7.214 9.47983 2.84921 5.1314 8.30744 12.8846 3.83695 0.534244 2.97963 3.40502 -10.3708 -2.02121 12.4048 6.35748 -2.91528 -10.0114 -2.61133 -8.37429 -4.33606 -2.41293 -13.1231 -13.3491 12.9337 -5.84206 12.497 -4.82128 -12.1582 -12.7003 10.1163 -9.30985 -0.0725163 2.75189 10.3681 -10.1779 -5.24167 4.24371 3.20027 2.79095 -5.66099 7.92913 -12.432 1.15675 -8.16236 -0.576497 2.73058 12.2841 1.84461 -6.85153 -9.78601 -4.08279 -7.82377 2.42688 12.3156 3.60413 2.45249 -0.666505 7.75283 2.24566 -0.597002 -0.965788 -10.1864 5.58781 4.44609 0.766078 5.30963 3.36626 6.56311 9.34181 -12.457 -1.73672 -5.43637 8.96056 13.9082 -11.6048 5.486 -7.71134 12.5718 -10.8845 12.7561 2.32417 0.651588 -9.37152 -12.3807 4.1434 2.81079 -3.11557 10.715 -12.9208 -2.19021 -13.6179 5.25272 -5.63549 -9.03572 -9.24483 -8.67374 7.95443 -7.86993 -7.49243 9.2943 0.00679014 -11.0781 1.05693 -6.34183 -13.0395 -1.89791 -8.02166 6.43972 1.82866 -2.39705 6.01832 -1.18325 -12.3799 2.96854 2.18904 10.7727 -1.34932 -5.85355 -2.44696 10.3232 3.22408 -8.96167 6.93467 -10.3621 -3.1109 -4.84591 -11.836 -7.81894 -6.94424 5.18082 7.02518 6.80608 1.32628 9.59389 2.05911 -11.063 9.55217 11.9865 -12.6373 -12.6891 4.55232 -9.6357 4.75823 3.3779 2.09387 -2.76936 -12.5809 -8.62171 -1.35369 -4.09985 9.12911 -13.9901 10.0604 -5.8324 0.378151 -2.59484 -0.146989 -11.6567 -12.219 -5.61969 9.28883 10.6173 -0.87255 8.94545 -4.99138 -13.4855 1.11445 -3.74691 10.2602 9.52007 12.4072 -4.99258 -5.3611 -11.5169 5.07299 9.07101 -4.99498 9.31675 10.7827 2.37482 7.88961 11.0501 -11.0769 5.23877 9.96814 -13.4919 3.26225 -10.6978 5.96454 -11.4975 4.59776 4.9335 5.79446 -13.9704 -3.8922 -1.17413 2.839 -13.7618 10.2365 -9.86046 4.06034 2.169 3.85164 9.70054 6.26376 -11.6727 8.67589 4.14842 -5.51441 -9.46952 -5.79689 -11.1037 1.7927 2.68383 -13.9137 8.87828 -8.47663 0.159484 11.6952 -11.9644 -8.27386 -4.99029 5.91374 7.19562 4.17604 1.44317 -5.97337 -7.43548 2.55604 0.367819 1.59525 13.5726 8.23099 -10.7002 11.6197 3.67018 -5.3889 9.71245 11.8547 -7.61026 -2.63363 4.58163 -1.2652 12.2292 -9.86717 10.275 -0.377949 -1.86538 -7.607 -6.39674 -8.7043 -12.4213 -13.9053 13.1057 -1.23382 -12.887 8.82192 6.22681 5.3615 11.5592 -9.62796 6.02064 -10.22 -13.5006 -10.6808 1.96386 -5.97409 -8.15025 -9.12104 -12.6658 -5.00438 2.3819 -10.9151 -0.726702 -0.170646 -13.3218 -1.52181 2.72311 -2.63848 9.49893 -1.12299 -7.63356 -13.9903 12.6296 -13.8264 9.60172 -12.2587 4.30946 6.83006 -0.960906 -5.22832 -10.5812 -1.79357 10.0903 -3.17555 -11.9897 -0.152989 -11.6321 13.2207 -13.3559 3.2961 -6.59566 8.21672 2.18105 -6.33852 10.9959 9.98157 7.90572 -3.95832 8.58193 1.50484 -9.69282 -0.533032 13.1324 -0.766298 13.4562 -5.25587 -0.017848 -9.54234 11.9733 6.82671 -3.83129 -0.935126 -3.15801 -9.96446 7.85053 12.0932 -9.99146 -6.90143 -13.6718 -12.0505 -8.37977 -1.09115 -5.31886 -8.98799 -4.94552 -8.46289 -7.02897 10.5808 11.4306 -3.89768 7.39008 3.33616 -1.82719 -9.44629 5.97115 -3.11517 3.02143 11.3603 -0.890834 -13.6348 11.1081 -10.9119 -4.37975 -6.73879 9.04971 -9.92478 -0.494027 0.422832 -2.08612 13.2688 3.39779 10.3313 -9.86883 10.7035 -7.55204 -12.5491 2.13518 10.8999 -9.2934 0.679649 -13.5813 7.10339 8.97574 -10.3363 -6.45089 -8.58657 -5.00812 -1.24722 1.58296 10.789 6.3032 0.0812247 4.20168 -12.3162 6.35429 -2.40106 -1.81684 -5.45091 13.4541 13.5848 -13.0089 12.9823 -9.79092 -4.96828 3.77949 -13.661 -11.9407 -4.50959 -3.37041 -7.45124 -11.8884 -3.47553 -5.22944 -9.1743 -11.4414 -8.60483 8.03787 4.16888 6.6249 11.3643 -6.54754 9.0109 1.2927 2.64195 9.45582 -9.39887 -6.12615 8.6351 -9.40752 3.07853 -0.672476 -9.04731 -13.3025 -5.92863 -6.48803 9.11987 13.8419 -12.3832 6.02112 8.04768 -5.95732 10.7197 12.5286 -12.788 5.78324 -13.5544 9.71283 -6.16346 11.0987 2.39636 -9.59293 -9.76071 6.58655 4.19652 2.44228 12.9761 -7.28329 3.58244 -5.87372 6.47162 2.54483 10.3885 1.50685 -9.3412 4.84737 8.66985 -7.46299 5.23804 9.79558 -6.97988 2.1761 -4.25494 1.57742 -9.27996 11.9616 -3.72653 -1.49564 -7.53456 4.52996 -7.24899 -7.2583 2.81083 -3.77371 -3.9358 -2.29948 -4.08758 6.50847 3.25342 -5.76475 -11.9364 -3.89225 -3.50754 4.52764 -4.88818 -7.92125 4.98855 -0.758093 -7.7973 6.53856 3.34627 10.3004 -3.9662 3.84273 9.53726 4.91296 -3.99076 -13.8288 12.7518 10.3665 4.45443 -12.9469 -11.4742 -2.31535 -9.65451 -2.10358 -1.19732 -8.22225 -10.7766 -0.17946 2.27379 -4.40502 9.25253 -10.9362 7.83418 6.66751 -1.91906 -3.68788 -9.58615 0.403575 -11.6873 12.7565 7.38748 6.19714 3.00957 -11.3841 -9.1716 6.66505 -4.96605 11.3688 7.29445 -5.93673 8.3625 11.1549 9.83118 -9.96687 4.26665 -8.61455 -8.01202 -11.2373 -4.71517 5.59069 8.07375 1.24874 -13.627 -7.13058 -5.28931 -4.45571 10.0744 6.7083 6.29383 -0.0176464 7.43777 -6.31491 6.98207 -11.8269 -11.0181 5.69608 -10.5045 -9.04909 2.32305 10.7455 12.3884 -4.1687 -7.79801 0.0181549 -0.503467 -4.69658 1.60444 9.63571 -4.69439 -7.45787 -5.6431 -5.35746 -0.726221 3.60467 1.16938 5.953 -8.32128 -1.49581 13.8565 1.85059 9.17287 -11.3116 12.1252 3.81063 -12.0288 0.444021 -0.670321 8.71821 10.2541 11.1546 5.9057 -11.24 7.92064 -6.88512 -10.2719 -9.11304 -12.5077 2.41679 3.92072 8.2354 3.60616 2.00086 -6.16119 13.5966 10.2376 3.42915 -2.64549 7.66709 -0.464437 -13.396 4.60929 -12.1847 1.16614 -9.19726 -4.3585 -9.88994 -8.14156 7.03402 -1.66084 -2.11226 6.12027 2.04064 -1.83209 -1.59855 4.64828 7.02359 6.88762 -4.90389 -7.23602 -7.24996 -11.0108 -8.06812 8.01843 10.1534 -12.7365 -9.40387 -10.5513 12.9872 3.91793 2.35303 3.69989 -2.40214 7.3221 -1.73199 10.6768 1.35706 -8.16584 2.01878 -1.69517 -5.95663 -6.11501 8.66843 -2.67795 -6.04218 -10.9542 -5.3938 2.25396 12.959 11.9754 -3.30453 5.88246 -6.99137 11.1922 7.36018 -0.512288 -5.10182 8.97962 -11.4907 0.00192841 6.38827 -8.48887 7.551 11.0492 8.8756 12.7192 10.652 13.8857 6.60448 -5.07467 9.22998 -9.95429 6.01663 -12.639 10.0464 -9.46175 -11.4702 -2.22526 0.058877 -7.25136 -5.19612 7.52416 -13.3517 -5.76531 5.35002 11.0483 -4.09027 -7.78326 10.2961 0.213469 8.83979 6.9454 -8.13774 9.20075 -7.21857 -3.88113 2.56111 -13.1387 -11.9735 -12.0838 4.67006 0.835435 3.36265 -2.74038 9.02867 -2.85172 -5.45169 2.39308 -6.35403 -6.30427 13.2449 2.87152 6.15793 -0.46358 -9.2238 -1.29126 -2.02789 -13.5998 10.4972 13.3351 2.58356 -1.04863 5.71374 -4.83758 6.36961 -8.04857 0.293355 -9.17484 6.87035 -10.8768 -9.22833 11.1998 -13.9576 0.261492 6.75499 -7.61913 10.5766 6.14837 -3.31862 -12.4689 7.61138 -9.90072 5.93155 12.8236 -12.5167 -3.63207 10.9321 6.6699 5.93389 -4.57707 1.94861 -2.53986 11.7189 2.6933 10.8614 -3.3908 4.09347 9.42643 5.48541 2.00221 -9.88701 -7.14693 -4.43547 3.38621 8.29638 -2.3703 4.48541 5.19946 -0.774752 -12.1518 -7.04365 -13.5946 10.8653 -0.740269 0.894234 4.30142 10.2439 3.31527 -10.514 -11.7193 -0.993194 8.83295 -9.40699 -10.711 0.487116 -9.3387 0.588919 -4.84763 2.93033 -5.00835 13.4137 -0.283776 -11.351 -2.26454 3.23346 -5.83006 -8.51568 -3.89764 -7.30964 10.4037 0.532386 -12.6151 5.90471 11.127 -12.48 12.5697 -0.609143 3.74911 4.77801 -6.30959 4.27589 1.80427 7.41112 -13.9624 12.191 5.10296 3.09756 -8.4002 4.40482 5.84477 -12.0714 5.16696 10.7792 11.9709 0.746947 8.0562 10.977 -13.912 8.67498 -13.0148 8.41582 -10.6451 -2.68945 5.35336 -3.48594 7.36168 -12.4964 1.734 -5.98479 -7.80265 -12.9666 -10.8621 -12.5286 -5.87156 -8.65372 8.40638 8.39616 -1.92457 2.34124 -0.960015 -0.86744 -8.65499 7.75631 -2.3122 3.54645 10.4558 13.0455 0.410451 13.4741 -7.94286 2.24474 4.05358 4.68811 8.19587 -13.4436 1.53071 -9.88615 -1.82797 -7.6721 -12.6201 -7.76119 -9.46581 12.1428 5.83019 13.3271 10.341 13.9027 4.99839 11.4288 -13.8768 -9.24555 12.0991 -11.9732 6.95139 12.8238 -0.359036 -8.38402 -9.32012 -12.657 -0.141455 2.04584 -4.32635 3.0646 13.2495 1.6363 -4.43745 10.6902 -2.01514 -6.41332 1.94938 -1.7594 4.47265 12.8554 -4.3675 -11.9599 -13.422 5.23806 -12.3728 -0.948469 6.01932 -5.51011 -7.13731 3.55971 5.67536 6.63809 -8.55938 11.9913 -0.952336 12.4547 -7.08994 -8.87201 -6.41883 -4.08342 12.6462 -8.55473 12.4517 -6.31972 -7.6096 10.8568 7.0543 -11.6584 -11.6114 10.4495 3.17762 -1.13655 8.72858 -2.47636 8.32192 3.2662 -1.52474 -6.64877 -3.10658 12.9954 -3.56282 -4.14059 -2.88225 13.0187 2.58278 -6.12449 13.6257 -0.25854 4.26415 -8.26968 1.67567 1.61141 -2.35061 8.43486 0.371802 -3.79744 -12.3225 -11.5814 -10.6552 -9.35802 -7.71123 -10.6245 -7.21184 -8.07668 0.958619 5.40255 3.72294 7.69458 -10.2346 -4.99009 1.78849 -11.092 7.64127 -10.7823 -13.4522 6.12137 6.97896 -1.54591 7.14489 12.8354 11.0909 2.45241 4.34863 10.4067 -11.4597 -1.76764 5.98447 6.50016 0.605855 9.17302 -8.49738 -8.67316 7.57575 -4.30693 13.8524 4.53752 -4.97622 -6.31 5.45758 6.16143 5.19976 -12.0971 -2.23781 -11.7204 6.94999 0.347547 -2.19203 1.24399 12.5985 -11.5559 2.70335 -1.27435 12.658 -6.97009 11.6096 -9.26166 11.7293 -13.7491 -8.23555 -10.0237 -11.243 -1.78186 10.0803 -8.07904 6.23484 -0.0613618 10.2186 -11.7336 -6.83314 0.524315 8.23899 4.73307 8.34465 -3.99443 -4.85419 -0.69085 12.3154 -5.55862 3.50916 1.26426 -13.8732 4.3665 -1.05225 3.2871 5.73744 -4.7676 10.5595 -11.0093 1.67923 -10.5116 -5.32005 5.28923 11.1518 9.70067 -8.652 12.016 -12.782 9.39893 -5.62037 1.89538 12.9092 -10.5281 0.664555 6.87492 13.0951 10.5441 11.9782 0.943926 -6.52916 0.969278 0.890706 4.42085 -7.66127 5.92435 -9.08588 2.11908 9.26483 -10.9084 13.6191 -8.13792 1.7598 7.99517 -0.937642 -7.0164 3.72656 -0.631501 8.78939 -6.70306 -1.62719 10.3621 -13.2241 -11.8811 7.009 12.5942 7.01687 10.4768 -2.50876 13.7735 6.46943 9.2255 -10.8575 6.39201 13.1387 -12.5278 -7.611 7.30388 4.46412 13.4089 -2.06126 -9.03055 -3.39516 -11.0984 -9.49138 4.48789 -4.72983 -8.9948 6.55969 11.2781 -8.7429 2.28892 0.880172 9.394 -13.2548 3.89285 -5.77079 12.6331 -1.56931 5.83163 8.90306 12.1247 -7.01576 12.2728 -6.35085 12.5 -0.740186 7.15858 3.5764 -9.79759 9.22823 0.19006 -7.17137 -1.08897 -10.3571 0.0264389 1.4728 -9.60104 8.28147 -4.05156 -1.74369 8.93869 13.5845 7.77291 12.858 -1.31931 -4.89787 11.9284 -5.09275 -3.21599 2.97701 -0.577902 -1.03958 10.8718 0.649407 -12.477 -13.2406 4.0292 11.2038 3.34063 -9.11142 -0.290887 -9.42691 3.19765 -1.11276 3.4751 9.83056 10.0744 -8.10105 5.05703 -11.587 6.91993 3.20113 -11.1297 6.53822 -0.188032 -5.98927 -6.4359 0.7103 5.99693 -5.04968 0.419047 -9.50785 10.0357 -4.15875 -6.71862 9.82879 -9.09612 -5.52535 -4.20094 -4.79622 -1.04492 12.3734 13.458 2.47329 -6.97905 9.03087 2.865 -11.6419 -1.47218 1.61302 1.30189 5.12715 3.85632 3.44225 4.71717 2.46537 3.11512 -12.997 8.89767 -10.0122 3.8391 5.2168 -13.2142 -4.86174 3.91087 -1.45032 4.7017 -9.52798 -10.087 -0.955117 2.05269 -0.838852 9.63312 -10.2649 -7.149 3.02357 2.0366 11.636 3.28204 7.2858 12.2332 5.34495 3.24506 -4.19106 -1.25714 -7.41093 -1.56016 -3.14214 -4.02621 4.10056 1.83806 4.59367 -11.4557 -4.72276 -4.19507 10.6293 13.2131 -10.8597 0.763377 1.80172 -11.8658 1.55527 10.3552 6.22698 8.09158 -1.29141 -7.55628 7.94678 10.7501 -1.80028 -0.473613 9.73313 -3.97166 -9.80175 -3.56634 -4.61569 -7.42275 11.3425 13.6243 -4.43109 -10.0241 -4.01925 -11.6272 -3.08409 8.80851 1.66336 -7.13568 7.6618 -0.51798 10.2157 -4.09768 -5.52915 -7.3455 -2.33284 -5.38122 13.5368 -2.88988 1.32142 10.5148 -9.08526 -8.98208 -11.5086 -6.36098 -7.58677 -2.07525 -4.87721 -13.8585 0.423761 -11.8632 -7.28966 4.08946 8.8646 5.07174 10.6719 -9.69705 4.63454 -8.60461 5.25473 -0.313591 -6.05459 13.2772 -6.278 3.96675 6.49877 -11.6672 9.09035 8.46115 7.03889 8.47543 11.3102 2.60647 5.74097 8.762 8.49523 -7.69213 9.36409 -4.74346 -13.6295 -7.52772 -7.58537 1.89922 13.1268 -13.7591 -11.5776 8.45666 -11.3654 0.901332 -2.6909 2.16588 -1.73811 -12.3981 2.85539 -5.61289 5.51504 -1.23832 5.00078 -0.187748 -3.20497 -12.9148 5.63558 -12.62 0.616239 -11.7332 -10.1419 -5.89414 -2.32651 3.22804 -2.54426 -8.26799 -12.4109 9.48066 -12.7098 -3.82295 13.4687 13.1923 -1.12379 -6.45751 12.6485 -7.78136 6.10443 9.0709 2.57279 0.114502 13.5128 11.3159 -2.49643 3.3529 -13.9791 -7.07321 9.92786 -6.54735 -5.69239 -11.9928 13.3784 8.87122 1.22284 -13.6782 0.397971 1.06904 -1.12091 -5.29867 6.54666 10.3828 -2.22825 9.24614 -11.0105 11.9654 4.22144 5.73867 -12.0447 -9.23562 0.480172 -8.28578 -5.61173 7.72821 -6.33292 11.2916 0.822476 -8.55358 -12.8953 0.334098 5.64112 -0.887478 -13.701 -10.9207 3.62409 -11.4904 5.78585 0.0136715 3.1408 13.0385 -7.452 13.3453 12.693 -5.56712 -7.56762 -0.30923 6.48098 11.0941 10.0762 -9.81891 -3.81415 -5.55837 11.0733 3.1839 -1.97939 -1.96671 8.78097 -9.54528 -8.46036 1.25535 1.40364 5.14096 -7.84571 -5.14835 1.76187 -5.58226 9.14665 13.901 -7.15395 13.2353 9.28303 3.46447 -4.14077 4.52758 -1.48363 5.29818 0.129229 2.39717 -6.894 10.4807 -13.9744 10.448 -8.24712 13.2925 6.38983 12.2379 -6.19707 1.51085 4.34441 -12.4327 -5.98409 -1.48069 -9.05344 -6.68105 -11.6 6.28998 -3.78264 -13.8129 -5.13663 -2.83364 2.21323 -11.7399 -0.519776 -6.94294 -1.68524 -4.35568 0.839867 12.4113 11.6356 -5.37621 -2.49334 -6.64726 7.77289 -8.63862 10.6573 -6.99721 -2.465 -12.194 1.77524 -6.39019 6.41114 3.80111 7.3957 3.74391 -13.4685 -2.56446 -7.12752 10.2588 -10.7794 3.59079 2.76869 7.16413 1.24018 -3.40409 -13.3 -1.42683 -7.12902 -6.75016 -11.7411 12.3321 11.0171 8.52399 -2.37268 -6.58898 -8.71314 -9.0735 -6.25136 -4.68178 10.1506 -6.3429 -4.34985 -1.94328 -6.50958 7.66803 -2.51946 6.72195 2.24966 -6.38181 6.53692 -2.89142 -4.44921 7.25613 -10.8023 5.01898 1.30562 -0.345813 -10.2245 6.3719 8.23203 4.72969 -13.4458 -3.38715 -4.30141 -0.361298 12.0876 3.5037 -6.94385 1.44127 -10.6576 -5.52079 10.9094 12.7229 12.3412 -0.741548 9.32576 12.5107 -3.71803 -8.32391 11.0574 5.45993 -9.53289 1.06375 -6.75278 2.48119 -11.7488 -2.53822 7.85834 10.5162 9.29744 6.60843 10.2747 12.4904 -6.85054 5.28067 2.55998 6.05525 2.74417 5.72831 -11.1628 2.74182 4.65329 -12.8472 3.55512 -6.40484 -3.82892 3.25851 3.39998 -3.7231 -10.1043 -9.41124 1.47362 -1.92542 6.97714 -7.65949 4.33214 -8.82891 1.78026 -7.87525 4.95853 1.43528 -3.80891 4.68263 7.21994 8.75897 -10.9993 -3.99081 -12.9678 -6.86937 4.66637 -3.2115 4.10665 1.85776 -4.24871 10.9995 6.39484 -3.90807 -5.31216 -9.4168 -13.6287 -13.6624 -8.862 -3.02893 -4.54818 -9.08473 0.0512878 12.1095 7.04059 6.69782 -12.6586 -9.74872 1.84248 1.79369 -11.4886 0.259771 11.1623 -6.0622 4.31644 -3.19608 12.4142 -3.26802 5.12548 -1.1756 -0.777635 -3.89333 8.66819 3.31546 3.79604 -0.344571 -0.0813994 3.34713 5.31902 9.29418 6.76869 -10.7077 0.285646 -4.53991 3.8034 7.27111 -8.73604 11.2211 -6.76158 -1.88333 10.0479 -10.296 -13.0047 7.01789 -5.16347 -9.82632 11.2383 7.82263 7.25607 -13.3665 -13.3222 7.63408 -4.89868 -10.6022 8.4105 12.5662 -10.5345 1.81658 -4.18152 -6.70949 -11.1986 2.62706 -3.23455 12.6796 12.9721 -11.934 -0.770438 8.70543 9.78478 0.714118 5.4257 -9.72623 11.0721 3.44274 9.17754 7.93544 -10.6562 10.7122 4.25944 2.41241 9.31894 -8.02512 -0.647031 -6.17434 -13.3246 8.04106 10.012 -6.35614 -2.30647 -11.7295 1.81448 12.3836 -7.00107 -5.12576 -7.35575 3.93764 -8.45202 6.43919 13.8026 -6.39621 -6.14392 9.39766 9.00312 -5.59583 10.0446 0.127031 7.05057 10.0548 13.6044 -12.0938 -4.2123 2.56814 -11.7177 -13.1624 -4.09895 6.41059 -3.41104 -11.988 -13.9239 -10.392 -6.1212 -13.9528 5.8799 11.7416 12.6669 -10.3204 -9.49938 -3.38344 -0.800891 -6.14138 -12.3236 -13.0332 -13.9416 0.465459 -4.81956 -8.16477 -12.4463 8.56888 9.54775 -9.25138 -11.5841 12.9557 -8.82509 -12.7096 -0.139923 7.6517 -6.52399 -13.2311 -7.83518 2.76112 -3.32394 -2.91263 0.391114 -13.2719 -2.0234 -7.21396 -10.3671 3.19541 -0.628873 4.5619 9.86107 -13.9764 2.53012 -2.25819 -2.14152 -8.70807 -3.27744 0.205819 0.335354 5.39987 -7.64037 10.7915 -2.12394 -4.40109 1.86995 11.023 0.278519 -10.2292 -5.16747 -13.8076 12.321 -6.53709 -1.69092 -0.618287 -0.914182 4.92755 -3.51259 -10.9944 -6.2339 0.317353 -12.3039 -11.2775 -3.45924 -12.8228 1.5501 -1.35302 2.7912 -9.50048 -13.7905 -4.25284 4.98513 -4.6633 -5.56148 5.9811 12.7532 13.684 11.7642 -9.18667 -10.7188 7.78148 -12.3726 12.1631 11.1529 10.9129 -7.65248 13.5159 10.9078 7.31588 -8.45209 1.6486 -6.11663 5.5374 13.3907 -10.2474 3.08891 5.38155 12.9586 10.0512 1.56959 0.996226 -1.24004 -11.4388 -2.38552 13.3095 -12.2095 11.2038 5.98597 1.70968 4.06096 12.2841 -7.1505 6.12315 -10.779 0.294089 -7.29776 9.67984 -5.27381 9.64404 -3.77751 1.41762 -6.05387 2.68199 7.16563 -11.3361 4.3872 -10.5992 0.167722 4.50749 12.3555 4.74848 -12.0656 3.7362 -12.6949 -10.1091 9.75338 2.23149 0.356008 -5.15165 13.5055 11.9873 -6.50774 9.63303 -8.92506 7.93092 4.72602 2.16496 11.9111 13.5941 8.46594 -5.54148 4.26093 3.60614 -0.415507 7.00428 -9.50473 8.94829 7.12456 13.4334 9.39077 1.50578 -11.9398 -0.0389945 -6.84042 3.62993 1.0714 -7.93641 6.03747 8.94598 -0.578883 12.3421 -5.45283 4.22797 7.11382 0.297504 5.81825 -13.7319 -5.38887 -10.1905 -11.0628 4.86973 -1.3622 5.95533 -10.0009 11.5809 3.12231 -11.7896 4.17393 -6.78742 2.78354 13.2659 4.13167 10.5493 8.29667 -3.25645 -1.48516 13.476 11.9886 1.73298 12.3225 6.68021 -7.52165 13.7654 7.52529 -11.382 5.57968 0.849849 2.38575 9.83533 8.44019 -9.27326 2.99008 2.88752 3.16924 -8.37641 0.617412 -5.63282 8.16324 -9.75721 -8.84308 -5.60839 0.151069 13.697 -12.4718 -8.79702 -12.6396 -1.5951 8.06896 12.1021 -1.8297 2.72539 7.90979 0.0304308 -9.33734 0.311602 9.49732 -2.6984 7.21839 -11.9529 10.3569 -0.924358 8.31647 12.4155 -4.4903 -7.12564 -12.7016 11.6982 -10.2363 0.354275 1.63172 9.54826 1.86105 1.92838 8.49373 -1.86562 -10.3592 10.9876 8.68378 -9.63703 0.388874 -12.7559 8.08275 10.0226 -2.81734 4.53889 12.4708 6.93366 -13.9825 13.0783 2.9735 0.620269 6.35609 11.9445 11.205 13.9452 13.7734 0.203718 -4.17179 -12.7375 -5.46476 1.54102 2.70931 9.32001 4.56241 4.51153 -9.39564 -12.4791 12.2147 13.1459 -7.43829 9.67066 -3.95377 -5.46359 -2.39408 0.657806 -2.47103 8.31278 2.8335 -6.28566 4.83545 -1.14437 -5.75657 7.88053 13.9474 10.289 -12.8594 7.19757 11.7521 0.98525 -11.1831 8.6358 -6.31661 1.67346 -2.19154 4.07105 -9.33245 11.538 5.82231 6.00812 -2.01332 6.06536 -3.47999 7.83991 13.4135 7.15443 11.7403 7.96283 -10.3698 -11.1711 -9.51706 4.08447 -5.18385 4.91237 13.6214 11.6872 -9.76399 -1.15822 0.54173 2.1336 6.18088 -12.364 13.5155 -8.80305 -13.5662 1.80767 -8.58665 -8.61398 -1.70219 7.69126 12.7339 -6.71603 -3.90298 -1.23627 -4.57756 12.4064 -8.91178 2.92049 -1.97601 2.70957 8.01004 1.17929 -0.818005 -7.38425 -5.88704 9.46419 -13.3985 -3.80497 10.631 -0.804815 -11.2856 -13.8827 -0.0338612 7.5205 -5.05769 2.70006 -2.77242 -6.40133 11.2652 -6.00434 -1.34616 -8.9331 -6.57641 1.53367 -2.25298 -12.3963 -13.9667 -6.97078 -1.63778 1.65595 -11.9774 6.86853 10.2003 6.12163 -10.9834 -0.474369 2.12023 -12.3042 -1.44505 4.56798 -9.78763 -7.95966 -12.7309 3.9337 -10.9315 2.35619 3.91677 9.17927 10.8733 -2.51303 -5.37673 2.74947 -7.3615 8.24743 13.7343 -8.77783 -11.4263 -3.05206 -7.22537 -10.7093 -1.76044 -6.6837 -1.63054 0.0797881 -11.6242 2.52296 -3.64683 2.28355 -9.33556 2.38085 3.39375 -12.5502 -9.16861 -4.56913 12.6105 4.63858 -11.9412 -4.02637 1.36031 9.54962 -6.99777 -5.31123 2.70714 -3.71015 4.34188 8.96356 -8.0532 1.20512 -0.692001 7.01952 -8.46641 6.57265 -1.7651 -7.21207 -0.993984 2.36705 12.7822 6.55014 3.72979 -1.70398 8.97498 7.33332 7.54884 -5.60034 13.7941 5.53987 -7.4108 -8.01175 1.19395 -7.18872 -8.44942 1.96164 4.50756 11.3347 12.9543 9.93356 10.7459 -13.8933 12.162 8.72181 1.8102 8.9031 -6.92077 11.8265 3.89633 -11.0733 -3.7416 -13.1819 1.14255 1.06656 -9.75513 9.15994 10.7638 9.55199 9.20568 -4.00781 10.1801 0.66926 -12.2862 -6.78929 -10.3111 4.82956 -0.678924 -10.0919 -10.9185 -1.93299 -3.10623 10.1269 -13.7254 -11.9722 -8.51681 -2.02297 11.3815 -6.86652 5.92438 10.4584 11.0802 -2.50788 -8.04199 -6.04132 6.03157 1.40917 -8.12041 13.0855 -5.94678 10.1441 11.4964 12.7026 7.81025 -8.39633 -13.9378 -0.26472 10.2606 11.1954 -13.8505 -9.28583 -2.09822 7.52678 -5.85457 10.7292 -7.22032 0.324975 -7.94799 -11.0132 -8.45695 4.41628 -2.174 5.52772 10.9609 10.1129 4.47483 -3.49194 6.4226 -1.14658 -7.96013 -8.00143 5.96372 -5.11789 -5.57061 -12.8677 -4.94935 -4.87936 2.58424 11.2515 -10.5342 1.05081 10.1098 0.194455 12.7472 1.07841 12.8333 -4.16841 6.64667 -2.67673 -3.31531 -11.6021 4.99912 -2.46868 -12.3864 -0.781454 5.9706 -13.4062 -12.1673 -2.45348 -5.85691 -6.49733 8.97164 10.6772 6.6781 10.0741 3.70448 11.506 6.80083 4.74076 2.2892 -6.40127 -6.39951 7.83521 -12.6417 12.3216 11.7123 1.19647 3.35447 8.64367 -11.0024 0.790346 1.48991 -2.36465 -8.91878 9.33579 12.0973 8.52592 5.71247 12.8273 13.169 1.6361 -6.17245 13.3839 -10.3737 6.8429 -7.91412 0.920207 -3.93009 -8.89626 -10.3409 -1.32604 -7.89199 -6.03037 -4.26088 -7.19356 3.45585 9.68412 0.0190245 -4.61925 -2.87555 8.67789 9.34145 8.85314 6.10665 -4.59696 4.59766 7.52217 -8.48343 2.7103 2.76647 3.1912 -12.1681 12.8178 -8.52589 9.71874 0.795186 3.77948 -11.6135 2.71756 -5.43896 0.390345 -3.16697 13.6077 -3.4812 -12.1674 -13.7639 -11.8046 -10.2592 -4.34453 -0.834071 10.8613 12.572 -6.18338 -6.39202 13.8776 6.12143 -8.28827 -4.97439 -11.5987 -5.03668 9.61227 12.2803 -12.5102 -3.07881 13.8133 -9.24713 -4.40075 -2.93307 0.705365 4.65056 0.0758334 5.40172 -13.4546 11.8785 7.33222 -8.75256 1.7778 -6.17071 5.52359 -13.8112 -7.91186 0.844956 7.72154 -2.37765 -13.2258 -4.71842 -6.43708 -6.12633 1.82899 -7.436 -7.13868 -12.1454 -13.197 -2.57012 -0.138836 6.86155 3.57309 0.283218 9.0515 -5.64569 -0.741628 -5.92448 -13.227 12.4994 -12.2439 11.6009 9.69861 -9.97934 -3.69152 -0.0509753 12.2058 4.74263 13.6844 -13.1769 8.58655 -2.97385 10.6789 6.3558 -9.79696 -10.7036 -7.53166 12.4539 -6.27109 8.50996 -7.41697 0.626699 4.13239 -10.1013 6.06317 -3.23628 5.8223 -11.9387 -1.23856 9.30487 3.86801 -6.58808 13.51 5.27211 3.04958 12.277 -0.156599 -3.89963 2.99901 2.03368 4.74679 -9.84872 -11.7866 -11.1334 -11.1366 10.0044 8.51259 -7.56898 4.19316 6.21081 8.37998 -1.88096 -11.1257 12.4688 -3.16574 -8.19798 -3.98153 -2.03569 -7.31698 -11.1906 -8.69958 -8.30818 7.13581 7.19509 -0.658475 -8.72513 10.9278 -7.2834 -0.341098 3.85511 -12.8414 -0.0590309 12.4787 3.55707 8.48939 4.29277 -1.03651 11.002 0.338244 -0.229828 -10.0755 6.76721 0.89039 -0.0896096 -13.5066 11.0519 -9.3109 -1.96446 -2.44957 1.10821 1.67818 -2.78508 -10.6203 -8.0705 -7.27504 -9.86629 0.109943 -9.15578 6.88288 -5.77653 3.82854 1.16231 -13.5646 3.16202 9.53109 11.033 -5.33689 -12.9601 11.7132 -11.4968 -8.90565 -6.10911 -3.71338 -8.2634 0.196873 3.4535 -9.18867 5.88737 9.26114 -3.24338 13.7036 -2.0561 1.97945 6.45978 1.2247 -8.83714 -0.676538 9.11248 5.06987 8.36522 10.3326 2.99014 9.37449 -4.58083 -10.3863 9.96666 -2.62154 -8.79201 11.3065 1.4096 6.44932 -2.79042 -3.16278 -11.9447 -11.0339 -2.74757 -9.54118 3.85851 12.1331 -0.171452 -4.64311 -1.02255 0.127186 13.85 5.73869 11.6806 11.0639 -3.3769 2.99381 -10.2292 11.4106 1.42217 0.365631 -11.1167 6.29647 -7.43424 -11.7135 -7.95377 2.91819 -8.20005 -10.9119 2.56167 -9.61673 -13.5672 7.71912 10.977 -7.27081 2.27198 2.1897 -4.15902 4.94975 -12.9431 13.2895 13.0041 10.4039 13.1008 9.7685 -12.2124 -0.790812 7.54676 -4.00122 3.94843 9.89726 -0.153591 -1.60272 11.9968 -0.169327 8.28018 1.33094 3.91439 8.79759 7.9646 9.11864 4.19988 -9.17577 6.31209 -1.86744 -8.19526 -0.867515 11.7385 12.1865 11.7607 5.11147 -13.6437 -9.35913 -4.28777 -7.44493 2.96306 10.7584 10.1207 -6.94334 7.87593 11.3249 -4.92605 5.89978 1.19709 13.276 -9.41161 12.7143 -11.5443 2.68176 11.7651 11.8373 3.56931 6.7047 -1.52146 10.5833 -0.728565 6.67507 5.4641 3.99907 11.8285 11.6523 -5.73953 -3.04539 7.25106 1.14289 -6.84162 10.7005 10.5204 5.65816 -12.492 -7.28384 -8.89534 0.315132 9.70131 -2.15366 -6.70768 -11.0765 -7.9556 -1.33978 -13.6195 10.1573 7.22301 12.3609 6.32087 -8.93174 -1.4579 13.1269 12.2738 5.35077 -5.26012 -0.908992 -2.98201 10.992 -8.30506 -1.90592 -3.88963 12.9037 1.99474 5.60179 -10.0618 7.39482 3.24945 -0.823713 -0.557519 -13.7581 -11.5682 -6.87932 1.03122 -4.38736 -10.2926 1.65365 5.71599 -13.498 -4.35364 -11.2512 3.71744 8.31125 11.4148 9.5076 3.18098 8.82316 -3.7292 -2.58556 -9.54835 5.76674 -8.47702 -1.51254 0.519374 -10.2402 -1.5147 -2.36041 4.08216 9.41883 8.6125 -11.3544 -8.42925 -0.513948 -5.58322 -2.38935 -11.2763 13.5396 11.7127 -13.8606 -6.74329 -9.66364 -13.1477 -2.88606 6.6891 4.47461 12.9264 -7.70055 9.08345 -8.08058 2.71849 -12.1416 13.464 10.9429 13.4346 -13.7012 -8.67511 0.0853555 6.25777 -1.9412 -10.39 -8.8017 -5.46478 5.68321 8.16572 12.2219 7.23751 -4.9133 10.6555 5.62238 9.00468 7.17702 -8.0159 -5.68622 2.45942 -1.27124 -13.6919 -8.11077 4.22751 -8.39363 -7.02089 -3.87806 11.96 -4.30766 11.4678 10.5675 -6.38585 2.75896 8.55213 -11.5592 -6.17283 -0.470858 -8.16496 -3.70463 6.22892 -4.39563 4.66227 -1.97296 4.20369 -11.3074 7.30333 10.3973 -5.4543 -5.92412 10.228 -4.2017 7.03104 -3.25595 -13.4648 -9.76422 -9.33646 11.9227 -7.68604 -11.1897 11.7162 -8.17733 4.85381 10.2006 -6.60761 9.59252 8.61738 -5.79218 7.76863 -4.23196 -4.6326 -2.55617 8.9161 5.57928 11.9137 13.8987 6.90398 7.11607 2.04667 -12.9923 2.92196 -1.31387 -7.26502 -3.23563 -2.96611 13.1671 0.0814739 4.18053 -5.39547 -3.92799 -6.16926 7.28679 -11.2738 -5.26619 7.23828 -0.841056 5.27282 8.2526 -2.5465 13.4534 6.40034 -0.148245 -9.81973 -13.2103 -9.13371 6.01403 7.14428 -10.0897 8.89246 1.55596 0.390254 13.9564 -4.93335 -3.17266 3.05348 0.46407 8.18488 -7.8077 -6.38214 8.99449 5.46337 13.7841 7.80124 4.77198 -12.5372 -5.85476 -8.5884 -12.7252 4.52161 3.79539 -2.83687 -5.17053 -8.94768 7.67777 -9.52143 -5.66305 -5.63172 2.72278 -10.1027 12.1355 7.96147 9.61499 2.23584 -0.00112181 12.9348 -10.0926 -12.0026 -5.85482 7.15824 6.80886 -1.2701 -9.94834 12.9197 10.5442 -6.68148 -9.71062 11.0927 2.72907 -2.62291 0.571398 4.735 -8.50991 -9.72617 2.34955 -11.6662 12.742 -5.89209 -13.0249 7.21594 -11.1154 -7.21393 1.10091 -13.3622 9.2293 -0.241285 3.41537 8.68633 10.2908 -2.01892 2.84422 -5.71693 -12.4301 -6.86057 9.3494 -4.73902 3.73904 6.5585 11.1868 -9.23699 7.80249 4.33073 -11.365 5.27751 -5.49845 12.9515 3.55154 12.1242 -11.0843 13.6152 -12.1682 10.4729 -10.4648 1.37337 -8.137 7.63431 1.55159 -7.12037 0.916598 -0.916242 9.45712 -9.22659 -0.939191 -11.8847 -1.57923 6.10417 -7.49851 -3.41659 8.20853 7.97124 3.45809 10.2114 -2.95705 3.98419 -1.41088 -12.547 4.09305 7.84994 -9.76704 -12.2908 5.3418 7.5177 1.86898 -4.27806 -0.796664 10.2255 -5.56502 7.75764 3.97232 -11.8792 0.43845 -8.02771 3.04049 -13.8157 -12.7456 -13.0347 -4.50908 -10.296 -6.85764 13.5147 1.64805 -0.790416 -3.60376 9.99114 -4.26783 -4.81732 -10.1618 11.0906 8.16093 -8.24391 1.79998 11.0875 8.57929 3.60407 -3.78982 6.8711 6.97912 -11.3286 2.9884 12.4558 8.74886 12.4807 -3.98137 13.7802 -1.26215 7.52112 2.00007 1.12569 -2.16919 -6.79005 7.91559 8.07776 10.2063 11.3302 -3.11328 11.8449 -13.6092 9.57102 7.72216 -11.9415 -12.8125 -12.0283 -2.26251 13.5847 8.41496 -1.35984 8.21692 10.5567 4.00435 -6.29878 -5.02744 -4.47673 10.2362 6.61106 -8.4163 5.59927 9.72341 -5.72385 4.09537 -12.8027 -8.0723 -1.14963 13.8062 -4.90195 6.71344 -12.7618 6.1391 2.96847 -5.86948 -1.01667 -4.96197 0.323066 -9.24512 -1.78867 4.34136 2.98083 -4.29991 3.24051 11.4911 4.53219 -3.30944 -12.2142 -10.5541 -2.93316 -1.77889 11.4417 -11.789 5.08411 13.7342 -10.827 -4.57276 11.1908 3.6114 -12.4021 -4.59307 -9.72472 6.37593 7.39015 11.5434 6.87267 1.24277 6.36581 -3.02332 6.92097 -0.413686 -7.87152 -1.519 10.1525 2.29714 -1.05721 -10.4605 -7.58874 -2.03603 -10.4139 11.0664 -13.33 5.22339 -5.40235 -6.54344 5.20776 4.09466 -2.18322 -1.8273 0.139287 -6.7491 11.1329 -1.66663 11.5684 7.28317 12.5178 -5.04371 6.52858 13.4181 -11.2 -12.4038 -4.92326 -10.1338 4.97791 -0.516827 -6.8525 1.83709 1.41289 1.5459 2.29896 11.9685 -2.78766 -13.8558 -5.20567 -2.68847 12.5145 -7.40374 3.50705 0.853149 -11.8769 11.8339 -5.45419 -1.62304 -4.53022 11.0707 3.15232 -3.56489 3.23366 2.5459 6.3039 6.27 3.17019 4.26228 -6.45665 0.381289 -0.159644 -11.5758 7.66869 -5.64037 7.67014 11.5206 -12.79 11.0998 7.29294 2.62311 13.1439 -7.60751 -5.90973 0.163734 -12.8154 3.66557 12.8782 -6.28895 10.8096 -8.7199 -13.2644 5.66456 8.76292 2.62456 -5.47168 11.995 -3.08938 0.609242 2.77533 7.68423 8.89244 1.21761 4.7765 5.09468 5.67481 0.999123 -4.40628 11.4764 -1.36177 12.0352 11.2366 -10.1796 0.0271189 -5.10936 -12.6653 6.44712 -11.5619 9.204 6.86388 -3.20614 3.87723 -13.3176 1.3259 7.18253 -1.60468 -7.09222 10.3583 -2.0203 6.13225 -0.79499 -3.3762 8.77093 -5.0364 -8.46813 -5.19824 -6.95999 -0.453363 9.32692 -7.28416 0.411089 7.68091 1.31149 7.4997 4.11024 3.70714 11.683 -2.26753 -6.4178 13.6729 3.13192 2.87472 -2.38384 4.10674 -5.05388 -7.806 13.7468 -3.79939 -13.3014 -2.83442 -9.79904 -2.06414 2.91474 -13.8672 -0.11376 -12.4452 -0.247508 -3.30142 -2.40909 3.93164 -4.53013 -6.12872 -9.2247 1.6089 11.7405 9.907 -3.17457 0.000849815 -6.97312 5.45216 10.352 5.53657 7.426 -12.0436 -1.13787 -1.70592 9.83893 9.69009 -8.59279 -8.63784 7.88233 -13.0301 7.85372 -5.02788 -10.3854 -0.34931 -0.981274 8.57696 11.599 13.4937 -7.4352 -2.47331 8.84586 1.32388 -7.35766 1.93427 0.347143 -11.1742 11.5318 -10.0181 -1.54063 9.27412 13.2684 -10.31 -1.50295 1.6262 6.35298 -10.3821 -2.0426 -3.64986 -4.16526 6.16693 6.52645 12.5156 6.83823 -0.529482 12.7511 0.446695 0.268451 -0.66023 1.91015 0.930816 10.5931 -8.43351 -5.94897 1.18155 -8.56327 -3.82014 -8.56328 -3.59007 -13.005 -13.7883 11.7865 -5.90557 -8.31454 -11.1621 0.182919 -11.7215 -0.710222 -7.52872 10.7636 6.64685 -5.93404 6.34031 13.881 -13.9915 10.172 8.15591 -13.9329 5.59083 -7.63827 -2.92767 13.8991 8.9647 7.21611 -0.328218 -13.5203 4.84802 -8.22525 -11.7994 -12.904 -7.28731 2.36689 4.11493 -12.0619 -2.80138 -6.15714 -5.72147 3.13626 2.16778 -12.4573 -10.9236 12.5622 8.702 5.48965 -12.6822 0.857 -7.91574 11.1717 -1.15322 5.8586 -2.86228 1.67326 -8.96186 -8.61824 -0.653608 0.173329 12.6931 -5.83628 -9.15604 3.95286 -9.99156 -0.736159 13.8859 7.45033 4.04042 -4.13848 8.38061 8.51964 -3.80253 -10.362 12.8589 -7.95623 -12.0886 -7.94234 -8.70307 -6.14698 -3.36305 9.92194 -5.58574 5.43251 9.60519 -2.43967 -10.4781 -13.424 2.32269 0.849512 2.05102 6.11498 -7.44013 -2.26774 5.18567 5.46705 4.25317 8.78041 -6.49794 2.33749 -4.39609 -5.10701 8.94697 2.29332 -0.837828 8.12928 8.36208 -0.156961 -10.612 -0.554646 -10.408 -7.87024 -2.85366 5.75327 -4.48834 11.7527 6.93686 13.8193 -3.75937 -10.61 0.918087 0.875133 -4.60681 7.92826 -13.1461 -1.0806 7.27776 5.26625 5.78678 1.16492 -12.677 1.16351 -5.04328 12.6865 -0.630022 -0.380293 -0.457072 10.979 -9.5062 12.0134 7.60665 -7.59244 -3.75135 3.67224 -0.324987 4.86796 -4.20073 -13.0406 0.0276154 1.71358 -6.38775 5.11396 -0.576555 -0.450077 -3.96538 -10.8335 -1.27574 8.84022 -5.87023 -8.09262 13.793 7.932 11.7159 4.92029 -8.86315 -1.64129 -13.9631 9.61827 -8.32398 -4.20143 -0.533099 6.41977 11.507 -6.17071 9.14363 -4.17256 -11.6564 8.37359 10.9324 9.24367 -13.8318 0.698609 13.1308 -10.3838 4.07045 -4.08359 -13.903 -2.84703 6.99533 -5.15468 -6.70727 -8.25428 -2.22457 -10.5426 5.36954 -2.19958 10.0694 -4.92424 -13.3324 -4.01688 9.26369 -13.0426 3.59466 6.95903 -10.91 -7.04645 7.53763 0.259298 -7.68836 -1.10187 -6.99145 -2.17172 3.58174 8.14115 -2.5689 -12.425 1.64206 7.72607 1.38503 -10.6383 12.6675 6.39007 -2.2092 -4.86243 12.4372 8.6753 -13.2301 -9.40609 3.78611 13.6169 -1.73601 -2.25113 -0.435961 -13.9031 -11.0492 -10.2283 -7.05531 -2.74312 11.585 -13.1986 -8.47786 13.2227 -11.1659 8.33892 -10.5798 -12.2774 7.29757 -11.3034 2.55436 8.86113 9.88406 6.38758 2.65279 -0.62052 -0.342044 -0.105597 -6.13548 -6.9453 13.9721 3.90917 -11.4526 12.369 8.30433 -6.97637 6.04712 7.88687 -8.80856 -4.58861 -6.53314 -5.02244 -8.18684 13.2408 -6.25834 6.97639 -2.16757 -9.62272 -6.3971 12.417 4.30998 -6.58739 10.0911 -2.62594 -4.54469 -7.93712 -3.95961 2.39916 4.54353 11.0866 -3.88003 12.7566 9.4627 -12.1132 -11.6907 9.89536 10.5987 -4.31322 -7.51522 -2.04524 -3.5926 -7.83043 -4.03666 -13.8069 -1.75373 -4.60506 10.2446 1.19912 -12.6513 -5.6132 -10.2891 -7.3604 -0.717331 -3.81906 7.83265 -13.2959 9.3109 -4.27824 -7.06503 9.61736 -12.3379 8.26627 5.47945 11.1758 1.50321 0.774448 6.66848 9.93169 -1.72673 9.48084 -5.93735 -8.28255 11.2683 6.26315 -12.6606 -2.26314 -2.67348 13.7591 -11.9199 10.8119 -0.973791 10.5456 -10.5374 -13.6133 9.0771 10.5417 5.40387 2.15851 -12.834 3.96057 13.1609 -13.181 -9.56762 11.296 -4.45274 7.06084 -11.7366 11.3376 -10.4186 1.17937 10.9237 8.31107 9.83936 4.46058 12.8693 -12.3369 3.65542 -7.95256 0.722185 3.77251 -9.36417 8.82409 13.8831 4.36807 7.57488 9.26506 2.56886 -12.0458 -11.0469 -4.33229 -5.5604 -10.9641 1.94547 -1.15699 2.7832 -12.5941 -13.0441 0.8219 -9.78056 13.704 -2.9589 -0.722965 -2.62957 -12.8224 -11.1872 4.04909 -5.77492 -7.21937 1.5803 -13.8157 4.88371 -9.80284 -6.3658 -6.77653 -12.986 -6.17492 -13.3818 4.40474 4.56086 -4.96763 10.2329 -0.52273 -3.50114 13.306 -7.72372 4.72135 1.66206 -4.25962 -10.2955 9.69396 -5.57977 -4.75523 3.56385 -3.57901 -6.5685 -9.17515 12.2918 -5.92339 3.3761 12.2149 -2.15336 10.3687 -0.57405 -13.1099 -5.67016 -12.6265 7.97468 -2.11203 0.973272 2.79766 13.819 5.51233 -5.82146 1.18163 -6.30185 -1.34158 -4.70673 2.65603 0.829475 -8.64621 11.2636 -6.12168 -1.78128 -11.4794 4.07023 -11.8077 -3.076 1.86773 -12.581 -0.624554 3.19948 -6.41775 -8.7947 11.0116 -10.6841 2.27497 -8.18989 -8.05698 -9.47444 -9.47933 -1.22683 10.9496 -2.50795 -6.75745 9.75004 -3.81761 12.6716 6.18791 -4.85441 -10.9423 -10.8337 3.2577 -5.16571 -2.54676 -3.50127 -1.19075 -0.835418 13.103 -4.63688 12.3457 7.2727 -9.35383 -3.72052 5.70037 -5.53835 -6.28563 1.89522 -12.9037 12.7439 -7.04941 -11.3987 -5.4345 -1.881 11.3022 3.59862 -1.69219 13.984 -8.53781 -3.22965 -12.3758 -12.7777 -7.06214 -6.83336 7.99595 -12.2016 6.09465 3.27712 5.67757 5.19893 -8.96494 1.63823 -3.64796 -0.036421 -9.56237 -2.0117 -8.18614 0.0237539 0.266394 -10.4888 6.86219 4.50887 4.02427 8.5187 12.9093 12.2623 -13.0121 11.8175 8.45203 -13.406 2.73038 -6.81052 -3.58792 -3.86678 9.79083 12.5847 -5.95501 6.15197 7.24124 5.83147 7.26145 2.24855 5.21962 -7.7666 11.8223 12.0261 0.886322 12.4931 11.4499 -13.9863 8.10707 0.928078 12.3661 -11.9846 -1.719 2.76135 -12.527 -4.85962 -11.0795 -10.5009 -2.93614 9.51762 -5.81945 -7.7196 -5.90226 -5.21244 12.5763 -7.52196 13.2792 0.281583 1.45376 8.9004 3.81503 -11.9789 4.21133 4.20588 11.8142 8.52579 -11.9185 -6.44485 5.03163 -1.20335 -6.95797 -13.2949 12.9773 4.12953 -12.2006 -13.474 8.27067 -12.9822 10.6049 4.11423 -1.88455 13.4347 -9.33685 -13.2169 0.337613 -0.658624 12.0998 7.62376 -2.59545 4.93607 -8.57792 10.2863 0.107482 7.59613 -6.5657 10.7046 0.524535 7.85452 3.9609 0.924647 -1.35673 -3.30389 8.61281 -8.20788 5.44178 8.31655 1.44932 5.43776 9.4669 4.35865 -8.6011 -6.30457 7.49875 12.4666 3.76355 -9.03974 1.13159 -8.57812 -4.80234 -8.66071 -8.25216 6.99382 -4.80764 -0.986898 10.4898 -8.28994 -4.39432 -10.768 2.30171 3.36118 -12.156 -5.08091 12.74 12.2084 -2.41408 -6.90007 -5.42409 -12.16 6.87266 -7.55889 -9.08068 -13.7446 -3.5167 12.3636 -10.5933 11.7117 -4.69874 -3.03241 -0.365772 1.49722 -7.06862 -12.0822 8.99273 -7.27163 6.06179 -12.4198 -2.54889 7.05543 -1.68189 12.8145 -13.0716 10.9619 -6.49633 7.9348 -13.7144 7.73236 8.63759 -8.29311 7.69722 3.60645 2.65447 10.3295 1.18781 -12.5633 -1.57839 -8.48968 8.18512 -11.6184 -3.54989 -1.64913 -1.04218 -1.09821 0.305806 12.4754 -3.30728 -6.93137 -5.84125 -1.03802 7.09659 12.2005 -6.44165 -6.6905 5.77532 -9.10584 8.58746 8.2171 0.794671 -10.0494 -0.735907 -12.9399 9.32116 -1.05198 6.61843 -6.19945 -9.35819 -13.4567 -12.3335 -2.78263 -8.45614 13.7605 7.82055 3.31505 1.52546 -2.57061 0.756005 -13.8831 -8.44679 13.8881 9.50346 -8.43899 11.3122 -11.9019 -9.51677 -12.3245 10.9645 1.7418 -5.89511 -4.5135 9.22436 -0.708297 3.66506 3.86599 9.77254 9.4122 9.59541 -9.86615 -8.62065 13.2264 -5.46966 10.2998 -2.30317 2.55681 -9.06734 -12.4892 0.455535 -12.7278 6.97607 11.3936 1.51093 -13.9979 -5.79898 3.42452 4.91706 -7.9467 0.365785 -13.6362 -0.66986 1.1801 3.44103 -5.41463 6.40109 5.11004 -7.60885 -13.0871 -11.8026 12.731 4.83175 -13.758 5.60451 7.46086 -1.782 9.01548 -7.18383 10.1846 11.9091 9.79499 8.54539 11.706 10.0408 -8.23543 6.63333 9.48646 13.0961 -4.37274 -8.82975 -8.61538 -11.1229 11.0167 -12.8396 -8.87481 -5.86256 -6.7811 -2.21054 12.0246 -13.6924 8.66795 0.913992 -6.83506 -7.42837 -12.9552 7.47006 5.98158 13.2863 -5.97658 4.22361 -12.0592 -4.92905 13.4938 -0.238958 -9.69319 -4.17312 11.5128 -7.13272 -8.79292 -2.54005 -5.47311 -10.7737 8.14002 -11.0911 -8.96215 -5.16938 9.76737 1.6566 11.2716 3.01531 -12.7311 11.1929 -3.87632 12.878 -13.3381 9.07634 -4.79891 10.4693 5.47323 -4.21152 8.52012 3.69547 0.786469 1.83019 12.508 -6.38262 12.8342 3.31248 -7.59243 -10.3216 -3.89695 -10.1902 9.46389 11.9469 6.83069 -6.12648 10.1368 -13.6915 8.12586 9.63984 -1.56338 0.711176 4.59123 -2.6273 -13.7924 -13.4646 -2.52472 -12.9547 -13.9962 -12.9999 -1.08638 -3.70059 9.24791 -0.644363 -12.7703 12.3698 -7.07669 12.7481 -6.4632 -1.50919 9.67764 3.61039 6.97925 2.52399 -1.63587 -13.5377 -5.14606 -11.3605 3.80418 12.1495 -2.47597 4.80821 7.18887 3.46476 5.27279 -1.83841 -6.08862 -11.7445 3.62126 -12.2307 -0.0491919 6.57902 -6.60698 9.62321 -7.23798 -4.252 9.09657 -2.13545 -6.75605 -11.6475 3.06293 9.80323 8.74198 0.597609 11.8915 0.535489 -12.8164 6.94734 11.2506 -8.52029 -0.017741 6.45323 -7.08155 -11.6362 1.04657 4.41986 -3.74431 -3.73069 -2.88383 6.1651 11.9971 -4.21773 11.9096 -4.96839 -11.6364 -12.3911 2.99264 8.28809 4.8593 9.22197 0.513335 -1.79039 -13.1297 -1.67627 -12.1443 -10.9662 6.05005 -1.94607 -11.1919 10.1572 -1.94796 3.82234 10.7303 12.3553 8.63717 -1.46093 -4.55968 0.343657 5.9644 -5.05769 11.9192 6.28109 2.75748 -1.29024 -9.65718 4.17853 -6.48349 -2.43275 -3.42847 -11.4846 6.93373 -8.12974 13.0036 -5.56031 1.34635 -8.33666 -6.22278 4.60318 1.96339 -9.8145 4.30368 -0.361412 0.684769 3.24257 2.72791 -3.77001 -13.8013 4.00459 4.58624 -5.10513 -5.12803 -5.33814 -0.336967 -0.127504 -1.07088 -3.59048 7.56408 0.641897 -12.6251 1.07899 -10.0784 10.1202 -0.709113 -10.6842 -10.1477 10.3841 13.4866 -12.8697 -9.46713 -12.413 -10.3124 -2.60518 13.9197 11.4635 -0.387653 8.46124 -10.5752 -6.59169 1.71713 8.06951 -10.0936 9.47053 11.6008 11.4105 5.89254 9.2354 11.1662 -0.646943 -0.604261 -0.00819995 7.63092 4.31502 4.50396 10.6277 -7.71222 -13.9821 6.84603 -9.78407 12.1919 -0.788682 10.5429 5.47481 -8.60721 6.56404 3.29401 6.9816 8.86779 -5.11666 -10.9999 0.774297 -10.2789 -4.89658 -2.72792 6.54087 13.4853 4.63199 5.00454 -6.67374 -3.21899 -9.58739 -7.56845 6.92332 10.6594 11.7007 -6.40813 10.1695 10.6044 6.41832 -13.7627 3.42673 1.09166 10.407 -12.9658 -12.8941 8.97186 8.78471 -12.5351 -10.4866 3.97993 8.07126 7.81102 8.70643 -6.05444 2.39902 -1.40771 -2.69501 -8.01785 -7.10534 -1.39282 12.1492 -12.6365 0.910586 -0.94688 -6.21403 11.2017 13.7353 -4.42581 7.76483 8.06384 10.5287 4.54034 -7.61552 -4.37065 -4.23451 -4.83966 11.6381 -3.32977 -1.10575 3.80216 -2.82736 8.09076 -11.4987 -4.63311 -8.5993 -1.06612 8.92561 5.49825 -11.5335 -10.7186 1.72718 -7.55472 -4.55487 9.35961 -2.27523 7.26101 -6.1918 -5.99561 -2.25242 4.42148 -1.82335 6.23234 6.81021 3.2038 -8.10529 13.5075 4.69698 11.8126 -3.51624 8.95924 13.7858 12.9362 -12.8592 -11.1753 13.7182 6.63649 -10.6466 4.41931 -12.4444 4.99626 4.12529 2.02214 5.67172 3.25982 -8.78197 13.7161 2.34514 2.78432 -12.0424 -11.7479 2.24636 1.93062 -11.4944 -4.5497 12.7961 -13.9172 -2.3333 -8.30253 9.22539 -2.93849 7.92017 -2.01716 0.368028 8.48807 12.6559 12.7192 1.50669 4.28658 11.5251 1.63208 4.71647 -0.9708 -8.29651 -1.7587 -9.32276 10.2968 -3.70637 7.11518 11.7538 11.1764 -6.53214 9.98775 -1.10341 0.982464 -4.26203 4.89634 9.59031 9.46329 6.04518 -10.7655 -9.04099 -7.80764 5.9643 -13.0844 -4.47236 10.0622 6.00151 -10.2953 -6.81957 -11.4896 -0.962584 7.92517 13.7947 3.2404 -1.13456 -11.8644 -0.462727 -0.0174896 -12.428 -0.724268 -10.5916 1.268 -9.95704 12.9446 -10.4238 4.26172 -7.77949 -1.84455 0.921184 -7.15607 -4.4284 -0.782163 -9.00082 -13.093 -7.94355 0.683753 2.1129 -9.29384 1.7067 5.75895 5.22394 12.0241 4.15007 10.7733 -8.20142 1.09533 -7.62426 11.6548 2.02767 8.70353 -0.32263 -9.92126 5.2975 -2.20032 6.91481 -9.24597 9.78497 -1.64382 -11.9315 8.86675 -6.49655 -5.69459 -6.00017 5.36822 -2.18791 -7.26496 8.32332 -7.60211 -1.46861 12.9713 13.6951 2.68575 -3.78057 -1.22686 12.2037 -11.0692 -7.29217 -1.3613 -5.97758 2.383 0.592425 3.85174 -8.13245 -5.57481 3.1193 -7.10108 4.33087 9.5513 6.11543 3.14799 13.6683 9.55741 -1.62204 -10.7202 -9.79316 -4.01864 11.8015 -9.38294 -3.21679 -3.63623 0.523227 1.41987 3.65216 -1.36403 4.17404 -13.6316 5.48736 -10.3401 13.3874 13.2686 -7.92552 4.26955 -11.3605 -10.2781 -7.95799 -13.3441 4.31709 -6.13626 2.18617 7.49385 -3.91867 -10.1629 0.894676 6.23384 4.59206 13.4398 -12.2229 -12.1733 -5.60384 13.7523 -3.46889 12.3084 -6.00879 -3.77771 -5.39214 -9.00011 5.69708 12.603 13.2664 9.76407 9.89559 -7.64921 -1.05285 8.77064 -10.5838 8.97757 4.41345 -9.64389 8.47272 -2.59058 10.7668 9.8475 -0.700499 -4.3276 7.0627 7.42303 -12.737 -13.3373 -1.12331 -0.608187 -10.5602 -10.0886 9.27209 4.90414 5.55105 -2.33538 9.04918 8.52407 -5.08307 -13.8459 -5.02487 10.596 -11.5151 2.20077 5.2386 8.41064 7.26306 2.27673 13.8536 -9.88984 -8.64279 -4.44612 0.850687 -12.0361 -6.99985 -6.5658 6.30937 6.55916 10.5166 -2.03514 7.28099 6.62962 1.60676 -8.18063 0.1702 1.63974 -6.91283 -5.06663 5.11345 -4.75705 5.7837 6.68076 9.45334 -3.12958 0.677679 -12.0976 -6.84386 -6.05799 -9.23519 13.1437 2.51026 10.3313 -3.5819 2.66927 10.7841 2.05123 3.23302 -1.56591 5.32924 -12.9674 -12.403 -11.4423 -1.6379 -11.3883 -2.68899 11.1883 -12.0795 5.40872 -7.3582 -4.44204 0.051973 -5.7287 10.749 9.5852 12.9972 -10.9443 10.6957 -12.2061 3.72985 5.78774 9.60333 -2.60592 -9.07641 -11.3651 7.56348 -11.6602 -8.9639 -2.08971 9.04493 8.64495 -4.91459 1.95022 -11.4285 -13.1464 -2.76512 6.21467 12.485 8.78858 -10.3314 -7.35927 -9.45583 -0.949637 13.8134 -12.7219 2.32021 3.12226 10.8318 10.5117 6.66886 -6.64572 -11.8495 7.0696 -0.811623 9.61321 -9.72597 7.06237 2.73195 6.36931 7.2438 5.26731 3.0661 6.36519 10.5019 -11.6881 -7.12839 6.40606 -7.26235 0.359759 -8.56431 0.171788 -12.0386 -5.84391 2.48906 -1.91863 -2.72553 2.43165 -9.87384 -9.65579 7.65347 5.57864 -12.8894 13.3887 -7.708 11.1831 -4.41534 9.91465 10.701 10.5727 -4.34008 10.8596 -3.62002 -9.38706 12.9553 11.6601 -10.8968 -2.80814 11.3456 1.76815 5.82211 6.66261 -7.96396 13.6742 -7.64782 -2.16859 -7.5845 -7.17058 -7.7362 -13.2341 -5.94423 -8.21307 -6.11197 5.40931 -12.74 7.64656 13.2405 -5.34493 13.2534 -12.5418 -4.25123 1.4269 13.9256 -0.824178 -11.5767 -0.929194 7.67794 -1.18795 -6.02415 3.32284 3.61833 -5.51509 -12.1385 8.67719 1.36072 -7.88222 12.8576 -1.57365 0.476097 12.2491 -9.64903 3.5311 -10.4032 -2.46639 -5.1586 -13.921 -3.58068 -9.81454 5.67329 0.423032 -3.84493 5.60499 -0.925592 8.20854 -12.5181 -0.0999233 3.08718 -8.65543 12.7954 -4.66922 1.91316 -0.0359541 4.77262 10.0265 13.7518 -5.86523 8.01518 8.58204 -9.16114 7.08182 -0.858103 -5.59005 -5.82683 8.00215 -6.64151 0.774016 3.69667 13.7599 -5.47652 -2.64667 8.55525 5.36467 -5.88802 -8.08874 -2.68393 3.96398 -7.84885 -1.41881 -6.7984 13.9869 -5.58532 11.1719 7.54631 4.20492 8.74465 -13.6099 4.40028 -13.792 -3.41653 12.9767 11.014 7.31893 -12.6988 -2.49239 13.3792 4.94255 -11.6257 0.542701 12.0917 0.0173564 -11.0451 -4.49574 1.74008 -13.5944 3.16088 8.57198 -2.49958 2.94478 -6.02235 -5.0857 2.0735 11.8855 -0.0509482 -11.4595 4.06123 -1.56354 13.9346 -5.99658 3.62154 8.05762 -13.3456 -10.0862 7.05463 -8.77516 -10.822 9.46938 1.50868 -12.3942 8.81584 -9.28559 -0.0128836 -11.2263 -1.36757 -6.39778 -13.7687 -11.734 -7.40603 7.85284 11.9117 7.6933 0.0407944 -4.0904 -6.22029 10.5299 -0.389102 -11.9832 -4.02344 6.1296 -0.740739 -10.1672 13.9725 7.17141 -11.53 -3.74013 1.67129 -6.3632 4.50578 -13.1583 10.9904 -12.5789 1.52064 6.82698 -10.6535 7.8131 -11.8318 3.7385 5.30385 -7.63541 -1.94083 1.03705 -2.39428 -10.0316 -6.43454 5.75747 -11.2554 8.73541 4.68541 -4.91443 -2.85115 10.1726 -3.25453 -8.24457 4.00105 -10.9647 -1.19202 -3.5781 -3.50322 -5.72635 -13.1155 -6.34374 -10.7294 4.56753 0.548961 -13.3441 6.45859 1.73543 10.7489 9.42639 3.88877 3.67471 12.1836 6.14637 -12.4334 13.8269 2.84319 -13.0574 2.92466 -6.96648 9.14939 -5.44291 -7.2873 6.13128 6.16862 2.08164 -12.8774 -0.0495579 11.8286 7.93427 5.35606 -5.65996 -13.6586 -1.18912 -9.54171 -0.0567487 -10.6457 -3.80181 10.1891 -9.93861 9.51857 -1.47663 2.2701 3.45729 -2.11468 5.94595 10.8264 -4.19015 5.87607 2.29201 0.813943 3.93401 3.05207 -0.854107 -7.98992 -5.38657 -7.34905 -12.9392 11.4342 10.7885 -13.6394 -12.1177 13.6223 -1.33502 -1.44625 5.02795 10.8554 9.13055 -12.1247 -2.81616 2.54855 -10.8528 12.4323 0.208707 -12.2924 0.0639531 7.52728 -7.73545 -9.664 5.25644 9.84945 -10.1041 -13.5723 10.7429 -8.99513 8.3168 2.18381 1.6347 -0.0247888 -11.4678 2.8127 6.79252 10.2431 6.40979 4.25998 -5.85743 -13.5222 -8.12796 10.9311 -0.373719 -8.92361 5.8411 8.42094 3.9548 11.4087 12.0617 -11.9274 -8.33942 -0.475559 10.9764 9.0531 3.3283 -12.8933 -7.11589 -3.4004 -11.5782 -0.047604 -11.5493 13.6597 -12.7746 5.64973 7.83832 1.48144 -5.2983 2.92429 -12.965 -6.60742 2.12589 7.14329 -1.07425 -6.25232 -13.3394 -11.046 -7.97535 4.07262 -8.46403 9.46706 -4.34531 4.88759 10.1249 1.59798 -10.316 0.366852 10.5937 13.7445 -13.0689 -11.6152 6.15752 1.29957 -6.3014 3.81715 -13.6526 -7.84426 11.8586 9.27269 -2.25249 -2.00748 -13.4655 10.126 3.8188 -13.6349 -10.1942 -6.03609 13.5126 -1.53072 13.864 9.77596 -2.75408 -4.82322 12.9016 4.81276 10.9671 -7.01274 10.3806 -13.0889 -3.56129 -2.11763 11.349 10.9236 2.723 -11.8292 -12.5189 -12.3928 -6.27601 9.5037 10.3066 -10.948 -7.67323 11.125 5.28567 -11.3684 3.72974 3.22628 7.0602 5.19961 -1.75736 3.87652 -9.95263 4.73792 11.5473 6.45587 2.15985 4.88818 -3.6511 10.0629 -4.10614 7.19332 -13.096 6.41941 9.98141 12.7422 13.9517 -12.5145 11.733 7.85646 -8.61832 3.94033 2.18278 -9.77048 6.89246 -2.66126 8.47582 8.41445 -7.82409 4.88287 -8.49917 12.5461 3.95189 -5.39859 4.67955 2.96359 -8.25082 -0.0470857 -8.16364 0.781259 -4.73785 13.1201 2.61989 -1.43427 -9.68375 2.80992 13.503 5.58269 3.79713 -4.30217 -10.0094 0.39789 -6.7206 0.12038 5.65429 4.84022 -3.89195 2.25972 7.45576 -7.24792 -0.695412 2.10573 13.0474 11.8461 9.70111 -6.49396 -6.26757 -8.17077 -6.95143 -4.59317 -10.5705 -5.06289 -8.29728 -9.86943 -11.4817 3.12042 -13.8988 4.86239 5.03628 -3.06947 -5.80687 9.30399 -6.1585 -10.5998 8.19333 -2.97749 -8.76451 -13.4417 12.4529 5.72965 -12.9761 3.86354 1.6957 8.58768 -6.69138 1.27896 -2.71623 -2.97644 11.5885 4.18494 -3.29587 5.11523 2.79619 6.31338 -1.74673 2.23593 7.34662 3.15995 0.723809 2.15421 -8.48085 -6.06258 12.2923 -4.51004 -1.83723 12.5422 -1.18258 -7.94856 0.975974 -13.4768 -1.18466 12.2129 13.0633 1.03497 -8.7389 6.78057 1.50318 12.6894 1.37048 2.59284 4.05363 9.24379 -10.7697 -4.90247 2.19671 12.446 -12.2668 -1.63918 -8.42309 -10.9772 -5.27965 0.146911 11.6418 5.57157 -8.02652 -9.01573 -8.50437 8.53108 12.6577 -5.44699 -5.17967 10.6455 2.2997 2.20005 11.7925 8.16577 -3.05832 9.17713 5.21635 0.895267 5.02651 4.12924 -7.84574 -6.11407 -6.04138 7.80417 0.375797 2.01043 2.10517 8.60522 8.1324 10.6893 -2.61957 -8.81212 -8.60664 6.2505 -12.985 12.4655 -9.4427 13.3418 -1.29809 8.06311 -6.95807 8.89231 11.6285 -12.7521 8.68572 0.654518 7.04899 -1.5904 -12.8139 -1.61404 -11.1919 5.43742 3.99969 -3.53509 -1.57332 -5.13894 -12.7997 9.22374 11.8736 4.51523 -1.71515 -11.0911 -7.19128 -4.51057 -1.46373 -3.80462 -9.57237 2.41724 12.4219 -0.16736 -2.77636 -8.18419 8.9235 10.1248 4.53241 3.0758 -8.32468 -12.4118 9.35992 -13.4063 11.8981 2.82667 4.29209 12.5754 12.2614 6.17572 11.0263 0.289459 4.54553 8.27628 1.17219 -4.85298 3.06464 -6.49925 11.2719 -5.99705 2.5654 -8.44161 3.76094 2.13861 -6.31917 -12.2782 6.83021 7.09337 2.81579 -0.390174 -0.487806 -13.743 -5.80365 -0.651855 -0.353092 1.59074 7.04995 -12.117 -3.03838 -0.010404 0.267497 -3.77788 -9.88273 5.00941 -3.41361 -7.50085 -10.2362 11.8387 -12.9821 12.6845 -3.70291 7.68784 6.25111 6.16472 -5.63031 -9.33467 9.78737 2.76337 -8.46376 -5.61934 10.0497 6.19136 -6.83849 -0.411601 1.51558 0.650636 -11.2298 -12.1141 3.06963 9.07116 11.6254 9.75604 5.7094 5.66841 4.42142 -9.12686 4.39032 -8.886 -2.18941 -10.7744 10.0065 -7.48121 1.78467 -4.49707 13.0409 6.32656 1.55603 -12.3312 9.87195 8.29787 -12.7555 -4.36495 -10.5293 10.235 10.5424 -5.86346 -8.10297 -13.7644 -1.38328 -11.7621 -8.81623 -9.43859 -11.4712 5.33657 -4.81055 11.6243 -2.05489 -11.8625 3.2026 13.0281 5.19084 0.935898 -7.24368 2.12205 7.14527 -12.6977 -6.94494 -8.67862 -3.44906 -5.58978 -3.27217 -11.3271 -6.24777 3.33559 4.64273 2.83677 3.0266 -11.0981 -0.765162 -8.60808 -3.45205 0.427307 -0.266492 -8.16184 4.48677 13.0628 -9.73613 -3.2906 3.04289 8.07377 -12.5034 -2.11505 8.33725 -10.3308 -6.31303 12.998 -9.39605 13.9366 11.5547 -7.43887 -3.2175 -2.83449 3.85912 -13.4428 -9.82 -11.7999 -5.39206 12.0919 -12.4947 -4.32393 -4.86651 1.18696 2.30707 7.67492 2.9309 0.554945 6.32159 9.10689 -5.63123 5.2387 9.15771 4.77131 2.24913 -10.4595 2.19974 12.7989 13.8892 -6.28075 13.557 -10.4957 -6.3123 -3.05268 -4.35502 3.7532 13.0362 10.0779 -12.1301 11.1708 -13.2511 -6.34929 -11.6354 -13.89 0.177521 9.06076 -4.08425 -1.21122 -7.39512 6.81441 -13.2157 2.92008 6.17857 1.46577 10.6383 6.28292 -1.30746 -2.52628 -5.98262 -0.619051 4.08494 10.9069 -13.4853 0.601117 7.79424 -7.83486 8.60986 1.31495 2.72363 -3.86048 9.0264 -9.95547 -9.84792 -1.36141 7.40358 -2.557 6.13609 -6.19968 -10.7616 4.34854 11.3202 9.04738 -7.65838 12.1009 -1.14897 -12.2312 8.54097 5.96846 3.24828 -1.72717 0.829772 4.19375 -8.41982 3.81523 -11.7243 -10.4127 -9.73075 0.843596 4.23622 -4.63814 10.0505 -6.51313 -7.16457 10.517 1.33472 10.8459 -9.57527 -11.6805 -6.03084 9.11531 -9.90713 -5.56806 7.69637 -5.77039 2.14275 0.114234 7.99529 -2.12954 -6.28864 -13.2625 7.47651 8.99371 4.38166 -4.16134 10.2885 1.53643 8.69869 -10.5432 5.85734 -11.7095 -4.87655 0.794379 8.61219 -8.24873 -8.52937 3.00739 0.362725 -11.3751 -3.6523 -10.2943 -9.34885 -10.0189 10.4013 6.729 -1.5191 -12.2 6.50491 -3.4673 0.041538 -12.1136 2.91351 7.19127 10.6577 0.863653 4.66616 -10.8452 7.51981 -7.05489 1.21223 -4.85749 -13.9332 11.0067 -0.959535 -12.4612 8.37836 -10.8934 6.35328 5.96523 7.08284 -3.82086 11.8192 -6.20892 8.69172 1.76555 13.9317 -0.43725 8.69558 -7.85479 -1.14281 -7.50131 -5.98766 8.16212 13.2098 -5.53985 -0.35043 9.66291 -8.048 12.1827 8.09907 -5.9339 8.16536 -5.86552 -4.22567 12.4404 12.0077 -7.87507 9.43218 -1.81133 -0.394935 -12.9545 -12.8353 -8.30827 11.2852 -9.0304 7.42224 4.32082 6.58675 2.91871 -5.23414 -9.3443 12.5704 -13.7522 11.359 -13.5799 -2.34588 5.32197 4.89196 7.49162 12.0075 -11.7048 9.76218 11.786 6.10195 5.35527 4.6402 -7.6678 -12.2484 11.3373 12.0387 -10.7791 7.39071 -7.82751 4.86464 -3.9817 -1.02496 -9.45267 2.77612 -13.7172 -13.4142 10.7868 8.85879 -8.25828 -5.08456 9.37231 -9.99586 1.5316 -8.01119 2.3609 10.878 5.96514 -1.56272 -12.2651 -7.50121 12.4716 13.1145 8.06408 6.53304 -11.2863 -8.45114 -3.74156 0.140364 5.64775 7.06149 -9.67185 -3.95133 0.449703 -5.45527 -1.50979 -8.57523 10.1229 -9.08884 4.24974 3.46762 -10.9528 7.63052 -12.487 13.1558 -7.17373 3.68981 2.37145 -11.6712 6.5638 -6.14524 -12.3776 -7.96016 -3.65679 -8.8125 -12.0957 1.53966 7.01401 7.33771 9.36321 -3.30376 -5.24208 -6.83535 -10.7239 -5.66361 9.8096 -1.59553 2.11513 -11.2867 -6.92977 10.0599 -8.52185 -9.6741 -0.892801 5.71914 -12.7489 8.09792 -3.7461 6.1254 9.40835 0.341331 -4.39768 -4.0439 1.13337 -5.29353 -13.4938 -4.95059 -5.46821 -6.30728 6.5612 -8.9291 -1.56836 4.39779 -0.735852 13.3064 -2.41741 -2.11853 -7.37955 -9.41413 -8.90577 -5.48616 -5.36157 10.9255 -10.0527 -10.4809 -3.64355 8.09038 10.1312 -10.8727 -6.76847 -9.71361 -11.7638 -4.01845 2.1962 -1.66232 11.9943 -8.67748 12.2735 5.34686 7.26179 4.97675 -7.88574 11.5675 -6.35921 -0.909961 -10.6458 -5.26171 -0.440815 -7.44188 -0.611993 4.79692 -8.84033 -5.81 1.58111 -6.38104 3.97961 1.69433 -4.01478 10.1605 -6.58843 13.5152 4.33095 10.0789 -11.0914 2.46902 -3.77389 -12.8001 11.2432 2.93343 13.274 2.84973 1.32185 -13.0284 -13.9449 10.3656 13.5894 -10.5001 -1.08249 -12.2509 11.5387 -3.87195 -11.4234 -13.8114 2.73564 13.0318 -7.82893 -5.96866 -5.55908 2.94143 8.60774 6.21799 6.60064 10.3006 -5.88632 8.89588 -10.2422 -12.8954 13.4598 0.141592 -6.79192 13.9409 -11.7639 -4.44802 5.63566 -6.11354 -12.2348 1.63373 9.19977 3.17486 13.2209 4.52559 6.18549 -13.5595 -5.5618 9.21093 -11.0866 13.7545 -12.9274 0.766477 0.885555 -12.7237 8.37696 3.11259 -0.0758477 5.03313 1.67444 5.45855 -10.148 -4.16557 -11.9756 6.49041 11.4424 10.9495 -1.16425 3.68353 1.09805 5.97895 10.8284 -0.882723 9.78344 13.8381 9.11605 -7.45219 -1.20245 -4.87503 -3.78809 -11.1445 -8.12195 -1.52458 -2.96911 11.7557 -7.07354 -4.8309 3.18236 10.4075 -4.74274 -6.15129 -5.28973 6.06307 -13.865 -11.7884 5.19929 -9.25546 6.58786 13.7233 3.14658 -0.726395 11.8092 -3.65062 7.38038 10.0006 -3.92167 -10.482 0.560705 -2.25096 -10.2156 8.11766 -2.82485 6.03812 5.64857 -12.7681 9.89986 3.06614 1.49248 0.964328 10.884 10.7969 -13.0767 9.92458 1.89526 -4.09187 4.1787 -10.1946 7.92696 -1.6663 -5.4693 10.5453 10.2373 13.4497 -12.7133 5.61002 4.27955 3.3124 -4.52096 -8.99725 -8.58276 -4.50775 7.99973 1.1724 -2.43063 13.1293 10.2928 -8.4277 10.9834 8.14865 0.96462 11.331 -11.3646 6.24719 10.7634 -4.79104 4.26411 7.52117 -6.0502 12.8223 2.11689 -5.26189 -2.30978 -4.55236 -8.15473 12.1252 -7.14164 3.82858 12.4022 3.74417 -4.24389 -1.54776 7.05151 -2.48173 13.5079 -12.4047 11.0101 -10.9623 -1.44085 7.56149 8.17833 1.10584 -11.7335 13.0291 -10.7064 -0.736345 6.51848 11.2724 7.41472 7.23175 5.28272 -9.10158 4.92931 -7.41703 10.1717 0.0349828 8.01782 0.444639 10.1351 3.27468 9.93401 4.04062 -5.97164 13.2116 -9.43928 12.8096 -9.87096 8.50316 -13.5564 -11.9981 6.9342 -4.85367 -4.09036 -11.9774 5.90054 12.9033 -6.71901 -0.853807 -5.15789 4.16436 7.56894 3.53232 -3.68929 1.70978 -11.304 -8.69339 9.64568 -0.418832 7.97709 -11.1438 3.29821 10.5386 7.91041 -4.27734 2.96147 12.3708 -9.69815 -7.61565 0.347864 7.82656 9.42256 -11.6948 -6.71138 1.16254 -4.25746 -8.06271 11.9144 -13.6827 -10.5293 -2.0918 0.552067 4.47043 -6.30363 -11.5363 8.00307 7.8663 12.0773 11.0039 -2.01606 6.38917 -11.6029 -9.44855 -8.52545 1.2344 -3.32051 7.75876 5.73133 0.933347 11.4335 7.92707 5.67262 0.192507 13.894 2.23264 13.6887 10.4246 -8.9726 -6.50719 13.4152 -10.2097 8.18501 -13.5101 -11.5596 8.62099 9.68676 -6.33863 0.531717 11.9525 -3.07201 -12.9441 7.10731 3.66545 -0.549964 1.56526 -0.826617 -4.4525 12.111 11.1539 2.96739 10.195 12.5908 -2.16721 3.74752 9.99299 -10.8485 2.71009 7.62615 -3.93143 5.58321 12.9159 -2.66424 -3.49865 -0.725208 10.8009 -9.05011 -10.4847 -12.354 -0.842902 4.34663 0.996915 -10.5042 -5.6353 -5.0946 -0.869037 9.56614 7.75046 8.79846 -12.1275 -6.74416 9.91482 9.53634 -6.55561 -4.92307 8.49014 3.45358 3.64712 3.70449 -4.72694 10.8543 -7.73215 12.4545 -8.67123 -1.62412 3.63484 12.8964 -13.0781 -2.85686 8.46973 3.22008 1.34354 5.03047 -4.56526 6.93807 0.432942 -5.66493 8.53066 -5.91981 -5.05688 -4.32424 -11.4004 -7.9834 13.8246 6.54373 -3.64953 5.69801 -3.63765 -12.8262 2.35403 -9.9175 -9.37278 6.44915 -1.93857 4.96925 1.89053 -3.30499 11.7296 12.1199 -6.00507 10.9645 -3.16498 -2.0749 11.8614 -6.5925 -2.17021 13.6959 -4.67446 -12.7319 -0.752889 -2.85012 -6.69849 -9.13024 -4.20834 -3.48885 -3.89208 6.60015 -5.23429 -8.61809 -4.94506 3.10229 -12.9185 -13.8862 -3.87657 4.6868 -6.4282 7.98737 10.5639 1.89107 12.6228 -4.50244 0.541881 -2.83193 -5.75757 12.9771 -3.75493 7.31721 -3.94249 -1.07969 10.362 -8.76314 -0.834481 -7.57455 -0.21556 -4.63844 3.23855 -10.6127 12.9492 6.25894 2.17749 0.546902 -9.18385 -9.3154 -13.5597 8.15881 -8.87092 -1.32414 -1.24083 -4.6885 -11.9501 -5.06081 2.49539 13.9963 0.110408 4.55744 5.51087 -5.84659 5.49509 -1.14131 -9.08447 3.25993 -7.04387 -10.6475 -1.45804 11.572 -10.1005 -3.38049 8.93074 2.51252 -11.5156 -2.50715 7.8372 -0.266338 -1.81315 9.49064 5.22319 -6.09092 13.477 1.83229 -5.78184 1.00937 -4.12341 -11.5467 10.4461 12.0807 -10.5323 -7.04807 10.0982 -11.5484 -5.94521 -1.58759 -5.73599 9.18596 11.3253 5.66424 1.26028 6.0104 -0.431266 -8.20992 8.08253 -6.72448 -0.887177 8.14578 3.03232 8.05816 12.2509 4.548 -11.4262 1.93632 13.7706 2.44104 3.96995 -13.9763 13.8531 12.5159 0.482447 -7.3107 -10.0827 -13.5149 -12.4937 -9.84477 11.4299 -11.4232 -0.102186 -8.11872 -13.116 -4.72892 10.3168 12.2676 -4.54924 -1.70725 -13.8604 -11.0815 5.21916 6.06996 9.47392 13.0497 12.0238 12.4195 -0.539566 13.1859 5.05679 -13.9511 6.21437 -5.77575 -1.51047 5.07243 4.41198 -5.42286 -5.19073 -4.97742 -11.0525 11.0122 8.67005 -3.51939 -0.919729 3.77546 -5.91699 5.23147 -8.02206 -7.08692 -0.962458 11.7518 -4.76644 -10.9422 -2.49585 -11.4166 -11.0015 3.22311 8.61703 -8.23201 0.720121 4.73759 7.22523 -6.56713 0.420609 -0.835283 13.9215 -6.30902 -3.41139 -1.90095 11.6353 -1.56684 5.43862 -1.27846 -1.85377 8.85416 -10.4216 3.05996 10.2561 13.4378 -10.0216 -1.28465 6.71883 -4.02999 3.92199 -11.1899 13.8455 -4.28295 1.21502 3.11665 -9.82484 -1.71445 -12.7685 -1.37314 -5.0184 3.24438 -12.2223 11.4125 -9.17694 13.8616 4.20016 -2.73673 -1.4569 3.26948 13.5078 6.98492 -5.17584 -4.52464 -0.232472 -7.20477 3.7916 -7.6378 -1.84699 -13.8975 13.3071 9.31711 9.91358 3.66848 12.3433 -12.2936 -6.55643 13.7717 8.75554 -6.55892 -9.87607 10.5865 -12.7913 -12.3143 -8.01377 11.2457 6.75174 -9.79342 -6.59073 8.30525 4.48857 3.47093 -5.56481 5.53368 3.61444 -13.0491 -2.1257 11.2245 13.9704 3.42388 7.38975 4.71406 11.5409 11.3375 7.88473 -10.359 -9.28846 -12.1123 0.607053 -11.5252 -8.21918 -4.68863 -9.91345 -3.71542 6.83177 5.64414 1.25714 6.9323 -12.7231 -10.8456 -8.29711 7.59668 -4.47296 -6.37163 3.47631 -1.81606 5.99156 -11.8232 -10.2831 -3.75596 8.9683 6.15366 -1.78963 -8.0484 -4.59426 5.44531 11.2774 12.8812 -0.0840834 -10.1891 5.57584 -0.899858 4.19163 -4.31211 8.91647 9.4101 9.00363 2.99363 -5.19439 7.02469 8.71636 -10.3855 -10.6751 0.143062 1.29619 -8.02442 -6.4933 7.40452 2.89564 -9.43833 -10.3441 -7.14949 3.44045 -0.443282 -6.91396 -8.57527 -13.091 -7.30929 -12.6818 -12.4003 -10.0674 2.10183 -1.38069 9.76688 0.0610929 -12.8009 8.62382 -9.25523 -9.4057 3.37929 10.3412 10.5703 1.87636 -2.06687 6.01476 7.77393 1.03833 5.37122 -6.46828 -1.26672 -10.0497 -7.80391 -13.5697 5.74377 -0.00920573 0.123234 -0.247559 -11.0931 7.9366 -2.83962 -8.99391 -5.12713 5.05359 5.1348 -5.03734 4.52141 0.193145 -0.966221 -2.26228 -1.63962 -9.47653 6.81446 1.45201 -3.92244 1.63093 -9.32287 6.5627 6.18476 -8.12318 12.7087 -4.33649 -13.1901 -9.65604 -2.01409 2.28288 12.5797 11.4398 -0.166174 2.40313 9.12841 11.8498 9.82222 13.4668 -11.3492 0.758827 -7.5495 -8.60175 1.04004 3.9315 3.67864 4.03429 5.63048 -4.77906 -6.38746 0.557944 5.92862 -1.94622 11.9592 -12.8364 -1.07822 13.5263 -2.37679 -0.942693 3.46604 11.1524 8.43821 -10.2685 2.37577 -13.3935 1.01542 1.2941 9.77676 -13.9691 6.50237 13.8901 -10.6139 -2.27231 0.315 8.52798 0.46519 12.5754 7.43176 0.905038 13.5089 9.90321 7.02335 1.93817 -9.88854 12.6825 -11.7374 -1.83761 13.2664 -13.7065 -2.69965 -5.93411 6.14458 -8.5386 -12.7126 10.1156 -10.8447 6.52309 1.82411 -4.76091 11.0893 2.30367 -6.89536 0.689101 11.2172 -1.3616 -12.8535 -10.6925 -8.9155 10.3855 8.02321 6.99263 11.9816 0.727831 -12.2166 -3.8618 8.77719 2.87755 7.0547 -3.64577 -3.45356 -0.873196 0.910741 13.72 1.70399 4.36288 -9.3289 13.5236 -3.2769 10.4694 -9.40969 13.0909 -13.7574 3.18533 -3.40679 2.29752 4.31095 -3.50109 2.44535 -4.26663 2.67326 -0.647702 4.39987 -13.8548 0.565028 -1.50871 1.26943 10.0908 8.59212 -3.03397 8.14221 -13.2832 6.8284 -9.64471 0.168152 0.588834 9.14091 5.65173 7.7344 -11.7165 8.10402 -8.26456 3.56204 -8.69489 4.4711 -5.44411 7.41269 1.39161 12.7515 3.91296 -4.75823 6.03325 -2.65113 -7.59867 6.61136 10.7848 12.2239 -9.78801 -12.5317 13.1844 13.4689 -1.26276 -7.7122 -0.629297 7.64091 -8.91794 12.7123 8.46359 1.71154 -0.25779 5.70344 -9.34702 -1.55857 -8.28257 -11.1033 1.02264 7.60931 -12.9049 13.2356 13.7909 7.67194 -3.92842 2.7986 8.89791 -13.1781 -9.50847 -5.86825 -9.62695 11.0209 -13.7065 -0.879951 0.774543 10.1465 12.5467 7.13268 -13.283 -10.4427 10.6405 -3.94506 -13.0549 -5.02501 -9.18526 -2.74803 -10.9995 4.44816 3.01573 3.35257 2.72713 13.5889 0.777731 -12.2582 -3.15845 0.888191 0.0479927 -8.34336 -2.82165 -2.38326 5.30135 11.4718 -13.9913 13.9849 -0.728412 -5.5559 -8.15834 4.48059 6.4397 -1.60469 7.19289 -13.0351 -5.67725 -3.93243 1.76497 -11.7058 7.20085 4.21551 -10.6766 3.47083 -6.66275 -11.8217 -4.16455 8.22443 -0.860675 -8.66265 6.88482 -12.407 10.306 -1.93837 -10.2406 1.16963 4.1474 6.31162 -11.5097 0.199912 -7.53824 3.37855 11.1725 -5.70688 -8.582 5.40741 -10.4527 0.155971 -12.9293 -3.89433 5.70022 -11.1814 5.80961 -6.70975 -1.72256 13.9649 4.05254 -9.66995 -6.45439 -2.99695 -7.92153 -12.1332 -0.573711 12.6642 -6.26466 12.0299 -1.45067 6.38117 3.91672 -2.23166 11.9809 -8.66096 -6.95632 -1.39161 4.81166 11.4546 -7.48951 1.96796 3.36767 4.14767 5.68463 6.62434 8.54795 -2.26773 -3.04866 10.3747 -4.0279 11.7354 0.538095 9.84592 10.559 13.1399 -12.5398 3.63071 -3.34195 7.83724 -1.38068 -13.2395 7.90007 -1.78643 12.8586 -13.2925 12.175 -8.78614 -12.5289 -10.8185 -7.28916 -9.86205 -2.10501 7.05715 -12.8325 -10.2059 7.77337 1.34038 -4.46204 2.77319 -3.15393 8.21794 9.13533 -8.34083 2.13295 2.18472 5.44311 4.48258 -13.6117 -9.2136 -10.9815 13.7665 -2.43916 5.23158 12.6107 9.88101 -7.0841 13.5343 6.33004 8.40032 -8.28904 -9.54086 2.32201 -3.19769 5.34271 -1.2357 -12.9335 -9.84713 -12.9221 10.9565 -2.22644 -10.3597 -12.5631 5.02943 11.0021 1.2368 9.97169 10.9337 8.52941 4.22742 -7.52386 8.54437 13.193 7.62217 2.98769 9.0102 -1.00808 1.34151 5.14444 10.522 -5.64364 2.48436 -2.39295 -13.6328 -8.64905 -7.71162 6.17622 5.43888 -13.0538 8.92011 9.15681 -5.67582 7.95466 -10.7323 -0.181375 9.9093 -9.89645 13.929 5.92514 9.21733 10.5413 -10.2044 -2.49989 10.5483 -3.79596 10.0377 4.58121 1.27909 -8.59078 11.2712 3.96544 -1.48731 7.35315 -6.06108 5.10173 5.39052 -13.9613 9.98288 4.83797 -12.3717 0.69071 10.0022 4.87316 -4.63321 -3.19283 -13.1594 -3.64354 -12.9054 -8.05872 13.0153 12.9517 -10.2602 -8.63619 10.2593 -9.00771 -7.99732 -4.95518 -6.6811 2.0688 12.7696 1.34216 -2.7613 -13.7601 -8.6373 4.45062 -8.6577 0.0556319 -3.41136 2.83482 -5.69994 -13.9421 -11.873 4.94886 3.23577 -8.35603 13.9584 2.10758 -2.72651 7.21191 9.82434 2.27287 -5.47613 -12.4044 -9.00941 7.61451 12.6925 11.3797 7.7431 -2.7128 4.61777 6.58667 6.96495 0.266973 7.52143 4.31535 0.580787 5.65597 -4.31784 -8.68798 11.9776 -13.757 -9.69731 11.5041 10.3758 -0.833674 7.5278 -11.7733 4.36144 3.95029 -1.07062 5.06105 12.3487 3.14367 1.2742 1.22408 -8.45182 -11.2114 -10.9201 9.63253 0.253584 -13.8658 7.79372 9.13223 0.944983 8.09849 1.76453 -1.44492 10.0579 -8.69976 13.6316 1.58474 9.34556 6.95627 -2.9035 6.23958 -0.924751 13.4826 9.42283 7.0524 -2.00354 13.9034 -1.10595 2.70235 -12.2184 7.81761 10.1343 -1.59134 -12.6026 4.12025 -6.20663 6.12569 12.4528 -12.0328 2.533 10.342 12.1306 -6.7681 12.4377 6.6728 7.6409 -0.0773098 8.1254 -1.29291 -7.77408 7.33155 9.07072 -6.99273 -8.94861 5.08052 -12.4851 -6.26574 0.303764 9.0556 -10.0435 11.6779 -3.29537 -13.8048 -5.91253 -0.0486511 -11.5199 -0.587874 -13.4797 8.0662 2.91902 13.3677 4.71273 0.0177496 -10.6423 -13.3819 7.09789 2.22718 -11.9262 9.60609 -13.0493 8.70178 -3.74904 -4.68934 -1.04416 -0.334671 6.08176 -9.78745 5.48353 -5.68079 5.94012 -3.10734 11.9705 -1.28027 13.1217 10.3239 -0.0607492 -10.128 -9.18674 -7.09775 -6.65993 -4.71633 -7.65615 -9.28931 -3.544 -8.41302 2.89672 3.48224 -12.049 -3.92308 -9.09196 9.39924 -5.05185 10.174 7.05893 -11.599 5.15022 8.19935 -11.7197 5.92513 -10.2694 -2.20438 -12.2904 -6.15343 1.49243 -4.19147 1.80085 9.88199 -6.68659 -1.3825 0.731081 6.81761 4.13572 6.86695 0.104332 -6.05897 -7.71166 -5.81183 1.29071 -8.77256 5.0669 4.44664 -11.3811 -7.04991 2.15561 5.3587 -6.47157 13.3511 -12.5838 -6.68153 8.97322 -0.215728 11.1599 -9.41095 7.70187 1.58408 10.2401 8.92105 6.22165 5.72488 11.71 5.5867 -8.24946 -9.88143 4.50419 3.24979 -6.65298 -13.4215 -12.0282 12.2374 -7.60736 -7.62099 -3.84016 11.8076 11.8792 -9.53098 -12.8651 -9.24776 0.925671 3.71295 12.6782 -1.86987 2.39349 3.98976 10.1371 -3.69828 -3.2637 7.08294 -9.88428 1.74581 2.21684 -4.66038 -11.3373 7.20817 -6.97025 -5.9509 13.7969 5.46191 9.07001 13.2412 2.77744 9.21243 -11.5281 -4.86882 1.02782 13.2944 0.880907 3.18081 6.01602 -9.18977 12.9882 -12.0972 -8.26294 11.5006 6.12689 6.32885 -10.6427 6.36505 -5.47663 -13.1883 2.45886 -5.77079 -7.37303 -2.17435 -13.0958 -1.23902 8.96926 -7.05233 -8.10329 3.18569 -3.99502 12.3894 -11.7367 -1.73737 -3.87262 3.64133 11.6559 1.28146 10.9658 -4.96687 13.2827 12.2894 0.412346 -6.02333 -11.0217 -9.92361 -2.16668 10.0153 -9.59582 9.07069 -6.55139 -11.8065 -5.41776 -0.782255 12.9337 5.12194 -4.92377 -8.56841 8.80423 1.99197 -5.29479 9.46803 3.7744 3.93719 7.77982 2.27996 6.25024 2.58851 3.81931 13.0155 -9.11807 9.67157 -9.00258 -2.64747 -6.57228 13.9543 3.18536 6.00085 -5.94942 8.13535 8.10287 12.6166 10.2549 -1.56215 10.6113 -8.3835 4.51222 -4.17814 -1.0648 8.97729 7.30843 -3.67691 -0.497124 -12.0453 -1.53925 1.40254 3.10455 -0.948303 -11.1458 6.17843 -1.42367 -9.07712 9.18158 -5.50918 6.48821 -2.59236 -9.93212 0.54706 9.96722 -9.57932 -2.84419 -4.72153 3.53229 -0.774406 -0.631142 -11.6465 -0.713592 -7.44006 1.37998 -12.0339 -13.5071 4.24357 10.4887 -9.11137 11.1264 5.87829 -7.99638 -2.09182 -6.83907 9.77713 2.09493 9.61415 3.38541 3.0359 10.0724 7.12556 -10.5492 -10.3439 -3.42996 3.89382 0.59576 -8.83752 7.61832 -11.2938 -5.48445 0.888582 -3.39621 12.6906 3.87709 -0.344009 3.89458 3.51956 -3.78987 7.62424 1.35791 -5.90667 -11.3103 -9.89136 -0.221987 -10.2392 4.32892 -7.33758 -8.3348 9.02536 -11.3678 -6.30031 8.3676 -8.57142 -5.16857 1.36774 -0.228464 12.4541 12.0943 5.75766 -9.45426 -2.9525 10.8146 10.6351 -2.99402 13.1914 1.79915 5.94095 -6.84399 -2.96495 5.84231 12.1585 -11.8802 4.47959 10.3198 -4.84834 3.63398 6.75691 5.77583 1.58423 4.54447 -12.6511 13.6796 11.3636 7.28164 -3.77612 -2.37314 -5.27209 -7.26563 -6.45032 -11.7366 1.87905 1.83754 0.225786 10.4183 -0.972539 -10.4526 -6.07618 4.45042 -9.13015 -3.67278 3.13589 10.279 -9.69683 1.23099 -10.6481 8.19498 9.25801 -7.1529 -1.91458 9.57299 -6.14181 -10.4927 -4.65842 9.55968 13.9214 -8.59248 3.91584 10.4753 3.14818 11.4577 10.4746 -2.96398 3.65669 6.61721 4.73649 -4.74353 13.1863 7.48251 -13.4305 -11.4846 2.1186 1.45288 -4.52385 5.04064 -4.31304 13.4022 0.619758 -12.9038 4.30869 2.8456 5.25963 12.7542 4.28145 11.6975 -9.84958 9.60237 3.00219 3.35864 9.52929 4.87588 -6.14901 -0.128792 -10.4084 -7.82024 8.63337 -10.3909 -13.9325 8.66018 -9.65286 -2.25559 12.0502 -6.70276 -8.91946 -8.64088 3.32975 -0.663238 -3.2858 -13.3932 5.23017 -5.6591 -2.53208 -11.8593 1.37343 5.54457 -10.5358 -9.09199 -8.66923 -4.50376 -11.7412 0.463373 -11.0476 -0.176067 -13.3694 8.62763 13.4833 8.63374 7.78137 0.544414 -0.563144 11.8174 -0.95676 5.55426 -11.4289 10.3762 -6.13465 0.22857 -1.17211 -1.98581 -2.55385 10.1123 -11.2604 4.3511 -12.6646 -5.43912 12.7485 -0.0265617 -13.765 10.2506 -12.6557 12.0312 2.84336 -13.483 -6.151 1.62629 -10.2714 7.03065 -1.80201 -3.98225 2.06729 -11.3221 8.77525 12.7975 -2.10106 11.8332 -5.39471 7.03379 3.25854 -11.9314 -4.58694 -8.60636 10.2555 12.2017 1.078 -12.8097 -9.18226 -2.34126 -0.779206 12.125 -9.35827 3.51174 12.7642 -5.48993 -4.21451 -10.4458 -3.20268 7.03096 10.7532 13.4459 0.297699 -8.51071 6.6867 -9.42784 -5.11563 6.53178 -13.4041 6.05849 -7.63952 -12.2812 -0.910438 -6.85494 -1.33967 -5.89277 3.30586 1.49999 -12.76 8.04218 -10.2424 -11.3453 -3.09924 13.4609 -8.76057 8.81915 3.12988 5.19932 13.914 5.46018 1.58463 -11.7702 -2.43374 12.9624 -7.32005 13.2747 7.62406 11.5889 -10.8398 4.9968 9.71397 0.496837 0.481302 -13.3281 5.52951 -3.67643 -12.7778 5.43318 -4.96571 6.67006 6.4576 -0.125013 -6.20164 -6.10799 -6.80337 13.7395 -5.67751 -0.926788 -10.837 -2.6707 11.7975 5.11001 -6.07462 -4.65689 -12.3876 -0.2336 5.86128 9.04645 11.523 -10.5049 9.86165 -8.74815 3.49478 -1.98207 -11.4594 13.0444 -0.675872 -1.09718 -11.9811 -4.96421 -5.72323 -6.00405 -5.07382 -3.58782 -12.9125 2.19338 4.89768 -5.45848 -12.0085 -8.08406 3.30158 8.26309 12.654 -13.2045 8.62247 -4.07682 -2.72654 2.23809 -10.2961 -1.07612 0.438253 -1.61515 -4.13511 9.08473 10.2638 8.97662 -7.76543 10.4311 1.14794 7.53578 -2.84797 -2.20258 11.8919 7.2606 -13.4058 -2.21856 9.71962 -10.6197 4.05711 -12.013 -12.4348 -10.0098 11.3824 0.585275 -8.66847 -12.019 -12.1245 7.21365 -4.46932 1.55356 -11.6558 13.4777 10.2886 -5.92371 -9.71922 5.17285 -5.21091 11.9922 2.71251 6.15375 8.89984 10.3425 13.0653 -4.50743 -7.67815 -2.94661 -2.92088 0.745049 -10.5784 -4.29081 -3.84433 -2.59975 1.62506 -3.14373 -11.8898 11.4411 5.67092 -11.4999 1.43397 1.27731 10.1115 7.15945 -5.8476 3.29443 5.45887 2.61269 -11.2927 -2.14455 10.3644 -12.2443 -4.67797 -10.7485 2.99855 8.94612 6.26986 -13.3401 -0.971258 1.38955 8.69612 -9.32228 2.28512 13.0055 3.20496 -3.90563 -11.8846 -5.00053 7.56053 5.73324 9.371 -9.52446 6.58541 -12.0071 -8.96382 4.88645 -9.13243 12.7476 6.98194 -2.47367 -10.2819 -3.12531 2.96628 -13.6302 12.1584 -11.6969 -11.9325 -5.57882 4.63083 -8.1459 -2.23427 4.24867 -10.9359 -12.2383 -13.4943 -0.840907 7.78211 9.75654 -4.10255 10.8772 -11.3632 -13.2049 -7.3172 -1.26978 8.43259 3.22701 2.96094 -13.5158 -1.28535 0.762251 3.02679 -10.4327 8.72562 -9.64856 -8.18522 -5.49785 1.39043 4.07648 7.47502 3.26088 -12.1118 -0.437291 8.41271 -1.56183 2.53832 12.2099 8.62623 12.0317 5.30093 -12.4112 -2.43442 -9.17633 6.96282 -9.48185 6.04838 -1.58281 -0.458174 -10.2399 -5.33719 -2.5896 -11.433 -3.28288 5.81649 3.06375 13.3138 -6.39155 12.72 -12.8626 11.7366 -0.906078 0.403221 7.0989 -7.83008 8.69681 5.55488 -2.01887 0.627369 -10.1301 -11.1826 -11.2958 9.66581 1.54794 -11.5451 4.75659 3.87024 -3.37654 -2.58073 -5.97954 -2.03121 -5.92827 9.95294 -13.4558 -5.28695 -4.21233 0.399289 -12.7751 -11.9955 -4.35649 5.98073 -13.6437 -4.96857 -2.12247 7.51996 4.92718 -10.9332 3.24415 13.8536 3.31153 3.94983 -9.63764 6.8677 -5.29946 6.5227 -1.11938 -7.94161 -10.7036 3.17161 5.21728 0.0292817 4.67486 5.32913 6.39416 -13.3968 -4.25788 -4.20028 0.0800498 3.52745 5.20304 -10.7495 -11.3843 -5.13907 5.54393 -8.57749 -1.81396 1.68951 -8.38491 -7.52945 -7.14443 -3.76129 -1.26519 -0.535869 0.42356 1.17359 -11.0513 2.96644 2.66919 2.06043 -0.320915 12.0378 -1.37835 0.211184 -13.2858 0.16623 12.078 -11.5993 13.6853 6.6797 8.44873 -9.31947 -5.13627 9.93597 -12.9138 8.39357 2.99705 -13.9709 -4.13128 10.9617 3.17669 11.634 -1.23001 -9.28526 2.28068 -0.00666293 4.1479 0.879887 12.2484 6.31913 2.74614 13.7655 11.6034 -11.3275 4.7052 -10.8345 7.23324 2.85702 -10.6106 -0.3624 5.38003 -3.02881 10.7027 10.6018 12.6896 -0.114468 2.02584 11.3122 -6.63643 -1.88537 4.12844 4.20325 12.4397 -4.56547 8.87414 13.4011 -10.5944 11.5244 3.68451 -1.54343 9.99472 -2.93129 -13.5558 5.5346 5.36226 0.616978 -1.5004 -6.15265 10.5015 -5.55504 3.96713 -3.3421 1.35134 -4.85948 4.19866 -12.3739 9.96428 4.33364 9.58007 8.44502 0.735093 8.07469 11.0801 3.87287 10.6127 -11.9629 1.36165 1.7895 9.55524 5.43698 2.91243 11.5788 6.03141 2.71968 0.235979 2.02726 -4.48771 -4.5112 -8.71243 -10.3667 3.89491 0.736339 -11.8327 2.52169 -9.11344 -11.2319 10.236 -6.94555 -11.8798 11.0255 5.15577 12.788 6.31732 -0.986458 -4.38123 -8.56621 2.13713 2.88621 12.8778 4.90119 -1.07942 -11.4435 -11.9144 -11.3062 -6.70313 8.34043 -13.3081 -5.87171 -11.4737 0.539826 -9.90346 -6.79019 -5.36667 3.35456 -9.35139 -6.01827 -9.48247 -12.4018 2.81566 0.931999 8.37979 -8.65483 -12.6192 6.28347 4.92171 13.3061 7.84565 -13.7787 -7.22342 -9.3873 -2.10951 -11.4855 -1.66101 8.78245 -11.0308 3.16708 -7.49545 1.78008 -0.850079 2.84242 -10.0297 -8.08364 9.59131 -3.031 -4.75713 7.0209 -13.0926 -1.94139 12.3695 1.17767 -7.87485 12.3445 -2.36622 0.876955 0.405995 3.87685 -8.75132 3.3816 -13.9973 -10.1009 -10.6463 8.409 7.3583 1.82274 7.42738 12.2473 -11.0006 -1.33637 4.33382 -9.86988 -4.49193 2.15083 4.49703 -13.3022 -1.4965 -11.525 -4.94712 8.79789 0.599236 -6.2593 -7.58985 2.54816 11.8055 -5.33332 -4.05195 2.46108 5.81264 -12.5039 -1.38565 -1.56679 -6.87289 2.6653 7.70534 7.59046 5.53839 3.42024 10.6829 -2.2943 -4.64253 -6.31472 -3.8919 7.09757 2.57991 -2.41686 -11.1996 11.8675 -2.62663 0.863118 6.65762 1.03087 0.216994 0.863601 7.34419 -5.93883 6.70279 13.8053 12.9581 4.77637 3.86294 13.2691 -3.99294 11.6008 -11.01 -12.3941 8.34736 -11.8771 -10.9955 -8.01833 -7.44841 2.83773 7.16604 -3.7969 -10.0014 -13.1818 11.0127 -1.20375 -12.86 -8.14431 -5.62403 -9.47813 1.95227 4.57445 -2.148 5.39868 -8.72108 1.27851 7.42431 4.45108 1.53187 12.4472 11.473 -8.61746 -4.75977 7.66249 -10.7873 12.497 9.35283 5.28552 1.07003 3.62342 -13.0449 -2.0084 9.50431 -11.7536 -1.33625 2.99801 13.257 -1.1163 8.14326 -8.32104 -3.14056 5.3359 -8.16756 -13.204 3.73158 8.47603 6.87298 -2.67447 10.5144 13.7233 -3.02025 4.84115 -2.08991 2.36812 10.2972 13.8339 6.1529 -0.991379 7.83745 -10.6139 9.8615 -7.44652 9.80759 3.55331 -13.1067 3.3711 0.232253 9.30294 9.22035 3.07287 9.05087 -10.2667 5.09187 -12.1325 -10.6272 -8.85249 -0.960757 -0.192209 -13.3965 4.92946 -5.5681 6.4432 2.42766 -10.7134 -9.19446 6.73213 -3.6947 -7.01672 13.6352 4.03929 -4.0719 -11.499 -9.11004 -6.2001 3.74711 -11.8424 -2.16572 -9.27145 -4.37224 1.7932 -8.71007 -5.74895 -9.79009 -5.52514 -3.22939 12.1129 -10.6382 11.8309 -0.840675 12.4123 1.49153 -9.05914 13.4334 1.91099 -10.4877 -9.48939 -7.38084 13.1699 1.01649 -10.6404 1.38216 10.2659 0.817975 7.66329 -1.57821 -8.94536 0.580405 3.24226 -3.83672 -13.0907 1.15898 -8.8711 6.37916 -4.79507 -8.52394 4.60318 9.93487 -11.5798 9.02634 5.26853 -4.78854 -11.5494 4.94124 4.77078 5.00546 -7.15015 -8.75677 12.5339 -3.59285 4.2382 11.4429 -3.67611 -6.16459 -7.38602 5.46386 -6.27036 9.4883 -11.6381 2.16856 -10.8109 -1.6396 -9.85596 6.9098 9.0102 5.4207 1.08718 13.0311 7.17376 -10.5604 7.36118 10.1102 -9.67167 6.29556 -1.13674 7.77152 -6.64856 -7.99435 12.6396 13.7804 9.20141 8.46114 -7.8199 6.76576 6.9509 12.1371 -4.07032 -2.39564 -1.03386 -3.58499 -8.83041 -11.2153 12.0993 5.33649 7.18408 -8.6823 6.59605 4.9443 -7.03774 1.15575 0.786834 -8.43773 -7.25008 -5.1892 