2.62335 -0.516176 -6.79054 5.35082 -0.0707696 -1.57474 1.59407 
-0.760931 3.60905 4.76789 -4.25277 -6.77512 3.38289 -6.93207 
-2.07127 5.78588 1.99275 -1.80971 -6.01016 -1.02292 -4.92512 
-2.48916 6.49363 0.348279 -2.98164 -3.82748 4.16357 6.5823 
0.273002 6.94666 2.12579 6.64773 3.06121 -2.58271 5.85523 
0.199651 3.97539 5.25856 -2.95129 0.723354 3.49129 3.72924 
3.43356 -3.39078 -0.227345 -3.6812 3.21989 -3.40217 -6.14629 
5.56014 1.08987 1.39679 -0.949637 3.11968 -0.301433 -4.06478 
-5.44204 -1.01208 5.1307 -3.66551 -0.954527 -6.03269 -4.54851 
-0.854623 -1.61683 -0.371364 0.375599 -4.15208 -1.53193 -5.20042 
-1.48327 1.28106 0.241095 5.46856 -0.154084 1.02799 5.47304 
-5.41063 1.40103 0.23766 1.97307 -2.01962 2.01774 -2.47721 
-6.69223 4.4466 6.7463 -4.62976 1.56476 -1.03997 5.49811 
0.27972 1.39541 0.973954 4.80096 -2.47822 2.00972 -3.94184 
0.0215235 -5.32047 1.43185 -2.75317 3.92634 -2.87266 -5.33243 
-2.52436 -5.18168 3.88318 5.61981 -1.33584 -1.98577 1.53321 
5.40928 -6.31221 -0.820405 -0.756809 -4.54158 -3.95361 -2.51643 
2.90944 2.1839 3.24282 0.88436 0.0418283 -3.36394 4.88307 
4.91208 -3.46825 1.81332 -1.83753 2.17936 -6.15132 3.69666 
3.30406 -4.04802 -3.71715 -2.39774 2.4573 -0.210004 0.896768 
4.05295 5.71709 -6.27787 4.99208 5.6022 6.67953 -4.48519 
6.68765 4.81684 -2.20493 -5.67282 -3.1428 -3.18587 -4.52869 
-4.99508 -3.99694 -0.117199 6.3625 3.5442 -4.35736 -3.38917 
5.35268 -4.27592 -3.3357 -4.31926 0.840359 2.76246 -6.47367 
-5.99081 -6.1143 -6.89661 0.234665 -1.18414 4.82428 -6.80032 
-5.35008 4.58765 2.52192 1.73592 6.18205 -4.3572 -0.476043 
6.24251 -4.35431 -1.31086 -2.38666 6.29719 -4.79991 5.43742 
-1.91612 -0.572108 -5.89267 3.37462 0.310316 -6.52761 -0.48344 
-2.52022 -6.70337 0.547022 -2.33678 -4.41222 1.55475 1.93239 
6.48336 5.44997 6.43152 -5.93297 6.3289 -5.79615 -3.90966 
-1.83193 -0.560196 -2.91884 -5.8467 -4.66285 -6.49526 4.96757 
3.97963 6.6925 -3.7797 2.93663 5.16592 6.02659 -2.61469 
0.924442 3.57699 -3.55742 3.0917 -5.03106 -5.2676 1.18891 
-1.79268 5.64088 -5.9351 -4.02072 -2.18519 -0.754401 6.80812 
-5.75878 2.42909 -0.199723 -0.735088 -2.20897 -4.39776 3.69782 
-4.96462 -5.61255 -6.49148 -0.956046 5.35493 6.94306 2.07422 
-3.03033 0.718314 5.00681 6.65415 -3.17293 2.38902 -6.67743 
-4.63973 3.13624 2.86479 2.67529 -0.733986 0.602784 -1.27855 
-4.34153 1.04814 -4.77946 -1.96121 -2.46132 4.3102 -2.04786 
2.647 3.69694 -0.780164 -4.92008 4.52138 5.01064 -5.7303 
5.23527 -1.56811 3.79086 -5.96624 -2.24742 -6.68062 -3.44912 
1.52534 -3.97516 5.42571 5.42605 3.0206 -3.78056 -4.55153 
0.570121 -0.829183 0.127028 5.70477 6.46432 -3.40274 6.75095 
5.01106 6.30161 -3.89048 -3.89397 -5.60438 -2.00698 1.50583 
-1.96077 5.26964 -1.22292 -5.04905 -4.90121 0.659072 2.48061 
4.10088 -2.31327 0.408327 0.529323 3.93977 1.67896 -6.85828 
-0.918122 0.112561 -2.39804 1.83919 6.1312 -4.23775 6.87083 
-3.82577 5.91963 -1.03007 -1.35518 1.9827 2.46902 6.99842 
-5.51081 -2.52479 -4.11875 -2.21685 -4.01276 3.076 -4.43002 
1.05971 -2.00604 -2.43935 -1.83586 -5.57721 3.02816 -3.36928 
-1.11591 -4.90012 -6.42309 1.70917 -4.15888 -3.63059 4.68127 
-6.8823 -3.07902 -0.583681 -0.934936 -6.59259 3.3228 5.85098 
-3.34043 -1.78598 4.89074 3.64658 4.75665 3.70069 -1.23792 
0.110209 0.91724 5.73007 1.16595 4.19659 -3.89171 2.90065 
5.98936 4.36183 4.4071 -1.8252 0.467385 6.38144 2.81896 
5.40507 -6.11647 -2.53704 -4.87904 -4.38778 2.21539 6.74471 
5.0629 4.80148 6.45342 4.2604 5.05197 2.48136 -1.28734 
-0.22619 -3.52439 0.747483 -5.34445 4.21647 5.91195 3.30492 
-6.85954 6.95945 -0.971747 4.29455 2.08759 6.4655 6.62152 
-2.63916 3.34616 -0.134062 -2.12893 3.61505 -4.30705 -3.77081 
-4.52371 3.63378 -1.93988 6.40838 3.664 3.98865 1.9975 
-3.90703 -6.66564 1.51467 -3.98117 -0.898065 -5.10494 2.39344 
-2.59697 2.64759 1.88967 2.26241 0.25082 3.52536 1.43254 
-4.2843 2.96233 -0.286285 4.63194 0.306537 3.16989 5.18935 

